-1.628798078404881389e-01
2.396898924838526956e-01
-1.469797283465194004e-01
-2.803779808207744750e-01
-1.281684523306637902e-01
1.345657592500967559e-01
-1.489652051100162911e-01
1.546485916764828161e-01
-2.229822301650125072e-01
-8.289545036812746848e-02
-1.264881121924751328e-01
-1.403930358622421937e-01
4.462109888290634319e-02
-4.900587330774069245e-02
-1.419162608847794951e-02
-3.645713220458343933e-03
1.138140536117301649e-01
1.259390358772706775e-01
1.115243989596340357e-01
2.051746683986859499e-01
-3.297361854563913425e-02
-1.692380072284133674e-01
6.843720970221207900e-02
7.752502484322056908e-01
2.010798236394722646e-02
8.480736780802326791e-02
-1.065887078625301077e-01
2.290387969775554144e-01
1.411869147872717722e-01
-8.486739890535339725e-01
-2.173032248787788723e-01
-8.250878255148282048e-02
-3.637582773702321415e-01
-2.372813470943499481e-01
-9.517454850559609048e-02
-4.464929646825591125e-02
-3.278503362482574901e-01
3.005345482950973479e-01
-2.389148881349551778e-01
-1.466054259753757916e-01
3.687378958880868640e-02
-9.300950661333053093e-02
-6.462930267531689921e-02
8.691613026007962220e-03
5.428282889873995432e-01
-4.923929957161681664e-02
-5.434850696392938829e-01
-1.929469083486359815e-01
3.291492563005253280e-01
-6.806993451874454593e-02
-4.828668633950519706e-02
-3.608579529153498749e-02
-8.041681688291182351e-01
-7.753119658659377023e-02
4.786568961390500476e-01
-1.170731300984324541e+00
-6.590471858341781508e-02
8.771292203645013330e-02
-5.040038467938147138e-01
-7.857103038942452322e-01
5.689481617355770376e-02
-4.273704289663559641e-01
6.536688643753082442e-04
2.923812128057162035e-02
-4.662930655590671325e-01
1.414525211296512597e-01
4.670514271925318428e-01
2.814838305823600395e-01
-9.604431791294446019e-02
1.953908202540895755e-01
1.564037511503322542e-01
3.392588117817608717e-01
-1.664642178803763251e-01
-4.759015412248767361e-03
4.615036091212871283e-01
-2.052772966039883851e-01
-1.316647556906498347e-03
-2.030802405685791512e-01
3.080988816499843908e-01
-2.077898114803594654e-01
-3.747955302667159427e-02
-1.340086307638459207e-01
-1.086165899335952978e-01
-1.152150501204811800e-01
-2.079646718338170816e-02
-3.951549882939442426e-01
-9.317396677850057207e-01
4.412976571394872788e-02
-2.381144328081021000e-01
5.768057862644807715e-02
2.144098160985662693e-01
-3.329680437331257181e-01
3.708177697935559347e-02
6.486451243696457203e-01
-5.868722083172790011e-02
2.423597717548618691e-01
-1.899047894196839031e-03
7.549573160787567683e-03
2.118947523777348629e-01
1.698357977925713524e-01
6.639541267999486684e-02
-3.778915459058537207e-01
2.380372024486069604e-01
2.446899263971356042e-01
-5.142301056869588022e-02
8.065783884865988795e-02
-1.174323099778456225e-01
7.492507948287714659e-02
-9.265144640649607133e-02
-1.210426427026468493e-01
-1.354152597970454952e-01
-6.678201449541973367e-02
-9.283563492588386198e-04
-3.437326673907795116e-02
-8.622278401884113375e-03
-1.155727311846070082e-01
2.579559649855694414e-01
3.213955127178812488e-01
9.743014869976858450e-02
8.964680478594325153e-02
1.670810515949165687e-01
1.395978323462997439e-01
1.656827695126231459e-01
2.055226762343317082e-01
4.992828306339786373e-03
9.071977519991438854e-05
-1.731457007900476935e-02
2.027069037227320347e-01
-4.543439178943108891e-01
7.643252078366223612e-02
-6.608087786146552012e-02
-1.521600882338758820e-03
-3.171120795504502737e-02
-6.643317954591355934e-02
1.061798327042961926e-01
-3.537681341100895049e-01
6.792823695823933805e-02
-2.524026409583490435e-02
1.583361341303802516e-01
3.490212722508767573e-03
3.199320391794284180e-01
-2.245992630001252335e-02
-1.522954646056775066e-02
4.091116333837051255e-02
9.182458073210833516e-02
2.437385659736902854e-02
-2.206350999773263599e-01
3.706579657776408465e-02
5.990910387535362119e-02
-1.051589190621513015e-01
1.990661988291264894e-01
1.326943158239235754e-01
1.004219732013698907e-01
2.353488551488950864e-01
1.646128078812073795e-03
-1.640199511724939885e-01
-1.664897559890661646e-03
-1.400659202074242826e-01
-2.633749468224308998e-01
-1.683874803342157722e-01
-8.361014913092890133e-02
-4.601301059647402991e-02
3.141079050987744675e-02
-2.378916024667883725e-02
2.651728929115625480e-02
2.256853526104453389e-02
1.888165029835090492e-01
-6.706027714829321251e-02
2.896371133659932373e-01
-4.117494584682633296e-01
3.291740404597738590e-02
-1.200127597510686900e-01
2.023719040310084372e-01
-6.117713898543249845e-02
-5.663436224587452550e-01
3.495377716143148461e-02
-1.130099155054287013e-01
4.614654366485755610e-02
-6.763252099548613255e-03
-3.012177586191355436e-02
1.604021131478555739e-02
3.075808478600079721e-02
1.360752210635179094e-01
-1.495911858822836227e-01
-3.011970096488545204e-02
-5.264976369553120428e-02
-4.388245921937825034e-02
4.774277245967618877e-02
3.155543856365507910e-02
6.300542085150942495e-02
1.583070334204573770e-01
-1.406778293465694718e-01
4.277994264619968540e-02
1.515078156781501928e-01
5.119545848926695258e-02
-6.945996289822719931e-03
2.444889903288537392e-01
7.312708209541818327e-02
-2.534150827394860417e-01
-1.197976051180274365e-01
-8.501787218394837864e-02
6.874133556185108018e-02
1.779946874609799334e-01
4.649889817331737119e-01
-6.928211135174756896e-02
2.130603912427091740e-01
-3.279772789797821830e-02
2.854810696325972563e-02
-2.445430126280570271e-01
-1.331321390683403438e-01
-1.115843819056593494e-01
-1.675718255800066059e-01
-1.699472879445396434e-01
2.237915225214678547e-03
3.598767255939244042e-02
2.047150340891434050e-01
-4.319555527272695566e-02
-2.537419819152078593e-02
-7.845663004259856299e-02
-1.526870803554276068e-01
-1.428012718839758444e-01
-3.970585177938983773e-02
-4.281267211068497391e-01
-4.362537764017608566e-02
-5.028930100983530077e-02
-4.834625380766552349e-02
1.027971010810675295e-01
-4.853745376405327328e-02
-1.585169706329044581e-01
9.733578358481302650e-02
-1.381376757939720701e-01
-1.238256211513728972e-01
-6.648010138132454117e-02
2.042321696059378605e-02
4.045320888604399256e-02
8.977396358369223173e-02
-8.051184583183793042e-02
-9.516613977090921939e-01
-3.724497924759433420e-01
1.967623168475532980e-01
2.294871813844328590e-01
-3.065312567996895249e-02
-1.184609729266247052e-01
1.487176130039040423e-01
4.618420477663069956e-01
-1.136709331853194699e-01
-7.512727229841199839e-02
3.317458438639317442e-01
-1.679394616731501866e-01
-4.967040793018131506e-01
7.140021244961380908e-02
2.294165792265064341e-01
7.654682849338143545e-03
-6.990945591317423990e-02
2.755040347009132806e-02
-3.609043081735794495e-02
3.489303593468910669e-02
3.857429416240338305e-01
5.787413138659558420e-01
5.662953548188537356e-01
4.210004532104876795e-01
4.950085192685897695e-02
-2.109565525018172738e-01
-1.546360275980393773e-01
1.873189100782351457e-01
2.884910201961076170e-01
5.293087952239212274e-02
6.829393028499120000e-02
3.535250915966257623e-01
1.124723039756888310e-01
4.783332163864084663e-02
-1.924406001930872162e-02
5.913086963307692852e-03
-1.863205670838489203e-01
9.894299468975527034e-01
1.361944485285808970e-01
1.514487031142971452e-01
-1.327236053324584997e-01
3.020166839629991329e-01
1.356788621682983031e-01
2.527171505829454295e-02
-5.778953287812221840e-02
1.523293463851210228e-01
1.957374643613295218e-01
4.846171497786560395e-02
5.123818672739365726e-02
-4.605302731240280556e-01
-7.927487897780067794e-01
-1.249694897810811056e-01
-5.642994399198948685e-02
-2.256661109769983187e-01
-1.340056981987875970e-02
-2.676593332606565512e-01
1.409435598081481278e-01
1.219090476583286065e-01
7.968495296731892275e-02
8.038530320354555711e-03
8.334927857625237801e-02
6.112650653111663113e-01
8.387743904054682786e-02
-1.528554782548766089e-01
-1.412291625203268390e-02
1.067379837311786678e-01
8.038343692870224544e-01
-7.123039223598530423e-02
4.202849385832266998e-02
-8.196809122802907466e-02
1.405664979249901803e-01
8.917561117129008119e-02
-4.645738498906429141e-03
-9.734475533014964876e-02
-1.271043222610304113e-01
3.574653386707335456e-02
8.077708720082012531e-03
1.507468782920880560e-02
-2.374437116474209519e-02
2.886147505003223979e-02
3.948576289261004901e-02
6.186125107533715223e-02
-1.404745333419205044e-01
2.954042260057296310e-02
8.331916298712428726e-02
1.135698262788685381e-01
9.408699354163074791e-02
2.607995552639765235e-01
-1.048527078526165918e-02
-3.669154288018924293e-01
-7.352977507582328376e-02
3.105472744150418116e-02
1.547471808353566569e-01
-2.206234646784266049e-02
2.163159395906790183e-01
-1.978649356626802081e-01
1.849402336115873666e-02
-1.029782643184728036e-01
-4.523672792025638933e-03
1.279714875186755418e-01
-2.397327292880500615e-01
1.455055344446859189e-01
-5.566829223234273649e-02
1.316859008352384841e-01
1.631733323215312295e-02
1.665984691372547344e-01
4.761130629941477954e-01
5.531437733386759814e-02
2.741468163603459351e-01
1.645235767002637406e-01
-4.801102791494171185e-01
-7.815545949340621523e-02
-9.077387504649903072e-02
-8.618564420088037359e-02
-1.320147041296394208e-01
3.246248033348090312e-01
3.235420235303727576e-01
-2.681950326852918648e-02
-3.432742442561632218e-02
-4.152312222359402089e-02
-2.334947000161872316e-02
-1.582181430577994374e-01
7.278287562784176157e-02
-5.895969150568664691e-02
-1.182757086214940301e-02
-1.026585613218025661e-01
2.773379422565717678e-01
-1.119633452540104851e-01
3.391939682719717353e-01
-1.655316990076005634e-01
1.045963480906562064e-04
-1.354422230220899553e-02
1.141199916388484226e-01
1.464337064360969332e-01
-1.081727754261434110e-01
8.833684578118985997e-02
-3.637932769855233284e-01
5.163046059432191415e-01
3.431191266267527018e-01
-2.061672234112029434e-01
-3.534786440443070110e-01
-2.441014159694608332e-01
-8.205315176351546391e-02
1.733315371144709127e-01
-1.810174485424743962e-01
-2.126547824398932196e-01
-1.117031799647533602e-01
-2.838205394883233992e-02
1.487043796960517694e-01
-6.392463974978537800e-02
-1.764087888420374228e-01
1.850639569213703983e-01
1.538820676897040100e-02
-1.399576580291456152e-01
1.261359904828618095e-01
1.437500511058546482e-01
1.351934796272470096e-01
3.029695994079605048e-02
-7.955708147987143597e-02
-7.180685216350272786e-03
9.260720917205861324e-02
3.699875989390312703e-01
-1.283156499560276533e-02
3.400086507022757193e-02
1.812433485228509555e-02
-1.482786584346942882e-01
1.753152027917316558e-01
6.468917021390604982e-02
5.975701166468342374e-01
5.483410090733148445e-01
3.021154068290378414e-02
1.416850202947275705e-01
2.603633680155532648e-01
-4.201750538422625164e-02
4.309010880004312399e-02
1.240018994898550164e-01
1.818398736700880258e-01
-3.505884418719525941e-01
1.298934002764810247e-01
-7.884966929760253151e-01
-2.597865203655469121e-02
1.768071907887227845e-01
-1.255066670013476327e-01
-1.705492831795550612e-01
1.767598272677978546e-02
-1.921851787930595745e-01
3.324234122105088063e-01
1.800301340696168484e-01
2.354614554224923259e-02
-3.243166739045051927e-01
-1.522600564862505446e-01
1.754089248490787178e-01
-7.238554061825014374e-02
-3.601495792082885783e-02
1.457190381314678873e-01
1.147037898729415389e-01
7.190282053990254205e-03
2.932499789377607247e-01
1.366983086645482404e-01
5.325325393058663037e-01
-5.352877879908686520e-02
1.439948178141431112e-01
-5.386852134338341314e-01
1.520820902018942267e-01
1.174362537173890830e-01
-1.644372157166337778e-01
-1.810909999979762666e-02
-5.618519575485812767e-02
-1.971285041787142756e-01
-8.822561462560475631e-02
4.475275274867473313e-02
-1.212268496787377303e-01
2.902794026600696298e-01
-8.402011867680869717e-02
1.116853968770705891e-01
1.158163271428575003e-02
1.191897711662611437e-01
3.708291834286262523e-01
-6.515981332549558580e-02
8.391510098578396082e-02
-3.813210789718520788e-01
1.556720312041401204e-02
-1.445938441541709252e-01
2.132363176546961669e-01
-1.329877001602567353e-02
-8.469236219034298463e-02
-1.056772731571699840e-02
7.347894717408150894e-03
-8.915665350341216155e-02
-7.973491352130578080e-02
-1.097542186623050864e-01
-7.247450177158645812e-02
-5.848894172106094275e-02
3.216038049236461319e-04
2.722229272813235165e-02
7.433435795812086411e-02
3.605709911224491693e-01
6.263971849454795515e-02
1.426152816490665332e-01
-3.261262159889440349e-01
-1.673704027702080377e-02
-7.206144553071448522e-01
1.786525682922876224e-01
7.859105250211742555e-02
1.778240570763378048e-01
1.725692505592050230e-01
4.872377247837905712e-02
1.701068706442369627e-01
-2.237590514641755457e-01
-1.933890756918010823e-02
-1.074555150053758817e-01
-3.430044548253873005e-02
1.790032796257541581e-02
6.027098034887233557e-02
6.743575572610471802e-02
8.138623437718975340e-02
-2.982496416686315419e-02
-2.887980856145123121e-01
-2.298595439968316723e-01
-1.052700605203180095e-01
-5.387343923758747960e-02
1.488168654863636919e-01
1.332348881100217375e-01
-1.394878575790167025e-02
4.591976263811122227e-01
-1.232160208713074107e-01
-8.891625133961421346e-02
-1.462670979112491443e-01
2.463201623843466401e-02
-1.267051677017984879e-01
4.178442696620817548e-02
2.431935582175578578e-02
1.694794143599470670e-01
5.264960323674666015e-02
-1.126055502329577872e-02
-2.806993909530532960e-01
-7.137698262298715346e-02
-1.751094874008611579e-02
-7.947881569965753457e-02
-3.006254464889868694e-01
-2.180732713513270915e-01
-2.676856828220463558e-01
-7.397300353647068283e-02
1.775633029382204242e-01
-4.833308569663245097e-02
2.559259483525159196e-01
6.464248516343835682e-01
-1.874510058571922932e-01
1.340515605391167930e-01
2.480327618733637884e-01
-1.308178770064999108e-01
-3.493056000106108949e-01
-1.367503355145351374e-01
-2.472610655097966792e-01
3.367010732232871284e-01
-1.077395460552270368e-01
-8.219446013103036408e-02
4.976242572672509579e-02
3.318005540517961482e-01
3.937792982008816306e-02
9.360064821066325577e-03
2.399196257242238589e-02
2.129435881140122055e-01
4.658788307784219596e-01
1.666173707454153552e-01
-3.489010714907706534e-01
5.013443612748569311e-02
-2.191965008387004588e-01
-1.982296075083311293e-01
-1.056309914913959314e-01
3.649113669732636372e-02
-6.130313290721756125e-02
7.462816553035936384e-02
1.796582636044451453e-01
-2.085351306242876068e-01
1.582168035001481898e-01
5.028631961699862180e-02
-1.906631019250771275e-01
-6.348758819113872742e-02
-7.489028424448638255e-01
1.471380246749388609e-01
6.334138126645853795e-02
-1.061733601704479002e-01
-5.822909450167121359e-02
6.504860486438661382e-02
-5.899654647098032806e-02
-3.940925457237430263e-01
1.339084786188656506e-01
1.094438767208501667e-01
-8.695718127488601124e-02
7.519107219073946358e-02
-1.320173114065416840e-02
3.366776786024676393e-02
-3.290566718322830986e-01
-7.694777726471443979e-02
-1.221740460369107745e-01
3.206373087804920141e-02
1.983129846307894739e-01
-1.438472304144815250e-02
7.894780635338280450e-02
4.908870488279564737e-01
1.895502918592657515e-01
7.802198208192578921e-02
-1.482999948369066213e-02
-3.536850335359144337e-02
2.833890274268785134e-03
-4.545193487990280279e-02
9.314116597110369544e-02
2.794438819642443561e-01
-9.579697658992553100e-03
-1.348367119283111829e-02
-1.740054617846141169e-02
-1.149628319250723535e-01
1.921028281019396822e-01
4.194471607475908775e-02
2.559158056283299953e-01
1.679442764057271359e-02
-1.778398387363352984e-01
1.841667942063645591e-01
7.720235316882856358e-02
-4.521476885862354272e-02
-2.977806427642715748e-01
7.731192443142892445e-02
-3.855351496746088902e-01
-1.386107871983154605e-01
-1.038558630288169415e-02
5.605840922760389755e-02
-3.482471379047860638e-01
-4.013426447484542969e-02
1.025090686092723774e-01
6.587109754794706618e-02
-7.743109252065782933e-02
-9.024055369445832878e-03
1.742721458790254807e-01
-5.214665252268851914e-02
-2.561284106476005573e-01
2.147803755761354405e-01
3.975040787505228559e-03
2.637450653206222517e-01
2.045811666211863888e-01
1.314671887128692485e-01
1.836485138362163039e-01
-6.320441279205213370e-02
1.370700107596836415e-01
-3.498557444407431744e-02
1.278308991355183166e-01
-5.582980212056878333e-01
2.242932983714219508e-01
-1.205899878289320992e-01
3.023904343483460253e-02
7.895153224710842466e-01
6.583252791512659297e-01
1.649971030591692867e-01
4.173647565319631991e-01
-1.668008423394936879e-01
-6.110601597049988148e-02
4.737245772312036890e-02
2.244840197591426167e-01
-2.860839428517639779e-03
5.822950121135167523e-02
-4.479149645150594383e-02
2.312091912930068771e-01
-1.422128296866047026e-01
-2.441569326346875943e-03
-2.481692639162838832e-01
6.843973627220327483e-02
-1.214766778335255558e-02
1.661918928675954754e-01
-6.458879609240061881e-02
1.215596740195917513e-01
3.160482526931771563e-01
-1.831133982477237965e-01
-1.288105401688136309e-01
-1.447694259024924490e-01
-7.378886895151901548e-01
-2.139620693812612634e-02
1.219858684133825200e-01
1.019156374600430348e-01
-7.684481148361087532e-01
-9.821952939159430684e-01
5.970266513996302232e-02
2.721991826927903091e-01
-7.873005110113263927e-02
-3.983511057049143878e-01
-7.621532486775479953e-02
-1.964481127726570298e-01
2.542718333007962239e-02
-3.006698106706615636e-01
-1.142591266009706230e-01
4.985829902222088661e-01
-5.890296115531359344e-01
-4.138521744750959241e-01
2.453731987917176782e-01
3.953965359836558030e-02
-8.796599220394424323e-02
3.085607956689795719e-02
3.215545964671434609e-02
-3.351330579328709591e-01
2.034435038219051251e-01
-1.319579867404326035e-01
-2.087886794994807671e-01
-6.263331136368054108e-02
-1.105302725004493059e-01
-8.863786677978761908e-02
1.096300459541369038e-01
-6.771261830403987880e-02
-1.627860838730008364e-01
6.522111935240432201e-02
-1.306438326113053272e-01
1.151764569177884945e-01
4.057356885962545151e-02
-1.730420172246585273e-02
-3.997945842633808533e-02
-1.740845962223541710e-01
9.786902083630895366e-02
2.859439488931593207e-02
4.454378679583586020e-01
8.489616255211376861e-02
6.036002065609427647e-02
-1.190694985255024221e-02
-3.614568142451014543e-01
1.779596158554252322e-02
8.924660972510123358e-02
1.355796058750148025e-01
1.931642225731174944e-01
4.798552459709254925e-01
1.277658353314726214e-01
3.454032401371097682e-01
2.415101966986516746e-01
1.590130906731740401e-01
-1.009880495846831733e-01
1.811595761873072419e-01
-2.668983721742677062e-01
7.954818316364052622e-02
-1.481098637164824094e-01
-1.983002528350450155e-01
2.295217949218890940e-01
-1.440160708027781733e-01
-2.834169109590108787e-02
3.450466664517633925e-02
1.273702586939551018e-01
4.844215496486092495e-03
-7.077156877818983061e-01
1.401791472281730122e-01
-1.195267285305986332e-02
1.650043462268455940e-01
2.369539023809457551e-02
8.068773091449105150e-02
-6.953850536111051694e-02
1.649889660765694877e-01
-1.954332717175829431e-02
-7.170179285518754608e-02
-9.560079490176065509e-02
3.057855021517255634e-02
-9.309678839043671050e-02
-5.433470925645905725e-01
-1.757053585250065719e-01
-2.924546628977590934e-02
-6.661874271958684313e-01
1.264124166372121161e-01
-7.404951767893952746e-04
-2.297156651188054788e-01
-9.432757750970577337e-03
-9.713386524739629768e-02
3.388926347441293535e-02
-9.671236315224809865e-02
3.425098148789607749e-02
-2.022769236647647614e-02
-1.278275547309761506e-01
1.134462284020976708e-01
-9.614375955655755923e-02
5.437244011178124330e-03
-1.571740906248686176e-01
-4.142933267769463024e-01
1.666034641014327577e-01
-4.766436544783440171e-02
-6.768082220211429911e-02
4.653575680782129353e-02
2.409268612802383802e-01
2.819612318019926733e-01
-1.766619250214835901e-01
-8.096474817704822635e-02
-1.447447791249787674e-01
2.581172463103760251e-01
1.447811169505483220e-01
1.436215144019783174e-01
-2.287560571061911796e-01
-8.211354507953777526e-02
2.860529011393401003e-02
6.712297010243928851e-03
-1.381605169916839959e-01
-3.959759562303288849e-02
-2.841106457366508464e-01
-3.004341216511376422e-01
3.147154810729050484e-02
1.369037029419799822e-01
1.592954365084378321e-01
-1.151134973620771967e-01
1.130381333187475273e-01
7.513909687664248327e-02
1.603671683549659777e-01
2.884719903099977056e-01
-1.562111704357222186e-01
-4.811332069055498373e-01
9.915685916028614544e-02
5.191586027352320665e-01
-2.026518544386693155e-01
6.079348401281572251e-03
-1.027034593169741661e-01
4.582417477347310725e-02
-4.129229687385314179e-02
-1.576214959890566147e-01
6.210702757941517077e-02
-5.381839888976629183e-02
1.200156385152071209e-01
1.223782331642117999e-01
-2.240171754291011841e-01
1.042182671464397803e-01
8.710123912738149121e-02
5.152171649162056583e-02
2.439614114528184941e-01
5.173878307739911975e-01
2.149041973154429686e-01
1.009116445404553350e-02
3.200377020000916284e-02
-2.036626740988821960e-01
1.494786084119476000e-01
-5.228156732859446931e-01
-1.213260313038337646e-01
2.846834266265866470e-03
9.317761800025249966e-03
2.140429341283153764e-01
6.930534344867099461e-02
-3.297805328974425659e-02
-9.630558830032445727e-02
7.399205412002421434e-02
-2.521251390947978344e-01
-2.197097007519234479e-01
1.129640565443619515e-01
-1.239279299593589873e-01
-8.025311170192324373e-02
2.423661482627298136e-01
1.366845164460067479e-02
-5.434366570506612287e-02
1.675274871769789342e-01
-2.101370493007565302e-02
-3.906999193429806783e-02
-7.929329415822009008e-02
-9.798411036883858394e-02
-1.128545162324096768e-01
-2.138036267478871932e-01
6.454007228307957755e-02
2.200531113785724746e-01
-2.138307278543314094e-01
5.090625018312039396e-02
-7.145909235740795229e-02
-1.188416461200669516e-01
5.854022358874702570e-02
-2.168406771554707013e-01
-1.231880580886511728e-01
1.028903278954904077e-01
1.528256236790600520e-01
3.687701375415639582e-01
1.682491319207475022e-01
-3.201842291930565021e-02
-5.185702284959397002e-01
1.914469206943050783e-02
-4.545540928585464768e-02
1.697471513382562969e-01
-3.721225119897765554e-02
-1.608840703124965743e-01
7.022598444310060306e-02
7.433104452175142152e-01
-1.343715604982673520e-02
-6.290684966622682728e-01
1.127223256356586246e-02
1.469910564725119828e-01
5.129520442866277730e-01
5.102605915276676729e-01
1.364210613558220486e-01
3.943927807199930080e-01
6.859020193748062433e-02
1.009646079405621538e-01
2.136599362981270872e-02
1.929318882861331685e-01
-5.209183085693881027e-02
-1.457648135229754061e-01
-1.344897342191762879e-01
-1.174260592124360958e-01
1.227333419356933242e-01
-6.451562149716615069e-02
6.434161150116132072e-03
-2.169350703832504529e-02
3.032119650573903979e-01
7.825896689342821955e-02
-7.795487614013938416e-01
2.289818884083840989e-01
-1.222976772411314278e-01
1.723661627750780467e-02
-1.428481553933045878e-01
1.085023598474134793e-01
1.232306727708943339e-01
-4.969060330701318556e-02
1.518533143141420072e-01
2.669805622968306480e-01
1.004573043385271619e-01
1.839951124992244280e-01
-9.034596948485376644e-02
5.620050556726043922e-01
7.949158889107663106e-02
3.776905572880783629e-02
1.106990871797102621e-02
2.700014646144306418e-01
-1.172132703244471025e-02
-2.057800745776946216e-01
-8.021136619606986096e-02
1.028909152761511292e-01
1.282029271274481297e-01
8.481634712174587754e-02
-3.006566045390839381e-01
-2.277122305667060864e-01
-3.215447487740455412e-01
5.416673380642072350e-02
-1.082622919911904735e-01
2.730490883713650452e-01
2.170219418606854356e-01
-2.886922525996010389e-02
-4.923158393195872784e-02
-2.194233225684761313e-01
-1.215873714292422525e-01
-1.566358725119562922e-01
4.658743685668458728e-02
5.971196339127129993e-02
3.362676363054879075e-02
7.695936557886733087e-02
2.395732970695547623e-02
1.205531983231198645e-01
-7.305136917815974185e-01
4.624007027129485303e-01
-5.661940135627629989e-01
3.488153613801732722e-01
-8.936645880661035768e-02
-1.648779176929135101e-02
8.822934030997464649e-02
-1.204265351023750125e-01
5.392679141295266985e-04
-3.410511833496848721e-02
-9.352593511192361375e-02
-2.606419058401722721e-01
-1.577404923668207226e-01
-2.945794860848918728e-01
4.108973287283292780e-02
1.997905647949222915e-02
-7.464707112850989257e-02
5.139439266755680552e-02
4.846158268337018987e-02
6.579980720380218528e-02
2.744604997280695180e-01
-1.644619508571987798e-01
-2.375734802811759611e-02
2.408970848349847524e-02
5.547137731095622831e-02
2.346588582894481786e-02
-3.561126833702035061e-02
-8.554265045269980605e-03
-2.361451518298200158e-01
-5.592924279634779727e-02
-1.242462704511809179e-01
2.791963842372466309e-02
6.064635623607195908e-02
-2.687365580707828938e-01
-1.414896576236535752e+00
-7.303845951625811406e-01
7.434547943236891054e-02
3.464299129395829666e-03
-1.347543576062261161e-01
8.780204608488505202e-02
-1.676378346065481679e-03
2.853167524129404109e-01
-5.390825078371542789e-01
-7.681159739494950421e-03
1.236371250653952453e-01
-2.717897371093690867e-02
-1.699598413449441014e-01
-1.254011156988420195e-02
-3.289870176224079460e-03
3.915837314597276492e-02
-5.987004797941947870e-02
2.992646749665388208e-03
-2.649761466619770037e-02
6.928333289926846827e-02
-9.114509876625503937e-02
-1.298277631384255337e-01
4.487360165336384821e-02
-5.354535854550499518e-01
7.826901770741019337e-01
-1.653838127587710927e-01
9.402493802406346191e-02
8.857923828521965803e-02
-7.079327090515638576e-02
1.366785824464842800e-02
3.340822049900717405e-01
1.860586881388532898e-01
-8.762967469556079969e-01
-1.469545629972499601e+00
3.021643368773737626e-01
-3.283423872216054695e-01
-3.093062440518224432e-01
-7.293347646982241417e-02
-2.163169456693005699e-01
-1.789838623028939812e-01
1.376993524328371243e-01
-3.263160446229556033e-01
-3.772104985415909995e-01
-2.163608928842483126e-01
-7.838057370185130823e-02
6.461839710271932713e-02
3.534927611848591444e-02
-3.797032208214644322e-02
1.016822958869388442e-02
-1.609805331027459874e-01
7.159936503104531724e-02
-2.129399792166583871e-01
