-5.450854019721823596e-02
8.458583473525263519e-02
-7.714598980826448127e-02
-1.059612224181647189e-01
3.091862988412500193e-02
7.713137204029596461e-02
-1.517350206536552393e-01
1.567839750622936068e-01
-1.308692216808139408e-01
-5.651134656578537391e-02
-1.023079094704710916e-02
-6.552118549671390180e-02
-5.507166732677421309e-03
4.236753140078771546e-02
3.253603208564038313e-03
6.139168196653206622e-02
1.026199746011727809e-01
6.793081409138958249e-02
8.661900990394215405e-02
-1.419580358731301756e-02
-1.111260078581099119e-02
-6.423015551947515445e-02
-1.047686575356192307e-03
3.815240045003013836e-01
-1.569328902438034282e-03
3.019560271198867482e-02
-5.375687959512442937e-02
1.695792626779557728e-03
9.372554376620123584e-02
9.172574192434126972e-03
-3.747946816446003915e-01
1.530060116051402616e-02
-5.231639463242949983e-02
3.271126951976283115e-02
-1.550523349614894020e-01
-6.761219518910545345e-02
-1.320255832065637958e-01
2.115584007839039493e-01
6.061544984797052199e-02
-7.408247254776856305e-02
4.831348911371318583e-02
2.628922035423691007e-03
6.691955624383363888e-03
-2.949441073043577652e-02
-4.280774216771072310e-02
-4.803716915774855446e-04
2.081493798324158262e-01
-4.316928370686235611e-02
-3.136593370742504217e-01
1.101588045035511304e-01
-9.699505189016771611e-02
-6.799413125002348735e-02
-1.408213504771269227e-02
-1.204251659246241037e-02
-2.936078756190993455e-01
-5.887186012543674796e-01
-5.584131115068081963e-02
2.808826935167855338e-02
1.704053170583112453e-01
-2.847278425692110690e-02
2.969710326607391884e-02
-5.365662841003185912e-01
-2.690112597232715008e-01
3.940093771593888156e-02
-6.736569216480684267e-04
-1.559233490661877664e-01
-2.327565200702218923e-02
-1.218793154399443052e-01
5.388502429392663662e-02
-6.162953844314587523e-03
3.337873116775233462e-01
6.791476798455624297e-02
-3.039259259062151650e-02
6.143907654380827837e-03
4.021655917607298014e-01
-1.882578006968823325e-01
1.792456666481296451e-02
-7.466443318827767350e-02
2.112470890498051590e-01
-6.435840238978360328e-02
-3.471998740416142037e-02
-4.132314855820130167e-02
8.476795770354251386e-03
-6.053567446357660531e-02
7.348066200242116264e-02
-6.596638737935429930e-02
-5.998134544940564306e-01
-1.777841647442015283e-01
-3.664671860290816957e-02
-1.273037930540057427e-01
2.081031551631754364e-02
3.275107415787480991e-01
4.933904814535606392e-02
-1.587773092092930813e-02
7.332597138559934780e-02
6.226104185821720871e-02
5.912098557307349928e-02
8.607604751339880539e-03
7.984605325381101404e-02
6.123735464984985527e-02
-1.480548566873076954e-01
4.381886711269310924e-02
8.888736687284162774e-02
-1.259799645336276974e-01
4.547573656165705691e-02
-1.260417365912555598e-01
1.715103106467427479e-03
1.471166643676449504e-01
-4.764919906861476984e-02
-9.240426377920489542e-02
-5.998082503636111701e-02
6.564489377415054505e-02
-2.160319973538617211e-02
-3.202412547271241312e-03
2.650867104158226295e-02
-8.509240711717614961e-07
7.301678179660887891e-02
9.713030348937438940e-02
1.552274781447434554e-02
1.861462532965557637e-02
6.842283323643495729e-02
7.241068531159312871e-02
9.176767778890075611e-02
6.324941857561243441e-02
-9.917774653479489999e-02
-8.293348072359315454e-03
9.207771159486179136e-02
-3.733797165064704077e-02
-2.176825340751204207e-01
8.832465491108575095e-02
-1.343327466176856382e-02
3.338403569431891166e-03
-4.640355409168681527e-07
-4.099264519393556322e-02
3.560607241125478967e-02
-1.511045563116584778e-01
-1.339338207158410621e-01
7.389987866839045627e-02
2.364673833530545749e-02
1.015108770618472073e-01
-4.561118719489627715e-02
-1.677991896012647269e-02
2.279265709032753107e-01
1.198109600431582645e-03
-1.408121727509556616e-02
1.835065559157759291e-02
-1.479517346865603933e-01
3.384062126295735162e-02
1.022004584361840218e-06
-1.644136982990674662e-06
1.819620537353365194e-02
-7.773155211148038979e-02
6.779624905510410471e-02
3.635692571879430707e-02
7.164466365016570765e-04
5.930964287657712608e-02
6.758595822709774492e-02
8.272260060725403208e-02
-3.301329132143720341e-02
-4.224539907287486705e-03
4.188245779270939606e-02
-3.207180027892722607e-02
4.081114387639065560e-02
6.391096765789104628e-02
-1.778468330442804224e-01
1.268939450754452136e-01
-5.096839136931413661e-02
-1.979648810397168131e-06
-1.808579674044637903e-02
-1.121240153480023566e-01
-6.261226014743868917e-02
-5.032121141836176995e-03
-4.388941706716976976e-02
9.187882635615549423e-03
-3.417007784664816833e-02
1.447145446013434374e-02
-3.269812018735176323e-02
9.739245212000027796e-02
-1.426007098777096714e-02
8.787691549145830450e-02
-1.677951333777949819e-02
-2.440592636772988266e-01
-1.950708291565498090e-02
4.229947439576012963e-02
-7.281981455860322971e-02
1.185890779766163583e-01
1.035921215688368618e-03
-2.842896849209265997e-01
2.708078240896051592e-02
2.865159141878603419e-02
-4.829720227470746252e-02
-2.733075933167750105e-02
2.043113139018446975e-02
7.696388177784205947e-03
7.650117746916609840e-02
6.337245278151397432e-02
9.995614775474451208e-02
1.179804002904807740e-02
-3.802477222524489053e-02
8.120125775845182109e-03
-5.246493044488222818e-02
-3.355480837397237259e-04
7.031811920390924724e-03
1.416610151687617003e-01
1.782565058224541352e-02
6.044268893137901737e-04
8.809064892107933142e-02
-4.662406645501576685e-03
-6.579847985255689313e-02
3.783909529392592147e-02
3.868259740466334362e-02
-4.664023473632627342e-02
1.522248512419866195e-01
3.833048091617864694e-02
-1.721039003166962844e-01
-3.081911283421369385e-02
6.398601301101629335e-02
3.187163019164382383e-01
1.699059940664900958e-01
5.898842400358800947e-02
1.591252579809476764e-02
-2.952335028556455493e-02
-2.624924992954305938e-02
1.683293309647830235e-02
-4.328907223100868923e-02
3.622039531017307717e-02
-3.233947638253302503e-02
9.818463487423895880e-03
-8.844120328529371522e-02
7.788456257906711810e-02
4.015777926317793539e-02
-2.413558987964777372e-02
2.947056049481821392e-06
-8.188996977875055705e-02
-1.116026706299506344e-01
-1.269041618350137957e-01
-1.591914211246058808e-01
-1.921802613555156219e-02
1.816353035982314623e-01
-2.991144583304564206e-03
-1.956100887758282364e-02
-1.383484920259320239e-01
-4.535368950950205424e-01
1.415274696554041922e-01
2.318787105131450092e-03
-3.873325480970243179e-03
-1.210489916261635185e-01
-4.646306910239252075e-02
3.391264860646977380e-02
-1.230562404938098479e-02
-1.388211628518084828e-01
-5.593750590697820282e-04
-1.325079156181539486e-01
-1.808024977651424489e-02
9.690991995385816668e-03
-4.287083230739544698e-02
8.364082765961548815e-02
2.643747413418951961e-03
1.055587098031478821e-01
4.019465546497279912e-02
-1.570074144004959121e-02
-5.183508296855188213e-02
-4.868159431690705259e-03
-2.525606507523520464e-02
-3.699357723134046316e-01
-1.579175817562996909e-01
1.659043437197944004e-01
1.707960470849653051e-02
5.933384413231940907e-02
-6.495109750048280728e-02
1.664266546417865200e-01
4.352896555505091775e-02
-3.106778141373142330e-02
1.112963461910751878e-01
-5.160938458385819216e-02
1.186775822626323813e-02
-1.673075550001232870e-01
3.693162095962052027e-02
-2.555814961997594503e-01
1.372536904774330491e-01
3.418425461526861976e-03
-5.240088465705588366e-02
1.284161706549644469e-02
4.220345103420161115e-01
2.215183367978352524e-01
1.908710675486046948e-01
-1.468098827355379388e-01
1.894793554294227078e-01
2.795678741566739317e-02
4.048153621932760321e-02
3.160092136462201717e-02
2.589057802003718600e-01
4.932935645619650200e-02
3.125094657283442998e-06
-1.728729686512151670e-02
-1.943109882537456946e-07
-7.477294256330806188e-02
6.610145682874479789e-01
-2.123373798842689841e-01
-1.585191752902258625e-02
-1.304322194645448907e-01
-2.868554003879571213e-02
-8.679835244349429213e-02
5.909854499234317576e-02
5.940333502014768369e-02
-5.436885993477677537e-02
-2.618411839737489269e-02
3.544311240760355391e-02
-1.058638978081917633e-05
9.764545787342600314e-03
-3.670525429588565244e-03
1.156730164571484337e-01
4.326080367960458140e-02
7.612735162434307356e-04
-4.104142357832524235e-01
-4.263474260550794565e-02
2.239603729218246924e-06
-1.134595933215660525e-02
-1.035091696178764981e-01
-1.053511460966903984e-01
8.822917065269111903e-02
5.214661790594679602e-02
4.265746420315188331e-02
5.925901276936290651e-02
3.225227070795789325e-02
2.740800070785228693e-01
-1.033166880382637015e-01
1.380117651582976057e-01
-3.934568412464842116e-07
-1.785442838710488362e-03
1.090918788427586578e-01
4.368266711897750842e-01
3.874341156576561335e-02
3.427205514464837927e-02
1.155037969637121714e-01
-7.004231034010999224e-02
-6.888628378876493485e-02
2.655936878514406855e-03
1.596923639742120482e-02
-3.822407609477126295e-02
-5.112608203689950059e-02
2.847100795344352162e-02
-7.129097569226136577e-02
6.652865558310118443e-02
1.073789493009847940e-01
1.771332438554737987e-01
1.078539871421797629e-02
4.872140537862167109e-02
-1.584850025952932173e-01
1.307109961972313383e-01
-4.584369698357320527e-02
-5.278664564624562026e-07
-3.204407820898128693e-07
4.275341604360129860e-02
8.526068548566771710e-02
-8.920250188156335358e-02
-3.000174139819186594e-03
7.335243847091406540e-03
4.068994806611651860e-02
-8.731695680319219444e-02
7.247975106992401995e-02
-5.594594956339533215e-02
5.511014781938260165e-02
8.305757687074961926e-02
3.789528935625836037e-01
2.779701262319812793e-02
1.343474446418420898e-01
-5.570052765175317194e-02
1.273999268516671501e-01
-4.939334108551261815e-02
-1.357141323857688209e-01
1.402102018945871886e-01
5.122026846933505628e-02
-4.405742007164680125e-03
-1.539225171532320260e-02
2.180569467484698432e-02
-6.127016364587737490e-02
-7.821458789211713225e-03
-3.593636332666975963e-02
2.576146259382654582e-02
-8.002231481690277870e-02
-2.760031158415528207e-02
-9.335104456813812790e-02
1.468915374700750888e-06
3.820350757992990731e-02
1.491068415034206840e-01
-6.792670988964860657e-02
3.575652497696406307e-02
-1.157272306304465009e-01
-1.768987392777115683e-02
4.928459800612907671e-01
1.276619430016896484e-01
-6.515779916689033724e-02
5.599452084962042858e-02
-1.763276121504095961e-01
-1.365084638478485622e-02
-7.786668186162667982e-02
-7.045119965262114370e-02
-1.755533212265938392e-01
-8.892620513074175892e-02
-2.332462538719454540e-02
-4.173372370224394390e-02
8.873788461346764078e-02
-1.705507031151140204e-02
-7.028990792168524071e-02
5.096874683914047466e-02
-2.962593704273049078e-02
1.177634689786936362e-01
-8.800089877069301736e-02
5.727882911904534635e-02
-7.326297830863714999e-02
-6.869750676569047303e-03
1.342354143494804523e-02
2.156918162868689537e-01
-1.422225702152634037e-06
-1.637535105889849005e-02
6.250716130814108762e-02
-1.065767137067022419e-02
5.953212470558468666e-02
2.685910013529090382e-02
3.037750798511944517e-01
2.183787880774928358e-01
1.588502483605967394e-02
-5.452000188695736715e-02
8.588125851003704236e-02
1.023827516637165758e-01
4.668308667414659135e-02
3.195517769399483618e-04
4.002320396835556959e-02
7.223235125444028848e-02
4.394509085976411322e-02
-9.157228197811861925e-02
-3.995728205248442744e-01
-3.516419191820565476e-02
2.656496258865694710e-02
-1.449982856624084104e-01
1.702584873070423291e-02
-5.588559326909132291e-02
1.622665859116043663e-01
1.001202609855229575e-01
-1.818758237405902409e-02
1.054932747362750771e-02
-2.334002715339230094e-01
-8.111589625086212951e-02
2.302710870384224937e-02
-6.626702486118303537e-03
-3.508468435734900248e-02
4.425897489327924872e-02
8.036130257759527273e-02
-1.911900624231752241e-03
1.261288348155193140e-01
5.115851129453773821e-02
1.207141653191721731e-01
-2.341484718302434473e-03
6.418701890034940460e-02
1.270946174652109739e-01
5.005291439257907732e-02
1.005187973871925489e-01
-3.466471292932901127e-01
7.084120250510405128e-03
-3.117941768821043055e-02
1.048587935598526283e-01
-8.254387275012124714e-02
-1.141602319478802335e-01
4.399914181258064022e-02
1.986845259716637710e-02
-4.882702305506120277e-02
-7.425158682976482072e-02
-7.869579804665796652e-02
2.787887092016974599e-02
1.547010259808693534e-02
-3.637170573700145709e-02
1.312059997654252408e-01
-4.139261064319011904e-03
6.139190792707563404e-02
-8.707699894650332284e-03
4.863687998905729531e-02
2.467258957827145049e-01
3.480071867905796981e-04
2.606196500312700157e-02
-1.573880253140945984e-01
1.487539385309733463e-07
-5.441692103136682064e-03
-1.583278471840506851e-01
1.496958544447780648e-01
4.082107969337384068e-02
-2.978272391324225318e-02
-4.765740313412223229e-04
-8.703751234165031658e-02
-5.424105476444302659e-02
-1.610718148918382359e-02
-4.833355491979412361e-02
3.235881380302376310e-03
3.125390563727519638e-02
1.047910626654745686e-01
4.761096019903649640e-02
-3.277623464088492145e-01
1.519026266847480801e-02
-2.923590216165543598e-01
-5.305742212417412229e-02
6.584927262493865674e-02
9.217988271574610549e-04
1.019374564539420602e-01
1.298154385815391276e-01
1.582655614465388379e-03
-2.146064631568714853e-01
1.886738306657825813e-06
-4.215460255244870419e-02
1.115203684008075485e-01
8.355953520039535037e-03
-1.014760789430585036e-01
-1.526056846588700611e-01
-1.034569780932958621e-01
9.737708282436469479e-03
1.562616249728507600e-01
3.596503493799484835e-02
9.533097541134204211e-03
5.105743220503059648e-03
-1.033998535211281267e-01
-5.295667342336252657e-03
2.737196193196719807e-02
-1.793600401543186257e-02
4.776330091386944005e-02
6.911539256942703102e-02
-1.562448069146502201e-02
-5.146156743119168018e-04
-2.799663789476909345e-02
-1.575772015981629914e-01
1.840051570876513262e-02
-3.230742508195662971e-02
1.320328834475672786e-01
3.126343428449934736e-01
-2.743053359604427409e-06
-1.220025314407946343e-01
5.369316113708426375e-02
6.819552185967253655e-02
-4.719481771420992733e-02
-1.050777943918874552e-01
-1.478888588095095095e-02
-1.123985663553117159e-01
-5.399720792080475035e-02
7.650041668675995610e-02
8.633410697621768382e-02
3.388544528969605896e-02
6.878696775913754891e-02
1.709187465187394020e-02
-2.404202633103714437e-06
1.093682445643466145e-01
1.763714979967492269e-01
5.460544831593401593e-02
-1.320890839484215595e-01
2.431472147212570059e-02
-1.289313820719051040e-01
-1.020592178950931184e-01
-2.921231136749916774e-02
1.097192732677731986e-01
-5.264650195748486750e-02
7.261983381230614765e-02
2.741471695734486527e-02
3.585267777001429484e-02
-2.217878449249273062e-02
-8.476933608392313302e-02
-5.793989280662441982e-02
-2.895548937380016397e-01
6.618433207531312923e-02
4.447785902391253321e-02
-5.804559197484153443e-02
-4.999475949257708302e-02
-1.303657126356709550e-03
3.392175462381791240e-02
-3.286425998028802975e-01
1.687928793402220656e-02
-5.384533386006482014e-02
2.953056281364110219e-02
6.290017956379397035e-02
2.506762841669770911e-02
-2.812713836398867961e-01
-8.650800763958783890e-02
3.908117647101330000e-03
-5.563103523049335586e-02
-3.057367058041819685e-02
2.178374776658108802e-01
-5.911985637479897672e-03
7.618621476661559255e-02
4.959425173920845031e-02
-2.097426584223974558e-02
1.308153025048223745e-03
-1.124168932646442409e-01
1.451993042443000179e-04
1.173670517182252432e-01
-4.610041640568911558e-07
-2.093923975539515748e-06
1.661025092508849269e-04
4.102705939855622042e-02
1.784039587995555065e-01
-1.297331430189378244e-04
-6.335810119628355885e-02
5.592926210464316261e-02
1.328043568059741886e-02
6.989918591333227349e-02
-2.452923607751409177e-02
-1.249521274686229005e-01
-8.826805557709628547e-03
6.313409561186161638e-03
-1.427464316018159651e-01
-9.438463451223116918e-02
7.885848405142619963e-03
-1.741529102120135952e-02
-1.490957099965724113e-02
-1.213780097752077125e-01
-9.493584096846460763e-02
3.175838278150271837e-02
3.081672275277790290e-03
-4.766984563541324868e-03
6.370328666093283410e-02
-4.419624080767186464e-02
-1.081893214506486622e-02
-1.834162986600806344e-01
1.037452988979785939e-01
-1.032282228431479106e-02
1.284461081918795711e-01
1.002075761802569132e-01
-6.478136597446994271e-02
-1.143114396447802994e-01
-6.037342663729781955e-02
3.157117878552239548e-02
-2.318128830772403504e-02
2.764643367360919424e-02
1.624741660166377152e-02
6.464617710668842110e-02
-1.687682445590986402e-02
-7.442699684460651888e-02
3.232602804226264448e-02
-1.923384068689130422e-01
9.896473117938142661e-02
2.620856959903897915e-02
4.721619099346591741e-01
2.106305729474775568e-01
2.323677806955468383e-01
-4.398678850341617569e-02
5.994256846116734205e-02
3.808343195839972856e-02
-2.482369114401607006e-03
1.612138712706253155e-02
2.481521967201096718e-02
-4.711164759587090078e-02
4.745614224413705062e-03
4.546250737263217434e-02
-8.012608215347592766e-02
2.359631490268362941e-02
1.960137854415816908e-02
-1.841757101614529754e-02
1.110683839696387648e-01
-2.048997260471357718e-01
-2.957104008280717067e-02
-9.054192152630091694e-02
-2.515119666287493616e-01
7.836482166478771216e-02
6.643000252919650751e-04
-5.083465769470627560e-01
-3.362588610602327277e-01
-1.258544846325118389e-03
4.524649021940484531e-03
3.143986682494622625e-02
1.204419367843580779e-01
-1.072405482868126481e-01
-1.037670142293360409e-01
-2.130875656742237182e-06
-1.204567967848605425e-01
1.001413922699216502e-01
-2.517069597148952065e-01
-1.508480316763302631e-01
6.176899465525396288e-02
-2.732040561514385499e-02
-2.816747099279228242e-02
1.303729591605377013e-02
2.048874608979744244e-02
-9.976792761302831491e-02
-8.349786251333971010e-02
-9.034275282504072857e-02
-3.292423753406458625e-02
-1.140084774826087000e-01
-3.251889483871401782e-07
7.718433922069135866e-02
-1.991799314596017292e-02
7.394281364153994229e-02
2.727699925025306796e-02
-5.938807165708791941e-02
1.381990914325467897e-02
-5.211304532805585005e-02
-2.025449242054441421e-02
-3.952719675943380806e-02
1.134170097229666718e-01
6.534151904282575346e-07
-1.196293499069479903e-06
-7.091057485765490942e-02
1.861297405718537745e-01
-1.064853740406327721e-02
7.628809082342936573e-03
-5.152745348002541609e-02
3.207802943432266907e-02
2.034927364017608264e-01
5.023991239329764907e-02
5.184562053205814258e-02
-4.700124081954614071e-03
-2.444090228264252096e-01
2.090211952263884711e-06
8.273407157747092455e-02
2.651790231659940100e-01
4.349578081953810182e-02
4.054895094079339485e-02
-9.519356639910070764e-03
-5.831797063071419984e-02
2.230110846319753246e-02
1.280176862284250205e-01
1.342286601322041917e-01
-6.726650981641504878e-03
-7.293315717935898446e-02
8.964467028591509290e-02
1.368994966838130156e-01
4.659987948720518275e-02
-1.596815562450315529e-01
1.694898988565221240e-02
-8.462094052027422167e-03
-9.984008807738722902e-02
-5.086820867348062353e-02
5.359807186237845050e-02
8.549788850684135466e-02
-3.073900922894622773e-02
-3.942385312398073022e-02
3.711614895660281938e-02
7.215805785015815856e-03
1.208749785688185835e-01
-3.518834710489249784e-01
1.147071820472521375e-01
2.373635868173994481e-02
-9.888956016321429066e-02
-1.016075061524760771e-02
7.706217784410014648e-02
4.780109614775530230e-02
8.761063587055662252e-03
-1.947876625104720451e-03
7.448642284490177012e-02
5.037521046228492921e-03
-9.119753229386858007e-02
5.507713882079288970e-02
-7.152224354565764330e-02
-5.487775173460785090e-03
-1.444499798089164122e-01
-2.996722555064072410e-02
-9.814779239600020244e-02
-3.641063185708827699e-01
9.181323550206722806e-02
6.429452287348839945e-02
-2.124844197950691294e-02
-2.136114085667291732e-02
1.405142811088655290e-02
9.555571962621949716e-03
-3.429371175306370617e-02
-7.265739048067836048e-02
8.407352292496528268e-02
-1.306530813483229754e-02
-5.836387174698985658e-02
9.186022357653507789e-03
-5.322819845010630380e-02
-3.325263170345956198e-01
9.826958103951054582e-03
8.181416960578868913e-02
-7.634087168515653332e-02
-2.443583390209266956e-04
1.341207656358674172e-01
1.900711977335047265e-01
-8.765377468959052731e-02
-3.931598534812263263e-02
-9.504550242348520916e-02
9.115516703890701178e-02
1.364588150143117296e-01
-1.129877585339754131e-01
-4.878671520638819953e-02
-2.970403991150582547e-03
-9.906838729611430749e-02
-4.623598838876352701e-02
-1.097799305159510019e-01
9.020987523808489394e-02
2.586511571491254685e-02
-4.301186322268895496e-02
6.664740537872153314e-02
2.156078364536367746e-03
5.537983174499180178e-02
5.314633502121149378e-02
-7.293054894060373161e-02
-2.684729121471840160e-02
-2.001639252168973260e-01
5.873133828318573280e-02
2.257937558826537960e-01
-1.391457910615318261e-01
2.183345044870200341e-02
-5.878313024302564416e-02
4.211613041807640151e-02
-8.733715146388366934e-02
2.590332741787280610e-02
4.998416673797891063e-03
2.159241433607912361e-02
-8.191713679373260892e-02
3.605868032952229407e-02
-8.873068888099563956e-02
9.521839236509846427e-02
6.058965709933602367e-02
1.348843286008051361e-02
9.439990293106907682e-02
-1.749575155733720105e-02
1.667612374559200306e-01
7.951738450449402640e-02
2.533870921296159373e-02
-3.022491188309703661e-02
6.881615867579175816e-02
-1.935699807346974444e-01
-3.242583366155017688e-02
-2.572945257472350131e-02
-4.838084633966000664e-02
9.536287345156496675e-02
-6.384533415687477891e-03
-3.239408926430553670e-02
1.354908737861715111e-02
-1.585863614730883830e-01
-7.619245202676860895e-02
3.516839739886501448e-02
-3.182913452354908107e-02
7.995660013888432338e-02
-4.306985832924170587e-02
-4.751936868316079809e-02
1.049053161734015832e-01
-4.051492006882841806e-02
-2.946603895306206672e-03
-7.126990603551533465e-02
-1.446138744518555078e-02
5.113855805721389397e-02
2.982011813807113748e-02
-1.738626278873316167e-01
4.175884613377853216e-03
-9.361808891331088733e-02
-7.747169156593049222e-03
-1.524560184619755052e-02
3.917462064294262997e-02
-8.041701339141764382e-02
-5.710869015003684768e-02
5.519490232385743100e-02
6.475310557856420179e-02
1.842056942102836270e-01
1.165709682954578059e-07
-2.559551403418677124e-02
8.145297154076794333e-02
-1.223287889455453546e-02
7.330783858125312913e-02
-4.008305999896645822e-01
4.179451333025900606e-02
-8.520627185195660258e-03
4.692505664365358153e-02
-1.933736855725188553e-01
-4.268821561153884198e-02
-1.195833268076778970e-02
3.549078764753503229e-06
-2.131978138489786304e-02
1.859869629290459431e-02
2.765169030333084477e-01
2.767548443880501682e-02
-3.629493113643499913e-01
-3.538263047401699751e-02
2.402553354415037090e-01
1.679058737554683586e-02
2.336776958884354688e-02
7.109120289950264515e-02
1.444758279570256543e-01
4.046554714256554025e-02
6.550526336617869087e-03
1.085908806205816840e-01
-1.065317454924289003e-01
-1.102635114809858985e-01
-1.073638364327967991e-02
8.080945729137285760e-02
1.194789267977906105e-01
1.431734348024290247e-02
-4.258539640440508339e-02
3.012669394830080893e-02
-1.356129630653880869e-02
5.676705493826311039e-02
1.208460055637779716e-02
1.168989226498995046e-02
-4.724166418780290644e-01
9.841124144278970420e-02
-4.816505619813236244e-02
9.687595444823317303e-02
-4.556516667362076750e-02
8.967354379361611172e-02
1.234521096972374665e-01
1.495038058526373392e-01
-1.367893556325780746e-01
1.112178595942596715e-01
-1.076425244106854473e-01
3.145815074946061718e-01
3.197267377515496112e-02
-3.002179565684468644e-05
5.118844770053995828e-04
1.173655635917813522e-01
-2.661651560271536404e-02
-6.743551519416331186e-02
-1.206912274860832829e-01
2.457689680140403288e-01
4.926245520082359747e-02
4.647136723047035067e-02
-3.224085452166000173e-06
1.966897768817957998e-02
3.475513791134746643e-03
-9.731628591366159320e-02
7.011205050660590521e-02
7.771514442137056333e-02
-2.472816166183309516e-01
2.357534747391118110e-02
3.510418323740365637e-02
1.723487156538407172e-01
1.140164048710716610e-01
8.526005166247697812e-04
-1.667097053018484487e-01
-6.822361643652750940e-02
1.360354666407252167e-01
1.189647445413125138e-06
2.840539832306323426e-02
1.835702803541112288e-02
-1.952351939216798171e-01
8.010180801919994376e-02
-3.537562137137192919e-01
1.865208545066028567e-01
7.024839209070167165e-03
-2.313315019769658087e-01
6.307085669774868675e-02
1.653262404609820782e-02
1.949678875045902232e-02
-9.563177532507295686e-02
-1.185830091536813347e-01
-8.546450167331877401e-02
3.026786377815810641e-02
3.045895057087137994e-02
-8.225731251770880548e-02
-5.125698009029953928e-02
1.181466766331581153e-01
3.535401554050755790e-02
-3.745066849563972317e-02
-8.820941227407557794e-05
2.044509379602662408e-02
4.077819262188435434e-02
6.486455749423057637e-02
2.084530118032950144e-02
4.572066150431555037e-02
-3.268855206439426342e-02
-1.258958872055384592e-01
3.012672435211933425e-02
-6.919535299596817068e-02
5.661939288677356880e-02
-7.282821443315241894e-02
-1.927940514202147460e-01
-8.245684923197729166e-01
-2.133837572704335751e-03
4.107944366673223213e-02
-1.654808480764852208e-01
-5.746289612681115128e-02
2.007378105281075464e-02
1.929182288896248362e-02
-3.683795035313931765e-02
-6.503182269602234000e-02
4.408515201141311136e-07
2.611175126230276533e-02
5.178423524769631102e-03
-2.876850059469166637e-02
8.416781959406859862e-04
2.770520097401344903e-02
1.413553809937770529e-02
-6.749327104493586804e-03
-7.731138163836363819e-02
-1.076816608324003416e-01
5.575948033612049964e-02
1.493000457068063003e-01
-2.209377588034011977e-02
-3.271165145676529357e-02
9.542987530608278146e-02
1.861506067088134486e-01
-4.424285346428283305e-01
-8.888720118175176266e-01
1.468910551902330164e-01
-1.310146847183299712e-01
-1.554051838145136533e-01
-1.112651632316756928e-01
2.329855618490226862e-02
-1.846794526533540592e-01
-1.005074441290597087e-01
1.327939278541571087e-02
7.555018604650400038e-02
-1.156271548287807725e-02
4.385245990823279788e-02
-9.837061552789396965e-03
-4.663108872679778971e-02
