-1.121675949827613539e-02
-1.909679484111236059e-02
1.697877278822225444e-02
-2.658949042942175198e-02
-4.797187078612398341e-03
-1.213251918843541791e-02
-2.486305889307259629e-03
1.840929485791371889e-02
5.359038841211072150e-03
2.454789913735764065e-02
1.677454291241282577e-02
1.331315107982490240e-02
-7.409681314453043892e-03
-2.350873433892554723e-02
-1.869279176642052107e-02
-4.362840462073489661e-02
-1.930697435294091019e-02
-6.491441374214397021e-03
1.046457604361589536e-02
-2.509256917046457855e-02
7.037417517866794391e-03
2.013871405080043878e-02
-2.028403450020103277e-02
1.012682401365274341e-02
1.062238878838891142e-02
7.462203853376666793e-03
-1.178014152551485564e-03
1.697726632020795517e-02
-9.630956414122825854e-03
7.498044928776636912e-03
3.187470465773532130e-02
-5.258693446235140033e-03
-2.575315545867709610e-02
2.837390487620444855e-03
-1.711718191342337034e-02
-2.093458453330122176e-02
3.160892606792788107e-02
9.390777653561294819e-03
-9.066116132256029844e-03
8.293347688368932560e-03
2.715491329972071974e-02
1.393543618394070538e-02
-5.886137309392538985e-03
-1.399346196348163346e-02
3.766785403953955714e-03
1.988136263863145466e-03
-2.168658352943108117e-02
-1.549922971489773194e-03
-1.205233137272225183e-02
-1.575208357288755343e-02
-2.577602412487144459e-02
-3.251010956235966115e-02
-1.178847645550113940e-02
1.068199253341003616e-02
3.306473924863537195e-03
2.239706449045356096e-02
-1.132908518793603395e-02
-4.874687965769031878e-02
9.807081899856122387e-02
-6.300689223324933141e-03
-2.749463925044860323e-03
-6.818081808599889444e-03
-9.048793640863091181e-03
-8.202515134887276849e-02
-9.742296378084430719e-02
5.808180200075286010e-04
-2.752299723959156924e-02
-1.060355002755575520e-03
2.541450771236200990e-03
-3.672029384049985135e-02
1.862666814321242183e-03
-9.347202340053498149e-02
-3.742426707139821784e-02
2.995835927023062298e-02
-1.588001089604361774e-02
2.297577612487571377e-03
2.125623192225532462e-03
9.069008138006845899e-04
-3.543920712023674712e-03
-1.119804871785418229e-03
9.224835409780123702e-03
2.909110017534626003e-02
-3.226964410614484302e-02
-2.084990729800889099e-03
7.663796770561337891e-04
4.478508325221576547e-02
-7.506083777948644939e-03
5.419973771591727815e-03
2.382191581544633105e-02
3.121354979256187739e-02
-1.117052286873851169e-03
-8.408073070096981627e-02
2.493164733662494095e-02
-1.737445020659305894e-01
1.431972887419381002e-01
3.410223515373127234e-02
2.960016863268723208e-03
-1.267334753736364394e-01
-1.005219648618522893e-01
-7.140317126942428982e-02
1.020816256545027147e-02
-3.788305044367046986e-02
-4.336450215403685193e-02
1.288845710294262911e-02
3.517000949225423251e-02
-2.212067598083196970e-03
-1.515723601505315939e-02
-5.257025659614216785e-03
8.197390792218697472e-03
-1.840066288535991551e-02
-7.517372317003564487e-03
1.282382309320648055e-02
-1.605017598715030233e-02
6.262008531213039166e-03
7.816701298753371552e-02
-2.794539673812853134e-02
-1.973839602717456908e-03
4.366739874307140265e-03
-2.105364555553320208e-02
-1.142859258829212292e-02
4.032337001813843941e-02
5.394396811728631447e-02
2.444294319170687083e-02
-2.124630652208303952e-02
3.654178129393418489e-02
2.299357347201692534e-02
7.569879411428495630e-02
1.804669661946865442e-02
-1.721096483805419769e-02
-7.083106993392067341e-02
-2.455516379302366201e-02
-4.201326108373382162e-02
4.134280599254588906e-02
1.830243834635166336e-02
-5.161964174650836767e-04
-1.430532398296872551e-02
-1.181488919008757618e-02
3.108683904256555591e-03
1.594961172145404477e-02
1.863123614260237676e-02
6.488039332830590478e-02
-4.133756392321171619e-02
-2.905814351438561552e-02
1.472772179670591396e-02
-1.045740685652761862e-02
6.807425136431685675e-02
3.250045034660792049e-03
8.429461809242366765e-02
-1.147523198638062281e-03
-2.907034379446627251e-02
1.472571958757536853e-02
5.836614225094408775e-02
4.966362817172378583e-03
2.248547854865552698e-02
-2.079617332051722500e-02
-9.153754132098205695e-03
-3.445944610717225493e-02
3.025444313840321836e-02
-1.353546554323746889e-02
-4.827032797388832244e-03
-2.436897988057193029e-02
-2.013249423370578120e-02
-1.956704900726599985e-02
-5.843673616939063648e-02
2.709818481920153385e-02
-1.843951012378258064e-02
1.018315896833024183e-02
-4.667526825276282175e-03
-1.225881437777317194e-02
-1.686559700549718731e-03
-8.497017584272766391e-03
-5.985769178745841551e-02
3.166183268795438183e-02
-5.508969471768579776e-03
-3.743143676281502491e-02
7.708841931970827031e-03
-2.993662468980422264e-02
-4.444679807494234663e-02
1.477783649901562302e-02
2.209779467003773062e-02
1.724631085236851338e-02
5.255640312327302527e-02
-4.429119052959253761e-02
-1.477104014951068252e-02
1.746863580668536753e-02
3.733870081837469684e-02
-1.094238443373555039e-02
-7.038357460799370136e-02
-5.846654618228736174e-03
3.717428686020796211e-03
2.696803913008315179e-02
-1.980661172680696705e-02
7.000893598112278675e-03
-5.582461883054511131e-02
-8.925105966179933126e-02
1.545443489827099878e-02
4.053914501885829691e-01
1.022427828465669042e-02
5.965637585944273333e-03
-1.926616177045994754e-03
8.463225556273840794e-03
4.018633032426757734e-02
-1.354548376856760938e-02
1.866418543216126925e-03
-1.925394473815929264e-02
-2.409244887407535965e-02
-1.175125695597272445e-02
-2.676350018022826890e-02
-3.051994931982303372e-02
-9.673600278438859506e-04
-7.417037986969026928e-03
-2.427032420539785088e-02
2.469401633295692511e-02
4.081038533683529340e-02
8.806111763276769366e-02
5.047322258771387571e-02
1.090172516003918082e-02
-2.050491170901422647e-02
-3.300886946457549324e-03
1.104894551921303467e-02
2.808576040805977822e-02
-2.711497640327767151e-03
2.631412283596938281e-02
-3.238499962589514586e-02
-5.960608886919566141e-02
5.405280306602912310e-02
7.535772783241480310e-02
1.050963824879979081e-01
7.286140946872381174e-02
2.919967790843510172e-02
6.206869711729732370e-02
-1.108355771401994296e-02
-4.320302944379444954e-02
-4.709886056981951730e-02
-3.492679347249084132e-01
-2.412273694901069521e-02
4.611234239268639790e-02
-2.906320874631872220e-02
-6.836196971961196189e-02
-3.704208012990977284e-03
3.260857968617680153e-02
3.379345137573331465e-02
-1.343209883650412287e-02
2.346594033778798966e-02
1.276721595138232378e-02
-3.479818188057617889e-02
9.119556044221030500e-02
-2.841076656303460901e-02
-3.649594676791390047e-02
-7.080606023353749889e-02
-2.620823471871568805e-02
-1.581797084554065203e-01
-6.377170721627441197e-02
-7.115783781978138149e-03
-3.911596257540261856e-02
-1.893410623928552458e-02
1.036489952792657952e-02
-4.144704055450693092e-02
-1.499601424155675052e-02
-1.103133303974098978e-01
1.126100431392274559e-01
8.677819422279337003e-02
2.122824230074241841e-02
4.764124688098501231e-02
5.014397288606535497e-02
4.615627339257292149e-03
4.919045095082895391e-02
4.321290116079071902e-03
2.972341113671132448e-02
-7.718501782409793732e-02
4.661746688496169397e-03
-1.431753158217816471e-02
-6.650485455850380263e-03
-3.930647455767865422e-02
-6.212773703400985455e-03
-9.192210078661599074e-03
-5.396985201820981431e-02
1.623722429704132358e-02
1.761541625224713123e-02
2.847346629094418477e-02
-6.812172192261246005e-03
6.640948528556491794e-03
2.148059049186261393e-02
-2.111963376921348681e-02
2.685017445722587270e-02
5.585026563283316398e-02
-1.245229398664652286e-02
3.945857479719040717e-02
-6.375961728094963095e-03
-2.173601887214689460e-04
4.385950689941491530e-03
-7.567051801709341607e-02
-2.322565975577631659e-03
-6.454336612072031354e-02
-2.955547709529804390e-02
-2.639286821327037000e-02
-6.105425159134007015e-04
-4.791485785336697251e-02
1.129513919961739883e-04
-7.328830385361080613e-02
1.151593851803425252e-02
-1.774295360194370202e-02
7.290108324012429739e-04
8.228927264108570547e-03
-2.575261061958775133e-02
-2.091211737405700502e-02
2.605819198632496080e-04
-4.934719328586638538e-03
1.785024154669681432e-03
-3.701799240600950336e-02
-7.681624973465485916e-03
5.812187447008311525e-02
3.623345300502158611e-02
-2.973108182408369660e-02
2.799080825493181768e-02
1.938571583299986689e-01
2.271334197778585723e-02
-8.261923676221744062e-02
-3.393032198648627748e-03
-2.072642784497217075e-02
-2.202275039181832844e-02
-2.169602828044212006e-02
-2.674002619415741799e-01
-2.695601363100263645e-02
-3.656133414563700335e-02
-8.669464067396373541e-02
1.714307878277153765e-02
1.118200585988428641e-01
2.972834952059638658e-02
2.731083732859808377e-02
2.643144025910240257e-04
1.159927127039825541e-03
-1.494763715837638639e-02
-5.516589728702919054e-02
-6.058332707618847152e-02
-4.697311004322923984e-03
1.235040555819844413e-02
3.630052812243595578e-02
7.515198801527010405e-03
1.095298451251884055e-02
3.915442990523799321e-02
3.608064021370939456e-02
1.420476326040748596e-02
-3.733352522664087209e-02
1.859998827385964289e-03
9.488527054321041487e-02
-2.655370612218261109e-02
-3.087149816268400238e-01
-7.767277084585871676e-03
-3.741441820213996933e-02
3.454200196228173619e-02
2.162349640830546135e-02
2.317849628074470855e-02
-5.809267817802789974e-02
4.014066066336129807e-02
1.732976173182667057e-01
-6.097781411999235734e-01
-3.940141222133011073e-02
-1.671145554032351863e-02
-1.977124947930654353e-02
-5.478949220548290887e-03
-7.613516555729682618e-03
-2.467727726060800139e-02
1.028052766972572564e-02
-2.245458242758540529e-02
1.904499572695074472e-02
1.609990737706813030e-02
-2.065442120353963573e-02
-5.357406584649414549e-01
-2.796063889576080319e-01
-1.148958877327558095e-02
1.018294218114986979e-02
8.187792160091543481e-02
3.856825049084460638e-02
-6.885269703648058681e-02
-1.696297363854131629e-02
9.797413490236890621e-03
-3.007552953636141117e-03
1.664187344873042235e-02
3.404878279173607220e-02
-1.546934238257997342e-03
-1.748393303694258452e-02
-1.077951882228637623e-02
-2.013940949189356455e-02
7.366754882588104347e-02
-2.590003899192127104e-02
-1.381485419583619034e-01
-2.223005597024157315e-02
-1.980004618936013691e-02
-5.495027556383150040e-03
-2.967702749859965627e-02
4.551762364955520140e-02
-8.436273171012000777e-03
-1.775187138272020038e-03
-3.236472214889656637e-04
-1.668677248974011207e-01
-1.815737411749420577e-02
-2.205623367715290814e-02
-1.437775357571258877e-02
-5.389723624642112770e-02
1.356975545168153524e-02
1.530646853186103107e-02
2.628158416340200740e-02
4.934538629314195318e-02
1.497798954834301914e-02
1.173236612145543874e-02
-3.671873172099442834e-02
-2.633550055831419823e-02
-1.083348026376262582e-02
4.286323614647199326e-02
-6.257904131017929042e-03
7.674963501739298470e-03
-3.272875056298208025e-03
-9.274062263832580366e-03
-1.059038053148543546e-02
3.226794569819491781e-02
3.201193396612058706e-01
1.769566321259228026e-01
1.211482348865916964e-01
-3.644023573610113975e-02
-5.967892406968351195e-03
-6.953045215560104200e-03
1.432300734233744356e-02
-2.758354084580312213e-02
8.227526588149482178e-02
5.492405030371884378e-02
-3.802857984815417175e-02
-4.844692366871646005e-02
2.202115579588699232e-02
-6.047633653758639413e-03
-2.278626125929734264e-02
-9.113464807224190209e-03
1.347955716326679487e-01
-1.067508373911045944e-01
-2.499781159785615173e-02
1.806570998067858272e-02
-1.378484011979792118e-02
-3.829953614400231909e-02
-5.536801195945950486e-03
-6.878205925593964404e-03
-1.781028795442677476e-02
2.586246140313820663e-02
5.989049654892020583e-03
2.711259274112504548e-03
-6.111971113753804016e-03
-3.379349602670204955e-02
8.286326796000753267e-03
4.003504820043802259e-01
-2.661818790022589705e-03
4.810423884743422057e-02
-2.075551156888924553e-01
1.349053792417558018e-02
1.296223972413730260e-03
-6.988685079461615796e-03
-2.922536125629163553e-02
2.522218208764014438e-02
3.114814988375357399e-04
-7.369754254256695447e-02
5.623158791886878616e-02
-3.316750189019188749e-02
-1.885451934121813765e-04
-3.368070157432696832e-02
-1.240828027107074814e-02
4.652720996649321178e-03
2.151233112744336401e-02
1.121163497019110611e-02
-3.270746347554837497e-03
2.357378628448233426e-01
-1.786720943735919595e-02
-3.620198442787442988e-02
3.849280380757914150e-02
-6.047740968206544859e-02
-3.340465062645453509e-02
1.353136411416811478e-02
-1.176137996003355085e-01
-1.184037305402545030e-02
4.959018516979551289e-02
-8.299392904656779923e-02
-1.349033553908740302e-01
-2.400258438064641064e-02
1.329241815569504569e-02
-5.096810143450409419e-02
3.438436761078924458e-02
3.560178553816629315e-02
2.123292273834177443e-02
-1.542675441775012181e-02
8.737777394691818855e-02
-2.068472061412883478e-02
-1.632521429212014166e-02
-2.385577354298146907e-02
-4.838900710073251732e-02
-6.012739537915086363e-02
1.144493702277935704e-02
7.343116766592177984e-03
-5.182398604270119571e-03
8.850681326296194057e-03
-2.359477703441920787e-02
-5.943123775082031351e-03
1.952330896374005961e-02
4.627468360729307569e-03
-4.615395068199949595e-03
-2.367984324813744712e-02
-1.587677701833804800e-02
1.922431809391422644e-03
1.392296915616465791e-03
-5.212104816180238021e-02
7.590693398940860951e-04
-5.694201140634692904e-02
-3.970089749776716664e-02
-6.330361950340017418e-02
7.147067977857952947e-02
9.498188973350463887e-03
2.216864569823363135e-02
-9.003706862096444441e-02
-4.377676828287656828e-04
-4.637827519724325998e-02
-4.524317387005281910e-03
2.723016933910976309e-03
-5.874598736385931719e-02
-1.535925927263201152e-01
-8.017057018054135620e-02
-5.495083566598359948e-01
1.898676087192969000e-02
-1.873853937995291832e-02
1.384185844541727800e-02
-1.107425146765382284e-01
-5.640993030612650311e-02
-1.479429450079738487e-05
1.964158644604483209e-02
4.926132603601454663e-02
8.441128618634965997e-02
-6.877804586544868093e-02
2.942457006719001802e-02
4.040556463422310257e-02
-4.445427218653611595e-02
1.617888611461133080e-02
7.320527784506157543e-02
2.476759179655573309e-02
1.709643443684873143e-02
-1.136456771026236878e-01
-1.668726376139758119e-02
4.004679851126527468e-03
-6.421948911917319675e-03
-6.202030493265713084e-04
4.786002692211650811e-02
2.750049432487107481e-02
-1.170234353529505398e-03
4.823137869400222905e-02
-2.939164318312604759e-03
-1.752533438249627082e-02
1.443607445309794124e-02
7.357835606440196741e-02
1.758577449769953283e-02
9.815334858963419701e-04
6.059057823833107620e-02
-2.272973695270233407e-02
2.042531598503705484e-02
-2.439864774519506785e-02
-2.546620095240923962e-02
-1.877468496652056132e-02
-3.566994194351323644e-02
1.177117343042384350e-02
3.197465395100088648e-01
9.064370444447002184e-02
-1.709674691968515736e-02
1.542137242787851303e-03
9.159719457673265453e-02
7.231704672924300741e-03
-2.246404530500800342e-02
-1.115225337541974476e-02
6.047299647429771156e-03
8.785424177143854934e-04
2.289268337900372818e-02
-5.893896268616373099e-03
4.077946916338730243e-02
2.431998793026094938e-02
5.492399644847992951e-02
1.746866439686876188e-02
7.805711251320714139e-02
6.342567308476741716e-02
6.639534367108858824e-03
2.740264656821031139e-02
4.406736296488538568e-02
7.268588844876900518e-03
1.056252208359320828e-02
-1.325697157972404881e-04
-1.388389981184798110e-02
3.804200826218628873e-02
-5.319270957753730565e-03
-2.077940071405008290e-02
-1.578975346678296657e-02
1.274226978666417529e-02
4.504961035448810935e-02
-1.201662919662215348e-03
1.819215675020982581e-02
4.887985714781871438e-02
-1.517317113789827879e-02
5.134798554484230892e-02
-8.752551268065216633e-03
4.543101907008648827e-02
-1.559441282823982589e-02
1.992572849391091496e-03
-5.884989821515374149e-04
-2.073866495453109693e-02
1.554161920067864688e-02
-1.618419060117006758e-01
2.351179806987107462e-03
-1.489295055071311949e-02
-2.496031560808337907e-02
-5.332896212159902657e-03
2.233750085550779627e-02
5.203901697102387980e-02
1.047812568006298295e-02
-2.178554026925932918e-02
5.928710368722935747e-02
-3.309774191322636255e-02
7.091106063405057391e-02
2.159379991876176491e-02
1.753685965268889091e-02
1.147535207293793116e-02
-2.124336316233331294e-03
-4.097778851481877899e-03
-4.224392008915454910e-02
7.274544138917229952e-02
1.192805575969372277e-02
-3.341684575817030489e-02
6.064182268776474594e-03
1.395483012582577481e-02
-1.430921486410455029e-03
3.291328395401081283e-03
9.564758876016189737e-04
-2.210477049409749484e-03
1.625984977968585737e-02
-5.128529644320179576e-02
-2.107257521009614498e-02
-2.211960840563009095e-02
1.477835607577199575e-02
6.799879615297137192e-02
-5.805853073384961011e-03
-4.817920188641620395e-03
-1.091521393797493938e-01
-2.061268421410741847e-02
9.000807254912934069e-03
2.281564518783315426e-02
6.360423637294248221e-03
-1.612619137567556510e-02
-8.240675484648642872e-04
1.689531565204650809e-02
3.720873202836925183e-03
-2.670273803372749666e-02
2.291605725098266530e-02
-2.647266636497520170e-02
1.476726141586564255e-02
-3.786924232243438909e-02
5.493075921683852197e-02
6.375242798944718257e-03
5.993013844781865107e-02
1.093815351336642622e-01
8.710467243877117668e-03
-4.850178278104769897e-02
1.184691606953588820e-03
-6.747353281579404616e-02
-1.958257197767171269e-04
-9.930286910418534285e-02
-1.290601282502136689e-02
-5.544268608953514810e-02
-1.430341575248333247e-02
2.259598865645144269e-02
2.389040568341563309e-02
3.661802302457654174e-02
-6.818611633683083033e-03
-4.039496566763452895e-02
-7.170600901494218748e-03
2.294550862690506246e-02
3.046682411062511323e-02
4.516464081257785118e-02
3.352330393031088818e-02
-2.371365934675278078e-02
6.765666906516437651e-02
5.429514100773213253e-02
8.767787467631481257e-03
4.714819383332451153e-02
-1.773256640673591053e-02
3.040934915612928812e-04
-1.224877177913753779e-02
4.496336661031199479e-03
-2.691155826688414535e-02
1.069949381176285921e-02
6.224440113780337069e-03
-1.459229467934489329e-02
1.411610037820900353e-02
-3.107678679506443997e-02
-1.103864599014413349e-04
2.880302913709880536e-02
-8.232003527281928079e-03
5.160177329461406587e-02
-2.699706119514701241e-02
7.585856116490302670e-02
-5.259108921479681807e-03
1.661297362158485613e-02
-2.670955389341679153e-03
-2.647041741134706014e-02
-2.010182636056051866e-02
-3.346802559366845314e-02
2.801233839193026376e-02
1.081274988128581444e-01
1.966406631044283551e-02
2.695225816856623019e-02
6.698782450501310649e-04
-6.217057315667684492e-03
-3.005212375316577891e-03
-9.809605591138198175e-03
3.518191750638059723e-02
-2.864480773948120673e-02
2.930867478708389963e-03
-1.723875818075404440e-03
1.874459818483084628e-02
2.380230314025749347e-02
2.855684397374251907e-02
7.281387954118419270e-02
6.699468396409662130e-02
-5.369915574770648542e-02
4.674979996507623928e-03
2.052375645034246188e-02
3.303912202021772049e-02
5.620143966433007593e-03
1.377189539726309496e-02
5.595982979332444346e-03
7.295795592475658176e-02
8.486743284731065873e-02
1.536607457038272236e-02
7.863868281274169481e-02
1.112568999865211003e-02
-6.213378515166663972e-03
-7.454985320164188474e-03
-9.277703606754976462e-02
1.238195738649030056e-03
1.934185344933471093e-02
-3.796900357130363057e-02
7.167299388219836725e-03
-3.604669147785477534e-02
-1.676720454903699378e-02
-3.340987491373743207e-02
-2.400071388772358639e-03
-1.543689614634678221e-02
1.733738361575577411e-02
-5.646097406526431883e-02
2.394060093721458657e-02
-4.931994826595833756e-03
2.609733696501076103e-02
7.994583496828511215e-02
-5.426835650858173599e-02
-2.110015256008508644e-02
1.820709384250791124e-02
2.252355743394818949e-03
7.208366084148928876e-02
4.247319412561212371e-02
-2.116204462037751532e-01
-3.369247156060011655e-02
-1.505842718667650508e-02
5.761596725841369726e-02
7.917117409103969008e-03
2.810910581029473637e-02
2.815074839124528591e-02
-4.315849270343385252e-02
-2.728080934498554322e-02
3.383491422339133907e-03
4.343781250564941743e-02
-2.166293078766132890e-02
1.420573088334749949e-03
-4.620267365804602705e-02
-1.141362211390701750e-02
-2.194988649707383874e-02
3.904969819843213952e-02
1.294839090711329610e-03
3.979166071247565439e-02
-1.611131281357678496e-02
-3.894621898822580447e-02
7.829833816121281598e-02
3.821761071075387151e-02
2.850269850786458017e-02
1.678267015834531556e-02
2.859709422457924061e-02
-2.462273240158796995e-03
-1.148956801329458800e-02
-2.790492220083118369e-02
9.107195146553597603e-03
1.138319491542905820e-02
-3.223844936970293729e-02
-3.071667729681454989e-02
4.820469882106944749e-03
-1.968491784796381691e-02
-4.551384636023336761e-02
-1.056397932540351359e-01
-3.117899296412943166e-02
-4.382991272859283749e-02
-1.212855278575425549e-01
-9.278271497645318444e-03
2.058150707793545212e-02
-1.904183220862407794e-02
-3.977901139931617341e-02
4.847372163568119084e-03
2.673863229193540123e-02
7.279097383026310319e-02
-1.044017871625986353e-02
-2.510442259846991028e-03
2.378965269930754037e-02
-5.971351561277035008e-03
1.180567314102408134e-03
1.187837778051563462e-03
8.535750394562884036e-03
1.012128152633921807e-01
1.014536242624233288e-02
5.218312951300965209e-03
-3.124615750917264165e-02
-1.965202268572949131e-03
-3.724525949811947206e-02
-2.874143361645221158e-03
5.443970276614253437e-03
7.907425623031353115e-03
2.982408850311285553e-03
-2.119853518689769623e-02
2.162152967213492871e-01
1.161657686976498918e-02
1.748207427868569627e-02
-4.525994189963915976e-02
2.897195045680195716e-02
-1.338984064097303341e-02
-2.193881791763370101e-02
2.804148625465649816e-02
4.389163968919700815e-02
-2.290387925236260155e-02
-1.057068785103448399e-01
-4.155896755546946431e-02
-5.819597533946648665e-02
9.418469805035340967e-03
6.461600195591247695e-03
-3.272734551638255707e-03
2.052090481571609837e-02
3.045744086366923217e-02
-5.399224997844277035e-03
-1.578487815446976902e-02
4.184810980974826983e-02
9.196976678310672323e-03
7.422904293020953989e-03
3.587037681652260890e-02
3.626921319030668167e-03
1.458042919622090997e-02
-1.633020724273563000e-03
-1.861196550780182257e-02
-1.457244999020147411e-02
-2.159754497182196295e-02
-4.081207348046428374e-02
-5.150064264850350709e-02
-8.380635660684086427e-03
-4.357195737284576265e-02
-9.487850930817436079e-03
-2.176737766672538071e-02
-1.501467754316502742e-03
-3.876888171842460609e-03
-3.206604196158412134e-02
-3.878068924830271099e-03
1.700118948549928519e-03
2.643138251161281441e-02
2.960805261383876036e-02
-6.872660249613272987e-02
2.898723849980216344e-02
3.717448229577721697e-02
3.017869254139327745e-02
4.207179207866994924e-02
6.354331750475782602e-03
2.823050670831767778e-02
5.577652503032541620e-02
5.188287538334976183e-03
2.003889029873908920e-02
1.209435351461745321e-02
1.134229769137739402e-02
3.264639037829195241e-03
-2.620297231839270602e-02
-1.220436089383911300e-02
1.826225753843139024e-02
4.399483657401116743e-02
4.237637313958902974e-02
-4.606170632102474932e-02
1.178925126361908549e-02
4.166649139288299691e-02
7.377835799863616262e-02
-1.784575197392268900e-02
7.404703126445298135e-03
5.007588871186707119e-02
8.809111079980884440e-03
2.553640868194951077e-02
2.467581411381819870e-02
3.363100971702778948e-03
8.327002125895942297e-02
-1.667477109522077020e-02
-1.194944227756018079e-02
-2.564365245229892343e-02
-6.757887791057661832e-03
-1.104399762018235323e-02
6.429201039942980186e-03
1.406734341260863080e-02
-4.645641508522070640e-03
2.014517798017520858e-02
-3.980284855915621617e-02
3.724156894600694212e-02
-4.260777427463965797e-04
6.251614477067585912e-03
-1.769307023811775292e-02
1.605127784939520616e-02
-1.857500722956864636e-02
9.262934459162446010e-02
-5.808396648478519539e-03
2.269030297848806388e-03
4.179091805219903311e-02
7.970574094261806061e-03
5.293907892050096070e-02
1.886875282506802337e-02
-8.764159363462781238e-02
-1.759373491206158158e-01
1.161043160137315705e-01
4.904697742202497775e-03
3.443516577877348689e-02
1.225179829616296302e-03
-1.891527183734641876e-02
-3.537722636130981313e-02
-5.862336978513647823e-02
-6.337392707439149647e-03
-1.974976452624829099e-02
1.847501596037393057e-02
-5.110243688561906701e-03
1.838358885898772402e-02
-3.025769494477387189e-02
8.092005245065094290e-03
6.070695985827797951e-03
-2.968556869690608391e-02
1.577311767071682205e-02
-2.031566997008467032e-02
-2.484819185122450879e-03
4.040243206663280892e-03
-2.804226688014520644e-02
-8.833826435119275511e-02
-1.009500567009522128e-02
-2.947834388622150650e-02
-4.946718974595112200e-03
-3.208322679676688105e-02
-9.403345842452377409e-03
6.945282257301683103e-03
-6.818371953828276932e-03
4.260727465121837837e-02
2.406657348481286776e-03
-1.111948925059540877e-02
-2.045919492839798261e-03
5.034791803927862047e-03
-1.112899318420359010e-02
-7.102037939923181234e-03
-3.632388476680635568e-04
-3.395605088419979822e-02
-3.506077357136307832e-02
1.572074782678207355e-02
1.848053345885303581e-02
1.915126856498500577e-02
5.323460003028181349e-03
-3.630633589347688137e-03
-9.888947473087853976e-03
-8.756874912579301617e-03
4.311985085161129660e-02
2.177787878776150238e-02
-2.546836732555917901e-02
7.241252600364600153e-03
-6.407607808035085950e-02
2.818880714558217888e-03
6.567241628202050412e-04
3.804487685495810956e-02
-5.163359501674921054e-02
1.277687479583985292e-02
1.036077059837416103e-03
5.842482201412020626e-02
-7.396102781847110896e-02
-4.486860172042693093e-03
1.625713292746345726e-02
1.293875786534822055e-02
2.692499734683322793e-02
-5.184616840575102109e-03
-1.153433560910311836e-02
-6.684073612630503369e-02
-1.650030416511980014e-02
1.646029128074037381e-02
2.726158912291886185e-02
-1.024738809934101769e-02
1.600030163462122165e-02
9.122201149189405889e-02
-6.370758359770883894e-03
-3.105342266422785741e-02
-8.418399012578512905e-03
-6.465471656120210658e-03
9.276711376889651417e-02
1.101632853341352747e-02
2.590701492114348345e-02
5.894505829683569648e-03
1.197888597100183264e-02
-1.857689491446253699e-02
-1.288178911218272257e-02
-1.276907376147054345e-02
-2.196762704405220631e-02
2.169297478823589698e-02
4.538088622089216095e-03
-8.697453419879633274e-02
-4.431386234297712140e-02
1.075789806625317320e-02
-2.384715220868839636e-01
-1.810189697825743266e-02
1.048854182186861189e-02
-1.630532030088790475e-03
3.549285492292131305e-02
2.116371887670101884e-02
2.274611764808709153e-04
-7.345319431609689809e-02
-3.315378404309900565e-03
4.920474398324600762e-02
1.134200357792528868e-01
4.233210228555053800e-02
2.154842996017739681e-02
-5.054927069775761589e-02
9.716253318823760143e-03
4.134621696436659166e-02
1.193079795094633550e-02
3.469433173800158532e-02
-7.179201892460273723e-03
2.594060728504306648e-02
-8.746764090657837762e-03
5.923920110006831302e-02
3.435657708747239664e-02
-2.957608517582042129e-01
-9.675016832613542173e-02
1.133256491859366451e-02
3.693023683638630567e-02
-1.905319958706057359e-02
-2.950652357348209839e-02
3.112708174145327120e-02
1.296024124310096726e-02
-3.274402605073793715e-02
2.295615093738808538e-02
5.980433556883549967e-02
2.971118584492369111e-02
6.076456389438526610e-03
4.216701126776400965e-02
-1.457129585039592876e-02
1.120148525144714843e-02
1.244559420333597732e-02
-1.590323187143283246e-02
-3.186370882557304496e-02
-6.708018018478274780e-02
-1.163339891956153421e-02
-2.283854313725263742e-03
2.416254931627620159e-03
-4.096445747688290395e-02
1.864397756298536921e-02
2.021630526024821572e-02
1.039469861424823817e-02
4.784191237962137633e-02
6.217635132566343148e-02
-1.118939953117907039e-02
5.678198887281721285e-02
2.353020495493525141e-02
-1.927961732114667065e-02
-6.807058145665168404e-05
-5.245281968960733773e-03
5.114034859922463039e-03
4.555065665695507554e-02
5.850909884012861495e-02
-3.078278631661124018e-02
6.847560353386983670e-03
9.032488546608459859e-03
1.582842278529116714e-02
-2.182573374082386053e-02
-3.930599080308275553e-03
-2.721032412322999493e-03
-4.356225575231032973e-03
-7.594632613010923738e-03
-1.515244807925622203e-02
1.227523242420301523e-02
7.964119602266953729e-03
-3.637028390701647906e-02
5.537100933466985661e-03
9.138672557527739715e-03
1.473387494563616236e-02
-1.593081147817315690e-02
-2.898927537193281279e-02
1.674083926496795337e-03
1.670687468167003989e-02
6.048478483199638649e-03
1.151483136564864299e-02
-1.427996254443518812e-02
3.487459321803135920e-02
1.580399745332936728e-02
-3.448295847353497617e-02
-3.295855933742037995e-03
-6.504984147234399265e-03
-2.205459379065535103e-02
8.296932319575614154e-03
1.378228977233833530e-02
-3.591337325930114843e-02
1.518382822211083831e-02
2.298929115573293894e-02
-1.779045980767431090e-02
-4.711985695351155606e-02
1.681208087098160289e-02
3.074193131694214626e-02
-6.383380829247986381e-03
-3.023382175469682643e-04
1.469455258708723087e-02
2.356055906265605918e-02
-2.493601151175051447e-02
1.774498189319892449e-02
2.433582008867529040e-02
1.722576043121569131e-02
-2.997011246359915920e-02
1.197270284859578392e-02
5.620079513942891764e-02
5.941227659821837759e-02
-1.550871054977329870e-03
2.378034526242270644e-02
1.181454991190147852e-01
4.222668126046745518e-02
-1.618958252707166506e-02
3.110875561413357221e-02
-1.222287690203621973e-03
2.411866407267233489e-02
-1.336739390630453835e-02
-8.612561695587096777e-02
2.678994565761921853e-02
2.336404598155348081e-02
5.239919418619758129e-02
1.421323411713706214e-02
2.663670387982685836e-02
1.437620997346268290e-02
4.928191889597675207e-02
1.360400319834295657e-01
4.259272279098569314e-02
-4.247450282102803454e-02
-1.758904213245763648e-03
-2.138600975889554459e-02
6.715464116598672539e-02
4.113037452681305578e-02
6.144116957015387237e-02
3.579311169361876904e-03
-5.023947625035964787e-02
-5.332521114878117918e-02
2.661619515648026152e-02
-1.349872874899559101e-02
3.858259290789541746e-02
6.309176061409483074e-03
2.565595163521078997e-03
-5.259686486555145528e-03
-1.621050659934265281e-01
-2.427974292254577240e-02
-5.041655620731812920e-02
6.897194082034189058e-03
1.039114142097102324e-02
6.579028092578308520e-03
-1.656478540905889987e-02
2.194965286265342097e-02
6.884942554337036835e-02
4.161973637574494650e-02
7.292989723317859496e-02
1.046117397433425460e-02
-5.894847548372467161e-03
-3.235916238611837720e-02
-2.963583921279548845e-03
5.026451306224387350e-02
3.009999872163344747e-01
-6.662414373263193974e-03
3.033841327308987867e-03
-9.850685064975982577e-03
-2.495485128718004657e-04
6.693753170395495833e-02
1.169203825391127993e-01
3.765174358848254535e-04
9.063961681868832818e-03
-4.623633860086784168e-03
6.808120633091677143e-02
3.846904814414477212e-03
-1.039738167457400064e-03
2.063186823078713011e-02
5.377076531075955512e-03
7.387867620987144954e-04
-2.790436619655892528e-02
5.662142829201619043e-02
1.874305436218426379e-02
3.256450431242421950e-02
6.009907437862179597e-02
1.639850319585290858e-02
7.619355984098703967e-03
-3.157783901177664988e-03
-1.219205752308271870e-02
1.013584651148984571e-02
2.461927210604755722e-02
-6.505364562873745468e-03
-5.390009776927986995e-02
3.222127157361328459e-02
-2.702507332173961774e-02
8.795216127938322928e-03
3.296502050641555060e-04
-6.595740084165764572e-02
1.926081095065819079e-02
-7.491788916014902044e-03
8.295294646447771980e-03
1.400881939879602620e-02
-1.114260011119250042e-02
-7.472837578023111549e-02
1.655069827762230272e-02
7.098683065372804468e-02
-1.628318104914954888e-03
-3.444303398462751631e-02
-1.691146392525191833e-02
1.153955167427905652e-03
2.804221104044036378e-02
1.101205350084763328e-02
8.605735026302690702e-03
1.617117121801929860e-02
-1.035894056450632761e-02
-5.128065414902167191e-02
1.355139228457798162e-02
-8.354636587301624354e-03
1.668936366924981402e-02
-4.087876111278560681e-02
-3.004982658018581776e-02
-2.940144078752623263e-02
2.042321190067417254e-03
1.072774767232085626e-02
5.535338844911483203e-02
3.647653533721679359e-02
1.369348294362782853e-02
1.796666869977884412e-02
2.088874981992215607e-02
1.478678130419234637e-03
-8.907745207470468829e-02
2.182695593539403164e-02
-2.123355193929685886e-02
1.014967062387137423e-02
-5.590361681081780498e-02
-7.463188713904101573e-03
-8.382598356231156511e-02
-3.065661549413701073e-03
-9.484239282948225824e-02
-1.922274967036467774e-02
-1.145274998614200651e-02
3.230061515241487713e-02
-2.305392237643897821e-02
-6.831867707597661656e-05
5.157685795014923386e-02
-1.372356910679534969e-01
-1.440796298092505145e-01
-1.883403312739714494e-02
1.601523874385380256e-02
-2.587874541866923284e-02
2.006285389240546491e-03
5.907565683252543123e-03
1.855490352123486952e-01
-3.667164872239237969e-03
2.499924197839118248e-02
6.327723196398019750e-03
1.032317706121871521e-02
-1.258590162580232839e-02
1.788418283272045703e-02
-7.461107953088544353e-02
4.739543295162503694e-02
-2.255046547673695417e-02
-3.802952446041765050e-02
-1.745810971813345491e-02
-6.137789281999433966e-02
1.626270777318584299e-02
-1.164705667162366058e-02
-2.616732241682364485e-02
-9.079003931208583233e-02
-1.355070087250533507e-03
-9.211826620659679249e-03
-1.576482240706184035e-01
-3.464460133463946427e-03
-1.895550335708076281e-02
1.333953543157867516e-02
-1.755914206523714188e-02
5.994963008243125308e-02
5.088227211747683998e-02
-1.262334235164557471e-02
7.639822441346492011e-04
3.409579423412843063e-02
-1.590516473998501989e-01
-2.578030340862844105e-01
-2.587658427648335535e-01
-8.584816389681766691e-02
-2.750687535632549696e-02
2.972448943251373987e-02
3.236905576170458210e-02
5.486347791162587278e-02
1.862146374914494182e-02
4.942542365520305458e-02
2.030416538650947796e-03
1.014619326559742900e-02
-5.330791761520440979e-03
8.524127027505358500e-03
-8.644393992901570900e-02
-5.907722590538395935e-02
3.410639616585716110e-03
-3.053904294801478361e-02
5.010532671950408343e-03
-2.019964512905108450e-02
-2.734619607420826401e-04
1.487006194868900448e-03
-3.786949859035501111e-03
2.626855647687416709e-02
-4.457415179777656872e-05
-1.231149276114032812e-02
1.057193789129644637e-02
-7.640419213317299445e-03
1.817871867256596382e-03
1.029321763027143261e-02
2.916336886357475192e-02
-3.868412981913876055e-03
-3.300994959730190609e-02
-4.052315118217800043e-03
5.534616575545687339e-02
-3.319572671119539603e-02
-1.453307779491818663e-01
3.196530795640380174e-02
-3.499431288371313009e-02
-8.772126411191735751e-02
-1.475610792390232018e-02
-5.649242404797234079e-02
-8.799704757943086972e-03
-5.156695326063398489e-04
-7.265152400801731629e-03
1.447008466644985301e-02
3.201878257856134030e-02
-1.331675768893222367e-01
1.575285631390650407e-02
1.175454481522780759e-02
-3.506976806799807361e-02
1.045944920401895711e-02
-1.031446823091787708e-02
-3.744572311182924051e-02
9.597625323342767745e-03
-2.448893522142851081e-02
-1.270361396817041091e-02
-1.941649557306204463e-02
2.696984608223181729e-02
2.382065980636475719e-02
2.963916127210322257e-02
-4.225410159258734949e-02
-3.753391110983626128e-02
-4.998844060828427222e-02
-3.809923237405441875e-03
-5.211403632736705260e-02
-3.408236383373806477e-03
-1.672557355780673188e-02
-1.744056753086278486e-02
-3.422083282472649507e-02
2.075706612179656352e-02
5.967873295931099692e-02
3.960816237194351302e-02
1.865025922885312978e-02
-1.205847514979479021e-02
3.822797382040510079e-03
3.229629022953790091e-02
4.616573881937225537e-02
-1.173029423192409187e-01
5.441240876654943048e-02
8.161724667352600326e-02
-5.144272079932588060e-02
-5.653496930099338041e-02
3.120804178634797518e-02
7.203030506139666660e-03
-2.656910340794790999e-03
3.975440841350180721e-02
-2.461388529094302863e-02
-2.442719755818952357e-02
-2.827686389975489836e-02
-8.265326571075212736e-02
6.611196291606792619e-02
-7.330244210156396274e-03
1.629336761656908703e-02
-2.016245853082871201e-02
-4.682424040342916122e-02
-1.605885275078683741e-02
6.135437289123207676e-03
2.141860768530044062e-03
-1.725961189955972641e-02
1.376476970858416492e-02
-7.071203578467403182e-03
-2.497900571517668641e-03
-6.500762623992820122e-02
1.228968424791047204e-02
-2.168002092781831647e-02
-2.435266418766737079e-02
-3.183363381546506360e-02
-3.402817270641204234e-02
-1.687496978329992847e-02
-3.669221186714772820e-01
-1.604854453737573905e-01
1.836509200472326991e-02
-2.053212503495961336e-02
-6.200649145321154333e-03
8.064496290642333975e-03
1.284283175918638810e-02
1.488477316153269669e-01
-3.541788822829622374e-02
8.079439529036105613e-03
-3.224017396798093543e-02
-1.405554634290196933e-02
-1.201319218438257931e-02
9.919476407555770370e-03
4.385263803850941028e-02
2.021721901262856641e-02
8.451253225976101263e-03
-2.049850033011462944e-02
-5.130853782633356536e-02
7.934431045683238912e-03
2.096567841401887622e-02
4.215368423273781195e-02
-1.375934707459415714e-02
4.929993788565088797e-03
4.452101473700613432e-02
1.824807714145337267e-01
-2.063119069626232274e-02
-1.155466190465222892e-02
-1.526704758759848089e-02
2.514476337507791370e-02
5.858518781036696488e-02
-2.609847961723817870e-04
9.396367020644305623e-02
-6.953243220949201654e-04
8.691056596677743107e-02
1.015102011115165404e-02
-2.112302321458239297e-03
-8.175964478789443657e-02
-8.134074896633329901e-03
-1.687014651628251233e-02
-3.056562064464940498e-02
1.131109267433536621e-03
-8.264232594551593550e-03
5.457886179839878393e-02
5.913255243036512863e-03
1.129478418215839330e-01
3.475126152065657198e-02
-8.709294725781105417e-02
-2.028949178690550303e-01
9.244531391676677262e-04
-3.188842974891166471e-02
2.543448329798757637e-02
1.002789174597394813e-02
3.190796665481177713e-02
4.850878463883838768e-03
2.271416030952703655e-02
1.850653740067107964e-02
3.591175951614518358e-02
3.853727172911854126e-02
6.263120356602382664e-03
-2.765423884712779092e-03
8.623839486073968733e-03
8.412827575180277517e-02
-6.345409906825166813e-02
-8.083311661898183453e-02
-1.134931072220481257e-01
-5.813819718836640837e-02
-2.106145290454373639e-02
3.879711864455887005e-02
8.999615256493708956e-03
7.589219784829542848e-02
2.276271777179997638e-02
1.046222070646780217e-01
-2.873291272145567926e-02
-2.348876571320671416e-02
-8.804505002234683589e-03
2.320153492116930685e-02
2.425220184431294956e-03
-7.923591348122736161e-03
-8.150780985298651526e-03
2.227057850000685804e-02
-4.206996362401100448e-02
3.342526544049680831e-02
2.706337824168372937e-03
-8.656450666708595532e-02
-3.468701343935345904e-02
-1.418459082593873273e-02
5.099065424992294676e-03
-1.430579657967538838e-02
-2.713221999560784872e-02
-2.674027808881420873e-02
-4.995653382382411398e-03
-8.540022963573696071e-03
3.451950126959438259e-02
1.869811018118233692e-02
2.836748736013848249e-01
2.393924287447942167e-01
3.189356182770216042e-01
3.161238314479109662e-02
2.831552722223241916e-03
9.025917600082809236e-04
1.511575903186347485e-02
4.073339296886277494e-02
2.486235079136191531e-02
3.043962896419241670e-03
2.398030250326344329e-02
-6.977214709176906247e-03
5.329054709826279955e-03
-3.521273331904308836e-03
2.153910600796327957e-01
3.123108465676796563e-02
1.782184956723296965e-02
-1.297770152241934649e-01
-4.291038878716608301e-02
-1.733839801262832686e-02
1.603598868452217260e-02
1.987012625531240501e-02
1.389477387763087268e-01
1.468706779166273624e-01
-1.329575194149327025e-02
3.481561941570669033e-02
-9.432920479067975414e-03
-1.250724872229829789e-02
3.981555958441613391e-02
2.491270564089324846e-02
2.979462553899673086e-02
-3.951061531797486759e-02
2.274873717051183533e-02
1.211114818463214678e-02
-1.927300132232147301e-02
2.583927438673291888e-01
3.501072279784584601e-02
4.934898498885000734e-02
-1.988440583694671068e-02
6.892028116804758270e-03
-2.841488568248024330e-02
6.397981995874060801e-03
2.066913471820348847e-02
-1.601356666559074562e-02
-1.603155481833234627e-02
1.648390899514592250e-02
-1.876803629304373000e-02
2.535031815720393406e-02
2.347498029741594983e-03
6.047492511296835571e-02
1.121940468183446962e-02
3.154118134973184912e-02
4.719180879147816948e-02
-2.255333564933181822e-02
-5.710572782562746072e-03
-1.513498880237661680e-02
-1.164783284546298987e-02
8.264198135594308728e-03
-1.665575973967144130e-02
-3.229404625010437024e-03
-9.705001232236956654e-02
2.744157753268372264e-03
6.125089809328060353e-01
-7.478405142309112186e-02
5.035507889659521924e-02
8.812044697225365764e-03
2.516009312390063944e-03
5.731195533747520700e-03
-4.199328223885875899e-02
-3.393143307551677729e-02
5.032813422587192886e-02
-1.265162868763318460e-01
6.871687359363678159e-03
-4.416704868918629179e-02
-1.845481545831991615e-02
-3.351386095707956092e-02
-5.192674137993158467e-02
2.031049416454057746e-02
-8.813116293078189500e-03
-7.197812948122218890e-02
2.727405239746876885e-03
-1.596235144628301711e-02
7.915870162663225795e-02
-1.380452729032474908e-02
-3.843605632671553279e-02
6.796791072911982645e-02
1.008699870194052503e-03
-2.002733249627048143e-02
1.074379088620096845e-01
-7.979455513330242777e-03
2.192017135223147534e-02
-2.121717540691088824e-02
1.053555778198382240e-02
-9.966596564020706317e-03
5.708230588931062673e-03
-1.177993232840902037e-02
-5.897322106262543884e-02
-1.474306287649006057e-02
1.007219704017874376e-02
-7.949713701594167403e-02
4.371872846044198152e-02
-2.747739527765394665e-02
-4.283304626656230310e-03
1.883800403230959791e-02
1.688066520290090310e-03
9.271532075029750505e-03
3.959871960617245695e-02
-4.407308451926173105e-03
-2.352857517640096971e-02
8.533807564576311941e-03
-2.871716739580151487e-02
-1.658309663581074593e-03
-1.443559227592070872e-02
2.912970995222325180e-02
-7.616769914284880240e-03
5.013451993320105110e-05
1.836479796097678988e-02
7.826038142846881984e-02
6.537710243621140151e-03
1.526317154105180651e-02
-2.893214614002715193e-02
8.006711569458299649e-02
-1.292049022292864752e-02
7.689688120104197500e-02
5.434376368817948715e-03
5.846224558635665369e-02
2.707426903994861883e-02
1.584834941638276623e-02
2.807167854171151947e-03
8.354024722290584806e-03
2.925995957108486895e-02
2.617613127244591137e-02
-1.357119579608611650e-04
3.859552062869040651e-02
-3.860164353860147390e-02
-5.610291999634321042e-02
-1.610850847641585593e-01
-2.656042094564450839e-02
-2.830174907331665657e-01
-7.778497749122610661e-02
-4.291912350205919630e-02
-1.798585852062889760e-03
1.449871209376978574e-02
-2.637497748560517150e-02
8.589061066415926843e-03
-1.045388600117635181e-01
1.876360414959865391e-03
-2.161091631697824658e-02
-1.213930390775260285e-02
-8.043223580364494479e-04
-1.241800784480581316e-01
-1.700329936055312505e-02
1.335951024245990784e-02
4.963511121132347520e-02
3.485800206026581048e-03
9.870094407580247420e-02
4.727277374409218080e-02
3.568236403567053711e-02
-1.016272398959583781e-02
7.037620095867094805e-02
-1.272181736541550846e-02
2.628121485320574213e-01
5.610652265953090106e-02
-1.222039156293806550e-01
-1.155555386969950131e-02
6.532457461587604271e-03
-9.498546023861318376e-04
-1.572683861274118411e-02
1.968954230632780425e-02
1.353092436265135590e-01
-1.320016838772682458e-02
-1.810944778825824414e-02
3.012893422622898651e-02
-1.211542556158223816e-02
-3.846500202655866139e-03
-5.967799737798375886e-02
-2.402111271056350805e-02
1.709159836069697874e-02
1.009833352463401501e-01
5.362487062847317611e-03
-2.038526459091499071e-02
3.748908653056297335e-02
-4.808209351722249336e-02
3.892197402618565727e-01
7.649690400460018580e-02
-1.565563633198475621e-02
1.223172340253507739e-01
3.473398989389436115e-02
-1.646610518631936443e-02
5.051011518591710589e-04
4.766656192653991736e-02
2.844727456955709055e-02
-1.208070481352332796e-02
8.485633260126022523e-03
2.235391103106586230e-02
-5.752032636451059194e-03
-2.424857237181857889e-02
1.096477631697795191e-01
5.308759665066064420e-02
9.768462036770086954e-02
-2.976607447453117131e-02
6.986657205271481520e-03
5.011089110049676137e-02
-5.470415068619140925e-02
4.121030262311500825e-02
-6.186849239076400858e-02
-6.345261660876035104e-02
-4.286444686134893191e-03
-8.070666124902307892e-03
1.347067352070814399e-02
-6.321792559732435091e-02
5.779654819143105471e-02
2.139681976634774836e-03
4.778903556550310322e-03
-1.541999747002635764e-02
2.536422892620121897e-02
1.198647379065202056e-04
5.633766520678974016e-02
-1.564771118680781739e-02
3.047270339135066310e-04
-1.847172944662948350e-03
6.038084837802615464e-03
-2.615104558070059648e-02
-1.121373470051826617e-03
-6.630641856224712711e-04
-1.382529072407136239e-02
-3.656862684799216251e-02
2.491535525487158231e-02
4.411768325993244491e-03
1.372261872514448332e-02
-9.594411097379872133e-03
2.219268156734966260e-02
1.335751168040886366e-02
-2.542923648316995633e-02
-2.005369690064852384e-02
-6.231158473706073508e-02
4.266787499856704996e-02
6.719273970899257431e-02
-1.513667729039528363e-02
5.444985066547611274e-02
-3.493490367236332193e-03
4.229303066941426242e-02
4.260556640427348024e-02
1.467152105534448858e-01
1.190570261308978584e-01
-1.305835714030953096e-02
3.212803460571306540e-03
2.460228941593389090e-02
-4.648707992342258899e-03
-1.325126109877072106e-03
-5.981838063970090248e-03
-1.910653843370918939e-02
2.618929131605661140e-02
3.527187784644662816e-02
-3.156517007181720673e-03
4.555887260866180004e-03
3.149695607847360218e-02
2.276941979566638949e-02
-1.610777513901603258e-02
1.244447005370096816e-02
-1.897369185025305632e-02
6.993073961372322069e-04
-4.448863302745858367e-02
-1.617421946929989973e-01
2.582522485439744594e-02
3.859739614662854174e-02
8.164661798892840217e-02
7.734346898056532194e-02
-5.747252694729936690e-02
-7.396413824437308993e-02
1.708960785830706749e-02
-4.155486123898114587e-02
2.725066528967428139e-02
1.979018138530464974e-02
1.363129538767812515e-03
-6.028795424886113780e-02
2.320416539683057416e-02
1.692444962093455491e-02
-2.376380751332161576e-02
2.120539464366904756e-02
4.094626238891139330e-02
5.242670468792738625e-03
1.096885946202310995e-02
4.734461699930544998e-02
-2.135771030531727170e-03
-6.682718228716274904e-03
-1.861518354155425325e-02
-8.509205668042918880e-04
6.380375717234720856e-02
-1.099055871422976831e-02
-1.452799507427079799e-03
6.220074536404292948e-02
-3.577620948001858110e-03
8.590269270940750074e-03
8.505130339919167101e-03
1.424177396750607102e-02
-1.541702894532562956e-02
-6.979784364406986519e-03
-8.209994160947416131e-02
7.011046969209519010e-03
3.304638856195350749e-02
1.513973578317692054e-02
-5.911152039084331677e-02
2.378195451847765068e-02
6.603057882895225529e-03
1.784366451631887521e-02
-2.453098932228458054e-02
3.268449949442329971e-02
2.167735832683831063e-02
-1.222589376719598886e-01
-3.162589779060130581e-03
-2.554966622068573917e-02
-1.284445780025446002e-02
4.688037921880760378e-02
-1.493824154999124579e-03
2.413447656768850577e-02
-4.361696004735565214e-03
-1.497796321302499907e-02
7.343725899933114740e-03
3.691730270011667203e-02
-9.590445472765765297e-03
-7.325819882336963296e-02
-3.049975497378796044e-02
1.550271030798337606e-03
-9.776059140725195523e-03
2.019075541530135007e-02
5.483733492713692946e-03
1.270798683706818007e-03
2.261791709102757564e-02
2.033651139692016843e-02
2.657112654564164345e-02
-2.734084610680630537e-02
-1.772611229795851770e-02
3.699677624566021037e-03
-1.591586673846383942e-02
4.694044296168917163e-02
-3.320570639978345784e-02
1.568538647308032009e-03
-6.928075584856825675e-02
-2.259735797886112951e-02
-6.710599635422109799e-02
-1.912757033236941323e-02
-5.711975671145081562e-02
1.002648987782272655e-01
-6.088898701769936573e-04
5.570846150833431987e-02
-5.591808219501423309e-03
-1.537621213446241884e-03
7.765868449995295963e-02
-3.778352943185943336e-02
2.496689876158686774e-02
3.073691173542794294e-02
1.056913894704750861e-01
1.052733409052078600e-01
6.482102642918630662e-03
3.587079865306026794e-02
-5.124860985237927880e-03
-1.377224147421789169e-02
-3.136928829990363096e-03
-3.501499886125547523e-02
3.990753229196240814e-02
3.929784176434729381e-02
3.675196693129898495e-01
-8.051438598483283068e-03
1.581274098708659219e-03
9.478698738819029204e-03
1.735275841972449551e-01
2.502733990513332507e-02
6.730207390271680627e-03
-5.041761494518754577e-02
-2.509204431449543965e-04
1.273644670805317014e-01
1.532643005517060619e-02
-3.875640131404217009e-02
-7.728387615884908801e-02
-2.373668322408008236e-02
-2.152605796574711197e-02
-2.034284713771631475e-02
9.584198296651107174e-02
8.524582683106866898e-02
8.389003371445807877e-02
-4.356137692392911959e-02
2.515031487085882950e-02
2.761565698828507415e-02
-1.710742193658283394e-01
1.347707411717826397e-02
2.773857021251493853e-03
1.147853519004674028e-02
1.700825100485340441e-02
4.807249299813002100e-03
-3.936838449570875115e-02
-5.551224859714413290e-02
1.690950875025721556e-01
1.623826939730036584e-02
3.055060186197939773e-02
-4.107080183416595559e-02
-4.155362043084595558e-02
7.339818269421561139e-04
-5.058548463054955008e-03
-7.640222319930201587e-03
-4.224091241208254716e-02
-5.078551705298111479e-02
1.130467331941661241e-01
1.455377190647209884e-01
-4.458419235955422659e-03
3.382959452830365532e-02
1.451568716760417641e-02
1.869027232113867551e-02
3.169161916306226234e-02
-1.762181428678955691e-02
4.366763098786632935e-02
8.843348851035725405e-03
-3.681050034747673089e-02
3.309452612239194985e-02
-3.405064921444950210e-02
-5.206473275650130850e-02
-3.936044602175578500e-02
-2.577669307984075883e-02
3.004910303083069972e-02
-3.996675580647503917e-02
7.599146804260166477e-03
1.597879773370852134e-03
3.916243589289995081e-02
2.157989005849789144e-02
-3.804221054806264379e-02
-7.376967988196989415e-03
-8.126291880561409275e-02
1.608453558422712759e-01
-3.855951218208186759e-02
1.089465938513960175e-01
1.106771269902477421e-02
-1.058972569237779347e-02
5.490193381059489501e-03
2.579128991249114017e-02
-2.581605382441467741e-02
2.445639558216541540e-02
-7.246918973647716901e-03
5.611669770361542992e-02
1.680185822488843711e-02
-9.932051903452655817e-02
-1.364082288098842667e-02
-5.948215666945648461e-02
-5.205764412233226565e-06
-3.247517751079569831e-02
-2.295930617485754041e-02
1.355358687312432746e-02
2.364714315962105837e-02
2.596344790691047788e-02
-1.066289560707217240e-02
1.414589193234716546e-01
-1.310106893851148077e-02
-1.341074050786477366e-02
5.020804159026000940e-03
-8.004332895809097848e-02
6.116778085207242449e-02
5.526269664375012790e-03
3.487716188100409287e-02
3.402416715589256374e-02
-6.760361791814389768e-04
-3.633799883812152860e-03
1.756655333940754932e-02
-2.973305573776414273e-03
8.815875409115325745e-03
-1.606136198301520365e-02
-1.213669983533287727e-01
2.748739971532192933e-02
-1.639956338623795029e-02
4.546148661864665708e-02
2.291616246883498246e-03
-2.224269215627684617e-03
-2.471617279686019047e-02
1.296940469076623449e-02
1.296303186476294861e-02
2.307757932901128087e-02
8.440951800560484580e-03
-4.530105953332873303e-02
-3.692786396684129280e-02
-3.790584161523179868e-02
2.067989652133053399e-02
4.856021116192928977e-01
2.372005183002099532e-02
1.419431714544584222e-01
2.334320319822857231e-02
-2.483599123071549442e-03
5.661021753717979110e-03
-6.516411455857668619e-04
1.514411322718404139e-02
3.754945817156975750e-03
1.508363374830646968e-02
-1.916133670975273809e-03
1.747916276572980630e-03
-1.115811766150440892e-02
-1.001520310447598502e-03
1.149655364395075520e-02
6.510521067932656392e-02
1.318406744954473721e-02
7.693059621046426100e-02
7.083441792256693625e-02
-2.543336185300829402e-02
-5.264236509036980365e-03
-7.690736808071980957e-02
-3.458555660124157036e-03
3.371219536405256623e-02
2.107597103509710121e-02
8.472208203041570488e-04
5.329448630396390989e-03
2.148296050109900837e-02
8.017869410932992880e-04
-1.516523999387701591e-03
-1.861660618085835273e-01
-2.203431938547767421e-02
3.393014906209853437e-02
-5.893021877462857605e-03
1.764406186496406820e-02
4.354873661025671083e-02
6.219969614660261596e-03
-7.082362754622847922e-02
5.139461032191425943e-02
-2.596300035308546361e-02
5.371315850006455617e-03
-7.675219321415656382e-02
8.632688862381550365e-02
-4.032172719457783466e-02
-2.088529480358156110e-02
-5.479931318747187363e-02
1.098132909302024056e-02
-1.930827389227995072e-01
-3.830956232365917424e-02
3.223724987789292062e-02
6.687296897831068732e-02
-3.437278116446755571e-02
2.239595981763498750e-02
9.780525484064722316e-04
-4.143532296827517544e-03
-5.654321125628491984e-02
-5.276438362420924483e-02
-9.439254724145959563e-03
-1.195349140115131020e-02
-1.611232527199517751e-03
-2.067503865642561500e-02
1.506559717618484277e-02
-3.710370001131769752e-03
-3.824113453950723357e-02
2.798702516758721365e-02
-4.354033425816187380e-02
2.974446674237963759e-02
-3.247156229073994149e-02
-1.927280721937464983e-02
-7.743180627500885482e-02
1.712347459996329743e-02
2.003372211261147950e-02
9.591544713006985856e-02
-1.262678967625819118e-02
-1.428850149687644309e-02
5.364505690460450414e-03
-7.648762002303759189e-02
-2.622488092462434486e-02
-4.715811648025822547e-03
-2.088169946212550462e-02
6.797664050555463078e-02
3.670187745882201591e-02
1.098675717464601097e-03
4.793918806638976238e-02
3.282746850609770135e-03
3.103388912510418596e-02
3.349436189622517681e-03
2.988274964070234893e-02
-5.254468926464400669e-02
2.750810402394434956e-04
2.931848210727761722e-02
2.747332039343539090e-02
9.424404413640452560e-02
6.711235461638434541e-02
-7.564288807324974842e-03
3.663577858420635075e-02
1.282686931566229781e-02
-4.566380672456381296e-02
-1.278784987206330742e-02
-3.290019874107011355e-02
3.513453309525225304e-02
1.015611490961061507e-02
3.309295257013720321e-02
-1.165404509307620476e-03
8.841300936813926634e-03
2.350365358951635453e-01
2.899166062920296646e-02
5.425219405656874633e-03
9.707593139915352345e-03
2.955492504618440625e-02
3.495454492151084478e-03
-1.325307699566596019e-03
-1.399524976604318849e-02
-3.082435737660341353e-03
-6.582127396845001421e-03
1.160624110490530297e-02
-1.543853603279660147e-02
-2.946138038817439422e-02
-5.572543476754204372e-04
2.717146336938518897e-03
1.840884571988185558e-02
1.984538847815513901e-02
9.768453985927355587e-02
6.629182819552341399e-02
-6.353710432104908712e-02
3.963774603021216064e-02
1.913315203581162152e-02
1.352124965447675659e-02
6.105127975794756578e-02
1.757014131296175466e-02
-1.388037806869728795e-02
4.850744082289826925e-02
1.257473246899027362e-02
-3.988497795192681022e-02
7.208043343594351671e-03
1.642934115271390758e-02
5.453472186929252813e-02
1.584124003919410925e-02
6.259966982076846549e-03
-1.613672116358956347e-03
3.149840391249069671e-01
2.168898003408999131e-01
2.008370361998913084e-02
-4.434586207027606253e-02
-1.484751767368598478e-02
1.690181094851074539e-02
-2.688032442745548131e-02
1.987844117756821984e-03
-2.887157122069934894e-03
-1.533275887265907189e-02
-2.698968403585004158e-02
-1.998602383821622419e-02
-4.129003549153816011e-02
-2.723088672531757265e-02
7.980234239963701626e-02
9.732648204726350449e-02
3.306650209261965349e-03
-4.793740731666542437e-02
1.035341686914819682e-02
-2.161149740496907023e-04
4.679757634314683085e-02
-6.287517740457455179e-03
9.473755157150216821e-03
5.164922645740900597e-02
8.443260050733517388e-03
-8.529696897145442810e-03
-2.173954539409689302e-02
-3.412543201001648485e-02
6.070427404000110910e-02
3.098910583576678854e-02
6.693992430502400393e-02
-2.444861165359697719e-02
-1.223547015340373592e-02
6.356640360167623016e-02
1.533272510965803456e-02
3.475035027652417785e-02
-3.199230536816589400e-03
5.334058122018694309e-02
-1.002835173792847034e-01
1.016473412569784962e-02
4.926860242922156963e-02
5.439024472495862517e-03
5.650532978164442451e-03
1.309619305000729074e-02
6.657937326435425796e-02
3.288664130123081231e-02
6.516918064717806824e-02
-3.631790135926780960e-02
-5.447558176925500206e-03
-1.220214435630035364e-02
-6.410832915379598151e-02
-1.316905013040118311e-01
1.785078379671894977e-02
-3.521990095846839336e-02
-3.767258172778530367e-01
-6.200514180911750883e-02
-4.900651558765393989e-02
-1.085568410292101285e-02
1.728912769442318004e-02
-4.038130141569326592e-02
3.206941594056624684e-02
-3.725441495382406012e-03
-9.255530863531803015e-03
-3.695347105292585976e-02
1.583625702176473526e-02
4.796509028389537438e-02
2.190344099721659374e-02
-1.177717862157688783e-01
-9.240047666156415984e-02
2.953676659523479103e-02
3.645453456467676046e-03
1.497231086315969038e-02
2.692602415337096156e-02
1.342872860624119008e-02
-6.072779499688858024e-02
5.862858704335390664e-03
-3.053089827552462471e-02
1.844507908801576446e-01
3.523676134777799923e-02
-4.196346401405810084e-02
-1.897503750165821859e-03
1.053118056800321223e-01
1.726158413736349900e-02
6.580564871465463539e-02
-2.058988306364344101e-02
1.933061644246905283e-02
3.573536255907199932e-03
1.686164420650479445e-02
-2.754985510915504421e-02
9.172932280157128360e-03
2.421619406738317187e-02
-1.953587579818109876e-02
-2.131622161759886766e-02
-4.236328927556375600e-03
1.693743867437268527e-02
5.103448810966177557e-02
-6.435350223447353080e-02
1.211726704035021723e-02
-2.854740377643072338e-03
5.506947021908085299e-02
1.720211973871000818e-02
-2.463229869233483083e-01
4.071188728789957439e-02
-6.381471621007005213e-02
1.528195607970782126e-02
4.884071511647382346e-02
-4.658887071680359315e-02
-4.838340698830393555e-02
-2.093806349503756284e-02
-3.891227325786552477e-02
1.015440256491162603e-02
-7.312161973811933183e-03
-8.443847189108497076e-03
-6.304377246234056653e-02
-6.128516277966218487e-04
-1.845038452985373403e-03
-3.462342006021041502e-02
-2.780586928363679156e-02
2.154120972529414632e-02
7.178634186486025637e-02
3.505051460056939766e-02
2.157988856076803810e-02
-4.089052091420830592e-02
2.450528811448936251e-03
-4.438598303486628732e-02
-2.685185446638672924e-02
1.661643682597575486e-02
3.201590580902380356e-02
1.944399272130828762e-02
9.063851890545930601e-02
-3.706681343520834560e-02
2.781778561583345133e-02
6.375532649495967152e-02
3.301421712665231212e-03
-8.695949082169489655e-03
-1.200841943706630437e-02
1.071574904501308018e-01
-3.265951262413515493e-02
9.442028307471121706e-02
-2.367479030648667743e-02
-1.253525714975167044e-02
2.080782643104745876e-03
3.975297718652030278e-03
-4.669401170980485433e-02
-3.402993773506537978e-02
-4.530819811120899779e-03
1.691774236197444298e-02
-8.428795678679235417e-03
-2.320054993827708537e-02
7.160065277657336191e-02
-9.174207032579383136e-02
-4.216153605855416098e-02
-3.661560282502071551e-02
2.417672150764997759e-03
1.837355770037971681e-01
-3.243526380485404342e-02
4.473974578540029778e-02
1.674333783579446885e-02
-1.462949254741069231e-03
-1.437735898467513290e-02
3.984345729124413177e-02
2.092342491359680881e-02
7.044985530206610523e-03
-1.830996735610291790e-02
-3.861493816541681362e-02
-2.996127466697327824e-02
-6.965147457417025789e-02
1.100608107314607169e-03
9.313951882677095478e-03
1.481931226764951134e-02
1.304457402315391040e-03
-9.151231713692578248e-03
2.908188217624019245e-02
2.740318900137385383e-02
4.489554818116472251e-02
4.211390623178908402e-03
4.992270843011959759e-03
2.884056879658108280e-02
1.681534155067729644e-03
4.729496116134938866e-02
9.076021852019242053e-02
6.552528974819518681e-03
-4.836893721710967993e-03
4.881003583205403146e-02
1.020815594043975039e-03
-4.834491693495039828e-03
-1.666761212865146410e-03
5.049341366159863786e-02
5.350722086906449515e-02
1.215423471290748118e-02
-8.641474584644459264e-03
1.804416525084763523e-02
1.496947382060053941e-02
-3.613915437147764420e-01
3.472811071151767071e-02
-1.107144254278737139e-01
-6.217047890048835873e-02
2.240753647035005972e-02
-2.820095340312242255e-03
-5.698348545267088033e-02
6.359913965579877537e-02
-3.919574514289933531e-02
1.238373229917778401e-01
1.226360363908634947e-02
-3.403009739771375997e-02
2.758685142015822149e-04
3.090068570149578225e-03
-5.189705561614163520e-02
2.094284862845554804e-02
7.319652810933122145e-03
3.818031217984919207e-02
-1.171334532568172326e-01
1.072052220164755772e-02
3.800345625369823399e-02
1.213100961739979611e-02
3.117154858394917058e-02
-2.383825053982353143e-02
-1.766004301628881432e-02
2.681102013148194477e-02
1.721309841734177878e-02
9.384076320106937361e-03
2.612641740965246026e-02
-3.046206581123778959e-03
1.636890966028146585e-02
5.447877314495215735e-03
-1.461946214396591705e-02
-2.430232111940435272e-03
-1.485395840540370410e-02
4.268948894804822786e-02
3.905801956376203795e-04
1.375264822831912502e-02
-1.402776040001036360e-02
2.919372078897519100e-03
-4.460776592213810260e-02
-1.763496919273326718e-02
2.990092235802091578e-03
-1.693090050891740347e-02
4.770743145682254660e-02
1.075163227514832655e-02
2.262945863517670450e-02
2.591163379829181188e-03
-1.012229352609363316e-02
3.347307853547504958e-02
1.896621781288793107e-02
7.601098408322713891e-03
-3.134486464927334348e-02
-9.648823272991083333e-02
-7.776070893150377472e-02
-6.772396975518747697e-02
-2.897734429520028819e-03
1.512330828054575527e-03
1.627338634201038262e-02
2.577357359482600196e-02
2.286961350048268005e-02
5.032658309090119741e-02
1.154894815598320711e-02
-5.185615504262662545e-02
1.218243266893752619e-01
1.055957475735009449e-01
8.240512929765488048e-02
-5.534814105774161011e-03
3.009015801715756930e-02
-1.393695364509471395e-02
4.562945213985291075e-04
5.173268594082406496e-02
1.590477872139252000e-02
3.115298505597098588e-02
-9.425405316379899257e-03
1.859029463062398385e-02
-2.276241299229368742e-02
8.389548372165498216e-03
1.617858210666927796e-02
1.470540325419582295e-02
5.505325533712181890e-02
7.149593692709271808e-02
-5.203725019333824663e-03
-3.035360026795035429e-02
-6.236228208509293075e-03
1.944044808625705612e-02
-1.574507647231098914e-02
3.508899656728745042e-02
-3.427655246466999178e-02
-1.659032905978341868e-02
-7.189676876643522063e-02
2.194961478063552768e-03
-3.649868003457189952e-02
4.468725008782695185e-02
3.673500805288552884e-02
3.244456141568026475e-02
2.783780143456813794e-01
-3.103696880171511949e-02
2.155165931568493634e-04
-3.328434606761459125e-03
5.298838231383291159e-02
3.904455270894396923e-02
3.138794809161422200e-02
-3.963660819370641575e-02
6.465489263789372769e-03
6.377388423615865803e-03
1.072551476162694230e-02
-1.566338159744292413e-01
-4.087900214288613110e-02
6.842563049313190758e-04
2.391664636012850315e-02
-8.209920690777122720e-02
-1.386208049709391696e-02
-3.606734210355282827e-02
3.166348976819488830e-03
1.115379893711792303e-01
4.925784536725710122e-02
7.663341449886507985e-03
-1.404161227455713243e-02
-5.347817361836088371e-03
4.519813012346390185e-02
4.599320473526844963e-03
1.590705120706937745e-02
2.508883343593283979e-02
-1.494312486884267523e-02
-9.909321349931754161e-03
-1.764709526002306017e-02
1.143436715293675264e-02
-2.572893289442030815e-02
-3.261016647794546565e-03
-7.666889467517901124e-02
-1.439793098949654626e-01
7.351856714945298465e-02
-6.583978580949540957e-03
-1.324398822123722466e-02
-2.405301950066542072e-02
-8.841260329061550668e-03
2.517418970502048603e-02
-3.821299749670261509e-02
1.361910940143582459e-02
3.033265662418323932e-02
-9.519381562140364142e-03
-6.728040731729658004e-03
-2.976251386562895826e-02
-3.582553719993655794e-02
4.287624255107700538e-02
9.368751370543190737e-02
-1.368655659560094259e-02
7.947538680215546214e-02
1.892214847910062350e-02
4.566427450103190122e-02
-1.017405239307809118e-03
-2.393134565575311123e-02
4.401085171373332952e-03
3.716718983348774041e-02
-3.212934414502270630e-02
1.892933327119507639e-02
-4.604392832878695385e-03
-1.651344985047262931e-02
1.316316350890202498e-02
-5.538144616201055859e-02
-3.932301804170711124e-02
-5.320656740122123307e-03
-2.158783659226770971e-02
-9.363234169492739081e-03
-6.318004750759047272e-02
-4.789482861770193861e-02
2.177545829948718259e-02
-5.281079664722081873e-02
2.976130138197864185e-03
-3.836819816949571527e-02
-3.700396018734853840e-03
-5.514143013556556394e-02
4.235042129364873474e-03
1.800981754731298054e-02
7.609887175782580407e-03
7.756509955177792737e-03
1.378367496302047857e-02
8.989521362749688244e-03
-1.131198397867801998e-02
-2.151809256008816937e-02
3.557004727676644357e-02
-2.707833970181455080e-02
1.614668994035957589e-03
-8.804298646655101326e-03
6.551850993200075690e-02
1.025176409500092173e-01
5.012595686260808495e-03
4.466871188245429697e-02
6.678677161548382535e-02
3.695019957155109419e-02
1.656167279543080059e-02
-8.024311952528475483e-03
3.602251948593718223e-02
4.338232842490084146e-02
-1.198768266849943413e-02
7.820812040734675952e-02
5.573608749793138029e-02
2.521069183807860339e-02
1.724072587706339948e-02
-1.339918133417179226e-02
-1.813998677413871663e-01
-2.861133910599747768e-02
-7.362183377489077418e-02
-5.006437324285535617e-02
-1.809876335461304830e-01
3.748645169249458647e-02
-1.117323817716400422e-02
-7.090013522871922019e-03
-2.741624949760150531e-02
-2.900156154183632928e-01
-1.655065394991275460e-02
-2.100863007760388201e-02
-3.118742298715746885e-03
1.636492137182143231e-02
-3.094711391082468916e-03
-8.456816571851537290e-03
6.334020999102238370e-02
8.988623564769163132e-03
-1.371162166244721363e-02
2.702064720181237070e-02
-2.911771309861087634e-02
-8.464709935858847831e-03
9.328225921641986051e-02
1.330243126006211765e-02
1.270673122355867879e-01
-1.158664185338736420e-02
2.823441056999811765e-04
4.445837503587934600e-03
-1.975394547473706686e-01
-2.396024249607782777e-02
1.777231176174471489e-02
5.182544837172119168e-02
-7.306797031169792733e-02
1.064520938248570553e-02
-2.727256834897047108e-02
-3.051698596712822467e-02
-1.152967032259416894e-02
-2.119981702723208739e-02
1.966712213095563131e-03
2.187263038121792583e-02
3.623386693779818025e-03
-5.968749517319437564e-02
-5.583468894537287758e-02
1.834720089371134899e-02
-1.523974847163069718e-02
2.439348917801551636e-02
-1.789480310303063820e-03
4.021240477157008580e-02
5.141556757732832633e-02
7.451709066992853910e-03
4.815139767184282299e-02
1.034084896797896232e-02
3.674704737347039840e-02
-2.067477468109892025e-02
-1.064627210831457262e-02
-1.052900478789618594e-01
-1.547256600568057971e-01
-1.218031694752073901e-02
-2.095949987338375066e-04
-9.968087994722063874e-03
-5.975955041470887297e-03
3.824266756826482511e-02
1.685412125300660494e-02
3.292672233119366132e-02
2.185928631179100481e-02
5.888041898006759339e-02
8.883474143554651384e-03
2.265418287922968399e-02
1.802708336318370116e-02
-6.518331129606641516e-02
-4.833246694571081449e-03
-4.854198665713216343e-02
1.703229490214380748e-02
-3.569441499641982322e-03
2.418479211041649549e-02
3.705121089203498343e-03
-8.606373572921960369e-02
-8.730186208339747386e-03
-4.498091525770734310e-03
-3.262298592964314736e-02
-1.236398325657485191e-02
-8.991086765911314102e-03
3.442147392928251309e-02
5.947058396036447592e-02
-1.698992793054749859e-02
1.375322777916161178e-02
3.018959443229953486e-03
-4.960653654777894689e-02
1.466032792245083316e-01
1.888771657978468091e-02
-2.433578925787335812e-02
7.808007953013886004e-02
-2.618072982683975619e-02
2.020845843774483203e-02
4.678090576467787420e-02
-2.054600300270530144e-02
2.592271798212325562e-01
-3.427374998421246245e-03
-2.095192200949407349e-02
2.098603486594156561e-02
1.531827633290188360e-02
6.159464419603951496e-02
4.421758814216997235e-03
7.440566531799489231e-04
4.662504655004631737e-02
-2.114457986473002385e-02
-7.224779737112041467e-02
2.550430772968019857e-02
-8.487492069122173910e-02
4.577959417318849984e-03
4.091011758360738743e-02
1.051137891826758007e-02
-3.641160460569475843e-03
-2.353672693575865806e-03
-1.262751140303767020e-02
3.796925449781614337e-02
7.956958337122302383e-03
-4.147045647042066872e-03
-2.035872562115145779e-02
-1.155927884514930566e-02
-1.578347061510937746e-02
3.728155550558680253e-02
6.269880514361733659e-02
-1.634236701349474005e-02
2.325672114295510365e-02
1.011800728508120278e-01
3.637167280651948387e-02
-8.877453709877183505e-03
-1.287758669934239292e-02
-1.760912346805725741e-03
1.758054882488720508e-02
-5.365483356694420412e-03
-1.997499199612788601e-02
1.236994607607627694e-02
-5.174462590948367829e-03
-5.060931839618471387e-03
-3.651109205189295064e-04
-1.220208452592071689e-02
1.018449134751892374e-02
3.725956394812375561e-02
-7.878476502909310952e-02
-2.537010954818538083e-02
2.894507000795139284e-02
6.128928138373451046e-02
-4.568113845107951015e-02
1.738016379009981382e-03
-4.385892595461450549e-02
-1.326930159365903861e-01
-1.369537325406491868e-01
-2.098950887993190906e-01
-5.349654644419559076e-03
-2.248614100153490877e-02
1.892955780294585527e-02
-5.183618306095383495e-03
4.992455590752184480e-02
-2.411029557779295618e-02
-2.686231690782852136e-02
-1.374738034180968821e-02
4.201489852065809494e-03
-2.740132595143277700e-02
-3.365814133117249474e-02
1.514013709227770288e-01
-2.703532206106180761e-04
-2.752349770938573512e-02
-2.024005592596557143e-02
3.446723358242868851e-02
-3.521087055046350726e-03
-1.143976206841569865e-01
3.819822474673385815e-02
2.537286628194491689e-01
3.634826832654698969e-01
6.609009568169361970e-02
-1.211924550191943555e-02
4.549591934963597567e-02
2.031597332114680118e-02
5.960318657733241349e-02
-1.144486363294166115e-01
-2.313411403956193435e-02
-2.848660381431447619e-02
-2.089582420605854817e-03
6.391514575545228713e-03
4.624808471205340415e-02
2.475376385579604668e-02
1.892895399616633528e-02
3.490801909524059166e-02
2.384224568933720340e-02
-9.499747294835428346e-02
-2.301651823567692559e-02
3.718391420398548669e-02
4.588764389914955222e-02
-4.381366678792109753e-02
8.173721826587340353e-03
-3.666675120883842315e-02
5.152764328233241931e-02
1.742174413102844446e-02
3.996664245685736111e-03
-3.148343210927998653e-02
3.887438578385141001e-03
4.054943786156351565e-02
4.013778228857639574e-02
3.527618896403792587e-02
4.462270699800171755e-03
-4.721614491607053522e-03
-4.257744671351366907e-04
9.959610744437612934e-03
7.634076246459151061e-02
2.339224340729038204e-02
8.515469668691529048e-02
-7.687265955153997979e-03
-1.466093230168663726e-02
-5.940260337279351655e-02
6.330682635664449699e-03
5.344153591958186733e-02
1.298245615250638422e-04
-1.331329147549602798e-01
1.051163374801323365e-03
-1.480019469909088781e-01
-4.087209381507841965e-02
-8.731564678020083126e-02
2.478502347676508344e-01
-5.201781254536648469e-02
-1.349317618926769435e-01
-4.348380547565056098e-02
-9.963179866900574722e-03
3.745519845280063931e-02
6.941651908076454380e-02
-2.234755685552415258e-02
-1.073395940146269593e-02
3.369807118610337882e-02
8.340669182081512922e-02
-1.304303922168362218e-02
5.493569144283819497e-03
-2.949681870990702656e-02
-7.967179430929997863e-03
2.202432606965876519e-02
-2.721574660081567219e-05
-2.953282584299520702e-02
-1.944108340883665340e-02
1.727146310928500891e-02
1.300688145685739705e-02
2.362192139772708449e-02
3.247420831833806865e-02
7.296026036555049166e-02
9.398412256711646817e-03
8.471330334843169690e-03
1.934442800367626447e-02
-1.037397958200404584e-02
4.124160623507530307e-03
1.888853496097431944e-02
7.421319181976979498e-03
2.140100994762344361e-03
-1.217410698976413228e-02
-1.313622807620580535e-02
-9.733270326843230028e-03
7.345951168010015492e-03
-5.534827522914845255e-02
4.813611574610924398e-02
6.930431397161311569e-02
2.378941252834544662e-02
2.749377323216324609e-02
1.436342599319137027e-02
2.809040074396931385e-03
2.674739600232772449e-02
-2.566851623248035414e-03
-2.983802662549716461e-02
8.345643442064837325e-02
4.882696949576914580e-02
1.772001729978366358e-01
1.276796882718960954e-02
9.114677760534366235e-03
6.544600024028041085e-02
1.536696761554281337e-02
1.056321006825458250e-02
-1.007128506999439323e-03
-1.364255650742753623e-01
-1.185143389941642131e-02
2.818717116922995342e-02
2.766963097895749901e-02
-3.539500394186863384e-03
7.104594537958350275e-02
-4.388421420349789687e-03
5.201868290341437467e-02
4.180613724428349637e-02
-1.338031409622811030e-01
2.147668869561289440e-02
5.305966351169503353e-02
-1.334241405346444920e-01
-2.952543701643513957e-02
-1.488019310690689295e-02
-3.491600713933929595e-02
1.768953444547115283e-02
-2.296472549205722316e-02
-4.509967462279214183e-03
-3.707792669482797010e-02
1.024210891175006931e-02
3.096189988406010743e-02
-8.951039029366192681e-03
-1.630579846012454037e-01
-2.994171718636609537e-04
3.313212265515794869e-02
1.689058322510292309e-02
8.206972456870254007e-02
2.031611009189209990e-02
2.192409659189550886e-02
5.678447773302908131e-04
1.297170509685533976e-02
-1.762069428198336993e-02
-2.946364272519863201e-02
7.912442585778298176e-02
2.881569742213895349e-02
3.505752690881640959e-03
4.890219947258953731e-02
-3.596470033746702096e-03
4.018185985183189875e-03
-4.698137110604800465e-02
-7.259790748795080968e-03
-6.308498631118242272e-02
-2.018375986100349670e-02
-2.129091087400624555e-02
-1.874956941571034874e-02
-1.116957536730282113e-02
-6.144191821780347479e-02
-2.683259569917286966e-02
-8.097016347723881222e-03
-1.025193375668668506e-02
-2.803239992101209110e-01
6.704845331402166375e-02
9.498779726375579640e-04
-1.572973620863287250e-02
2.529982889504318183e-02
4.798902070864598940e-02
-2.394841725468289592e-03
1.106453313148395533e-03
6.229547749280359321e-03
-1.320287019787081198e-02
4.678351780218734102e-02
-3.211251270697573768e-03
4.750838736062128198e-02
2.108712444821819743e-02
-2.815982349007168511e-02
-1.405469200756789654e-02
-4.973425229465808228e-02
2.343052751082730020e-02
-7.016524800268870814e-03
1.075634303021755223e-02
-5.499126269180056731e-02
-1.453403927495465139e-02
-9.104638967157639706e-02
5.695603282617642954e-02
6.561390974454601489e-04
-1.754472173670068580e-02
-3.906813285922476620e-02
3.907611985163369356e-03
-2.088515837829410873e-03
-5.268170958631660135e-03
6.373827210794959924e-03
-4.908154418013167125e-02
4.575401835702600645e-02
-7.095011957533009506e-03
-3.832132549064907329e-02
-2.441575354118614982e-02
-1.424135646250818295e-02
-2.057948122055569887e-02
-1.172114439232575453e-02
4.156661710160274720e-02
-1.254319666422153493e-02
-5.997498538627502734e-02
-3.504075879229716084e-01
9.732093504529946287e-03
-1.023965328497500847e-03
-1.042520725396972048e-01
-1.232924115902935512e-02
-6.572106535574748221e-02
-9.605976575122288780e-03
-1.391409131487202425e-02
7.074823272641179994e-02
2.571865956150817811e-02
-2.496678908838559363e-02
-3.635913666702752373e-02
2.022618413199256046e-02
-6.018411101300592120e-02
1.207703361227703380e-02
-1.012942634299691773e-02
1.542352308020791644e-02
2.127175098446916664e-03
1.025630275837246044e-02
2.766671919257116669e-02
4.887438240809134811e-03
1.875613325768983597e-02
-1.492605600253959011e-02
-3.006190931638978367e-02
-2.082779743040114387e-02
5.420131420509422676e-02
6.292974981277645041e-02
-7.842310109040694782e-03
-3.794987108159109807e-02
-4.062908167821116870e-03
4.030008321994325154e-02
-2.991954305200770770e-01
6.148912488972729145e-04
-7.305598917539035675e-02
-5.378185181001683864e-03
-4.678882686785485606e-02
-5.590847990543106050e-02
3.633846164165648995e-03
3.096071282666381860e-02
-1.019411160663070970e-03
3.320741180978018653e-02
8.187795618956416818e-03
3.231942998559326347e-02
-3.840129819726615518e-02
-3.048657367562276552e-02
-1.243768013010066245e-02
1.065975753360711917e-02
1.610920717037173794e-02
5.559548341857977784e-03
-3.228659719547297136e-02
6.370186369079923645e-03
-4.825785334269269006e-02
8.980647113087042790e-03
-3.574291470672356918e-02
-1.707194476903731509e-02
1.303063564913840670e-03
9.469684484826634482e-03
6.238361977634000223e-03
2.086492762755882274e-02
-6.009844346398923731e-02
7.232090278721134413e-02
3.527465509497846458e-02
2.675806919548642283e-03
8.503588446696146164e-02
-1.545025426839069863e-02
6.561972286282748146e-02
1.937078212319396919e-01
1.263627222571932045e-02
-1.065572140211173829e-01
-1.446910816043695328e-02
-4.879691320466610777e-02
1.727214275532285015e-02
3.970759940787218882e-03
-5.348092774625659573e-02
-1.734244343511212247e-02
8.585543277378554494e-02
-3.982712753150478846e-02
-2.280647613875227357e-03
-2.746114073725967625e-03
1.350416560197041128e-02
2.667750957752385021e-02
1.936315407513454143e-02
-4.962014137630360588e-02
1.643316128089851794e-02
8.685657448079828202e-02
-1.053246739213991277e-02
1.307086838405072983e-02
-2.413113798926157314e-04
2.126038966653295836e-02
5.324590995623225929e-03
1.148627151013128372e-03
-2.975472334324426316e-02
3.224865725740193312e-02
-6.021424524718119696e-03
1.917556272571437417e-02
6.140148770295108735e-03
-5.668665549710472269e-03
-3.286086403871375100e-02
-1.964677883945205317e-02
-4.855860656012893350e-02
7.582581752115712115e-02
6.244680688373612518e-04
1.664192102528561697e-03
-3.258751054831454750e-03
-4.418975685597919395e-02
2.663150744308515755e-02
2.516610311398153211e-03
-1.318570079815317188e-02
2.015004894454990470e-03
6.981766640094623499e-02
-2.539342907430253149e-02
1.155580990474616709e-01
2.991476662815292786e-02
2.356276639878060117e-02
1.285077972297218006e-02
2.145453934512947351e-03
-8.820880764847117625e-03
-1.484380361196896772e-02
3.628265714879454207e-02
2.048931689719720936e-02
5.145013476672574693e-02
1.401641985850083337e-02
4.839158323674773443e-02
-1.505079397421427330e-02
-5.586636473616773263e-02
-9.295900552114670667e-05
4.944492614483914084e-02
5.452690796040240984e-02
1.724643373288988965e-02
-1.270874715667741697e-02
1.731658799687438646e-02
-8.759525752934637158e-03
-9.928346545967289827e-04
4.105386007535996931e-03
1.242764085625267488e-02
-3.481697739236790101e-02
-9.786064302758142475e-04
1.843202258515201381e-03
4.759863980963352503e-02
1.883380299201525485e-02
-8.577808464613242978e-03
-4.572640141341896558e-02
-4.478910105415949416e-03
1.605149166891728374e-01
6.895915666302114555e-02
-1.166130923118216360e-02
9.404495797453023232e-04
-1.245983920616364551e-02
2.841364586538424469e-02
1.125432250582910146e-02
1.966391647016872430e-03
1.158887428878844919e-03
-5.366995347961108116e-03
-3.213428927455880962e-02
-1.452963607458599739e-02
9.677418850746914020e-03
1.658681557253878225e-01
-3.171955368735926428e-02
-1.375802079670510178e-03
3.023990132263836700e-02
-9.605416695909834400e-04
-7.420990199975362189e-02
3.328057159040363061e-02
-8.682140884658801072e-02
-2.424564523204665589e-02
6.877349255139306172e-02
-3.852325248183520803e-03
1.734770206287634259e-02
1.301095375797783546e-02
-4.407195358979012351e-02
-1.385808672348265262e-03
5.417085628769995574e-03
-1.157448866392246818e-02
8.202153285583520595e-03
9.052667500677445689e-02
3.270369514349229928e-02
3.192455853846452168e-03
7.084984822269124217e-03
2.864309232404091410e-02
4.039527231361803028e-02
-1.237600144330563284e-02
6.563921701434424121e-04
4.237133558594163851e-02
-3.819616865281575541e-02
-5.435963414441357354e-03
4.909111124783207408e-02
-1.780486957755338800e-02
-2.757828861477992170e-03
-1.227565056597403753e-01
2.570099020111103402e-02
-3.598951774381139307e-02
3.193722540395074793e-04
-2.132573220085520749e-02
-6.796455689672997388e-03
8.680266876289094088e-03
-1.443207614657152082e-02
3.499136088485042990e-03
-9.245255713005763598e-02
3.848161034867881702e-03
-8.675081351598768614e-03
1.265894346707137352e-02
-1.615453216351684929e-01
-1.012389030586414579e-01
-8.077008558483137228e-04
-7.708194404260993414e-03
1.294035372262999223e-02
-5.063121866634497092e-03
9.961484680078298848e-03
4.992682297082047353e-03
7.249220695466712877e-04
1.134062623233279658e-02
-2.380196979747442251e-02
1.237506738656188841e-02
-1.719752368704779988e-02
-8.629380151357403383e-02
-3.988839852130033475e-02
-9.855469656188666286e-03
-1.899205602345668126e-02
4.979424848217047644e-02
1.217556370628720963e-02
-3.704562409737083284e-02
4.612470668016969456e-03
2.428439719853252993e-02
1.372219671457440733e-02
-1.229487832522966340e-01
-5.861931364451421905e-02
3.508709987071950698e-02
-1.249728734429596602e-02
1.542890721404008118e-02
3.145013102938899047e-02
-4.435061051386739867e-02
5.698478856286439548e-02
7.197384316145547488e-03
-1.038301240747311650e-02
-1.159444526665922084e-02
-1.090251891100017627e-02
1.149756321182154178e-02
-6.880227338130809334e-02
-1.823865184506009681e-03
7.553590763695891552e-02
-7.804048924775089466e-04
-7.009943233954846198e-03
-3.421759310185235048e-02
-9.442103635135947609e-03
3.948032674704100853e-02
-3.112263849213190228e-02
-1.995810018853459364e-02
1.144653382969562823e-02
-1.203446269456048996e-02
2.283037408353971037e-02
-2.007534800547519649e-01
-3.956583848552888000e-02
4.574329883092853599e-02
3.287734614637306124e-02
1.785173206666436016e-02
9.322935960014862300e-02
3.411308596153840751e-03
4.459929705040786146e-02
-7.630092689653852032e-03
2.252828029274120403e-02
-3.114353708364945086e-02
-1.266896166449879395e-02
1.616927161108568795e-02
-5.128417429125260848e-04
1.564430219716496373e-01
-3.377353643523593046e-02
1.367888315312862368e-01
1.885883923765831194e-02
-2.188487660533754153e-02
1.173706183429923389e-02
4.915526576012010929e-02
-7.986092404104293621e-03
-4.383163331658867373e-02
1.515474991328311788e-02
-2.408125124005994905e-02
5.236708587299840345e-02
7.053654341809494077e-02
8.174023785112026486e-02
-2.511480418854392105e-02
1.754093256216222516e-02
-2.335536383285337358e-02
-7.667316636957838445e-03
5.405363009348597425e-02
4.809109880630764444e-02
-9.891876240887483018e-02
-1.052522794923098880e-02
-1.440937907034795795e-01
-6.803597877929053184e-02
-7.288843364424499316e-02
-9.652405616357094889e-03
5.340244619849162516e-03
5.145117445110515553e-03
-1.531094358149271513e-03
5.792652453538004592e-03
3.520763153421789526e-02
6.072853452596593121e-02
-1.543901547969589623e-02
-2.324055195852780045e-02
8.983161022155770198e-03
3.646657532292046922e-02
-5.055752152405255245e-03
-8.884157830219907570e-02
-5.624708859365395303e-02
-4.913882645644797450e-04
3.183069158475124259e-03
2.321517282979357680e-02
3.787238958389115007e-02
2.267180056366146015e-02
-1.532144629025945261e-02
6.099353149291560083e-02
2.490313490271170091e-02
-2.331405768559826827e-02
1.672462170205200535e-02
-9.595247638939848403e-03
7.221043492199118174e-02
-2.235478667889987878e-02
1.937141505913274027e-03
9.847778380141959317e-03
-7.576624517231283530e-03
5.781862574249497372e-02
1.020543847130150027e-02
-8.757281213823990551e-02
-1.190643528810552201e-02
-9.014643729832010066e-03
6.157804718060732631e-03
-5.907543207712953083e-03
2.180728947247888988e-02
1.063246610295160571e-02
5.578512134002720779e-02
-2.220397427466333853e-02
4.805234873055893446e-03
-1.969585436390834943e-01
-1.535835673537302992e-02
4.162869263303146938e-02
7.728493435783786135e-03
3.628223535786787024e-02
1.031180421617944043e-01
7.478847011909750542e-02
-4.404798086067772400e-02
-4.532941374855131017e-02
1.731121120639928651e-02
3.336251517174536330e-02
9.900405755866363566e-03
-1.230373747322232453e-02
-1.065082804320106012e-02
2.310680441552281916e-02
3.522630726289594644e-02
4.321055800759610044e-01
5.378962900895042920e-02
2.160492469910239854e-01
1.270755200966667718e-03
1.471268823191169972e-01
2.244591032216987081e-01
1.769952393831277990e-02
-4.352795375758156809e-04
-9.868582866302948522e-03
2.567679674214347341e-02
1.475516543689927608e-02
-4.936398652573346230e-02
3.105170603503669413e-02
-3.242198062444933554e-02
3.846770627721834371e-03
6.084589383594012774e-02
1.959313441703960240e-02
2.154350293056966209e-02
7.471115942654575626e-02
6.916653634151464017e-03
2.289139463451849224e-02
3.917062962014349059e-02
2.637193688577798862e-03
9.006219750315279729e-03
4.711106202868065723e-02
1.338781991596179992e-02
4.786951081134834321e-03
-3.257707427708777387e-02
2.160409747331984431e-02
8.237958847027526330e-03
-2.157745628918263103e-02
-1.504296996287285068e-02
-3.225433809286579190e-02
-2.017807709034258323e-02
-9.266769867718176179e-03
-8.823638317590757479e-03
4.468043711427780590e-02
1.941302715867729680e-03
-1.849331439547381023e-02
2.761378080000459478e-02
-1.028888374755702190e-02
9.821926201395259765e-03
1.629119124415479361e-02
2.083721995752827252e-02
-1.766621587332989698e-02
1.734831611008211955e-02
-1.451022438145459573e-02
6.831710655591942405e-02
-3.355235687172013204e-02
-8.459192165976273103e-02
5.283037576367982657e-02
2.258219713809960297e-02
-1.129186735325308708e-02
-7.432184423539196783e-02
2.529853107135671825e-02
-2.413284622620364903e-02
-8.161814116586955242e-03
3.039818982224837610e-02
3.606182635174327855e-02
-3.493481573938277129e-02
5.434665908573546589e-02
-2.112481964375298622e-03
8.482086824055191931e-03
-2.210695628864624371e-03
3.724597016497788182e-02
-3.261129743334329183e-03
-1.035785459163196670e-01
-1.314157123273020089e-02
-1.669203673618175482e-02
1.935545261377856138e-02
2.169236586367141034e-02
3.099518558939052051e-03
1.528506350730523579e-02
1.462217563195198841e-02
-4.810962461922690253e-02
-3.659093470951855619e-03
7.303673618998603352e-03
1.016083974979578863e-01
-3.224787987682563306e-02
4.901442550264083209e-03
-4.634080114069298595e-02
1.018020258673120876e-01
4.240980731887748767e-02
7.863122451161749793e-02
4.387007060643145773e-02
7.468980935671117038e-02
1.203744354513091169e-01
1.368701410007843074e-02
-2.084176802542719031e-01
-2.595653585703699973e-02
-2.614178732122532725e-02
3.206928562168945285e-02
2.309801261111117318e-02
3.910233409122781598e-03
3.985926411211029169e-02
-1.250977922372488726e-01
-1.597244236655328414e-02
-2.572430472825335546e-01
-1.117459127690807047e-02
6.134229054834737169e-03
3.730461375100134480e-02
6.923224382739980032e-02
5.225197094307922063e-02
3.175997124131807459e-02
2.993574767070951090e-02
-2.963008199490407141e-02
-3.523397744550933654e-03
2.318847800002050465e-03
-5.053413742389269991e-01
-3.477762536008784933e-01
4.507575984376603444e-03
-6.409238888897579069e-03
-8.643224237461435630e-03
2.240949545476067853e-02
-8.249853129555504913e-03
-9.883029966460066262e-03
-2.262851348473756546e-02
-3.187024735234696149e-02
-1.626718456775856983e-02
5.601294991727576861e-02
-8.195980766487077213e-04
1.028425658782974594e-01
-1.037315230243498337e-02
5.444869459144541235e-02
1.535551232261409861e-02
3.473902436761073381e-02
1.379098943069602748e-02
-1.168044646077531085e-01
-7.204921514134021363e-03
-2.693529660512237328e-02
1.139941655433758874e-02
-4.562825853860106445e-02
-8.464374090783552407e-02
1.457159963431168583e-03
1.497402775368007581e-02
9.755376617892086086e-03
1.964357731507690441e-02
-1.160422714200518568e-01
-2.894221522835471391e-02
5.542127253056891405e-03
7.086932474397295012e-02
-2.678228903470031633e-02
1.850411322009469228e-01
1.584242865584879062e-02
-2.828893958160528729e-02
-2.586187476381892475e-02
2.183836179474071479e-02
4.959678418222937535e-02
-1.881029695880209740e-02
9.436858110779589720e-03
-2.458559253663549493e-01
-1.196934551325830017e-03
-3.790175259097893629e-02
8.449812159828616609e-03
-1.646828049519709347e-01
-1.200330725699760327e-02
-2.819184137806003774e-03
-2.834116383881687615e-02
-4.078361882401504435e-02
7.237153159396536584e-02
-1.511673301021637683e-04
2.113671551214993047e-02
-1.707637519643849565e-03
2.708483320500388800e-02
2.275741025553500510e-02
-3.018287211775066807e-03
9.846301193087172131e-04
2.580719285650650771e-02
-4.668556462487788439e-02
-2.808095662483351632e-03
-2.671677566642961105e-02
-1.364725920024523198e-01
-1.596184303650119429e-02
-2.410729151863452019e-02
4.012101887629350785e-03
-3.170446696312579499e-02
-7.211621580003016625e-04
1.654094966549120305e-02
1.775899893753903405e-02
1.526359103491370384e-02
1.227647547936901173e-02
-5.817193923041413806e-02
-1.480258115974033032e-03
2.512130737929401531e-02
5.769905099879439440e-03
9.987524156959923585e-03
7.179243884580399637e-02
3.444331581388005575e-02
-7.332604507963784261e-04
3.089737369297449604e-02
-2.911028391849050569e-03
1.900298134267947719e-02
3.277276721803790756e-03
2.155781211673880871e-02
2.485821734811609340e-02
1.084457289655819338e-03
-1.287784148220869410e-02
1.755922411268400971e-02
-2.064050703532389619e-01
5.133797761568228979e-02
-2.580909547131351664e-02
-1.272512944328163011e-02
1.820971403911059161e-02
-3.332539696794074857e-02
-3.210937284829315508e-02
1.712597321599301781e-02
-9.921131732869815922e-02
-1.195353852141603675e-02
-1.704241839581645615e-02
-8.099988195278863545e-02
-5.222554535173093253e-04
4.166368928940289429e-02
1.277886089576539021e-02
1.948688156532638743e-02
-1.989109413723451694e-02
1.655729746713234182e-02
1.121444015524808522e-03
-5.401277297657752080e-02
9.572134123955225796e-03
-3.993689117289525581e-02
-5.128997189514970800e-02
-2.164578115184776289e-02
-2.203565071406792582e-03
-6.597575824770197939e-02
-4.742798095312599632e-02
-9.381081507221540605e-02
-3.309548506427058973e-02
-1.716055438366027169e-02
-6.534656205666728238e-03
-1.861992373424607890e-03
1.179923607889762395e-02
-1.392998610845065503e-04
1.349770736717719084e-02
2.042350855596591561e-02
2.451734662671903667e-02
-2.566607637428983471e-02
3.395438046504299840e-04
2.906169666387485931e-02
-5.418231920512983461e-03
3.343250649849793116e-02
7.412105960717504938e-02
1.083334177826368420e-02
5.333822363485350021e-02
-5.422399651144440419e-02
3.244955497533624084e-02
-1.928573256825385010e-02
-8.066771332782281256e-03
4.432891181894314109e-02
-1.685170673925289950e-02
-2.430814300628647562e-02
1.383841370321333211e-02
1.949350520092600278e-02
1.276911340979325349e-02
4.086997601242366857e-02
5.662762088506528499e-03
-1.518438338371630100e-02
-1.253114365115960346e-02
2.456354916041208689e-02
8.444226674186133125e-03
1.319514773548630289e-02
1.182447576611659994e-02
1.051320759862043458e-02
5.232384691680799088e-02
-2.373851110454369001e-02
2.720413494411712263e-02
-5.183306143465531840e-02
-7.695258113538397393e-03
1.471566280349824798e-02
6.330973082648017058e-03
6.001653683667885130e-04
3.715082544357602851e-02
4.272107150476003867e-02
-2.655231067295009059e-02
-2.539235371521830764e-02
-5.297581742206504407e-02
-1.868511325480503660e-03
1.035572606997902864e-02
-5.279134890945647030e-02
-5.542559742606931530e-03
1.632037075890125158e-02
-1.074407098741767853e-02
-5.456206251144599118e-02
9.197244610410744425e-02
-9.182110483879320564e-03
-1.030108101750201038e-02
4.278512018031096348e-02
-2.461592789548748897e-02
1.256725967681437961e-01
1.775037623236631543e-02
1.955221495309375154e-02
1.606559110808248453e-02
-4.620549562001100225e-04
1.679707940417142498e-02
-1.050250155679885618e-02
1.028135704937290645e-02
-5.852189386557162670e-02
5.235939709837362371e-02
3.398222355250898365e-03
2.280827568876804545e-02
5.288607738418902443e-02
2.818398915744811748e-03
-3.283391742834420798e-03
4.194399920707124821e-03
-1.519712289529143385e-03
6.011538670475500418e-02
-4.899174397581035345e-02
6.114498277091570677e-02
2.596099635839733966e-02
-7.041837124056957165e-02
-1.522554758759263500e-02
3.835700049393064859e-02
2.197371386495857240e-02
-3.711808926691358146e-02
2.447101751921166093e-02
-7.411514450104035763e-03
3.944148714200021444e-02
-5.105783649389936812e-02
-3.783480743711715305e-02
1.874376075719893786e-01
2.897080975022549992e-02
-3.006257390021724665e-02
9.800712552432056315e-03
-5.169364598507986304e-03
2.902273948861890020e-03
-2.374287269945982506e-02
-3.933097789299082672e-03
-1.464324237807603304e-02
-2.044440505920359225e-02
4.780931385533882666e-02
-1.298646169034809415e-02
4.572612992582905829e-03
-5.253262796128152848e-03
1.825488595656959284e-02
1.256768629702456272e-02
-7.790428837124723990e-03
1.369832681643121629e-02
6.466058321136645059e-04
1.926018921592666938e-02
-7.590502138800905851e-02
4.509308122843254081e-04
2.194275379660073910e-02
-5.414933511288399885e-03
-1.265958408088748528e-03
3.525270541085291642e-02
2.930351037298042916e-02
3.700038097477438559e-02
1.964288468166615897e-01
6.355083531532727814e-02
1.229737861386326868e-02
3.969659740841252442e-03
4.305206644841394481e-02
1.032469703869629517e-02
2.139296138064235124e-03
-2.663706656315497079e-01
-2.685382105395210314e-02
-2.535404395297842506e-02
1.363787685812270500e-02
1.445975880072527739e-02
3.428791508408996630e-02
6.091702429208383299e-03
2.481094478021879726e-02
8.329887924946564881e-04
3.284136237123564533e-02
5.444484650950448534e-02
3.287895833415126201e-02
2.238622273017949749e-02
1.363938313500678628e-03
1.773610450499729096e-01
1.784010070808053072e-01
3.099182068303110368e-02
1.374584349120294528e-02
-2.921847197658300737e-04
5.801030445610772662e-02
-1.760792520798184768e-01
1.019903184812052943e-02
-3.196102670196635659e-02
-6.024871806345137581e-03
-1.534923089906483837e-02
1.349565697544840084e-03
-8.683826369644638207e-03
-1.274988296117006686e-03
2.815532709269498446e-02
1.370680635528074010e-01
-1.023380000772724889e-02
2.934845187760838983e-02
-4.393210966459947485e-03
-4.928478971174126561e-02
-3.730571474386306079e-03
-6.317349127546430763e-03
1.885109584901145793e-03
2.622780906334801557e-02
2.421826768648633211e-03
4.367756089996199798e-02
-4.992416330536470978e-03
-5.171924273761231185e-03
2.200768182872296988e-02
1.293683509270722454e-01
3.815852850069727936e-02
-5.410740454495546053e-03
2.711936431947539056e-02
-7.008197297341091717e-03
3.445606299608396095e-02
9.400508005090896235e-02
8.215876761300244802e-02
1.100379233800129891e-02
-1.312286459058945498e-04
-1.708048724478943015e-02
-1.610106534308761161e-02
-5.359725525879691782e-02
-3.393155928236317453e-02
-1.212352966132435560e-02
-1.496582839311717296e-02
-1.340699451047950956e-02
2.878134575615711593e-02
-6.495905310438747360e-02
-7.258987625264615639e-04
8.786492457127843825e-02
9.180362921649200822e-05
-4.039508294114474776e-03
1.316793970769158661e-01
2.366254083637901393e-02
3.969512729122107869e-03
2.528339928778008949e-02
4.544859928185755044e-02
1.392036931563496102e-02
-3.052351832639457405e-02
-9.293781965136142798e-02
-1.820038361693523607e-02
1.250053262559591531e-02
-1.026910853844558019e-01
-3.597193927206004949e-02
-6.467623834976361785e-02
-4.334779289918267581e-02
-1.856929372403137409e-03
-1.055415970898699630e-02
-1.052015820482903909e-02
-3.148183890089147063e-02
-3.393518854046674951e-04
-1.479896068456875054e-02
-1.913200498324527142e-03
-1.526828477120623605e-02
5.819205777489159679e-04
3.251447604585018959e-03
4.017776079340549568e-03
-1.978833090402090655e-02
-1.130987158654884550e-03
-2.887699827123748827e-02
1.324662293617661669e-02
-3.039428105092505106e-02
-5.096466340679767226e-02
-1.225959495238747136e-02
-8.390842512216395085e-03
-1.130941428907272089e-02
6.629275894881771561e-03
-1.032341024755963586e-02
-2.451360850960842414e-02
-8.227878513495812812e-03
-1.111665223625788422e-02
1.246538196454505081e-02
1.381673984937998277e-03
-1.132316721077813657e-02
1.340845529089816808e-02
-1.405523404670582736e-03
-1.878831573830692242e-02
-1.167180577829543681e-01
2.481846648056971593e-03
2.746713583126024483e-02
-8.882479260376918706e-02
6.081146416435198772e-04
1.503344797712885886e-02
-3.734064392918672731e-02
1.847824110990117091e-02
7.706891147394437369e-02
-2.563661626912754413e-04
-1.224036133085446704e-02
1.158112852833481123e-02
4.543658747759471428e-02
4.051217885322103140e-02
2.263188063080595266e-02
8.926067225922502263e-03
3.865774921379564605e-02
1.728720534017847560e-02
-4.142986475882856623e-02
-4.646960910260199834e-02
-7.406743821393411108e-03
-1.559207005797434015e-02
-5.557375224013932219e-03
1.742456467795252747e-02
8.581342082707516666e-03
3.666347809651561429e-03
-2.602428352998483602e-02
6.974511786118418703e-04
3.151729411026744226e-02
9.415705572843574567e-03
2.114789500065915057e-03
1.339637991871036465e-02
-2.192017948002079886e-02
3.968442469018094304e-03
-2.381255336557594471e-02
1.085093367696542410e-01
-3.207801116439301103e-01
-5.287105204169733480e-02
1.336627158708798314e-02
1.983424687384958973e-02
1.126420053313107184e-01
2.739274820393887422e-02
1.240002637606516661e-02
2.878952001537015554e-02
3.701532496946638353e-03
-4.737076384309070465e-02
-5.240946805554064919e-02
-2.532681716417205936e-02
-2.399349496471761892e-02
-1.503319140358413616e-02
-1.084641456632558058e-02
1.955237761539667385e-02
4.265422288068206752e-02
5.133612712594549238e-02
2.928849353027695307e-02
3.464818281910071046e-02
2.408042627112158898e-02
3.133581328722541415e-02
-2.049055097288028995e-02
-1.538369895024637585e-02
1.431771899755225445e-02
-4.308611718922221445e-02
-2.732187179702658120e-02
2.372209661976054651e-02
1.575011692610741795e-02
-1.497578604103116592e-02
-1.963483633233087389e-02
6.803086633710082876e-02
-7.640498753911251044e-03
9.313664922012465652e-03
5.458938520125392827e-04
3.027566931541813763e-02
4.107002179401022905e-03
2.925736281010301101e-02
4.112954640175522231e-02
4.141084693608016593e-02
3.664154523392419444e-03
-1.565274811235185110e-02
1.029557466112415200e-02
-1.666062003371013498e-05
8.036410837140073316e-02
-7.070561847751926331e-03
1.468276599378832807e-02
-2.850300436991375780e-02
2.138074864463913871e-02
-3.767610834831333633e-03
-2.280824021277777156e-03
8.073312510537215825e-03
-5.163109583034563264e-03
-4.309183981062184032e-02
2.385056871750523746e-03
3.786780696476971936e-02
-6.648329001337923393e-04
-1.755411300328571858e-02
-4.472074964583574314e-02
2.806488180242958097e-02
1.260413855879085818e-02
-1.771139726850562424e-02
1.391201974229683454e-02
1.579413684958959688e-02
-7.180041226666418778e-04
-1.887011557024280417e-02
-1.125139367041353283e-01
3.730180814127376926e-02
-9.616173565471713286e-03
-2.013073751411798354e-02
-7.570473071892454275e-02
-2.148471833372457562e-02
3.958156573604591777e-02
6.742353382605365333e-03
4.081420880961882797e-02
-4.454507767099807197e-02
-5.686712182749074224e-02
5.741063933023602198e-03
3.715500278414523433e-02
-2.241371292455610412e-02
1.396743831722785031e-02
1.879857642404752366e-02
-7.678909395027798054e-03
-2.017287508501762472e-02
3.431331531848473559e-02
1.770244829301024711e-02
2.121794083399147768e-02
4.191823841362615072e-02
1.870711116197348173e-02
-4.657035150787378064e-02
-4.142099021497950423e-02
-1.611153178922513640e-01
4.522128157139482935e-02
1.112363239755292249e-02
1.087743969088737599e-02
-3.343871914394453380e-03
-1.014482420736201040e-01
-5.918795397747757953e-02
-5.538560897394641767e-03
-2.557819886426918390e-02
-6.416025331984281758e-03
1.400107207575469227e-02
1.428112164427310267e-02
3.009704046828955495e-02
-7.198990041243601146e-02
-6.821676715178737888e-03
2.582606238497364703e-02
-7.299690206176683016e-02
-8.900024575861418749e-03
1.622182293299136505e-02
2.293119596589570861e-02
2.745040837705524026e-02
7.688120970421830069e-02
-2.217027343936042380e-02
1.042175865087083091e-02
-2.964240846747089320e-01
-6.411956843073091106e-02
-3.981381962910726657e-02
-6.599241762419806590e-02
1.224955676839413060e-01
-1.455198880523167135e-02
-1.053901193354799121e-01
-5.883491465939381937e-03
2.815899095312894909e-03
-1.195963623223716098e-02
-7.498890587381654843e-03
7.807988653618412600e-02
5.595036017723774117e-03
-5.315792394036120139e-02
-4.133502260269444895e-02
2.215121823479544727e-02
-2.674424236906049884e-02
-7.377175244687049493e-02
8.586991431641117362e-03
1.632426404472148498e-02
1.500367581529775222e-02
-3.847773510407701686e-02
-1.342730753468932350e-02
-5.812050921572581297e-02
-1.470171105901123439e-02
-3.466055243308318462e-02
1.680104273000226781e-03
7.251077439622195808e-02
1.260492883162508959e-02
3.801066427121750483e-04
-2.913556220709367234e-02
2.266955319009531216e-03
2.708287597736405358e-02
-9.363073359701855336e-02
1.506428520327730532e-03
1.904778932589260790e-03
2.537762421722089545e-02
-6.522777180665741137e-02
-5.540657430064777761e-02
-3.534341051334394246e-01
-1.162877551016380968e-02
-2.330477048477004945e-02
1.749153627082741802e-02
-2.167413860224082570e-02
-8.657748445482316146e-02
-5.407860651832358673e-02
-1.595077821530714200e-03
3.098492150009880125e-02
1.060615517163262245e-01
3.723769407840187007e-02
6.473036483683677900e-02
-1.062912989355380318e-02
-3.331461809360947157e-02
-9.609091672830886999e-02
-1.306118228525617909e-02
2.358471227664346581e-02
1.490876183436333491e-02
3.513389212426865083e-02
-9.303211003265360671e-03
-5.972049011978577959e-02
-3.241421476580965549e-02
6.489150601446849742e-02
7.455215729300627980e-03
2.952299443503491813e-02
1.073107385206691598e-02
-4.856373673027895854e-02
1.776697815731509422e-01
9.396902382713147317e-02
3.819830755803920591e-02
1.110211679126088188e-02
1.704074724085373818e-02
-9.613536953925502782e-02
-2.024711567434190826e-02
-1.316005021571450221e-03
-6.871943776101670232e-02
-7.917865676034616801e-03
-4.340124115272513822e-02
2.872788161405758368e-03
8.867495149033295665e-03
-6.623462745868871626e-02
-3.720826201825412627e-02
6.244023587316236031e-03
7.390319901123544588e-02
7.195585221323536063e-02
-1.162486959378036810e-02
-2.109259481604455061e-02
3.338555079737361153e-02
3.475489207381578238e-02
3.474757549302630050e-03
