-4.378424953671757568e-03
-1.574443444344429677e-02
-1.703210007804103338e-02
2.381616770210139705e-02
3.520081580205347560e-02
-3.776131356733255368e-02
-5.773660808999642874e-02
4.339986002445847882e-03
9.533526550976646752e-03
-2.630207006504597586e-02
3.045629200263583886e-02
1.254717937508896021e-02
-6.536956829006667150e-03
-6.654902113583678613e-02
9.236270516188092861e-02
-8.014070128583400399e-02
1.786255770460147552e-02
-8.094262046089052698e-02
-2.875943741725250913e-02
-9.587351945744188725e-03
-1.161448746069393828e-01
3.455414389212545928e-02
1.695196354244099882e-02
-4.217270152211752277e-03
8.156561069652144835e-03
-1.263421991820230577e-03
5.062131976451494236e-02
-3.309054928680577740e-02
6.104852369596337064e-03
4.512538967452978805e-02
-1.774385919871381001e-02
7.310121925874304982e-02
-1.542302305804230944e-01
1.486454908529866448e-01
-2.291423402270243923e-03
-1.322331732736126420e-01
-6.602825121102874617e-02
-4.678492143252685996e-03
4.074193984948299568e-02
-1.909238016258088880e-02
4.092904655381004314e-02
4.998572484097212748e-02
1.003076225381392857e-02
1.003652330632013798e-02
4.399099151749774270e-03
1.891806018925418524e-03
1.999232842479393979e-02
5.999572512852258122e-02
7.283643320853830372e-02
1.612271953111917358e-02
1.601100294814985017e-02
9.613029663546852899e-02
-2.297249881121701462e-02
-6.671679620514391063e-02
-1.125748024004594346e-02
-4.599320658967591402e-02
1.044563399595134362e-01
-6.543993447748284314e-03
4.462481327375331618e-03
1.887822328534825497e-02
2.525777672118485750e-02
6.092450742125690016e-03
8.319945229119081465e-02
-2.596646837411313927e-02
5.786605599048207094e-02
1.643489669327119831e-02
-3.461358127766284154e-02
-7.618472647562942769e-03
-5.501336791373085018e-03
-2.616594991944908716e-02
-5.266376006684939798e-02
-2.446172553843693059e-02
2.677411187830807185e-02
-1.779312661125190959e-02
-1.548677241471422411e-02
-6.769023859801341636e-02
-4.458742131310483581e-02
-6.610296459099643251e-02
1.818886250197422269e-02
1.292697463879066699e-02
6.036689537601982319e-02
-1.432138274021900297e-02
-6.425962981907544502e-02
-1.278890814629508356e-02
-1.355355083950095284e-03
-6.904638030042285768e-02
-9.043529356365147265e-02
3.826379958689463678e-01
6.174002187220003005e-03
-2.213139348526973159e-03
1.473738106741053107e-02
-5.652920614691121087e-02
-2.182905591364429389e-03
-8.559364334198519414e-03
2.989998141341769847e-02
1.166394515230348289e-01
1.503442495502901530e-02
3.767489765063454510e-02
1.532461540674082828e-02
-2.091067608050577176e-02
9.648574845832154356e-02
5.469138500133740970e-03
6.645097291445757615e-02
-3.696488768065973041e-01
5.147400940036675129e-03
2.744782544458584592e-02
-2.179625223459459929e-02
-6.273283797272938278e-02
-1.455143954640620262e-02
-1.395792051529693746e-02
2.574124345143351950e-02
4.366068893478711882e-02
-8.739289506121999951e-02
-1.518358316468381708e-01
-7.312112771271006562e-02
-1.397755782051895157e-01
-3.272030164546857901e-03
2.073869300358273937e-01
5.759583739749415260e-02
5.252459439600401514e-02
3.202275770058869708e-02
-7.176335366613982580e-02
-2.351695842027788294e-02
-2.395995010923971866e-02
-3.961891493480109577e-02
-6.201051711629402413e-02
9.166881641534166056e-03
5.746335295251192576e-02
1.872433725361089332e-02
5.931466301444834888e-02
1.559336648747375320e-02
-7.558472470041807667e-02
-6.538367922231526352e-02
-3.724543069887268493e-02
-4.787327193022140881e-02
-7.311902257500355051e-02
-1.549166750971112810e-03
4.346060392329273783e-03
-2.004254255709464905e-03
-1.227593826752996185e-02
-1.045899313406878535e-02
1.619533089071123477e-02
1.307603684598301376e-02
-5.244220954395658468e-02
2.057509538303927688e-01
-7.804618867267180959e-02
5.259549581472015151e-03
-3.998618062536989093e-02
-3.036877170266594206e-01
4.576390621468828801e-02
1.130137949143615178e-01
5.702728604753642960e-02
-9.782769730057488955e-02
-6.537412950237413145e-02
5.690521264452334110e-02
2.738338912666078706e-02
3.131336851053042464e-02
-1.821544653654376747e-02
9.791203817157022316e-02
-1.662839545860416574e-02
-2.885046040641136011e-01
-4.907193731581414170e-02
3.725124969666884778e-02
2.822084979180804198e-02
1.694108154467018623e-01
-2.058772655567903467e-02
-2.443233315856469315e-02
3.587045209911052940e-02
-5.295459424889885636e-01
-2.732530504164169538e-01
-1.008727686715715430e-02
1.406655891864009612e-02
6.110954478680061946e-02
-2.315898289195389079e-02
3.890071392079334778e-02
-8.857836548861743389e-03
-1.087508237616162214e-02
-3.533521810836696801e-03
6.055518034872030275e-02
-1.571705728477448827e-01
-2.349818328608803408e-02
4.214016556485226245e-02
-1.847076766439982934e-02
-1.267960958209475297e-01
-6.697035378181925847e-02
6.612841772306512524e-03
3.333578645824578079e-02
5.246647224006568272e-02
-4.059781926900115495e-02
-2.469937642618643889e-02
3.711167077930877661e-02
-2.013650002940021999e-02
-1.778851382025922051e-02
3.267855851913410437e-01
1.714217030449587953e-01
-3.916610070866447663e-02
-5.810794865199846865e-03
-1.528917635189801921e-02
9.860865124555147354e-03
7.896963223090147643e-02
-7.623321167846887347e-02
-5.069157944492490991e-02
-2.734731951212903203e-02
-2.941248731352647666e-02
-7.032955830425856314e-02
9.222105427805641145e-03
-2.264621166365922769e-02
3.175215880243745844e-03
2.035700511324450152e-02
3.911713834367536169e-01
2.569099499870100643e-03
3.980715098381448075e-02
-1.949822694604976814e-01
8.619431195657407258e-03
1.405183692817458044e-02
-6.489787624220371906e-03
-8.187185342593747417e-02
3.107447423642147022e-04
2.542908407735984533e-02
1.402274085496336455e-02
2.070801322756516405e-01
-6.536083275384356635e-03
3.079814648686260425e-02
-6.727952906684239731e-02
-3.658495080834801849e-02
-1.172361702837943220e-01
-6.458896438758151767e-03
-6.659227666935020606e-02
-1.011164000789739614e-01
-2.385057186039156452e-02
6.886395617956551918e-02
7.328959586478022738e-03
-2.004058723348938961e-02
-1.670709840372904334e-03
-7.495499889559067985e-02
-4.270797933511206318e-02
1.388955397414759485e-02
-1.476935160493779431e-02
1.061362668895974443e-02
1.783850523563483212e-02
-2.131201654998501546e-02
-1.363747767992643488e-02
-1.103438059355859625e-02
-5.000596772847743648e-02
8.087674109520949506e-02
-3.497538607899799978e-02
-5.417788726871900634e-02
7.874267712875961112e-02
2.026637740586401462e-02
-8.060581156003809866e-02
6.948682837610384126e-03
-5.909289510025278469e-01
1.567832234270577496e-02
-2.947756002051838201e-02
2.997104392896830088e-02
-1.757134894513080192e-01
2.134371537863579207e-02
5.454869303483343007e-02
9.317151160891420925e-02
-4.154235930947144939e-02
-4.978942691136856863e-02
3.275545660443524715e-02
-1.330965469820045988e-01
3.331278456241672931e-03
6.496200509114972987e-04
4.920831560312365072e-02
3.228735522440184802e-02
-2.444975949477476082e-02
2.481437538517680327e-02
6.840946990465859856e-02
6.198620051028462530e-02
-2.148506806989195286e-02
2.451310614564299398e-02
-1.919194924374796607e-02
-3.841188407849870090e-02
3.208162440040050467e-01
9.359390548627698203e-02
6.069159110468369533e-02
7.992420711746975673e-03
-2.877732021220351377e-02
7.295831348885875069e-03
-1.540551992521704307e-02
1.710912876318902709e-02
-8.820459842623980251e-03
2.352823259129653913e-02
7.271663860414620539e-02
6.729189059456854027e-02
7.158805480003297382e-03
2.880727306147426794e-02
5.650345783752221823e-02
-2.031096748706990793e-02
-3.467723542066044468e-02
1.204611782249707247e-02
1.492925934459201145e-02
5.597334589506864494e-02
7.849566467603558140e-02
6.781080611280197734e-02
-6.478046291555602035e-03
-1.453448077154900070e-02
3.437172527417329398e-02
-1.477757785751868946e-01
-8.715223144401368707e-03
4.400737571303527801e-02
1.598213149640683589e-02
-2.940559569359786282e-02
8.444033079905673145e-02
-2.809767478236262564e-02
8.266054908128603676e-03
1.931983336591894295e-03
8.756867501783017257e-04
1.782163963640387427e-02
5.117338014456219997e-02
-9.231003770552014334e-03
-1.221883240311463226e-01
5.902035743843834538e-03
-1.643147419221007571e-02
2.252443047075700089e-02
1.602026694551327360e-02
6.122056419537829676e-03
-3.452541481050343947e-02
-2.607092919969359116e-02
-1.439447824823360603e-02
-4.261008397647835649e-02
7.717616503311242049e-02
1.448842501456578113e-01
-4.156926234397633618e-02
-9.358046831498742762e-04
-9.538742904677505186e-02
-7.718930921194731842e-02
4.660870904204057752e-02
3.045985619762348051e-02
6.586434391655293652e-02
-2.272298422890094149e-02
-1.295433046525002428e-02
-3.568381558797987380e-02
2.933960243791238279e-02
4.898246759538850414e-02
-3.366587466796307107e-04
8.610628580125885556e-02
-1.862964690249725025e-02
-3.901110160218033279e-02
1.066154158255217255e-01
3.246218469693016445e-02
3.038715588223872381e-03
1.859866842540155649e-02
2.611399505675936553e-02
3.087672359465067073e-02
1.759090519788936505e-02
6.917779074167439146e-02
6.714394065763364117e-02
-5.853708767248402833e-02
3.418768667816845207e-03
1.034215855935084055e-02
6.182077080565647614e-02
7.381992698243605711e-02
1.009298661455250989e-01
6.128626970897259330e-02
-1.023558241623993975e-01
-3.236130921731896620e-02
-2.153989802734473935e-02
-1.694859851155710098e-02
-2.568091116146942101e-03
-6.015177389253465595e-02
2.284362920304814498e-02
8.704978131498378180e-02
-3.863730996764067754e-02
5.342345148409136102e-02
-2.141708641525718326e-01
-6.033497056528140667e-02
9.486625373863680211e-02
5.414724476531752179e-02
-4.212791920150509711e-02
-1.574725012140177835e-02
3.623809888903814676e-03
-6.106490553972516999e-02
4.169107949723380863e-02
-2.574815125646023797e-03
3.537764092494479623e-02
-4.182946357510478053e-02
1.032733977805479070e-01
4.015348227713170376e-02
2.472881777921565397e-02
3.402693466755093987e-02
-2.374218268809092161e-02
-2.857986710302418479e-02
-2.762624968082164414e-02
1.661112952622414724e-03
-2.320637443995461277e-02
-3.269941593581933426e-02
2.144008812762756427e-02
-1.424218673254420142e-01
-1.239539515972631206e-01
-4.833658467634979576e-03
-2.553954424537219214e-02
-4.299653396448029768e-02
2.590346577172798759e-02
7.819120873163371011e-02
-5.946628996051583037e-03
8.481798600936767824e-03
2.486855892911232768e-02
-1.029417048724291621e-02
4.719166191110487144e-03
9.381577602274224215e-02
2.285305587832877142e-02
3.504788504900498147e-02
-6.019471064682871408e-02
6.463467003016229277e-03
7.748472462388969299e-03
-2.762146214249136186e-02
2.189783491667489645e-01
1.900782114162828662e-02
-4.754151249092434910e-03
-2.048616808774146592e-02
2.149306289713544954e-02
-4.936509145837802287e-02
-1.519948192573621626e-01
-4.542205568547712929e-02
5.718920380862470634e-03
2.225139135306649155e-02
3.127628055675199525e-02
4.068237524602701799e-02
1.008185543659004734e-03
-3.583069032265478321e-02
-5.845842258906819300e-02
-3.398435369519017812e-03
-4.667445678966276879e-02
3.081349397379443741e-03
2.673339395375138455e-02
-7.523682295314219892e-02
7.210192916452642931e-02
2.610497386698945599e-02
4.222154981723737210e-02
4.234647258076090770e-02
4.134091994287254768e-02
1.361049814235784508e-03
2.099153348630765012e-02
5.222861170414548615e-02
-4.441303229652300566e-02
6.433810077149410001e-02
6.350661701591854558e-02
1.057112135884872087e-02
8.952344576655492381e-02
3.926900918600850082e-02
-2.785140289477321465e-02
-4.594116973233573764e-02
-2.019347807061277339e-02
4.498748346797951797e-02
-4.509940147073816796e-02
3.980447940094619663e-02
6.383534370523689591e-03
6.932023082927507573e-02
-2.663460441176730351e-02
-3.907371144739850075e-03
7.211065529996753265e-02
6.820141464653416141e-02
-1.753882488768128689e-01
1.220921295906440968e-01
3.156922027250309154e-02
-1.729918464859992941e-02
-5.471532700738782062e-02
2.411005275749016769e-02
-6.082815062815168788e-02
-1.073999483889869107e-02
1.091986161620392762e-02
-2.988914911548702646e-02
1.097260895391237445e-02
-1.666294630569943244e-02
2.767026595819007534e-02
-1.168291836700503707e-03
4.126333768005670949e-02
-1.113861434532309874e-01
-5.621878879062529311e-02
1.573090022289155149e-02
-1.318131815337239728e-02
3.403109210173777769e-03
-4.855254662848678543e-02
1.074385437011523767e-02
1.874585599929441682e-02
1.054126819980588832e-02
-5.681030516022690831e-03
1.991195743895322889e-02
2.578507690762064236e-02
-1.428932778504635355e-02
-9.175063867119833197e-03
-6.565367269365926517e-02
-3.494788993073604660e-02
1.018327867791864010e-02
6.836886674132693076e-02
4.196760809350996713e-03
-8.452502054080132665e-02
1.915168521711304445e-02
1.878393609908380127e-02
9.464820094295792186e-03
3.884598686077284091e-02
1.561990554997653644e-02
2.983541448495368592e-02
-4.672096321016587506e-02
2.532063050011799585e-02
1.032311227003610138e-01
1.421492255085459160e-03
-2.753799455651052136e-02
9.338700615663447779e-02
1.253066083911476454e-03
2.683746199873394273e-02
9.764033478687362405e-03
2.079117730149554477e-02
-3.698870592026982929e-02
-9.356219122234386495e-03
7.015792276177287281e-04
-7.679406476959978189e-02
-2.629554071966551734e-02
-2.477105049056120556e-01
-2.874695061792347656e-02
3.964325508304093054e-02
-7.597235470104285460e-02
5.147639968154908013e-02
1.155082257316908528e-01
3.721840039585529170e-02
2.568775090175209191e-02
-4.225655977145970944e-03
5.950377580810961575e-03
3.379207993165558171e-02
5.802409272060198020e-02
-2.843911064052991877e-01
-9.370265506918724896e-02
-1.329151443821307167e-03
2.927639830058231460e-02
3.454404085818502113e-02
7.489860033106827270e-03
4.044258618945893724e-02
2.061788155833949032e-02
-5.222026812029002818e-02
-7.179973329470856758e-02
-3.557671390099170078e-02
1.473939011187095152e-02
3.431436343234591652e-02
1.499957679882271341e-02
2.785446562989859348e-02
6.947271213436975734e-02
6.116319034683679462e-02
-4.435473059065545010e-02
9.966038438295012677e-04
9.377266768429531885e-02
1.646302559818871303e-02
9.530831916435946252e-03
-1.722465304091099977e-02
-1.071861568684513363e-02
-1.262964311274965279e-02
-3.761247657611917899e-02
1.102135655958107543e-02
-6.986265694536124542e-04
2.048268478395504424e-02
-1.049451596165144537e-02
-4.262023056014162259e-02
-4.701176129456256965e-03
8.309357505144158995e-03
1.600289281893125387e-02
1.389100993089118219e-01
9.514435599877713381e-03
-2.888879250427740797e-02
3.594126901069532795e-04
-1.622097844407207126e-02
2.103292528907356462e-02
-2.066975842584283657e-02
2.129431054857718400e-03
2.355950881484702303e-02
6.536759427015791102e-02
3.275195760125673705e-02
8.723710159114951568e-02
-4.320781598599196353e-03
-7.393133809023533232e-02
4.545464483513094595e-02
4.620844807815905481e-02
1.879375537418080319e-02
-3.951584307902064608e-02
-1.132409219288788103e-03
1.510801621963905605e-01
-5.265896502972506471e-02
3.323886522423887685e-02
2.974495913459966959e-02
6.176420136818094354e-04
-1.756147999768733203e-01
-2.655883026066433242e-02
1.539969126117596461e-02
-1.049035901708440452e-02
6.522578684281658823e-02
3.931896624538714496e-02
7.347075378457142147e-02
8.803214940291253024e-03
9.267508978294470429e-03
3.997269552518198377e-02
3.229162841020770114e-01
1.441448350931943782e-02
1.855602783381713958e-02
1.671667582440564126e-01
5.807583331370400753e-02
8.693618754445863600e-03
2.191533760367489828e-02
1.489829345667600252e-02
-8.405905490290460982e-03
4.958976378054782974e-02
4.170058518925785773e-02
4.831386993015995834e-02
2.148239172138469849e-02
3.566629196067166996e-02
2.055028890341184175e-02
-3.270570463631424646e-02
-3.925003702922182786e-02
-6.860007560491959699e-02
1.747595917017630632e-02
-8.752864209369978776e-03
1.505601010529190181e-02
-5.320568159243670159e-02
4.233204794531561510e-02
-4.230655249058571515e-02
7.941037374741177074e-03
-9.331300697251534992e-02
1.759337153273120638e-02
3.998566509273825814e-02
2.297510508531414031e-02
-2.761225348930262252e-02
-1.469658565039990393e-02
8.840952209841228607e-03
8.622624485264808111e-03
-8.791905355787554832e-02
-1.129438800443348240e-01
-1.289003463437286834e-02
1.157413105580810302e-03
-1.400314498248116102e-01
-1.599567403653156250e-01
-2.386685488502842192e-02
1.847619594934171161e-01
-6.163191991685728482e-03
1.512039884003652315e-02
6.584587398074049670e-03
-8.015311720718101829e-02
-1.781664792581763579e-02
-4.913991128483725934e-02
-4.262004766699390573e-02
-1.116017001452698776e-02
-1.490684015007021079e-01
6.313441867938261731e-02
3.145093878976176413e-03
-4.505896722961445500e-01
-7.704079971269979510e-02
-2.728926196421641373e-02
1.419879701689653606e-01
4.541935427806886860e-02
5.857333907495246642e-03
-2.502630329509091672e-02
-1.059217826108501126e-01
-2.597242409917204647e-02
3.196648486492312431e-03
-2.271517075689348866e-02
1.817513909454929882e-02
-2.144743603134828536e-02
7.109215678318086921e-03
-2.030920649490747069e-03
8.593708315954295962e-03
-4.674286932572775666e-02
3.888976940022847301e-02
-3.570891894041493958e-02
-1.451054106955836365e-01
3.123192613478253769e-03
-1.224656935010585285e-02
-5.453571033172369825e-02
4.862504168220087297e-02
-1.321283195990920478e-01
1.771403743526632837e-02
-6.254483489927879433e-03
-1.570718741725856543e-02
-2.585239661344094532e-03
1.390576711641513565e-02
2.106256927440974813e-02
-3.652015705905629905e-02
-4.747424569983859505e-02
-5.189872695575503680e-02
-4.545284341889115065e-02
8.302039639643736535e-02
7.900004523485821065e-03
4.686288380018421851e-02
3.316478790078591227e-02
-1.059781689219228690e-01
1.111515255174988226e-01
3.694804758268156047e-02
4.921073288951073599e-02
-4.444912903635604012e-02
-1.502333684528209257e-02
6.372450187887450379e-02
-7.875151475536313825e-03
-5.380994095736969796e-02
-3.278411916181089066e-03
-1.013932889361767592e-02
-6.809659356130441654e-02
-3.144769742916504046e-02
-3.431697508059540491e-02
-6.311660756920497994e-02
-3.610021029786351643e-01
-1.593631066595588841e-01
1.513252224705809168e-01
3.677147620586144333e-02
-3.895929346527717690e-02
2.989575294259241151e-02
5.648467296556626549e-02
1.175316071494302179e-02
-6.414833886416052011e-02
1.753709995653208731e-01
5.491626621475016040e-02
-1.458545056312123001e-02
-2.327683633555950593e-02
3.813004394800295627e-02
1.097777811624419952e-01
-5.577470086547258593e-02
-4.011649562011870840e-02
7.256103120117847818e-03
5.902720197910555494e-02
1.464347079983041762e-02
-1.745793371942509775e-01
3.292269353512482233e-02
1.491718011792326007e-02
-3.759370831763139968e-04
-6.882556249042702523e-02
7.898669348341086360e-02
-2.503813246275838345e-01
-1.078046335466282916e-02
3.822661452829831386e-02
1.419868924326719850e-01
2.426310771896412338e-02
-1.292233814237527326e-02
-1.163766947540901230e-02
5.501852400952061267e-03
2.430460277064452196e-02
-8.462588499825508814e-02
-1.591798502177996580e-02
-1.001260691817881798e-02
-2.460199924372111907e-02
-6.111267878958475536e-02
3.677685023595617109e-02
1.054506525771621919e-02
2.638217054665704248e-02
4.136635070822872740e-01
2.325149657534501813e-01
4.428843556812556842e-02
3.096480463285349038e-02
-1.471723102206609103e-02
2.016046548571954755e-01
-1.462586051141638588e-01
-1.106819179973577566e-02
2.158355520430623592e-02
2.003580546261166453e-02
1.994274309347075225e-01
2.918702031744103628e-02
3.964985378611570604e-02
2.546384884487690181e-02
3.773979019322900447e-02
-3.825389676366625774e-02
4.169670203174538625e-02
2.511847805142229939e-01
2.385288810690597977e-02
3.734637665768146628e-03
-2.208489297403327944e-02
-1.573718376469393845e-02
-2.274303884274811796e-02
4.718400528091182961e-02
8.267727646333006969e-03
3.259613486737083371e-02
5.061930871620994726e-02
-3.089874232188360298e-02
-2.040053507791719442e-02
-1.659984976846579433e-02
5.498889275658709261e-03
-1.344993631513247481e-02
1.294790500339385031e-02
-8.333452310759546788e-02
6.441810305525101921e-01
-2.621361868432722439e-02
-2.243543120807500735e-02
-1.344719216858031863e-01
-3.697627468074785734e-02
-8.031452255740256785e-02
6.793216051032628655e-02
-3.100754514094943362e-02
6.711446814117473514e-02
2.530150610394702338e-04
9.184898073908974794e-03
-5.766795839684524250e-02
-8.104466514377257902e-02
7.213888807559065740e-04
-3.792965447611463398e-02
3.542082851001657207e-02
4.412331480850467669e-02
7.027785655722103286e-03
-1.584454259564819622e-03
-8.979630205441888058e-03
-2.497904539292992217e-03
2.353424117826066059e-02
7.975412420437399952e-02
-6.609178144456385497e-03
5.950729061390829661e-02
4.936941299042207909e-02
8.012175934229854787e-03
-2.958939313901122817e-03
-2.919569219014609297e-03
-2.046761750423066809e-03
-4.030803554563465174e-01
-6.987254230353866225e-02
-5.404009898304380777e-02
7.382327868905247392e-03
6.993186156473822808e-03
-1.225959974225835497e-02
-1.018618052389174550e-01
-1.081420558029489443e-01
-1.140655382634216987e-02
-1.907763669733959083e-02
1.613070832919584821e-02
8.694690536066911057e-02
4.981675986791027355e-02
4.666398141175531755e-02
6.919866209182591599e-02
3.174748019575545505e-02
2.750275608787596249e-01
-1.181280953665779510e-01
-2.252429988721104358e-03
1.360881308724625482e-01
2.570145619871361080e-03
-3.703349901295123914e-03
-6.198921768140388394e-02
-4.984852126475110452e-03
1.515037138619728177e-02
1.026949235682573375e-01
1.349567938605940147e-02
-6.705780299878524864e-02
4.336992967952706945e-01
1.359374109167608979e-01
-1.395017652532928865e-02
4.012415667805291353e-02
2.759943319069774539e-02
-2.457359839125145343e-02
1.094994342727041575e-01
4.704297788478649205e-03
-5.052850698791550715e-02
4.432124985002066503e-02
-7.794052946764759571e-02
-7.144895017029062600e-02
6.804299937387556230e-02
8.273369894688263615e-03
-1.854167708851916715e-02
1.356172455482483781e-02
-3.669970982736315418e-02
2.214229526859009742e-02
-7.493099389039310776e-02
7.471816765933958493e-02
1.671426139502217856e-01
1.184459844224056008e-01
-8.008897636832464431e-03
1.654784545487972963e-02
2.168685191333040441e-02
5.412223114218564501e-02
-2.391391323850831224e-02
-1.620449064931737265e-02
-3.707468816084120988e-02
-1.563985785988717403e-01
1.206381059848590370e-01
-4.737698049099893505e-02
-4.550411164979940165e-02
3.203054306540147056e-02
6.594349892868152027e-03
-5.193859949026364414e-02
2.872446649920349163e-02
-1.813985926516834988e-03
-4.740004592998732502e-03
4.938963023018581172e-02
-2.314965196992670865e-02
8.061820676451207646e-02
1.923226881296545283e-04
-8.828598980741312816e-03
1.906429617816066168e-03
-8.930259814605824575e-02
3.330577974669377255e-03
-4.980295490366537341e-03
3.930264786309677245e-03
1.947103615473012167e-02
-1.241082655942916078e-02
2.652184518376099476e-02
1.566432244931263013e-02
-1.230189039541644963e-01
6.795764862781789734e-03
-2.464898986371266004e-02
-1.021372427842778818e-02
4.163153466129839581e-02
-6.092183819593379422e-03
-1.533076213711920960e-02
9.632597687282223875e-03
4.288948231012371104e-02
-7.942133000692218336e-02
-3.141222300276364648e-02
1.088613462430281995e-02
1.071419479248499410e-02
5.105505375975465804e-02
1.139761857824380872e-02
-2.934089945477098144e-02
6.338141525096466222e-02
-7.004186106135019962e-02
-1.705208507124861966e-02
-6.190719373867716729e-02
-1.800701386004945753e-02
-6.508826123135566522e-02
1.026662764969960978e-01
4.983650768843590415e-03
4.667778696162810242e-02
3.786904665973421166e-03
8.437278407685928905e-02
-3.105882973367031855e-02
8.716897166489476212e-02
2.884597008925627801e-02
1.111051833347658224e-01
4.320291397554663904e-02
-2.718872929706615815e-02
2.428107576551882113e-02
4.183231452454846261e-02
3.694962593725134581e-01
-2.362155072598757025e-02
4.457228000140880941e-02
1.503914112276764393e-02
1.776659157919284471e-01
1.288903804694957467e-01
-4.916084333181115068e-02
-6.122233091887564066e-02
-2.590867634275261303e-02
1.168442486080414899e-01
-1.998330496259925412e-02
5.066603252503978916e-02
-1.671900932589737154e-01
1.581809242163236331e-02
1.938648769540975494e-02
1.519700913009704212e-03
-5.097754303112628227e-02
1.711543879798847478e-01
2.557273083378672554e-02
-1.393774014306605191e-01
1.172402785959856253e-01
1.323078117790282004e-01
4.713352466519830225e-02
-9.018012557735727991e-03
-2.547170055381159370e-02
3.196780234736665977e-02
-6.367814178631620026e-02
-6.406191525147086896e-02
1.537202282940341135e-02
4.054440389454686791e-04
-3.904611461669902500e-02
-9.618485309638823144e-02
1.157181371422871946e-01
4.734391342160569963e-03
2.614865978297873164e-02
-5.852728059197948376e-03
2.230086508172685403e-02
-1.085586231701357318e-01
4.036948679421087371e-03
-2.384056722983100840e-02
2.164818609475549493e-02
3.761399031808781990e-02
-8.636962667824299097e-03
1.491804340688151764e-01
-1.564935095718173949e-02
-1.521620819086679345e-03
-7.194856380689314268e-02
6.528254449369880197e-02
1.008036048027253530e-02
3.128026058066583209e-02
-8.145106215822499676e-03
4.417584377661289835e-02
9.959600282211676647e-03
-1.053499969805093972e-02
-1.145293353514789114e-01
4.512363824131636336e-02
-2.494799059898701599e-02
2.600202525403499942e-02
-4.831127534876112489e-02
-3.892593309356319475e-02
4.886065257308866427e-01
2.228082016671619967e-02
1.302543960932061595e-01
1.927432159191254379e-02
3.273666732341194707e-02
-1.568286486962598703e-02
-2.864777115625820325e-03
7.069431814120082092e-02
8.610109185334520465e-02
6.948947891361398344e-02
-2.649840059360855649e-02
2.285538106408175826e-03
-6.724260247009827829e-02
5.995692155336191514e-02
-1.822566378651033724e-04
1.952392710960706296e-02
1.113480678758538463e-02
-4.853315595635012206e-03
-1.706876142277890807e-01
-1.666592908999718278e-02
-8.223594872609291118e-03
2.573936312138868504e-02
8.442560495657083081e-03
-8.996332273336588026e-02
1.448710606664350281e-02
-1.753772615036780849e-02
-7.649329182120782888e-02
-1.768740974637086627e-01
-4.100687947558680213e-02
4.434375744991973789e-02
6.510169650191259538e-02
-1.041016620653261067e-02
-9.849972903841500149e-02
-3.029091548756195074e-02
1.815826272491467830e-02
-3.258861385949349959e-02
-2.494758436017010736e-02
-3.155606065810308974e-02
1.007530402651088813e-01
1.614138748109449073e-02
-1.636053363949622336e-02
-2.627804813899796421e-02
-7.694153905797328219e-02
5.279394941645489114e-02
3.683469461596421135e-02
3.059648807151661362e-02
1.849723092334479291e-02
-2.547927013753023551e-02
1.220132935623146342e-01
6.848132595029504666e-02
-7.243667235354887823e-02
-4.489324619751805696e-03
2.153710973569853554e-02
2.174144631370394654e-01
1.548788851059701606e-02
3.447573234758062599e-02
-5.159433282800702722e-03
1.077215933552774655e-03
-1.575929125133511063e-02
-1.290161331526256706e-02
3.346393188666120511e-03
-1.045370942583928077e-02
8.706322915516604213e-03
-2.309065001008011458e-02
7.099001472530219736e-02
7.811017092547911655e-02
-2.649560642294390700e-02
1.669720381804525033e-02
6.238743090262150598e-02
5.312135354347039679e-02
3.315185691375992921e-02
2.005732022593396946e-02
5.012597827563929770e-02
2.992219696628034553e-01
1.559720136490403732e-02
2.235713965298555261e-01
-5.406355722588963852e-02
1.330797208211013417e-02
-2.500812770036580854e-02
1.301091280540728722e-02
-1.168182000703094255e-02
-5.891456715954827145e-02
-6.206802246198462464e-02
8.912240578948817105e-02
1.044386067024371950e-01
5.867207226341461350e-03
-6.169332942474282239e-02
4.815756794986662120e-02
5.116517921827811594e-02
5.603583352400185293e-04
-3.693522436974984446e-02
2.838928901026876311e-02
7.851836445053302083e-02
-3.653017140439537760e-03
8.016490078298323108e-02
6.163458852405156140e-03
4.871090106227341648e-02
-1.034704456903289826e-01
5.461763821233237698e-02
6.768506747251443537e-03
6.741748434306128052e-03
7.533671643013467589e-02
-8.566760506913638495e-02
-8.274192271107809471e-03
-3.858812921528233242e-02
-3.946543649216122662e-01
-1.135152578644168381e-02
4.263621628797133710e-03
-3.304537653209640991e-02
-1.713935889493607354e-02
-3.285613945243511663e-02
9.365148219561018894e-03
4.291416689656486760e-02
1.958120991416304607e-02
-1.511581199363096761e-01
3.091619091647892364e-02
2.881429247959531315e-02
-5.841646643512612286e-02
9.402627933404364424e-03
1.553317685990270036e-01
1.091719252925462125e-01
7.069089239904587096e-02
3.580187336611604515e-02
-1.270844176894695907e-02
-3.066250577889853557e-02
8.197457108658880512e-03
-8.636160218367877617e-02
1.779966476007888848e-02
2.815753481266458982e-02
-2.398471171304560612e-01
4.935610270393835097e-02
3.173209692495053413e-02
3.307462065588100825e-02
-1.057094851861594825e-01
-7.866957024736460913e-02
-5.751356622494435689e-02
2.920551388841696044e-02
2.681230069165878999e-02
1.835599874718284175e-02
-1.007763452338281476e-02
-4.517459086775952454e-02
-3.868916568416280038e-02
5.431403099696522491e-02
9.695165831489875596e-03
9.111306104292968278e-02
-8.877906307037511380e-03
8.744660382371055585e-02
-9.919320399324433463e-03
1.271861835880002678e-01
-2.281792023189753438e-02
5.158304938192146208e-03
4.823350663688020373e-02
-8.785987578384933661e-02
1.322452661396434359e-01
4.477924390240033831e-02
6.414040656302777421e-02
1.866080591375160469e-02
-8.979865771421914264e-03
-4.903822185984078874e-02
1.957721352494347020e-02
-5.328318142865201557e-02
1.438485980107090086e-03
-7.290099042561538900e-02
1.773960538255841754e-02
1.789121755086815063e-02
5.971361698703528398e-02
6.877630899488292038e-02
-1.078109473004910251e-02
3.767459382102045229e-02
-4.117162678074904984e-03
1.246502930267702619e-01
5.149379021055613785e-03
1.509018835113441585e-02
6.092334157724293986e-02
1.962988446935705171e-03
9.234710786560417634e-03
-2.014978587882140099e-02
1.050315205442461514e-01
2.074763366427816776e-03
-3.862637204205915126e-03
-3.486058838775090152e-01
4.256388976302694083e-02
-1.924579746219693410e-01
4.834218842699497531e-02
-3.780916722546077968e-02
1.058602506037227380e-02
-3.942362511002339698e-02
1.093207356324384233e-01
-8.459116243219359788e-02
4.458921522151771538e-02
1.777024449595994426e-02
1.144818820084996663e-02
6.171460223096082720e-02
-5.344889155324283186e-02
4.594397937228320017e-02
3.013825209271204023e-02
-2.432526841454978397e-02
3.730774982343023488e-02
-7.716980466858960365e-03
-3.435718643223666102e-02
4.747000423145586630e-03
-6.247642909221785140e-02
-8.226640143408526118e-05
3.844456638458131764e-02
9.247963200610999704e-03
-1.162443215295681509e-01
-6.987178345391219236e-02
-6.750752030332204945e-02
2.165485057646857059e-02
4.180854984182604678e-02
4.972506928348874311e-02
2.008702937441736100e-02
-4.253363095122574683e-02
1.216923459745153646e-01
1.198079628628679894e-01
8.818989143891088622e-02
-7.540230805948512985e-03
4.599924584183732665e-03
2.046296340181979687e-02
-1.059662655563465422e-02
6.369520160736318048e-02
7.407256051708758018e-03
5.719738203169523125e-03
-1.479519772600572554e-02
-4.889951918701003312e-03
5.534869384212137700e-02
1.020545621969436018e-01
-2.362636102144074352e-02
-1.999183836774446471e-02
3.930251799500631554e-02
-7.033928461359967646e-03
-2.034835412181193459e-02
-6.055326545022115398e-02
-3.353688841954596822e-02
5.628384305762362816e-02
3.016718051605218193e-02
1.798711599813511419e-02
2.440374946055847982e-01
-1.690964236040406066e-03
2.428224577647589144e-02
3.443256796353149490e-02
-4.387438477548043919e-02
4.423778271687410502e-02
5.704848804374797015e-03
-1.470607718159809008e-01
6.210814085913673359e-04
-8.066888751292786153e-02
-1.722196173462331795e-02
1.205707970745353713e-01
1.737069304151690535e-03
2.388398537806412508e-02
3.781856184507496887e-02
-1.003294815534302824e-02
-3.062970986489974706e-02
-7.448888397023244179e-02
-1.499850099544337567e-01
7.607133274418209634e-02
-1.445110416839265506e-02
-7.679540922524228340e-03
-3.806305430573497101e-02
4.559030428662356332e-02
6.987013185546567251e-02
-3.433526365353840870e-02
1.466156727042913430e-03
2.933597802660710494e-03
-6.469452829590166543e-02
-2.159719847148757269e-02
-5.644496096050892475e-02
-2.485647798353743734e-02
-2.384216139489143960e-03
-4.655530133246935098e-02
4.349790533681896498e-03
4.883480194674660879e-03
-9.050014866830132301e-03
3.149656929934770144e-02
-3.187603607042544668e-02
3.908610196698833299e-03
9.788329569845335976e-02
1.380208146640557812e-02
4.929674618187598195e-02
1.523301457935910194e-02
7.808360776920195145e-02
-3.334289593738377078e-01
1.394607870734733066e-02
1.059406365313422457e-02
-1.157511667753200260e-02
-2.682858329845866016e-02
-2.850443248602276269e-01
-5.377206914220223483e-02
1.160454526359097280e-02
-1.327997680806133722e-02
7.047052092411665303e-02
2.960034645046549003e-03
-3.298379450967852539e-02
1.046710422255205386e-01
1.362864254793631491e-01
-1.175844614266746690e-02
1.434935136622622100e-02
-2.141038203507990567e-01
9.003943845927652942e-03
-2.855074733029266953e-02
-9.632676902308991151e-03
3.740662626606302416e-02
-5.674691586583717473e-02
-3.616034384361237891e-02
2.146574345653283131e-02
-8.820141177424373029e-04
1.119792042656730102e-01
1.511237813713328486e-02
-1.217994589802153665e-02
-1.113568790970017042e-01
-1.585352537976438825e-01
-2.282113596614288031e-03
-1.660075932350331407e-02
3.675343454105514662e-02
5.465152334980016846e-02
-5.338247916536171395e-02
1.470720552896737782e-02
-9.943463223359032266e-03
2.183031783368243745e-02
-1.081363448325326493e-01
-3.727053461056726441e-02
1.569529963157088870e-02
5.632621799220904196e-02
-3.939336702637672577e-02
4.739323009485586942e-03
1.443348500686993663e-01
-3.479658829844509832e-02
-2.657767415747733231e-02
3.476830947990538351e-02
6.117502220632020649e-02
1.393171980412408022e-02
6.567687210895988004e-02
1.048450523985456663e-02
5.318746297110999582e-02
-1.015162168027618356e-01
4.987256057323168588e-03
-1.025781612993740752e-02
2.902052562169631436e-02
7.119263890007590870e-03
3.412105716302680169e-04
-1.105430212388937468e-02
2.889482879815204533e-02
-2.718632697635148601e-02
3.852574896592724646e-02
6.484928868449452155e-02
8.497167342468421591e-03
-2.219578530376632025e-02
2.316954547984660824e-04
-1.516234105724867214e-02
-1.081034606344774204e-02
-8.142227447998093282e-02
3.828460978753336214e-02
-2.408353413341260407e-02
9.698257395494463626e-03
-1.604297648809907273e-01
-2.860986078864570514e-02
2.662234909676637618e-02
2.390016195739932264e-02
-4.584770100154913347e-02
-3.066698482443960816e-02
-4.406129010100789251e-02
1.343754206145829355e-01
-1.989903791986325637e-02
3.755322447118419199e-02
-1.129799735190629428e-01
3.599192152862842192e-02
3.101447619633294073e-01
1.832220621672599539e-02
-1.236382134864250915e-01
-2.441686125581507202e-02
1.585256100221789713e-02
2.578100836619635558e-02
3.284611659155216995e-02
-1.097318686046081376e-01
-2.690073296410455325e-02
5.722607755220143061e-02
4.528923000394282500e-02
3.740226342000727011e-02
-4.618078043878750399e-02
6.174440222021386482e-02
-7.272589971225155298e-03
6.888887690845038603e-02
1.000824581284281978e-01
-5.182288855678354039e-02
1.995808610490232542e-03
5.340260610200262686e-02
3.950014687473261954e-02
-1.189554828429048722e-01
-2.067292345784247851e-02
-1.139656460853051417e-01
-4.798645170157585238e-02
-5.926525246486825244e-02
8.310167119900416233e-02
8.914732368260151751e-02
-6.150900077909708143e-03
3.610771753415203955e-02
-3.060616486253591589e-02
6.937774184056468008e-02
3.647514963487871742e-02
1.459573261413970972e-02
-1.413963182755355839e-02
-1.136686094388176561e-03
2.678302024025590571e-03
2.062134165822536230e-04
-4.090813745623399222e-02
1.182454903758354131e-01
5.767315903085241252e-02
4.726939837339491461e-03
1.606089288536935444e-02
-3.728462649159764580e-02
1.186902843716822337e-01
1.773129495104756037e-01
5.967082115764200251e-02
-8.718020624862659815e-03
-1.403634349711201379e-01
-1.274050555151393788e-02
3.430270342689947100e-02
2.291000136346982297e-02
7.158582430136579966e-02
7.593798201103246770e-02
4.585889319054708979e-02
-1.308080929021917804e-01
-1.100865782185389136e-01
-3.055777595750984454e-02
-9.932592381569941078e-03
-6.744287231517778758e-03
3.081056532949351043e-02
-3.468583494628694336e-02
-1.749656379819521101e-01
1.033299714188660179e-01
2.986761140972703926e-02
1.111707854345792001e-02
-5.032865313749417674e-02
7.071318262561170076e-02
2.756192120314458760e-02
3.782280503713011249e-02
3.210103335329346497e-03
-2.861748340563970844e-02
-9.432296933267757255e-02
-6.599892868628202958e-02
-3.660158014708118912e-02
-2.929525558907767890e-01
6.831747427654223659e-02
2.306421570276738151e-02
4.699042082548268023e-02
4.028443804948485946e-03
-1.188764107772472337e-02
4.884602746765805137e-02
-2.586861785761287395e-03
4.443703713352227525e-02
3.127399176622092797e-02
-1.354072513112150253e-02
-5.424830720990071742e-02
1.738010887152337605e-02
-5.955260804556241488e-02
-8.777985716279337880e-02
-1.420205606558143721e-02
-2.818149175095155043e-02
-5.670937367186746313e-03
-4.940232872867515723e-02
-3.065557475077690299e-03
-3.820443717061411393e-02
-1.415949950724377376e-02
2.985707353765575459e-02
-3.251544888217271501e-01
1.378539485689872675e-02
-1.092223082767191239e-01
-6.362781071748814521e-02
1.650801050936610836e-02
3.109775956525147322e-02
-5.583724455318146013e-02
3.519563981123458030e-02
-5.371994790499143302e-03
-4.453425377142510716e-02
6.166041026930465380e-02
-4.086507473102769100e-02
3.132066678882373945e-02
-2.785771198636005086e-01
-7.326930398374376097e-02
-8.348601714445449962e-02
3.037947012765861501e-02
6.432009329908575969e-03
-3.477712791062171488e-02
-3.682666973201547539e-02
8.678498547908126623e-03
2.488981920265255152e-02
2.063633651478996231e-03
-5.821269352514723411e-02
-5.890261359290944326e-02
-3.525577222630863622e-02
-4.812359077384428807e-02
1.871310634971468795e-02
1.637796205841510547e-02
-8.341320953448989883e-02
2.508929331961898268e-02
-7.769332749898794424e-03
8.936574110160851658e-04
6.437481757991556086e-02
1.713612895119624030e-02
4.107322002244679499e-02
1.570372718301723744e-02
-3.094156172054052939e-02
3.075694387705101007e-04
2.951489046802139443e-02
-3.922097808172589871e-03
-3.471155900985330861e-02
7.618184851121891088e-02
-7.985746724709672645e-03
-1.028978752483068228e-02
-6.079448101475763006e-02
-1.514242369121517051e-03
-1.338065044002660457e-02
1.187643522035153748e-01
2.568724336807769182e-02
3.579913081658171042e-02
3.360086796951602343e-04
-8.931703239431515451e-03
3.304037787207875915e-02
5.133593313751758092e-02
2.165480663544571902e-02
2.276879683033494056e-02
3.042621119282439002e-02
-6.549677956813030125e-03
6.593693353002230174e-03
4.731523486140706142e-02
3.255664013821970432e-02
-1.546645158595278714e-02
6.482867296623005034e-04
3.472106797618478621e-03
3.676457061383217595e-02
1.833866688911882925e-01
-1.089486142634904162e-02
3.469560462937830870e-03
2.013661996590161447e-03
1.562129942435893683e-02
1.740425704838364229e-01
-2.615582220597678295e-02
1.773995035533202508e-02
-6.686637848632952241e-02
3.166798112085618400e-02
-1.019714843595819070e-01
6.248096701130065322e-02
6.846264480517685880e-03
-3.898835180486904389e-02
2.622625172036491779e-03
7.571838485517697059e-02
1.718602659224417045e-02
8.237917378530881796e-02
-8.940762450891658096e-04
-4.150588537238317222e-02
4.982332865448178133e-02
-1.308331660090743817e-03
-1.289638440527020868e-01
-2.176878442057956706e-02
1.476370712147889556e-03
-9.647298085786916097e-03
-4.322938848887925706e-02
-2.226067757632837693e-02
-9.788977774741046411e-02
2.065578582451457496e-03
2.617872254395098644e-02
1.251105918341947031e-02
-1.427385193228495330e-01
-9.046268213868434438e-02
2.401612847799991859e-02
5.868678031873460037e-03
2.312528030381237783e-03
1.318292263272996534e-02
-2.502451972537050873e-02
-3.012318450512127381e-05
-1.008865253025312270e-01
-1.823618588756857964e-02
-1.471933243833496024e-02
3.888890245010353380e-02
-1.279220053443464455e-01
-8.926523990041448919e-02
3.628313854699986157e-02
-1.747615578324058366e-02
-3.842623959605013406e-05
-3.072791526140514207e-02
-6.519792870268290019e-02
7.574139877770053042e-02
-4.347206821953061850e-02
2.643966753964394154e-03
4.772096825186584318e-02
-2.281833829426571647e-02
2.703893025255074342e-02
-5.313415134553467478e-02
-1.868255883111994975e-01
7.919015076200271175e-02
-2.733589649896996099e-02
1.298897663883420879e-02
-1.062519003565617730e-02
1.541242586887358601e-01
-5.534804364994368869e-02
1.371668581473854953e-01
3.894091818204530042e-02
-8.673463487075478220e-03
5.883336820244085968e-02
4.713371542976363404e-02
4.504740243820506279e-02
1.032244723429967537e-01
1.870898092593390599e-02
3.731306817088916872e-02
5.373230071839935756e-02
-6.832991218145396950e-02
-1.035698818947765193e-01
-1.182655930853150766e-01
-6.962600760717410631e-02
-6.516628815841052358e-02
-1.912104576584168492e-02
2.817033003190116264e-02
-8.722742011067455281e-02
-5.773925656930213590e-02
2.476758618455695421e-02
3.474748718400735847e-02
2.458911002763249434e-02
-3.257498452478119894e-02
1.435172171751341805e-02
-1.470658336767485461e-02
2.190869690552663118e-02
-1.199028100073173779e-02
6.938019116625264437e-02
-2.863865657327988035e-02
3.211067718341775994e-03
-8.402225599235799147e-02
2.670594289545259736e-02
3.383379540104335809e-02
-2.455487220996323966e-02
2.741030504797840536e-02
-1.937971969434170993e-01
4.055926544066405098e-02
3.285787371797794371e-02
1.007326687411287530e-01
3.400153334233993463e-02
2.976768032187983651e-02
4.518587463898965928e-01
2.085915572434738907e-01
2.056411387294936333e-01
-5.261727896253484693e-02
5.497860762562577913e-02
2.723313770898792494e-02
4.116674014258822623e-02
3.548476064186319862e-02
2.852958452810947995e-02
-3.843694454405772315e-02
-1.044733950909148765e-02
-4.724463582834929985e-04
3.587943461107914039e-02
-4.868876542695434011e-03
2.613955362995897674e-02
1.667487259024642149e-02
-4.658114326497941882e-02
-8.265230707063454807e-02
4.105471424068794783e-02
2.646403273839668599e-02
-3.195382737477733132e-02
5.191274066427007533e-02
2.160982110442974304e-03
-7.552581522187806068e-03
4.089326172673145299e-02
-9.066742842460409624e-02
2.206941415922774458e-02
-2.794999687455524545e-02
2.249415443722177499e-02
-1.224474065954726625e-02
-2.796440845003340947e-02
3.663351370374235555e-02
7.714099556388703816e-02
1.190486361115858094e-01
-2.076020191436852846e-01
-3.355431098113736271e-02
4.054036723796362873e-02
-9.221030154253406774e-02
-2.527435582345556875e-01
6.460554323547650080e-02
2.622607133563813111e-03
-7.691824962780568695e-03
-5.009001483226037665e-01
-3.300685404732506267e-01
-1.021799115977081729e-02
-2.973855566053796098e-02
8.114235899335943414e-03
-1.522589841536566707e-02
3.232294666509787778e-02
6.524043235326776324e-02
1.200371239514726046e-01
-2.722701112835595669e-02
-1.131812179431786886e-01
-3.362815355620416696e-02
-1.060965837116389920e-01
1.749762362185310147e-03
1.871537829062603839e-02
-1.240998767226151878e-01
1.581411644219084603e-02
6.845954128497508395e-02
8.788863300449713256e-02
-6.832328166332690689e-02
-6.924345904480034154e-05
5.705070133090228007e-02
3.209801394513644296e-02
-2.470713822075460697e-01
2.310642483172553087e-03
-3.911686669252547460e-02
1.164987654915953033e-02
-1.606574719075333224e-01
-1.526226449063342559e-02
-4.958861826477797830e-02
7.417701049380362455e-02
1.862118008087115806e-02
1.874721145736750992e-03
-5.514710046514372660e-02
-4.769530380083756432e-02
-1.486387737770861750e-01
-1.916696191293122686e-02
-3.731468934734022413e-02
5.916981431905444545e-03
-3.722037709032970793e-02
-3.359954633946934943e-03
2.463026545806704104e-02
6.753882923162981070e-03
-6.612076211829978623e-02
-1.768433937308298550e-04
7.509349031881878966e-02
3.773205842633458457e-02
1.119591831725284294e-02
3.760802706001959567e-02
-4.161277893179700024e-03
1.739755113448191934e-02
2.906765552915912751e-02
-1.084512780954417950e-02
1.092269008104238166e-02
-1.099723070271799163e-01
1.569009814693945321e-02
-7.834418492894479336e-02
-9.402030855334250758e-02
2.738496375085709353e-02
1.567881814416351507e-02
-4.133131296536599747e-02
4.740516405292750923e-03
-3.715370638315869389e-02
-1.164686665710742280e-01
-4.589882826228283697e-02
-5.509129700337565133e-02
-1.197164277965041823e-02
-8.839784459028636465e-02
-3.576353312546715069e-02
-2.110630729526179541e-02
3.624585575440493479e-03
1.602431294426042568e-02
5.869961113433495165e-03
2.342441082507963970e-02
-7.452162957165700020e-03
7.628236658432656359e-02
5.262429029214861498e-02
-6.347384974905054440e-03
3.308698264716260218e-02
-2.406348021026158759e-02
7.741348661061893399e-02
-9.544480579437799109e-03
2.756965602540505447e-02
2.550739925954505563e-02
2.775719214279014427e-02
-6.795534173711595405e-02
-5.985184830538297154e-03
3.534136067308698420e-02
-6.073063893940645191e-02
-1.913340481257131396e-04
6.243626082669054278e-03
-3.048473749595508389e-02
-7.024072293351687687e-03
-4.666014756388377205e-02
9.923248390499050942e-02
4.514926642679712582e-02
1.096746825075921999e-01
3.680266967238231962e-02
9.546453960335671382e-05
7.997226325373545455e-03
2.279991858628524493e-02
-5.360727627344082785e-02
4.525238330256491776e-02
-1.419217176086180580e-02
-1.179463274128793142e-02
5.804781201677285812e-02
-5.277871795684563327e-03
2.251031531446076941e-02
-5.959936138235795433e-02
6.038757527927094033e-03
1.778785865794876506e-02
-7.331074067093398816e-02
1.990751590792997350e-01
-4.613829341666371431e-02
-1.785010608414848085e-02
4.482421266114464120e-02
1.307087518892670851e-02
2.977571608059852853e-02
2.645888113459472432e-02
-5.399885780987506018e-02
1.550540859912231256e-03
3.242729387253426993e-02
1.818244276245514768e-02
3.669964409174475417e-02
1.956959501080969277e-01
6.296585211640035040e-02
5.516875273263128349e-02
2.510465620188524153e-03
-2.394944226498919027e-01
3.012153669542013898e-02
1.827272631684463342e-02
5.664496847339919351e-03
7.910259192640606285e-02
1.148016627695927147e-02
2.602195387622764366e-01
4.780903692740526983e-02
5.443436795525433830e-02
-1.990140419311456077e-01
1.443373013930736477e-02
-4.189415581465141813e-02
-6.304201478570834599e-03
-2.203497576322719850e-02
4.818953422097829731e-02
1.452298481873051661e-01
3.573841672075669940e-02
-5.705699419117836457e-02
2.916497534296855123e-03
1.656759451019757662e-02
-2.649560984263816740e-02
1.843535377172184075e-02
2.793071588097191527e-02
1.207860625820261491e-01
5.894913357019145733e-02
1.392881574519992949e-01
-1.604125824100112105e-02
-2.060494145608345734e-02
-9.565207809242666850e-03
-2.728086772707478957e-02
-6.410954958225331679e-02
-6.688840732787520484e-03
-7.718831710318901917e-02
8.731910853368896053e-02
1.371720866995021215e-01
5.574562830183730361e-02
2.701433838906287452e-02
-1.127696580423481337e-01
-3.037324158114886388e-02
-1.836523683510399383e-03
-1.604665720653391525e-01
-3.284114954524038760e-02
-6.628724552407444341e-03
-3.638141299622985742e-02
-2.059063916264867664e-02
-2.627036716782060743e-02
1.570180081181882584e-02
-1.324995574234581232e-02
-1.780553364812641551e-02
-5.357228479801529053e-02
-6.419922574124378722e-02
-3.909996531823259347e-02
1.288879496408863387e-03
-1.271161899707143328e-02
-2.761739833797722046e-02
1.233413169210005253e-02
-1.485011030572247134e-02
-1.040201466588203533e-01
5.295097864484693551e-02
-6.512535241949207743e-02
-3.947126480214261518e-02
5.542179232391084183e-03
6.295234206611849404e-02
5.034797599973590831e-02
8.951628117503132587e-02
2.142658841995311383e-02
-3.927686872573381976e-02
-5.097674748830931940e-02
1.542364446393426451e-02
9.528648966673903056e-03
3.905754307522344565e-02
4.079695676729603454e-02
1.072139639953253488e-02
1.180563049660500047e-01
-3.453594602054754215e-01
1.153743825435876308e-01
2.817404717587026347e-02
-9.436029036985564555e-02
-5.339941260231664821e-02
-1.100245246238577314e-02
6.032426193645939322e-02
2.430275037430093196e-02
1.165180406806725147e-02
8.909152001304076682e-03
-7.563715741087117389e-03
-3.146129006506338810e-02
-6.937444827710030799e-03
-1.984636774000039447e-02
8.147308005646891615e-02
3.518770720530343954e-02
1.279177382311593759e-02
4.177087405603097797e-02
2.251871615421344175e-02
-8.124250941218026656e-03
7.538334599933491087e-02
-2.998006324212708698e-02
9.310865398073608565e-03
-4.696895075317331081e-02
3.646494936526679248e-02
2.663747777169763950e-02
4.149664986845545689e-02
-8.007134554698128528e-03
-1.102558556765922404e-01
-1.042895380250078857e-01
5.245618447032956988e-02
-6.683091314835484797e-02
-4.333062969688579805e-03
2.484437687162308409e-02
-3.446755903804635951e-02
2.933117958290630892e-02
5.941846312154946616e-03
-7.995841669456155501e-03
-1.490897042450959054e-01
1.519390625666998743e-02
-3.687764211092207228e-02
-1.191656685472426147e-01
-5.516797821571669397e-02
-2.837442342950663790e-02
2.046600239357503417e-02
1.930158640760467822e-02
-7.098817255437499252e-02
2.866424379705737047e-02
-6.779640861579236399e-02
-3.792805294995545834e-02
3.648380797429660177e-02
1.126362756376684537e-01
-2.861862042048829088e-02
3.225659361987436198e-03
-3.708658947064659706e-01
1.077052108443934675e-01
-6.552246051922562022e-03
7.128745079506637605e-02
-2.430382214455590467e-02
-4.256979517996239276e-02
-2.275290597116870137e-02
-2.806900910910157740e-02
1.998060585528645128e-02
1.625766937909582308e-02
1.518618440611388225e-02
-4.029769085351830871e-02
-7.081485718347989289e-02
8.006488176320462891e-02
-1.860830873264636073e-02
-6.292632805460721124e-02
1.400549754450535617e-02
-6.216015501307521618e-02
-7.379194571028083183e-02
-1.591921743582585744e-02
-3.372013581420050810e-01
-2.533540473822066749e-02
-8.333115351900652334e-02
-6.002637666505040298e-02
2.547307742090163668e-02
1.083287278035021117e-01
7.114412246103492266e-02
-8.031007937182441103e-02
2.728521240297878628e-03
1.236035717188840996e-03
-6.051713752043796912e-02
4.021833829539464555e-02
-4.605932916321826137e-02
1.631870349454690172e-01
4.806380517067081887e-02
-5.901115049013905961e-03
-9.310443643200974617e-02
-3.542664028495202781e-03
-4.104531380661171486e-02
-2.639814836977530561e-03
-5.008383811139267838e-02
8.964748949339539086e-02
7.109337434281172430e-02
-1.632287672189643157e-02
1.374433302194138541e-02
1.741108138718147624e-02
-9.938093448843107747e-02
9.037178496198006172e-02
1.293532125574243241e-01
4.330509981344523446e-02
-1.140390923495933490e-01
-5.882134142917570113e-02
-2.484120917712443269e-02
-1.579298520172456657e-02
3.083251117128594024e-02
4.041072741339711560e-02
-1.113614077528304463e-01
1.713394893032975375e-02
-4.879706820431055359e-02
1.694320038652461988e-02
-1.806661609684962616e-02
1.395375912858103605e-02
-9.045784006439835934e-02
-1.162266312379757610e-01
3.754099383173786775e-02
9.543854881000968238e-02
-7.383934524498783625e-02
5.392176574779839610e-02
-9.661246056156086795e-03
3.136629750661376614e-02
-3.498858344258191921e-03
8.822906370267506737e-02
-3.521814958199817602e-02
-8.020042412707744511e-03
3.582243977720618588e-02
1.624322678376898671e-02
-4.424811612895816065e-02
3.191116439769254437e-02
6.261909022670800185e-02
-1.374229802751116480e-03
7.235625592434399150e-03
2.508173892581411213e-02
-3.552579202879484893e-02
1.902216014516845688e-02
-2.130494063220944589e-02
5.806479225409580391e-02
-2.929400566508120335e-02
-7.173198245444317722e-02
6.658555128301002490e-02
-8.748149592143270384e-03
-2.802210231051407291e-02
-2.071382120532739082e-02
1.693612275192754243e-02
1.979523553102258138e-02
-1.950829912484275397e-01
-4.821549079667140913e-02
6.563840851412414135e-02
6.465562956958587071e-02
2.337304556973867076e-01
-1.539303362987155255e-01
-2.301748100289052745e-02
6.949473621972962478e-02
1.453011807839148760e-02
-5.187121200891302991e-02
-6.018653199391549302e-02
1.425136665439884556e-02
-2.308853842045338958e-02
2.314490207084922424e-02
3.753341164573337219e-02
-8.455496719931927807e-02
-2.659603092135898877e-02
1.211300887101479651e-02
2.440664585649500451e-02
6.443724666578571486e-04
8.867370354476137098e-03
-2.105052024455491123e-04
-1.043176483633150020e-01
4.547320170547577284e-02
-5.258773693967368906e-02
-9.304205944285524194e-03
3.736862370426120156e-02
-3.426845051943040732e-02
1.395066596533706474e-02
-8.973828620873826323e-02
3.757574221870552816e-02
-8.829704388864771658e-02
6.502842954684387444e-02
9.603512032444103119e-02
4.733981074570497993e-02
7.525016816144447507e-02
6.630364794602854051e-02
-3.142920994461415041e-02
-6.141995959143019962e-02
-6.890735804149536285e-04
-5.761928227533584523e-02
1.549792629127322990e-02
9.358214957179968041e-02
1.140632049684026442e-02
-2.254746902268793193e-02
-1.542229155302751037e-02
-5.146096064855325281e-02
1.715730337587410281e-01
-8.304311875088243172e-03
-7.302929285737885801e-02
8.430097258730229193e-02
3.277091679087831833e-02
-3.601033254794178823e-02
7.511138124957289497e-02
1.719474351467190423e-02
-2.101494736438538347e-01
-4.050693339327743336e-02
-2.093420218475997713e-02
-5.114530959916099156e-02
9.806175937498612383e-02
-4.454032253199555896e-02
4.369160799796929784e-02
-6.354853598986968683e-04
-1.059331232420467582e-02
-1.691597232942605028e-02
-3.703113639549921593e-02
1.724417158478044887e-02
-2.552443925120453233e-02
7.880833855094339369e-02
9.187317594551024265e-04
-5.652195052836066734e-03
-1.819471448643021280e-02
-1.647354581493658821e-01
-8.469795983571087872e-02
1.795369017619948687e-02
1.002414795978823908e-02
3.888889275669191181e-02
-2.695849272832912674e-02
-1.894634126040310859e-04
1.358415352986513946e-02
3.571154763377654140e-02
-3.356379506840379001e-02
8.722469890193289147e-04
-1.198028202468371349e-02
5.516112163039633975e-02
8.893075661785940222e-02
4.082902648925598038e-02
3.240526498344097062e-02
-3.311504108510249234e-02
-4.819467185058366743e-02
-5.462336786578413789e-02
-3.827648447481063476e-02
9.648316961830046001e-02
-4.246012418059947474e-02
5.530406486150694911e-02
4.967175761797174016e-02
-1.811776903665793942e-02
-5.270579194742541079e-02
-6.881770022918205776e-02
-1.936934456457901563e-02
-3.826664299197172700e-03
2.919865213522765748e-02
-2.166990112163564436e-02
6.013965202334743687e-02
5.060767739561959633e-02
3.959122088869276856e-02
2.097755204541624282e-03
-1.687054879346857050e-01
2.458856478762163483e-02
-4.280434641668803136e-02
1.152743332222377903e-01
-9.607770807815849134e-02
-8.108397693602896472e-02
-5.244626508214191712e-02
-5.484515729713717973e-03
-3.619214536101973689e-02
-4.219234656916305733e-03
-1.044929068511497340e-02
-1.763689354897346462e-02
2.499142634914093553e-02
-1.759538629072476476e-02
-8.741011863145042859e-02
4.519542101219734508e-03
-6.452646383393496887e-02
6.214146103187826592e-02
-3.307054565458956378e-03
7.081183044299468876e-02
6.715689500183522065e-02
-5.928566774936713801e-02
-4.264307099327803094e-03
-9.551451069976750821e-03
-1.157471097673949505e-02
1.792577577942749134e-01
1.937341142854903664e-02
-5.231017756645373225e-03
-2.151234672610978765e-03
-3.811078002451842583e-02
-2.455605665524747752e-02
4.284407028966662895e-03
8.147975630730207308e-02
-1.700464909267635633e-02
-7.358658600225374304e-03
7.987183015164153743e-02
1.603343239141894264e-02
-3.878450725023958601e-01
3.619294355217723275e-02
3.165815852854243079e-02
-3.670795151864844619e-02
-6.223851657534431280e-03
-5.595882107066935986e-03
4.963855956193010538e-02
-6.627088795645467989e-02
7.643842170587202001e-02
1.546902781670933535e-01
4.344690465906369398e-02
5.036505112059161404e-02
-8.733207428419636348e-03
-1.884886115848955490e-01
2.669786170693747018e-02
-4.727873109066411256e-02
-1.747527022818011130e-02
3.774918199918058173e-03
7.030592100951839991e-04
-2.626469428251326441e-02
2.457412319861749378e-02
2.713243660933899182e-02
-6.071480816954797494e-02
-3.550311483492977864e-03
-2.586183089264911666e-02
1.588668220988824140e-02
3.627387885250019095e-02
2.880461556064509501e-02
2.762293130167410848e-01
7.111718849979817292e-02
-2.362549789892147770e-02
1.034471874330984871e-02
1.979135717336419006e-02
-3.591527490762225772e-01
-1.013147499025597725e-01
-4.043366135956564383e-02
6.938583018169422467e-03
-1.962817726150395056e-02
2.539191599536374522e-01
1.439689198910677204e-01
5.642855265507479290e-02
-1.264401726425267922e-02
2.835622863786874809e-02
-3.654290292819763891e-02
-2.385804365960501536e-02
2.240701884416437806e-02
7.806582081255511452e-02
2.423502038699966096e-02
-4.457677625594294590e-02
1.451705481289755351e-01
7.970808764220368992e-02
-1.193224616687113028e-02
1.179137901539108191e-02
1.642372371949054471e-02
3.252286730016876182e-02
-2.719723464183247674e-02
1.151079342425094737e-03
5.031803963106439709e-03
1.021301884104552637e-01
-1.088950937889378578e-01
-1.093853170523999413e-01
4.330102175333229442e-02
4.451597706469710009e-02
-3.544025051332127391e-02
1.569070355614039444e-02
2.512058608138469009e-03
-1.973044363834754178e-02
-3.329812565027679295e-03
-4.629462940517782565e-02
-1.627966882031022661e-02
7.862763546020287708e-02
1.322974520313383862e-01
1.878224426289927182e-02
5.376597211300945117e-02
1.316829357823078896e-02
3.239273247224624258e-02
-1.185686643263390155e-01
-4.285041828913034589e-02
4.725485465693144566e-02
-3.460425204561889262e-02
-1.003675696332342535e-02
6.259586642350505048e-02
9.013127400735590489e-02
3.903141907427409851e-02
1.154568949045868369e-02
2.074868784934779178e-02
-4.668678029499539472e-01
1.614072566182380153e-01
6.006907375495845053e-02
8.967445001502608037e-03
-2.773657454725740254e-02
-1.702905231180585482e-02
-2.774106058510794441e-03
3.486153953363050478e-03
1.028003479768530987e-01
3.745462167856880575e-02
-3.928532192922053190e-02
-5.386389984629417343e-02
-1.893647031342331113e-03
9.816018988717090110e-02
-2.184781336241323896e-02
2.236330434326875422e-02
-5.561018795467784215e-02
8.653958015794788183e-02
-1.906933262990639227e-02
-1.203712584196237230e-02
5.149685120806700434e-02
1.218233599015793450e-01
-2.327767625469247606e-02
-1.827981217865761246e-05
5.856109982399703567e-02
1.479311869804241508e-01
-2.605514396942117117e-02
-1.393187963727053891e-01
-5.908322881650993758e-02
8.238627543778933443e-03
-1.209390716752553781e-02
7.702379351128017804e-02
-4.336471712645956732e-03
-8.224169779591928697e-04
1.085126776000846227e-01
1.595365808813995964e-02
-6.910188644767656374e-02
3.310760473541796145e-02
-1.155882747892567203e-01
3.094097021675511483e-01
-2.736257930464931418e-02
3.306973406346270378e-02
-6.440783169518696227e-02
2.220776217691879974e-03
-4.105977162683194411e-03
-3.259101386910455856e-03
3.720593181464491861e-02
1.268031376974572688e-01
-2.629149901533362269e-02
4.474047217461098701e-03
1.134539773458958893e-02
-6.840350221865972025e-02
-1.201451511808653561e-01
2.480232147286746403e-01
4.928113030279981932e-02
3.378363688420515151e-03
3.612382082474748651e-02
-3.221409429777077373e-03
2.076116108269200709e-03
2.557881227435360519e-02
4.757716643849065757e-02
4.789398730295245377e-02
9.744024040866816616e-02
3.452490900685934588e-02
7.097901459581646821e-04
-2.622751131667093449e-02
3.864956592008066821e-02
-2.976455026855651109e-02
-1.268977682082095965e-02
-9.443689849744023312e-02
8.005806469205849207e-02
1.736913567856230439e-02
8.051810117951864465e-02
-8.186184668119518906e-03
-6.783361142439221780e-02
4.583057205843580478e-02
5.626375643422669437e-02
-2.507869497403739101e-01
1.885696292598559171e-02
2.713146977699043561e-02
3.680425883525718228e-02
2.846231404128404113e-02
-8.199150678866969078e-02
3.874332908953014715e-02
-1.806436905735095758e-02
1.779883665439565277e-01
1.038407159332484231e-01
5.027523363343789492e-02
8.442692289263704908e-03
-1.639731726104767251e-01
-3.438872091393632008e-02
-9.163696627363461522e-02
-6.504885410381158750e-02
4.023683827813381159e-02
-1.005222371617668815e-02
1.460379629359662979e-01
3.025855461645336579e-03
4.007801279224378760e-02
-9.708837962826775969e-02
2.701797383457226268e-02
-5.404015742435235026e-02
-1.918717812355349994e-01
5.364596453872244597e-02
-2.180005463526830944e-02
-1.046467284742950282e-01
1.193223399398942938e-02
9.914631623842677655e-02
8.128692127602361872e-02
2.519907555693594661e-02
9.497019107715259922e-02
5.605713279262352494e-02
-3.521204259604939213e-01
-1.601249141492988304e-01
-8.465139144537939253e-02
-1.079888863920140801e-01
1.868758654474062253e-01
-1.814896082265383612e-03
1.152403583353835310e-02
7.993771631953508830e-03
-2.319762300346659700e-01
6.335506180715892721e-02
-6.780032555858894749e-02
-7.431242383007466423e-02
1.060577143117525101e-01
-2.816644892212765566e-02
-3.841468613001505251e-03
7.051495569021078158e-02
8.686573351875104959e-03
-6.510194112961183339e-04
1.650799767013721650e-02
-9.047181580102571508e-02
-4.540597150260219234e-02
4.350922319823861961e-03
-5.349486563591401150e-02
-1.020165927569870873e-01
-1.174507209416772863e-01
-9.561308517998860779e-02
4.106585624530611350e-02
3.309839175022613600e-02
-3.098043826523095082e-02
2.820222924800656547e-02
-8.060804949561968524e-03
-8.572851965351709069e-02
-1.048114693914477605e-02
6.921016575245270142e-02
-5.155555003927014823e-02
-1.701420300022513446e-02
1.103381477693448492e-01
4.987995845193290284e-02
1.616268141150474036e-04
-5.080045056763519973e-02
2.709700007910221739e-03
-7.700033383766204803e-03
3.447565492579044572e-02
-7.605197089162782365e-03
-6.933097439405946916e-02
3.536488028462409644e-02
4.922506604047019452e-02
6.191372094127182285e-02
2.453946398471582718e-02
4.717647879148609974e-02
1.511630706788224740e-02
5.049040811177159943e-02
-2.935442649464071324e-02
-7.919486630900682278e-03
-1.214241895359098322e-01
3.859468679365096050e-02
3.224256026279642001e-02
-8.429505034347868631e-02
-3.377634044285675319e-02
-5.363269053843297551e-02
5.227513277865428881e-02
5.469442440538466177e-02
-7.762426155169749320e-02
7.017154638517984419e-03
-5.327230143069366930e-02
5.160654285809902417e-03
1.434219563276257700e-02
-1.982478264474869245e-01
-8.193684471341636799e-01
-3.298575451831345980e-03
-6.779729125138518608e-02
4.434059139722746484e-02
4.679047220906104587e-02
-1.671059569596808000e-02
-1.703481977754289778e-01
-1.259434045292652342e-02
-9.396470355414189915e-03
-6.693409809773881447e-02
-2.946927640903409737e-02
3.603753076753908602e-02
-4.436580802214350888e-02
2.558973275438719205e-02
1.748174638204817027e-02
-3.738167711625285661e-02
-7.043903313373335584e-02
-3.291014772025082497e-02
-3.800663184177049177e-03
5.894279309122756570e-03
-1.069660468326428249e-01
2.639275182873455222e-02
1.312104342321091487e-02
2.779141306601304665e-02
5.255990660368236450e-02
5.161988592505763196e-02
-2.409286042627393348e-02
8.125747838879902613e-04
-1.535481771319911369e-03
2.671559324280115000e-02
8.715164314189793177e-03
-2.196923067866345287e-03
3.792749741805274272e-02
-4.561893742379577107e-03
6.079728704120913006e-03
-8.225853115293637469e-03
2.712118790377621158e-02
5.582371258001059960e-02
3.201018515448560142e-02
2.386612221466733255e-02
-1.586096857738954549e-02
4.690737713369083801e-03
8.336238361546799425e-02
-7.368434330241181718e-02
-1.266757427191037011e-01
5.876538906269160312e-02
1.415058112439667171e-01
1.713194905842037041e-01
-2.985797895372402366e-02
-1.504915898063326207e-01
-1.222978703733751176e-03
-3.096002696949098562e-02
9.390267970248741825e-02
2.826157712150148549e-02
1.744073246000353572e-01
1.422196258109703799e-02
-4.503523858394424262e-01
-8.763398422816024436e-01
1.584319225419061616e-01
-3.867646258816707233e-02
1.506183117518827483e-03
-1.425049482760097630e-01
-5.622371015451940214e-03
-3.368645096625655366e-02
2.307165412801400958e-02
-3.543647614044968114e-02
-1.682151633853849748e-01
-1.174546189184542677e-01
2.063037332712299929e-02
-1.794376864550273898e-01
-1.090106594256367717e-01
4.910884873886625299e-03
-7.560426496224786908e-02
6.458983562038594917e-02
-1.622521691919204950e-02
-1.298638385038106309e-02
4.130461821824354951e-02
-8.122338505363974406e-03
2.064958118512083378e-04
-4.896468551687760407e-02
-3.322023086868622355e-02
-1.019482079076931662e-02
