-6.475349391920513786e-02
9.877100199917979162e-02
-8.908353655846239227e-02
-1.224053691628424756e-01
3.685388267345944546e-02
8.090590084636987978e-02
-1.615252680266522078e-01
1.585568297631862467e-01
-1.370026952304644607e-01
-6.790583007495387680e-02
-1.460578216867771534e-02
-1.260975878756416535e-02
4.309708538821904744e-02
3.915663614297053979e-03
7.816498933653408254e-02
1.054818658272787119e-01
8.772799547401055609e-02
-2.527229596341226334e-02
-6.894023561673957336e-03
-7.163174900328907191e-02
1.866352806109139104e-02
-5.617938044586291528e-03
3.922018465826742628e-01
-2.231655195673450023e-03
1.481733253400771035e-02
-6.015457589099942187e-02
1.483027975809829251e-02
1.033031487436569390e-01
7.376537139290663923e-03
-3.821559922046288693e-01
2.455157567248898026e-02
-6.149838665417608347e-02
4.731710179161838226e-02
-1.613973460415390748e-01
-7.476486827173964289e-02
-1.453788212258317891e-01
2.167347385024112616e-01
6.727651844695319017e-02
-7.845724715303521724e-02
-6.650592502465506317e-02
6.061615705733114368e-02
1.817744106036506962e-02
1.726430988369123676e-02
-3.728478838650622906e-02
-5.043674619670067416e-02
5.019360543378763480e-04
2.150075631295690348e-01
-4.736788101093136749e-02
-3.190316347257548535e-01
1.181354119718074774e-01
-1.054926307119964102e-01
-6.375400934919180085e-02
-1.927000938042259040e-02
-2.086172639078447480e-02
-3.011166241990776427e-01
-5.151326782710696772e-02
3.284963395244119150e-02
1.778627797081816786e-01
-2.742457448773076220e-02
3.931532079814693825e-02
-5.430556813671800764e-01
-2.850538797032991511e-01
4.265463316996834925e-02
1.025234893212900429e-03
-1.619370538240311463e-01
-3.067731575521381177e-02
-1.281939625889523260e-01
5.813354484019218893e-02
-1.817964233072564065e-02
3.405527992502836443e-01
8.609264341542034737e-02
-3.683459737262175654e-02
8.593060875234202409e-03
4.025436730301855670e-01
-2.018442567211307381e-01
1.600555650564855492e-02
-8.679713631009140784e-02
2.092140788734299095e-01
-7.091408277284103057e-02
-4.376621533795718721e-02
-5.013146419645881507e-02
1.518548703577987484e-02
-5.858397187657417987e-02
8.164534179265439673e-02
-7.793887785243740207e-02
-6.076672479059589405e-01
4.086373204116800634e-02
-1.868407990156833176e-01
-4.279735094403391144e-02
-1.384855244962016896e-01
3.219065839319310007e-02
3.360168840347695363e-01
6.523064620034883798e-02
-2.720916592567634851e-02
7.567388381854082968e-02
7.095947681911722593e-02
6.214941570655386355e-02
1.026746061712461786e-02
8.187283605529266373e-02
6.952123757314530861e-02
-1.616046580201796201e-01
4.825233886459483895e-02
8.986725491691263668e-02
5.182982794690882411e-02
-1.212559433590601338e-01
4.220809447193053267e-03
1.540593113709727291e-01
-4.389346957135494692e-02
-9.721111539055508899e-02
-7.835516880713223886e-02
7.081235694499389555e-02
-2.042180325897613447e-02
-1.325090887192360498e-02
2.510368208902261783e-02
6.215025172744254554e-04
9.036303583225416269e-02
1.134030384905489047e-01
2.624698840263070890e-02
1.769687567644035592e-02
6.890359751141048039e-02
7.000345122113661722e-02
1.025226487600347375e-01
6.909379492042359849e-02
-1.083151156853274788e-01
-1.251883673137636939e-02
9.850483482474306496e-02
-3.986756792089203583e-02
-2.240470433295402575e-01
9.430553933920554632e-02
-2.010623596876251126e-02
1.031972711023075757e-02
-2.089284895630954013e-04
-4.076076028433391063e-02
3.617951776205482334e-02
-1.559192921988683811e-01
-1.400654744637556959e-01
8.301190188681113746e-02
3.137187107825593207e-02
1.005707891743419374e-01
-6.371477037869939519e-02
-2.427120355658016898e-02
2.311613968229941363e-01
-1.385581330796726261e-03
-2.216855559296750447e-02
2.724089323285027939e-02
-1.594638813937289956e-01
3.897700524639206854e-02
-4.148036850222448671e-04
-3.429000065132812441e-02
5.494372692751473344e-03
2.742761157703600683e-02
-8.260879022548606176e-02
7.414720387654606670e-02
4.385885188715510363e-02
3.049054413191822598e-03
5.888742807025815207e-02
6.855418224700039753e-02
8.294836020872789484e-02
-4.576561358172207689e-02
-1.811118529799274346e-02
4.460780866690963742e-02
-4.259777931801311812e-02
4.246694391056727441e-02
7.300851402806904367e-02
-1.840483033316681061e-01
1.351352788504895097e-01
-6.252639404524040767e-02
-8.750429402430471432e-03
-2.689025463390369575e-02
-1.170629878240885963e-01
-5.938297836127388873e-02
-1.681544781060514276e-02
-5.296447953224302230e-02
2.113174679469355735e-02
-3.610711450630048336e-02
2.108992498697489018e-02
-4.391202994011760008e-02
1.060633473419786699e-01
-2.131189183923761638e-02
9.595363139132187524e-02
-2.370614538568886764e-02
-2.512085582660716909e-01
-2.897076296349269248e-02
3.862366267561708616e-02
-7.746845897005284753e-02
1.194419025025562076e-01
-2.890652004604213777e-03
-2.968005781926152942e-01
2.348732320145911073e-02
3.469032566131829282e-02
4.768788124995030492e-02
-6.027262708823446363e-02
-3.958056878409546564e-02
3.587127290930180318e-02
1.086245120271377845e-02
7.986944787822608527e-02
6.983085777054710841e-02
9.703036154913356748e-02
2.055769200663557297e-02
-4.262431849157821695e-02
1.067768563750317277e-02
-5.323692235089981517e-02
-8.827611221688746318e-03
1.425247339034118287e-02
1.452378256261691036e-01
2.246495959873330214e-02
3.374531947400909952e-03
1.010165676152324915e-01
-5.535242690855694814e-03
-7.653129553894048864e-02
4.899036020050121648e-02
5.125228244526776333e-02
-4.396415064328515476e-02
1.576852889986516126e-01
4.011455999484812851e-02
2.369101431645534613e-03
-1.854799959025907885e-01
-2.987699119483334942e-02
6.962500881966333932e-02
3.271708463542124523e-01
1.787518873167305011e-01
5.892405802841104573e-02
2.511873613919528986e-02
-3.567089620743582601e-02
-3.865789747465950277e-02
1.642519595982545183e-02
-4.916790334265448703e-02
4.304210765245298359e-02
-4.099213295296982862e-02
9.545239162723269388e-03
-9.844683435798645688e-02
5.291729580804241384e-02
-2.271546030896852766e-02
-9.365676871326514275e-02
-1.186067976757597675e-01
-1.399639316900466446e-01
-1.656137636515783162e-01
-2.373958676204095466e-02
1.927267004752802881e-01
-2.790077389398135880e-03
-3.489402749250559987e-02
-1.484146616889074621e-01
-4.540338195284455147e-01
1.495683420236258165e-01
1.076166212955672989e-03
-1.580649823950557248e-03
-5.237818148391579220e-02
4.053832060300475992e-02
-3.230769466472794421e-02
-1.405490205768075429e-01
4.485922672946142213e-03
-1.362307668671646210e-01
-1.763826740534843104e-02
1.524511470285865727e-02
-5.219209289993349821e-02
9.188079917894693971e-02
1.047544500073542897e-02
5.314026932361488875e-02
1.130421008908610164e-01
4.065486252528478089e-02
-1.538637518750374765e-02
-5.887479270230626394e-02
-5.661340134824155261e-03
-3.246138510619543671e-02
-3.767964643812523606e-01
-1.673695402333583715e-01
1.589074308800740576e-01
3.042359769087470828e-02
6.445572120716286380e-02
-6.490643634157682029e-02
1.819323727812642288e-01
5.288638728473814971e-02
-3.364507581404963671e-02
1.197831677764365915e-01
-5.933220999735690226e-02
1.614304959481909982e-02
-1.776513000388820762e-01
4.178915449913642860e-02
-2.602386911409985681e-01
1.503357364982300937e-01
6.762695542913365297e-03
-5.919233411972082970e-02
1.514127290729254394e-02
4.288254201253486886e-01
2.326330103660715631e-01
2.053262865744550081e-01
-1.485970714058058306e-01
2.014715420866774465e-01
3.442564874181243406e-02
4.138177648725704233e-02
3.949323130311004765e-02
2.592452676733573713e-01
5.010925278170216823e-02
8.444254311268521371e-03
-2.848968333497292962e-02
3.981264995715590692e-03
-8.039566584607243938e-02
6.660875750889455604e-01
-2.104739191568655299e-02
-1.403080504510066384e-01
-3.932558339342242387e-02
-8.834121614812180667e-02
6.822110978503459489e-02
7.072442141467387422e-02
-6.173155414717643175e-02
-3.805487655573770028e-02
3.981356650480964016e-02
3.248252859011495266e-03
2.332155582325047202e-02
-8.023985860127130082e-03
5.390854786000826016e-02
-8.619830583843844998e-03
-4.175213210737475089e-01
-5.537593617160038034e-02
4.294643615592893399e-03
-1.997480796531487385e-02
-1.104947394012497780e-01
-1.124104602874677339e-01
8.679241951878341466e-02
5.278879656922071117e-02
5.387163137002910773e-02
7.082797198041233810e-02
3.364633291430570855e-02
2.850478611962116715e-01
-1.168487153626699554e-01
1.430367795877429404e-01
1.833001685976285659e-03
-1.874502936116893750e-03
1.146507707474943710e-01
4.444145474766139636e-01
3.813189830118106360e-02
3.056833740823050247e-02
1.192575642128446273e-01
-7.799168814796020310e-02
-8.193701712067351373e-02
7.365314969122190025e-02
6.462590606764733771e-03
2.583273019014768745e-02
-4.047960460213610029e-02
2.508725736680332899e-02
-8.104596851397706525e-02
7.990241918784615760e-02
1.786281961431133991e-01
1.756278393046971364e-02
5.609763349337727051e-02
-1.659300432543429349e-01
1.277937862870704988e-01
-5.643862548006398777e-02
-1.957816311258552162e-03
-1.970939638527527025e-04
5.475355179806287026e-02
9.052600958959605704e-02
-9.725042042514768503e-02
-3.685859106086120454e-03
1.536505530189022015e-02
4.903451373772585442e-02
-8.203190559752104871e-02
7.794995316562260135e-02
-6.608726598308278799e-02
5.615926370321069200e-02
8.695405045447869574e-02
3.720397157539833133e-01
4.322310160932356371e-02
1.360110276203486679e-01
-6.966032244227420012e-02
1.206158232032471245e-01
-1.647710017173831254e-02
-5.183081291445308658e-02
-1.420024541747828828e-01
1.420760561193874782e-01
5.584654191483953700e-02
-5.637643136240993655e-03
-2.611666159756070513e-02
-6.407925641746296808e-02
2.632371553802885923e-04
-3.911178320469757552e-02
-1.014475403943881082e-01
-1.244655472013262432e-01
1.269979376504680370e-03
4.087554790627782875e-02
1.507637112830522153e-01
-7.860757773540713589e-02
3.244591484920190255e-02
4.608609951178684744e-02
-1.198481438499064827e-01
-2.758885466949470913e-02
4.979168263025987029e-01
1.396498126031386622e-01
3.232035218878439448e-02
-7.617262778377807686e-02
6.548279539039844610e-02
-1.774756912813233167e-01
-1.815295686187084340e-02
-9.607039224742364159e-02
-8.188120718063092440e-02
-1.851412377058369862e-01
-9.960847430652272627e-02
-3.427147849590645584e-02
-3.634588564575286923e-02
1.038632118616945321e-01
-1.427013248083216362e-02
-8.063818047054069349e-02
6.039153664902083274e-02
-3.083371539221013702e-02
1.330139092398230638e-01
7.102536003913460794e-02
-7.883017779594191088e-02
-3.489951501084368260e-03
1.991013486178903197e-02
2.302401478229765819e-01
-4.668218819971627943e-03
-2.684992266594112692e-02
7.621166890676174532e-02
-2.068457579051402942e-02
6.801427318144702416e-02
2.230336776018674097e-02
3.092135523316217882e-01
2.302835919718547175e-01
2.189037578743075960e-02
-6.378185851201721712e-02
9.087105029354339281e-02
1.135622696710171381e-01
5.537808769296367895e-02
-5.129154569096742305e-04
3.849167018864410594e-02
8.296240534901089259e-02
4.981267017064472391e-02
-8.661322713873513546e-02
-4.064673508981991312e-01
-3.383782484313455768e-02
3.795642025436240380e-02
-1.519069380746883302e-01
2.610265853193719995e-02
-6.204712063818727114e-02
1.605276071496065382e-01
1.112595445307199421e-01
-3.078810521493526020e-02
8.665768416831427789e-03
-2.483684896041613577e-01
-1.121102594483601167e-01
-8.745561163204133848e-02
3.168925056923198313e-02
-1.495391485413462111e-02
-4.430942770721379986e-02
5.716681772590199995e-02
9.030046769725263989e-02
-9.930504967408179326e-03
1.371997439790827444e-01
5.075321024830754119e-02
1.373038681194852784e-01
-1.352539275173679154e-02
7.261877371812072712e-02
1.306882332571977778e-01
6.372799880635833525e-02
1.127122234676003754e-01
-3.641886726256097218e-01
1.187324487354524810e-02
-4.218604500630845910e-02
1.165536241467614725e-01
-8.915625158334418432e-02
5.080625002112913041e-02
2.889705293585346363e-02
-5.772885626209275922e-02
-7.867660834847613194e-02
-7.608756131359735442e-02
4.358687919558918572e-02
1.832283391032687656e-02
-4.378214389950574326e-02
1.390332333560527489e-01
-9.238514022370499304e-03
6.671414531540843795e-02
4.357769875865270121e-03
5.710779761606768479e-02
2.505239865068865091e-01
2.863649737694874166e-03
2.472540900751365664e-02
-1.557590624950981328e-01
5.084716604721464285e-03
-9.509505276386547024e-03
-1.544785454672322478e-01
4.862806781412456342e-02
-3.773720711669475286e-02
5.738367584297020783e-03
-7.467607192413153183e-02
-5.548478128752881017e-02
-1.989407875438188936e-02
-5.162671496219398831e-02
8.322061763891360278e-03
3.298101970162773539e-02
9.866153207552298687e-02
4.603331108853313258e-02
-3.413931851109727744e-01
1.949821057460587523e-02
-2.993973070312792029e-01
-5.942994983061224146e-02
7.637524238752370354e-02
5.957935766811870218e-03
1.050956036367134694e-01
1.383943368711594846e-01
9.047082357523614574e-03
-2.259620739082670582e-01
-8.544590581427044876e-03
-3.813034940219817842e-02
1.157387749009128192e-01
1.789190036167487285e-02
-1.085304771260138662e-01
-1.602242480549145309e-01
-1.159060377671809333e-01
1.708967972804915220e-02
1.509487712546640492e-01
4.361736955072272048e-02
9.757657548939662265e-03
1.392047870075706177e-02
-1.101541044607564079e-01
-1.238844567605091110e-02
3.007615013045221788e-02
-2.722233893373532040e-02
4.367836087221971253e-02
7.075624190250828782e-02
-2.184490852328054011e-02
1.036787855559280058e-03
-8.188006211136933388e-02
-2.550390217217626473e-02
1.404914378268933527e-02
-1.595568607820967433e-01
2.730770669171665374e-02
-3.938845514060019398e-02
1.318635557579756479e-01
3.166206281464762906e-01
1.204409177459857955e-02
-1.277213945153898023e-01
-4.832424236605180334e-02
6.470215299827362931e-02
7.269033774078997867e-02
-5.778147638632438049e-02
-1.186323072804085360e-01
-1.849428366393536874e-02
-1.225886265953238657e-01
-6.322894208825308171e-02
8.497851976844818245e-02
9.402543984111688680e-02
4.173220893282419269e-02
7.051954004506268137e-02
1.979787694629742481e-02
1.138831806530437061e-04
1.252696151898958499e-01
1.872930396168271672e-01
6.638561652078986408e-02
-1.456295715233040799e-01
2.506934801856583808e-02
-1.381529684968782201e-01
-1.086683199142247230e-01
-3.557832237030826572e-02
1.175924786147606593e-01
-5.520964985084599735e-02
7.845579518434452060e-02
3.055825760189109438e-02
4.309475550446230374e-02
-2.684945031915000196e-02
-1.015205276307886845e-01
-6.426454495765547559e-02
-3.051545033306332089e-01
6.750221426427459315e-02
5.049876024974837146e-02
-5.539442795294114569e-02
-2.821735281154601552e-02
-5.785819746874541064e-02
-2.788013392542493946e-03
3.546633036185375260e-02
-3.331275098534801637e-01
2.106476102280394058e-02
-5.982108308416170944e-02
3.440260429309600909e-02
6.837665521717213590e-02
3.300521380577467467e-02
-2.871908937682903784e-01
-9.602937292120733437e-02
1.686218012373453395e-02
-6.106664870803961420e-02
-3.646979834481736682e-02
-4.686384051564904119e-02
-8.532622222167890111e-03
8.040112567678471545e-02
4.734892559863265044e-02
-3.132139052800826662e-02
6.406315911519553513e-03
-7.926291823511625884e-04
1.203659911555705342e-01
-2.597507872298909087e-03
-8.236480885428469276e-03
-6.762725986375160182e-03
4.830819073409488296e-02
1.839149741000782323e-01
2.950375005630740104e-03
-7.363432794997314124e-02
6.605914630440731794e-02
1.762408123547735614e-02
8.136590453736590456e-02
-4.074854241436636632e-02
-1.390821359598070350e-01
-2.432138318004463395e-02
1.431181670619969051e-02
-1.509854588915960361e-01
-9.933744336309149880e-02
1.664418018486869474e-02
-2.102337642172169216e-02
-1.859756162785431918e-02
-1.313490289335164651e-01
-9.109822927842897711e-02
3.690465474753460567e-02
-5.523577061675511487e-04
7.783869239634920445e-02
-4.591458702941782904e-02
-2.125492048272119988e-02
-1.912962544212182814e-01
9.546273251503667456e-02
-1.077885673839405582e-02
1.392425175675738036e-01
1.155117137408539357e-01
5.544068761396497846e-02
-7.148904397206942707e-02
-1.184723347831918711e-01
-6.664236312768710702e-02
3.408673075904585653e-02
-3.371058595648306067e-02
1.845991691901278584e-02
7.636573577766922472e-02
-2.367871561057110011e-02
-8.276132379019562890e-02
3.951057552957597946e-02
-2.017175580952022818e-01
1.016068645571538143e-01
2.676459142899244650e-02
4.697480481887277848e-01
2.183348180025871110e-01
2.241576045442736920e-01
-5.206615056553531851e-02
5.823483192341437353e-02
4.322130230297541176e-02
-8.193315645950447271e-03
2.592715659118159655e-02
2.519396499438360595e-02
-4.544067616569697626e-02
1.231008703939857028e-02
4.493423075537118783e-02
-9.522048710916712622e-02
2.579584408508607887e-02
1.874599188814315281e-02
-2.503633949209766590e-02
1.215583474442460399e-01
-2.080077669450996480e-01
-3.724297569017092496e-02
-9.453225186930518109e-02
-2.634043108492321594e-01
7.902058810757513208e-02
3.296068943234105059e-03
-5.185899001900745597e-01
-3.447176574436855434e-01
-1.276132089927763807e-02
1.123567023830090300e-02
3.423781394402710537e-02
1.282075398190822002e-01
-1.125485673437392614e-01
-1.105203406792841514e-01
2.125565291448982402e-03
-1.251228787088460304e-01
9.832093327459759391e-02
-7.151816180753609031e-02
-2.584931580974959009e-01
-1.680760064687514543e-01
7.229573311737363950e-02
-3.054312505051807319e-02
-3.822663419869339746e-02
1.329990718606571289e-02
1.260877302537758912e-02
-1.137470500875028268e-01
-8.173704236180141802e-02
-9.543276937121085435e-02
-3.593627253151841089e-02
-1.215164964634294908e-01
-5.503338191456814792e-03
7.996386707056156451e-02
-2.231699920481712909e-02
8.288639151392622473e-02
3.428683722745316798e-02
-7.197404661577914975e-02
-6.449054737359134759e-02
-3.328208661290955189e-02
-4.627477638661201681e-02
1.113576957566045911e-01
-2.070006385584506701e-03
-9.196122857099371661e-03
-7.650937671952882935e-02
2.034430755184413464e-01
-1.689486600019625764e-02
1.409838405791704989e-02
-5.750446591782974737e-02
3.154372827965851167e-02
2.057060612442298264e-01
6.686156957195407702e-02
5.928207283695839658e-02
2.051565190960032061e-03
-2.522818830384370159e-01
6.227598584478489900e-03
8.686347797184823527e-02
2.660577645406108083e-01
5.211677682393528466e-02
5.684226069284587651e-02
-2.095542922956381282e-01
-2.135485681563504060e-02
-6.001628104030812955e-02
2.946777637986408224e-02
1.310467006586436278e-01
1.435594608833542785e-01
-4.280362403928351066e-03
-8.453695658380841471e-02
9.496244341735675387e-02
1.424899208410601026e-01
5.568234023160017337e-02
-1.645249372967454438e-01
1.888380281731778451e-02
-1.639652755134850259e-02
-1.105132756971237695e-01
-6.168230590984967454e-02
6.868186163474206130e-02
9.026208506836637391e-02
-3.881510984342084747e-02
-4.820489768131409197e-02
4.383585638879276825e-02
1.153496804223738161e-02
1.273225486952653529e-01
-3.618214610494064343e-01
1.146115553396752640e-01
3.760756110226692178e-02
-1.030444099613655601e-01
1.149160329842045802e-02
-6.414517667980939447e-03
8.120553107960001848e-02
4.999604676866244851e-02
2.117050723329273396e-02
-6.164422499079331812e-03
8.017312768658005351e-02
8.939578166145982496e-03
-1.052292374502274280e-01
5.524354711202231899e-02
-6.737250335737147988e-02
-7.637849623959480812e-03
-1.551061486828330394e-01
-3.538155951291572371e-02
-1.189141208750983669e-01
-3.763097281325095689e-01
1.039138997035817941e-01
7.557584385150691031e-02
-2.309658669998197744e-02
-2.111162127294602051e-02
1.169736079074827975e-02
1.450719403480036675e-02
-4.344946755982398434e-02
-8.230005162510709016e-02
8.406612665374368909e-02
-1.535346349727036847e-02
-6.530929663868227653e-02
1.796853102835862734e-02
-6.208630943717137474e-02
-3.490519521265749714e-01
2.597388403037612092e-02
1.083299935150513621e-01
-8.448391345577735412e-02
3.175924180954857109e-03
1.647191069818742248e-01
-9.358298579579538146e-02
-5.225252633258083840e-02
-1.005049869401479223e-01
9.889168359056400848e-02
1.311276735375046798e-01
-1.184496477144889315e-01
-5.549625403688813324e-02
-6.504366722544595476e-03
-1.226844197952293991e-01
-5.093134301070990216e-02
-1.205859209734456705e-01
9.873996528519557447e-02
3.473147377216080633e-02
-4.968246279542650606e-02
6.476641341281480502e-02
4.203437553852189777e-03
5.922787574043817532e-02
-8.322132831084223803e-02
-2.751229896752167836e-02
1.532951779164733012e-02
-2.076860258365241796e-01
6.725316206254317031e-02
2.434369607501476740e-01
-1.577019177242764691e-01
1.991848948388603296e-02
-6.624363017529065478e-02
4.095537181297283225e-02
-8.625552344250302095e-02
2.944480013858592760e-02
1.395665876920974130e-02
3.279951427564123390e-02
-9.302493252335747309e-02
4.390987266280689527e-02
-8.493315301661714944e-02
1.016529822406024852e-01
6.589661275016601982e-02
2.515826812192580378e-02
1.015922458431144093e-01
-1.847418349964617332e-02
1.794276504125571492e-01
8.463732287210708194e-02
2.601461097177937970e-02
-3.765886368566508796e-02
8.329068044218676525e-02
-2.107535330152564557e-01
-4.304069883389174261e-02
-2.343516911063646749e-02
-5.647325795124618492e-02
9.919265807133836876e-02
4.693626343324390493e-02
-1.506339116978652054e-02
-3.865369663259987654e-02
1.424228794498003971e-02
-1.709558976614203307e-01
-8.859787925872206205e-02
4.183931654353503088e-02
-3.825205329645147562e-02
8.831406203167546654e-02
-4.720131408494018799e-02
-5.615083098051444621e-02
1.044611200210191909e-01
-4.925170568553354639e-02
-1.194118294775403481e-02
-6.729242274372138066e-02
-2.280847829981532890e-02
6.131512942713551045e-02
4.675547848646715438e-02
-1.804283710888812953e-01
2.157968145799756682e-02
1.187614373767358067e-01
-9.804670335942480830e-02
-1.745774315394553466e-02
-2.158800566441485685e-02
3.348452917858344563e-02
-9.011566243412896804e-02
-6.594103377905036201e-02
6.181565631783780823e-02
7.368214712122397869e-02
1.907819678112485373e-01
1.858966102601674209e-03
-2.803417887542629730e-02
8.717339514404176537e-02
-2.296750967177780406e-02
8.422202884399841716e-02
-4.027883674775067369e-01
4.595185747800290682e-02
-8.668361795241427692e-03
5.488335753872988082e-02
-1.945710404614863220e-01
-5.092282168941122261e-02
-1.738432085395730589e-02
6.082166823009674261e-03
-2.503159630218805554e-02
2.758618367983802985e-02
2.889961755692067036e-01
3.022094927593395666e-02
-3.719007954912132430e-01
-4.241286729432433567e-02
2.565534120935644147e-01
1.416358824211366163e-01
2.639393475877412770e-02
3.189533356485194093e-02
8.465971474249853190e-02
1.530665571736536945e-01
6.960305402187120377e-03
1.110970788105521273e-01
-1.126046372417979918e-01
-1.112390347222631526e-01
-1.850276234621044125e-02
8.588254530620029192e-02
1.381203008738821902e-01
2.083582043172017839e-02
-4.651016282660690865e-02
4.755663561208516021e-02
-1.001019498239081804e-02
6.623217159655306330e-02
1.664800337124227106e-02
2.105213738670467724e-02
-4.847424434295923845e-01
1.011419534220481808e-01
-3.870002103801332277e-02
1.044763706920995849e-01
-5.892731291341128663e-02
8.716122366347091310e-02
1.280062750520928050e-01
1.592432924352857049e-01
-1.436592354856590092e-01
1.120282483038414351e-01
-1.219860973505815932e-01
3.173724103391447060e-01
3.662317564545712612e-02
1.343298437287377897e-02
3.642473397067890091e-04
1.261427921161360488e-01
-2.636085559700452816e-02
-7.398128620162940094e-02
-1.318140349619504603e-01
2.562434535204429209e-01
5.409343996931689075e-02
4.805823177145900765e-02
1.694835237644086272e-03
5.131778790346653435e-02
3.441736497810485296e-02
9.570456154182508746e-04
-1.027485377215864026e-01
7.900351117258985756e-02
8.521277912409150335e-02
-2.558054644674751521e-01
3.299066274677028149e-02
4.050789410901916437e-02
1.816421751312435884e-01
1.050304055397381919e-01
5.777785939933959350e-03
-1.605697216222993495e-01
-7.007524037061155231e-02
1.476664145664558780e-01
5.024881909544064336e-03
3.884696400042301351e-02
2.657298731646855552e-02
-2.033644133396344533e-01
8.616795219332695766e-02
-3.625027322990590495e-01
1.969537622314250502e-01
1.416332506420900708e-02
-2.406610465729157600e-01
6.871297332604263397e-02
1.874643406259320771e-02
-1.055626710060465767e-01
-1.247363182327911185e-01
-9.531281334996220822e-02
3.974880236253791610e-02
3.446834694522489528e-02
-8.684519454525418958e-02
-5.826254733845134814e-02
1.200446535714876639e-01
5.377906534684510909e-02
-5.170317141084711937e-02
-3.391524801592599083e-03
3.386358771121929234e-02
4.959510096978151511e-02
7.162064230691858602e-02
2.429643829501687211e-02
5.191716632825538885e-02
-3.264036469721233458e-02
-1.301578379975456279e-01
4.256752376457519083e-02
-5.535429765884791048e-02
5.639315733143566295e-02
-8.058800200511621881e-02
-2.026609767211691171e-01
-8.449759514963086637e-01
-4.588558475975054902e-03
4.802014895469191441e-02
-1.732807725834068224e-01
-7.055816402900771944e-02
3.652588173246175407e-02
2.276445005737497140e-02
-3.638200025381999048e-02
-6.928865902050514169e-02
-1.092353536632323764e-03
1.390509484784146869e-02
1.616669910106237340e-02
-2.518865198884109868e-02
4.766385360859002988e-03
1.275401200600666078e-02
4.105225930994294697e-02
2.070803136416201479e-02
-1.238726265921152696e-02
-7.425683406540603548e-02
-1.236413264628303671e-01
6.070662155562855933e-02
1.461786143123845472e-01
-3.022382578545878412e-02
-3.419316017313095424e-02
1.015852276123422326e-01
1.830003998621295147e-01
-4.645518226359864888e-01
-9.069739058620175376e-01
1.589159669364207383e-01
-1.527073013987004790e-01
-1.693512576553555249e-01
-1.173676264196803903e-01
2.412121150739339123e-02
-1.893257777982569057e-01
-1.156954102084818276e-01
7.097309521867463389e-02
-1.275008304502287838e-02
5.061374502128794528e-02
-7.463401014598961512e-03
-4.217430550698183372e-02
