-8.401334452047662382e-02
8.943141097444375076e-02
-7.252310469314952879e-02
-1.241120868560849633e-01
4.603296431478298700e-02
1.078945467440284023e-01
-9.008338021283868180e-02
1.294075070375748371e-01
-8.581004407108243359e-02
-7.523722448845018840e-02
3.254941344306698406e-04
-1.015220808155962995e-01
-1.236082451077358257e-02
5.581469754980213083e-02
8.910698349406071667e-03
6.615384205454179212e-02
1.042703171199505091e-01
6.905187406867263622e-02
8.585660776304984698e-02
-5.190300907742462916e-03
-2.582959865947020289e-02
-9.373024022416712175e-02
1.118677851870819931e-02
3.523442744687180217e-01
-1.223348541456318987e-02
3.665724127768583279e-02
-7.924437567242692548e-02
-4.412982913521826950e-03
6.991124952541999393e-02
4.214652057002074570e-02
-3.908974625805205494e-01
3.684755953244036458e-02
-6.134678496737327319e-02
6.285826366677277344e-02
-1.689087026991553109e-01
-1.085373481751182451e-01
-1.175912933678860961e-01
2.489559338179335168e-01
4.524946856492308850e-02
-1.053554194345090178e-01
8.947490516359295210e-02
-2.829179626765308299e-03
-2.205238185715153315e-02
-3.602687929297340025e-02
-4.164308903062362982e-02
-2.434277966200571949e-02
2.177337028336453484e-01
-3.431845096607089030e-02
-3.073202753262592180e-01
1.530032042132809522e-01
-1.237525889490206227e-01
-2.450873755089454445e-02
-3.181653962456394702e-02
-2.055597402794151832e-02
-3.355435055511178932e-01
-5.888506408062113007e-01
-2.733327384571334825e-02
5.470764849540889208e-02
2.113031437138041535e-01
-4.719487698491333511e-02
4.299005002421647792e-02
-3.686548930929771095e-01
-3.338038815623197708e-01
3.501293194398667069e-02
-2.224067392733521456e-02
-2.054713000721318517e-01
-4.156565896998155873e-02
-1.439835236747980529e-01
7.920809446263464559e-02
-2.324773044002536801e-02
2.664272295770372390e-01
4.651769893087187580e-02
-4.434330923231737803e-02
2.759569390914259901e-02
3.054795300158924531e-01
-1.410264415529869919e-01
-2.136504376279140666e-02
-1.028302427991904383e-01
2.054398154660632414e-01
-9.631540234147722979e-02
-4.386603626457694083e-02
-3.075157195950086256e-02
-5.020429333493232026e-03
-5.961657685616649632e-02
5.193685491443997965e-02
-6.866120427968470941e-02
-5.685998801637660582e-01
-2.063022811257388678e-01
-5.730385761758195057e-02
-1.274109786831771340e-01
3.814376423207719441e-02
3.419352422658938906e-01
5.219084908641687115e-02
-1.971967013324735229e-02
5.374486117568114119e-02
7.840530257152203419e-02
9.966211174521280580e-02
5.169993262824816582e-02
1.153586274216125140e-01
1.170499721389788306e-01
-1.822250522084579438e-01
5.829249634917758188e-02
1.071690552523041351e-01
-8.837476622493738165e-02
3.984025695315084048e-02
-1.341013351847382407e-01
3.159303238785255569e-02
1.849573322671448916e-01
-3.200540898387535527e-02
-8.181462108370635145e-02
-7.376759730833566675e-02
9.479955049682158019e-02
-9.006766265109190928e-03
-9.333392913045204797e-03
-1.906337792007236145e-02
1.228765309969404550e-02
9.713015464891200379e-02
1.454181661707353579e-01
2.026563994188593232e-02
4.813559371506113960e-02
7.574788205195399915e-02
8.937681737412446481e-02
7.648641993075146195e-02
5.981342834247711099e-02
-1.265082372964211055e-01
5.590269649241548684e-03
1.096066029382867235e-01
-2.802090370165960173e-02
-2.575103160200756802e-01
8.154087177347681126e-02
2.265611224239519859e-04
8.007208665420218960e-03
-1.083056009217302218e-02
-4.486065431444021673e-02
8.501494214438663766e-02
-2.081416935823402758e-01
-1.583889332659721982e-01
6.900633202582723280e-02
1.471158261750797266e-02
1.106216858628144145e-01
-7.368354985835430526e-02
-3.627340773181979283e-02
2.345300286269096368e-01
2.304050183746608749e-02
6.068468417646393637e-03
1.791818572252727032e-02
-1.512398750709265105e-01
5.010678115696432650e-02
-1.348462610119588890e-03
-4.171810411130076612e-02
1.021411522315239691e-02
-1.002160819959688753e-01
5.466057747543161954e-02
1.194325872877310089e-02
-1.884692666803593339e-03
3.921366135474940728e-02
7.356245113096826493e-02
1.169947020738123927e-01
-5.646802180123778464e-02
-3.685789190248683206e-02
8.334032440345010007e-02
-5.516440608197480111e-02
6.729348664288838100e-02
8.013598513293050674e-02
-1.341571783944736918e-01
1.370518390458456415e-01
-6.470858116396986659e-02
-4.084967242584299982e-03
-4.361005609849325643e-02
-1.231384182341972583e-01
-8.031146215116526099e-02
-5.292231279303958105e-03
-4.398238512556825602e-02
1.038083515288730843e-02
-6.992493723861437083e-02
1.666418020161554436e-02
-6.596699212513172650e-02
1.411237004850077192e-01
-3.386808469246402331e-02
1.031200386469254132e-01
-1.535990798923914102e-02
-2.377022321118530124e-01
-1.687774003519195223e-02
3.320107079006297257e-02
-7.826039112191197911e-02
1.177255730579753190e-01
-1.369484002493877479e-02
-2.940589705185172598e-01
3.540693651840001038e-02
4.429044105349476575e-03
-5.758862766094116625e-02
-2.872343168978664166e-02
3.231435126057492085e-02
2.492798416455229565e-02
5.676554957541603275e-02
8.343747208096065349e-02
1.040689232513851425e-01
4.651879438608989142e-02
-4.630664475305542455e-02
-7.838300680367948914e-03
-5.261548018996285714e-02
-1.156613236440975391e-02
2.026671532230915271e-02
1.286745565126732049e-01
1.777572400992555313e-02
1.115042782159144687e-02
8.466408233703627551e-02
-7.857615610113510146e-03
-8.249427608351653229e-02
4.573913280039924867e-02
4.281275903854229320e-02
-3.874506427225357652e-02
1.515881359742140000e-01
6.364841671982127136e-02
-1.857196279470853528e-01
-1.458866577582213463e-02
6.530769353283150114e-02
2.939820989648819771e-01
1.986574021673232771e-01
9.793483595508237216e-02
8.514334049698112084e-03
-4.470116262567961490e-02
-3.588487425326070124e-02
1.689811418250261599e-02
-8.047215311024401296e-02
2.841494772742049826e-02
-5.248154599364805023e-02
3.758429870786073740e-02
-1.366426119562547670e-01
7.970262247281530155e-02
3.158601366318260217e-02
-7.174093372698260584e-02
1.690610938081366088e-02
-7.657820372789973795e-02
-7.846059121566166528e-02
-9.625425101694784491e-02
-1.012263349039564386e-01
-1.100546256243517887e-02
1.373512551523829450e-01
-1.838026711448310230e-02
-1.485651339760089146e-02
-9.786028201826212081e-02
-4.853948510363449986e-01
1.872824679126338376e-01
-1.292027691839485112e-02
-8.732663211069344178e-03
-9.802613058023620929e-02
-5.458023364839960367e-02
2.858533602925978842e-02
-2.379697705946644259e-02
-1.042901617405424947e-01
-1.264978584436473978e-02
-9.368164907059675639e-02
-3.040538098441728301e-02
3.610649620332421345e-02
-3.175715532655940671e-02
7.249382578378468778e-02
1.347667364429702523e-02
1.108523996893888558e-01
3.300648415224429616e-02
-3.689370288783953150e-02
-7.357792691720592415e-02
-1.484320668408166746e-02
-2.510050633115926827e-02
-4.509799897528209978e-01
-1.791346804751625665e-01
1.366998581738910201e-01
1.682760450316462403e-02
8.950635974499507319e-02
-8.218071465181311930e-02
2.062166231744650691e-01
1.018396165833945072e-01
-5.449281779598709463e-02
1.549434652290307968e-01
-4.205201078037105328e-02
1.230972903765901842e-02
-1.855008509131888250e-01
2.319788201483216974e-02
-3.118942068035664983e-01
1.150260602940003790e-01
3.349046903012720122e-02
-8.514413788248785531e-02
3.208386069220185016e-02
3.372615836970996317e-01
2.590351674891914202e-01
1.998044605951697084e-01
-1.542889199541466472e-01
1.503054811903488386e-01
5.943484150297451835e-02
4.822413150154328948e-02
8.342511732867152752e-03
2.463863763280068342e-01
3.685966559317342683e-02
4.015689576240127900e-03
-1.840413741785710405e-02
5.626105701551660683e-03
-8.497894121535674861e-02
5.903997955930151420e-01
-2.114592407592713608e-01
-2.119577252920238838e-02
-1.410899670790933258e-01
-1.113846761981989245e-02
-8.003607835731710307e-02
7.159837892982046093e-02
3.492381128973222337e-02
-5.357457491355883256e-02
-2.885422323829821625e-02
5.103363528621151363e-02
1.811550942888321553e-02
9.086152288147693323e-03
5.414936838691889126e-04
9.069080631501572065e-02
4.588014076187993395e-02
1.509349213576831501e-02
-4.588815473310052795e-01
-7.023887851727890486e-02
-7.982516276973565875e-03
-2.850910008761315187e-02
-1.247294354090032337e-01
-1.030592018068559323e-01
7.033961971014432435e-02
7.512538035838561834e-02
7.297742436136808730e-02
3.852148859972732986e-02
1.936786210782642445e-02
3.067875009571853218e-01
-9.885634764258592611e-02
1.698650176049469607e-01
-1.457685135327856096e-02
-3.804212628409892223e-03
7.531442015993840278e-02
4.247325926571922650e-01
5.142157993729500054e-02
2.204738199549699865e-02
8.309403588034798560e-02
-7.357535125055621184e-02
-5.419004274809804955e-02
1.185472992551257591e-02
2.572039423046631329e-02
-7.239697018543976570e-02
-6.423089248100508075e-02
2.177529057706654655e-02
-6.614154623016274548e-02
6.470361196142462856e-02
5.592862858387478292e-02
1.786498760666389019e-01
5.274225134768532885e-02
6.130484832879430634e-02
-1.871816939988704964e-01
2.061327122420978930e-01
-2.448577844724236785e-02
-2.195721644627701002e-02
-1.862956696455297326e-04
7.284995575376615462e-02
6.360415095412803865e-02
-1.325683542801861792e-01
1.448580938731432307e-03
1.369128296519898404e-02
4.910597114272764047e-03
-1.328038105242076439e-01
9.280803564348640011e-02
-6.419472079867447056e-02
8.238913731969402243e-02
5.070806157686577609e-02
3.461507710829099249e-01
3.856508945327141724e-02
1.544353982815101778e-01
-6.670674893434183628e-02
1.135597328340937073e-01
-5.820008024972106453e-02
-1.467948625146945352e-01
1.362866196920380635e-01
7.583103563022619564e-02
-1.216035661499492368e-02
-4.952290235657676176e-02
1.747290486550567498e-02
-9.777449720018419055e-02
-3.960366042142848993e-03
-4.076419408796507632e-02
3.550075770467379325e-04
-7.503288160664683959e-02
-1.297940168224417934e-02
-6.939507816529535966e-02
-1.677322451970530981e-02
6.106768405821894063e-02
1.127331792398960086e-01
-4.925350052851179550e-02
4.418408706307807438e-02
-1.701816694550219722e-01
-4.235170398892829785e-02
3.449538503866619865e-01
1.489019272232009750e-01
-9.745093252168028630e-02
5.639571214042553293e-02
-1.990531994243303349e-01
4.403854288697148667e-04
-1.168977470927043544e-01
-1.148245971730101206e-01
-1.686225429925545805e-01
-9.492214657640285491e-02
-3.473920381529681245e-02
-1.620717402458723630e-02
5.967862677042121838e-02
-3.248280729235546865e-02
-8.483331458429775596e-02
8.922644616089492331e-02
-3.541109855847785620e-02
1.613590489443120501e-01
-7.005472744904855942e-02
5.602264455432472146e-02
-7.883678774114535881e-02
-4.174197424133588991e-02
-1.682286778926927670e-02
1.934622757900367196e-01
7.724216321636799554e-03
6.865164112477638303e-03
6.165147051177201354e-02
8.820078784222662796e-03
8.596024682154641827e-02
4.078270437857328679e-02
3.012939304530775075e-01
2.920748685145891921e-01
1.785045551128676574e-04
-6.497939647697108245e-02
7.215460870965234585e-02
1.246720707892122471e-01
8.112467047046559299e-02
1.487919463429258037e-02
4.467957053510621807e-02
8.553855935265690380e-02
7.741762640803341589e-02
-5.966459239374902884e-02
-3.720010656949396810e-01
-2.565590036191406006e-02
4.116262557949122713e-02
-1.091148127130862483e-01
3.386206541351004500e-03
-6.112083752376169105e-02
1.600348603675585402e-01
1.093682208464409333e-01
-6.137748436990651119e-02
9.902257898805427033e-03
-2.138596768068298792e-01
-1.183474074394507969e-01
2.337288880817841447e-02
-7.209777463539029756e-03
-4.072765390349953468e-02
1.134445161226566579e-01
7.171497902354853626e-02
-9.463416449980145695e-03
1.496448326974670062e-01
8.279382764714114662e-02
1.399785141827813162e-01
-7.403211225329710439e-03
6.684532271159386585e-02
1.447704590944597636e-01
6.226534600122561602e-02
1.033179021882222187e-01
-3.264556349460026041e-01
5.674347354365552598e-02
-3.063061242361378098e-02
1.203818468415662757e-01
-1.162611164951279918e-01
-8.697748284632814131e-02
8.896435251003077804e-02
3.383714595817612081e-02
-8.891937025478831302e-02
-9.515890597131973494e-02
-8.663186450561227714e-02
6.900337789408156342e-02
2.634057282387001694e-02
-5.454550122422652941e-02
1.532260917905315378e-01
4.962637159591474362e-03
7.362917387609745068e-02
3.087123403923943115e-03
5.000737929161123280e-02
2.341898031097874588e-01
-1.675226224056980059e-02
3.106042115791947042e-02
-1.709302287473890569e-01
-1.301271673597695529e-02
3.897511156462938296e-03
-1.075481587677987738e-01
1.036893244247612256e-01
2.657235167765039860e-02
-2.205794006687651285e-02
-1.574105129590460880e-02
-7.294088224554884370e-02
-4.659613300103317146e-02
-2.225534802812328267e-02
-5.602698551630188456e-02
-6.597333184435695379e-03
5.039293014887345767e-02
7.390832977577525831e-02
5.145325204086594745e-02
-3.272252143745429942e-01
2.338717629944513446e-02
-3.585536251129943786e-01
-1.023011836644346223e-01
8.444807494080946997e-02
-6.423896571008147136e-03
9.662422107097325130e-02
9.017428175659632228e-02
3.583042479762039989e-02
-2.754366341070867974e-01
1.083707761504944418e-02
-4.699999107605796339e-02
1.428354422171586036e-01
2.215318764469364002e-02
-1.334722582898381915e-01
-1.257700234019061558e-01
-1.032413785079644569e-01
7.089667585901853093e-03
9.454462200340657541e-02
5.938128114287424125e-02
1.916669539660142280e-02
-1.279840235493414670e-02
-1.064006524634395351e-01
-1.833797450594714870e-02
3.494886154648262078e-02
-5.116954985057800553e-02
4.334515436839016939e-02
6.616622714818713724e-02
-4.434359233881701029e-02
-1.957647395941267479e-02
-2.039482953388124450e-02
-1.246342769558455160e-01
1.930380813701884635e-02
-4.233010775442090645e-02
8.428815252472832142e-02
2.438551925820892641e-01
-1.715480184031106456e-02
-1.388833855656539940e-01
7.939363414951616793e-02
6.421951477501697259e-02
-6.735367877727863051e-02
-1.295396380835251160e-01
-1.207070998782406625e-02
-1.392245238758171022e-01
-7.293476012458163793e-02
5.199815691053101541e-02
1.221816728657506845e-01
2.736292052703481054e-02
4.758660634125010114e-02
8.399159585403720082e-03
4.635673973804813053e-02
1.250913747929593423e-01
2.203308094865216171e-01
6.450276577803078226e-02
-1.796348996976434853e-01
2.008037436836636325e-02
-1.114604163441497015e-01
-1.007154522998999491e-01
-6.786879144240798301e-02
9.183752706387807163e-02
-9.663806357206795872e-02
1.009448486324322769e-01
5.099830845088831194e-02
1.034766446132789376e-02
-4.274527921363741045e-02
-6.118854003756078047e-02
-8.231352563193350402e-02
-3.214521446390872783e-01
7.498364990323276580e-02
2.113401331617325435e-02
-6.823013704320594897e-02
-6.578814205395897008e-02
1.311936093132497205e-02
6.842601162045629237e-02
-2.626070190389126480e-01
-2.456084044762882508e-03
-5.121086125218544255e-02
5.089033362904444441e-02
8.358502366123925220e-02
1.365984897841997399e-02
-2.504469677362931024e-01
-5.642998528261537750e-02
-5.260661906659692445e-03
-7.061994252726588872e-02
-5.051832294680658197e-02
2.010158490292768274e-01
2.710032264075500855e-03
6.612486457744867763e-02
1.652970776030597555e-02
-6.234232450513883285e-03
-2.205733874377340323e-02
-1.053478811039952751e-01
9.851898926637991591e-03
1.084768454376400793e-01
-3.906901580406803298e-02
-1.180982408196609712e-02
2.316741300182238728e-02
1.197594382838871284e-02
1.304842521047350490e-01
-1.539348541961420985e-02
-6.786914485938193298e-02
5.807290629190089287e-02
1.548207067335988577e-02
9.507975585861487555e-02
-2.840330944344209713e-02
-1.479844064128363057e-01
2.259844714371656363e-02
1.389280967931978174e-02
-1.795517253765610555e-01
-9.133732388065958496e-02
-2.320817563649161391e-02
-3.081839185657903740e-02
-3.512421340223234600e-02
-1.488197787538952654e-01
-8.797404695104690808e-02
3.872618844961969037e-02
1.030142270780474599e-03
-3.194762546148955523e-02
5.652035687466574337e-02
-5.210434918823603212e-02
8.880760906322154175e-03
-1.433149656213130174e-01
1.014453591485078299e-01
-2.000339272792294246e-02
1.230589345837590776e-01
1.087668722036660707e-01
-7.378359476949053475e-02
-1.136236300732281768e-01
-9.552127416737565824e-02
5.174885309611521045e-02
-1.364997966345775880e-02
6.184289907220761988e-03
1.014145486683397900e-02
1.042923890532995723e-01
-5.698914336489557114e-02
-8.752109076892153339e-02
3.964546693285232043e-02
-2.295362324837412760e-01
9.195446416983346638e-02
2.558262416137763520e-02
4.449408802975451382e-01
2.783801889273045393e-01
1.440289131164844139e-01
-8.436209272790617941e-02
5.310177742934221734e-02
2.332302448059188696e-02
-1.609556285681787435e-02
2.392173968208971546e-02
7.468395833122119104e-03
-7.576007073355318922e-02
5.099838761293894879e-03
2.666407137291745486e-02
-6.378306865476617016e-02
7.360609230884158916e-02
2.005654421826015207e-02
-3.387480802859157980e-02
1.523657835979415898e-01
-1.485024086003946808e-01
-5.050119600899537209e-02
-6.270984763486821267e-02
-3.192796312876440834e-01
9.247562755075114382e-02
3.086116878665744537e-02
-5.006342554419744850e-01
-3.926807440322124254e-01
1.180084247563727498e-02
-1.293705659813182245e-02
8.130082164651114204e-03
1.555647944231329793e-01
-1.010670981457726797e-01
-1.030548391921669860e-01
6.275201881956881007e-03
-1.316539882350213631e-01
1.079267676473503190e-01
-2.836180445720825616e-01
-1.766424053060389743e-01
7.519266604213062366e-02
-2.124917154608510061e-03
-3.651623029513161034e-02
-9.743920390345005983e-03
1.685783787280528689e-02
-8.523422223027178612e-02
-7.890757997966668658e-02
-7.694726026945923614e-02
-3.901756929416539538e-02
-1.777820086494457108e-01
1.528222849142929496e-02
9.051856617601802824e-02
-5.445935314885500672e-02
9.536157049752026771e-02
3.933963098325400642e-02
-7.133475016434748239e-02
2.850204076175873180e-02
-1.557530206598049458e-02
-2.050843862368005935e-02
-8.607500407495868866e-02
1.012396352087053392e-01
-1.101258179882756878e-02
5.661814025767220211e-03
-8.284723545371017184e-02
2.242470154690917039e-01
2.274233851095783243e-02
-1.457489214898425971e-02
-3.882660354286983362e-02
1.363909296982320635e-02
2.446660327144109248e-01
5.622164052953718127e-02
3.008801388356120710e-02
-4.053325286980154034e-03
-2.027852414265552683e-01
-1.861944113039436027e-03
8.050369205096441494e-02
2.259610249579535324e-01
4.247843015588473325e-02
4.586947686303279037e-02
-2.279905517084999250e-02
-7.167230022567844250e-02
2.186438779964218135e-02
1.419544360219106294e-01
1.565746873541989659e-01
-4.781057661388548111e-03
-7.979719730395400112e-02
1.097684362207573400e-01
1.340272628467132632e-01
5.307791749472773324e-02
-1.756189696831229885e-01
3.260288574671835193e-02
-3.602344098483514084e-02
-1.074840044106815662e-01
-5.634689402196237790e-02
7.607737113631221626e-02
9.967637179989902174e-02
-5.541155993191945739e-02
5.331045393171630203e-03
6.177223848787818244e-02
6.946186739606478519e-03
1.636125886761959358e-01
-4.050181619799233523e-01
1.341897526064294299e-01
3.926002060542051891e-02
-1.229441781642870157e-01
-4.371425297514765218e-02
1.061704989789904879e-01
1.282776899158067155e-02
2.577793576116184024e-02
-3.834385775844919436e-02
9.669430243806012570e-02
9.971705210257158017e-03
-1.223966026679419172e-01
1.002837956505755607e-01
-7.030569745076123422e-02
-1.627941075546033428e-02
-1.921880883422265596e-01
-1.706649176295345349e-02
-1.143575905296076722e-01
-3.927100703641169810e-01
7.814731697828863899e-02
9.151138177025505693e-02
-2.761070323118412773e-02
-6.286568009392540755e-03
2.744474310896148281e-02
3.419139698562700946e-02
-3.946317271994460169e-02
-1.206474823795155721e-01
5.373558542342953687e-02
-1.850955179004308560e-02
-8.259485799242863302e-02
1.238223628466534644e-02
-7.878188220725940161e-02
-2.740945726807917371e-01
1.545806402482341121e-02
6.441948105835333671e-02
-8.156071686963045630e-02
1.736153352131815722e-02
8.969721248263060054e-02
1.667147528068597395e-01
-1.005617296401683930e-01
-4.200772552955662348e-02
-8.902761001161470233e-02
1.012874259146925165e-01
9.588838643977087850e-02
-1.337502613638206495e-01
-8.392797872095439371e-02
-9.191669041932533802e-04
-9.370598877358042589e-02
-1.965218534477434706e-02
-1.535262105016823586e-01
1.292015445521851602e-01
2.255032689630266304e-02
-5.726073197776979096e-02
7.611146809050457762e-02
2.752414137513701370e-02
5.010854621906583178e-02
8.836372449456886269e-02
-8.722341552965168221e-02
-7.487986752681208454e-03
-2.581806928754277752e-01
8.682823242065833280e-02
2.207080464614407100e-01
-1.535499232600653352e-01
3.742702622438957155e-02
-1.161146719807751478e-02
7.284639578738352772e-02
-8.799838169055269887e-02
4.656910928225344026e-02
1.320994734930109119e-02
4.947642102279964371e-02
-9.328203009675881119e-02
6.608194244441921439e-02
-1.110286037697788553e-01
9.468169034551095209e-02
9.310472398640268210e-02
1.873107675670746680e-02
1.000342187365629576e-01
-4.905529013256257689e-03
2.108504844664773892e-01
1.328493997449037844e-01
1.465457773333742227e-02
-7.019207187946643889e-02
7.090047124405712831e-02
-2.300415371292138800e-01
-2.858647439249399277e-02
-4.722809767485169896e-02
-5.589840722959665831e-02
1.100487189249402253e-01
-3.943782643392412801e-02
-2.131747761068586780e-02
-2.440122587838000623e-02
-2.070270172634612882e-01
-8.179193635339535029e-02
4.294429869801470734e-02
-1.220871157063720472e-02
1.142229849199158792e-01
-4.098288374753252666e-02
-3.548940065544655548e-02
1.206869173353145169e-01
-7.103490003592528856e-02
-2.716213617095526896e-03
-7.687701447348779804e-02
-4.015240685076845728e-02
7.823146910977489543e-02
4.582613173333623807e-02
-2.130625601446192730e-01
1.851608871818997276e-02
-1.347399330294420938e-01
-1.392641487251785118e-02
-1.581099204176822370e-02
3.025694691544035531e-02
-1.260008161614026290e-01
-8.509166582809625512e-02
9.503318505323328502e-02
7.279183844389920666e-02
2.123163297557858209e-01
-1.774566259878365346e-02
-3.616838781934629543e-02
1.052560567773072608e-01
-2.828171431511058986e-02
6.736863858098296465e-02
-3.613643848696948546e-01
2.577231885473551046e-02
-1.458164030230196112e-02
4.286610092576195047e-02
-2.228525489076659261e-01
-4.645009832360433993e-02
3.013702142834014629e-03
-3.482949954000983078e-04
-1.676053918750751437e-02
1.495939321478140238e-02
3.242980221740962010e-01
4.092426965437252415e-03
-3.610683911140342706e-01
-3.950038860283827669e-02
2.429440357319826160e-01
7.281809411892324613e-02
5.124120580951694974e-03
6.999582981244636959e-02
1.710447864709902788e-01
3.468740944312249247e-02
1.164314202986743013e-02
1.133047833206146104e-01
-8.942131910523165583e-02
-1.148559246763238284e-01
-4.722791616083266142e-02
7.844093362340993913e-02
1.375948893933690020e-01
1.165328390906543096e-02
-1.339621883340586309e-02
4.077900925716911734e-02
-2.564213439955453921e-02
8.163740019819339111e-02
1.554379433024887826e-02
4.355986647247440252e-02
-4.422135186937387608e-01
1.126330595389490596e-01
-6.747774752050600400e-02
7.779746511024568378e-02
-2.540967232578617702e-02
8.190838970656816320e-02
9.767359239345357880e-02
1.730326872597940657e-01
-1.495966670652619512e-01
9.596800970331777203e-02
-9.933441110835723731e-02
3.247346493753327512e-01
4.126625299511875455e-02
-3.332200906490969533e-02
1.654312878981625476e-02
1.248257969440153964e-01
-5.999117485685201423e-02
-6.800519064532585534e-02
-8.689827934862751069e-02
2.490386078845964191e-01
7.133773368527326908e-02
5.855172810812076661e-02
-6.693655819533014112e-03
3.665521389623296877e-02
1.656412320532268598e-02
-1.265080981103249846e-01
9.720669299059171709e-02
1.174370488251542943e-01
-2.084863637326937191e-01
8.143982603688513372e-03
3.134397810940121182e-02
1.424829166344206699e-01
1.020108031706642160e-01
-4.178082794791948031e-03
-1.494090538458324180e-01
-8.789922270860400788e-02
1.365844206201061173e-01
1.289805999132534985e-02
-1.898094305969487763e-02
4.724443762702121297e-02
-2.442327296482030841e-01
7.290119250632397241e-02
-4.054393472432882284e-01
2.531109631969398754e-01
2.636094859794679834e-02
-2.842222735570532621e-01
7.694824760516592865e-02
4.165698088172885456e-03
1.382246915068360490e-02
-1.143983147290315999e-01
-1.202832984472203132e-01
-9.726246790974617251e-02
5.361987514434887747e-02
-7.306243748958558175e-04
-1.105844613257994102e-01
-2.380072849353363426e-02
1.034247512508058714e-01
2.204163186872742930e-02
-3.959799395154665891e-02
3.006822804652188336e-03
3.612754715988767545e-02
7.051338617210067827e-02
4.437344004053605379e-02
-3.330910875079674382e-04
4.624300815848584462e-02
-2.513429575003593361e-02
-1.306094670318570516e-01
6.228693918835009891e-02
-5.126607523309284487e-02
4.638446602212776410e-02
-7.714997161731967923e-02
-1.259145452344061777e-01
-7.731916180697293584e-01
-1.059688231432636026e-02
7.462996070272015503e-02
-1.921489072291898970e-01
-7.306499900919589952e-02
2.354317533097982987e-02
5.079134129470352921e-02
-3.647322894898330503e-02
-6.571585031296824086e-02
5.862864093408981904e-04
5.538006557645475114e-02
2.874930510138734574e-02
-6.291472236201684290e-03
-3.846895117700205313e-02
1.948328831987455878e-02
1.435929888108189965e-02
-1.865863520161666067e-02
-7.886587669381031618e-02
-8.579182609607886867e-02
9.236831622059248070e-02
1.128214214783477415e-01
-1.369764629032984779e-02
-1.699986351035131724e-02
6.502543232292960773e-02
1.623987693371986563e-01
-4.209882417987177994e-01
-8.752456326344766335e-01
1.495770002883619609e-01
-1.630555794716692930e-01
-1.295256044038592402e-01
-1.025499634193232229e-01
4.148620249599607734e-02
-1.541016634847214017e-01
-1.365731317613059215e-01
-1.285377818956975719e-02
4.204095584348325337e-02
-1.296198539801509710e-02
2.500462102556011076e-02
-5.301039172991412612e-02
-6.938105242882955381e-02
