-4.254089831085311642e-03
-2.707014478631570350e-03
2.462067584075424385e-03
-1.965605956332808560e-03
-3.616183985698637974e-03
2.695915447088719462e-03
8.084761461344837754e-04
-1.771015277282401599e-03
1.870917358358469137e-03
3.419457589774660411e-03
4.562874349431409772e-03
2.872936715964383679e-03
5.500934761997811930e-03
5.030015482277288294e-04
9.754446764533258700e-04
-5.375051295377919220e-04
4.479218453593013932e-03
2.334503895282744458e-04
6.311825668457727613e-03
1.925362052654993553e-03
1.801056507699697051e-03
4.099770832505384051e-03
3.049103742415807381e-04
2.866427201390465453e-03
3.002951785139568609e-03
-3.805856401040115327e-04
-3.718710493977675675e-03
-7.849732951762985588e-04
3.736422423581814141e-04
-2.860869034539705123e-03
2.860679164001552876e-04
-4.121538341473291595e-03
-3.186112696979288578e-03
-3.093910101545536907e-05
1.986625341451470940e-03
-3.483153415289793990e-03
3.589358792516960327e-04
-1.589877071207160676e-04
4.565752694994308809e-04
-1.701210787380109772e-03
1.209950244968790696e-03
-1.147699965287560676e-03
3.864591779898230318e-03
-4.175820679121068635e-03
-5.641358011671910797e-04
7.200529963304593212e-04
3.010611355543161595e-03
3.584767131517390716e-03
-5.479513603721996098e-04
3.422438287666257004e-03
1.478151174112333740e-03
4.652601475233660825e-04
-3.718097928557771432e-04
2.692085217011013637e-03
-1.761335461134528073e-03
1.614680597877862734e-03
-1.330075961570516578e-03
-1.962738795750938129e-03
1.752701954068410818e-03
2.237733861249050805e-03
4.917593194590657441e-03
-2.743885844072377271e-05
-9.093679303525482654e-04
-1.513071009852187806e-03
1.147328065941999016e-03
-1.687387824366851736e-03
-4.630449487845983794e-04
-2.797696749754348573e-03
4.870226399781437190e-03
1.808228785812879009e-03
-1.705986224140699972e-03
9.589075910025181369e-04
4.461166260698818352e-03
2.768817054558331183e-03
-3.433766840809871152e-04
-1.431797534478732167e-04
3.432114449677146212e-03
1.778292302334276214e-03
1.109612294295867895e-03
-3.441374136572676861e-03
-5.318011518635562540e-03
8.916316069497213191e-04
-2.099821522254814461e-03
5.738360703658524535e-04
1.469497117302995823e-03
-6.159519152771031304e-04
-2.339193899109531013e-03
-2.555548518063955818e-03
-2.238135593030224140e-04
-1.723467211860480559e-03
2.103763667244727166e-03
-2.674775251637597699e-04
0.000000000000000000e+00
-6.094567206066261013e-04
-2.214658864439574167e-03
1.420484061050320684e-04
-9.772611234166114508e-04
-7.101783660982238094e-03
2.313051111214738456e-02
-4.496199219059028064e-03
-1.953794644281886105e-03
-1.633924242860877382e-02
3.313226260191398653e-03
0.000000000000000000e+00
6.714879906527543990e-04
-3.021876885297582367e-03
-3.477286782501512485e-04
-1.796780205433326158e-03
-8.900373249065282122e-04
-1.432341495217182015e-02
-9.241282697042514172e-04
4.585696799889147322e-03
-2.258155304206629910e-02
-8.756340916083633907e-04
-5.234513880751076771e-03
-1.195372609754172168e-03
-4.214957248604237210e-04
-8.562719041885073420e-03
1.694050676934738629e-03
-1.877006355135660970e-02
-6.853680972908507245e-03
4.835965110042340920e-03
-4.346598745593321586e-03
1.674039539110809809e-03
9.408054770773106694e-04
9.023115755237415530e-04
1.921040970322314195e-03
-3.801634539826061047e-04
3.276821662103248170e-03
-1.181620605325621421e-04
-2.899370427935059422e-03
5.440108953801299339e-05
-1.150429180827850211e-03
1.566244789377498970e-03
4.707231764552869888e-03
-3.720379330138338329e-03
-1.294989537473509355e-03
3.502724863292054733e-04
8.418225523275905562e-04
8.167478536673527384e-03
1.043312179105880533e-03
2.035620466338477954e-03
1.421861840739167045e-03
3.996150604575200412e-04
5.329538896976406329e-03
5.656921344520790020e-03
1.798143300758770196e-03
-1.571971464159701258e-03
-1.223037186827547525e-03
1.070002692383128498e-03
-3.848283340138319939e-03
-2.562425752260202513e-02
-2.570409159858015775e-03
-1.228988118128878926e-01
3.300369287024414178e-02
4.720036172364774733e-03
1.640779771883438005e-03
6.174324994266158469e-04
-1.927393522377322289e-03
-1.713731333391628128e-02
-4.053029923970147969e-02
-1.031771272839606887e-02
2.429150336040251761e-03
-9.506229239731215502e-03
-5.958129553490976518e-03
-2.971901890999258111e-02
2.040837130322804133e-04
0.000000000000000000e+00
-8.017961397532257211e-04
-9.073978238847802769e-04
2.708687911811765835e-03
-1.506819217184091628e-03
-3.346800596012765219e-03
2.937943688483411926e-04
2.151790789965719354e-03
1.848065699316253207e-03
5.604868682249651351e-04
6.576835436669838802e-04
2.799149542810310063e-03
1.960899224621893890e-03
1.162850467335926652e-04
1.281125429092859263e-03
-5.226844002492085986e-04
1.167120014567651215e-02
0.000000000000000000e+00
-3.377003317766685310e-03
9.920466278765694302e-04
1.832595816704913998e-03
2.205197736675946774e-05
2.785933792682897172e-03
1.360028847852293036e-03
1.307800537554431762e-03
-1.661713099287411780e-04
-2.028203127438885089e-03
-4.868634901296434452e-04
7.195823355235935782e-03
1.267437496774455720e-03
1.970761795183454692e-04
1.313015144470906607e-02
6.570503669267981420e-03
-2.760229570780045952e-03
5.020448572047218026e-03
3.142145756992250835e-03
1.953764562809885696e-02
4.766807091094536070e-03
-2.148688495228677671e-03
-3.628811780771256691e-03
-1.253431268519227156e-02
-3.946778534817807840e-03
-3.900118242743008906e-04
-5.750799986491835283e-03
2.907576672165802117e-04
6.581090037784282157e-03
4.014044063934604605e-03
4.545722425221588280e-03
2.524620814575818245e-03
0.000000000000000000e+00
-1.528685909929970136e-04
-5.568699757618222369e-03
-3.490006334882752963e-03
0.000000000000000000e+00
-3.649729006793121398e-04
-1.244153033190541560e-02
3.066187411434418385e-03
2.830917331973729391e-03
1.831056855879965167e-03
-6.323548781603118398e-04
4.203160416990171094e-02
2.884171485868824818e-03
1.963910739618242654e-02
-4.709888085010899110e-03
6.152315494216219595e-04
-5.091908318918062122e-03
-3.192566583874633518e-03
-2.637552304061802685e-03
1.504500820651655767e-02
6.931066502096767641e-04
7.822731366035640685e-04
2.864555066392862268e-02
-1.222864436427519713e-03
2.188722603249707716e-03
-4.665896691679079569e-03
-2.158323127371040658e-04
5.302834245158146581e-03
-1.075536260562197236e-03
2.116209706553222152e-04
1.456415922617213714e-03
-2.701179803302663704e-03
-3.533712282356353193e-03
-3.184620682868797084e-03
-3.188580669820089905e-03
-1.372124527188128612e-03
7.238917987179163162e-03
5.723270433553098724e-04
-2.279720701517114851e-04
0.000000000000000000e+00
-3.698934475919943288e-03
-2.356715235691698909e-03
-6.443690068619108027e-05
3.988734977759770140e-04
-3.926334645420430716e-03
5.384436886326413561e-03
-2.132754391960279823e-04
3.774953861143782313e-03
-1.049409974240735673e-03
-2.307256659754042781e-03
4.251684059832441125e-04
-5.900167293450327838e-04
-3.733473129915668566e-04
0.000000000000000000e+00
0.000000000000000000e+00
0.000000000000000000e+00
-7.080342519046402044e-05
0.000000000000000000e+00
-9.534362344049892093e-03
-6.448259838177034312e-03
1.821418525724996084e-03
0.000000000000000000e+00
2.829458667737516186e-04
5.707306778238611239e-03
-4.260908672678992253e-03
-2.529322658177054497e-04
-2.244848299439329477e-03
5.024936043217723266e-04
-6.773388378727301234e-03
-3.108874383674653432e-03
2.076242981449953704e-03
6.641995344148288356e-03
-6.916544167633659939e-04
2.547041220304096035e-03
1.441619722462586387e-03
1.518224068602252314e-02
-9.089918324500940441e-04
1.914941887939912869e-03
-1.784910145631854461e-02
-1.071975296627330175e-02
1.423617405472713537e-01
-2.822417549518048061e-03
-2.375230283754446628e-04
-6.926008543175321119e-04
2.263644059563776206e-03
2.674833629933942233e-02
0.000000000000000000e+00
-2.407782185619425450e-03
0.000000000000000000e+00
8.880192001392361867e-02
0.000000000000000000e+00
-1.339513011174893117e-02
-2.203932611351023738e-02
3.350409011755511868e-03
9.940793961307552162e-02
2.241839876203459859e-03
-1.162203109163839019e-04
7.333187927035923846e-04
1.952104093180477302e-03
-7.744067051015811245e-04
4.249363965204789391e-04
3.273154549857868996e-04
-2.215250148781074105e-05
1.748969925984120068e-03
1.801691944313416754e-04
1.653720326373241817e-03
-2.932259205875994632e-04
1.026142767485781204e-02
-2.528266543734373865e-03
-6.365011433260401794e-03
-4.034848862284944569e-03
-1.240232921786749327e-03
4.289777005714967388e-04
-3.617261349881511871e-03
-5.613353192920975815e-04
-6.280186277746796150e-03
0.000000000000000000e+00
-5.449359937484747575e-04
-3.396851602473747751e-03
6.829163278365545098e-02
0.000000000000000000e+00
0.000000000000000000e+00
0.000000000000000000e+00
0.000000000000000000e+00
1.991091832226761743e-04
-7.510765912804134555e-04
0.000000000000000000e+00
0.000000000000000000e+00
0.000000000000000000e+00
-1.773532738194809506e-03
4.073613629255888081e-03
3.339618932877023495e-05
-2.219115163515062838e-03
1.132249461238520353e-03
-8.393211280527201543e-03
-1.815846791680238593e-03
-1.815594702282513303e-04
-6.082425702009080018e-03
9.470595837100833150e-03
2.276614884004807618e-02
3.048009743505950345e-02
1.203197416609247915e-02
0.000000000000000000e+00
-1.735939085874657519e-04
-1.450303798772198892e-04
4.105789221152114737e-06
-2.132754391960279823e-04
1.293845311167333067e-03
-8.119820795625041360e-03
-7.451200422035257620e-02
-2.529369874958981024e-02
-3.358105893696090773e-03
-7.947584433643244302e-04
6.150484614122024400e-03
-1.878327808172215729e-03
1.486983671406095532e-03
0.000000000000000000e+00
-1.380455507952024589e-02
-5.415167592666065340e-04
3.431345549042404889e-04
-4.165973487814336349e-04
0.000000000000000000e+00
0.000000000000000000e+00
0.000000000000000000e+00
-7.321027996653081378e-04
0.000000000000000000e+00
7.988083344607939396e-04
-1.300900058339165555e-01
-1.862852828296225572e-03
-5.691088498122275595e-04
3.208408821937348745e-03
-2.577380199923011081e-03
-6.602839844327147711e-02
2.631321332064260471e-03
-8.450632206601808166e-03
1.493761744402909890e-03
-5.863795158701628867e-03
-2.720262238675285466e-03
1.271097568492475169e-02
-3.961062820594213676e-03
-3.362780591955490811e-03
-1.310772494832006512e-03
-8.764132352055665435e-05
-1.200793879433307600e-02
-7.656683515693199146e-03
-2.735955887080264784e-02
-9.318653863568204451e-03
3.461064948322407171e-04
-7.491044724500156354e-04
-1.060337729221859718e-02
-2.109024328660010807e-03
2.707779151384243684e-03
-1.643662324718747278e-03
-2.357250467978277628e-03
-2.197012225470702101e-02
-4.942456688693952363e-04
-3.426520506479151002e-04
1.841253361840260823e-03
-8.694676168573113942e-04
1.609463761090148366e-04
2.049171862956524967e-02
1.486293399023876603e-02
4.124088477159298764e-03
6.667624674535990899e-03
1.102719761483233942e-03
2.301077386244269971e-03
-1.207416033268301526e-03
7.041993090472591088e-03
9.835492008658476212e-04
1.314232875629581514e-04
-1.169445579720959031e-03
-2.929830712467271833e-04
-6.831078748862998715e-04
-3.124883976769902635e-02
1.681658640346900659e-03
4.043090947375933830e-03
-1.829134836218790708e-02
8.302095900341207842e-04
-1.675352367332039313e-03
-1.458224311412428982e-03
-1.842821500671004784e-03
-3.034857697277863666e-03
-1.539671685254931192e-04
3.988734977759770140e-04
-7.350992624114077896e-03
-1.679580685107744369e-03
-4.898215652735846311e-03
0.000000000000000000e+00
-2.265676937903700339e-03
0.000000000000000000e+00
-2.940458493867288692e-02
0.000000000000000000e+00
1.078080844892277375e-03
1.187854013465457822e-04
-5.080549424525176907e-04
2.046975115998112948e-03
2.805391311082539463e-03
-2.113491545214599924e-03
8.005436149765906163e-04
1.952377309098584117e-03
4.491523041337799264e-04
-6.993821205476661619e-04
-3.161546865305038014e-03
-1.575833520131450505e-03
1.221495538785914367e-02
0.000000000000000000e+00
2.131783290853763650e-04
-3.954049528735803683e-03
5.822191415525747489e-03
-6.493133618759154048e-04
2.592622659524746170e-03
1.495659443804667806e-03
6.750527750382063433e-04
-5.601240797762397326e-03
2.573753536693643758e-03
-5.202689915745263398e-03
-1.203114099070450374e-02
0.000000000000000000e+00
0.000000000000000000e+00
2.218534225926631928e-04
-2.087654682276342613e-03
-6.654449915460883096e-03
5.912257113689123016e-06
-8.100079337207688468e-03
-2.089684256950110133e-03
-1.553873709397310572e-02
4.148595802516463586e-03
-2.294801281095995126e-04
-7.547448772398592139e-04
-4.291701811717856321e-03
-3.398601882265759374e-03
-4.918011215938255739e-05
-3.297374578757715415e-03
-2.087132431771045031e-04
3.776436823887554086e-04
-2.698856777352288787e-03
-3.694188658391177674e-03
2.537816435286215197e-04
-8.791148805147865411e-03
-4.580721453340390347e-04
-3.773882804145551034e-03
1.159812185334935632e-03
-8.684438149053048765e-05
0.000000000000000000e+00
6.861099568380126662e-03
2.192004137174991853e-03
-5.406931571842295975e-03
0.000000000000000000e+00
2.891964568943291430e-02
2.077842544833131619e-03
-1.736629090443394738e-02
-2.062625848881904228e-03
-4.999672244492369202e-03
-5.500551166461615550e-03
-2.126708460186747373e-03
-4.389793981307395059e-03
-6.119000162608614207e-02
-4.120927371296790979e-03
-6.653295308081526478e-03
-2.719439290369261505e-02
0.000000000000000000e+00
3.415975698466511973e-03
1.724270988260807793e-03
1.118741617330780164e-03
1.776471527600114939e-02
5.225266957495435481e-03
4.541669150845332667e-03
3.408949952102559538e-04
-5.509317320870457495e-03
-1.161206491300830878e-03
-8.853004920374085360e-04
-8.733161688704176723e-03
-2.859920556478105780e-02
2.922377763191540655e-03
1.226133947911817743e-03
-7.755624934063026169e-04
0.000000000000000000e+00
-4.617029180505870267e-04
6.282440777960147937e-03
0.000000000000000000e+00
0.000000000000000000e+00
-4.444850702329811577e-04
0.000000000000000000e+00
0.000000000000000000e+00
3.947968237833081838e-03
2.334806451685931313e-03
-5.717212918935897156e-03
3.044216975896547796e-03
1.099280656877494895e-03
-2.020025009610706707e-03
-2.559973672982794168e-03
2.085918684980559920e-02
-9.853884444947806284e-03
-1.560518306479484474e-03
-3.142769639748221877e-02
-2.684937090125178675e-03
-1.745972949917358897e-03
-6.703233720962373417e-03
1.516578227014517841e-03
6.865640985515649233e-03
6.021545127590582740e-03
2.718912268869780584e-03
2.449082098974608018e-03
-2.338087665814298985e-02
7.069634381998389505e-03
3.352592990775411785e-02
-1.500116623518821801e-01
-7.007212130343307838e-03
-2.012518303981264672e-03
-6.036925358261014014e-03
-2.095959926003802820e-03
-1.828229661503999101e-04
-1.587060644895607565e-03
-5.658009917263474679e-03
0.000000000000000000e+00
0.000000000000000000e+00
0.000000000000000000e+00
4.944403394037184167e-04
7.811404016249515712e-03
-1.985194204024858227e-03
2.412810953093527319e-03
2.884622813581850208e-03
3.260072529540498400e-03
-3.119311016920298107e-03
8.799520802830508581e-04
7.683465795405980934e-05
-3.811668327203608375e-01
-1.545617536669883010e-03
-5.611359031038231499e-02
-3.982269105058314565e-03
-2.509821556683743560e-03
-4.207699712634011772e-04
0.000000000000000000e+00
8.036755817573676755e-03
2.097407941619405629e-03
-1.292724883019366643e-04
1.156561828472420618e-03
1.127054179814801884e-03
-3.680069607962402865e-03
-4.225522739310033117e-03
6.941598958240681461e-03
5.440045288346971424e-03
2.038762845895639945e-03
-4.279130503357829289e-03
-3.172028266404282662e-03
-8.653386991901902301e-04
-3.749168150500040587e-03
0.000000000000000000e+00
0.000000000000000000e+00
-5.124215153911438822e-03
-2.583293852799616042e-02
-5.385747143650621536e-03
2.042448127234361757e-04
-1.333950621417353535e-03
-7.080861364569181193e-03
-1.130587442986671063e-04
0.000000000000000000e+00
1.518120986358440427e-03
-7.237786221854777997e-03
1.025288922051229186e-02
3.031699391113406531e-03
-3.246639554356893238e-03
-2.951963730382262639e-03
-6.893571707466823219e-03
-2.464052256582663358e-02
0.000000000000000000e+00
-3.200687960097994833e-03
-3.246943210690494096e-03
-2.441599044564952883e-03
-8.022087428410101459e-03
0.000000000000000000e+00
2.816480063982698158e-03
1.493973705557887725e-03
1.294207401999528356e-04
-2.445974136793666737e-03
6.878043463406427298e-03
1.796750155952944522e-03
-8.196488034021923988e-04
0.000000000000000000e+00
2.685490853873723910e-04
-3.339098505796482910e-04
-2.600287472603013753e-03
-4.217959099735121495e-03
-1.510070607350707779e-03
1.240296491054188521e-03
4.133905146380637864e-03
-2.256828179673307701e-03
-1.811112489060693774e-03
-2.334529437446867042e-03
-2.579725090830238456e-03
4.139033138605801828e-04
-4.782550599510084258e-04
0.000000000000000000e+00
9.232526184174277839e-02
3.464541072437100216e-02
2.752659407978531175e-02
1.002873606111058524e-02
-1.454160426799213160e-02
0.000000000000000000e+00
1.208679766571219499e-04
1.389351111053509572e-02
-1.664597210408565869e-02
4.721522959579988951e-03
-8.762535868238911438e-03
-2.740110665527931838e-03
-6.216385361748477667e-02
-1.288971300136537669e-03
1.524933241098164454e-03
7.084371427892862750e-04
-9.437905150556387792e-04
2.550841585086676896e-03
-1.866086905470818098e-04
-9.756862411288289710e-03
1.168491318337643026e-02
4.965806117099950089e-03
-2.059853248228214837e-03
-2.951168120102816580e-04
-6.233740078406495473e-03
-8.310225164278865762e-03
-1.521673998734095938e-03
-2.603555411706818829e-03
1.475187515456744328e-03
-3.097102179137914066e-02
3.425850289361808201e-03
0.000000000000000000e+00
-5.214381500604026685e-03
-1.798044645794465808e-03
2.640034221124088268e-02
-2.564334767186643091e-02
-2.261817974005218661e-03
1.863265760601933232e-03
-2.069465591545231568e-03
-8.141602647278197141e-04
-4.475991215406130452e-05
-5.172622042558118038e-04
-1.567519370681491218e-03
-1.664353089377294554e-03
-1.427605486480966641e-02
-1.014299736047206014e-03
-1.200721688353526928e-04
3.999563186482638934e-04
-6.085776327104555454e-04
-1.735458628588072488e-03
-1.526528257908203127e-03
3.249406765202499710e-03
0.000000000000000000e+00
0.000000000000000000e+00
1.169304310480166666e-03
0.000000000000000000e+00
-1.431508091491728591e-04
0.000000000000000000e+00
0.000000000000000000e+00
0.000000000000000000e+00
0.000000000000000000e+00
-1.291892649907016221e-04
9.089754762587785256e-05
1.968681505348044702e-01
-4.122971252241700631e-04
1.400837928196781851e-03
1.294787519180673702e-04
-8.218423244824094032e-02
0.000000000000000000e+00
-6.514529865423084943e-05
1.995607949716075510e-02
1.727242849424518443e-04
-6.132301863972359525e-04
-1.090503855702568310e-02
6.115721174939192217e-04
1.541969376144005071e-04
-4.586651068168907767e-03
-7.475569763292355804e-04
1.042581489097651852e-02
-7.882824433461271298e-04
-1.241665170251320463e-02
-2.851851555017443219e-04
-4.019418257697307041e-04
-3.409409248047387282e-03
0.000000000000000000e+00
-7.131574924929093718e-04
-4.548981041219634161e-03
-2.999210141174491026e-04
-6.478952314277609641e-03
6.421229996243739066e-04
1.701041068125431870e-03
2.136168373354293583e-03
3.090787769166023630e-03
4.375059708526867971e-04
-1.929698900333793720e-03
6.981885974645829496e-02
-3.543053556873252373e-03
-4.106376264877842873e-03
-7.943929591024535917e-04
-4.016089301565395515e-03
-3.199122997417054755e-03
5.430637422154912033e-03
-1.442348730411529764e-02
-1.470228519108363746e-02
-9.588321382802947237e-04
6.348667472217112530e-04
-2.142527038135064524e-02
1.850183745262753184e-04
1.765227811183905384e-04
1.421658724202276721e-04
-1.874343775925524369e-02
3.895330716663961915e-04
-2.266285581606828498e-02
0.000000000000000000e+00
-4.806720190882934896e-03
1.601786921316845306e-03
-7.534035506582729448e-03
-4.331516944353308758e-03
4.445834992872809213e-03
-2.571664437908220083e-03
7.042543992722588228e-03
3.625923763800812175e-03
-3.523865572346526233e-03
1.711277653147908568e-03
-1.267534336552688344e-03
-2.252462921321632657e-05
1.661100535712526846e-03
-5.509761295313278344e-03
-8.790941846090806824e-03
-2.411855204100346595e-02
-8.242294893818103568e-05
-6.247691308453145499e-03
4.246452715904395613e-04
-3.266326113532295279e-04
-1.058430723137446586e-03
3.123339862312446858e-03
-3.530953754497313888e-03
-4.998313561628534366e-03
2.175303543641807311e-03
-1.908061875183515894e-03
-1.981622545001328513e-03
7.266368190499206733e-04
-7.056021636864025920e-03
7.584250745104991333e-05
8.597936263072320417e-05
-3.744646939117454287e-03
-2.384201909389966484e-02
0.000000000000000000e+00
-1.764618902941933595e-03
1.680375533961853043e-03
1.143068603823442541e-03
-3.215509734850156170e-04
-7.056654407904738510e-04
-1.001686668764282390e-02
-8.549606690921181772e-04
-1.435057710745024412e-04
5.840415425406625567e-03
-1.276679483096293186e-03
1.364021609641875811e-03
-5.451247052051158950e-04
-1.438252340894372733e-04
3.446953742520196800e-04
3.882899586008644807e-03
-6.157617744205040036e-04
2.051433916575987114e-04
-2.653612919708513151e-02
3.340382674142860272e-03
-4.278056664859433700e-03
-2.206597772575423478e-04
1.029013812174341624e-04
2.328429403304273573e-03
-6.337515382517363649e-04
-1.111591538973433560e-02
-3.299041542155366213e-02
-1.364027574780228222e-02
-1.338074290587731030e-01
0.000000000000000000e+00
7.023706381590906662e-03
-1.466622044193167246e-03
5.551366830612036035e-03
2.065989597363334426e-03
0.000000000000000000e+00
7.290888187211685967e-02
-2.610849837118659617e-02
-8.775602468657630467e-03
6.527465799889884237e-06
-1.766737430303955483e-02
3.484682849907647095e-03
4.295136078302682660e-03
6.910407459550316558e-04
-4.259358632794634381e-04
0.000000000000000000e+00
-2.100824199545245612e-03
-1.741960553063765437e-03
-1.112717176068804201e-02
4.114754169301668152e-03
8.092011293676884542e-03
9.499928614803239066e-03
0.000000000000000000e+00
-1.093989686739754025e-02
0.000000000000000000e+00
7.619283657482603216e-03
-5.842092505444165698e-05
0.000000000000000000e+00
-2.119593818692998982e-02
-3.950043046724638351e-03
-2.965577595482481957e-03
-1.438252340894372733e-04
-3.154925568132117570e-03
0.000000000000000000e+00
0.000000000000000000e+00
-4.247565547110534849e-03
5.762844804371663500e-03
0.000000000000000000e+00
2.295353273296300389e-04
3.343868908557525495e-04
2.075555476519246132e-03
-1.282088720914766706e-03
4.093957761205616915e-05
-1.023916995537346069e-03
3.273502523220945485e-03
-2.051923816414663072e-03
-2.449707295611432654e-03
-6.578660589137677941e-03
3.802382793602629343e-03
4.156245780663101147e-04
1.344045724756980781e-02
-2.590360699431441469e-03
0.000000000000000000e+00
0.000000000000000000e+00
0.000000000000000000e+00
0.000000000000000000e+00
0.000000000000000000e+00
-1.794526062182412061e-03
-9.715034830623177657e-04
3.240012456797822238e-03
-1.525103812429267291e-04
0.000000000000000000e+00
2.226410798647032144e-04
-2.100636349076844597e-03
0.000000000000000000e+00
-3.498305124223113297e-03
2.865487815759902666e-03
6.575596688297014047e-02
1.687166683907462619e-02
-2.734991434785409483e-03
2.936023752361476349e-03
1.911388111930336156e-02
0.000000000000000000e+00
6.207523809607079078e-05
-1.416907532508387881e-03
2.177673610860447490e-03
8.506788515392871384e-05
3.318467272367282665e-03
-1.267926730400433877e-03
0.000000000000000000e+00
1.026801547315606394e-03
9.446129921353513606e-05
0.000000000000000000e+00
1.330861912909521601e-04
-4.421175548021624995e-04
1.767961573214633442e-04
5.186883980600010685e-03
1.081387760825170546e-02
1.767781943584360513e-02
-2.390022466451086850e-03
-1.075387642600523054e-03
1.403403622135888766e-04
-1.239592988172845661e-04
7.795135522083562925e-03
1.442412210662317789e-03
3.501802899044836772e-04
0.000000000000000000e+00
-1.015545847329772178e-03
-2.076870049273355119e-03
-4.065448654994478946e-03
-2.977035222644140808e-03
5.879349921514238691e-04
-6.712112302092208349e-04
-1.018712229813978137e-03
-3.758750143579826092e-02
2.432942173581602221e-03
2.012652019157363387e-03
5.817182275147686488e-03
1.454193459041287946e-03
-1.412311975033335399e-03
3.449534679769459232e-03
-3.089992151392461240e-03
5.266817708212458322e-03
-1.619641876176590705e-03
5.415820266027384158e-03
-3.374077849390894491e-03
2.001415280498074732e-05
2.252690298774616981e-04
-1.274259667550321903e-03
-3.597237114061682065e-03
1.884751925613618786e-03
1.460632586757205659e-03
-3.845136308659401897e-02
1.222307862577634054e-04
-2.581207658497657736e-03
0.000000000000000000e+00
-4.808466306175029729e-03
-2.270536807199818354e-03
3.907798849095203957e-04
1.330747573711606613e-03
1.774081954762331747e-04
1.170080779109187313e-03
-1.287072105704407899e-04
0.000000000000000000e+00
3.193650979553337450e-03
4.407095284952554913e-05
-2.769183407490547529e-03
8.380036452234547115e-03
2.537140886850739342e-03
4.783509157765563117e-04
7.810905991781686873e-04
-2.672011306624588311e-03
-2.975687511670677479e-02
-9.016976572424935258e-04
-2.502642019385032442e-03
1.206541426122822568e-03
-2.377548973494481369e-03
-5.950107409499454797e-03
7.484035510582591824e-03
-1.650280705695652259e-04
2.644309923847638975e-04
-2.501849482194843516e-03
1.513863769908655767e-03
1.492739829615100989e-04
-5.346157332588140874e-03
2.752395857733369935e-03
-4.401718733762704995e-04
0.000000000000000000e+00
-7.510832146769457266e-05
-1.419188591272538681e-04
1.905195018621299208e-04
-1.755572710174515768e-04
5.161027186418690486e-04
0.000000000000000000e+00
-2.131617483967924651e-02
-1.527395712613858862e-02
-4.804319874373416156e-03
-5.907569490347703081e-03
3.133245765314633061e-03
-3.760341301874122865e-03
2.565954166067527936e-02
-3.652519347969615700e-03
-7.673327320007451388e-05
-4.585722147737220783e-02
-7.893564293817334661e-04
-4.235432242894634873e-03
0.000000000000000000e+00
2.479461858885540458e-03
-1.844128341949672083e-04
0.000000000000000000e+00
-7.996585406247204127e-04
-4.959528570325432220e-03
-1.436147919639549006e-02
0.000000000000000000e+00
2.439705552026584620e-04
2.450084074877762787e-03
-4.651021662193479712e-03
5.579837577868430008e-04
1.863400833981450171e-03
-1.034960382907691148e-03
-3.800348350954380191e-04
-5.270174102295616288e-03
8.847447904513956610e-04
-1.733911435364355463e-02
-2.640555343285627080e-03
-1.507784075691407755e-04
-1.905882858521094078e-03
-3.022769501080162409e-03
1.035651792935878262e-03
-1.065817933228755711e-03
1.710076070135512025e-03
0.000000000000000000e+00
-1.031118360614993517e-03
8.932317528998695924e-03
8.197108283692851370e-04
1.040212407994253740e-02
1.811384512495045271e-02
1.665187481763626652e-03
-2.265041682759905139e-02
-2.574358463865981765e-03
-1.097123618267734600e-02
-1.858804423425867210e-03
-3.279657857617944428e-02
-1.599832335206660423e-03
-7.249933947428754445e-03
-1.367802805427475142e-03
1.759588894132304519e-03
3.002432981353794425e-03
0.000000000000000000e+00
-3.940944345688518653e-03
-9.927204382427143575e-04
0.000000000000000000e+00
-2.398649277982081024e-03
-5.203370587815382003e-03
-6.991612276107466665e-04
0.000000000000000000e+00
0.000000000000000000e+00
-1.261650399821773411e-04
0.000000000000000000e+00
1.621033998992109165e-04
6.714652793723272428e-04
-2.422337338973422132e-04
0.000000000000000000e+00
1.129913665619628393e-03
0.000000000000000000e+00
2.799802957370106041e-04
-1.143574324808631229e-04
2.094581201128088016e-03
8.358658013228301847e-03
-5.828738002420640052e-03
-5.372182044105728920e-04
-3.369888375507599110e-03
-1.438252340894372733e-04
-4.198282757320759284e-03
-2.731474970430161370e-03
2.820277685068530923e-03
-1.164025020933560288e-04
-2.445001626990205297e-05
-1.186810592830958230e-02
1.654909762298117188e-03
-9.803140548012120176e-03
1.316132544125606682e-04
0.000000000000000000e+00
0.000000000000000000e+00
0.000000000000000000e+00
2.220641151657245377e-02
-2.573561364382647137e-03
1.613400863102828868e-03
2.099830319531946488e-03
3.038077305871346185e-03
-7.275795874588635720e-04
1.256629491980049661e-02
-1.171669838670456182e-03
2.016539592353728920e-03
-2.470959703583179134e-04
-6.285485665185754078e-03
1.814432098590388286e-04
-1.929138503830698300e-04
2.042455998387728271e-03
5.603724949615485887e-04
1.716077178516880672e-02
-2.651189086318217307e-03
3.071118486644805468e-03
-2.592063671089599609e-03
-3.600558245305864611e-04
-2.600464533362055290e-03
0.000000000000000000e+00
0.000000000000000000e+00
-1.278197044810033085e-03
3.010496036346267234e-03
-1.785066878063417767e-05
-5.954916526659408994e-04
-5.584069005810735238e-03
-8.491675741378265380e-04
7.818855679929008267e-05
1.137602921782882590e-03
-2.128469383099117120e-03
1.925161892093052093e-03
3.852726294524603818e-03
-3.127521451169619753e-04
-1.661158198086577992e-03
-1.125544518639327038e-03
5.074173026592401423e-03
4.625351746437055163e-03
1.381998156610073254e-02
1.429798571045710030e-02
-2.096340732399193298e-03
4.041102929435148286e-04
1.474805507587871459e-04
-7.579275204698080219e-04
4.058599740141520529e-03
1.577349389462524756e-03
2.577057650467839967e-03
1.792783795596168857e-03
-1.083647244141875635e-03
0.000000000000000000e+00
-8.730555076869129854e-04
4.339241761991992482e-04
7.000265542173484149e-04
1.863650141422657988e-02
1.592261555102600151e-03
1.619416010868852604e-02
4.570939852199616855e-03
-2.011777938016294596e-03
-2.765024945331762672e-04
-5.056973473805177581e-03
6.149364797484364615e-04
2.819109892880038767e-03
-1.606029533125127732e-03
0.000000000000000000e+00
2.672418721619526042e-03
-2.592884204941800150e-02
-1.529099372337602500e-03
3.561195042492718509e-04
-2.961373521708960104e-03
1.286768739513691152e-03
-2.441318551356194688e-02
-1.634440604063144148e-03
1.801798102636197356e-03
-3.550779951982095586e-03
2.867222807570115814e-03
0.000000000000000000e+00
6.838632932498803739e-04
0.000000000000000000e+00
0.000000000000000000e+00
6.348494068117519970e-03
1.713040204338725156e-02
-1.619022385142602995e-04
-5.115392698343228586e-03
-4.455891112389202130e-03
4.738996266492479111e-04
-3.067765168663218016e-03
0.000000000000000000e+00
3.310456476754928537e-04
1.709069901067069555e-04
-5.345146073677237153e-02
-3.119750722664711186e-03
-5.880008472849650863e-03
-2.847314971823249139e-03
1.202924674218032279e-03
-6.526397228542980085e-04
4.037057908196087057e-03
2.317989719655477038e-03
3.095893426013507626e-03
1.167197281172685204e-03
-7.751665978168038353e-03
-1.384286713200712400e-02
3.704270066439799801e-03
-1.450648624059953907e-04
6.719964892666624792e-03
-4.190712411840235609e-03
-1.740556564321736350e-03
-2.260807961027073553e-03
-1.201917961689008828e-04
-2.343755972597540149e-04
-9.990506404834165882e-03
-1.647509342830920463e-03
-3.337109177436948376e-03
1.595388310653468979e-03
1.917850895187143620e-04
1.100167412039990134e-02
-3.839005470404290108e-03
4.513462737838092043e-03
2.156615938177878014e-03
1.262882283642897951e-02
3.604602753854158070e-03
1.822151233983484650e-03
1.101184918146785440e-03
2.496992879206396451e-03
3.909197569199445062e-03
-6.080139891099889220e-04
1.472668767900641188e-04
-2.118178563054366227e-03
-1.854262441307215890e-04
-2.729612379678107281e-03
-4.304495279094695467e-03
-6.170986543381586954e-03
4.864642487898381061e-04
2.471091096955314783e-03
-7.904372054892299694e-04
-3.410396017199265450e-03
3.036544784421972218e-03
5.913470470054065810e-05
4.554962857971271521e-05
-1.483399064034097027e-04
-9.670763328216604041e-05
-6.352052053563448991e-04
0.000000000000000000e+00
0.000000000000000000e+00
0.000000000000000000e+00
-1.765154777891229899e-04
-1.310669964736325532e-04
2.225445051268451935e-04
2.683708520688441075e-03
3.336386005642355827e-04
-5.134481402128579335e-04
-2.011043954277704719e-03
-4.772860123853349748e-03
0.000000000000000000e+00
-1.605932704619291319e-03
1.255682291640184648e-04
1.868991978105780853e-04
1.724255698941928525e-02
-1.040088092230177699e-03
-3.441459720990657813e-03
3.142725694629746485e-04
1.188891113940960392e-02
1.161470554878846814e-03
-2.006111098136355471e-03
3.711305381677131444e-04
9.043112819446869803e-04
2.278900782428032023e-03
5.066296243446381407e-05
2.189972419344860151e-03
1.402609507914497067e-02
2.243883301610663430e-03
1.237050007524715832e-03
-2.594892418666889470e-03
-4.462936824204778025e-03
-1.727189393642090997e-03
-1.659936246535997223e-03
-8.021101250084868711e-03
1.550060081421611663e-04
2.151980442826788211e-03
7.437116727194304899e-04
3.962508993397664180e-05
0.000000000000000000e+00
4.988948882328675177e-04
4.869408386333822988e-03
-2.104929845169011340e-03
5.708672700909563774e-02
2.792975307800043324e-03
4.190965043326243256e-03
2.155151076933081115e-03
-1.526097950464697962e-04
-1.543555515182745534e-04
1.245071683109908692e-04
1.732192264786209849e-06
5.705580637709629921e-03
-8.729727410244996454e-04
-4.958631321786949320e-03
-1.148738551913926036e-02
2.977533652127383867e-03
3.449924238813321161e-03
6.159061457441190358e-03
-3.652352779015303856e-03
-4.332861115124706126e-03
-2.649544290483509847e-03
-2.233374340980426656e-02
-1.193665084752477609e-02
-1.475178125841847959e-02
8.144280577247332668e-04
-1.295079406936161612e-03
3.703677416916970186e-04
1.969787919474989498e-04
-5.132486021741470075e-03
1.760411982619918946e-03
5.228963095697232791e-04
5.248624432053918378e-04
3.621695935239784350e-03
-2.965572472359518773e-03
0.000000000000000000e+00
-1.753698064783421832e-03
-3.886419039121279898e-03
-2.075586639617390714e-04
5.670185408163807769e-03
2.085824876478839171e-03
2.851843021284566296e-03
5.651722983806993852e-03
1.450015528704649316e-03
-7.551369920267009131e-04
-7.379907103617238708e-04
-5.753303377549204983e-03
-2.727911191925345372e-03
-2.267619449067403720e-03
-4.569606621451495661e-03
-1.169936942236552042e-02
-4.211732998947373754e-03
-6.128331643297210739e-04
-9.365284770713822385e-03
-3.667928272469823166e-03
-3.036341024023585656e-04
-1.425569623731091093e-03
2.328755850259608875e-03
-3.182805274110392618e-04
-1.315243554708098693e-03
2.034271341414995490e-03
0.000000000000000000e+00
-1.466013222278479645e-03
-4.075614677718148934e-03
0.000000000000000000e+00
-6.870286718918704703e-03
6.840838577547273154e-04
-6.136440482574323334e-04
-6.444074694563189237e-04
-2.160989598242142660e-04
0.000000000000000000e+00
1.438606850197322743e-03
-5.063047724092613984e-04
-3.718804904357389329e-05
1.603940850571196688e-03
9.035373146616938397e-03
-2.266628976838188595e-03
-6.996293594969450226e-05
-1.419322224473304993e-02
0.000000000000000000e+00
0.000000000000000000e+00
1.399176759724420115e-04
1.178316386103953495e-03
7.579036518006372104e-03
-5.056550639496642857e-04
5.991177102894345262e-03
6.770091860417467092e-03
3.124623183360037207e-03
1.476579852101184099e-03
0.000000000000000000e+00
0.000000000000000000e+00
8.265123221565761485e-03
-6.127770433873957386e-06
8.182796289394826238e-04
4.828127406854083176e-03
6.926252056677600476e-04
3.354886982364520525e-03
2.750047793226660826e-03
-7.976143917669335478e-05
6.673293318954836781e-03
1.229734078190962291e-03
-3.853283725849485433e-03
-9.668586247327425531e-04
6.079527690298121116e-03
1.134548506148398347e-02
2.313842236434355062e-02
-1.644698456894650232e-02
2.621703859661004242e-03
6.723574728873248606e-03
1.594086539517560255e-02
-4.187434586335229796e-03
4.342912529719158282e-03
1.007328232005095560e-02
1.194870579473025123e-03
-1.651725018323993086e-03
-1.085652119497725808e-05
2.535725315006538173e-03
2.718259221055795410e-03
1.248417771762172761e-03
-1.333439424887531040e-03
1.126248863167949969e-02
-3.460699592007746017e-03
-1.723893563132536258e-03
-5.358603435793024908e-03
1.715400607279631267e-03
-3.973685724389265823e-03
2.709942289721761137e-04
-2.975332743338767946e-03
1.155661010137159442e-03
1.495201716562495143e-03
-1.137158060796050144e-03
1.300327197967531250e-03
-1.829569165778596003e-03
2.689693901881231967e-03
-5.307901241530140792e-03
6.038101463282505819e-03
3.158487687225522336e-03
1.894928970567851716e-03
-3.054529574419203013e-03
3.751051594825816245e-03
1.785051014334522890e-03
-3.391550159052733344e-03
1.454431060943920349e-02
-7.950379894191612505e-04
-3.782439864155129252e-03
1.606291365447475809e-03
5.162017384743926469e-03
1.007051671306925106e-03
9.132586841564939092e-03
3.491941184092695657e-03
-2.956719425871510987e-02
1.359332506138027962e-04
-5.253846724021053738e-02
1.889851984815226968e-02
8.688615002040431853e-04
5.865497547332458768e-03
-2.446605014113340621e-04
1.962909235254754194e-04
-3.329530116724915682e-04
-2.702382865118103158e-03
9.294948970902886659e-04
1.508375102079824578e-03
-8.572132615719030985e-03
-4.670761317092383220e-04
8.092989717098819646e-03
0.000000000000000000e+00
-6.761981466025239473e-03
-3.676668381362827075e-04
-1.204633439824663761e-02
-5.420496143277164780e-04
-5.033236851748155039e-05
-3.432389080323870485e-03
2.510794246102149730e-03
-1.982411365426370753e-04
5.997383700145531189e-03
-2.477389250962369789e-03
-6.304416576160299344e-03
-2.972157864544978044e-04
9.580881453471452956e-04
1.973418640017908249e-03
-3.175899242049825752e-03
3.363720989210852719e-03
1.725022696740239605e-03
-3.224296677616378132e-04
4.927258859160302696e-04
4.467369485653197568e-04
2.916185674379699285e-04
1.588164602981932813e-03
-1.147976351251395362e-02
-1.853879946938184753e-02
-2.933563848839324060e-03
-3.712326368792573036e-03
1.600042981048424822e-04
-2.407901056955303806e-03
5.130946820365601133e-04
0.000000000000000000e+00
0.000000000000000000e+00
0.000000000000000000e+00
3.266359014857753412e-03
1.046303358224175747e-03
-1.289473586456875865e-03
-2.792157782898937058e-03
-1.901657679155103423e-03
7.172970934826063648e-03
-2.085672653161351072e-04
6.405750002669668942e-04
4.710042445254013568e-04
5.081926905532086662e-04
-9.766148787259871546e-04
3.656851792823180287e-05
2.942442209996611220e-03
-8.038215535487975389e-04
-3.619297309261662338e-03
-1.890170462724954318e-03
1.313295829228960856e-04
-7.661779332943425939e-03
-4.876915544489221835e-03
-1.467275845818591688e-03
-2.846042151265032417e-04
1.271213630037856292e-03
-5.548554596359245219e-05
-4.271557329364456652e-04
-2.272013457599132442e-03
-8.791598917555822361e-05
-4.225875395068413669e-04
7.611038586382498639e-03
2.129605726543108788e-03
-4.907074661087667232e-03
-4.365711016911384169e-03
1.731416854025898556e-03
5.774779792784043124e-04
-9.330945606656673025e-03
-7.054509817444613775e-04
1.733272420235546342e-03
1.305727918112041920e-04
5.033218182634540197e-03
-3.272117130510901733e-04
-9.967440194790995120e-03
3.271150781411382661e-03
1.546063095376017929e-03
1.044272321567582193e-02
-2.472849932034575007e-03
-1.083339768436032067e-04
4.197637081711933817e-03
-1.533519398940039538e-02
-4.122379404161434155e-03
1.620414358883662080e-03
1.364534089037399995e-03
-4.934503530773936978e-04
2.925964001787894134e-03
-6.741399843690716381e-04
-4.457476074668874529e-03
1.214567761775541899e-03
-9.166884535354172595e-04
2.541504478973435118e-03
3.205319234091336469e-03
2.733878807047962663e-03
-2.171775458054975814e-03
-8.031900284676185206e-04
7.662146047573294800e-04
4.225104669870587311e-03
2.043135106182239827e-03
1.563262022811924817e-03
5.949373145503132317e-04
-1.094227900632300729e-02
-1.402714057429134582e-03
9.329931731974092307e-04
-1.619303928913500262e-03
4.003130540450493095e-03
-5.254193891471713174e-03
-1.264834809822933592e-03
-1.255901442272754466e-03
1.183612051971894138e-03
1.497466043400930494e-02
1.675780510518592602e-04
-1.211829563333987475e-02
3.911994841442689198e-03
2.197906305852615708e-03
-6.806376809077607261e-04
-4.415432075038103719e-03
1.576769211583478950e-02
0.000000000000000000e+00
2.033610997580384983e-03
0.000000000000000000e+00
0.000000000000000000e+00
-5.986594661683129108e-04
2.088668956827179676e-03
-1.265539363082067003e-03
1.802038295872993153e-03
6.038170599982986293e-04
-3.852539741990544837e-03
-4.632148618154103420e-03
-1.937035994430159457e-03
-1.379583311836489771e-03
-3.364365034818469526e-03
4.679149275960620309e-03
1.462444209666141518e-04
-1.653418020938084501e-02
-5.102153584958042838e-03
2.091558410915787813e-03
-1.635293791520920107e-03
-8.811699619323498656e-02
-5.327758776610435482e-02
-4.389252860616497942e-03
4.178088417798730557e-04
-9.075842767084953263e-04
-1.953112656872454337e-03
4.865846670911989219e-03
1.462337987696065225e-02
1.949629070292933182e-03
-6.534349718298755713e-05
-3.019055911905182423e-04
3.743796564618618542e-03
-2.237063609527660535e-02
5.975562398517059431e-04
-1.009146800924799400e-03
8.006733432325923577e-03
2.252702807764032575e-02
4.091428261499096067e-03
1.369060263482638283e-04
2.004626205202592135e-03
3.523117283131055582e-03
-1.792029320820969981e-02
7.253680689305653552e-04
4.370659798015098818e-04
5.871960812264394487e-03
-3.563070871822446046e-03
-8.910800243008679990e-05
-1.767512389697228426e-03
-1.746103932774355574e-04
-2.427996317670070778e-03
3.613828387407650149e-03
-6.763065161950433061e-04
9.514141057779241725e-03
0.000000000000000000e+00
-7.153940580436236873e-02
-1.730473944851940171e-02
-2.395543210739663111e-03
-3.252584835734761981e-03
-2.825223768114353017e-04
-2.212009367354260804e-05
0.000000000000000000e+00
-6.138753167819537178e-03
-4.103225872667260778e-03
1.136975503460212677e-03
0.000000000000000000e+00
-5.425980263808629842e-03
6.327981646900115824e-03
1.204778990282103987e-02
5.884400238907724900e-03
3.986444307777858658e-04
5.916328647047684741e-03
-1.380640301535747145e-03
-4.162938326940701975e-04
3.754254161829233445e-03
-1.115619071304618098e-02
-2.946198480888915627e-03
-1.022400138577920885e-02
-3.513295424721647655e-03
-3.122955219656034422e-03
5.098409850521109631e-04
-1.383274353588845318e-02
-1.018225785478479503e-04
-5.120925688538609504e-04
-2.256635048355650050e-04
-3.323788817166565147e-03
9.670694720390282662e-03
-2.546920172015653717e-03
1.174984674738775541e-02
-1.740075354432408551e-03
3.663351754960739344e-03
2.078525891942916131e-03
-6.073147763074955748e-03
1.963290194675291860e-03
1.818805210480456793e-03
2.564907847417466011e-03
-1.986477209400570128e-04
1.062320965015348074e-03
7.302807143955160861e-03
-1.954577500338090226e-04
2.537284667305952143e-03
1.085278086857454326e-02
-1.161540350821859162e-03
-5.361461545597717704e-03
0.000000000000000000e+00
-2.082161856752817036e-03
-1.868382902704029611e-03
1.021224704664392205e-03
1.627622748014036138e-03
4.532533522674396000e-03
1.474238088660440428e-03
1.984701981156453566e-03
-3.996407563367881423e-03
7.167260847355577582e-04
-2.592354680270589156e-04
-3.112422198902590250e-03
4.541258410101295319e-04
1.714043798910314803e-02
-1.583452096733965839e-03
5.723091099901067699e-04
-1.287072105704407899e-04
6.978535558710611099e-04
-2.455220310217141183e-03
-3.366964090701199223e-03
-1.032905020223522791e-02
2.630552810473828218e-03
8.931886857208519437e-03
3.159103408455744832e-03
0.000000000000000000e+00
-7.300342540831304683e-04
-4.189677922625732916e-03
-3.323992469487488822e-03
-9.712004191363406234e-04
-3.394018690075759396e-04
-1.020801413191535457e-03
3.506183155312546634e-03
1.808629040241952314e-03
-3.899313660468561524e-03
0.000000000000000000e+00
-1.337624081729081225e-04
0.000000000000000000e+00
-2.156560076841547088e-02
2.966814574296794491e-03
-6.005717361676743068e-03
-1.417641460038155873e-03
-4.235577365705432869e-03
-2.064601213730475702e-03
1.089248793555549306e-03
2.128637769076756770e-03
-3.921633008364413218e-05
-2.165333571826606653e-03
-4.223066324114622440e-03
0.000000000000000000e+00
0.000000000000000000e+00
4.279314183043642084e-03
-2.402673269559174542e-04
3.765951085236811662e-04
-3.930581753362673292e-03
-1.227955386612136161e-03
8.283931385174772956e-04
-1.269084645273165272e-04
-3.962000741401236655e-03
-1.183609974150110150e-03
0.000000000000000000e+00
-6.675038664876440687e-05
3.565142197796395784e-04
9.833527730335203665e-03
3.369357813952726741e-03
-2.806132408604848118e-03
2.796046956910088442e-03
1.027618899718893419e-02
1.215266004383271743e-03
5.287646576593326266e-04
-3.509454287749264045e-03
1.849760318891682364e-03
0.000000000000000000e+00
0.000000000000000000e+00
-3.516960657134065877e-04
-1.622107573279319543e-04
1.662331253098227888e-03
4.387016339419922382e-03
2.115203850368703453e-02
8.381628276349235504e-03
-2.161872348896887522e-03
-2.203692076604624270e-03
0.000000000000000000e+00
0.000000000000000000e+00
4.368753456700818398e-04
2.772372435168239495e-03
6.574041616539147079e-03
-1.764981369417166447e-03
-1.998216201384797001e-03
-2.512602275704577115e-02
7.886830102197305362e-03
0.000000000000000000e+00
-1.805062943562462557e-05
0.000000000000000000e+00
3.675201594527501892e-04
1.835516694491472721e-04
0.000000000000000000e+00
3.809195051252679820e-02
-2.118159898517020003e-03
1.371527244215410904e-02
-4.402521731381482673e-04
3.843980722368471777e-03
-2.973752523873745765e-02
-4.483639605635271735e-04
-2.404887296733678077e-03
1.335114403610170551e-02
-1.631490744530332115e-03
9.149945785398396966e-03
8.913006588692810872e-03
3.245494532338967855e-03
-8.771270355868809963e-04
0.000000000000000000e+00
-7.156087883579616803e-03
-2.472741323080412772e-03
-5.455928063406847127e-03
-1.903879778590114071e-03
0.000000000000000000e+00
0.000000000000000000e+00
9.454417471237346949e-05
1.057689050222902598e-02
4.570625525190086767e-03
2.253764697632649680e-03
-6.933815542448146154e-04
-4.942161838782826999e-02
-7.533477985883983187e-03
-1.160644451455952221e-02
-4.349975696978911391e-04
-6.544638183752724166e-03
2.294706880297950509e-03
1.956878303776479668e-03
1.031878986201901138e-03
-3.207268456477166928e-03
-3.245671906846712572e-05
3.056351341085849246e-04
2.736282873024531610e-03
1.909419809042958802e-03
1.543294766259472282e-02
8.091238062880548587e-03
1.456505292121125159e-02
-7.717350332242715969e-04
1.121004081563995022e-03
1.817484208912206343e-04
1.228218940147207693e-04
-3.005528413305359053e-03
-8.017462649294114074e-04
2.053372916649867045e-03
1.742809394927240327e-03
7.629978308861884786e-03
6.700812382307076709e-02
-1.318293731827460723e-03
4.185227608478997788e-03
-2.015822595989375920e-03
-8.484554858221131368e-04
-5.255963416901632788e-04
-2.250240297012542304e-03
2.437746151385562256e-03
-6.451141573886664616e-04
3.215546036048579602e-03
4.373316055606719238e-03
4.377856618964487585e-03
1.299886626312777085e-02
2.849369088648881238e-03
2.160170921137317956e-02
5.184269718232285308e-03
1.440578773894200327e-03
-3.406776796293967211e-03
1.028944048641044622e-04
-1.879487265952805566e-03
-1.862019624254451647e-03
1.110711336642713869e-02
-1.421534731341181097e-03
-5.399958527516952657e-06
4.430706906020834388e-04
3.150044512973837734e-03
-1.017965452364701486e-03
0.000000000000000000e+00
-2.103801524278820856e-04
-7.679813783728434325e-03
-3.996338731904248466e-03
1.569607858554037099e-03
-3.985402373578887853e-04
6.192007042494427054e-04
4.292541150411545610e-04
0.000000000000000000e+00
0.000000000000000000e+00
0.000000000000000000e+00
2.134223786939688197e-04
2.291236551064609352e-04
4.560751676858477294e-03
5.018735153880203581e-04
5.869587691418595233e-04
-1.281851265072874000e-04
3.348319923822305755e-03
1.230840026251616738e-03
1.224180636094275186e-03
1.825597723926312109e-03
2.383991170296359281e-03
-2.826807803678173464e-04
4.538900420494433770e-03
-8.679752020585574908e-04
5.837993781450274804e-03
-1.638387740991880531e-03
-5.862484455986215204e-03
2.750280286674121853e-03
-2.647046030305928895e-03
-1.712287981608723395e-03
1.671058470149747264e-03
-3.120305082249542872e-04
-7.194854006554107177e-04
1.824103084725934535e-04
-4.510251954734124068e-03
1.457881232628117571e-03
1.209514873381891190e-03
-3.958507364029372616e-03
-1.474987759739829728e-03
1.595642704366880774e-03
8.907260982180350466e-04
7.766286823456037582e-04
-5.779808713919955265e-03
-6.761497026322528569e-04
-1.043306076476803977e-02
7.629384888763258640e-03
1.096389025748318799e-02
6.906439010301627067e-04
6.388353683242903704e-04
-5.915568839248282369e-03
-1.845412624510235243e-03
1.097308017143639770e-03
2.675751881256967224e-03
1.022219433708103061e-03
1.094422313620054899e-03
2.416893015551131382e-03
-4.524125615032975438e-03
-7.851182786400994623e-03
2.391990622939383759e-03
-1.498844199504621418e-03
-5.278782973679541600e-03
1.619364329240046774e-03
9.160898410692933438e-04
1.237758853216283693e-03
-8.172987922949724940e-03
-6.519758537036558950e-03
-5.611810016009750011e-03
-2.896347151211802699e-03
3.096922619397594629e-04
-9.252150727547420747e-05
7.613119014895383327e-03
1.384217475796876160e-03
1.035767637306635354e-02
2.326694257165584211e-03
-2.145417915352829607e-04
3.477170676799048142e-03
2.698558570713664902e-03
5.359099502386079766e-03
2.398407384338565771e-04
2.883883418632328735e-03
2.195967984930642745e-03
1.312681266996110338e-03
8.931322969929050273e-04
-1.817308225906929392e-02
3.973997397045202218e-03
-5.151370528642924308e-03
2.204783192250847263e-05
-1.865019283544390970e-03
-7.771615458452158128e-03
-9.283158191198360651e-04
-2.575583700109514845e-02
-3.551616173176362200e-03
-3.607664221198956384e-02
-5.890847400817168789e-03
8.440468954576823852e-04
0.000000000000000000e+00
2.255469758762589777e-04
1.307152064990095780e-03
-6.346962881640158928e-04
-5.226108029840828301e-04
-1.075178091099625831e-02
-4.491663141824703970e-02
-1.399500332336067049e-02
6.088739425804692851e-03
0.000000000000000000e+00
-9.875973897911958024e-03
1.014113826691344583e-03
2.361314957229605251e-03
6.539045019360238686e-02
3.891137853814410907e-03
2.976380448720471628e-03
4.442475853004040215e-03
3.001535132668896322e-03
-2.012027883697882231e-03
1.614894648750516326e-04
-2.599461863995425510e-03
1.385331267984092228e-03
0.000000000000000000e+00
-4.356578726686561459e-03
2.800749701395671525e-03
-1.398468470001864618e-02
2.235755192740925294e-04
-6.564296236533972756e-05
-3.223194306616503427e-03
-6.276798532245331241e-03
-4.848920292669131604e-03
-1.106613447173061468e-02
4.547696758074226328e-05
-4.421570773761583119e-03
-8.340058639277336816e-03
-2.413048558998046392e-02
-3.303198704429065888e-04
-1.722041808082464334e-03
-7.989006832568147642e-02
-4.059477672299646538e-04
-3.679837491167336550e-04
1.417753345919344930e-03
-2.085707194637948132e-03
-2.828952532920657285e-03
6.203778641864880761e-04
8.076524064540339942e-03
-2.795849975423050048e-03
1.031025547125493649e-03
-8.229176664650106159e-04
5.328279836133381284e-03
-2.523247811230086221e-02
-3.875225478316127181e-02
-3.653047212025501561e-02
-1.596716938983294004e-02
-1.762122957714151337e-03
-4.874890256427948099e-03
3.180631930017263891e-03
-1.301245885728203808e-03
5.508497569550371495e-03
8.590976297234527090e-03
2.797103367202460281e-03
5.336069620878070019e-03
3.020357842504653705e-03
1.229721050281517040e-03
2.033510449900268174e-03
1.303514492189137728e-03
-9.525906986405340005e-04
-1.127773469580703279e-04
-3.924279666429272145e-03
-3.840335239232335607e-03
4.036503675426384406e-04
-3.005240797321526245e-03
-1.378831515714670037e-03
-1.460970785444558849e-02
-9.926955730870426139e-03
-5.384297835166492942e-06
-4.388793191242291308e-03
-3.326821076209532813e-03
3.954884604843653985e-03
7.131164495286940750e-04
1.164187037780822645e-03
-3.926156665131727563e-03
5.576218521067874802e-04
-2.624430140545030662e-04
-8.683006390469285652e-04
2.725752662221463986e-03
4.188182602603383463e-04
2.022067648845929464e-03
-1.375688964179911820e-03
-2.686475482529237287e-03
-2.449507834024522695e-03
-3.587734354633260992e-04
6.834071909282243189e-04
-1.870748474505838903e-03
8.103246217195757403e-04
3.043727132371925465e-03
1.928876082354535892e-03
1.262578933076958620e-04
3.368190248486719121e-03
3.726651584744314913e-04
7.794992610861574802e-04
0.000000000000000000e+00
6.651546176720448539e-04
-1.292236656001991869e-02
-4.570012379040914140e-03
2.389285373602360960e-03
1.828858173061787603e-03
2.097282069102478566e-02
-3.728128762256111353e-03
-6.973287364268243582e-02
-3.287433045651084237e-03
-3.011818287622804353e-03
-2.682991695258026346e-02
-3.862284254974104013e-03
-9.194074504349896912e-03
-5.188292527214455850e-03
-3.891076610514434837e-03
5.878268870189821971e-04
1.644492827772866964e-03
1.785542370447619780e-04
0.000000000000000000e+00
6.821085414162160682e-04
-6.154052273200344425e-02
0.000000000000000000e+00
1.798593361663947468e-02
-3.044464472540426040e-04
-1.155147408374194518e-03
5.729099345692708484e-04
1.735128725594755348e-03
-1.117585778347945924e-03
-9.385139239912203626e-03
9.048929298970977142e-04
0.000000000000000000e+00
-3.506297145906577309e-04
-3.692886255477261133e-03
1.345851489978763197e-04
4.115537210481980644e-03
0.000000000000000000e+00
-1.337624081729081225e-04
-3.413650506190895467e-02
0.000000000000000000e+00
-7.021815057537592573e-03
-9.827865302751355100e-03
1.485799198072602911e-03
0.000000000000000000e+00
-4.585563607046974285e-03
3.522689245341460002e-04
-3.272199923250487287e-03
-1.640292226658849413e-04
-2.020118773209400153e-03
-3.784363680884609334e-03
-2.435910168776712556e-03
-1.720657013044575839e-03
-7.249056812846608848e-03
0.000000000000000000e+00
2.507011649469773062e-02
6.505258910325753020e-03
6.198467201765498445e-03
-2.230372311879926829e-03
-1.102035531877910111e-03
7.546751469271309508e-04
4.791151482825386013e-03
7.598281240687581976e-03
1.657721812187570908e-03
-2.289015864769534947e-02
1.814096410156415887e-02
1.561160863611259914e-02
3.136621517718657251e-05
-7.890118809860655752e-03
-9.633137664055163238e-03
2.911319812504717473e-03
-7.740132651275075798e-03
-8.406789897175561506e-04
4.339760438501812784e-04
1.957385449353888154e-03
-5.244764160113954930e-03
-4.176408654798118882e-03
-2.339061096404940101e-04
-7.865118062502271523e-03
-1.401527941741724341e-02
8.968205086979855536e-03
-1.495178226240780669e-03
-6.554272097930228906e-04
-5.296928088945610652e-03
-6.145610787063257585e-03
-1.695976499915481921e-03
-1.123342634920586640e-03
-9.663069190470881080e-04
3.730079236772368173e-04
-2.165850871891068872e-03
-6.068584876789920313e-03
-2.845502057064109701e-03
-5.671642283507655029e-03
-1.230841604772866648e-03
-1.011498186740055795e-02
2.762353804259739479e-03
-5.877404499288176910e-03
-6.323168293904686717e-03
-2.239582706358981233e-03
0.000000000000000000e+00
-1.274958111444930622e-03
-6.629776296412837402e-03
-8.220599817238190624e-03
0.000000000000000000e+00
4.546713784471039313e-03
2.145392263758248187e-03
2.123391829807410745e-04
-2.308946279616397616e-04
-5.411201756123535126e-04
-7.301238277056482096e-02
-3.725437794011206977e-02
-4.931907556597987449e-03
-3.955333217787411482e-03
-2.468725955275239293e-03
-2.613537651282218238e-03
3.175841167474183387e-03
-2.585619142200359932e-03
4.973159012740657921e-03
-1.800441815908818220e-03
0.000000000000000000e+00
-4.591675242049770775e-04
1.270605933924371170e-03
1.422706077406157041e-04
1.345610790280503052e-03
8.472798893997306657e-04
-7.597751990956477276e-03
0.000000000000000000e+00
3.013531055088037604e-04
2.782122912717040989e-03
5.589107926269566099e-04
-3.893164605282274995e-03
5.078635954407981212e-02
-3.481433087204463192e-03
1.470207690782673643e-04
-1.671111205610086980e-03
-1.304530423020728310e-05
7.789465202265303222e-03
1.092629550408013434e-02
-2.580773121802373924e-03
1.688608977902293943e-03
-2.797752952311859716e-03
-3.743569094018159554e-03
-7.752931324798795730e-03
6.271333117489218036e-04
3.667564963911615350e-03
6.245529724513784568e-03
-1.099903016390990971e-04
-9.564400024408303315e-04
0.000000000000000000e+00
3.149569793143647961e-02
-6.895375011328450793e-03
-3.274171417756190951e-03
-7.508746818084613243e-03
-6.725768015049481650e-04
0.000000000000000000e+00
2.783160478797233866e-03
1.111675328793556954e-03
5.699301157039994006e-04
-2.512736028216755978e-04
1.888858394543581343e-02
-4.991584478721796444e-04
0.000000000000000000e+00
0.000000000000000000e+00
-1.125583280019767669e-03
-4.924150927744785043e-03
1.444185564109259315e-04
-2.562461207596407678e-02
8.204100210030037393e-04
-3.607111865615210237e-03
-1.363637753057577243e-03
-3.338347677487988208e-03
7.177351640034934557e-04
1.151995894532670218e-03
6.890290742395019895e-03
1.176234187015425025e-03
1.673188189390444752e-02
4.802940619917640992e-03
-3.827713773810795250e-02
-4.059506006885223173e-02
-1.830338853956866088e-03
-6.325703703758929833e-03
1.860131373149459359e-03
3.333336883998334714e-03
0.000000000000000000e+00
-4.889858457279006032e-02
-3.161867741470585080e-04
3.880345363742602766e-03
1.039431964300968018e-03
-9.463694909073213767e-04
4.511140483287919521e-03
4.020132079035625312e-03
4.122355990135489513e-03
9.419433382898080489e-04
1.643500583833132009e-03
3.802117779329790195e-03
0.000000000000000000e+00
1.089986495644976053e-03
0.000000000000000000e+00
1.335740868239806956e-04
0.000000000000000000e+00
6.955786913305531073e-04
-3.581780033053811457e-02
-5.095916679483617623e-03
4.305675073614665055e-04
-1.785886737702030522e-03
-1.394023825411310445e-02
-2.113305612091882432e-02
-5.919061048289174509e-03
-1.017688713368408715e-02
2.186361848985307783e-03
-9.207637880861990623e-04
2.955940793589922400e-04
0.000000000000000000e+00
0.000000000000000000e+00
5.107838291662815389e-03
1.813133706869378414e-02
6.030608729023181902e-03
2.186086712352022093e-02
-3.484780193730302456e-03
-2.010100665592892775e-03
-2.115494686110590858e-04
5.192961041157052437e-04
-7.151113276555920483e-04
-1.433549742943954024e-04
-1.316948407570290788e-02
2.312100146633100286e-03
3.595393086844711223e-03
-1.638564735135251678e-04
6.649977962894837490e-04
-1.477277167361641403e-03
-1.268350988777445240e-03
-2.213419590980249610e-02
5.094819168434838556e-03
-7.262391540914327204e-03
6.022683590879392319e-03
1.395960869006728899e-03
-1.532679849850807768e-02
-2.687323039768406158e-03
-1.685433471829114391e-02
-3.255494766002901569e-03
1.673416298897002091e-04
9.577162184630336368e-04
-1.816574250656616393e-03
3.640355859237975542e-03
-7.179235998455789358e-03
-4.448340829591907603e-03
6.696957343616248863e-04
-5.889939425579538909e-04
-1.396208285476629822e-04
7.802943049765690168e-04
1.081273105420937171e-03
3.439820631689944827e-03
-3.102615389064750985e-04
2.410857803110990228e-03
1.224826534652380351e-03
6.383834259212103901e-02
4.131676165171794396e-02
7.568428369899286856e-02
5.032709059606225999e-03
1.303004803252289954e-03
1.618348454355099690e-03
1.382708983964874927e-03
-5.673608962954216489e-02
8.523443720080924046e-03
2.250782616563056036e-03
-3.467335826625062988e-04
1.252037671031338032e-03
7.958818835098103615e-04
-1.554940292456928781e-03
9.381408091342483858e-04
-7.227929942192728692e-04
3.686774238027352361e-04
-8.883867605367794023e-04
3.734255993381931094e-02
8.864292619951511312e-03
2.221741922928984706e-03
-4.927551840175277724e-04
-3.027815306210890692e-02
-7.384181210479419562e-03
-7.059443421300124876e-04
-3.278395423253702406e-03
-6.140296020875627347e-04
6.213269220021648900e-04
-2.174103969215391251e-03
5.639207715081676411e-03
6.520810062305180477e-04
8.026818366666325574e-03
2.535121158253866706e-04
4.462606852910490363e-02
4.597392726888648029e-02
-2.480622572489152473e-03
4.775059553138078644e-03
-2.118656981104649790e-03
-1.567961183346446843e-03
1.710780849744503868e-02
-1.539671685254931192e-04
2.134223786939688197e-04
0.000000000000000000e+00
-6.963565833077476697e-04
0.000000000000000000e+00
-4.504272848255000882e-04
-7.279504345878657322e-03
4.171701735555382977e-03
-3.799550562831163818e-05
-5.031503515930585251e-03
1.375915358271961701e-03
6.835736381509198434e-02
1.800806453339036622e-04
6.123169212271590417e-03
6.732308588135149305e-03
-3.207733813518902355e-03
2.402907568781557576e-03
1.375700253545175189e-03
-1.942320495576004480e-03
-1.652046409353562229e-03
-4.444481138144202800e-03
0.000000000000000000e+00
-2.359070637142155608e-04
-7.300667316387314185e-03
1.472840074137515571e-03
-3.195424720523194588e-03
-3.350314704289002188e-04
-4.449169550474937332e-04
0.000000000000000000e+00
1.203901008817298270e-04
1.203901008817298270e-04
-4.556602277187219558e-04
-2.004480192317131078e-04
4.802865066485116803e-04
0.000000000000000000e+00
-8.730200951647330409e-04
0.000000000000000000e+00
-1.658340399982494995e-01
2.770048245244987727e-03
3.174823269106666433e-03
1.364649735196141189e-02
3.996513849185600242e-04
-4.275152262047559812e-03
-1.298320496943119844e-02
8.836140952886770280e-04
7.078980449543169524e-03
9.658985577070372530e-03
3.298594728194753634e-02
3.114164744572857357e-03
7.906309465058328689e-04
-6.096146983203047827e-03
-7.406775798528227907e-04
-3.772375515135169451e-03
-1.518408109336077255e-02
2.019072199241308575e-03
4.520311020391345975e-05
-2.877730933673416144e-03
-3.948738766770459874e-03
-2.496609680488933326e-03
-3.364661778069369803e-04
-1.761720773020317155e-02
-4.032592737931749226e-04
3.102595558116555668e-03
1.425591702820232509e-01
6.905443602977085621e-03
-3.580945954212131493e-02
-1.233317342717827995e-02
9.294497087207241950e-03
2.664291185007996066e-04
-3.144857799109894610e-03
-2.316974106909128542e-03
6.994761377158547613e-04
-2.460120383557949826e-04
-3.997983386254449524e-03
-4.443859723300963051e-03
7.855165678338464283e-03
-2.802388241564669150e-03
-4.900221347542308044e-03
-5.052442032211653354e-03
-2.911446106298547915e-02
-2.854384242946910594e-03
-4.631534749997005124e-03
-9.719476517220184547e-03
-2.844481509563222179e-03
-1.131463983060119723e-03
-7.228379644422939544e-03
-9.940510820605458209e-03
2.837308347557449591e-03
-3.344532554984777639e-03
-1.567566169987776731e-02
7.382629321825562438e-04
1.365543297468770415e-04
-2.426626414940750032e-03
-2.766278047924560315e-04
-2.225746537988728888e-03
5.330141802418076474e-03
1.333513517060103864e-03
-2.482481448873698118e-03
-6.570148727351907483e-03
6.775626836861187857e-03
-3.095945462532728818e-03
-9.777309238714040809e-04
-2.552640598366043029e-03
-4.080711240649157606e-03
2.414955853792785656e-02
2.688335620616802446e-04
5.622351450969563166e-03
1.849140361762717641e-03
-5.591589075398799291e-03
1.040743547045423507e-03
-3.295486921046365293e-03
-5.040721795438077128e-04
4.843120774441530239e-03
-7.061382265722713526e-03
-1.216861988428301344e-02
-1.708691770368125223e-03
-5.022057141677517718e-04
-1.519609739920066080e-02
6.110223187690588462e-03
8.644704321805005837e-04
-8.907574407370257019e-04
-1.223184170283332347e-03
-7.559986565105970141e-03
-1.008030302555357324e-03
-2.635530731205487295e-03
-5.834560004222963994e-05
7.598150473045977953e-04
2.509420170647132763e-03
2.702943079827197122e-03
6.069827101223629166e-03
-1.329246125031706904e-04
9.192281852379680194e-05
4.480071945611321417e-03
4.993651047814038095e-04
-1.687844847018865179e-03
-9.793447609763872037e-04
-4.180584958075343228e-03
1.027298146819541173e-03
-4.049138498956403190e-04
1.529178199481144671e-03
-2.027523725090627123e-03
5.191888082878056386e-03
3.601610662203027970e-03
-8.975331216164966590e-04
2.092284384606038668e-04
1.492240200581133229e-03
9.053724860146563540e-04
1.435547966695938918e-03
1.358088462238136312e-02
1.246174759431552433e-03
1.308225197194880750e-03
-9.362881079741975157e-03
1.250123688194572889e-02
-4.630154773999049789e-03
1.634211159016745255e-02
0.000000000000000000e+00
1.041686734261370456e-02
-8.060645181205623386e-03
1.461477843664466718e-03
-1.026853591104079193e-03
2.905505007929794475e-03
5.716387056095450191e-03
1.496262604760493576e-03
-1.785544962005682816e-03
-4.013804218715050784e-04
3.615271905644781587e-03
-3.084516102889191778e-03
-9.129716430211486404e-04
2.517399003509234378e-04
-1.051675287556505176e-02
-3.272385556538493639e-02
-6.090826514869155696e-03
-5.553123786160295283e-02
-1.256699938547762956e-02
-3.847286053734816184e-03
0.000000000000000000e+00
-1.601175078536804051e-03
4.694550499346619200e-03
4.537146415375626295e-04
3.789553788990790862e-03
-2.840706369906055573e-02
0.000000000000000000e+00
-5.182069576326057275e-03
-2.460055117865239541e-04
-1.752086445861537932e-03
0.000000000000000000e+00
-2.550525113486291212e-02
-4.640568431979396995e-03
1.788932315583785905e-03
9.383383404538448444e-04
1.062490178317298389e-02
3.869956573656524543e-03
4.724364602869678131e-02
1.023821406246625508e-02
2.357808594578589961e-02
-3.865516416954350217e-04
-1.822038714514320323e-03
1.667899693303701025e-02
-1.658539589658314904e-03
5.757452406302189518e-02
1.687235493832746347e-02
-2.985083408971115487e-02
-2.517797719274428216e-03
3.207042737461526425e-04
1.283921343505298358e-03
1.231303880653834577e-03
0.000000000000000000e+00
-1.135856270912390369e-03
2.351993507602022186e-03
2.198373670254527221e-02
-1.939607891695864159e-03
-2.169474801847646127e-04
-2.313046646567405544e-03
4.390428549577017614e-03
0.000000000000000000e+00
-6.002854980153578268e-03
-2.461175348656939599e-03
-1.258847430130882045e-02
-2.737070858071899426e-03
2.383378838192388126e-03
5.287887397744188943e-03
3.689183911492011775e-02
2.346235515429719639e-03
-4.105999357774500931e-03
5.711820322850057717e-03
-3.039159616636144100e-03
-1.111092855129851287e-02
8.993266709363434419e-02
1.658368312647295548e-02
-3.749001434619710516e-03
2.120308198217178003e-02
3.332638368867732112e-03
8.995904840637746847e-05
0.000000000000000000e+00
-6.641321894030441961e-05
6.287145996153545996e-03
-4.030309637507025833e-04
3.170739388092441106e-03
8.360911937214245832e-03
-6.774076459334666409e-04
4.239257403315560384e-03
1.724427800364206715e-03
-5.597909700921136324e-04
-5.416957775091388663e-03
-1.945383445960423285e-03
-2.849543738759573977e-04
3.384848439529423991e-02
1.040113588686253018e-02
1.912583762171929727e-02
-1.089181262646138695e-02
-5.032180699558539815e-04
0.000000000000000000e+00
0.000000000000000000e+00
-6.869774597161619131e-03
0.000000000000000000e+00
6.053966666447947211e-03
-3.689206325323411001e-03
-2.209618014094830857e-02
-1.580935495329577377e-03
9.490312187107289178e-04
-1.173265539625166108e-03
2.101442192932646228e-03
-1.046601561723546479e-04
-9.738326121775178756e-03
3.121852158241690631e-03
1.617183112843056199e-03
-2.779054298746932994e-04
1.202639546726603581e-03
-1.999032050674696276e-02
-3.027844235682684761e-03
7.217211681809158463e-04
7.432093047768231937e-03
8.769362771601227954e-04
0.000000000000000000e+00
-5.645937052833067092e-03
-1.952796201122622920e-04
-3.301377438687183238e-03
-1.826239524653234169e-03
1.302314410338078132e-03
-5.973278006345197639e-04
-2.399333155705942952e-03
-4.840099330556061198e-04
-9.629741166220491620e-04
-3.025790378262423110e-03
-5.053499130432161091e-03
-6.580958288934696081e-03
5.155200774900997075e-03
6.427112851494568013e-04
-1.215086147263208342e-02
2.301926838222052244e-03
-4.286406269683636951e-03
-1.566860223590684159e-03
1.580714367401429366e-03
1.984383644800717661e-02
1.642494333640459863e-03
-6.501008459017760394e-03
-7.401067962538709216e-03
-1.554100324093327101e-02
-1.210277681589430566e-03
3.573485616920424324e-02
-2.457574731053431896e-03
5.704017316440178342e-04
1.516287778160098354e-02
-8.445690134699301247e-04
1.070491624901867209e-02
-1.257627888419045672e-03
4.982423157308001060e-02
9.943258725868958647e-03
8.574199752061443733e-03
3.927135843407331128e-02
1.922741048620528470e-02
-3.006669344372145392e-03
-1.200891155251047416e-03
-1.010599011496643744e-03
-1.341183511324846962e-03
-2.132754391960279823e-04
-1.300086526105103703e-02
-9.665160800616720820e-04
-5.263383695887190053e-04
2.146125535577853146e-05
8.413122943708996023e-04
6.207898924453406075e-02
-5.263290677041045518e-04
2.999081979046649103e-03
1.412730897506370988e-04
5.809882900776098830e-04
-1.536476763083700529e-05
-2.456503823566567445e-03
5.884080937226083066e-03
5.799784188373866521e-03
3.017047723055853604e-03
-1.540984132819814278e-02
-8.701399570839599617e-04
-1.220052566545507889e-03
1.965470994489182388e-03
-1.665790610613511252e-03
-4.792654174564778789e-03
-2.515070945416889199e-03
-7.983535265382212670e-03
-8.906455726649974754e-04
-6.831114557124622587e-04
-3.688342705621006773e-02
0.000000000000000000e+00
9.532511049045245318e-04
3.039476873433062578e-03
4.977985594118270081e-03
1.336539306102028229e-02
1.059206810841780040e-02
8.609261443844287058e-04
-1.154304316611060900e-02
2.531097567028741942e-04
-3.166043028072425269e-02
-5.634569016812722951e-03
-6.504569216306979249e-03
2.329925619984929766e-03
-6.826636318257243118e-03
2.452312110878241379e-03
-1.081906509095083898e-03
-3.808991905241968044e-03
-1.043613831550106556e-02
-1.870782267908062413e-04
6.558023720075443781e-04
-3.551452634965886592e-04
4.226625219384670283e-04
-9.930546675726711296e-04
-5.079497855562833779e-04
-3.112376862512374054e-03
9.385445193383176081e-04
0.000000000000000000e+00
5.615748468743523431e-04
3.508286146336072817e-03
7.721046663084543508e-03
-3.559718583129965882e-04
1.168920294327434545e-03
7.359648720335757507e-04
-1.802040666895706172e-03
-2.867617918511422559e-03
8.300388981136984715e-03
-2.189000553888487133e-03
-1.059223633273755462e-03
3.494458996242778360e-04
8.208658145447488008e-03
-1.039878776761552154e-03
0.000000000000000000e+00
0.000000000000000000e+00
-3.319348493714638251e-04
-5.969265778069607516e-03
-4.176090953628367602e-03
-2.256467633581934161e-03
-2.731932570782086376e-03
-2.858613817576086125e-03
-1.688388042246542070e-02
-1.622050183220169548e-04
-5.502901741791862457e-03
-7.056722310264805682e-04
2.715465622436798957e-03
-1.776946939341950832e-02
2.243129427813614352e-03
-3.906718970239845385e-04
-2.162889988276346968e-04
3.243446071007204980e-03
2.699323706679742935e-03
-3.500963613453967477e-03
2.024306151053465331e-03
4.579014944592401000e-03
-1.864754714677300390e-02
-7.101605811484575266e-04
-1.508339626534657089e-03
1.276514858909085371e-04
-4.192727933280267563e-03
1.105161957488130352e-03
6.461019081611472925e-03
3.155590626767008737e-03
1.376072004219699128e-03
-3.500027880683220100e-03
3.788659788267815815e-03
-1.794208886392145924e-03
-3.747093277594389701e-03
-2.600096969366033715e-03
1.773265824192876922e-03
2.692478029800438478e-03
1.479629785994175228e-03
-3.803933357446301084e-03
-2.234524556288948385e-03
-1.288104318827593825e-02
1.298728581302629592e-03
4.385647735354665402e-04
-1.795772890185488206e-03
3.295474036053183502e-03
-6.927766615338020037e-04
-3.894144688437538304e-03
-2.572984389611830919e-04
3.630354560085614305e-03
0.000000000000000000e+00
1.953477904919247513e-03
4.817222068905077301e-03
2.385348442573106877e-03
-4.629631761051399030e-04
3.241468041716199567e-04
0.000000000000000000e+00
-4.839979934049041567e-03
-8.897733141748350263e-05
0.000000000000000000e+00
-7.817486351709964981e-05
2.539339551721483436e-03
0.000000000000000000e+00
0.000000000000000000e+00
-8.983712992396558899e-05
-1.078283686189668647e-02
1.260517477601529783e-03
-4.692860464674381525e-03
-1.414751659677639020e-03
-2.027017295374595595e-04
-4.552522570400481658e-04
0.000000000000000000e+00
3.668651991179657326e-04
-1.685832922913744689e-02
1.047332289495776086e-02
-7.149685764514068477e-06
-7.214574325361577164e-04
-1.289144432427814790e-03
-1.483957040001191103e-03
-6.542190361510678625e-04
1.362057205919542380e-02
-2.061908212275065735e-05
-8.612103835763703762e-04
6.062013985959750252e-03
4.688857641849165231e-03
2.072639474290344230e-02
1.989704036762783221e-02
-4.453849335188792263e-04
2.569136440638347609e-04
6.424012687125591446e-03
1.804020059596593865e-03
7.856196343586068637e-03
-4.070500464316143159e-03
9.381551311467696379e-04
2.967588284276034740e-04
-7.660080090167179162e-04
-2.395559034949546254e-04
-4.979197661356777813e-04
-2.167320009373940350e-03
-2.781909114141905290e-04
-8.697623992520565981e-04
-6.875474726232171964e-04
7.148936866877276392e-03
-2.368958013866175353e-04
8.845586964826691531e-03
9.738060611123722232e-02
-1.155231672554088863e-03
-1.717357131474348312e-04
-4.718635296753645632e-03
-1.178650772672350418e-03
7.077585668479460324e-04
2.603115421618942132e-02
-1.395722671615215633e-02
7.215581168983389556e-04
-3.686814033109109159e-04
-5.891944369930867710e-03
-7.972760156805411497e-04
-1.675521537195463534e-04
3.076771604434807433e-02
2.239254559766609351e-03
-5.555268794035240478e-04
0.000000000000000000e+00
0.000000000000000000e+00
0.000000000000000000e+00
-1.693934042691796083e-03
-5.067196827828889145e-03
-5.224557566530603145e-03
-8.856902811421983471e-04
-1.342169698281225855e-03
-9.746961748208438298e-04
-5.559859686106057280e-04
9.289519320929429938e-04
1.082939825534135511e-04
1.227364148950444746e-03
2.251064276490979954e-02
-2.569805943180003267e-04
1.391823874290047322e-02
1.317577564800652271e-04
-7.058013446808978839e-03
7.424095942044407238e-03
4.023430025554678748e-03
0.000000000000000000e+00
-2.975982398472995657e-04
-3.786709413980385210e-03
-3.553370099395348342e-02
0.000000000000000000e+00
-1.391091249075983912e-03
0.000000000000000000e+00
-4.339762994218383639e-05
-8.579603207808990818e-04
-3.439664264535748930e-05
8.026748100290700440e-04
7.810846209657468719e-05
1.425883744391543166e-03
1.458357230193580746e-03
1.371232775133932958e-03
-5.946987406732371024e-04
-1.653895624522986121e-02
4.523975580485187979e-04
-3.850963225498023248e-04
-1.272415881433935653e-03
3.255865113693347246e-02
4.307177342272407498e-04
6.897341671450889005e-04
-5.929304578178856830e-04
-4.603274608051210158e-03
-7.170734536387985032e-03
-2.809426373226397121e-03
-8.230345687054882410e-04
3.346832336070513971e-03
6.656529394174084491e-05
-7.868306123047527287e-03
-8.843058196174806429e-03
-2.886882423282521350e-04
2.207815254851023395e-02
2.365668857556516708e-02
4.783732884454735971e-04
6.402144840603279929e-03
1.961679078681654101e-03
-2.654977297170514963e-04
4.817395465271337440e-03
6.912845548713344654e-03
2.552903714649183702e-06
0.000000000000000000e+00
0.000000000000000000e+00
0.000000000000000000e+00
0.000000000000000000e+00
1.023495025273164121e-03
0.000000000000000000e+00
7.906181730558254055e-04
0.000000000000000000e+00
1.184297541184461348e-03
-2.120953750691544071e-02
-3.888302147173582773e-02
-2.269949982883653558e-02
-1.355802734911072834e-04
-9.453172702429469762e-03
-5.576246579718669751e-03
2.281139884057381290e-03
-1.033731766694474807e-02
-2.427576830243408177e-03
2.513197852213241166e-04
0.000000000000000000e+00
2.437962386851016613e-03
4.511068470197912746e-04
-1.117097618628763722e-03
0.000000000000000000e+00
0.000000000000000000e+00
0.000000000000000000e+00
-4.346850455905412573e-03
0.000000000000000000e+00
-2.806112635509934753e-04
0.000000000000000000e+00
-1.162803928038772840e-02
-1.391345554398597077e-02
-1.470296830817048248e-04
-2.365099569323385158e-03
-8.215410714527478231e-03
-1.170802155074366149e-02
4.102800138656689105e-02
-3.642805354287933887e-03
2.194045297373017900e-02
2.496283920987794457e-03
2.512879286795997088e-03
-3.014800418998321487e-03
-1.180674676586642661e-03
-1.736841052988868104e-03
6.806392467431277471e-05
5.810130023497761184e-03
1.603564877437893478e-04
-3.345953937047580189e-03
1.228561156675933271e-03
-3.690724177155977744e-06
-2.333635799952506879e-04
4.365767699073166107e-03
1.129622573486804967e-03
-2.343755972597540149e-04
-3.726666829298551711e-03
4.560531225512594322e-03
1.019317939143624249e-03
1.192590753739601649e-03
-3.673240383052711437e-03
-2.322132555295003745e-02
0.000000000000000000e+00
1.014167031838359486e-03
1.309619802286163738e-05
0.000000000000000000e+00
1.567689928861626923e-04
-1.862885602034612675e-02
-2.728761953201480975e-02
-4.854286469006798867e-03
-4.916851478597259340e-04
0.000000000000000000e+00
1.224657592011087811e-03
0.000000000000000000e+00
0.000000000000000000e+00
2.952707465697088259e-03
-3.983700586679479044e-03
7.417564489489000823e-02
1.363854926546640691e-03
-2.574144211408815799e-04
0.000000000000000000e+00
-2.511094126778056108e-03
3.058848849402060702e-03
-3.013855018610906399e-03
3.857612219090840802e-04
-3.575480158068379544e-02
1.406298857268691027e-02
-1.133577516643718671e-03
-4.390549804316950383e-03
-1.166401311061251479e-03
-5.921723157420615870e-03
1.108967497735054977e-03
5.126274196694645272e-04
1.252864883799416915e-03
-5.025844115778425924e-04
-1.878888531676398436e-03
8.885242791741968004e-04
5.408104707099883153e-05
-7.115310024055930549e-03
-1.149933609483512822e-02
1.934619850981277251e-03
4.518395639940948162e-05
2.782051358354382855e-04
-3.277863787632353978e-04
5.869807480113237684e-03
2.492661633530145627e-03
-1.381953183955050412e-03
6.356163104866313944e-04
-4.761060582236967633e-04
2.541497692066001495e-03
6.921246246346000278e-04
3.176887454416045357e-03
1.053262885058623734e-03
-6.359821708951849089e-05
3.284571195017598009e-03
-1.226081458099242960e-02
-9.311186208522895941e-03
-1.806180516775349187e-03
-1.693418364299504979e-03
0.000000000000000000e+00
3.120209544824172898e-01
5.111656819005277672e-03
3.493817153416620136e-02
4.955584525826865414e-03
2.392964877485028678e-03
1.646835812550015259e-03
-1.445572714051645506e-03
1.273294947760885353e-04
-8.742219345193067565e-03
0.000000000000000000e+00
0.000000000000000000e+00
0.000000000000000000e+00
0.000000000000000000e+00
4.135390105825876780e-03
-1.842941742735597051e-03
-4.187385892692888426e-04
2.042448127234361757e-04
3.964844549651969259e-03
3.087645253896978393e-04
1.801301002614438557e-03
1.364387566911294709e-02
1.314594492408560633e-02
-5.501735100831546890e-03
-1.464019597702517956e-04
-1.451801321762923123e-03
-2.351182518193266563e-04
-1.455339893032241497e-02
-1.381275790510723509e-04
5.719586855063021717e-03
7.244672415703905938e-03
9.747909895049686408e-04
6.406182290032750540e-05
-4.824438123794172923e-05
-2.954725399000526363e-04
7.598769481889347446e-04
-8.253217337382895359e-05
1.231546289147743322e-03
-1.115628122791839216e-03
5.235819540918507179e-05
-2.276117061575642399e-03
-4.162502111948281763e-02
-3.198406751020611144e-03
3.055345859691497787e-03
1.307321679881887728e-03
-2.747442903579172101e-03
2.029228002013314103e-03
6.443005965993064098e-03
1.791609085963661750e-03
-2.472787954291185298e-03
0.000000000000000000e+00
2.248249979133051021e-03
-1.622183108932162901e-02
4.070318109989620237e-04
0.000000000000000000e+00
-8.786655033720457836e-03
7.278486118199755295e-05
1.412103757327265409e-03
-2.306384387400722640e-04
-6.634969558009619350e-02
-2.001306964542569518e-03
0.000000000000000000e+00
0.000000000000000000e+00
-1.865528979659155859e-03
-4.161624052282705995e-03
-1.277469984921136771e-04
-6.663330667982459571e-03
-3.648584581892942713e-02
0.000000000000000000e+00
-1.776514452363344787e-03
0.000000000000000000e+00
-1.570334323898289752e-02
-5.636316441339561840e-03
9.446129921353513606e-05
-7.235155160825658405e-02
-7.946592101857373816e-03
1.813712992146287745e-03
-1.741941070834078346e-04
-5.691816450275596038e-03
0.000000000000000000e+00
4.199650998246940380e-04
-2.626706168117741436e-03
-4.145875948121121798e-03
-1.386615853279256697e-02
-9.779417227991391709e-03
-2.437798905342961758e-03
-8.001815459377949321e-04
-2.202777205513602610e-03
-1.719365209274294551e-03
-2.502988548347846449e-04
-2.395159304300413863e-03
-4.371695731255493753e-03
4.359574021376037833e-03
-1.363242935627376109e-03
-7.510853667451813064e-03
-1.296218619315574107e-03
0.000000000000000000e+00
-1.635255109732174637e-04
0.000000000000000000e+00
-6.915296774759331806e-04
-1.541193301341711296e-03
-3.000945487529910194e-03
-3.680992662187516310e-03
-2.415770719576113001e-02
3.747095541038433547e-04
4.953934140806288619e-03
2.446741682018658756e-02
-2.921350817013940843e-04
-9.282034363944449001e-03
-3.666134780926273012e-03
4.164359447775093119e-04
-1.513539950063060545e-02
2.872389579225041669e-04
0.000000000000000000e+00
-1.447615513880485009e-03
-3.535086998841454210e-04
0.000000000000000000e+00
0.000000000000000000e+00
5.827760649873979824e-06
-1.500611749931085712e-04
7.185964836957055074e-04
9.582338077104141354e-04
5.140581951109023107e-03
8.944385296391247709e-04
0.000000000000000000e+00
2.775605063005304030e-05
3.818515558730168485e-02
5.076982923168145076e-03
-1.112219213227308868e-03
-3.793746607173588501e-03
-9.635347442856890751e-03
-2.282355849236038497e-03
-1.038200979289069731e-03
-1.153048888460717807e-03
-2.505230934672882169e-04
1.587879317698429786e-03
1.224828730492455659e-03
3.347811263562540732e-03
1.306456014005025201e-02
-5.259989385544354412e-02
1.521482667697584071e-02
-1.011102242151088078e-02
-3.007420449610857024e-03
1.773602551438732287e-04
0.000000000000000000e+00
0.000000000000000000e+00
0.000000000000000000e+00
1.197468190006141146e-04
-2.252712551604846639e-02
-5.557550344514858992e-03
-2.068100246971780500e-03
-2.478511721420432589e-03
-6.808461271670797864e-03
3.752883505514733199e-03
-1.986921500338818120e-03
1.286337795539193793e-03
1.114621574017313731e-02
1.844748534807857075e-03
2.194014983514240742e-04
5.837141442498567506e-02
6.066261101984249914e-03
7.463415071465673810e-03
5.730002588011789098e-03
2.289516590074108186e-03
6.100824939977539732e-03
1.419643576073861303e-03
2.954274037193862796e-04
1.836167665826560647e-03
-1.898463675796957918e-04
-2.463811911676154921e-03
-1.476196150398526030e-03
-4.063678264439040690e-04
2.162446841064081821e-03
-2.768679487296107997e-04
-1.716011283036145444e-03
4.161020818214235869e-05
0.000000000000000000e+00
-3.485337626676318721e-03
-1.586064459556313366e-02
-1.577074166901755578e-03
-1.658116487618929670e-03
5.206324406336199084e-03
-1.016037117644534322e-03
2.772525469548888562e-03
1.612024297175305401e-04
1.752317449494745355e-02
2.958671202918322727e-04
3.039855607682276405e-04
0.000000000000000000e+00
6.219265876244568954e-03
0.000000000000000000e+00
-2.909952066971337181e-02
0.000000000000000000e+00
-1.149639384849128129e-02
5.190175383349921248e-03
2.735422355054584198e-03
-1.618392812202885424e-03
1.387933280446717547e-03
9.463975745340996726e-03
0.000000000000000000e+00
-6.380660634188386072e-04
1.127401683035302461e-03
-2.141529712317815498e-03
-1.005144868964058351e-02
-5.367405102842738888e-04
-1.037693623217090470e-03
-4.474503701967694376e-03
5.772496046335652553e-03
3.832221337332403135e-03
-3.580102056686960185e-04
1.815815490986539974e-03
5.620522026734902504e-02
-2.443187485315235900e-04
3.633081047023426630e-02
1.883176772330467019e-03
4.299414995838942008e-04
-3.672650038696705088e-03
-1.885904801067262750e-03
3.573158775605636550e-02
4.243309739886694243e-03
-1.078085557018778733e-04
0.000000000000000000e+00
-4.408897052400765314e-03
-1.240949830655567151e-04
-1.004436011885436906e-03
-3.209840080095548403e-04
-4.432460026331568916e-03
-8.554901320683078788e-04
-5.075266512857838815e-03
-5.670172775353276608e-03
-2.249123170478253483e-04
2.370813138534499931e-02
1.230937296257782502e-03
-1.541530764920204808e-03
-2.836284558102616319e-03
2.692592969637388686e-02
1.461133111917017544e-02
0.000000000000000000e+00
1.361503774692681930e-04
3.732445906725454410e-04
-5.314025843889896112e-04
7.830958631876381573e-05
-5.389967653469965406e-05
0.000000000000000000e+00
-2.071986760409804187e-03
-4.672480709976056042e-04
-1.004552367546588136e-03
9.840590594513148534e-03
-8.115311520324904309e-04
-1.418107229316319280e-02
-2.185462151397143081e-03
-5.976256763391715396e-03
1.756135655425277396e-04
1.482416742433970494e-03
0.000000000000000000e+00
-1.072746728915464302e-03
-1.348585051431209136e-03
-2.556539719275178514e-03
7.330226012750356776e-03
2.037463183526813312e-03
5.572680158224518334e-04
1.781205602002231382e-03
7.143350133229363656e-04
-1.776415153483542004e-03
-4.496496039176153424e-04
1.344411533740407123e-03
9.433916766066498955e-03
-1.420623554424941572e-02
1.579183203733579765e-03
2.422564759560151256e-04
-1.043330842869260146e-03
8.437648132398328912e-04
1.051817071052199744e-03
9.696579776734829542e-03
-6.674589099440770158e-04
0.000000000000000000e+00
1.710278496458015728e-03
6.183448036965152536e-03
1.161714008790466421e-02
-5.555795765153939865e-03
-1.461585023145911457e-03
-2.450742871782138777e-03
-6.974662882025306487e-03
-1.094413141472105715e-02
-2.176170929056504486e-02
0.000000000000000000e+00
-3.067240500791843156e-04
-4.342543081027569994e-03
-9.244681923823752992e-03
-8.475885855348549991e-02
-1.559962900859609460e-02
-1.048221902236580808e-02
-2.380637976764676204e-03
-1.894468207859322482e-03
1.679405244963074481e-03
-4.632316415943544402e-02
1.898534900199703524e-03
-1.439632604403618234e-03
8.041557376012192261e-04
-9.815603784569863072e-03
2.563223871968458266e-03
-1.781177901298452645e-03
3.256943159724458151e-04
-3.665217038802601884e-03
-1.826886438934651434e-03
-4.253227944267079508e-02
-1.952594463399315999e-02
-2.353635221834265989e-03
6.842185532209444244e-04
7.705607053022210272e-04
-4.897020739175970408e-05
3.031866465345113559e-02
6.446049721156309502e-04
-1.348882355818780548e-02
1.059938127871630021e-03
0.000000000000000000e+00
-1.217921743843082549e-02
1.180012124016024911e-03
0.000000000000000000e+00
3.445055892602514832e-04
-2.597793889814387254e-03
-4.614050099398220279e-05
-3.560172454913897687e-03
3.785656207747433583e-02
6.902625282600616426e-03
-6.870506706431926160e-03
-2.033440851561535824e-04
2.059033503977450441e-02
2.543859687348605861e-03
1.012388095051026081e-02
-4.457461095260076105e-03
-1.700992507737376577e-03
-7.421913963665211032e-05
-2.351238625494836659e-04
-1.734759772208583316e-03
-1.582201169528046208e-03
-1.169138880411614827e-03
3.465853423012036933e-03
-2.468497753324500922e-03
-4.684109400590507483e-03
-8.291654259329591520e-03
1.360081680586240974e-03
0.000000000000000000e+00
-1.921035176836903167e-03
0.000000000000000000e+00
-9.626328324306841766e-03
-3.231303964245247490e-03
2.071344488541138670e-03
2.429324838062719549e-03
-1.173911471324925624e-03
0.000000000000000000e+00
1.445098570447588167e-03
3.163254065962219953e-03
1.433644284779550396e-03
-6.238770212687403532e-02
5.983499803160500542e-03
-1.347097066624340818e-02
-2.150361327539025355e-03
2.740277606095795244e-03
5.674140579610115372e-03
-1.068101499472700298e-02
-1.193372358875314891e-02
-6.916490990005857639e-03
-3.542314950691396991e-04
-3.060118169397157452e-03
-6.805491329524000418e-03
-2.722288549624060031e-04
-7.978682595790191666e-04
-2.823828018253973001e-03
-1.820387722376302355e-03
0.000000000000000000e+00
-8.945188743228993725e-03
-1.003943758423560181e-04
-1.102372566433336117e-03
-7.905747262341026801e-03
-2.472838499537868308e-03
2.035297046724885393e-03
1.248049562406564582e-02
-2.854847823332495697e-03
2.271437074010652056e-04
4.984951497070956063e-03
4.271525110147668738e-03
-1.888116898559040555e-03
1.048506631035310858e-03
-2.531011791600222983e-03
1.433218709834388092e-03
-4.707100876802225962e-03
-3.103863033664794584e-03
2.037964429921379061e-03
2.370474578653125435e-03
-5.830706585706389809e-05
3.521635891208978967e-03
1.625916687217123955e-03
3.321063884766310530e-04
2.202712922652390884e-05
1.336230433497737763e-02
-6.563540075622253771e-03
1.436553120648571347e-03
4.938478638998870796e-03
1.593791668279972637e-02
-3.290994967091506046e-04
-4.701155193728605471e-03
-2.256998498902700045e-03
2.015200125751545265e-02
-5.923726236619558834e-03
1.496538171823541714e-02
3.965955347474766799e-04
-3.702774028755543342e-03
-1.280067086523980005e-03
-6.656725279863521681e-05
-1.206774301485125577e-03
-1.718255170070808477e-03
-5.936460463034353222e-03
2.235567113521257489e-04
-1.018277780048802011e-02
-5.705502191052470168e-03
-3.542354250844708882e-03
-2.816336483555082273e-03
-1.316117959579525759e-03
1.311535588458950796e-04
1.536301454796489485e-04
-3.347398853408597281e-04
-4.041893162431557966e-04
-1.157406683927984705e-03
1.176950213072991414e-02
-3.385797714365832182e-04
-1.764078912273522523e-02
-8.646863463184242121e-03
-7.701153379398766388e-03
-6.397110817972846697e-03
-2.713250238489792968e-03
4.165447373919243108e-05
3.739274880577402038e-02
-1.208405555353716382e-02
5.387432188239235122e-03
1.792015976168738825e-04
4.627429189473802711e-03
4.927369557522180568e-04
-1.237659941460539630e-03
0.000000000000000000e+00
-6.183081471950462212e-04
-2.576603143753229165e-03
-3.177624219712286546e-03
3.711139651555141021e-03
-2.167763031479404221e-03
5.605512274778634736e-03
1.555038658668729708e-03
-3.774140653616412343e-03
-7.044277963070584049e-03
8.883292737930837573e-05
-3.579413891429204363e-03
-1.639616652198108357e-02
3.612890890877511630e-04
4.959553468401740580e-04
-3.529804148227795157e-03
-7.036771989704130106e-03
-1.870592371386625198e-04
-2.624695050839945774e-03
-1.329151331798734308e-03
6.919843671783781555e-03
3.809748021136473168e-03
1.177305957413751596e-03
9.852796133720705118e-03
2.536425479447942857e-03
-1.581305734310940042e-03
3.735454870421843140e-03
3.795268701841800142e-04
0.000000000000000000e+00
1.336758183614412260e-03
-1.146024181959112752e-03
-4.866538938515842521e-04
3.204162101033559973e-03
2.118797721775764545e-03
-2.119438839821812101e-04
-9.650365868791463083e-05
2.676024877998269512e-03
9.079949585441192406e-03
1.321096195900294500e-02
6.015509381371683846e-04
-2.888528045018493723e-03
-1.874384525936856989e-03
2.263101342567190328e-03
7.686041752697298814e-03
4.189926202201496824e-04
9.260286165892751527e-04
-9.140939468997522023e-05
-8.784356043739833045e-03
-1.642920788241371017e-03
1.752851814995455386e-03
-4.497899355467449393e-03
5.716198406289478432e-04
-2.788458189847791953e-04
2.789794292345550500e-03
6.389740358797803190e-04
9.957294790698404535e-03
9.300722819125691737e-03
1.401493535442158026e-03
-2.840060082124987954e-03
-1.610921438309276320e-04
3.018947023481456052e-03
3.007500741394400056e-03
-7.475042584667011825e-02
4.656494393648241996e-04
9.767426725968268199e-04
-1.461622398380465647e-03
-2.034485335506624679e-02
-1.147289056920656677e-02
-3.306177845319752118e-03
2.985517183459276990e-04
-1.267700087676226816e-03
3.584517037267801430e-03
-1.970710311031657110e-03
-1.158264361549420432e-02
8.005824557613248904e-03
-6.588654384227090460e-03
1.767955931042540507e-02
1.498571974901413180e-05
4.690950067608139727e-03
-6.180479787655864150e-03
-1.079938099217507162e-03
-2.469595462151714244e-03
-9.978137745055893921e-04
-6.289105908897947919e-03
6.948540910360264397e-04
2.215538112390929432e-03
3.146072384758743720e-03
9.271798598441802122e-04
-2.406313128334187923e-02
6.670588531047419445e-03
-3.451371343928986285e-02
5.736961054323061731e-04
1.707543700972439550e-03
7.794730519737684245e-04
-2.653652030692302700e-03
2.365161538285480165e-03
5.930537866656121699e-04
4.477446067461725819e-03
1.311436466011884055e-03
1.714274355313409560e-03
-5.077318251752030616e-03
-1.107873699377913759e-03
-3.239979696078887274e-03
3.765277007205750787e-03
-3.172060136952638970e-02
1.813871166898447856e-03
2.259259477942763931e-03
1.696522366341427900e-03
2.442272230772847552e-03
-1.691882038571107701e-03
-1.055264359525541484e-03
6.437841936057046030e-04
1.233660393699881645e-03
-8.317405219815949668e-04
-1.203179868755719457e-03
1.218912430157335696e-03
-1.644205407338549321e-03
2.042432709850498535e-03
4.493449371081017531e-03
-2.991831999080232091e-03
-1.888468330463556394e-03
-1.216938981633678080e-03
1.296262610355261189e-03
-1.427570095405432003e-03
-9.241008606034107654e-04
1.819033151806799455e-04
6.356543432752340128e-04
-4.369056647829063682e-04
5.318562529330433095e-05
-9.962247372822200658e-03
-2.706534874125250938e-03
-4.144664349260322213e-03
-5.607919640480907297e-03
0.000000000000000000e+00
0.000000000000000000e+00
0.000000000000000000e+00
0.000000000000000000e+00
1.430945660872283583e-04
0.000000000000000000e+00
5.016407302095242637e-05
-5.878696951192466331e-05
4.999184103768926878e-03
2.249067036477277789e-03
-1.489761979565744094e-04
-6.151450032051917691e-03
-2.001167310490434975e-02
-1.766415461189235802e-04
3.609193038505518342e-04
-1.371314056573555082e-02
-3.879658344702453798e-02
1.799400300778402717e-04
2.494719484488774029e-03
1.518654085673416582e-04
0.000000000000000000e+00
1.837539123321826288e-03
4.196648529214773438e-03
-3.714237293571441469e-03
1.776033360798208471e-04
1.655337925472655160e-04
-1.250151290622924778e-04
-4.968631015505389770e-04
3.232918961354327297e-02
-1.238971319266356751e-02
0.000000000000000000e+00
-6.663451110270028491e-04
-9.144665862379781473e-04
3.419186642246177738e-04
4.020261624140909545e-04
0.000000000000000000e+00
1.066760648863251905e-03
0.000000000000000000e+00
-3.669472109566718990e-03
-2.440044925397156410e-04
3.386059536740850299e-04
-2.222709176066269107e-04
-1.169859512504158315e-04
-1.778708391186669015e-05
0.000000000000000000e+00
4.629939176762120690e-04
-2.951517269840442598e-04
-7.966357983334484668e-04
0.000000000000000000e+00
-9.833528231713761694e-04
1.404404551096620751e-03
1.666709085515970116e-03
2.172168481010174762e-04
-7.233769633360301082e-05
2.068096172818409927e-03
2.708598349130407739e-03
1.707101205482675077e-03
-1.152456395359977801e-04
0.000000000000000000e+00
-1.216303497808293678e-04
-1.372975215153195464e-04
0.000000000000000000e+00
3.685280693478613489e-04
4.084896254468723515e-04
6.806392467431277471e-05
-5.922358270542545794e-03
-3.217499760365883830e-04
-3.857503586650742281e-04
-1.423121818967713155e-04
-1.205450496671937573e-04
3.194890800706895570e-04
1.695302748462718763e-03
-2.160808300581659996e-03
2.021888802345783026e-03
1.885087554633659013e-04
-4.185641014882663172e-05
1.069094629303929015e-04
5.422230406298083174e-04
1.541215464348817557e-04
0.000000000000000000e+00
7.778929823305810731e-02
-2.352302661252351178e-03
0.000000000000000000e+00
-6.142633727751518760e-04
0.000000000000000000e+00
-2.798839014990830965e-04
0.000000000000000000e+00
7.312732072143124980e-04
-1.071673984079772081e-04
-1.965556434437108334e-04
-7.858028317294731046e-04
7.004408920128877983e-04
7.558274246197008769e-04
-3.375129610828760118e-02
9.972707367695672013e-04
-2.075720458195921131e-02
-2.432166867412984684e-03
-1.391369785170956295e-04
1.590505777704390394e-04
0.000000000000000000e+00
1.583893788291536148e-06
-4.632110472756864383e-05
0.000000000000000000e+00
-1.335476411401907433e-04
0.000000000000000000e+00
4.095445067891119451e-04
1.870545664323763208e-02
1.315426477501513078e-02
0.000000000000000000e+00
0.000000000000000000e+00
0.000000000000000000e+00
1.339516305751973450e-03
5.241103334922914483e-04
-1.006572235323666001e-03
2.139104906839962188e-04
0.000000000000000000e+00
0.000000000000000000e+00
-2.389254436737330611e-05
0.000000000000000000e+00
-1.497885561825473475e-04
0.000000000000000000e+00
0.000000000000000000e+00
0.000000000000000000e+00
-2.197067568929562834e-04
-2.345874364096214512e-03
-9.789255816460447606e-04
-2.870042548311935518e-03
-8.235409355151555150e-05
-4.293110325340492549e-03
-1.758787963314149523e-03
-1.407064004360492060e-02
6.158038377614723355e-04
-1.442645346511028936e-01
1.044225797009090337e-02
-1.450851570847996224e-03
-2.827333455447215114e-03
-1.714639965652720987e-04
-5.029847604220648825e-03
1.361758006973980497e-04
0.000000000000000000e+00
-3.154528467841099821e-04
-4.260654558113147715e-03
-5.697538813923430401e-05
0.000000000000000000e+00
0.000000000000000000e+00
0.000000000000000000e+00
0.000000000000000000e+00
0.000000000000000000e+00
9.355792743376352047e-05
7.002733992949810942e-05
0.000000000000000000e+00
-1.200467176095673454e-04
3.143560841417481801e-03
1.056210003946837263e-02
9.128680350594612497e-03
1.318964661442567285e-02
6.264458350551744192e-04
1.462907307834185170e-04
0.000000000000000000e+00
-4.627474782567126543e-05
0.000000000000000000e+00
0.000000000000000000e+00
0.000000000000000000e+00
-7.548818919830673976e-03
-1.722595443074880167e-05
6.017278110043971368e-03
-1.004049174566672880e-03
-3.383023151710650421e-04
1.065352954766661661e-03
-4.779894507517806887e-04
-3.871023917504409599e-03
3.226946147302834386e-04
-1.573054357200372178e-02
-6.534412544067167913e-03
2.796776045589950818e-04
-2.802996267063662724e-03
-1.729531787900940318e-03
-2.863104795217459152e-03
-3.726424099424283792e-03
-2.586546009207736294e-02
-2.612146245606882661e-02
-2.465219718610272767e-02
3.455079183819411304e-03
-2.065392943631958952e-02
-2.905044142061405897e-03
-1.657969014448873457e-02
1.541215464348817557e-04
-1.959211948199387002e-02
-1.072505540525871314e-03
3.888704596196635235e-03
1.990207357883434173e-03
2.010230463506112834e-03
0.000000000000000000e+00
0.000000000000000000e+00
-8.151804938573177636e-04
-7.262590608104115431e-04
-4.325557516363394590e-03
3.181908307277123832e-05
0.000000000000000000e+00
1.315601778518092624e-02
-6.619992356966776341e-03
1.329808620277005788e-03
2.222419634063858656e-04
7.092521808667113430e-05
1.076340213878692383e-04
-6.779781305407901791e-04
1.447668966831843970e-02
1.557047680359901522e-02
1.881750012451697618e-03
1.160542185619702071e-02
8.505308199402030964e-03
0.000000000000000000e+00
7.159743511605769889e-05
0.000000000000000000e+00
1.982825857838045299e-04
0.000000000000000000e+00
0.000000000000000000e+00
0.000000000000000000e+00
9.070846549616469337e-04
6.152542562977918156e-06
9.692059241066903683e-03
0.000000000000000000e+00
-2.232358422127538153e-04
1.447524147400329789e-04
-2.741398005432012838e-03
-1.821292302708878109e-03
3.802387597698265618e-04
-1.151945941025360855e-03
-4.391927344059956551e-02
-5.042230930359980004e-03
-1.310500590370996393e-02
-8.319753857391341129e-03
-2.976770968236045964e-02
5.180264908032714520e-03
-5.238239706833331668e-04
4.602652719119352219e-03
-5.922059749521141683e-03
-1.086677093718456041e-03
-4.508870512090216477e-03
-6.272451717342068800e-02
-5.156434677811403300e-05
8.851949693240403682e-05
-2.475341689078380662e-04
-7.368841874052488045e-04
-3.407403348624536178e-03
2.553532585660926290e-03
-2.083340548783591418e-04
3.160151826079469518e-03
9.519153054791955240e-05
-9.233610044511632179e-04
1.645620932971052718e-04
1.328906284628542968e-02
0.000000000000000000e+00
-1.310497158600955163e-03
-3.668555869298076658e-03
4.586465845564139179e-03
1.103078781489929340e-04
-2.889466228323749704e-04
1.162814285548117998e-02
-1.077468210635703586e-03
2.740211916871012916e-03
-2.360643585319711153e-04
-1.045917321906222484e-04
2.230788946491207153e-02
1.227600612628296315e-03
3.171625970586034599e-02
-2.150449222573938470e-03
1.198779655106403555e-04
-3.085989571199424268e-04
-6.051418813801631366e-03
-4.275325976983357368e-02
-6.485224266614231063e-03
1.829613651910866768e-03
4.445255873526234372e-03
-1.061248980665848926e-02
-5.725786998854094124e-04
-2.183015414930574664e-03
-8.897733141748350263e-05
-1.855618195970155210e-04
0.000000000000000000e+00
0.000000000000000000e+00
0.000000000000000000e+00
2.755938214015617605e-03
2.876689758566764073e-03
0.000000000000000000e+00
-5.172101626035982731e-04
4.389614489396537200e-03
-8.768001226688123444e-04
4.826483057799522448e-03
-1.109765877583231142e-02
-1.536546314492958157e-02
1.261738329860260513e-03
1.686918283964881048e-03
1.240626330387034940e-04
4.316809079903027348e-03
1.985592060163419385e-03
-3.801693559924673553e-04
-7.034093473007685480e-04
8.517479040309083871e-03
9.846734716569830598e-03
1.954444538122416045e-03
8.105457480617908259e-03
-8.747172011274874370e-02
-1.975187993082563008e-03
-6.212823005036374226e-03
2.113301258002208294e-03
-6.013111943967730175e-03
3.160772755998650352e-04
-6.322412483521131464e-04
-3.899089463597223831e-02
-3.703583740053513138e-03
3.140370892501714644e-04
1.080520619422039989e-04
-7.605249102924523628e-04
5.735641745633926654e-03
4.510627864767960816e-04
-1.199376016401797283e-03
-1.435536608376794749e-03
0.000000000000000000e+00
0.000000000000000000e+00
-1.985682290712529198e-04
8.087597661169873813e-04
2.298311965621792092e-03
8.649174586259291905e-03
4.292975685892858767e-04
0.000000000000000000e+00
1.541043174184219319e-03
0.000000000000000000e+00
-2.093203123447092957e-04
-9.803830042671067503e-05
-1.123542283071260819e-03
-1.118365465670540827e-02
-2.753581349056172917e-04
-2.389785723929436709e-02
2.574489079409368521e-03
5.561038320121695563e-03
1.468398953999382412e-03
-4.264851169808950163e-05
-2.357488900970192147e-02
2.092556844778146118e-04
1.250318874860556007e-03
3.265877215279078781e-04
-4.383452469601881174e-03
-1.955936834225449703e-03
-3.904029232817899341e-03
5.484031919860725239e-03
7.991327157189171619e-05
0.000000000000000000e+00
0.000000000000000000e+00
-7.189913964497004215e-04
4.304446875185088429e-03
-1.279575524205112504e-03
-6.687045075166927338e-03
1.023669110734619497e-01
-7.018333435483622117e-03
3.699717253316709125e-03
3.814627693474835404e-03
-3.117687743736524252e-03
