-5.005829590651504103e-03
2.915612011062063483e-02
-6.490487759355195729e-02
9.067199502856911064e-02
-3.230920750673976771e-02
2.431277773632130670e-02
-2.794934964185852647e-02
-1.265318287223418485e-02
-6.725892743839821143e-03
1.725902568493610859e-02
-1.906601504219985338e-02
2.475849581998016205e-03
-8.157066106886047899e-03
-7.848578363925615142e-02
1.617001272553740890e-02
-7.819160349742659832e-02
-1.252398880703439223e-02
-2.751677764619689381e-02
-4.726503518948703408e-02
-1.142851704165090410e-02
-1.156630322678655065e-01
3.502464640304815691e-02
1.576561987360031170e-02
-2.163390671371250538e-03
7.407735266700641967e-03
-9.718489257813010818e-03
-1.433067017902180714e-03
4.861497788273654030e-02
-3.240865579259379070e-02
6.710279176477012240e-03
4.595868211957348376e-02
5.563172531329920942e-03
-1.749052241904094571e-02
7.266574970037517622e-02
6.798922970413002337e-03
-1.181552931125413181e-02
2.179859203707556169e-03
-1.747399517891765064e-02
-1.549242760221677950e-01
1.499204787308137943e-01
-2.336285585147494272e-03
-1.336524307956118984e-01
-6.452551354520195959e-02
-4.494213679450891757e-03
4.144660263190500654e-02
-2.085237436744514020e-02
4.036510328335361775e-02
5.098212014071640957e-02
9.690189396320663881e-03
9.295275908177651550e-03
-3.185724195738871833e-02
2.280254326303082779e-02
4.088477015998503820e-03
7.003868955780977916e-04
-2.170976260130926330e-02
-1.404020089717407729e-02
1.954030432689266364e-02
5.870456048011028077e-02
7.186617956470955915e-02
1.605848898134208322e-02
1.452751248405076065e-02
9.486959158221683341e-02
-2.146134347774957679e-02
-6.801368087614328983e-02
-1.146578216281327750e-02
1.705417600770382965e-03
-4.379770434647324573e-02
1.014300754298800844e-01
-2.534992605053121642e-02
-2.071925571367518471e-03
-1.459512976169639702e-02
-5.725221710014648593e-03
1.582326026316533806e-03
1.894564511131840989e-02
2.461412131917206647e-02
4.400109969962972059e-03
-1.304117257294573791e-02
4.925716955740198043e-03
-6.217290988464631643e-03
8.251978848748474371e-02
-2.446807939795124856e-02
5.673388321870305451e-02
1.675323722190244155e-02
-3.558816694997545688e-02
-6.533399665966292159e-03
-3.782825579724426526e-03
-1.199670326533311751e-02
-2.153805518650689626e-03
-2.461482045943837182e-02
-1.958947985653677545e-02
-1.320701025010176562e-02
-5.204194583119219758e-02
-2.411470556642645105e-02
-8.758571396836334344e-03
2.658560812961961728e-02
-1.520950449050600083e-02
2.096112658640504958e-02
-1.597982240458649048e-02
-2.734556493156522095e-03
-8.548233745241896539e-03
-6.644292684480136713e-02
2.503312170085504607e-02
3.166635119010115240e-02
-3.054596420452627709e-03
-4.430932813148889121e-02
1.010104052151581007e-02
-6.771685266755583799e-02
1.855557727709456622e-02
3.265281301711972506e-02
1.219228100027723236e-02
-2.626302006716480647e-02
-1.846513357846355993e-02
5.571974036058017360e-02
-4.702043053303783110e-02
-8.513953204936225427e-03
-1.425881576257723334e-02
-1.096649917852464753e-02
-6.405784184320408026e-02
-1.242003031078273319e-02
-1.104194020848359029e-03
2.746273094076619181e-02
-2.063423634827579387e-02
3.865898946799045666e-02
6.056861046848473207e-03
-6.854542097692539748e-02
-8.871319972666215359e-02
3.772125191936417932e-01
6.012587426955155051e-03
2.805967265783166492e-02
1.040170757205065646e-02
8.096728299691180811e-03
-2.465640699510564769e-03
-1.907435758505507612e-03
1.631144677052567479e-02
-3.487659057248983924e-02
8.339997905123384264e-03
9.067859556651030120e-03
1.474486802176091203e-02
-5.736620565989587056e-02
-1.674450518203524649e-03
2.045526532438144557e-02
7.107169348658838766e-03
-1.155653488786314784e-03
-9.751072325644705163e-03
2.748731479731227403e-02
2.935598265065531010e-02
1.130888424600550168e-01
1.633099281843702899e-02
-2.617464363932990590e-02
3.635782209720146707e-02
1.693379676737783932e-02
-2.165485680397000179e-02
-1.407856329224885239e-02
-3.646762544123119398e-02
9.279308782119666255e-02
5.277502308468276851e-03
6.689457618738745004e-02
-4.399972940988352427e-02
-3.615191976398690055e-01
4.863488473951843929e-03
2.674600200585417961e-02
-2.465061129649477253e-02
-9.929478195495625159e-03
1.112570660866982544e-02
-2.262749295652222506e-02
-6.270678927780447276e-02
-1.625729243672282458e-03
-1.459011637385049069e-02
2.216468358312938605e-02
2.796493413457268578e-03
3.643754794645707312e-02
3.456230149088148490e-02
-1.427675231808316590e-02
2.552779782342348008e-02
3.832585817117464128e-02
-5.402068673702095300e-03
-8.576879039343945910e-02
-1.492432106030273098e-01
-7.359299247539141664e-02
-1.369339115453144518e-01
-5.813836151841748554e-03
1.390849236162659992e-02
-1.879085813337143251e-03
2.044694774211593402e-01
5.373281673299254435e-02
5.157045256901528901e-02
2.630737702144969950e-02
5.015338472378662316e-02
-4.327154331939021825e-02
-9.299005119757095678e-03
-7.499594174596258076e-05
3.120632388840225910e-02
-6.774105713584810395e-02
-2.394067932378177166e-02
2.823723535991883894e-03
-2.489065373993653435e-02
-4.443861541304774954e-02
1.356661657187999484e-02
1.016776215651376582e-02
-3.658721964364478052e-02
-6.076578159241295685e-02
8.653049054237636414e-03
1.257571504825428371e-02
-4.871891696248725062e-02
1.178829036993536347e-02
7.726385830828202787e-03
5.387227559670883931e-02
-1.985890668458326763e-02
-6.505968448092298503e-03
1.799797780417270940e-02
5.986251785473618858e-02
-4.126377664267399242e-02
1.116257652655336906e-02
-2.010312962493588165e-02
1.334992332201616859e-02
-3.621886784277793259e-02
1.185383350813038784e-02
-4.202316984431700431e-03
-7.389883658017971924e-02
-5.141443586071007578e-03
6.529376108503242616e-05
-6.363429997661206039e-02
-3.866234777325124050e-02
-4.879784858320089513e-02
-7.313231197026541508e-02
-1.770702500492903715e-03
4.179081863726841206e-03
-9.656135379386037495e-04
-1.268311710929492450e-02
-2.830941675682168909e-02
4.286742354760685308e-04
-3.488280620206782052e-03
4.130643369737411509e-03
-1.094020580295676677e-02
1.730811167953671958e-02
1.291586892820970056e-02
-2.540182661030215578e-03
-5.301214859381521427e-02
4.325272599174623776e-03
5.555199551637529654e-02
3.746469297613570781e-02
2.122991092107164024e-02
-2.196205838944258193e-02
-2.292510775858862607e-02
1.542314194701605023e-03
3.123074184036820147e-02
2.023307212073840455e-01
-1.356701888617381849e-02
-7.636088851056355153e-02
4.281531156555920016e-03
-3.902546587720269466e-02
-2.995721547984195321e-01
-6.891945160034504761e-03
4.447503206801498021e-02
1.100288129082112459e-01
5.552303317065340749e-02
4.204364229547087432e-03
-9.815555957745079885e-02
-2.419518717810091590e-02
-6.265816068117413540e-02
1.348268553839157211e-02
-4.845296399278247595e-02
-2.137723819194040087e-02
1.382416727666718054e-02
5.386648468793920480e-02
1.929699497809597708e-02
1.262272220821368703e-02
1.081897233298565950e-02
3.752357580671593362e-02
2.667403438831727688e-02
3.096011787896238432e-02
-2.108376862378079364e-02
-1.710475201142824461e-02
9.661069630964591592e-02
-9.574982275391795417e-03
-1.586724471820551152e-02
-2.867215786929798726e-01
-5.063940998446199437e-02
9.979862924750291034e-03
-3.041356530849166281e-02
1.720559983189239028e-02
3.620649027917363649e-02
2.768712725408697950e-02
1.666144156801516729e-01
-3.853783294200192194e-02
-1.603497926544051114e-02
-2.004261212471852849e-02
-3.134603661162481555e-04
-2.409041489413712295e-02
7.800182312129760528e-03
4.085364450804576143e-03
-2.293296683480876286e-02
-2.924753168885158364e-02
-2.060152813718864676e-02
3.474833641352580854e-02
-6.535072313902827619e-03
-2.832038999015905681e-02
-5.244269665772106626e-01
-3.764188477563474786e-03
-2.696426378288490633e-01
-2.257791609585382483e-02
-1.011397186073418469e-02
8.150762377258962549e-03
-4.993589972053335060e-03
1.279768152349704431e-02
1.279095852015634839e-02
8.099180350135290474e-02
5.908307349519847235e-02
-6.551377419486370535e-02
-2.280452503561093344e-02
4.420056576465428676e-03
-1.749468228432819392e-02
-3.849243743618629976e-02
3.659635261116269550e-02
-9.432363059826656682e-03
-1.018041734122323433e-02
-8.381117276105380307e-03
-4.815756248647440341e-03
5.865242314817785407e-02
8.584763551989250127e-04
-1.537703006537047556e-01
-1.621396295323588102e-02
-2.701789288072193717e-03
-3.759815271838246736e-02
-1.198620578458047849e-02
-5.951879172416362634e-03
-2.260309304997961885e-02
4.211382302753120116e-02
-1.452615889367257123e-03
-8.123511853598972682e-03
-1.826101656528734962e-02
-1.261112642398554973e-01
-1.631930502026105248e-02
-2.169979199602100478e-02
-2.185872495179604080e-02
-1.771383739005428365e-02
-6.584096567328037719e-02
4.722471384785523218e-04
6.791150546761313446e-03
1.129962972229527768e-02
3.438755412872526729e-02
4.822240845687397748e-02
-4.089207662892520995e-02
-2.375624736223007696e-02
1.757178835042681395e-02
3.507854411348233781e-02
-1.872201208952919624e-02
-1.998778501257045953e-02
-1.700538811687972787e-02
-6.184715114043586558e-03
7.736764779276843716e-03
2.689433896294949472e-02
3.219191872956140843e-01
1.684874474781431208e-01
-4.014791085066796855e-02
-7.372851437199283431e-03
-4.729853015489045819e-03
8.496628599129689430e-03
-1.535352978616474559e-02
8.763877280065422021e-03
7.663761711408380306e-02
-7.505909578030245388e-02
-5.033446388636766966e-02
-8.009421833407364896e-03
7.377351232219278403e-03
-4.422636888205834158e-03
-2.704414928525307113e-02
-2.904243328888111986e-02
-6.929901771360563734e-02
-5.204754313567452244e-05
8.342961439530444459e-03
-2.255468288149468231e-02
-1.685684298023947328e-02
2.971677693099390033e-02
3.429583234835387618e-03
9.133400555276024665e-03
-5.987485436729816013e-04
1.961802693885170840e-02
9.848612687007063729e-03
-3.507029921329338912e-02
-3.222816319974436405e-02
2.002763264561334064e-02
1.764102984224037371e-03
7.078643517139625307e-03
3.870086440353312507e-01
5.305346313874937606e-04
-1.241225576099592477e-02
7.614530459640656695e-03
3.830981159413063275e-02
-1.950376144863879280e-01
1.037753355186035731e-02
-4.446466770048511548e-03
5.440196014080477893e-04
5.918753356137315290e-04
-2.479210364597356914e-02
4.044538918117321184e-03
1.096505194232129561e-02
-6.401886646274346400e-03
-8.099986079347076817e-02
2.194111955600285425e-03
-4.475015793087587512e-03
-1.611249940070221334e-02
5.541659775553975376e-02
-3.947024264514500838e-04
-3.436741727609894659e-02
-1.443671840863649906e-02
4.369628325179525201e-03
2.326102208118700429e-02
1.398733239248937249e-02
-1.150382005896595120e-04
2.064314604742882309e-01
-2.283776978201245561e-02
-5.852999353468559332e-03
-8.162219088501588074e-03
2.993212841151283998e-02
-6.668238942648956058e-02
-3.994629826737343403e-02
6.340606198400300028e-03
1.900966836770461021e-02
-1.148494636122754237e-01
-5.198960495685066643e-03
5.035592006388461134e-02
-6.677377054791414079e-02
-9.800555637394418873e-02
-2.323270577004704976e-02
1.649305511733530072e-02
-4.476587331614137466e-02
-2.234109329811766881e-02
2.680659602954873696e-03
3.785248415373979741e-02
-2.100594897328134439e-02
6.632293834068966887e-02
2.050298893554944324e-02
2.141149199332188433e-02
7.174702878536859396e-03
8.947497719620953194e-02
-1.915333186323482997e-02
-1.177892203593045245e-03
-7.290526653985157646e-02
-4.076590518267465130e-02
1.407366620015477847e-02
2.405174167447106034e-02
-8.238157136512998246e-03
-1.409451472190262518e-02
1.155990672085218003e-02
1.732319927329119616e-02
1.007380995330316859e-02
-1.866668898183876379e-03
-2.072078196573769876e-02
8.511121889612976998e-03
-1.296540162870320895e-02
-1.037840526368266104e-02
-1.631412200580761255e-03
-4.512338035492859806e-02
-7.086334519739323316e-03
1.349359665954984536e-02
8.137691343317796089e-02
5.023928616726792452e-03
-4.339443401940042133e-03
-5.512335954211670941e-02
-3.250401203435240860e-02
-5.124173295598463684e-02
7.590518099585435996e-02
2.631975150378968765e-03
1.995140527755469642e-02
-3.878647360838000579e-04
1.701471966405022213e-02
-1.777751663212362790e-03
-2.587700271016628480e-03
-8.421574884135349381e-02
-5.598076509681322588e-02
-3.915178702815212339e-03
2.769681503245408419e-02
5.816515201967022500e-03
-5.850991365284375911e-01
-7.810873111469306129e-02
-2.303712766978110657e-02
1.518540855749559750e-02
-2.945226958227997044e-02
2.776485203225809162e-02
2.842566153818812218e-03
-1.744905287753265588e-01
-6.698093530624391230e-03
2.093032869048831041e-02
-3.420670761254814615e-03
5.323581890356365171e-02
1.076144521171265925e-02
9.103285132101100741e-02
-3.768644397366249527e-03
-1.095125624762440485e-02
-4.290279075512989232e-02
2.342315924671315580e-02
1.491938833941593504e-02
-4.836124844705373682e-02
1.917733659237225857e-02
3.209517027828785729e-02
2.149511275368272759e-02
-1.284006088737279505e-01
2.572693819705532646e-03
-1.350629134064517019e-02
-6.233172460981737089e-04
-3.154324436348041744e-02
4.819283183356018463e-02
3.076933883976931336e-02
3.865112879726897988e-02
2.666429854925368020e-02
6.520691982554338573e-03
2.946953853725101449e-02
1.470560665561667941e-03
-4.813298638476803254e-03
-2.363786332118236050e-02
2.469797423668254957e-02
6.714382189651629806e-02
1.827618451780710709e-02
6.463092130811744392e-03
1.819264879389394934e-02
5.877987397860278546e-02
-1.092733133430806147e-03
-2.112382207025893105e-02
2.482910831358544831e-02
-2.270755644100624221e-02
-1.835674800995693023e-02
-1.972063703111377742e-02
-3.734088645798010891e-02
1.233391875773162671e-02
3.165049069339201382e-01
9.135751558738473832e-02
5.949719978582927032e-02
-2.906636644292397414e-03
7.715726565787607745e-03
-3.115040318733002314e-02
-3.431067351776117234e-03
-1.056570296110254624e-02
7.389963374801325653e-03
-1.401547435084034114e-02
1.783245982682061734e-02
-8.966018518803931317e-03
-2.082718714152115638e-02
9.586829713887900237e-04
2.109693121681568626e-02
4.031640276882496321e-02
4.738181436347221193e-02
7.279902609220356702e-02
6.646675194788279062e-02
-1.294107505248612115e-02
6.092629370500028674e-03
2.632475114998191618e-02
1.893689777093578511e-02
9.178836574369251058e-03
5.480722456969722156e-02
2.579712754404432651e-02
-1.469462949808597596e-02
-1.132325314534414484e-02
-2.152941227579642861e-02
4.871900266427830507e-03
3.294624835680878133e-02
-3.450275448091297964e-02
1.290430560761824177e-02
1.456601084919811537e-02
5.593723134205173114e-02
5.523707959240486964e-02
7.959653015830255030e-02
6.488183349138523792e-02
-6.620179248748471815e-03
1.777317166647043867e-03
1.663891444575633385e-04
-1.505090926012339451e-02
3.362708384380849735e-02
2.351907586811964601e-02
2.385542510852921641e-02
-1.438240455725714184e-01
-3.994896957954804408e-03
-7.609094784263902359e-03
-2.404171344504504523e-02
4.267171893695467788e-02
1.313738883303173198e-02
1.556771303798802630e-02
-2.814541945991337266e-02
7.998287878783282012e-03
-2.538509148748055791e-02
8.118946561116059668e-02
2.532255092198675700e-02
2.251328510080870607e-02
1.726827087264313013e-02
-8.588259728047636932e-03
-1.662319489553545915e-02
2.975230007318820612e-03
-8.568240849653303848e-03
-2.907529192020947076e-02
4.346776712770747050e-03
1.744568856481702041e-02
-2.809011575271509742e-02
9.153858223926109386e-03
1.238543126718365120e-03
-9.693976286085002024e-04
-3.778865076463776892e-03
-1.562042572925112331e-03
2.370246476086855861e-02
-3.108652586955848018e-03
-2.158642915408883357e-03
1.767743151267008733e-02
1.315885952068485479e-02
-9.420520868837508818e-03
5.171139481671124111e-02
-8.002175794920660806e-03
-1.204769525942453040e-01
1.452619677486696910e-02
8.502400027776311001e-03
7.161233394868403955e-03
9.330082432264432540e-03
-1.599344423707734636e-02
1.901693124117628374e-03
2.065484735495612748e-02
1.578113479856798826e-02
-2.735628962805419090e-02
5.832656527053604184e-03
1.688602191111123613e-02
7.205246988574783018e-03
-3.430844365392676787e-02
2.077364561436090967e-02
-1.108090613786476275e-02
-2.274368409303066836e-03
-2.550774115904809458e-02
-1.084817337818652985e-02
-1.438888044867605090e-02
4.172381518165640957e-02
-4.493013008267159741e-02
7.526863809310065101e-02
1.415675007204054425e-01
-3.904533792025671746e-02
-2.478077129962564552e-03
-6.045945675050793527e-02
-9.527143171218488416e-02
-7.471878003564448589e-02
2.368811262659875627e-02
1.414223503089965389e-02
3.093423615156170106e-02
5.485597309359904489e-04
4.865980176603462541e-03
-4.330916044482268495e-02
1.963647964089080059e-02
2.969667111242983021e-02
-4.035803437882419520e-02
1.634591499998426165e-02
2.065064519275220528e-02
4.430808039424108391e-02
2.010497247000665559e-03
3.083792996275565995e-02
-2.372300476343286446e-02
6.580670790502254897e-02
6.311805337762900481e-02
5.769483511389245783e-03
-1.579281831727164659e-02
-2.013529929827144460e-02
-1.222928963620602966e-02
-3.355084945220908332e-02
1.588437949117139101e-03
3.469914070563986236e-02
9.045872192748069182e-03
8.298469117221400279e-03
2.811558210077622424e-02
4.994823060900144968e-02
1.441134586144202957e-02
-5.717805189461332756e-04
8.680852734503285983e-02
-3.182414240227987839e-03
-1.891470870732619297e-02
-2.097544402068069608e-02
-3.835344296080314686e-02
5.362904377720024464e-03
1.057326260399335249e-01
3.342786218162073497e-02
-1.186395557883506780e-03
2.033706051231622819e-02
2.630995096798709795e-03
1.977133238214894700e-02
-2.634131930018755730e-02
2.191785962201537111e-03
9.808623819608319402e-03
-2.472140561922474278e-02
2.667918847188850695e-02
-1.191715205526036950e-02
2.895873218285980460e-02
1.616278396356066183e-02
3.743656863145087416e-02
-3.986739055381037511e-02
6.759058189875503941e-02
6.451955974067692667e-02
-5.746830612157850793e-02
3.796500497206206724e-03
-8.542335375122578692e-03
1.071378575682316661e-02
5.871578787589955967e-02
-1.066481718437612899e-02
5.219755526189951561e-02
-4.133341973994047319e-03
3.824769469316697482e-03
7.460075286429972141e-02
9.975751956288513023e-02
5.816029056060011138e-02
-9.995530012908536432e-02
2.031280372652101082e-02
-3.151619148462346531e-02
2.038739375166724946e-02
-2.353815091625486439e-02
-1.685684810711598688e-02
-5.123927094584459531e-03
7.352715722687869519e-04
-2.887697407848147883e-03
-1.433825272064077373e-02
1.464775549715631106e-02
-5.924822651891232389e-02
2.262935084952729867e-02
-7.507380174339882938e-03
8.615357480064598020e-03
8.717790352941601206e-02
-3.783219564826553749e-02
9.152379887212925072e-03
6.864155931062425331e-02
5.430387502653965387e-02
2.446239949298645994e-02
-2.100273475075520035e-01
-1.567276945505695698e-02
-5.867098135565834011e-02
9.325845312228941975e-02
2.799452863011056905e-02
5.368195167960677222e-02
-4.132525710153552023e-02
-1.520956801624168304e-02
-1.344354368713133324e-02
2.752707722497067886e-03
-5.734350511331357501e-03
4.003156531668607132e-02
-2.237591281873083787e-02
-1.344696537700392283e-02
4.448144665380722972e-03
-5.944720655830364880e-02
-1.043760419968627236e-02
4.092507595671373427e-02
-2.755656705019124235e-03
3.531856478508316882e-02
-1.803642281270160727e-02
-4.057882660496459071e-02
1.004573416855283757e-01
3.929352638298974632e-02
2.585480553677098683e-02
-8.919092212203967932e-03
3.474086745350450645e-02
-1.339063622967307660e-02
-2.378118138555749064e-02
-2.724136523220621262e-02
-2.648086837062428242e-02
1.088694701619331157e-02
4.885524198000666674e-03
-3.763073782082892310e-02
-2.687201296029071915e-02
1.416969484923305631e-03
-2.519335324774748391e-02
-3.142765014161475606e-02
2.080695219688851946e-02
-1.369275800159438505e-01
9.474723798755137552e-03
1.204482473305419458e-02
-1.195006046429589741e-01
-5.054148067509377056e-03
1.905861488472716456e-02
-2.427617099043909502e-02
-1.945116473633096144e-02
-4.017153564642492874e-02
-8.822894167219440947e-03
7.266031174269832124e-03
-1.519903909810609889e-02
2.632698762165355810e-02
7.612122994731640446e-02
-6.298539695696802818e-03
7.514434493827207816e-03
2.234578140920631326e-02
-1.104578968668866110e-02
-8.430341165273155454e-03
4.521792330366535516e-03
8.994919369910524265e-02
2.221594598952554567e-02
3.425978660649353635e-02
-1.269580479028190219e-02
-1.581938105787630486e-02
-2.176018797546425479e-02
-5.860363831394564682e-02
7.308216995165961113e-03
2.834705674669533298e-02
1.863265083142693831e-02
8.596442159876326733e-03
4.650500633974770370e-03
-2.556404466184380303e-02
1.309950684878217857e-02
2.143035264686035668e-01
5.727503367062319883e-03
-4.362022135713629345e-02
-2.581413806052566817e-02
5.637250972804592856e-03
-1.324184896541071195e-02
1.865343079499040199e-02
-6.149898425345978054e-03
-2.122553279722546801e-02
1.931494186038236471e-02
2.174636063116981016e-02
3.962997617545888085e-02
-4.816740174263308555e-02
-1.494922928659698780e-01
-4.357473567559654037e-02
1.736135062696634798e-02
1.953176671882692755e-03
9.569524986335531738e-03
2.260058864157353173e-02
7.549194653284760012e-03
1.235180229339689038e-02
4.988344351813310713e-03
2.275909529675239698e-02
-2.237871160596651213e-02
1.910725650040071694e-02
2.155206671091721912e-02
-1.620762946471386275e-03
-2.938638878614407979e-02
2.987802819080258646e-02
3.838541751352345099e-02
3.886847154052806234e-03
4.786841434321900506e-03
2.705319264619634773e-04
1.237823202080723384e-02
-2.449903099398307443e-02
-3.537898804672890557e-02
-5.544293136033382613e-02
-3.104810832008660440e-02
-3.629839811257390414e-02
4.864775966221592668e-02
-8.836728483574517526e-03
-2.953190547396630783e-02
2.335468597244573161e-02
-3.773828994174106225e-03
-2.563231212787489034e-03
-4.938592758032209380e-03
-1.796995908898901470e-02
-2.298181334367590048e-02
-4.566648918319607398e-02
-1.396780732469288244e-02
-7.217378699197756105e-03
-8.019242255576351092e-03
2.985542436268828021e-04
2.634510139455558189e-02
-1.571113804424839611e-02
1.407494455454632969e-02
1.225472067131229241e-02
1.314816453748584787e-02
3.765339998063490720e-03
2.547695785333267682e-02
9.845138225598544426e-04
-7.314946029825586393e-02
2.826677190017723440e-02
3.015354019021988102e-02
6.924774792821697389e-02
2.590134095752704563e-02
4.083079683083078865e-02
4.200240762286546609e-02
-1.996404276207899148e-02
1.257697933767486925e-02
4.137730165968099560e-02
-6.743277060507783729e-05
5.684078109164533710e-03
2.117349639347547788e-02
5.085141208564691873e-02
-4.331104078415470848e-02
6.325206842373511107e-02
6.285959456600977158e-02
1.013062212262994845e-02
1.368216289717205485e-02
8.933988739789339162e-02
3.954784421060852234e-02
-2.708723257398855042e-02
-4.441530052797867251e-02
-1.880226809221988496e-02
4.313060971508755892e-02
-2.043560661677184327e-04
-4.369845876500703247e-02
1.838062360501714620e-02
3.860427579507924589e-02
7.133732782430253667e-03
8.823126471659108183e-03
6.804501448185452939e-02
-1.962515213565559774e-02
-2.542595772328919840e-02
-3.228575912712839356e-03
7.022718879689146543e-02
6.614965291152362370e-02
-1.705762161089496853e-01
1.185120575513723545e-01
2.931003897254665785e-02
2.023319201860301203e-02
-1.734754475341146809e-02
1.355835908881894945e-02
1.736298779793646330e-02
1.206473329732534253e-02
-2.239342917144162767e-03
2.322651202717176955e-02
6.541429264287667352e-04
-5.380378098821428368e-02
2.399876247018052286e-02
-6.027070570646538006e-02
-1.094957492033189067e-02
1.164598594512241889e-02
-1.958978712463449456e-02
-3.028701680366258780e-02
8.372967492302865397e-03
1.089389621674537005e-02
-1.673159528281947112e-02
-1.805272801525820842e-02
2.591070955321716010e-02
8.695031181440975726e-03
-9.138660229849859470e-03
-4.204658775014096309e-03
3.909172265649925315e-02
-1.112042094483632615e-01
1.495836393926545764e-02
-5.536463713632742978e-02
-8.949835543714390954e-03
-1.369729537448464811e-02
-7.344920291574243490e-03
4.902628487811175155e-03
6.399578115974471730e-03
-6.330708462013197660e-03
-2.280782906076538399e-02
1.675785822637069697e-02
-1.194971483853166615e-02
-1.404419137958831665e-02
1.950218340000915099e-03
-4.766320741582139031e-02
-4.370463088102267968e-02
1.032639560506528296e-02
1.744470832215240172e-02
1.228746477315859759e-02
1.003459173781824816e-02
1.370193030909724712e-02
-5.034247396971815169e-03
2.033132332444921933e-02
-6.699008844503693758e-03
2.415626697410674234e-02
-2.781574169913099762e-02
1.343674981065076483e-02
-1.484031013320469793e-02
-8.997933458770760590e-03
-6.331248985006449059e-02
-3.471763652181433790e-02
9.107724848617970367e-03
1.390567263891973743e-02
3.734127103942230103e-03
6.564551701596585409e-02
2.861932312173000748e-03
-8.265294331635066050e-02
1.725826740553418684e-02
1.724702653779418282e-02
6.985444529091566074e-03
-3.158561972529342482e-02
3.841387684715618506e-02
1.491946037305786829e-02
6.964617282222652569e-03
2.976079100211821010e-02
-4.763935011074026810e-02
3.076755792967703421e-02
-1.128388633957856484e-02
2.584788358800271801e-02
2.752269953555801056e-03
1.034821885917533574e-01
7.733737258785841791e-04
-2.681426349856681421e-02
2.707844905470161920e-02
9.323893739025097827e-02
1.145988599806394177e-02
2.271686974815995911e-03
-4.070914324843523738e-03
-5.739180280303588476e-03
2.771735798269125278e-02
9.933485910447081152e-03
1.989498421104254552e-02
-3.507679169035471389e-02
-8.818436166732257150e-03
-1.270917283132469780e-02
-5.051933697483905472e-03
1.766724801794083716e-03
-7.675766178660514694e-02
-2.517481259014631156e-02
-7.698124190282025145e-03
-2.475536480968580644e-01
-2.692436547411291431e-02
5.827590012153043009e-03
1.601055800325053291e-02
-2.657640401649692848e-03
3.972052977832465914e-02
-2.668953800750632852e-03
1.673225699790653609e-02
-7.396147062948058015e-02
5.026848425444199048e-02
1.136695719103817809e-01
3.750950225207603378e-02
6.023997655669288513e-03
2.431918775583346778e-02
-6.912359724493457279e-03
-2.036858769974498468e-02
3.697136436927303538e-03
3.116482721583847815e-02
3.269352804415850272e-02
5.704662352181838481e-02
3.194247380309797602e-02
-2.814109035178441465e-01
-9.212329957287300475e-02
-1.398497705386241670e-03
4.101808981681732968e-02
-1.989138714387433254e-02
-2.963347266750534711e-02
-3.897652912723074264e-02
3.001287947514197363e-02
1.380411169570477069e-02
3.526168267987556115e-02
6.820879646692360430e-03
3.866842446659281285e-02
2.080117714603766516e-02
-5.028383757105497898e-02
-6.897810201698985344e-02
-3.517955320650224121e-02
-1.733244499572111907e-02
1.498461435695000801e-02
3.315715553656443243e-02
1.563356541723928336e-02
2.818677999991074309e-02
6.597331675654628802e-02
5.756868157498266914e-02
-4.279761281379205334e-02
1.187178398311078582e-02
9.061293504241348974e-04
1.021738013978589106e-02
9.245734557978445289e-02
-7.194364010028213470e-03
-3.208542136511184639e-02
2.724733016008444933e-02
-9.898007964646467205e-03
1.660685935702773536e-02
5.188258456884991057e-03
8.551776476041040437e-03
5.073915381345627841e-04
1.540060675321163267e-02
-1.609116168091301313e-02
-1.020470522811976408e-02
5.086071076091124021e-03
-2.844930586104698483e-03
-1.077682519345207583e-02
-2.099444591426951473e-02
1.082406570876322423e-02
2.200766339410714992e-02
5.938386886816686416e-03
-2.298747837473040859e-02
4.530857317106694315e-03
-3.680736051308425988e-02
1.360331454420761130e-02
1.508674845612098178e-02
8.709813686140812847e-03
-3.270762302451377113e-02
-2.822965510794851751e-02
-8.451655669779474371e-05
1.392881702746515300e-02
2.042254210311814436e-02
-8.703316105326363086e-03
7.311339116847830055e-03
3.525241092293922990e-02
1.852788503873629283e-02
9.062762151383071257e-03
-8.630211398662173197e-03
-4.020284930550679925e-02
-4.082050056117264743e-03
1.153792867610592236e-02
-2.916362529415965354e-02
1.740715739016019878e-02
8.550752935504847205e-03
4.367537205181252352e-02
1.603493811216387399e-02
-3.527944581549648240e-02
1.381055274372004205e-01
1.055403241696013621e-02
-4.243134364191106060e-03
2.110020167130708182e-02
-2.884240827208538541e-02
-1.328466514744358401e-03
-4.820273175725231507e-02
5.329296304903007216e-04
3.038319513925231280e-02
-1.794832311619821291e-02
-1.504438962756273878e-03
1.582025784392973242e-02
-1.790555602376802530e-02
3.687508107646935568e-02
2.300293358183347001e-02
2.588654064728075025e-03
2.384687511777014088e-02
1.844642204455669565e-02
6.120970430074230278e-02
3.120635748622117497e-02
8.419411154790815144e-02
3.849397742611293527e-02
-1.255995077887410785e-02
2.479934540651854147e-02
-4.447709982036785435e-03
-3.063588711941479630e-03
-7.115106624217087949e-02
2.037736674005329041e-02
4.184783354335348121e-02
4.667613181114798476e-02
1.838932842691895844e-02
4.942800732082999055e-02
-5.257594246117726876e-03
2.166519316030586506e-02
-4.075079101454604641e-02
-1.900122873732615954e-03
-2.714305190555802924e-02
1.466533761440937389e-01
1.171649414824721749e-02
1.474937669670619688e-03
-5.200184705728784496e-02
4.710893872886739997e-02
-5.314979581830296673e-02
3.048189699193764798e-02
-2.054550528807261647e-02
2.054027743159324640e-02
2.892676125786146357e-02
1.434332857274490947e-03
-2.177399172350172329e-02
-2.490048773716206035e-03
-1.725809213665913944e-01
8.886687199700149531e-03
-2.808620146012281299e-02
6.406970965514776099e-04
1.331762744103097938e-02
-2.985271370835767754e-02
-6.809431751954849420e-03
1.013912816310603114e-02
-1.022561585019161196e-02
1.921204523675541440e-02
1.916145403725485336e-02
1.474984491198622766e-02
6.385158843581570376e-02
3.868827645705022467e-02
7.181191279486688617e-02
6.784803419221204467e-03
5.834828538714178538e-03
9.216775665328148445e-03
-2.941231526488220435e-02
7.243932335082001010e-03
3.934710401452212736e-02
3.207148330310329309e-01
-3.182235122241854758e-02
1.605034418124573134e-02
-6.719061832910810765e-03
-1.607044293096330720e-02
1.758804104357731060e-02
1.008327577720404336e-02
6.193674227529095272e-02
1.648186604168983826e-01
3.131872547564936576e-02
5.677174537125676684e-02
3.508135935556885160e-02
8.664759717939023512e-03
2.825003798534376359e-02
2.026794527215319136e-02
7.802830075625913700e-03
2.354290676722170690e-03
1.622184195937290824e-02
-9.149605799273671444e-03
4.908597145359126779e-02
1.705367485904686620e-02
4.008077162173516450e-02
4.946037321990543606e-02
1.615518038729687675e-02
1.873769796405416743e-02
2.217659400573281439e-02
3.435628909172833839e-02
2.056732348782827624e-02
-3.328203402876069722e-02
-3.864737379004865719e-02
2.916237007970121087e-02
9.725448579750595873e-03
1.116866380095272093e-03
-6.722749766465266341e-02
-3.164747808253042666e-02
-2.688737778306303158e-02
2.307420178967729482e-02
1.746995097556873489e-02
-7.996719854089629972e-03
1.418775505828635992e-02
-5.414606701329554433e-02
4.161513370050688027e-02
1.750183367567346299e-02
-4.214429044877916752e-02
-9.934621832729445545e-03
-1.655638298085936738e-02
8.607781197934583767e-03
1.962417483248842312e-02
1.862227359596732926e-02
-8.998961738801110333e-02
1.523046389215289113e-02
4.332508099017379904e-03
3.862723857296736230e-02
2.206287032265043593e-02
5.119698727072281158e-02
3.191239261114079545e-02
-2.674677670178962283e-02
-1.295273077239500643e-02
9.216376396400036142e-03
-5.763846864306945011e-02
8.268222337413977385e-03
-8.626079347130027886e-02
-1.103042414632356555e-01
-1.167865416914913579e-02
-2.619764312085915564e-02
3.434375809470886082e-02
4.949478338066532444e-03
-6.770679206961319110e-04
5.604033885326091535e-02
2.606314109765829265e-02
-1.413232107719664121e-01
-1.570970889206314003e-01
-2.334042628838979561e-02
1.821578093681179289e-01
-6.527465349869850629e-03
3.783780070292298153e-02
1.457511138943328073e-02
6.628548310480247147e-03
-8.131526111003666360e-03
1.525586052632627032e-02
-2.642524593748545383e-02
1.336653826462293193e-02
-7.858246130358743919e-02
-7.146938701551353718e-03
3.920521434544183698e-02
-1.837167724787409223e-02
-4.772978423542763998e-02
-6.012451230972966354e-02
-4.212657858712177267e-02
-1.143462163425368154e-02
-1.491229773086343857e-01
-5.103078316426322251e-03
-2.047464948233621018e-02
6.085618536607974305e-02
-1.945354715555751637e-03
5.358148319264986054e-02
3.044203429651389219e-03
-4.463638567297534276e-01
-7.504118388127307970e-02
3.086575072994585025e-03
-2.654604118088387671e-02
3.537882232468450572e-02
-1.343338067654538219e-02
-1.316304137382760461e-02
1.364444738443146288e-01
4.137833920849396351e-03
4.419358749619144849e-02
6.187050236585643799e-03
-4.547078836352735215e-02
-2.356781522459075809e-02
-1.042885845723441063e-01
4.692418922961013455e-03
-5.965696570236922458e-02
-2.499037526266409057e-02
-1.705133544713265809e-02
4.287666931948289767e-02
2.749845159816662835e-03
1.205828892549152924e-02
-2.287006865950830248e-02
-2.345080056537413027e-02
-1.926246545331120053e-03
-3.118598532631054396e-02
-4.009456226786341226e-03
2.047842689584792111e-02
1.751014650656482902e-02
-1.048277949749327337e-02
-2.197260984184927490e-02
-2.085884619070997939e-02
-1.360396428873122498e-04
6.865538881206524439e-03
5.911114196197986108e-03
-3.308267347054548013e-03
-2.656285677251394705e-03
3.560043438828598000e-02
7.102833622881751839e-04
1.603129552918900261e-02
7.839429134485258188e-03
3.461742161709249060e-02
-9.689812744743970391e-03
-4.407010428739987357e-02
7.800170784997156187e-03
3.740296964672197577e-02
-4.326667084378303142e-03
-3.557509197383977584e-02
-1.437106452577726345e-01
2.181685007177190314e-03
-1.016409432574266053e-02
-5.375203677407237868e-02
-1.472506161814548468e-04
1.729993760613153866e-02
4.552225017705297666e-02
3.720159533206757185e-02
-1.299922019942950924e-01
1.601827639595489877e-02
1.007854863081959935e-02
-1.825060646127806691e-02
-2.790669134078917896e-02
-6.198439274267509777e-03
-1.634696173620916321e-02
-2.676652018091466717e-02
-1.014382723057153518e-03
-3.529243433956328821e-03
1.307156745878791833e-02
1.662357087064900499e-02
2.688918476083162340e-02
-3.783314593162042522e-02
-8.375190531648623801e-03
-3.531381760392235392e-02
-4.627003843416849921e-02
-4.975902992665616476e-02
-5.045921437035649076e-02
-4.408813288168149380e-02
-2.081516601045237461e-02
2.141540177365857181e-02
8.215736462687693586e-02
6.290511584858301912e-03
4.677744533891171896e-02
3.263158215674454021e-02
-1.039267214624807895e-01
1.099172901058334262e-01
-4.993541886733902230e-02
-5.424824346131927599e-02
3.326768459173582576e-02
4.900310234216999350e-02
2.785669804555678322e-03
-4.488066774107785789e-02
-1.116153788171061513e-02
-1.872807119260826506e-02
-7.775878341863655396e-02
6.309977012434543620e-02
-7.247427043334499046e-03
-2.298118860641440095e-02
-5.210970163318481840e-02
5.735966446933028241e-03
-7.509503038395718734e-03
-2.497109682584369630e-03
-4.780866373219602727e-03
-9.927799146931783753e-03
-1.554014379572425837e-03
-6.638424893945218952e-02
-3.106967725153467544e-02
-1.028630641942040319e-02
-1.454292770756186563e-02
-2.616070769685849978e-02
-3.296246902137508344e-02
4.546652157797487085e-04
2.156278905027532444e-02
-6.068671727564052543e-02
-3.551573607318305736e-01
-1.551749586031445360e-01
-2.735173482313683901e-02
-2.787393643262471576e-02
2.057162230279570986e-02
-1.466507016460706289e-02
-2.456385914559694114e-02
1.506520327964118097e-02
-1.210377328413548594e-02
1.430279668822152794e-02
2.075160903543237564e-03
1.510252909476195171e-01
-1.034684398813601018e-02
7.960582199348508955e-03
2.146963749126836254e-02
3.580223920767629242e-02
-2.576103161517194831e-02
-1.450516606645436274e-02
-3.786109828327596100e-02
1.287588691243486336e-02
2.982971308216311040e-02
5.462248654474440024e-02
1.196994040445025116e-02
-2.092203395373100350e-02
-6.486859138546546832e-02
1.126269409818769079e-02
1.748847638168476715e-01
2.173798491943558855e-02
5.371083027460144682e-02
-1.519660367226516665e-02
9.548276248961444848e-04
4.284938956650220787e-02
-2.322926193025063105e-02
-1.119578983092998914e-02
1.810343412729637641e-02
2.025804714838587081e-02
4.020360636078937518e-03
1.565810023051892805e-02
3.777319310577469808e-02
1.106928139439407321e-01
-2.132097667320752375e-03
5.961423373200113590e-04
8.346998542243540264e-02
-5.483560240638919725e-02
-1.230622351866750112e-02
-3.947355662766810491e-02
6.848135651601320630e-03
5.839878765855697346e-02
1.648971627222328706e-02
2.841607466269769136e-02
-1.740071581971928683e-01
-1.688069688320170333e-02
-2.922741724106128411e-02
1.794835502012841547e-02
1.737653243475730663e-02
6.306071086279425343e-03
3.123425981737275314e-02
2.190066439781223478e-02
-9.652857723726418135e-03
-6.476088254967309055e-03
1.963886162887710021e-02
3.177970334605597497e-02
3.779646414687337641e-02
1.421701960677225832e-02
-1.823608796625538278e-02
-2.192199621849609883e-02
-1.923710971835487435e-03
4.612653121026531657e-04
-5.630421046038405763e-03
7.863991580472108611e-03
-6.881711212742971928e-02
7.797611504594152698e-02
8.683723102876251751e-03
-2.461476943970520304e-01
1.461916795343903494e-02
1.748440260466134488e-02
-1.194569069145992937e-02
-1.781907463716220913e-02
3.806130808248089220e-02
1.394754094138695444e-01
2.336155884296524030e-02
-3.161332237130792810e-02
-1.865684194992158276e-02
2.307900364861805147e-03
-1.088673318427022668e-02
2.344249684357443964e-02
-1.948593277755383824e-02
-8.755504024387296760e-03
-4.733462463738126588e-04
2.322572223459595450e-02
3.396563143778349309e-02
-1.164584765119402662e-02
-1.194419985375491308e-02
4.284078888084947787e-03
2.490268457721068335e-02
-8.311333396249660777e-02
-1.231419467445613383e-02
-1.506875886021036282e-02
-9.596299198946417475e-03
2.564859650836924868e-02
-2.368955404669056963e-02
1.603318659225032999e-02
-6.018918390920763306e-02
1.571229365629773361e-02
3.557682406712059375e-02
8.587326605947636846e-03
3.694530464808914311e-02
2.596125128153991754e-02
4.143098143759988417e-01
2.297646191595717757e-01
-2.636321967731799706e-02
4.067174620753798847e-03
2.530965712973855253e-02
4.321351418365858982e-02
3.072219518422123624e-02
1.461650790431274008e-02
-1.451941173647970477e-02
2.288937096907208216e-02
2.033776584182401814e-01
3.232340478346316243e-02
1.432237852576580608e-02
-1.793199573703520983e-02
-1.466219657713167535e-01
-4.001677481852069021e-03
-2.637661063548418783e-02
2.231165407976112326e-03
-1.099539278908353603e-02
9.572444230740068810e-03
2.170408799856539048e-02
1.897057388920440554e-02
1.944596950784546197e-01
1.598531933157649673e-02
2.895957285546477480e-02
-1.022156661847390367e-02
-9.796150736538587062e-03
3.967503969789201723e-02
2.485169822498113981e-02
9.466294518296430177e-03
3.740120123047662587e-02
-2.364206887189540876e-02
-3.727580779158620738e-02
3.867506848635674649e-02
2.489464323386772482e-01
-2.349146650141758878e-03
2.890131054540493599e-02
2.381323671362041774e-02
2.693164299323068563e-03
-2.637396329362114503e-02
2.878100385255248639e-02
-1.690063413141321613e-03
-2.217763471364424602e-02
4.455068683031396595e-03
3.562996409625432122e-04
-5.861390969700795532e-03
1.086537261954979849e-02
-1.638948906188510482e-02
1.379854722888701306e-02
-2.154313162128312573e-02
1.966371765471297550e-02
-2.723963117630272095e-03
-1.236263852970393567e-02
4.481818426942029560e-02
1.037679451881099932e-02
3.256146683548016840e-02
4.917503128938484347e-02
-3.056390718608182136e-02
-1.556041210231196362e-02
8.709200922111359766e-03
-9.760508837473150928e-03
1.275237505902498437e-02
-1.513160505961162229e-02
3.718789427725640619e-03
-1.234828653947260026e-02
1.185910283088991053e-02
-8.394640705487550758e-02
6.353094756894372974e-01
9.059140437190494125e-03
-2.552621490363092549e-02
1.626024429140582317e-02
-2.180460169429354264e-02
-2.810537974736137395e-02
-1.589678847384618995e-02
-1.332627070521265333e-01
-3.661090413240342123e-02
-3.354192331146937933e-02
2.217926302194538762e-03
7.288720602985661670e-03
-7.620003924333389189e-02
-2.902791259152209466e-02
-2.185771645057022622e-02
-1.776160870855481369e-02
5.047126341689894997e-03
6.716984783256622904e-02
-2.063387037589119611e-03
-3.117291439423108823e-02
6.750484422416430652e-02
-1.141857930525252393e-04
2.381250918437759559e-02
9.390887178622100290e-03
3.054439901356165166e-02
-5.744283587236798105e-02
-7.941573685956310191e-02
4.778010112826000522e-02
-6.510149013463918362e-04
-3.924459793142095337e-02
3.465684672716197456e-02
4.396700018296043760e-02
6.167569020739952640e-03
-2.457349842404905199e-02
1.361830361608957173e-02
-2.973034299012482576e-03
2.908506272437937773e-02
-8.568351071117049841e-03
6.264182673309413515e-04
-1.833520261674052593e-03
2.740715193983090346e-03
2.368086936857014685e-02
7.764619337422440370e-02
-5.971357724428101761e-03
6.829423593737821326e-03
-4.036330873883470227e-03
5.747790931123309549e-02
4.782976878531835369e-02
7.585100198413454939e-03
-2.553609001932912684e-03
-4.096616501026722687e-03
-6.046075053783307165e-04
4.217736537243891443e-02
-3.108516956939788231e-03
4.015851307505523271e-02
-3.969409420475633055e-01
-7.002315223554268775e-02
7.644789594723393721e-03
-5.350069734168160646e-02
8.146984116003327947e-03
8.429460257374961352e-03
-1.137324458721081753e-02
-9.981198013160060001e-02
2.668215322839718757e-04
-1.080629359253538757e-01
-1.114978567189591624e-02
-1.992151830914591984e-02
1.573196250746661251e-02
8.476966162974435004e-02
5.037685297166677456e-02
4.634289373191296385e-02
7.022581758581974976e-02
5.869928680368174077e-03
-1.521414851711695368e-02
2.995221520015884861e-02
2.714204869150579347e-01
-1.173267043368699108e-01
-4.604591730200558765e-03
-1.873374993234303313e-03
-5.123407708124052412e-03
-9.015399668537421932e-03
-1.025463875373960540e-02
-1.542865749695251573e-02
1.339704661212832160e-01
4.809255448096565189e-03
3.038070333931498258e-03
-5.589770637938380055e-03
-1.685170721737378515e-04
-5.999796980239850697e-02
-6.007301008112660330e-03
1.375168659766277772e-02
1.018554147351814626e-01
1.388383696936100822e-02
-6.564830465069780574e-02
4.288044258545645193e-01
-2.808558004559163004e-02
1.342155883056561083e-01
-1.426129294028607129e-02
3.974794768761625435e-02
-9.128660611107182465e-03
9.933197639154867434e-03
3.044822306991616656e-02
-3.294405825059552612e-03
-2.423278421179547726e-02
1.056046932213067224e-01
5.470503109962481653e-03
4.895772119955631857e-02
-5.018798512524002414e-02
4.376277174369502809e-02
-7.684359909377180831e-02
-6.567053921447568721e-02
-5.482119059752813515e-03
-1.939524862265276303e-02
1.138231664000315634e-02
-8.849684091849838521e-03
-1.539198270445539963e-03
-6.505242170507891108e-02
6.708270662762752523e-02
-9.212828332552781482e-03
-1.977635799806967340e-02
1.701327262231784338e-03
-1.151020756653139444e-02
6.424080327001320534e-03
5.606375465616011272e-02
-1.885206352744468392e-02
-9.956941752543102889e-03
-3.521891146918681840e-04
1.326434493912567736e-02
-1.841340926878022935e-02
-3.646067679503389725e-02
-1.535922556242605083e-02
-1.978007963888172779e-02
2.260811666652864232e-02
-7.767243414537183810e-02
-4.659778720543837106e-03
-2.766044498068440105e-02
6.434884369297814641e-03
7.381275971715944850e-02
-1.193759483607519621e-02
1.385098511922350749e-02
1.625225052615343890e-01
1.154569245122125248e-01
-7.917083357202793492e-03
1.618362403411102712e-02
-3.577853080619082787e-03
-5.617636545225439086e-03
-1.480771024119319906e-02
2.211749675025465739e-02
2.822901980909433423e-02
3.741170344234251433e-02
-2.432083639875125269e-02
5.368592477818413811e-02
-2.279895986050351972e-02
-1.860280733083263457e-02
1.148189351789111017e-02
-1.847117346514493691e-02
-1.524337305447673666e-02
-3.674462516727785427e-02
-1.384754909407739411e-02
-1.546855310953467177e-01
-7.201001894981422582e-03
1.174061689950132853e-01
7.994930595138077800e-02
-2.495032272133388199e-03
7.704420027085320984e-03
-4.646721370236469445e-02
-4.006324049857747788e-02
-4.241146581956405787e-02
3.138531095769144658e-02
-3.759911461988063586e-02
5.163323800464403139e-03
-1.268898650652406160e-02
2.472802634154427567e-02
7.295921025883661884e-03
-8.456370409710553190e-03
5.770467982738628800e-03
-5.161492346691333444e-02
1.931757213878319834e-02
2.858944173799379124e-02
-2.173983269337597876e-02
-1.419835638588673801e-02
-1.035336524118846482e-02
1.288455516507983501e-03
4.238377690981054435e-02
-5.207377928922219540e-03
4.868831736089409418e-02
-7.564908939980041248e-03
9.407701630880886678e-03
-2.295314891450572076e-02
7.624399610519698445e-02
1.651429389068906914e-03
6.178487937231853626e-03
1.610551197882676908e-02
-9.835876083921161594e-04
-1.290738852833079112e-02
-1.513252326379644318e-02
1.576582150628796962e-03
-8.749973047665915438e-02
2.452671628683601723e-03
3.071519531320983723e-02
-5.944791143688347296e-03
1.883110142942386999e-03
1.813903309566658115e-02
-1.233767339967486304e-02
2.786106617653677509e-02
1.651631971539443619e-02
-1.207619776809385481e-01
7.385089014031161712e-03
8.095256829273547727e-03
-2.445282981256677660e-02
-1.020718889698106827e-02
3.933502228229725922e-02
-6.129335935683695100e-03
-1.157908879706743763e-02
9.095986320512176176e-03
4.264354611077313811e-02
-7.931811342896692707e-02
-3.057766850931518607e-02
5.115489192274286744e-03
-1.037904247307684831e-02
-3.472926828182942242e-03
9.419133322408436426e-03
1.012093344338915041e-02
-2.289274270811005128e-03
1.325455550161639719e-02
4.973813611340319879e-02
1.165152703321492740e-02
-2.906357933528712009e-02
-1.427844803502224813e-02
5.638624741244756614e-03
-1.878950793507654093e-02
6.289943095490245495e-02
-3.516879639625059006e-02
-2.659105034730259182e-03
-6.922676808635748469e-02
-2.407102098409658400e-03
1.286471209192498709e-02
-1.622147355534880181e-02
2.260549418447909287e-03
-6.270171816255570851e-02
-1.703321754674020500e-02
-6.412477119539350401e-02
9.790753656242127956e-02
4.059578234064665538e-03
-8.513266529656659046e-03
4.786228076469399573e-02
3.838781421717683655e-03
8.321834453083859495e-02
-5.666957238378943565e-03
-3.153749459562633917e-02
8.170893014162634860e-02
2.872670849940449703e-02
1.069766517942565970e-01
6.865172654984759253e-03
4.140299273995641516e-02
-4.443189626351412742e-03
1.213820026165315924e-02
1.587270176294494281e-02
1.250286025807567820e-02
-2.757037319406059617e-02
2.898862930044500928e-03
-2.457821552668556023e-02
2.428279283751894405e-02
4.115465863584071710e-02
3.983243898902986968e-02
3.681468310611962780e-01
-2.336913216709774962e-02
-4.668858594479927127e-02
-1.174653704760061229e-02
-4.369228113347264041e-03
4.597948590014834525e-02
1.513027861220773290e-02
1.758590678722939671e-01
-5.987587218408660893e-03
4.881314745986207147e-03
-2.622377914469754649e-03
-4.926209204686243098e-02
1.259944236858806244e-01
1.695439004433217309e-02
1.112404181308847967e-02
-3.638932705157568032e-02
-8.084073762297729060e-02
-4.575487545736778294e-02
-6.081533488979520841e-02
-2.448278011342722507e-02
-7.266587372467835787e-03
1.239653402299885528e-02
1.175840961780764971e-02
1.406346151727130324e-02
1.177922008731786679e-01
-3.846843743971890828e-02
8.175125540399194590e-02
-2.203553279015900077e-02
4.896568010071010446e-02
-2.295918338493318361e-02
-1.645158225174296329e-01
1.394277909122219536e-02
1.373040431580999608e-02
1.865445785850278898e-02
-1.196558675119138715e-02
-1.061324059184548356e-02
-1.178476664040637063e-02
9.265178702300752925e-03
2.749944178566031904e-04
-4.988770321854195389e-02
1.925349440874576240e-02
4.389736150693627700e-03
-4.813614623303323625e-02
1.693117323343084901e-01
1.875079178477858516e-02
2.439102510799999457e-02
-1.364720427866732699e-01
-1.303095031085766201e-02
1.681108194062849032e-02
1.138606438921839353e-01
1.307748866325042503e-01
3.031249454898178944e-02
1.215090084195868600e-02
-5.623505538289839782e-03
4.716383720786306022e-02
-1.054458340077358072e-02
4.137375555098336127e-02
1.147246387136703280e-02
-1.902856277086840270e-02
3.034533491295022048e-02
1.456863542666064250e-02
6.644781172732282248e-03
5.958437050533210884e-03
-6.238888085429042385e-02
2.778262504323713092e-02
-6.091010532116194337e-02
1.417422327910079251e-02
-2.658395099864666912e-03
-2.141979879640357187e-02
6.591200408816132172e-03
3.360616750708475542e-02
1.519965003057739857e-02
-2.037557375596338316e-02
-6.855419008607751413e-03
3.579998577771590501e-02
3.682126532652556152e-04
-3.988568807745564160e-02
-9.382875734172151094e-02
1.140418015890176939e-01
2.433534352447959750e-02
1.588607354632564847e-02
-2.059415746332923791e-02
4.940284957090420453e-03
4.972801610745879002e-03
2.503700016739651008e-02
-2.438117197287040239e-02
1.056244600666343333e-02
-4.469558658145707415e-03
-2.748570973507763124e-02
2.264901847074944630e-02
2.745910335997176106e-03
4.956687046613780095e-02
-7.981814361660781454e-03
2.451533235318825027e-02
2.304787841589665126e-02
-1.113700955818874433e-01
-9.903841996538268605e-03
-4.991711807814785962e-02
6.185255647782411659e-03
-5.692320157781516864e-03
-2.398733657500442748e-02
1.586344407171921475e-02
7.078255158323213357e-03
2.081696234907163059e-02
4.870733974399986399e-02
3.521723135656595893e-02
-8.279856273704588876e-03
1.488388595808950166e-01
1.344648590235291916e-02
-1.351838725780958941e-02
-1.523060280272790779e-02
-7.500674087134804723e-04
-6.715112345306727126e-02
6.363895052834057930e-02
1.130113231096607947e-02
3.088325388844757532e-02
3.130784241823388048e-02
-3.318779435660290395e-03
-9.090611569828335736e-03
4.448880227404578697e-02
9.792274198978642707e-03
-8.373804609158735923e-03
-1.121996125865189070e-01
4.162070809944103111e-02
1.573656586805514609e-02
-1.688412955107120722e-02
-3.791724434129195576e-02
5.379409669043757822e-03
4.472893907073277608e-02
1.206322039368297157e-03
4.508864795490659903e-03
-6.451436503227866992e-03
-2.300043046486736215e-02
2.547261735242858580e-02
3.026494357628510806e-03
-2.561152008023232819e-03
-1.671712885716013230e-02
-4.648429769123833127e-02
-3.804174140328479142e-02
4.944300086861088198e-03
2.145457886548195539e-02
4.864603456421477401e-01
2.192966702556565714e-02
1.290459927631731896e-01
1.876506972265234649e-02
7.270261092652048444e-03
-2.500599040856639303e-03
1.280736615477084256e-02
3.275285019798398339e-02
1.495101502816629374e-02
1.205184157964416664e-02
3.658034476936006100e-04
-1.801986673581906784e-02
-1.508149752922778673e-03
-2.194278117010120804e-04
1.770648468459778621e-02
6.692037668811370854e-02
5.497487018359129007e-03
1.415608293904341633e-02
8.391963532581654672e-02
6.781109843223721845e-02
-3.551236810945437167e-02
-2.643996868888578988e-02
3.070561333916730826e-04
3.807687392726361985e-03
-6.607381759681658917e-02
5.898691190465758794e-02
1.247476807172344989e-03
5.949618145806457453e-03
2.409065536407196603e-03
1.962852191923210310e-02
1.084414608661089276e-02
-5.136679490307861917e-03
-5.875546674482635262e-03
-1.667549333304842729e-01
-1.670305197868758584e-02
-6.782658053838908595e-03
2.635076684058527963e-02
4.142083117555046129e-02
9.058260775504603513e-03
7.550964488242564721e-03
1.122506012750376821e-02
-8.833555174371325591e-02
5.035024466603244681e-02
-1.218030192681010364e-02
2.904011213885574622e-02
1.401100557427341180e-02
3.887279485898534337e-02
-1.303593549265918278e-02
-1.358558111301662145e-02
-4.695193525328141687e-02
-3.562245643411240253e-02
-3.595619573835780181e-02
8.637335608594969016e-03
-1.775394279268569311e-02
-1.157953972924052541e-02
1.668693629983809129e-02
-7.407427923071660536e-02
8.731090502266327866e-03
-1.766067326711609764e-01
-4.010084877436342898e-02
4.245968833451419649e-02
6.481029561943021933e-02
-1.289504306481405703e-02
-5.737133933721807327e-02
1.791795406721117048e-02
-2.249209532810441878e-03
-9.552201264933259106e-03
-2.389745576103962516e-02
2.953986099118447589e-02
-9.768030595203144872e-02
-1.024776696472404214e-02
-2.967959212123091536e-02
1.814670314059031730e-02
-3.185813389470501522e-02
-2.451890560128806851e-02
3.510697856868639968e-03
-9.105815108979955011e-03
-3.219360444714151198e-02
9.992381914163216139e-02
1.557068593909683579e-02
2.919858795851988697e-04
-5.090032497127154956e-03
-1.695329041949632590e-02
-9.082917725442380893e-03
7.750379230999520676e-03
-2.312650002367595825e-02
-7.598069737623788789e-02
-2.263992179524257353e-02
-1.516087408218603702e-02
-8.145776172119440633e-03
-5.277186421619682599e-02
4.913175982034261036e-02
2.648435963906813420e-02
-2.603418784803411198e-02
3.666407293428855518e-02
-7.111200905958113896e-03
4.552385691307182791e-02
4.549115447049043894e-03
2.947754482930269038e-02
1.767699102300266181e-02
-2.682547898086361238e-02
3.511411214361634392e-02
1.198030927206263779e-01
6.872364907067028683e-02
-1.509201740072682422e-02
2.384190958619566286e-02
2.373598192628711620e-02
1.102273448908872716e-02
-7.103559990238539346e-02
-2.880973362629168921e-02
-2.854944108138243036e-03
3.839261610103763406e-02
-1.714151675992961477e-02
-2.060966426373481500e-02
-2.637546147392252644e-03
2.167837527995470498e-02
2.159744298302891385e-01
2.546485972084748528e-02
3.157277405020422756e-02
2.418057937787949224e-02
1.502615273311359162e-02
3.531411621815370994e-02
-6.027723182967171384e-03
9.506182398146949828e-05
-1.577387619450576484e-02
-1.797394692253203446e-02
-1.252230234169848452e-02
3.022540907522267613e-03
-1.907391085154947624e-02
-9.823699301379822113e-03
7.463901150636387261e-03
-1.581340921792192405e-02
-2.206348859356655964e-02
-8.312279550622090132e-03
-1.134899364907268095e-02
6.948793799309430086e-02
9.826545956491444106e-03
7.091917499239341893e-02
-3.555978122911149231e-02
1.283100707378118273e-02
-2.829334767325684952e-02
2.000912206916538247e-02
1.609314921381255203e-02
6.136879635861944293e-02
8.127234149246910511e-03
1.389579028924201910e-02
5.205184076881246014e-02
3.018518605368466362e-02
-3.681554102079948043e-02
1.969052113167992987e-02
5.000339258696652467e-02
1.755342731656755334e-02
2.958838090520866104e-01
1.430978360272168459e-02
-3.915201111074175996e-03
1.394233526169350555e-02
2.233951180539728576e-01
-5.260735287852112696e-02
1.195479131169871131e-02
-8.311896948693910797e-03
-2.401830077145845899e-02
1.125731816459060036e-02
-1.054439862909434603e-02
-5.826898830756840897e-02
-6.092161502639481530e-02
8.903808510129077036e-02
-1.393904127917903850e-02
1.007177098506794460e-01
3.191286377106436131e-03
-5.933040943618225760e-02
4.508308500452395950e-02
-5.183670057055692233e-03
4.814134391651950923e-02
1.545660740744846670e-03
-2.126078231280080152e-02
-3.634103367513218108e-02
5.377216566626582400e-02
-3.910810141818509000e-02
2.763158262564406956e-02
7.724272448085517384e-02
-2.832070116200893859e-03
-3.877161402666823124e-03
7.686903786238749592e-02
1.046428602423056346e-02
3.511984406067811260e-02
-4.790860957754834726e-03
5.308624914581810093e-03
4.749423550501646191e-02
8.824496420772865585e-03
-1.020940505094687922e-01
5.514842975834750166e-02
6.253287853586270845e-03
1.807220540634075362e-02
8.048042833254697923e-03
7.423246306197953115e-02
-1.691275654333654690e-02
-2.546633877789755349e-02
1.760341314301127127e-02
3.173636645283874069e-02
-8.584947403297120416e-02
-7.247990434963305119e-03
-1.140888396319346756e-02
-3.571259350083457601e-02
-2.399452316761636894e-02
1.538151801360373647e-02
-1.873862304914905227e-02
-1.626757350226082019e-02
-3.733299586237697615e-02
-3.912681895907437757e-01
-5.026964408099360987e-02
-1.119141713332015564e-02
3.118831302623444393e-03
-3.213531203966055877e-02
-1.598098621330605942e-02
-3.253307124023066543e-02
9.566323748310590416e-03
-1.969917352012828110e-02
-1.660590256830450986e-03
4.375132615118153961e-02
1.935497781362087791e-02
-1.483067460056041731e-01
2.898181964545184716e-02
7.502497577628799291e-03
5.778476775355427704e-03
2.569204180192562192e-02
-1.124348804314983553e-02
7.357886734290114937e-03
1.254544015229256369e-02
-4.049494902129734467e-03
-5.934615761459964556e-02
9.107504390800874941e-03
-2.895166879888642214e-02
-3.781538559326463184e-02
-2.517815539845914830e-02
1.522224322629227300e-01
2.829422631177261338e-03
-1.171173771205209595e-02
1.101039656165874459e-01
7.063422087505027980e-02
2.114505955580996827e-02
1.364798961667010530e-03
3.388338177388330180e-02
-1.376253762071710449e-02
-3.142068009217501012e-02
8.359120360956723977e-03
-2.799926528521005237e-02
-9.810667517617333022e-03
5.126247631908896485e-02
-8.526881528898345997e-02
1.305038144015861420e-03
1.894310448973352684e-02
-5.751136234980801752e-03
2.893918354362754949e-02
-2.373504626868673528e-01
4.778733568359219697e-02
2.873186033972308095e-02
3.277229434045270812e-02
-1.658942136463059658e-02
-1.022913658384418945e-01
5.140447542455594578e-03
-7.533843676374310516e-02
1.474114085814477162e-03
-5.527265024558992990e-02
2.121630406411412120e-03
-3.219079131551165485e-02
2.158786211951558773e-02
2.835759208243165963e-02
2.405638559860437398e-02
1.658203640203249549e-02
-1.015434288898585218e-02
-4.505630358206102332e-02
-3.789514301424165565e-02
-2.318287880314427729e-02
5.292148652862745106e-02
9.442645994126792550e-03
1.753878854524803035e-02
-4.738148098129495167e-03
-4.157548858984147326e-03
1.083360093756377020e-02
8.831029656111406834e-02
-9.624122658248643455e-04
-3.878727166323586023e-02
-8.492179478301857196e-03
1.771309737951142242e-03
8.640438221168968147e-02
4.005951507511129259e-03
-9.430748136839748165e-04
-9.746909281701464020e-03
1.245228237157096907e-01
1.329765785294376732e-03
-4.762919695748712989e-03
-2.298526723171381847e-02
6.646086148277515100e-03
1.990616533699953242e-02
3.766162423470120605e-04
-3.723962391072262179e-02
-1.840402220790834237e-02
-4.454818104523981803e-02
-3.784314289383968605e-02
-1.852082400006707999e-02
7.747415727850264118e-03
2.847065531650700646e-03
-1.151365932800576045e-02
4.661606469066065239e-02
5.726210958495047895e-03
-8.574049750428948402e-02
-5.387304976268663531e-02
-4.362064706986591711e-02
-3.447365388327612579e-02
2.234376019688828763e-02
-2.598326744469552085e-02
1.175058690151256982e-02
6.724800258788812823e-03
1.314827164129362125e-01
4.384668699910505840e-02
6.321564829230182092e-02
1.713955141576137264e-02
-1.122176853933549989e-02
-4.814901247305677923e-02
-7.095388483666383202e-03
1.923224136249676933e-02
-2.671256193708207785e-02
-5.256841272822884714e-02
2.117958997888896595e-03
-7.022073653366289747e-02
1.628487418869007525e-02
-5.084570920338122441e-02
1.674705298651802884e-02
3.771886714860921228e-03
-1.634469380804805944e-02
-7.295246861148321944e-03
-2.028145540904971456e-02
5.849375782420944414e-02
8.634151849651978614e-03
6.507978081139552395e-02
3.068517197688474737e-02
1.266213586765996789e-02
1.576457090320886392e-02
-1.116312856145863265e-02
2.185484322530338065e-03
7.084143868696745824e-03
3.812040488458173781e-02
-2.581613054960034750e-02
1.878409381857370011e-02
2.465075858476648875e-03
2.866011274594745719e-03
-4.296004353086697869e-03
1.232994814000721029e-01
5.205621459172426330e-03
1.578338636205774137e-02
6.020976517010494949e-05
6.610786068989437866e-03
2.599303768168636630e-03
5.719052046305673348e-02
2.766770643299491361e-03
-4.119269839161016772e-02
7.917449273413241714e-03
-6.456148943382271702e-03
1.024520272659231596e-01
3.171211334771798125e-03
-4.830196286956631342e-03
2.403110507171818053e-02
1.282681843370071621e-02
-3.460016143550354029e-01
4.102381197678169750e-02
-3.894196550778382480e-03
8.714582875344278196e-03
1.207903698408022836e-02
-1.888605471803239677e-01
3.960816150794284210e-04
4.709356521550014246e-02
-3.686925642188885327e-02
1.141506815622684440e-02
-3.946875517519103649e-02
1.068528868475590032e-01
-8.350046612986368466e-02
-1.080924544099350678e-03
4.406370737338397708e-02
1.141973126726220089e-02
-8.560138345032105439e-03
1.736241209177260061e-02
1.205654133153347303e-02
5.946341912289008352e-02
1.958380883887562290e-02
-5.295583661214246785e-02
2.316874670583164708e-02
9.503605468477786117e-03
1.668662665599941405e-02
4.451256753213102962e-02
2.878145623107123199e-02
-2.374868366013836718e-02
3.889690871284974191e-03
3.292927877162080130e-02
-9.024874779515250313e-04
3.813730746396650634e-02
-5.771172128080419295e-02
-6.731776611399696575e-03
-3.110319398309436753e-02
4.217439618544428261e-03
-6.226908952771419148e-02
5.176493081624872900e-02
4.096345042945421025e-03
2.432288189071893716e-02
1.784969951874445723e-02
-2.803237339990499385e-03
3.635813321977709317e-02
9.265522438306030353e-03
-2.848409238749990621e-02
-1.137713213359083653e-01
-3.532282345420504482e-02
-2.143114321330456980e-04
-6.549002159940804646e-02
-6.693719031391029417e-02
2.048066918513284651e-02
-1.945608487111208373e-02
1.575482164805090592e-03
4.074341768813203452e-02
4.916617710752321790e-02
1.996087233608764833e-02
1.700741660227539365e-02
-4.331532865734961935e-02
1.176287626577936785e-01
-1.004980103376423503e-02
1.183536665035298946e-01
8.279016450359039103e-02
2.386717621967728714e-02
-7.466444310039995445e-03
-7.841377264702367733e-03
4.085242457394558206e-03
2.155431035890338284e-02
1.599784910917326523e-03
-1.329281534680792909e-02
-9.559625057067344320e-03
1.111534521434129862e-02
5.442408333758862876e-02
1.121488986609676421e-02
1.035902117577250196e-02
-4.607744142135782733e-03
-1.205315077064248201e-03
-1.407856949236510613e-02
-3.662665973613414561e-03
1.049039244518143107e-02
1.228367245763702098e-02
9.129759797404051955e-03
5.267124784092712397e-02
3.173943872253082860e-02
9.670620016051047207e-02
-8.361812052380027116e-03
-1.044804166420610150e-02
-2.451610167568854179e-02
1.834471437080123848e-02
-1.921623863662809406e-02
3.970236123072579115e-02
1.154579406508943543e-02
-5.825561597042769324e-03
-1.828010910579139572e-02
-5.582208069196927663e-02
-2.351603100041564295e-03
-3.275858609894397727e-02
2.243109394816780039e-02
-3.278471224471498496e-02
-1.732566889890366224e-02
5.260238657321610750e-02
3.079808010959379783e-02
1.770910909444657275e-02
2.431174605232728769e-01
1.614361471368801898e-02
-1.785664005207395020e-03
5.234592606172014384e-02
-1.859894574898601988e-03
2.505242997335912006e-02
3.503743776022975875e-02
-4.475966996436284151e-02
4.297544407606670308e-02
5.983002557608678267e-03
-5.433050720196722604e-03
-1.441755755810813222e-01
-2.574309779258640227e-02
-2.467029056750419310e-05
2.173388240850955902e-02
-8.084482536898815463e-02
3.828633591215840730e-03
-1.428752784464865956e-02
-3.710196366728644307e-02
6.941137305880099029e-03
1.167978918646441072e-01
3.381272297834510970e-02
1.143272394891333229e-04
1.849131528696517290e-03
3.953611752787847787e-03
1.311806732654658379e-02
2.406827820618127542e-02
3.638834952376865384e-02
1.141597763337767746e-02
2.729238044503791861e-03
1.488561081050090475e-02
-1.027301230214359117e-02
7.737755738633120620e-03
-2.964457962420146211e-02
-2.660711301217809441e-03
-7.225321776496594628e-02
2.023299327871612777e-03
-1.508672222398199647e-01
7.393196062682208525e-02
-1.420125756816747152e-02
-1.344461171007488298e-02
-2.527870793080766107e-02
-2.211228483773005835e-02
-1.293500837107747388e-02
2.986088786687348881e-02
-3.163388617126444008e-02
-2.463647677738452571e-02
7.279704344087457001e-03
3.256244273254251670e-02
-1.517250434647410794e-02
-8.984686363230683787e-03
6.634660635895748941e-03
2.755280485750203484e-02
-3.748399115092425349e-02
1.394511182271023809e-02
4.423904605974521287e-02
-1.148568532658255162e-02
6.600987243918610137e-02
1.433747594176266495e-02
4.796659017717370965e-02
-2.307623197551700387e-04
7.426441840780897800e-03
-3.148611031056396115e-02
1.828488786095995664e-03
-3.235488559565857791e-02
5.804645643305365345e-03
-6.249447372419240920e-02
1.152577545188710438e-02
3.630465439433380737e-02
-1.977467501723447971e-02
-5.994316279278840559e-02
-2.143309146495858339e-02
-2.985074915473763524e-03
-4.713634272754704119e-02
4.457833362478199821e-03
3.006802038515906002e-03
8.333864051416839391e-03
3.524290000782204224e-02
8.357546812594004657e-03
-9.284156637156119538e-03
-2.305333037256178733e-02
4.141011934361187030e-02
3.088672970455315706e-02
-4.466758260375518110e-05
3.194695567487310095e-02
-3.115749924342042093e-02
-1.043884392854719720e-02
5.126756191408276923e-03
3.708708170600038666e-03
9.781541195921046594e-02
1.222020032697188584e-02
4.913984207487806510e-02
4.114742198006004353e-02
1.598131687337274454e-02
-1.364146870987188037e-02
4.010653804349766788e-02
4.215124179700464879e-02
-5.489945553574852172e-03
7.784730621983859677e-02
5.428704146180157730e-02
2.661003029153322791e-02
1.800835780819326493e-02
-1.680753074081910159e-02
-1.030748429144473684e-02
1.175111576964570081e-02
-3.294432386018152914e-01
-4.763051812976864391e-02
4.669151925792591751e-02
1.635355165507955985e-04
1.317689558580691610e-02
1.055880515703398401e-02
-1.089675432167064827e-02
-2.624270841468780840e-02
-2.802609247421445349e-01
-1.753129006595014958e-02
-2.752487571461676667e-03
-5.234820938696276016e-02
1.701363986981380486e-02
1.031559648772754391e-02
-1.354334088212089116e-02
2.942302407698822730e-02
6.862539763685208960e-02
-1.814389544301826666e-04
2.545652684681697780e-02
-3.137764806806679629e-02
1.016197476770541452e-01
1.317112733405227942e-01
-1.134585705103423846e-02
2.397074173548535692e-03
1.696356863775189475e-02
-2.090558000100581348e-01
9.277036940035924759e-03
-1.741387969414808293e-02
-2.962293092012682760e-02
-3.007405100138866444e-02
-6.205097266767326675e-03
2.125641283835445761e-02
1.325615905211280886e-02
6.243744144967115425e-03
-1.018218478498516752e-02
-1.931283176070055368e-02
3.628218063380885677e-02
4.569222989744457786e-02
-5.474301221992883965e-02
-3.406308168607183329e-02
2.005040801833339950e-02
1.122857339779425109e-04
-1.891824079190308067e-02
-3.254381096866031109e-02
1.122938163704877285e-01
8.815316550758815197e-04
1.280293968917714520e-02
-1.297810977626502604e-02
-1.251587024050432144e-02
-1.094811408426298316e-01
-1.541918598175925081e-01
4.673214085234086036e-04
-8.803964326575571117e-04
-1.418126053556021185e-02
-1.520540166723582248e-02
3.542820067265231576e-02
-9.278403465667399127e-04
-3.802337177076516722e-02
3.135806842608364342e-02
2.140542042756158475e-02
2.339394497349564853e-02
5.504871773407425672e-02
7.269606813849936733e-03
-1.181844805890881062e-02
2.282965065487326667e-02
1.223900097503710649e-02
-6.251770615240413720e-02
-5.174533849037646349e-02
1.351715805515322708e-02
-9.656029990221496814e-03
2.289058073212834818e-02
-2.693672560452322479e-02
-1.077275630034447984e-01
6.264691562777472376e-03
-3.472318121619438758e-02
1.552716546289755611e-02
5.517403418589902214e-02
5.875687873367513823e-03
-3.893535385077072364e-02
1.452479178867690721e-02
1.146637722310587734e-02
8.828707049269812063e-03
4.397183472460691050e-03
1.422165011189611972e-01
-5.025933294944311125e-02
1.707842192218121669e-02
-3.474398277588497397e-02
-2.597891177161380794e-02
3.359771561433029519e-02
-4.339322828870345247e-03
-8.710402252632459125e-03
6.047771713621070966e-02
1.578006601951302892e-02
-1.525806088762205913e-03
2.295898019597076428e-02
6.747646446957347721e-02
7.853831286215010379e-03
5.258115714376147137e-02
-2.126797497821358157e-02
-2.244297543511327570e-02
-9.977956379691456379e-02
4.353722117759669177e-03
6.126783173349529404e-03
3.646837580510412739e-03
-9.147747971179278834e-03
2.547853659405147075e-02
6.486845419086970620e-03
3.838247974592876813e-04
-1.011268306708144361e-02
2.891248778108067990e-02
-3.093834512434093589e-03
-2.604057309992056229e-02
-1.443820815472407308e-02
-1.631697645956725271e-02
3.884163047141472175e-02
3.388799521686864519e-02
6.517985346319496442e-02
-1.145402333561307620e-02
8.507669188059131457e-03
1.393200025164888223e-04
-2.227246388765353677e-02
-9.135608094193287641e-04
-1.610464077615829034e-02
2.309087226189375421e-03
-9.270716081961670116e-03
5.232602545227662541e-04
3.508556933604165678e-02
2.819803889677470130e-02
-8.041350699655715195e-02
3.602310042854570821e-02
2.569341571410777708e-02
-2.297196866783185465e-02
9.791406809599084715e-03
1.216841274134698378e-02
-1.590904469882259975e-01
-2.651154443865293142e-02
2.428315724130052783e-02
-1.002807219652838977e-02
2.366193106332733012e-02
-4.589472897281278441e-02
-3.114662941141381827e-02
-4.391887550764219522e-02
1.348617348806923910e-01
-3.011375735382889121e-02
-1.937236138856344644e-02
3.894688854214023443e-02
-1.194505000337472891e-03
-1.121106931583410182e-01
3.575521943409024073e-02
3.087356849457775221e-01
2.196582409707788230e-02
-1.206917453497628329e-01
-2.406931060091465485e-02
-2.700419735154942907e-02
-4.974049579716479817e-04
1.143954435168746155e-02
4.811747651873360399e-02
1.388228475345364837e-02
-1.607178926413916145e-02
2.491855652652078673e-02
3.274136016277470057e-02
1.983328542676363743e-02
-1.064262374877650436e-01
-2.479918562708991608e-02
5.516257695760172670e-03
-2.513847244252876106e-04
4.950258203050966060e-02
4.313941113831152446e-02
-1.092249083070420158e-02
1.257546617798246773e-02
-4.455947156963024902e-02
-2.276622814040723392e-02
-7.708505580723973294e-03
8.993918358150153683e-03
-1.232054257872688052e-03
-1.023625398497726019e-02
4.411559045675525481e-02
3.628272472706394608e-02
-3.567206591053487946e-02
1.388548368038709270e-02
4.404256045697619790e-03
-4.475425914225823060e-02
-4.014323398430704425e-03
4.045528902856463521e-02
6.200402355247989356e-02
1.224027177815409893e-03
-3.973132262729485616e-03
-7.469714101305690961e-03
1.311486002077445236e-02
6.898864049029411472e-02
1.478657448023034532e-02
9.800895787275892834e-02
-6.268951263560856337e-03
-3.166298667181567661e-02
-5.207943245111510550e-02
3.061441271047890111e-03
5.222629458010482478e-02
3.773609445033719589e-02
-1.178447659180218154e-01
-2.011537601427263594e-02
-1.121362440138957001e-01
-4.645874292647775294e-02
-5.752205553062170185e-02
-5.517198655046415615e-03
3.792919397309255092e-02
-1.789642732835938083e-02
8.214777788259899904e-02
8.916856287446939255e-02
-1.452779698721335874e-02
-1.974621822077711160e-04
-7.549993131594669692e-03
-4.416691405418710255e-03
1.986677412943527177e-02
3.590758964259047059e-02
-3.001254217641974309e-02
1.855859236921532721e-02
-2.009415418229365882e-02
-2.158918836851588322e-02
1.389563749055519430e-02
8.852113876065645370e-03
2.219640295766786217e-02
-2.273650977542574989e-02
6.896369178092162655e-02
3.346352601395223558e-02
2.519183936875765695e-02
2.974584172915774316e-03
1.248269720195756619e-02
1.664886704473768006e-02
-1.320164311137805684e-02
-4.082854279561231280e-03
-2.659130672763059672e-03
8.968157279011842314e-04
-1.715444889640153209e-02
4.153602872445090292e-03
5.008162154984025644e-02
2.009950079788342097e-03
1.214032233290678921e-02
-4.148385763183071867e-02
1.173928269372624400e-01
5.731226245776079031e-02
-4.497098548228344039e-02
4.537931020290804016e-03
1.382319484589250927e-02
-3.700745984089825330e-02
1.167883597759918485e-01
2.629638180898475480e-02
1.741914290543877253e-01
3.041521501833676505e-02
5.924221393102496042e-02
-7.508305937183928393e-03
-1.372309733816602373e-01
2.816786067243865627e-02
-1.216677002569200271e-02
3.437372219547867036e-02
2.267762215437684609e-02
7.002699592253890104e-02
-1.669038611377496881e-03
7.423426357205485659e-02
4.338856216329030346e-02
-1.286759922173429938e-01
2.774396960504050690e-04
2.322039208824199299e-02
4.486577739988526631e-02
4.900110515379891424e-02
2.115203680999989261e-02
-4.508104426862113989e-03
-1.090251507407077741e-01
-6.230242254230190097e-02
-1.330589463913828437e-02
-3.236397433105465959e-02
-3.094998265260648015e-02
-9.712727187505631674e-03
-3.424188633222068068e-02
-6.468429242048374765e-03
2.782421984889466363e-02
-3.381641070028955365e-02
-1.728143024204373823e-01
-2.152646501336362862e-03
9.969482107543800598e-02
-6.914753527741008057e-03
2.158412401890007909e-02
-1.824242318488438321e-03
-3.007374448918288465e-02
2.823630121010171565e-02
-7.520148396379233192e-03
1.164321562516588103e-02
-2.319285366740093945e-03
-4.949150226721200224e-02
6.890306179978945844e-02
3.079829580994794536e-02
3.744874395490260799e-02
2.244374730871117902e-03
-2.953612652676460698e-02
-9.357611908102367315e-02
-3.745981247957686725e-03
-6.701386976289316032e-03
-6.281653410824020178e-02
-3.600475823241242740e-02
-2.225076786855501032e-02
-5.874119888613228702e-03
3.948196472378943250e-02
-2.886846576915170215e-01
6.733539729672897989e-02
-2.220802375240519752e-02
2.228645332393974429e-02
4.630040567973378596e-02
-1.038400875402023874e-02
5.815943879227618296e-03
3.714411180518851097e-03
-1.103364485353920676e-02
4.729973263494714752e-02
-1.655915705943909050e-02
-3.412131414614435337e-03
-5.585369453841366148e-03
1.779304514230674664e-02
4.377103500324303759e-02
3.111854494348987796e-02
-2.802263657933195401e-02
-1.321967026361914148e-02
-5.499782072355260260e-02
-2.878983110749689517e-02
1.620645312749210282e-02
-8.313086993472577554e-03
1.849006837172202655e-02
-5.932194912594829228e-02
-1.388814353660069827e-02
-8.571285850810307638e-02
6.081364022795102825e-02
-1.402800254146328515e-02
-2.984065957652006287e-02
4.010039402410650773e-03
-5.801531958952883643e-03
-4.736563495139495261e-02
2.538249029222421592e-03
-8.778533468468406251e-03
-2.840857053864281889e-02
-1.220604813658047105e-03
-3.731392858873107399e-02
-1.385508934536796265e-02
-2.811905873978785136e-02
-1.155569586893625232e-02
9.911887966006243181e-03
-3.141135672046335876e-03
-1.985715519207086402e-02
2.914124529636676064e-02
-1.255513623539140575e-02
-3.203318520412979931e-01
2.466363336335375758e-02
-2.355308624744929802e-03
5.704895682560110620e-03
1.465376373400646866e-02
-1.078775588397438145e-01
-6.341843937616184479e-02
-1.235932617165409059e-02
-8.148181935258323044e-03
-2.494949481997068771e-02
-1.701153142392965514e-02
1.641504985559894339e-02
-2.482634982085213382e-02
3.178658770552846013e-02
-5.535197859093567152e-02
1.103843064936329936e-02
1.450864317548451396e-02
-3.133994234421471139e-03
1.039608306592580168e-02
4.703187976092744992e-03
-5.160241492228625354e-03
3.543471643022477052e-02
3.433584943063814048e-03
1.656113181753038344e-02
-6.519821762823756715e-03
4.056893122706112091e-04
3.589792361301756812e-03
-2.131527367029490902e-02
-1.773997889778046791e-04
-4.508885379110993269e-02
-1.934424912940953863e-03
5.958889297960876658e-02
7.224132472376932138e-03
6.280451904160892773e-02
1.097118257178702116e-04
1.934234464496744493e-02
1.128014939295678837e-02
-2.108000420303446018e-02
-9.291931475008086486e-03
-3.958782821802395158e-02
3.235487638459267484e-02
-4.765160737149198508e-03
-2.808999836939486405e-01
1.028319320765696317e-03
-7.378618593664429447e-04
-7.202160428580925422e-02
2.019248331256229875e-03
-5.122281316312265326e-02
-8.069965307391813170e-02
-1.251073935717995336e-04
3.097667423951332155e-02
3.019237297027067835e-02
1.167749739100536199e-02
-3.282305570018952297e-03
5.527520473297438744e-03
3.970952392249965657e-02
-3.098382736696514775e-02
-3.609531449956829285e-02
8.315516346314688959e-03
-5.699287014065363387e-03
2.183080008920113002e-02
-4.762706395974765361e-02
2.341354220984410810e-03
-5.637197792955137704e-02
6.366826749177158587e-03
1.137562651057670397e-02
-5.977009959151700913e-02
-3.344095147541311513e-02
-4.772781254582842553e-02
-5.157868212382043724e-03
-1.143077791355558842e-02
1.748890179134692663e-02
3.299051767934990231e-03
1.638940723849110701e-02
-8.284995407879865159e-02
2.461794954367912264e-02
-6.745927054550523473e-03
-1.485533779627231342e-02
-1.517407441284045373e-02
-5.727645296117286206e-02
-1.689221862120839773e-02
1.864956717956197871e-02
1.033098124784773532e-03
1.846555169546037350e-02
-4.875995789097743727e-02
-1.836288579560341194e-02
1.089063112335976469e-02
6.188209783192799573e-02
1.718861506007325970e-02
-5.321067041550394533e-02
4.352497365053316011e-03
1.462846974101532360e-02
3.945627369040014681e-02
1.737338784984831033e-02
-1.099940083158749797e-02
-2.468939555250459356e-02
-2.740010603977324419e-02
-2.256327977111471234e-02
7.422850919821192238e-03
2.292881169614303157e-03
-3.013947259647286811e-02
3.450138127191497515e-03
1.277744165459577391e-02
-2.600639380262206022e-04
-6.818877262937605380e-04
3.040409492461583138e-02
-3.589847170106704507e-03
-3.384178996974167991e-02
7.602468492012849632e-02
-8.515914998512980061e-03
-1.068835311913444823e-02
-3.205844603723259547e-03
-5.059652934604821906e-02
-5.893008441003122488e-02
2.875093191651078087e-02
2.812784384180588848e-02
-3.143076694414809365e-03
-1.261516863062843441e-02
1.179073170425830319e-01
-3.677040402376131195e-02
2.306397282249260383e-02
3.815431130076672728e-02
-1.969562724803493314e-02
4.764506604639866228e-04
-8.492430811711301070e-03
-9.518252332687276648e-03
3.344627447772845208e-02
2.868386178115913190e-02
1.786126995257294667e-02
5.039760293395086077e-02
2.072761349815133505e-02
2.294599353294254906e-02
3.005073065932222995e-02
-8.216186962971614230e-03
6.685902122839414499e-03
4.752342887633982660e-02
2.482550414776685602e-02
3.157794712131305886e-02
-1.551286494473036633e-02
-6.768672839233964324e-03
1.959401115394443851e-02
3.414487569973262068e-04
-1.197454205890858929e-02
1.920010379713296385e-03
3.819264047001035608e-03
-3.647782759688645432e-02
1.924692105006267986e-02
-6.784080534938360593e-03
1.734828127131307282e-02
-3.055463232108366939e-04
3.263297707745304709e-03
-9.594292521254980293e-04
3.233299563000581467e-02
-1.267831526398223961e-02
8.029594332782994878e-03
2.155853635801528376e-02
-1.047460346875570165e-02
-3.300125146409995779e-03
1.847014696287821722e-01
-1.204453501496433564e-02
-1.923261358814089500e-04
-9.736419981115795874e-03
2.468763955080387901e-02
4.137052078076588167e-03
1.852877901077217004e-02
1.641431345026679806e-03
1.930221049912311457e-02
2.554440148894054040e-03
1.995217062817098916e-02
-1.626700606194433213e-02
-4.552635868630147686e-02
-1.314083864125966707e-02
-2.681231149222391974e-02
1.491557295125623024e-02
1.373936085764510158e-03
1.674670836107821636e-01
-2.593023827675105392e-02
2.884891211621794412e-03
1.574273836189601927e-02
1.673854992589678820e-02
-6.447389790373095342e-02
3.068875865500903660e-02
-9.981523054147221907e-02
-3.737552628220222606e-02
-1.514117463602206864e-02
6.125907595808120776e-02
1.889081407566226695e-02
6.960898419477044331e-03
-8.807267216152980848e-04
-3.873385286638212494e-02
4.333951625477960173e-03
-4.223912912218133302e-03
1.581930694215477476e-03
7.513850969458051032e-02
1.592642990216028634e-02
8.188583948549778280e-02
-1.502608788507731920e-02
1.227702821163584237e-04
4.187574938018290283e-02
-4.482986432752070205e-02
-1.993929786654213138e-02
4.966438792519937973e-02
5.136480598424044385e-03
-1.541195057581816290e-02
-1.306865131922205735e-03
-1.257572674545138491e-01
-2.610861277823311316e-02
-2.412606646711416489e-02
1.384184798018198506e-03
-6.208651674324685427e-03
-1.087717502187386838e-02
-4.222139150697549331e-02
9.006429921747044834e-03
-2.162910828810992586e-02
-1.692304764382045190e-02
1.377284709553917505e-02
-9.529737886981430595e-02
-1.772868447177173776e-02
2.301264455465027153e-03
2.536492134350206568e-02
1.210627074782563185e-02
7.770622811027963137e-03
1.215212542670084106e-02
-1.393630166853842001e-01
-8.694858886801494491e-02
2.309202086577421056e-02
5.696263429241205101e-03
8.030297520796050859e-03
1.560106243837072054e-02
1.295175478316974542e-03
-8.435471496886969229e-04
1.233090155847172027e-02
-2.415275652420457650e-02
2.497546584900241576e-02
2.065863827143973180e-02
-9.797692103544033743e-05
-9.843699384729810709e-02
-1.925285621354179758e-02
-1.851346301544597867e-02
3.813233082607939833e-02
2.212256002470145214e-02
-1.278137702671986176e-01
-8.688239130256357468e-02
3.565887086214799412e-02
1.766225420950947450e-02
-1.885394274333563464e-02
1.170277059544563847e-02
3.326089604460553267e-02
-4.021962085794141689e-02
2.290234963601165807e-03
1.065965031285862931e-02
-1.150833822931993143e-03
-2.892766713828978306e-02
-6.392928614141767107e-02
7.438193509842798423e-02
7.567305654405369168e-03
-3.949021717086145800e-02
2.172087857510239962e-03
4.504150621790432157e-02
-2.371371685419582792e-03
4.606962730950077411e-03
8.187702056704366507e-04
-3.167266596214239616e-02
7.841035222108567321e-03
-2.179153640854716162e-03
-2.185925736598735847e-02
2.501336508699309943e-02
-5.216025576824710741e-02
-1.081716260694324042e-02
-1.784501349059345043e-01
3.213907016423684510e-02
2.236191539586342841e-02
2.118726533017686875e-02
7.330241377200803765e-02
4.360722587629260738e-02
-7.929231378374366687e-03
3.074409136578978505e-02
-1.304696272513185089e-02
-3.119669513690554591e-02
-2.647133247157716640e-02
5.586522351872807816e-03
-7.013247071422016969e-03
1.381852631646558055e-02
-1.587822187783843875e-02
-1.073184254571617202e-02
1.511062313495090126e-01
-5.430995658361761208e-02
1.349079661488202520e-01
-8.025863808940500790e-03
3.774019385542293908e-02
-1.959056401959070881e-02
-8.694273456646790452e-03
-2.967702091544108245e-02
5.827522863396258218e-02
-3.828125341665888914e-02
7.567259351220540289e-03
4.563920984379910006e-02
-3.536159161149269453e-02
4.328946020095074398e-02
1.020162080578658204e-01
-5.444630772174597483e-03
1.915782661743312479e-02
3.801665187790748135e-02
-1.325883743697160722e-02
-2.838250911846175104e-02
5.513127132159072880e-02
-6.759952263689583685e-02
-1.025473554988587804e-01
-1.191185476303019963e-01
-6.859401740811330028e-02
-6.510006885617557193e-02
1.278420791964339151e-02
-2.078023006612765913e-02
-5.793850139624185172e-03
7.632210122972442508e-03
3.192096776738569813e-02
-1.054285635351330346e-02
-6.348184219571736432e-03
6.605035779512832828e-02
-1.840544014764121036e-02
-1.922232474667005461e-02
2.749492798337023480e-02
3.929582000343906367e-02
-1.173238342044404664e-02
-8.580498908202929820e-02
-5.630153526558482474e-02
-1.391377995436183894e-02
1.539475459438901855e-03
2.467195564300172020e-02
3.228662705670976019e-02
2.376355499832602178e-02
3.423344030006629513e-02
2.194854803710785326e-02
-3.318113722864051568e-02
1.405954745808699752e-02
-1.189608114743479980e-02
2.667340144850633213e-02
-2.407652287910858058e-02
2.119147372796970422e-02
4.119250001729934420e-03
-1.066066485050239619e-02
6.779813931594644294e-02
-2.666573009525121177e-02
1.121960155321153133e-02
3.129068607531908068e-03
-8.426886165793433248e-02
-1.557586453730101621e-02
-4.358266140551061638e-03
1.748238616025558911e-02
2.571350582376335375e-02
2.964907950416080865e-02
-2.268635844629820347e-02
2.711631253365654262e-02
-1.904534568168938513e-01
-1.341516222740490177e-02
3.980458492217473637e-02
6.169126924818570286e-03
2.674389447622175717e-02
1.720450067949278253e-02
-2.591928677142559673e-02
-3.227598677743141482e-03
1.001650287806389039e-01
1.698906387567580487e-02
5.528111608803130267e-02
-6.125256927839281898e-03
4.360441311302688111e-02
3.280472391366728857e-02
1.017453840207177204e-02
-8.967905258513405101e-03
-8.209236401509117584e-03
3.352106565395152667e-03
-2.432161433014652652e-02
3.184731888568131507e-03
7.660348434223863447e-03
2.811461066232369063e-02
1.169866290627756718e-02
-1.022876994369403478e-02
1.293325111461507415e-02
3.141033638732027705e-02
-2.155503052524633100e-03
-9.649919595197966292e-04
3.463155995283934835e-02
4.471401888094430621e-01
2.061837815926143291e-01
2.035994562546964703e-01
-1.739350578858698745e-02
-5.315813956431481718e-02
1.262309508481784803e-02
-6.676595161286051801e-03
-1.486784281348932889e-02
2.850181142844451440e-02
5.488624327835320282e-02
9.986596212686273469e-03
2.671145345432984763e-02
9.905044133907586409e-03
7.099825728959555625e-04
1.064752261995427149e-02
4.074749947815276691e-02
1.331145788050524083e-03
3.447883488652686568e-02
1.699276240335840724e-02
4.538808403894682535e-03
2.003820520956576048e-02
1.791851123047670177e-02
2.303630425445028773e-02
-3.393603189177753221e-02
2.578272561732788612e-02
-7.827724529391604652e-03
1.222511214386176256e-02
-2.263643069977960831e-02
-3.819681778405826372e-02
-3.257254584070981562e-02
-9.409473623808799550e-03
-4.083365916570338332e-04
3.599830282747310678e-02
-3.783701559074718196e-02
-5.133354437706854831e-03
6.789552674931674699e-03
2.657900871511145388e-02
1.640406680585952334e-02
1.418727925654121765e-02
-3.682486157474135907e-02
-4.452166169263127582e-02
1.603295227708078979e-03
1.054460305554778821e-02
-2.379921166184803538e-02
-8.070376798449099831e-02
3.859223082108396985e-02
-6.594626917958167078e-02
-6.703356802074195847e-03
8.213531577914306298e-03
8.642705213947495663e-03
1.986372539692284056e-02
2.526400372403218159e-02
-3.176384542808752959e-02
5.170637438552749127e-02
1.522227518435354150e-02
3.105208683449766759e-03
-9.908098732537309189e-03
3.987639627199193737e-02
-9.040205343859160358e-02
2.158860119949376419e-02
-2.852999205438506644e-02
1.992327112098661937e-02
-1.147165350354868545e-02
-4.450555595178251611e-02
-2.547324384288174003e-05
-8.186530453304294297e-03
-1.772284656673815337e-02
-2.794088126182716486e-02
9.083357433852903492e-03
3.647205708099592741e-02
7.631309324325791232e-02
7.601104887302649604e-02
1.194136745447486742e-01
1.726774742941822316e-02
-5.522149468300821540e-02
-2.042042648734270494e-01
-3.194947020541740595e-02
-8.500918644649279807e-03
1.255923186906822203e-03
-2.819754287347220941e-03
2.370717740713314606e-02
6.033478994915670787e-03
1.563122242234736212e-02
3.019713593115056893e-03
3.927686888091422995e-02
-9.328560367587546143e-02
-2.475628989314540840e-01
2.415683735110884731e-02
-1.035489963317221158e-02
3.479846349440516434e-02
-1.156526462069562252e-03
6.601394142097063988e-02
1.978406022089770899e-02
7.999593831712050948e-04
5.759643246271515388e-02
-1.549449843450432596e-03
2.074495820844863420e-02
2.559021769451228986e-02
4.029248731648627673e-05
-1.018008187464991034e-02
-2.582965739644718650e-02
-2.373018284486751173e-02
-6.766399239509622403e-03
-4.959407914603353729e-01
-3.262016429797974792e-01
-7.659712048296657416e-03
-5.761919650161338724e-03
-2.880605602926347361e-02
5.832629458763315296e-03
-1.522761816518935878e-02
-2.956703373568641061e-02
-1.119336157835189478e-02
-2.120798494171912199e-02
3.138857880304957160e-02
6.266135916795598226e-02
1.183213415294771392e-01
-2.586093650197186095e-02
3.767765553189347805e-02
-1.114194506097647835e-01
-3.205133618071843299e-02
-1.012918793640619347e-01
1.500256580137038828e-03
1.806948010622220005e-02
1.967793716201773208e-02
-1.224483897021468731e-01
2.940299011776246595e-03
1.454661988464011832e-02
-3.782614971124846018e-03
7.107007889666089318e-03
6.518999886898450835e-02
8.893108133131238935e-02
-6.603590119281622928e-02
-2.419099752501843031e-02
3.362694940594222141e-04
-1.313744051972503234e-02
5.927830271534619694e-02
-3.139523005375398010e-03
-5.860156440188545382e-03
-2.366196330472350104e-02
-1.611348788940545479e-02
3.140527531403739664e-02
6.652440412180301308e-04
-6.988146723366173152e-03
-2.437110331764066329e-01
2.072484281752249875e-03
-3.710758744962892181e-02
1.118107630027977313e-02
2.814462048477173184e-02
1.192395922896120723e-02
1.415803392660800776e-02
-1.586728380712066622e-01
-1.405707638800955325e-02
-3.742089577513278004e-02
-2.796116437336104016e-02
-4.909536491302379790e-02
7.182158416823382352e-02
-7.178457403988813823e-03
1.863718562328114253e-02
1.995619399309565140e-03
4.208728999738667841e-03
2.991551698599842837e-02
-5.252215544323330515e-02
-4.630287394924239436e-02
-1.797525481025098043e-02
-1.456113151789156512e-01
-1.436181739406791787e-02
-3.670438363164649220e-02
5.501016210117531079e-03
-3.533173319272211316e-02
-3.491486602401680864e-03
2.483305522488347961e-02
1.594071921228920607e-02
4.934749335272177635e-03
-6.245514818438710480e-02
1.823263882820582923e-02
1.883358942918678808e-03
-6.077282767073407220e-04
2.470748702492959678e-03
7.516801366590561417e-02
3.685638168766871420e-02
1.063186170494162877e-02
3.400805479558354633e-02
3.719098290290957787e-02
-3.200383603250655379e-03
1.932792598113972082e-02
2.840812678117617465e-02
-2.207109413825015392e-04
-9.871617387557757653e-03
1.161283963957445570e-02
-1.097855134186322273e-01
-2.097348123960493180e-02
-3.717120925301434231e-02
1.478898129501312469e-02
-1.582186690416724495e-02
-7.951670198331325934e-02
-9.200266526074696305e-02
-1.232792980983226207e-03
-5.877820632429110563e-03
2.670706945299019738e-02
1.617915037642697271e-02
-1.933011500035177258e-02
-5.096447843189554246e-03
1.634665749950738392e-02
-3.887431909211114256e-02
2.324431180153939576e-03
4.475933903448816274e-03
-3.693242933129408517e-02
-3.969166234974812885e-02
2.092695817366535538e-02
-1.152531866724358922e-01
-4.572152966733979140e-02
-3.107046994776341622e-02
6.810933884362878202e-04
-5.381954790290970764e-02
-1.067983250219914186e-02
-8.741891317189928734e-02
-3.635101768550260543e-02
-2.068332662401801275e-02
-5.763057970915097701e-03
-4.271585071622677893e-02
2.258288077956494694e-02
4.727784953894046717e-03
5.661435447517207571e-03
1.676773233176015281e-03
1.400925153523799836e-02
5.314832861677538586e-03
7.238083936432199335e-03
2.309390972914118073e-02
-7.050695627594957826e-03
7.492646368122984901e-02
3.054254549892648427e-02
5.213418115269792541e-02
-5.118574619860686431e-02
1.591161146798685325e-02
2.748363166856762282e-02
-3.203499060814245236e-02
-6.587239815477102453e-03
3.149834046048049369e-02
6.139807855502388279e-03
3.502803279838138852e-03
-2.056398827911665519e-02
-2.400919318876014452e-02
2.245149632432101583e-02
-5.233363134506813230e-02
7.612742773577942101e-02
9.960018446987520951e-03
2.558948927916919122e-02
2.764751720893303139e-03
-1.590415841758323692e-02
-9.038101431586101700e-03
2.651483784533624488e-02
-5.269749237882273563e-03
-1.236829640177567954e-02
-1.918282496255149447e-02
2.653993251235184717e-02
2.767342666153672914e-02
2.332562434099565152e-02
-6.687063375487264927e-02
-5.368691562997978187e-03
2.203375055558007972e-02
3.548579024345129701e-02
1.149895640242350019e-02
7.569341102604121643e-03
3.252571106887809042e-03
-5.950837739673593696e-02
-2.775177847576504320e-02
-1.799744482828673914e-02
3.315360982968989460e-03
-4.324765892458459077e-03
6.261305704324765173e-03
-3.028893442528773905e-02
-5.666541250596798286e-03
-4.746229340895990328e-02
9.675393249414326879e-02
-1.106329946221723190e-02
-6.836537508272254315e-03
4.496759908853826399e-02
1.120713600991470188e-01
3.719593000337658578e-02
6.067169971530951035e-03
3.385815450828353300e-04
8.595628312883149200e-03
-7.818879626148517517e-03
2.228965360404688498e-02
-5.403885751412617483e-02
-5.689101607477631793e-03
-1.324626211117858540e-02
-1.044382649680397276e-02
4.565277995905612368e-02
-1.411715100476217295e-02
-1.168277625978569358e-02
-1.981843755297919146e-02
5.522146978621914060e-02
-2.130102004068484475e-02
-3.879139070186224652e-03
-1.156113915290695945e-02
5.546367706061935965e-02
1.405935080310758500e-05
-2.149750053273566733e-02
-6.038206080722310215e-02
6.738734394536931294e-02
2.746426154347745251e-03
2.292745248741525493e-02
2.757458333664944590e-03
2.757986978247879695e-02
1.429400639680740394e-03
-5.832863646924121154e-02
-1.266337099476545075e-02
6.126380713087659947e-03
-4.375000396326451935e-02
1.720661922097895674e-02
-6.611356886487724030e-03
2.778225357630776174e-02
-7.249221840436849418e-02
2.023197965005596455e-02
-2.462114020735511020e-03
-5.256664440305936978e-03
1.937506032693116220e-01
-4.562137678433970944e-02
-1.688000863274332491e-02
8.033985123817923360e-03
2.281656663994978754e-02
-2.542832069216919774e-02
4.414906479261931915e-02
6.651101833473976876e-03
-7.895124276313772102e-03
1.259302832288113592e-02
2.910146694215846527e-02
2.697948102822607386e-02
-5.496337844425112917e-02
1.603582307253736960e-02
1.221011554481868985e-03
3.193242612085065574e-02
1.662675433558109817e-02
3.565484532756810904e-02
1.930539411768378844e-01
6.195256119549716334e-02
5.075823172704350267e-02
1.163657180186602417e-03
1.748366695824026679e-02
4.953211040353992616e-03
-2.378034713602698302e-01
2.698881563168966866e-02
-1.833135670927290564e-03
1.969244619933942231e-02
6.954784952162317187e-03
7.798260048534959299e-02
7.356212399842123814e-03
9.857208932938590212e-03
7.771301903552927347e-03
3.286250992502845469e-02
-3.491407464109875288e-03
2.586600926473323070e-01
4.420900172476285167e-02
-2.325804192409714616e-02
5.968708451388458382e-03
-9.187109225025963735e-03
-3.589722963389823523e-02
5.202762397072066558e-02
-1.945491501010326862e-01
1.408515813023672458e-02
2.322148600426655017e-03
-4.155701185651979740e-02
-1.743719890083426233e-02
-7.435442731795634946e-03
-4.851055094177681229e-03
4.107274279288939539e-02
-2.066770095372497118e-02
4.678398726438307703e-02
1.443936784003513329e-01
3.487673695880737224e-02
-5.606798829219152708e-02
-3.305326134731124618e-03
-3.756877031614665359e-03
-1.270692747452501804e-02
1.969224657115129125e-03
1.625405048272198991e-02
-1.995071612826314345e-02
8.616686960288773983e-03
2.780952252998787448e-03
1.286821169021154163e-02
-2.155873681403877931e-02
-9.712348294768444884e-03
-2.652262935577346520e-02
1.768401945153921795e-02
2.793063358604743959e-02
1.170991943083160985e-01
5.841537465509037685e-02
1.388069482615479355e-01
6.001878054947689181e-03
-1.530668885304910243e-02
-2.002924902105453903e-02
-4.782386938840027003e-03
-1.003238589554120673e-02
-2.691187331449357636e-02
-6.269762070056994485e-02
7.799912559075525449e-03
9.279015302701422137e-04
-8.966636658881432104e-03
-7.603132923976019253e-02
8.327505199504170452e-02
1.352965105190902795e-01
5.482421810016859659e-02
2.632162139964834904e-02
-1.120847262536028843e-01
-2.922676906561254284e-02
2.204754757219226299e-03
-5.012560290879612603e-04
1.074341482923161541e-02
-1.597452837326583108e-01
-3.178749430507053775e-02
-5.691771723229219551e-03
-4.088168551709869293e-03
-3.513265383951469367e-02
-2.009969806548791288e-02
-3.535199354345438128e-03
3.357640027467890392e-02
-2.694851578908083814e-02
1.542274255335106259e-02
2.295948034771795165e-03
6.487584752908765080e-03
-1.164026492917789131e-04
-1.763470260799089931e-02
-1.265163946652682163e-02
7.091836082098109360e-03
-1.633289046112127926e-02
-8.161678995504653006e-03
-5.214682437928509079e-02
-6.124075031238187389e-02
-3.750449699646140472e-02
4.441000568672214856e-03
3.747598597065347759e-02
1.038061574063727172e-03
-8.943007058452003000e-03
-2.739842259104052075e-02
-9.909829714345638405e-03
2.319304273087745630e-02
-8.270738845725572608e-03
-3.474410757620174754e-03
1.115189501071411904e-02
1.311235088498461689e-02
-1.513446501092729872e-02
-1.006334269209435278e-01
-1.967594918828282583e-03
5.221090377897256302e-02
1.431205286854759194e-02
1.992484512159671539e-02
-6.421773715056798559e-02
-2.356308606841593309e-02
-5.222238352038038878e-02
1.919711220990319780e-02
-3.841671063463446972e-02
5.612102862393984239e-03
-7.259607729687431524e-04
6.042153409010891235e-02
4.903957554871060665e-02
-1.407689388601423555e-03
8.785795232994224324e-02
2.144308634738804550e-02
-3.746462362577943073e-02
-3.480216089246496430e-03
-4.924482003422406967e-02
-1.740677743688016227e-02
-1.289093310708983031e-02
-5.603518487076612070e-02
1.499626358853940224e-02
9.911318308162520366e-03
1.049310169611720675e-02
3.739130036860185274e-02
-3.939604703072033948e-02
-2.959590919064362946e-02
-5.691566863729638492e-03
-6.072561112757472387e-03
2.878781123666098243e-02
4.010612248894766807e-02
1.185763205406174282e-02
1.898303021875221916e-02
-2.213777036657153807e-02
3.883839999166553009e-02
-1.520209423320202473e-03
-2.022999444119636184e-02
1.149547214842678994e-01
8.152990323712997964e-03
-3.391719575936626985e-01
7.159442652383264834e-03
2.010627836663289245e-02
1.179442944091971535e-01
2.803060000516617578e-02
1.813009931586822068e-02
-9.245658825935502978e-02
-5.294489556753881332e-02
-1.110219182284031582e-02
2.375938757451414793e-02
-3.776128248801411021e-03
4.112119717538458008e-02
-2.152450152061526761e-02
5.796253822003426953e-02
2.065870016556962258e-02
4.370444949791855993e-02
1.325247246121036108e-02
-2.943383260642055618e-03
8.540295208572787344e-03
-2.478342296369650394e-02
-1.390155922631900604e-02
-5.933191862271119076e-03
-1.573116297367330163e-02
-1.012429790352007558e-02
-1.004484723075425336e-02
-3.008728505412641349e-02
1.634674114998686464e-02
-5.260186335671937323e-03
-2.090976632341030872e-02
7.820454142985949764e-02
-9.516283491926654306e-03
-1.001074369741967746e-03
-2.957297881477921261e-02
2.809308043382500661e-02
1.118366735049421481e-02
4.149799627991832690e-02
2.215729036795986706e-02
1.233811630247654868e-02
1.510855362479742239e-02
-7.779971486485765843e-03
7.485682221697473326e-02
-1.761654574567423498e-02
-8.665692710668849302e-03
-1.062584946197328399e-02
1.933056613596923282e-02
-3.028512233890548119e-02
8.843371137919199543e-03
2.158291035728299861e-02
2.234823740141927972e-02
8.069978160498111550e-03
7.056011722058070507e-03
-9.286610668827671028e-03
-4.711261107436821166e-02
-1.177903485238537308e-02
2.889444404377463499e-02
3.577050624731845097e-02
1.582257561759278786e-02
-2.692469328362429980e-03
-2.597472891625784291e-02
-1.865882555311932506e-02
-4.655265196296280716e-02
2.649162456993414683e-02
4.126229673115160146e-02
1.802788156407590051e-03
-6.236701457533086815e-03
8.611001249924735493e-03
2.209343464857991060e-02
-2.435631573786143332e-03
-1.315088782137825880e-02
-1.630289450926250897e-02
-1.082621577041328886e-01
3.557911904742640241e-02
-7.756396735538581035e-03
-1.031811987812126380e-01
3.315737781601395262e-02
5.190549343949558275e-02
-3.904564947718116085e-06
-6.869351575042309532e-02
5.107383360837571690e-03
3.924985341594872112e-02
-3.485248947222133447e-03
2.343879431950135483e-02
-7.367946131692506943e-03
-3.452754985494180251e-02
2.904586642974031629e-02
2.090702364223043230e-02
2.897012440892577506e-02
3.943682714279135582e-02
-5.072129536452342491e-03
-1.121824595747640541e-02
5.261569770070105567e-03
-9.796811983702996551e-03
-2.537070419604028904e-02
-4.585551142053623935e-02
-1.459120741600886950e-01
1.197316775222086183e-02
7.930372270372623364e-03
-3.068364853730188180e-03
-3.719255798540362784e-02
-1.173183603635920974e-01
2.127582688285276080e-02
1.094263383851496775e-02
-5.459549819591470732e-02
-1.288070647841150357e-02
-2.653054706673314226e-03
-3.090512540280615505e-02
-1.363659471099466954e-02
-2.469963450313926445e-02
-4.652816658929610251e-03
-2.847118223106258686e-02
1.154668864945329783e-02
2.888843883974652124e-02
-2.446803251087759958e-03
1.906286989113936681e-02
-3.252028161726013000e-02
-1.088017171496895481e-02
1.838900864471968225e-02
2.574945924539817632e-02
-6.709473098329973850e-02
-6.789607078777228251e-03
2.702859220521205974e-02
-6.575128607056062932e-03
1.465047968466824668e-02
-6.635222568076133698e-02
-3.534696950334744597e-02
3.617861445654281527e-02
1.110099588731592035e-01
-2.774646540666268410e-02
3.859712100378857955e-03
-3.652454620289922738e-01
1.044884649715186881e-01
-7.802897735724758504e-03
4.437021416853910091e-03
3.906676117954373251e-03
7.102629655629139060e-02
-2.787320774888122146e-02
8.415065816801927528e-03
-2.542862233327660565e-02
4.437008774628064395e-02
-4.126832743982750823e-02
-2.242589393394007341e-02
-2.729250736642680961e-02
2.544543258823321955e-03
1.937870101226380967e-02
-2.761035383122814081e-03
1.442520988327084322e-02
1.275708176726551325e-02
-4.056323939224261432e-02
-1.264690571765535176e-02
-6.412341113998279440e-02
-2.695385923063420286e-02
-3.021217008937862256e-02
4.385060011517299267e-02
2.437759205272258672e-03
7.927650119773804738e-02
6.839963460190166909e-04
-1.098567253435153669e-03
-2.356390621602341695e-02
2.998921565809951938e-04
-2.908820745422336165e-03
-6.185153431156982518e-02
1.520313925951103338e-02
-6.297915071746204574e-02
-7.234345584350967973e-02
-1.499408090919842305e-02
-3.343173566053425083e-01
-2.680492639909899666e-02
1.914036411567650656e-02
-2.424885347537267602e-02
-8.226084721072089712e-02
-1.167504988839608050e-02
-5.528797814018137496e-02
2.533200357955007337e-02
1.089365514266810719e-01
7.084881794117016407e-02
-7.446382896256183159e-02
9.094535863404848430e-03
-3.152953851166619831e-02
4.523127805450974197e-03
2.530921391468688927e-02
1.263772434105035931e-02
1.072226808293394798e-03
-5.936563309623434787e-02
-9.555831705436973467e-03
3.833005127897191541e-03
-3.533370793988331593e-02
-2.301871419761893252e-03
3.948774179943571189e-02
-4.443195560522919529e-02
1.630576311057871097e-01
4.709716879854169286e-02
1.816064069827837135e-02
-6.194154254179559671e-03
-9.063183126119589428e-02
-2.471198634592974841e-02
-5.769642083031750919e-03
-7.921377157553888271e-02
-3.955002028065324193e-02
-4.188758891559385238e-03
-3.648305786888344105e-03
3.401439962189986566e-03
