-1.537807714569813800e-02
-2.188064812768438904e-04
-4.409738889223810757e-03
1.363235854655812582e-02
3.254278587885802571e-02
1.261983743334329534e-02
-5.110084199167987638e-03
2.910603558745408076e-02
-1.227935324690924285e-02
2.207193652186546784e-02
-1.031476981383144982e-02
-5.968184751059340230e-03
1.455559892682578571e-02
-6.372878686768002066e-02
9.010037928479285030e-02
1.148007042526070880e-02
6.997013632937417165e-04
-3.192173168942968181e-02
2.400723592885130320e-02
-2.714163929058318811e-02
-1.259284855584865727e-02
-6.743032194814472212e-03
-5.982238786618158596e-03
1.739983974173759523e-02
-1.907711032532743642e-02
2.330368718859456099e-03
-8.080655643976551727e-03
-7.903899011321778578e-02
1.598156166863740069e-02
1.107866949228561090e-03
-7.824892477158572335e-02
8.066127017295580959e-03
8.066514684919934893e-04
1.179271134848625460e-02
-1.235042023109653164e-02
-2.674009510576398282e-02
-4.687425222433994759e-02
-3.033042991270681107e-03
-2.159061089849914974e-02
-1.114095260818793315e-02
3.841124498481153938e-03
-1.158157581974586098e-01
6.010535896524082412e-03
3.440508446872055787e-02
1.497662866338813313e-02
-1.694208285932552157e-03
7.620283473882632184e-03
-1.005807010318458122e-02
7.211443206430155628e-03
8.376116597948521716e-03
-1.623054946661046070e-03
-5.064522667013427251e-03
4.832147726075602251e-02
-3.199203443201960317e-02
-1.099884698317689369e-02
6.515282662559124596e-03
4.538711626125828229e-03
4.622352957237250287e-02
5.605886337702852690e-03
-1.804471305068170578e-02
1.870391675629073935e-02
1.166481953408047070e-02
7.181240522798887360e-02
2.002119883431153352e-02
9.230418086046247167e-03
6.503909972611373810e-03
8.434291926339487766e-03
-1.104629027754857815e-02
1.406011759930900955e-03
-1.701954720470188337e-02
-7.008767575848790475e-03
1.388181470744117435e-02
-1.901963806099264600e-03
-1.556565430789358384e-01
1.496738666283747299e-01
-2.162344976862163280e-03
2.208056808848126232e-02
-1.346980468323455971e-01
-6.410529827512874423e-02
-3.885534775865895352e-03
1.312097689640688222e-03
-1.020926232452196679e-02
4.193585810559218030e-02
-2.048014512011112759e-02
3.976242955323785327e-02
5.063307777041727020e-02
1.024365945166949565e-02
-1.068302539448186088e-02
9.171598008259399665e-03
3.280483006553707587e-02
1.154071317497479092e-02
1.158569194149158821e-02
-3.136723283545458929e-02
-7.089759367072913029e-03
1.517774778489621758e-02
9.364205901390253032e-04
2.275055149418681727e-02
-6.108185055714506276e-03
3.836720014166861755e-03
9.405952145952965401e-03
-3.499977688689081195e-05
-2.152462730042897787e-02
-1.478784175547155806e-02
-4.718969069047253100e-03
1.913477427972413991e-02
5.818385588545287729e-02
3.359737249341213268e-03
1.774600420064936790e-02
7.161391137038253252e-02
-6.470568409199673604e-03
-1.153058050906428759e-02
-5.618057265404865922e-04
1.624595623837013850e-02
1.429600997371615820e-02
9.411752359187013084e-02
3.982977297096665370e-03
-1.723480316114116544e-03
1.369532442166342351e-04
-2.153998147141840055e-02
-6.785393006462765719e-02
-1.179526559439052387e-02
3.475964060961289192e-03
1.721370887375187281e-03
1.576070180819281802e-03
1.444071188750629172e-03
-4.431857677334398449e-02
1.004621055583240774e-01
4.441823712344846430e-03
-4.197887884539452941e-03
6.594552741224279056e-03
5.517762686365560582e-03
-2.495463011975990880e-02
-3.068004177856631376e-03
1.602709431661477127e-02
-2.295756812248599902e-03
-9.585267904046250800e-03
1.198401228478118349e-03
7.171031654710113834e-03
-5.730600136198379588e-03
-1.450041092988056321e-02
-5.019212780003245479e-03
1.573296796072719099e-03
1.939328613965650080e-02
6.107389352766420636e-03
-7.659286512106084494e-03
1.516274320536438285e-02
2.452121073336616802e-02
-8.854138249778162675e-03
5.411484378780424820e-03
4.059849160696145549e-03
-1.217123122763834851e-02
6.476132278801844354e-03
3.202326171513958115e-03
-6.331211359252370691e-03
-8.401439908963564268e-03
8.255981527691916289e-02
-1.082131150057106389e-02
-5.208850468083054200e-03
-2.272000371814465042e-02
1.156139452958489071e-02
5.672981850371688201e-02
-6.216349527673145983e-03
1.044205157639483891e-02
1.145442519105504230e-02
1.715635407457574702e-02
1.891110266259146688e-02
9.068807656129787564e-03
-3.624478901085005644e-02
-1.378202571535245592e-02
-1.538710703401912835e-02
-6.416698345089951599e-03
-3.328142456380531102e-03
-1.302707034161866909e-02
-8.964598118545731228e-03
-1.172767533300017422e-02
-2.112109394516978149e-03
1.579242842031917254e-02
1.214752663736850744e-02
-3.228703076731440774e-02
-2.421136727011343609e-02
-1.936237576109723496e-02
9.925752739178901607e-03
-1.203778924878877617e-02
7.440877061074065331e-03
-5.220592107931172621e-02
1.705073943153611118e-02
2.422482351133643536e-03
-2.565510439454879790e-02
-8.122043076694319963e-03
-4.943334117794334799e-03
2.576378812611952729e-02
-1.444596432822438728e-02
2.091911071095557337e-02
-1.537731746349499211e-02
-3.443850842927447496e-03
6.286737465563262128e-03
-8.315890733739174714e-03
-6.564824100170818522e-02
2.343307767232399169e-02
3.008105369259981079e-02
3.862376679849837714e-03
4.003056378941834137e-03
-3.189051161752986044e-03
-2.500993886214291154e-02
-1.342632800882554572e-02
1.030173660522931516e-02
-4.381666027142534781e-02
1.017903398702437248e-02
-6.684978846165666455e-02
6.723298206453781102e-03
1.887858448256042598e-02
3.240148961827982871e-02
1.177910058867315951e-02
-5.169154831149884617e-03
-2.616365711085145637e-02
-9.024058512011094713e-03
5.494655467369075064e-03
-8.815557968657663102e-04
-1.803868083679575907e-02
5.266456581811474608e-02
-4.665247589573466580e-02
-7.364845409495579011e-03
-1.388632579902069827e-02
5.122970226273288429e-03
-1.435613509689761917e-02
8.350923072821364937e-03
-4.239576037396979719e-03
-6.867668927671463468e-03
1.795900745440132812e-02
-1.098277410858602109e-02
4.102041223030431644e-03
1.813679686504355779e-02
-4.093467378590381206e-03
-2.915585859371240887e-03
-6.404793621907947654e-02
-4.410797737911516768e-03
-1.181643218645103514e-02
-1.341706729568544918e-03
2.646065384391630901e-02
-2.033453634296889315e-02
3.819723218919518493e-02
6.523088242942110676e-03
-6.844661700676309135e-02
-8.767412052629791619e-02
-5.895895982282840092e-03
3.754552430154856624e-01
6.150109731761070099e-03
2.796052072525193402e-02
-1.072773533312828403e-02
1.475220057200213276e-03
1.682868243307272674e-03
1.348875721317178544e-03
1.028379320962219054e-02
7.769045465197011585e-03
-3.108223461392021613e-03
-2.472538921525835060e-03
-2.250259579689193950e-04
4.863375337251520623e-03
2.885725020063843824e-03
-1.481176012609263307e-03
1.695055299418764608e-02
1.758960942114938530e-03
-3.408768900719613693e-02
9.590569359185558210e-03
4.046964936737115076e-03
2.840702176410545964e-03
2.738606850778046303e-03
8.890616847689164146e-03
-9.847410270544204244e-03
5.582891298187092621e-03
1.114063387375697047e-03
9.217856834154452075e-03
-8.390636059833068983e-03
-1.044009288727729134e-02
8.859876538176098340e-03
1.432848578817561523e-02
-5.724620078692786024e-02
-3.386283048838117492e-03
-3.990960981282457194e-03
-1.434882619423987274e-02
4.518989895082032963e-03
-5.235465091699258340e-03
-3.597861795271272388e-03
-2.212900108089079203e-03
2.069679808474263194e-02
2.940960364698643088e-03
1.029276977580210930e-04
-4.897039797775219749e-03
-1.093241944522959329e-02
6.670012673609540012e-03
-1.115136220585098226e-03
-2.651856763800107325e-04
5.387380378411220534e-03
-1.018310217218108306e-02
2.672043007802576975e-02
2.916275599029189217e-02
-1.257664626555776710e-02
5.250326001859499138e-03
1.134418270688456604e-01
-9.567784838428369451e-03
-1.019760295517061800e-02
-7.645716266269404413e-03
1.530874428427538014e-02
-2.594267113897609500e-02
3.477476605534355475e-03
3.072632878252909254e-03
6.114481333020582200e-03
3.580792796266921152e-02
1.249697946858739465e-02
1.527939516740096752e-02
-4.072466487318101083e-03
-2.177596759098883450e-02
-1.396508678146453353e-02
3.892246127631076094e-03
-3.562128810562964487e-02
9.132780614911786832e-02
3.079460523387580247e-04
-1.185202212061437117e-02
1.140349098652734990e-02
4.826672301615737327e-03
6.553407310221050219e-02
-4.328131918262328320e-02
3.820827769868818491e-04
2.692490348001346130e-03
-3.591293626200810496e-01
4.954106907992713790e-03
-1.612593131518474552e-03
-6.939510127066056758e-03
-7.685209999620578290e-03
-1.108123419262072029e-02
2.694415610737242728e-02
-2.449212400373296933e-02
-1.006687969685695662e-02
-1.620629989322596668e-03
1.100715745051708550e-02
-2.294029822188745765e-02
-6.326250997364711581e-02
-1.302169730783380363e-03
-1.067170000777138868e-02
-1.428975734124197754e-02
1.265374999413724014e-02
-6.165351412523727322e-03
2.134301471786084065e-02
2.737747203818071805e-03
3.525001769071286345e-02
-9.417000056628493584e-03
3.452197039723609723e-02
-4.108972565337039133e-04
1.073737131323201748e-02
-1.364929503633541784e-02
2.533749075786282876e-02
1.721330998061692402e-02
3.762368364686842492e-02
1.615806315270887708e-02
6.970186833604292975e-03
1.961904791563718643e-03
-1.233895220124842877e-03
-2.722047076450168079e-02
-6.377627707626452522e-03
-8.536705843142627925e-02
-1.938063615281199539e-02
-1.476072209828274695e-01
-7.386152706942221424e-02
-1.344245306101475856e-01
9.851874885048952576e-03
-8.075631345399495245e-03
-5.755943506973986573e-03
1.373792981657633722e-02
2.206625740169984150e-03
-4.233262918050921531e-03
-1.655324103014091082e-03
1.683639654174830312e-04
-3.859489844114028477e-03
2.028421176786096569e-01
2.357956202952936873e-04
5.147099321356304880e-02
5.157779995883138291e-02
2.633377445869313285e-02
-5.885946158028958382e-03
4.946487148028378550e-02
-7.003420866000568783e-03
-2.970332473170763862e-03
-4.158699704977482370e-02
-1.146817700078919464e-02
1.664226012614204372e-02
-1.671436891497154326e-02
-8.905173341233110079e-03
-6.325825331902112979e-04
-7.625760737390616974e-03
-1.618428420910234715e-03
-3.708680001625109829e-05
1.455762714367531303e-02
-2.272021454325706680e-02
-5.769357965469352166e-03
3.374093046581925267e-03
-2.238502577678513547e-04
2.731115853895778843e-03
-6.957050663371247036e-03
3.055010976745308263e-02
-6.712992952659675716e-02
-7.496499521915955117e-03
5.557062100375998945e-03
-7.021165215460263564e-03
-2.389680414834097558e-02
2.753889857850188704e-03
-2.481978859109557067e-02
-4.375251764801171145e-02
1.416559573347462436e-02
9.521596388152368112e-03
1.165632964610130483e-03
4.983425085403130408e-03
2.929355869161970674e-02
-3.592015941794710759e-02
4.467966725634127411e-04
-5.961328481318830391e-02
1.517920693607130965e-02
8.595992402036355812e-03
4.790623121259652423e-03
1.263014104795476093e-02
-6.376043072404674779e-03
-4.616727517667573027e-02
-1.544390320813947542e-03
1.148353600841202707e-02
6.537955147504468517e-03
5.351357316726674390e-02
-1.969684354308645288e-02
-6.418211283354351322e-03
1.559566284469426738e-02
-4.888296411121220708e-03
5.926394329423712026e-02
-4.071192296309910502e-02
1.104816084309783765e-02
4.966048876349745192e-03
-1.612280231722819325e-03
-1.969738830651309933e-02
1.151992320117833750e-02
1.371388261388891035e-02
-3.596950152037116377e-02
1.178480128743935110e-02
-9.535287765268770158e-03
7.209584186510606277e-05
-4.012436377176816990e-03
-7.355176407540282846e-02
-5.032199481460780319e-03
1.167860729095365931e-02
5.646088049763936523e-03
2.545897246978366777e-04
-6.369703207522567356e-02
-3.829106339242385748e-02
-3.366059078787959468e-03
-4.962744484802745354e-02
2.279997080707160673e-02
-7.287838716108779868e-02
-8.539923816375545986e-04
3.875426778710951148e-03
-9.300346851828896399e-04
1.932017303628960798e-04
-1.160915394250128761e-02
-2.799582268462368420e-02
3.253091812835877221e-04
-3.479090576419256297e-03
6.826515614422898857e-03
3.912424062878479616e-03
-1.112329759374617796e-02
1.651758594532523258e-02
1.249105185999700197e-02
-2.584590257508279781e-03
-5.286453816168858177e-02
-1.920577613648900839e-02
4.333095333812106778e-03
5.409364868110556890e-02
3.722013794673638409e-02
5.172033814486066841e-04
8.508877748823698989e-03
2.123308377828010338e-02
-2.175405989728492265e-02
1.568843190085567399e-02
-2.279433324416669723e-02
-4.267182410758474549e-03
1.353412388980169273e-03
-1.108926313336059538e-02
3.181608008817667782e-02
2.006081288726027645e-01
-3.577724247611837292e-03
-8.170883728893347034e-03
-1.351478975910805000e-02
-7.553176954962605161e-02
3.915371340813454670e-03
-3.853413334675828694e-02
1.891488367919528374e-03
-2.978783478678295737e-01
-6.507560878528674195e-03
4.374463698794968380e-02
1.094049557896390745e-01
-1.188715833021907961e-02
-4.203698274063175436e-03
5.462697147028424544e-02
3.678527250951763288e-03
-9.750132249422310826e-02
-2.381541847558420189e-02
-8.206449747477726625e-03
-5.762197549006576165e-05
-2.039260201602494018e-03
1.439271363257999502e-02
-1.274090706343408708e-02
-6.091644772635319838e-02
1.344440901539231854e-02
-4.750042303718211151e-02
-2.090783960381062054e-02
1.371086365518220038e-02
5.360881503866201520e-02
-5.101853351724163193e-04
1.724469368723785534e-02
1.886307495217106819e-02
1.274522824283816878e-02
4.377793085420470659e-03
1.098783537734796846e-02
3.666803802290768965e-02
2.512379584470039035e-02
6.794311443262182962e-03
4.261238596976258015e-03
-1.095825324078109585e-02
3.099540898569871916e-02
-2.244385646760626435e-02
-1.434355228847642230e-02
-1.044349423423024219e-02
-2.081979383326136752e-03
-6.735111111348780245e-03
-1.627440468750130168e-02
-6.332909859723530278e-04
-9.419391827200009060e-03
1.598668329935394898e-03
-2.099208983731861572e-03
9.597627497300838251e-02
1.166836436670503664e-02
4.704898685088632418e-03
7.087529243558443777e-03
-9.246301763658405781e-03
-2.794644905026229514e-03
-1.560206347275535851e-02
-1.911978494391171346e-02
1.508326867991759135e-02
-2.855921079218480818e-01
-5.059855585601904376e-02
9.662317641345214911e-03
-3.031942304395667323e-02
1.707897124323250540e-02
3.585705561863750807e-02
2.734181213688874346e-02
1.184607860145096836e-02
1.659681520755935669e-01
-3.834043589916975858e-02
-1.588066432168102476e-02
-1.976211860532523998e-02
-7.476182476284808955e-03
-7.214523813175455387e-03
1.795948815737360288e-02
-1.222887314254133412e-02
1.495168380775631356e-02
-3.312510774327915436e-02
-5.703806897431921291e-02
-3.637404589761981770e-03
-1.152855963824725959e-02
-2.187314217913408174e-04
-2.295225688708475015e-02
3.004476300222051928e-03
2.168303342839626811e-03
7.598402246196346924e-03
4.185953590629017118e-03
-2.176584612146281045e-02
-2.890849574146170733e-02
-1.402619608047725799e-02
-1.966833235050194362e-02
3.374514585355890134e-02
1.156012004194150421e-02
-1.897529721082985435e-03
-6.174044846007822884e-03
1.661770505883183565e-03
-1.257565430044651003e-02
-2.770324322166319367e-02
-5.236652354584871993e-01
2.776014068679553623e-03
-3.791031689301472066e-03
-2.672980041533267737e-01
-2.227467538754474355e-02
7.610695260193085614e-03
-1.014443152039555020e-02
4.210940230201096722e-03
7.951329725458724379e-03
-1.810079968395460312e-04
-8.088316232720155555e-03
-4.771994413079313699e-03
1.182688839047449716e-02
1.269347272889112012e-02
7.841089273381375568e-02
5.797332970776756383e-02
-6.679592815220502904e-03
-1.759364840322897444e-02
-6.509007797699997711e-02
-2.278294995303251774e-02
8.038248157903667146e-03
4.266298390831005545e-03
1.270658850866293252e-02
6.887702553767240284e-03
1.028956622195269753e-02
1.808065283466970359e-03
3.491410332884090865e-03
-1.720586333223750319e-02
-3.824736443426795390e-02
-1.505870531629142396e-02
3.505357436232511142e-02
-1.385039824525874028e-02
-9.599830086416426267e-03
2.146508587908637494e-02
-9.222564429456441698e-03
-4.071665426337481297e-03
-1.186389606058226888e-02
-1.050281546416177540e-02
4.507584537308882526e-03
-8.414998152255057443e-03
-1.292687676407691839e-02
-4.700307618234948401e-03
6.535727624883090441e-03
-6.840570257691016773e-03
5.828969509981787173e-02
2.220435231576510168e-02
-3.560767420951547330e-03
7.910066011847606332e-04
-1.517002717478919682e-01
-1.595264210456951229e-02
6.233635662267583396e-04
-1.214940198461479486e-02
-1.079583297213392197e-02
7.577480899815468816e-03
-2.817785036243716963e-03
-2.363590298796110906e-02
-2.404366833671937181e-02
-4.343175546252155822e-03
-4.376009648658005062e-03
-3.685806727736946203e-02
-3.339054347963269463e-03
-3.680691545523443083e-03
-1.148705950582598265e-02
-2.370308413870219569e-03
1.814290504482986505e-03
-5.615526542686270946e-03
8.528898172276724171e-03
9.766589933418098890e-03
-1.114762073526310605e-02
-2.188055003313320659e-02
4.213872653231891252e-02
1.435191992436664690e-02
-1.407204757626232374e-03
-8.042670565875993660e-03
-1.827496082095270494e-02
-1.250900792514975102e-01
7.176067921441407933e-03
-1.621354683632494562e-02
-2.152007996246154548e-02
-2.213209305979690206e-02
-6.688372405299955643e-03
-1.737997653760924369e-02
-6.529006495324861381e-02
5.755653878204769003e-04
5.986832499839551784e-03
1.117644123553578582e-02
2.538403344922667351e-02
9.965101818606405398e-03
2.225103904885850428e-02
3.474512369697204534e-02
-2.874011605688422694e-03
-8.113387768626512814e-03
4.579703220349742865e-02
4.798279091205049501e-03
-1.838413031521167126e-02
2.452544372937068631e-02
6.585814504212196899e-03
-9.585770259431690074e-04
-1.894579332627113755e-02
-4.037575754793616689e-02
-2.259350731388228700e-02
1.588448400371770056e-02
-3.234033399280248060e-03
1.259506621407822415e-03
1.756092562606799065e-02
3.398276423563127702e-02
-1.333942751819896209e-02
-1.855693059160140948e-02
-1.968907984696316796e-02
-1.708000306146727210e-02
-5.694373113234956103e-03
7.670375986074452236e-03
6.355790582127916234e-03
2.702120689353717728e-02
-6.038188310966302076e-03
3.207396757186480318e-01
1.660356522886167197e-01
-7.636983003871853325e-03
-9.067698313376561584e-03
1.725253804990848489e-02
9.041198921635885954e-03
1.827129842879512620e-02
-3.949574099337608418e-02
-6.667188556872595886e-03
-1.473591725461137480e-02
-3.170829750160249899e-03
1.257356704950126150e-02
-4.430601412346593659e-03
1.940754022139139917e-02
1.765063098252473914e-02
8.851436725941047579e-03
-1.470100429521307636e-02
8.006451026495838008e-03
-1.294865947876459172e-02
7.605140809853445927e-02
-2.363208297564901427e-03
2.686322359734352218e-03
-7.432911489437163399e-02
-4.946052792151890004e-02
-8.235312200424558735e-03
-7.955906104521476979e-03
7.487131295948396166e-03
-2.140539647819029306e-02
2.474637452015618529e-03
-3.908289311935531779e-03
9.828235302305962651e-04
-5.446071572547146224e-03
-2.668403287200889207e-02
-2.900629161198247860e-02
-6.833318497789792056e-02
-1.878752748103072951e-04
7.807233522719561440e-03
-2.261780163984816044e-02
-1.635314277139089667e-02
2.994945073536425459e-02
-4.184011770006670038e-03
3.280364795659236003e-03
4.686772578766654901e-03
7.602790729760396972e-03
9.020760763466828883e-03
8.776570798556055514e-03
-6.669255129020446905e-04
1.889958429183823119e-02
1.159715141504713727e-02
1.905336868389402366e-03
7.361806538059083652e-03
-3.858975618240199912e-02
-5.671040132223781859e-03
1.508691169746134188e-02
-1.511463726611816938e-02
9.763415275030322416e-03
-3.387524174214873174e-02
2.433862223105922370e-03
2.932908487693333330e-02
-3.230458874810212405e-02
1.876676380427335505e-02
-3.116374419400160661e-02
1.395634904416673911e-03
7.254829347893804875e-03
-2.298158631414271361e-02
4.004068526286716501e-02
-1.788954856930114381e-05
7.872621496119294737e-03
-2.553522383472365317e-03
3.852471030965342047e-01
-5.248639790177877379e-03
8.618016205402328437e-04
-1.348778323250300962e-02
-4.044616044115154248e-03
4.329484615148854361e-03
-1.239352168277623248e-02
7.182809499271962383e-03
-1.288041020560958851e-02
3.815312413865887264e-02
-1.946034751233853000e-01
9.775255969018644894e-03
-4.624111489708229890e-03
7.414838739479769937e-03
5.845357701242723638e-04
-1.894532693797144505e-03
5.070969627712771342e-03
1.607369773542177346e-02
6.203020251027697822e-03
6.618495186506508001e-04
-2.446599093306671760e-02
3.580365442043277266e-03
9.691551673549174406e-03
-2.440729286877734556e-04
4.246730443543527962e-04
1.034825800650378963e-02
-3.316397780288776048e-02
-2.085156402291471825e-02
-8.312392172766030693e-03
-5.835064246722602467e-03
-8.040087399192076545e-02
-1.527190177800352537e-02
2.209781519489312316e-03
-3.996649885891516082e-03
-1.562759302684928880e-02
5.477624264212956756e-02
2.787554949686584394e-03
-5.113497341908719920e-03
6.214006505561227864e-04
-2.274397029104564469e-02
-5.672348944198663499e-03
-3.351433065900184111e-02
6.004954966801603899e-03
8.101183958786419698e-03
-7.791036413370161333e-03
-2.733213893849914620e-04
-8.242575725042727494e-03
-5.494341106982800899e-03
-1.500233058963190876e-02
-5.112941833337289769e-04
4.308414000963640619e-03
2.268532931863726301e-02
1.420692423611186195e-02
-1.549463033343733158e-04
-2.200785020746254782e-03
6.425322768169922441e-03
2.066830905467319790e-01
-2.271378684220177330e-02
1.590413220998284933e-03
-6.058257300146773806e-03
-8.415132095953800975e-03
2.900084644301990922e-02
1.695570691068762348e-02
-6.596634613218525789e-02
1.365963191556337011e-02
-2.309350223519236397e-02
-3.819006199883657332e-02
2.110419210925852662e-02
-3.476471559780754811e-04
1.934185610595771931e-02
5.879402068609877047e-03
7.199520191618429780e-05
1.864697634819968697e-02
-1.136979670705376144e-01
1.370654981704869796e-02
-5.007113980044470593e-03
2.273795215476920664e-02
4.991898578701184364e-02
-6.642297850573369855e-02
-3.412323189491688925e-03
-9.772619167423432507e-02
-2.295763419396245134e-02
5.294769150665610581e-03
-7.685955332336806035e-03
1.638910239164679747e-02
-4.452390781809145021e-02
-2.220121354442359390e-02
6.233696074182689881e-03
2.220053910635190995e-03
-1.741957470606850288e-03
3.656719478197866663e-02
-2.045145017575079882e-02
-1.212975246736794008e-02
6.528683632200739384e-02
2.030010663883146521e-02
2.177568931111366346e-02
6.428239099052761307e-03
-6.783731616817155821e-03
-2.084733676503053735e-03
7.326743082940701327e-03
-4.281332900818782955e-03
-1.045687712753710051e-02
8.907181062563257479e-02
-1.905266549281718277e-02
-7.763793639657973894e-04
2.187497786690683569e-03
-7.216588115628183586e-02
1.898270917228556814e-02
-3.862935567301578610e-02
3.239891496283570094e-02
1.390685184801462512e-02
1.171105407280345276e-03
-6.132698875030995374e-03
-1.211173122448255292e-02
-9.392010132383044746e-03
2.393614159191602420e-02
-8.263248319582831500e-03
-1.829574184968348408e-02
-1.500653123328417847e-02
1.196860349838040072e-02
1.557504309985364641e-02
-1.987178213752210411e-04
1.010616902051312237e-02
-1.843654770254213836e-03
-5.948656398596273258e-03
-6.047369183250358819e-03
6.680908332952843406e-03
-9.565533731306412324e-03
-2.046893402619671606e-02
8.295207193956160782e-03
-1.318501114085669432e-02
-9.617928291423686812e-03
-1.529456881677222985e-03
-4.358250717100566746e-02
-1.980128023258007335e-03
-2.018577841358522047e-03
-7.166886051003401939e-03
-2.673087199457501242e-02
1.064744997333989546e-03
1.346956779838375320e-02
8.127725575272624903e-02
5.382079102307077423e-03
-4.234470320704931089e-03
1.672251869994823351e-02
-5.489831592635659174e-02
-3.231359161365628813e-02
1.012558933929267116e-02
1.530285405408028827e-02
-5.092979550306536707e-02
-3.346097148781675048e-03
4.737342703916971008e-03
-1.187443327305699563e-02
1.017392879452985732e-02
4.820950401842534136e-03
-1.894686341522251478e-03
7.593685541278269446e-02
2.696467524140469009e-03
1.965109015404727447e-02
3.794865210106673943e-03
3.469211824606221128e-04
1.714256895581187795e-02
-1.263318928765778297e-03
-2.964371918646697274e-03
-2.706661587381499305e-04
-7.597254799420543117e-03
1.150476518981859110e-03
-8.586673247192640190e-02
1.513186291400736051e-02
-5.507422513769492933e-02
-8.450063553712094250e-03
-5.062747207862958003e-03
-1.585630989697903517e-02
1.087782525786946952e-02
1.258697322728637505e-02
-3.434688175971297840e-03
2.760232612100392904e-02
-4.598115771655936906e-03
5.121036901169541584e-03
2.901190674435295044e-03
-5.832289201400912004e-01
-7.784163117016197619e-02
3.699921633438945506e-03
-2.259515242733924761e-02
1.437049556720995658e-02
-2.931372089019544658e-02
2.713075157942102661e-02
2.793535795195646078e-03
4.131389719534625526e-03
-2.887343678108559870e-03
-1.207941215744105096e-02
-1.725054391720876878e-01
-6.547830177796954386e-03
2.097689854015540034e-02
-3.047483821843988399e-03
5.300154600787099213e-02
-2.632103426584086418e-04
1.058710460451249905e-02
1.545352693307478625e-02
9.004773469384468043e-02
4.722395272108925561e-03
-3.799542904442527319e-03
-2.070218319349719817e-03
-4.899393830187150946e-03
-1.037773702724194280e-02
-4.294391341949663904e-02
2.314128137478439415e-02
4.212810748380399310e-03
1.525607028384361880e-02
-4.729381484829390386e-02
5.064849782604476623e-04
1.926671361358449699e-02
1.434073577633919461e-02
-1.189701772756517409e-02
3.115261692407743366e-02
-9.444981712453300862e-04
2.096673185180327609e-02
-1.044024328248951625e-02
8.561962268321897038e-03
-1.279362614219851924e-01
-1.935406574775761293e-02
-9.777357769836373877e-03
-8.630365367224687376e-03
2.226176480348519057e-03
1.138306769325611936e-02
-1.373787329407638938e-02
-1.036867842391628802e-03
-7.281227861638333090e-03
1.003539835440053936e-02
1.955611115442136214e-02
1.431653197329066894e-02
-3.113484208446817489e-02
-1.977763942734449623e-02
4.712199493191138178e-02
3.038634463771445679e-02
2.702410354273649187e-03
3.918310770015636518e-02
9.425108604256505693e-03
7.920846774821788810e-03
2.622207582607205892e-02
1.483504269942770119e-02
6.539274794580964695e-03
2.964910787451000701e-02
1.135317889802726346e-03
-2.294020611312380838e-03
-4.700835364795918729e-03
4.546445366592159060e-03
-1.880295262342805392e-03
-2.295887704506836824e-02
2.509378319667966359e-02
4.115951977801604947e-03
6.595201484543036785e-02
-6.201796252609193850e-03
1.851872652798577934e-02
8.226155833024379263e-03
-2.239141615158979793e-03
6.170197827077921436e-03
1.648691967589475948e-02
4.084594614845402441e-03
3.579303484761522415e-03
-7.298400915876863959e-03
-7.477248424257064083e-03
1.320939420151970647e-03
-1.099040914492420071e-03
5.759318778214997381e-02
-3.288390607045955797e-04
-7.875446872597195594e-04
-2.071228570508173994e-02
2.493993608145895352e-02
-1.698834119895946057e-02
-1.814199711547565680e-02
-1.920738553488656603e-02
-1.002229783039695378e-02
6.636966785337735167e-05
-3.754572929683556298e-02
2.363711199897135413e-03
3.347597268938795612e-03
3.319824200251756448e-03
4.096449928495116810e-05
7.320955757315470401e-03
1.214805096123777045e-02
3.140278282339279969e-01
9.051127198416351882e-02
6.159555219325406512e-03
5.967246490458531782e-02
-1.914753141072237166e-02
1.283749787851369388e-02
1.534766641512748733e-02
-2.738150545766801069e-03
7.415504188789039802e-03
-3.079787923453740361e-02
-2.473849982059108873e-02
-8.048451228309333114e-03
-3.484869941267168623e-03
-1.072341733355969100e-02
7.120646057181672164e-03
2.581763945286796261e-03
-1.464632329289482227e-02
7.920293044939154953e-03
-1.599722182592681896e-02
4.299524296859105754e-03
1.733489182072462872e-02
-9.026588692514863482e-03
-2.100507902298155011e-02
3.365973157906980862e-03
3.864963591204326285e-03
7.177170077291743829e-04
2.024987232654801642e-02
3.983826527409348867e-02
1.755123952765917520e-03
4.714030449523441690e-02
1.492928883066252203e-02
7.380211605275162345e-02
-1.993964729061683400e-03
6.593953964947957269e-02
-1.241977771990050369e-02
6.309792390791543922e-03
4.503620831538087364e-03
2.540748457191202569e-02
-1.628939517259145060e-03
3.469818344281108344e-03
-4.811885112261889141e-03
1.883977638310946681e-02
8.871817091984236792e-03
5.283375121474264552e-02
1.221146146222875165e-03
-4.290837040037512838e-03
5.054260355590336345e-03
2.578862126698626064e-02
-1.499105554557786726e-02
-1.437842851798647528e-02
-3.557963094543915589e-03
-1.105519477478684835e-02
-2.106160062390214152e-02
4.877385288725400066e-03
3.235084452155596868e-02
7.964587915064985993e-03
4.635458747464269585e-03
-3.480158142242605057e-02
1.346723493693460783e-02
1.460509375197682931e-02
5.511546294300925103e-02
7.683368140617009671e-03
1.021002277409554203e-02
5.413489201163924902e-02
7.812117568092802333e-02
6.485522708159989491e-02
-6.832684187536334879e-03
1.499958306845558314e-03
-4.194954510596090452e-03
1.747164989026867184e-03
-2.081478352763364847e-04
2.807278855314724285e-03
-1.481501460657749444e-02
3.369467704340111530e-02
-8.539567929374731331e-03
-1.335137396802288726e-02
-6.820280444892102070e-03
2.323027348056239463e-02
2.326090252828674071e-02
-1.416573727156995866e-01
-8.996866387406387416e-03
-4.292337966767596769e-03
-5.038097245377026918e-03
1.674090599929046325e-02
6.781057222517811525e-03
-1.844169445786068839e-02
1.430497026796285001e-02
9.850214786146005430e-03
9.074774978092902539e-03
-2.971673802045703919e-03
-8.178814570487673991e-03
-1.164697957773037224e-02
-2.368378914694479684e-02
2.853637688097206398e-03
4.236837574287272146e-02
1.248669040835670430e-02
4.753552886213575045e-05
-7.791116043620903604e-03
-3.619995111792957253e-04
1.285343755958403243e-02
5.465976974558512877e-03
1.591094604310265906e-02
-2.645218158552724991e-02
1.198048047012121274e-02
2.822229914335293299e-02
1.178416707397770061e-02
-1.277599757474737717e-02
7.624159932810822653e-03
-2.506537199387979045e-02
7.925815712694520010e-02
2.514035806283216809e-02
2.141692190615337305e-02
1.710286813029754036e-02
-7.972174671891511452e-03
-1.653423050534688632e-02
2.986084093836341435e-03
-8.641201303917338608e-03
-1.823287839705699546e-03
1.815408484988500007e-02
1.198198641367449920e-02
-2.838388053194072086e-02
-8.157642627660553411e-03
4.392789366634200672e-03
1.724698209131898460e-02
-1.989559604824587234e-03
3.520917508438972058e-03
-4.578941975495477712e-02
-5.895934193368727524e-03
-5.743924078549103932e-03
-6.046945031405304323e-03
3.982605495429926423e-03
4.616838043085526311e-03
-2.791066461296548215e-02
9.524835068204982186e-03
9.083171850685878637e-03
-9.956388196194390638e-03
-8.018403821236138457e-03
-9.442473640954475098e-03
9.028309174379082341e-03
2.111945883535203475e-02
1.486944837377150936e-03
-3.084384552548366347e-03
-1.403342323548138412e-02
-5.482017974731111416e-03
-1.592877596325760828e-03
2.359574315221560706e-02
1.707087544993077591e-02
-3.358322709856866387e-03
2.364455624970943602e-03
-2.542925365431885840e-03
-9.344098937195548932e-03
1.750877534284407677e-02
1.789501669992814292e-02
4.803296543013499918e-03
1.303748167145929795e-02
3.550328460335269633e-03
-3.939698664519989540e-03
4.229100481199199804e-03
-1.765557570981828722e-03
5.161869055914134787e-03
-9.458111442627405163e-03
5.191336171047417763e-02
5.239825274969226246e-03
-7.243264343791808516e-03
-1.215196471447295701e-01
-4.655025323915135300e-03
1.810496825295094181e-03
1.436922836923758100e-02
9.219995050724625815e-03
6.991348946750747771e-03
9.330177414276415518e-03
2.274707062696447110e-02
-1.793859650435186345e-02
-1.572218112325483516e-02
4.190858618280327540e-03
2.021441537037237720e-03
1.993271908941566389e-02
-6.418116021320620368e-03
1.660899150557660492e-02
-2.692837564304569054e-02
5.896936661380785399e-03
1.652900405703795067e-02
7.644257118039389683e-03
-8.384180709612706677e-04
-1.757612840993533904e-02
-3.383895556584955167e-02
-1.114379439957235637e-02
2.051019196407476847e-02
1.691332002021696951e-02
1.441847487259834311e-02
1.127783807889768015e-02
-1.082126427868366873e-02
-1.236933190461228125e-03
-2.510913050508946712e-02
8.877699512635809850e-03
-1.050840308103015430e-02
7.361034425065915866e-04
-1.425834866156103047e-02
-8.294145290540308121e-03
4.143511491765472510e-02
-4.770241171654585879e-04
4.246358759793209675e-03
1.141636837715417907e-02
-1.984655592902145882e-02
-8.568025114483483404e-03
-1.617209998718556474e-02
-4.524037466536802443e-02
-1.065050928434184245e-03
7.439834245484552855e-02
4.518247118026220283e-03
1.391901822919889009e-01
-3.925933172003442939e-02
-3.463156549091932733e-03
-3.315833750641084248e-03
-5.939962074172586148e-02
1.012081810304895409e-03
-9.407306885557265019e-02
-7.289920646609811261e-02
4.555433036193309426e-04
2.284903949993376260e-02
1.440987425748170569e-02
3.076100128844072579e-02
-1.129039061384660980e-02
-4.088576196343915968e-03
7.445812211882605431e-04
1.088205922026081428e-02
-7.776821225471985434e-03
4.594527258768475557e-03
-5.917437662229836290e-03
-4.316028391878118375e-02
1.908005270080650670e-02
2.928560973016531774e-02
2.146500409615530267e-03
-4.052894267228902836e-02
1.642718354937114031e-02
-4.319031073299867129e-03
-5.377323055526804334e-03
2.045517765360951867e-02
1.739054024523372863e-02
7.907866388892752577e-03
1.192145509981607215e-03
-1.135168151118277728e-02
4.344647645640456468e-02
2.003268754833100254e-02
-4.841257271405942711e-03
1.717353816684524066e-03
3.080729715387985068e-02
-1.164764170482373651e-03
-2.541936501324727673e-03
-2.315840930550279453e-02
6.534508448695965088e-02
9.454514405559394027e-03
6.218380089790648962e-02
4.712150059648759041e-03
-8.746314227944669908e-03
-6.367276909332574356e-03
-1.090737401545871857e-02
1.305394472216899263e-02
3.334725357662057278e-03
-9.392578129787765989e-03
5.795370400765533815e-03
-1.751102318742375416e-02
-2.008570092665048698e-02
1.451915641787332803e-02
1.448557971335708364e-02
-1.028440232670969727e-02
2.059640083015855643e-03
1.312987481159094694e-02
-1.134911790171553615e-02
-8.900169107047354797e-03
-3.300743224342656684e-02
1.465464910332674999e-03
3.410899424167375404e-02
1.376019583095858777e-02
7.863210136641440168e-03
6.092508658410322742e-03
-4.938902678935860879e-02
8.519477835581882458e-03
2.835531060910256168e-02
5.242168412297271152e-02
1.342822155482343779e-02
1.455932388907078996e-02
-1.110021949174882670e-03
-2.402818087095930869e-03
5.421817330607967868e-03
1.083476637261955545e-03
1.683452491120205480e-03
-1.374316658551727986e-02
8.740942374118963742e-02
-2.886979856301216587e-03
5.809090921669029552e-03
-1.644313550321240295e-03
8.588313529214939429e-03
-1.880268796155955616e-02
-7.097394712017056351e-03
-2.012765032680222804e-02
-2.445310655558395781e-03
-3.734874600624832341e-02
3.719032496617195437e-03
-1.853327405073028388e-03
1.049340928394252304e-01
3.306767253781835864e-02
5.361616394111674323e-03
1.603404550209068958e-03
-8.637128316998733462e-04
-7.081210125114719908e-03
-1.815057296761627553e-02
-1.057293377899811218e-03
1.839276972952744778e-03
1.961060845216306553e-02
2.950014374377202264e-02
-1.482773534104568462e-02
1.813329019420698365e-03
2.394732249010035272e-02
2.897986562138862008e-04
5.321316223280724185e-03
9.260978782003744317e-03
1.925919259351423912e-02
1.224853765040920294e-03
-2.646631088420975733e-02
-3.868562840197810500e-03
1.266095305020367321e-03
1.657883093876053732e-02
9.581634407927233990e-03
1.865856030494228435e-02
-2.457578656744186657e-02
2.775959643400878821e-02
-1.175457788191909027e-02
2.746273962525353635e-02
1.569197162782172417e-02
3.731330227193164345e-02
-3.945768812329791125e-02
6.735524588647887057e-02
6.394234155793798724e-02
1.213960748465577315e-03
-8.084831681010982637e-03
-7.560106435674208655e-05
-5.690114755911865330e-02
-9.700942771004876855e-03
7.414762492958928107e-03
3.989109660494125770e-03
-8.485356479093814422e-03
9.867314818010702870e-03
-7.157927491254053622e-03
1.441624918114506803e-03
5.750960556499331439e-02
-1.059113909592062502e-02
5.094324575312909192e-02
-1.337328290285630860e-03
-4.052228520728414114e-03
2.695950376072295176e-03
7.402683571381353522e-02
1.010021373358984814e-01
-3.105678919077030017e-02
-1.864096062217668326e-02
5.516566765961565533e-02
-9.909026052899455594e-02
-6.624032335905408707e-03
1.981433316215073723e-02
-2.843199597507402743e-03
5.369016144591999724e-03
-3.096261984566229739e-02
1.972257679857858034e-02
-2.320480264256851582e-02
-1.707130935739620964e-02
-5.110554391099511075e-03
6.858771708156796276e-04
-3.564821791129473266e-03
-1.433244307737186786e-02
1.411056727608819665e-02
-1.441475334842541242e-02
8.068651675325996114e-03
-5.989369013508949458e-02
-8.787348778442156602e-04
2.291445467510235326e-02
-7.260484240737908983e-03
9.047041606187949253e-03
8.565021246522817877e-02
4.876419996557327004e-03
-5.781097970834384904e-03
-3.715166788371156159e-02
9.117515118041038397e-03
-1.096207688016320909e-02
-5.933105372423592982e-03
6.748815315927370051e-02
5.206075810250788971e-02
2.427616520857586030e-02
-2.081504310159165150e-01
-1.720662016461413021e-02
-1.534771411136492264e-02
-5.849666667461561609e-02
9.274118242999628003e-02
3.913970466205295151e-02
2.813060070294567602e-02
3.985407592314986502e-04
5.339115843589049837e-02
-4.972619028805041856e-03
-4.112179143763047134e-02
-1.595086664471950105e-02
-6.290802686035822620e-03
7.769893610641954475e-03
-2.486081305044974057e-02
-1.348594550152678456e-02
2.883255180819424036e-03
-5.560244427614334344e-04
-6.014016828384797023e-03
2.891952243512396162e-03
-3.211116760565665973e-03
-6.359886370963456492e-03
8.971261191402271976e-03
3.979140980265079286e-02
-2.191586003544238742e-02
6.933532168893147361e-04
1.872995202720176972e-02
-1.610604839959518244e-03
-1.318842603658096878e-02
-3.815371954735563304e-03
-5.963902108559724670e-03
4.285996000061242928e-03
-5.802958655304289032e-02
-1.035576170804217849e-02
1.028914068093315752e-02
4.004841300281836852e-02
1.915956946157161209e-02
-3.168682023052993898e-03
3.547246753103150407e-02
-1.785287874629087890e-02
-1.367046745229829685e-03
-4.118511380212429990e-02
-6.672165941627640311e-03
9.981151637822154032e-02
1.198032913289419701e-02
1.181252281755733498e-02
-3.529537689818326718e-02
1.684283285605183453e-04
3.839054755513980621e-02
-1.306589782598916154e-03
2.423597344595225522e-02
-3.007437456870975905e-03
-8.449202775119481895e-03
2.232217048835629433e-03
4.849045291755981965e-03
-9.075539735904757793e-03
3.658531556036035380e-03
3.484804213672626494e-02
-1.793387773872249027e-02
-1.321235942385077383e-02
-1.762755402765733143e-02
2.517381803690899381e-02
-2.376762146860677757e-02
-2.693402339719802585e-02
-9.597145195250627800e-03
-2.621261762920821040e-02
-1.292481281261347904e-02
1.329100104579088865e-02
-9.075470414163113939e-03
1.090939873138471218e-02
4.995874925483467614e-03
-3.680606502541752811e-02
-2.678004859701786991e-02
1.930448469997881949e-03
2.839938949861192923e-03
1.132011328302438141e-02
-2.520472544557755129e-02
2.433278498856787566e-03
-3.105506983014481859e-02
8.058380718423152969e-03
2.052698894707665964e-02
-1.359321014402222749e-01
9.167357147116391228e-03
1.210326754011632581e-02
-1.190662483151914836e-01
-5.471642235904953210e-03
-5.529044736130033985e-03
1.867570321004613856e-02
5.958917065653577400e-03
5.180560369471033481e-03
-5.710908726324938345e-03
-2.379512392048364552e-02
5.089730615264835382e-03
-1.943123325477803809e-02
8.767923695352577984e-03
-4.027047342439839250e-02
-2.110182628480563542e-03
-8.296984435914735168e-03
-2.398086175167463141e-02
7.654538656288726282e-03
-1.279400960024264580e-02
-1.520739311782542784e-02
1.714198196693584794e-02
2.637587275773383561e-02
6.934913683821242701e-03
7.428782867719642413e-02
-7.115565282044151833e-03
7.474051398151946093e-03
2.179286364987085417e-02
-6.591999816720883927e-03
-4.910661688339352723e-03
-1.138226109599092990e-02
-8.394441759699514116e-03
1.682587313181061741e-03
-5.003592632623826003e-03
4.404363843512559828e-03
-1.799517924376934632e-03
9.095736275136756532e-02
2.225444898291762189e-02
3.355680168771297406e-02
-1.202154775124491051e-02
-4.214418847680031035e-04
-1.558701220093301580e-02
-2.151446506057302574e-02
-5.763383148433422198e-02
7.822899653424829347e-03
2.770376364768188659e-02
-4.640394118378876956e-03
-1.605635103091410804e-02
1.847845365638920920e-02
1.266452538214331812e-02
-7.762848135959510287e-03
-2.240129081963281640e-03
9.100762196593260855e-03
6.686931188376655545e-03
5.207436146619900431e-03
-2.565153090698689409e-02
1.292122679765856513e-02
2.135317705911352615e-01
5.574455196403788060e-03
-2.159799908324243952e-03
7.674903797199164601e-03
-4.325679261542293708e-02
-2.606767324961417262e-02
3.857762649670405403e-03
-5.236396481846953763e-03
5.812646899994041404e-03
4.832727484412286528e-03
-1.316581339894144428e-02
8.011493036262581219e-03
1.852856307011328113e-02
1.452818345445396932e-02
1.638212807009356477e-03
-7.148617800506060216e-03
3.617595933175725854e-03
-2.137103354640195949e-02
-8.358135301331524880e-03
-6.035958168154162591e-03
1.965259739213636933e-02
-4.162338200893077149e-03
2.100385804304050891e-02
3.896484233538196479e-02
-4.799866578119934418e-02
-1.490118085233596568e-01
-4.348037405612659168e-02
1.769501011230530454e-02
2.332368607780146118e-03
8.384726748377207758e-03
2.151441857583349243e-02
-4.072517481331862821e-04
7.089206885367688692e-03
1.212848283702814417e-02
5.396073580850558986e-03
2.258284564960724716e-02
3.453872166484111845e-03
7.819048446105225994e-03
-2.165385849752947400e-02
1.895306358109865794e-02
-6.136366354114177954e-03
2.144112547961875975e-02
-2.964784834364239414e-03
-1.008418159734440767e-02
7.692291922909127132e-03
-2.096173038823728307e-03
-1.470972829356735102e-02
-2.909585667543031218e-02
1.211002788746788454e-02
-4.969230048117408757e-04
2.863253261391981996e-02
3.790147912214901493e-02
3.977325877887679523e-03
5.004215663186980384e-03
-2.449456541460252532e-02
6.827491407067842744e-03
-7.885611114170066032e-04
1.214446474936854183e-02
-2.451456396951826738e-02
-3.518095648525478014e-02
-5.490552233114551900e-02
-3.063402312973200620e-02
-3.582439582152633500e-02
-2.184781187352186071e-03
-4.534824579137244037e-03
-1.342339110087798631e-02
-6.040689100214240680e-03
4.811152973107062775e-02
-1.943754823794688336e-02
-8.551623006644025124e-03
9.608851313314426337e-03
2.734829703803526996e-03
-2.885063800453578978e-02
-1.677638367472459539e-03
2.316722525302331026e-02
-3.846523271111802842e-03
7.997713279814664539e-03
-4.782388422478546335e-03
-1.073614756105712408e-03
2.701185264895056021e-03
2.064686237459530810e-03
-2.787465726037127375e-03
1.313021132795610772e-02
-2.887582259187307984e-03
8.352768736714708334e-03
5.831651981858370845e-03
-3.170967140078943900e-03
-3.296610135681142528e-02
1.062971777258793840e-02
8.175982739781378558e-03
-4.703796360899673533e-03
-6.700284389836293382e-03
-1.767781064935692106e-02
-2.293881253488056979e-02
-4.558154802594393401e-02
-1.401700865158374276e-02
3.459164530567973919e-03
-7.388923392833357355e-03
2.740817552214766311e-04
-7.414045153371735634e-03
-4.868618519118487684e-03
-8.004633540517646847e-03
8.331315896505320229e-03
-4.286984633003493132e-03
5.716862319029636982e-04
2.613609926333741035e-02
-4.442643519913374098e-03
-1.568311951136175733e-02
1.361120391580626296e-02
-4.520260643008793683e-03
1.169955171386672342e-02
1.295027259061122191e-02
3.826693845627720560e-03
2.527159586553807263e-02
7.091627028517399683e-04
-7.932354391442016789e-03
-7.259586671665947677e-02
1.128111877529566808e-03
8.162705907536997943e-03
-7.843073161051958980e-03
-6.738086972277316719e-03
2.257897533282816546e-02
2.875900166949059075e-02
3.019431830422811963e-02
6.903457125379666715e-02
2.522170098775579350e-02
-1.050301488028091909e-02
6.112070828374835570e-03
1.850175547700568315e-02
4.009438407830732271e-02
-1.322956014914172243e-03
4.249234827216991778e-02
2.840237269469854647e-03
-1.393013081195081972e-02
-1.922842070863304761e-02
1.249198485937151083e-02
4.153569479585373508e-02
6.274250249521262255e-04
3.613905586466531418e-04
5.500725584692526746e-03
2.154185832734476294e-02
4.932270699533320563e-02
-4.322881728398540735e-02
7.402613264161675768e-03
7.120664459155575179e-03
-3.956078564506941217e-03
6.232772820920792767e-02
6.178094882523160747e-02
9.900342397927270471e-03
-5.730167195522068574e-03
6.731009660051696063e-03
1.382312887156788954e-02
8.969161856785708153e-02
3.985251193153228205e-02
-2.676536168215990635e-02
1.267024762551539722e-02
4.189932951051997083e-03
-4.416211564793420807e-02
-1.097597466363933565e-02
-1.790475630272199761e-02
-4.741935553659870628e-03
-3.287182244667151160e-03
4.191448252055277740e-02
-1.294913422824765618e-03
-4.371650281203398603e-02
1.800289457679458277e-02
5.192427966254293918e-03
3.863936482354495688e-02
7.611324940853463755e-03
8.856667289030539444e-03
1.317149425399023396e-02
6.718212183748649424e-02
-1.942411394022846780e-02
-2.468541506287792037e-02
-3.207191253775548614e-03
4.602347935434684262e-03
-1.185178671854662108e-02
6.975837766129026896e-02
6.551720284645637382e-02
3.215727508172011584e-02
-1.703764236385647279e-01
-3.020817346261891329e-02
1.168752561060663053e-01
2.887033618332518134e-02
2.041188226177643311e-02
-4.413208842043979743e-03
-1.759404056304690253e-02
1.365647002207626311e-02
-2.113853830519580798e-02
1.725182461745615112e-02
1.201971384274594379e-02
2.955763857335107995e-03
-1.000235962916921038e-03
2.286003115050025403e-02
1.390656830707542001e-02
3.051234213950684391e-06
4.958369143788962088e-04
-8.124071020140045951e-03
-1.620394484538185227e-03
-2.048984887667326671e-02
-5.313346650988193948e-02
2.362800007717502995e-02
-5.982245654121420148e-02
8.406177867471312584e-03
-1.034558535091778357e-02
1.195066212875870934e-02
-1.944322885072031354e-02
-3.151452183321006018e-02
-5.982578462907288570e-03
1.805309405727025711e-03
7.495854392124183529e-03
4.193958029124603137e-03
-1.102021222469098775e-02
1.058067924916882181e-02
-1.148662544667227413e-02
-1.644594447514866400e-02
1.516440185074285039e-02
-7.380966882183000351e-03
-2.143549981383649440e-04
-1.920618255878159611e-02
2.506619182105053120e-02
-1.633598486578975240e-03
8.582454162025349512e-03
-9.334973415197511670e-03
-4.807121543785188890e-03
1.799449975371626362e-02
3.822096630308614157e-02
-1.106001094215637859e-01
1.484844083617336066e-02
-3.132487310494876543e-03
-5.973133124944959155e-03
-5.460411683651813369e-02
1.376971907851279146e-02
1.557249532733355653e-02
-8.636675272052061342e-03
7.714356925027986839e-03
-1.900186665013634327e-02
-4.484587301758899934e-03
1.630924122483139865e-02
-1.364949570715686712e-02
-7.140425003480614825e-03
1.327562553465981218e-02
4.760545349083226442e-03
8.196899491529316059e-03
5.954115004836190751e-03
-5.908541013241002705e-03
-2.235528459249072619e-02
-5.343063733627018835e-03
-1.370176891755441224e-02
1.697961037363077130e-02
-1.051584046260080861e-02
-1.442075978521397892e-02
1.323238103862066969e-03
-4.757592084935454574e-02
-5.856520358356652987e-03
-2.522249193665885582e-04
-4.340094853049547563e-02
-9.338115138037486954e-03
1.065148418470249561e-02
1.684801430036263550e-02
1.210532708293180978e-02
7.714061824877081058e-03
9.391316611374650805e-03
1.745688001456548654e-03
1.387873067991655072e-02
-2.650296946745006512e-03
-1.219543334319197342e-02
-4.644143409438036309e-03
1.923579215927571570e-02
5.080296990431131844e-03
-6.174608439238953202e-03
2.422191125258709929e-02
-2.743462359814952123e-02
1.321490752745129935e-02
-1.394984271705145169e-02
-8.884726214496974778e-03
-6.240496697697539563e-02
-1.101655457934469159e-02
-3.410419493852478307e-02
8.422609971046627828e-03
9.854592189296740301e-03
1.328746718279782621e-02
4.015447048118315869e-03
6.519386275039792955e-02
3.105583006973709672e-03
-8.202076385989104379e-02
1.781771863034638942e-02
1.653945570933692405e-02
6.362636956992438926e-03
-3.096052978051083704e-02
3.697361488179161382e-02
1.504672002216891208e-02
6.219698387839869662e-03
2.916587411378228009e-02
-4.742638831299243046e-02
3.065071996300309382e-02
-1.127945712569177437e-02
2.481827554995781962e-02
2.444715377099675787e-03
1.028133880439433268e-01
4.610657440262922249e-03
1.179952615620793663e-02
1.530029321798052379e-02
1.452212707650880376e-02
-2.793468765217853615e-04
-6.740716362070015141e-04
-2.731696076822423547e-02
2.729578707237776888e-02
9.278721909295427339e-02
-1.090938852809701307e-02
-8.277735084053678988e-04
2.970719051027964110e-03
7.445216315032801655e-04
1.127762830807698367e-02
2.687204418828209943e-02
-2.731633440186682481e-04
2.529788363282616925e-03
-1.141066534708981214e-02
8.725604801694914966e-03
-7.802381835183789041e-03
-2.858212325657026598e-02
-3.595422486152171932e-03
-5.563071568042244480e-03
2.686721003735188795e-02
9.890293944997271061e-03
4.618709526407182957e-03
4.601685430383139173e-03
1.966792172965430019e-02
-3.406868021179708383e-02
-8.439553719442289409e-03
-1.251311732623718899e-02
4.260854744187492563e-03
-4.844998523989938778e-03
1.423903698821924824e-03
-1.641469614600589433e-02
1.317274661189040156e-03
-1.684883690209908842e-03
1.544761052564848055e-03
-7.707164763882830283e-02
2.479529015182663134e-03
-5.365496360160718287e-04
-5.966116959751271119e-03
-1.987614462362171860e-02
-2.523816838013088343e-02
-1.667804434842356728e-02
-7.688477880825246927e-03
1.499303016201455115e-03
-2.464225838932423973e-01
-4.121348595220966529e-04
3.723302105193904317e-03
-1.300117148132242740e-03
-2.618863267338850109e-02
4.811220393341238653e-03
1.575553465460575661e-02
1.118313769326748086e-02
1.216517330618723880e-03
6.723940538940246896e-03
-2.370142623877552913e-03
3.969365285912566932e-02
-2.751571490622309237e-03
1.647632285429328006e-02
-7.418744316009728834e-02
4.951052916647517843e-02
1.136178050495238734e-01
3.713480468660027012e-02
-9.945383520573258893e-04
-3.154101421374598275e-03
6.228471182742197423e-03
2.438823946535236334e-02
-8.128315407197090822e-03
-6.713984918381294721e-03
-2.009004292481300982e-02
-2.817194811073253646e-02
5.763510702964075956e-04
3.818944212181006170e-03
-3.186628133501802763e-04
-4.657623083875125653e-04
3.058929757407163885e-02
-3.642314414526728709e-03
-6.077470119350598813e-04
-2.096431777769373547e-02
3.282655354813057008e-02
-2.008454898597157590e-02
1.902137347907027548e-03
-1.543415502415370483e-02
5.664213328381004914e-02
3.186071106275142895e-02
2.500317709256735972e-03
-5.287614037679497052e-03
-5.480236326274329911e-03
-4.120031475786150622e-03
-1.054969058690146712e-02
-2.803606094075428157e-01
-9.144156405906633811e-02
-3.344070778610112567e-04
1.651741965740430307e-02
-1.318663806319554307e-02
5.242905301837436083e-03
1.445458275317937358e-02
3.992565031685743615e-02
-1.947560581997750603e-02
-2.953616401972413916e-02
-3.886242222186259837e-02
3.060069011532765351e-02
-1.265344156662697415e-02
1.368093011389637063e-02
2.086757427404060256e-02
3.718319527855937223e-02
7.001211235934705172e-03
3.840603658095702311e-02
2.065507460728592190e-02
-4.852296246981064459e-02
-4.755948030141103448e-03
-6.918622903831199433e-02
-3.496437715714750816e-02
1.274019519604679962e-02
-1.710619003037432140e-02
1.547657928592112084e-02
2.692226160981378222e-03
3.433798482200822039e-02
2.992660462800529522e-03
-1.657181027397052614e-02
-6.627680058195689963e-04
1.656501514539788014e-02
2.865015766388290253e-02
-1.036712385560912067e-02
6.558866973858820670e-02
5.650203703947821732e-02
-8.574245994395797562e-04
-4.238196369590891549e-02
1.167486953557564898e-02
1.308560460839222313e-03
1.000406192425470388e-02
-2.057611606105010354e-03
5.367065845256203428e-03
-5.040190868358611527e-03
1.079188377770397625e-02
9.266141348934361921e-02
1.120423042927111423e-02
-7.013353325291101295e-03
-1.379705059172752109e-02
-2.849461823868624025e-02
-3.075262984800873622e-02
-1.556039734507606506e-02
7.931253216574141304e-04
2.718080556995772917e-02
-4.365679312487994596e-03
-1.041511989130571719e-02
1.664298683954831132e-02
-7.619795685555885018e-03
-4.325194232567644917e-03
2.630358633890229870e-04
3.292097773598436083e-02
4.977501797978224791e-03
8.269501583162201103e-03
5.298448483131528147e-04
1.525271509089298760e-02
-7.099223872243675716e-03
-1.598384885100745043e-02
-1.001406505117496959e-02
3.603733098387100139e-04
4.733551150110370219e-03
-3.079538507193004329e-03
4.070421955672474598e-03
-1.431823274136904446e-02
1.465599654052606284e-03
-1.024448826264952664e-02
6.351042399291976538e-04
-4.959306078685990146e-03
1.678348175462267278e-02
8.052201362297521994e-03
-1.448565941213327728e-03
-2.074182581095899286e-02
-6.954774367840137195e-03
-5.100033522897818271e-03
1.030386815652849924e-02
2.210538198979495467e-02
5.510691400402824465e-03
6.686402751081932036e-03
-2.331783565405471173e-02
-1.555829335720966024e-02
-1.886615129560320278e-03
4.180809798436511092e-03
2.350718287889173516e-02
-3.596456392483351420e-03
-3.517918442769833731e-02
1.439924552354866771e-02
-1.277401198149812241e-02
8.997941071991857540e-03
1.488725708663882208e-02
7.589240127333755220e-03
-3.776896983170284407e-03
-3.213611888770426944e-02
-2.785553713486411606e-02
-3.231117198335719306e-04
-8.373419111138940066e-03
5.012504725815523010e-04
1.435036270488179028e-02
2.067107760041206332e-02
6.047134544545280412e-03
-8.818463388483513063e-03
7.342370976976731259e-03
3.393152866910848636e-02
1.076302828253587578e-02
-7.134519284447849580e-03
1.676163478094546203e-02
8.931148911647281835e-03
2.352889794305638885e-04
8.488040892611018601e-03
3.210523610438709412e-03
-8.230130721705862171e-03
-1.159021788483456357e-03
-4.087030013064848338e-02
-4.031601540534504417e-03
-4.866770496556702304e-03
1.132975511102702303e-02
-7.643834755021651495e-03
-6.018426446040657865e-03
-2.856583538920645648e-02
1.720298933765292831e-02
-1.296476788988347971e-02
8.149546543612615560e-03
-1.147559737007722638e-02
4.330668754393852959e-02
6.060490241948436087e-03
1.576168090674044328e-02
-3.443159126339432469e-02
-2.529680372270916300e-02
-6.881706982639212858e-04
-1.286159187187754620e-02
2.248025705185748187e-03
-4.047053992656566429e-02
1.386403519190406997e-01
1.039154695909203820e-02
-3.740307530795490901e-03
9.678577050036137400e-03
9.424206298864210365e-03
-7.191220788622492734e-03
-1.531201023105574792e-03
2.084949885748139595e-02
1.291627135894250419e-02
-2.868348039080137468e-02
-1.674580638767846292e-03
-5.297813060537237724e-03
-4.746955834904060395e-02
9.362531022337958198e-04
3.015295919532520741e-02
-3.751774820462308699e-04
-1.772821250984704319e-02
-1.499234886635300232e-03
1.649197790305106590e-02
-1.666911551891791382e-02
3.582995184990300785e-02
2.246022631700256289e-02
2.549337109895695452e-03
-2.559226294743132887e-02
-2.536260654880399812e-02
3.914731560804947039e-03
2.342746511166110199e-02
1.835802335985866132e-02
6.079926847708006649e-02
-5.395804004988909164e-03
1.305009330642843170e-03
-1.514194267454091643e-02
3.067764605837414518e-02
2.882144362022446421e-02
2.087924229852247682e-02
8.291485481133092916e-02
1.420953293407881081e-03
3.801795858241922149e-02
4.291050439215366580e-03
7.750060525226708068e-03
-2.352309887471395328e-02
4.732336162993099667e-04
-1.367330113364643128e-02
1.226856864696005030e-02
-1.254104451947424259e-02
2.456066780118987963e-02
-1.641451913159008152e-02
1.770014540978388784e-02
-4.637924439881861705e-03
-6.741736530247180274e-03
-2.662730665183390012e-03
-7.016663137734630018e-02
2.041029973284906596e-02
-1.330102298133401320e-03
4.331228273868541895e-02
4.517651420155404524e-02
-1.255418132721728905e-02
1.767863728880057078e-02
4.689362030144129945e-02
4.076684178692622021e-03
-5.241415916125730101e-03
-2.152439616125574520e-03
1.880803713070252053e-03
2.144858688710514494e-02
-4.075044735580654609e-02
-1.299880827865227979e-03
1.766170008809397939e-03
-2.683062916114378402e-02
1.443401087520268522e-01
1.165716374280934692e-02
1.101435714729058707e-03
-4.997260535176746565e-02
4.645002399852850294e-02
-5.330146066282122341e-02
2.765127386109190663e-02
-1.206014611503952901e-02
3.402421739028254483e-02
-1.546203886610043876e-02
-2.006612524630838057e-02
-1.042981102061745803e-02
-1.593691477773714546e-02
3.137647285284656494e-03
2.030662754950698576e-02
2.962680854091041469e-02
1.235288185856095022e-03
-1.914371685119085811e-03
-2.134102471169751700e-02
-2.309296565957992455e-03
4.737865552940329766e-03
-1.780963009903631074e-03
9.626800832816117745e-03
-6.704368540160957242e-03
-1.717348107152834036e-01
7.971522004129068598e-03
-2.829621412205543182e-02
7.577710644041444179e-04
2.220901525799226593e-03
-4.219394115877641259e-03
1.307760702185828232e-02
9.021041973938213757e-04
-2.965135604707341485e-02
-7.031042929177339605e-03
8.176961000771173008e-03
9.726885947662860729e-03
4.745062573156715209e-03
-1.004573330341443013e-02
1.928131018622995102e-02
1.888487794281628121e-02
1.459504429050097370e-02
6.353818074654925263e-02
5.600752581388626118e-03
3.882786475453529201e-02
1.573536833065668911e-02
7.135920102815546118e-02
6.795070839771015156e-03
1.371475398651771441e-02
4.392690760358255835e-03
3.407975348416625132e-03
-4.055320319479736348e-03
8.467183139061707983e-03
-2.905542020980021387e-02
7.181672417330524361e-03
-2.900642828288876440e-03
3.915886843275171586e-02
3.183551414448537176e-01
5.602622249381876071e-04
1.122902609648433400e-02
9.006196458145460104e-03
-1.832017079718395447e-02
-3.114628255651284358e-02
1.662528628975844594e-02
-2.858841976277323726e-03
3.857010203894537664e-03
-6.739457100701654393e-03
2.471044212787690177e-03
-1.585025822597194503e-02
-3.153827517435753985e-02
1.741261353809708465e-02
9.894569872135224042e-03
6.114692384576957823e-02
1.641438631944431847e-01
3.556751710381048787e-02
4.052336680592026445e-03
3.104295807147455788e-02
5.693639967610086144e-02
3.463743845166409457e-02
9.360883484843325608e-03
4.250925270935946437e-03
1.614710884952503048e-02
2.085614420970898289e-02
-1.152952342072305521e-02
-5.762462201249953647e-03
-2.144729956509876679e-03
-1.162070939891439794e-02
8.545260073470243396e-04
2.802915703245528051e-02
1.962591044986624830e-02
-1.625298882823467475e-02
1.360608667130341204e-02
8.173929394354443115e-03
-2.530280031194295440e-02
3.497883896807134352e-02
2.396376220082366369e-03
1.344999784877628710e-02
7.143235280486110415e-03
6.664415456764986867e-03
-4.960395360601109992e-03
6.398886776234772970e-03
-1.126975481083012862e-02
1.597899403542058297e-02
1.537434816312831590e-02
-9.251113023563680565e-03
-5.871882780918242541e-03
1.874577804500883113e-02
9.665458156708616605e-03
4.855060404005263203e-02
1.445522792395152051e-02
1.688702057674371093e-02
-1.572158506318343521e-03
-2.860783450624005981e-03
3.979497974321048043e-02
-1.829998763482631064e-03
2.221984994921111407e-03
-3.964382448062323157e-03
-1.401519785526735397e-03
4.694736932537846297e-02
5.265433125286115602e-03
1.604101324225048336e-02
1.753106737172637809e-04
8.687137009046287314e-03
1.105625065938909378e-02
1.849729943270795804e-02
2.201651412280992981e-02
3.408469255039498630e-02
2.038865093880809845e-02
3.380938367173978178e-04
-2.703714469271647873e-03
-1.009454504416251903e-02
-1.326852294398546406e-02
-3.324130469664589999e-02
-7.344299190579398930e-03
-3.736323165819344788e-02
2.859587796422200651e-02
9.373316779728335310e-03
-3.679459468627774982e-03
9.095828739990690064e-04
-6.609822890747824031e-02
-1.042577272138146263e-03
-3.111866052894913387e-02
8.166808303474581629e-03
-2.574258998055502581e-02
2.298029537666474234e-02
1.742898464742719672e-02
1.386850922285380767e-02
-8.260038117985417372e-03
1.363053134847343542e-02
4.532822045540716750e-03
9.523192051014335319e-04
-5.403367031360319789e-02
4.095783669807676053e-02
1.463551053092763087e-02
1.225629472527753686e-02
1.724248416570496600e-02
-4.208573545314626962e-02
-1.010478778851495174e-02
-1.641699080297859270e-02
9.522235606103591349e-03
1.941774414997665199e-03
1.966292436849929881e-02
1.888990330034655274e-02
-8.968112489756750738e-02
1.495589655249043685e-02
9.300844869278799068e-03
4.192581527598740650e-03
3.759326155110719048e-02
2.216178797178986089e-03
8.145859173737571290e-03
-1.700408456554095005e-02
2.104005130232292770e-02
-1.739686377336603857e-03
4.254436644714968373e-03
5.321611633345072964e-03
5.117686342700038249e-02
1.061535963587915271e-02
-4.178176572753532561e-03
1.464085974020841105e-02
-3.462113431199599200e-03
1.124543876181881806e-02
3.098048033053972874e-02
-2.640778255582543199e-02
-2.080381851773552976e-02
4.157050121929212194e-03
-1.328355103501844062e-02
9.924460862510321377e-03
1.217700256058694376e-03
-4.904581639768170603e-03
-6.059744183515554904e-03
2.391542753051763715e-03
1.089533214715693483e-02
-5.716940200942958322e-02
-1.615079330754395567e-02
8.026589536460206759e-03
-1.135034664694588996e-02
2.155170739775669198e-03
-5.463520142785706357e-03
-9.742878176610771102e-03
-1.728552633445944522e-02
-1.865680238644755809e-02
6.123298445828699588e-03
-3.072639190178162033e-02
2.372795045137119155e-02
-8.584135835680725690e-02
-1.105065874931059622e-01
-1.190643409319792033e-02
-2.600532359107399910e-02
3.341049609913749469e-02
-5.800468688110065052e-03
5.144922865404510763e-03
6.567482449194503129e-03
-3.775444942597818571e-02
8.382514054576805512e-03
3.908001744516599769e-03
-5.444794469996784309e-04
5.369452144762286439e-02
3.017088079845446635e-02
2.607659551818033647e-02
-4.075393225051519158e-03
-1.047677735507128189e-03
-1.427484260294778207e-01
-4.326657407089417977e-03
-1.562455611203711070e-01
-2.957482711963959135e-03
-2.487950864759035097e-02
2.166690729942711766e-02
-2.916777663363182699e-03
3.708961607229836494e-03
-6.794341369814911949e-03
1.800437567611264111e-01
-5.644654789633190900e-04
-6.123502587963812471e-03
3.764585782432877670e-02
1.378589712789608096e-02
3.983451728247339001e-03
3.209284592971906568e-03
7.988887965289907106e-03
5.942521390852761702e-03
1.206990627356375155e-02
-8.000163060239207091e-03
-1.551477227736358482e-02
1.507232930644782261e-02
-3.923224937574934512e-02
-1.158753468263875631e-02
-4.820701604581508056e-04
-2.606745109379281569e-02
5.902507418788530309e-03
1.274251621526537731e-02
-7.789379640065818844e-02
-6.342860931278918209e-03
-3.438416542151902493e-03
3.871363843046228548e-02
-3.338364194474062636e-03
1.541117954397379320e-03
-6.994262827671775089e-03
-1.846769408665745876e-02
-1.954836451108079090e-02
-9.293256478329244008e-03
-4.657176218586505517e-02
3.683599332632890057e-03
1.221261059409171987e-03
-1.875629849385481579e-02
-5.943358462161056621e-02
-4.121108073892201795e-02
-1.092089957187133975e-02
-1.500812744312988722e-01
-4.816692260966231286e-03
5.930395018588959996e-03
-2.071784579677115809e-02
6.035411453273942933e-02
-2.371285651254622599e-03
2.222394716081831784e-03
5.299199402086148675e-02
2.568006752324273473e-03
-4.451965561621236689e-01
-7.537892361557445471e-03
4.673165115590251738e-03
-7.437369623971629151e-02
2.921606643587008542e-03
-2.619016496280273179e-02
3.451074028195761506e-02
1.624849057636090170e-03
-1.253271630070004923e-02
-1.329205430782498185e-02
-9.589265879911917229e-03
3.482807598978177478e-03
-5.659549690109261233e-03
1.112048040553406843e-02
3.000695754236556729e-03
-1.650184808235675635e-02
-6.550624646633230151e-03
2.158681151797668587e-03
1.347340928826570583e-01
4.127926235876650321e-03
3.987449936174610604e-03
6.091253480535508552e-03
4.368384345458510565e-02
-7.711712789290186068e-03
6.472669342626764973e-03
2.937052424406345896e-03
-4.503604366591946323e-02
-6.921214985022633957e-03
-2.312374854438467922e-02
-1.037555003085566252e-01
1.208171118458295328e-03
5.034356077558969911e-03
-8.532539946665937706e-04
-8.879832481512328970e-03
-2.641666560702135417e-04
-5.400516922547883743e-03
-5.908119737439371938e-02
-8.509088480973163796e-03
-2.479008799966431545e-02
-1.634331997139668513e-03
-1.689433068824762810e-02
-5.533746335163070885e-03
4.246120894916816796e-02
2.608669601223957864e-03
1.213417473089966996e-02
-1.760900317654347192e-03
9.175102152800923908e-03
-3.263693409489022788e-03
5.596696769322755637e-03
-2.261710817672831289e-02
-6.463032691091426772e-03
-2.261235405831117651e-02
-7.762018517473305394e-03
-1.646940973285228619e-03
-3.083519922582362086e-02
8.151905204830826868e-03
3.119237822352046233e-03
-9.964389441014138982e-03
4.590565474967982923e-03
-3.677465206345923842e-03
2.042016271824465684e-02
-1.770839057808938979e-02
1.702685370565596920e-02
-6.397590299225438572e-03
-1.067395562242057054e-02
-2.178834471298238262e-02
-2.118051056985191180e-02
9.005022938825137102e-03
-3.761469728627679383e-04
6.896747083679216281e-03
6.243836960191715205e-03
2.078662973574509423e-03
-2.794386131846013973e-03
-5.509164005995452820e-03
8.128570145180554320e-04
-3.676490039194959701e-04
-2.462695360277334863e-03
2.106578245415791648e-04
3.596180995008696479e-02
6.761843957900279083e-03
5.267625593982235531e-04
1.598832784376702162e-02
1.641834954288637479e-03
7.514679630363518131e-03
3.405014472391294789e-02
1.015510867400540307e-02
-4.090097582115320360e-03
-9.464518278765363113e-03
7.218628590916799370e-03
-4.377082805003481430e-02
6.066331211448175269e-03
7.398161114491068856e-03
3.966463866884909623e-02
-4.439617988122240150e-03
4.015684488085019717e-03
-5.547451144088159924e-03
-3.662082987877361001e-02
-1.419405396121996843e-01
9.722945438375868790e-03
1.462781878398219688e-04
7.651835144466435402e-03
-1.139686397394215275e-02
-3.952749326437104103e-03
-8.109543979816127846e-03
-5.301598837144742143e-02
-2.632320218028746592e-03
1.306915195522898618e-04
4.412761496088437110e-03
-5.288761192993156508e-03
-4.430213220300478066e-03
-1.319809467010896013e-02
1.695639573508483586e-02
4.331217675027700109e-02
1.181655264489661628e-02
3.682697568825467338e-02
-1.302803005352509147e-01
1.514695914976796690e-02
-2.190219317065771054e-02
1.011553801569831795e-02
-1.298442995520839548e-02
-8.276598098621186766e-04
-1.819798386502994442e-02
5.382805592255397557e-03
-2.773384365709623961e-02
6.190940644044131205e-03
6.841452843107384725e-03
1.397773416074664550e-02
3.563219434918823893e-03
-5.248162860487495286e-03
-1.607869623592715971e-02
-5.332785128977379600e-03
5.227236573933005843e-03
-1.269520040773963396e-02
-1.492119553866582370e-02
6.400365516200386996e-03
-1.151441267719272889e-02
-1.930512828092594349e-02
-8.362043502399606285e-04
-4.757385847386931392e-04
-8.499907936136519987e-03
-2.620102810956185385e-02
-1.239495446048043516e-03
3.255209901672289578e-03
-2.219738401298440404e-03
1.170061544763593107e-02
1.802863132820503545e-03
7.446259139165365857e-04
1.557982336236412614e-02
-2.385453739204291754e-02
-1.206239202273966422e-02
5.210483342368442319e-04
3.364492157525722244e-03
2.669495414651747514e-02
-2.130543394292712129e-03
6.185340882121578149e-03
-3.756991315473928728e-02
-8.122625674967220641e-03
6.748293610697270357e-03
-3.504041595155436145e-02
1.830568385237023310e-02
1.177793098377378079e-04
2.314289001929069941e-03
-1.065027630415965772e-02
-1.374412567135525204e-02
-4.622325619897014320e-02
-1.326388370081331251e-02
-4.960114903731143582e-02
6.720814981994117400e-03
-5.052927341444114762e-02
-4.395160743883960025e-02
-2.074778108660622553e-02
2.097951117631917731e-02
8.241233111020185298e-02
5.408574947444722697e-03
9.430499212462068945e-03
9.246754498668242591e-04
4.555442488676468560e-02
2.249868413908406514e-02
-7.680939106362924887e-03
3.245753235920349061e-02
-1.031904654279574979e-01
-1.798544672164094360e-02
1.104630529993499699e-01
-6.721804496122493191e-04
-4.704084950519146768e-03
9.497056616450474248e-03
-7.272875887001218828e-03
-4.956478544116418167e-02
-5.385576404713023763e-02
-3.075625771430615801e-03
3.217809842366189249e-02
-3.433480772500282358e-02
4.910308336059051454e-02
-6.384625850390406639e-04
-9.903153993896863724e-03
-1.181273056425809903e-02
2.971690698646743678e-03
1.007353225791785337e-02
-4.772046621441487085e-03
-4.441904980247039086e-02
-1.116962899474107512e-02
-1.742439790789874349e-02
-7.725056127531075567e-02
6.244843179173305975e-02
-7.363284675446178477e-03
1.309844870838824124e-03
-2.224780654146655059e-02
-9.624856677909474426e-03
-5.077285792774685613e-02
-5.263820663531229745e-03
5.559435071591817268e-03
-6.963865462989587279e-03
-3.825081800325027311e-03
-4.294882446218657376e-03
2.695046945575168065e-02
-1.001355782154903992e-02
-1.025001614092448110e-03
-6.590653444667521343e-02
-4.607058165439065038e-03
-3.054401995768805597e-02
-1.006817981546975077e-02
1.001847493669900079e-02
5.280026048121807918e-03
3.457567550659822186e-02
-1.451415446381762973e-02
-2.578048546950833728e-02
-3.282308541692872256e-02
1.424010988641140601e-04
2.120611064686242497e-02
2.184809155532509498e-02
1.571611727889394086e-02
3.618379694134103621e-03
-1.861898790381660363e-03
-3.386680927289632652e-03
1.110047544147377795e-02
-5.907392275597175835e-02
-3.527041619494883928e-01
-1.534188970030355426e-01
-2.713977048094378189e-02
-1.700705890830682063e-02
1.022817574653489721e-02
-2.517817675590801069e-03
-2.742281463528418312e-02
-2.127589642558806032e-02
-1.798904738928696484e-02
-2.798795582486900916e-03
-6.187412018318302377e-03
-1.424634840445379753e-02
5.666687025668208991e-03
5.708909070328840266e-04
-7.198824382143039803e-03
6.002975829207631182e-03
2.057051701690389839e-02
5.120093809895236853e-03
8.428934296493497194e-03
-1.366336880974141840e-02
-1.456376518274878594e-02
1.256364253748462959e-02
9.537295189690826736e-03
-4.248271314068679562e-03
-2.481584344860676347e-02
-1.382363433542625926e-02
1.505104613887684080e-02
-1.190869281022675745e-02
1.392798707319528768e-02
2.602174610558492286e-03
1.520330349017602611e-01
-1.015126811898722087e-02
8.074215677099694927e-03
8.054257398786368941e-03
3.467012764854483786e-03
-1.829392751398626477e-02
1.257361701870176110e-02
2.096312212479737452e-02
3.517443997616825913e-02
3.817571678087445207e-03
-2.565311325088946368e-02
-1.465552804428204951e-02
-8.146793338318251282e-03
2.175762455690487956e-02
1.875430649227969454e-02
-3.766360032062519847e-02
1.274994894525940947e-02
2.777440343782384621e-02
5.345299609902939147e-02
-4.550048702337223215e-03
1.201564697593458450e-02
-2.080085844219447741e-02
5.097308285737419883e-03
-6.283850252778566681e-02
-1.731307476250909527e-02
1.138590709024885246e-02
1.746124903996168209e-01
2.142523348498033553e-02
4.894820856282941501e-03
5.381065698688355936e-02
-1.458554333210314996e-02
-2.917937220554740491e-03
8.323458385255151507e-04
4.258598347812402041e-02
-2.232755266473678002e-02
-1.098003873920707849e-02
-1.921250767113181698e-02
1.283834938957093517e-02
1.802267944908336056e-02
2.014846336077666389e-02
2.761028599001185899e-03
3.861354099786495474e-03
8.362638347628089872e-03
9.580159473054556448e-04
1.506053428096232848e-02
-1.994829805120313781e-03
5.794692916970195680e-03
3.802007910398748358e-02
-6.778066628133504537e-03
1.091059954956992289e-01
-1.286762449081416690e-03
6.367233279544065334e-04
8.193890547600848895e-02
-1.780805493413968946e-02
-9.355096486439141382e-04
-5.409864042210391077e-02
3.286941592690529462e-02
-1.224673986487040053e-02
1.562181587959644499e-02
-3.907827416177071800e-02
7.356279763203126855e-03
5.797215719046414778e-02
3.190072225682468766e-03
1.734306728895464861e-02
5.224555599357726295e-03
2.797400984419793138e-02
-1.729079416065082420e-01
6.789368697825174000e-03
1.184164280617093154e-02
-5.420588011245727061e-04
-1.622310453915210698e-02
-2.883474762432371857e-02
2.973763764686297717e-03
-1.484070934049873045e-02
-1.314213156824631766e-02
1.057635993249699848e-02
1.486956762728652154e-03
1.793691368561478941e-02
-5.330549828064332779e-03
1.716118644623177911e-02
5.964644135887839024e-03
-3.880077467519597693e-03
3.090476089625790804e-02
1.817258224581321619e-03
-1.725508841809584768e-04
2.184572540278523559e-02
-9.358988523140036875e-03
6.485101248782435684e-03
5.738083636296514335e-04
-6.020507594318693680e-03
1.953130686870612268e-02
3.137216040678286050e-02
-3.163534758165746728e-03
3.793005683517921417e-02
1.448052714588780876e-02
-7.657207273927143197e-03
-1.795557813095254029e-02
3.150952647139090845e-03
-1.652494629043325947e-02
3.962560057960230753e-03
-2.056262275884977384e-02
2.701578047511472239e-03
-2.053562527036193602e-02
2.203916027655287990e-02
-1.986181720781749014e-03
-7.021152756075065525e-03
-2.107784852154515921e-04
2.491338885939738471e-02
-4.732463497919853906e-03
-6.700112474917576874e-03
-2.244564470423060856e-03
2.242737170976294783e-02
7.880052503716547876e-03
2.591535558890139049e-02
1.717531455586797677e-03
8.354325376233767350e-03
4.427593614729960145e-03
7.365108246813334078e-03
-5.774333234766573786e-04
-1.454834172383496051e-03
-6.827552116283924777e-02
7.721593667098278213e-02
1.519111930630411521e-02
8.540221214195559477e-03
-2.437631963161683013e-01
-2.710644637641936028e-02
-5.039845555587463451e-03
2.155711242165840938e-02
1.436750748139269639e-02
1.740451042818248056e-02
-1.132162190456214267e-02
1.996373455896404206e-02
-1.738162919251169322e-02
2.832480179439083017e-03
3.784591744528546103e-02
7.553554309684757523e-03
8.001886551146489279e-03
4.927612441242057266e-03
1.389138306947694801e-01
2.280420409832753861e-02
2.336381514819300259e-03
-2.168289167737680843e-03
-3.149643477210588988e-02
-1.927873938916476251e-02
2.357078762385613271e-03
-1.050133663650667723e-02
2.221526366150262943e-02
-1.952038874404958893e-02
-8.272243514760992816e-03
-7.554725512041194366e-04
7.256721119026549732e-03
-1.206829755035122680e-02
2.292564260097794404e-02
-9.219120657558853640e-03
3.361740987898772376e-02
1.108390593300803782e-03
-1.097868343086225509e-02
-1.237997501461836694e-02
4.442164170167537361e-03
2.521678544135354250e-02
-8.006209770996520342e-03
-8.243310067031668631e-02
-1.215297214439458456e-02
-6.505728742481980097e-03
8.539021002288210357e-03
-1.523842279161597042e-02
-8.921427874345948944e-03
2.556612360983733997e-02
-2.429454121404132569e-02
1.594027290618317202e-02
-5.886681429977794894e-02
1.550585046990984352e-02
3.521328522250971593e-02
8.981765837993817628e-03
-2.582230153537750685e-03
-1.517698171296176339e-02
3.621611071074741506e-02
1.300666766328775585e-02
2.503985491658795512e-02
-3.413353126770770143e-03
5.250421958203793996e-03
4.149601157535660612e-01
2.281016563684660214e-01
-2.554305718773784012e-02
3.842622806874510747e-03
2.458570573161473691e-02
-7.679748623992481080e-03
-5.247083306376909562e-03
4.298399590777749607e-02
4.547102749643128737e-03
3.037064736836446455e-02
1.399389996766246813e-02
1.003893357267240938e-02
-3.879764804262112593e-03
-1.544683571781951294e-02
2.244794263920053129e-02
2.027758581390775305e-01
3.200201252895166354e-02
1.435900447971933183e-02
-1.736966140145143611e-02
-1.177838066115184787e-03
-1.453974145107370664e-01
-3.980899702896228617e-03
1.023684357052789123e-02
-2.607929773014218411e-02
2.452079247835196180e-03
-1.104691555092965349e-02
8.639039852392144114e-03
9.287042050327414672e-03
2.139356850390083942e-02
-3.827120012642952918e-03
8.853480973719138683e-03
7.268241481881733239e-03
1.854170437109346412e-02
6.233947139559036302e-03
-2.462810320631238312e-03
1.940505112368798579e-01
1.579442190240709296e-02
5.104189252415657248e-03
5.861172569546610825e-03
2.851929734334053557e-02
3.268614522784444622e-03
-1.029187537921555373e-02
-9.693074317480560378e-03
4.049023654969218650e-02
4.813771329000334463e-03
5.946920738571878640e-03
2.424300953634257044e-02
-4.713778930424464102e-03
1.405517187841304888e-02
9.594790471543145419e-03
-8.556907866699037940e-03
3.747297852108242601e-03
1.633932617649974314e-02
3.399127520941220334e-03
3.739890463858914355e-02
1.283081678602330036e-02
-4.136538806022684728e-03
-6.927505552899358710e-03
-2.404960531192474812e-02
-3.636411847992995078e-02
-4.727361578847300190e-03
1.325533032664933872e-02
3.806012697787855559e-02
-4.828482231974140677e-03
2.109809402390287573e-03
5.273091623474237231e-03
1.632668745125848055e-03
-1.383053349025944317e-02
1.164623336559377116e-02
5.628801976239801788e-03
-1.162094021801056073e-02
2.481076906987678410e-01
1.371245524208961064e-02
-3.317466455515109065e-04
-2.347793916701619056e-03
3.346677244955297849e-04
2.866277972537915886e-02
2.346595185842825088e-02
1.083277180958173123e-02
2.815023169219944311e-03
-2.544502623316736642e-02
-2.627889982759260804e-04
2.893136087906368614e-02
-1.072441691993836210e-02
-1.713151830432006143e-03
-2.455230879319828408e-03
-2.239364360309592170e-02
4.255975502230426900e-03
-2.323289987737468462e-02
5.846354777781969693e-03
1.054992688498415193e-04
-4.771630648941813276e-03
1.026875852793187813e-02
-2.010794110176231195e-03
-1.639611077006473613e-02
1.353964057573420199e-02
-1.901014346812088945e-02
1.795465855747983841e-02
1.948976402199745564e-02
1.033556873836642860e-02
4.648863966370984577e-03
9.495079224443009336e-03
-2.602791804965076932e-03
-5.743900010149328127e-03
-1.201296936117751853e-02
4.489415932500049472e-02
9.731576562928639929e-03
9.354444712386347782e-03
1.973521602365795914e-03
3.167157567475974850e-02
4.846735932522164281e-02
6.481221317678506448e-03
-3.069376163900252447e-02
-1.516588994929463780e-02
3.448502619873357496e-03
8.333331609956641864e-03
-9.268384879255214814e-03
1.245869562511343724e-02
-1.071339103859423290e-02
2.458804338766370709e-02
-1.482832812503107923e-02
4.502556544725682536e-03
-1.206011379999877633e-02
1.419942174294329829e-03
1.208587631020789643e-02
-8.542633194054034818e-02
-4.013818993390769543e-03
5.046333720628285412e-03
6.744648303815062307e-03
3.951707388485720856e-04
6.312748345850686116e-01
8.922021206635140020e-03
-3.768003762235642030e-03
-2.524955995766365452e-02
1.631923210567779239e-02
-2.165818267008989481e-02
-3.133326934351636072e-03
-7.765022400913324354e-04
-2.766790528246986305e-02
-1.072902945116071052e-03
-2.123371846922136874e-02
-1.578916725961530820e-02
-1.050593342182515018e-03
-1.321823076362092508e-01
-7.558855331653263621e-03
-7.531856554408463550e-03
-3.660164794680506595e-02
2.471464598874830842e-03
-3.221196402618563964e-02
1.784577514050839954e-03
7.309433003190413808e-03
1.018984599720017432e-02
1.499084432978718337e-02
-7.501191886485865379e-02
9.800849082781329033e-03
-2.936706401708635839e-02
-1.371929843182470056e-02
-2.177726322447033624e-02
-1.777493996782036900e-02
5.276232488393355763e-03
1.267730566851138843e-02
6.642544356507955328e-02
-1.960931168498501135e-03
-2.551976378823468325e-03
-3.131065535830807739e-02
6.724999626040722989e-02
-7.219165340465793839e-04
2.384335030092174512e-02
9.748248122539840410e-03
7.563197089975196366e-03
3.021479228530770181e-02
-5.710762879848071266e-02
-7.898043382270555912e-02
4.748316223805668090e-02
1.207990654940601163e-02
-6.262477554516544895e-04
-3.895076023317534109e-02
3.481840153818970690e-02
4.340332960500861009e-02
5.307391561897696619e-03
-2.437053644037017949e-02
1.251353145504154225e-02
-3.975122186395826929e-03
1.234080494313187330e-02
2.905353623836798294e-02
-8.507848253842362207e-03
7.770645275323801371e-04
-2.152833876596053388e-03
2.657697180566876219e-03
3.338347648001473416e-03
6.502488171566445790e-03
1.083009464472716246e-02
2.392800354974581115e-02
-9.384886258823480279e-03
7.681511148427531965e-02
2.014897591783566030e-03
1.788928370819774932e-02
6.793893155881447791e-04
-6.904917102299231585e-03
1.748543156198473572e-02
9.682458962565613711e-03
-1.136105068822220072e-02
-1.181698263772800427e-02
6.738862036958865633e-03
3.722337318114434142e-03
-4.290367191900957590e-03
5.701524387681704970e-02
-8.910176447682121095e-03
4.722136590387946559e-02
2.698012394653631889e-03
1.120242774084719180e-02
7.823554705489255481e-03
-2.636418388209496415e-03
-4.646928711731893730e-03
-2.929166926136278536e-04
4.134979527784144598e-02
-7.157677757165375847e-03
-3.181881808591444788e-03
2.910108159608969583e-02
6.986882129692040776e-03
3.976815213521127379e-02
-3.942600380412134564e-01
-6.960147340542970074e-02
7.583456082388769989e-03
-5.174295523141345804e-02
1.787069503002819068e-02
7.830117037220630377e-03
9.320419976394649086e-03
1.710985007402746061e-02
-1.108224043770753529e-02
-1.060955510310635690e-03
-9.946938551642023341e-02
8.556071293140052325e-03
-1.856848222928292119e-04
-1.075050304446613231e-01
-1.143865636401296924e-02
1.331427874083035250e-02
-2.010397829797164887e-02
-6.995682268230515735e-04
1.516692603413747654e-02
8.746152038587616528e-02
5.018538070146550539e-02
6.695635696070017726e-03
4.622466093377765317e-02
-5.019766356470035723e-04
6.978337106034489257e-02
6.044408665191300725e-03
-1.397972155902633441e-02
-1.506312818737092982e-02
9.650019924809367239e-03
-2.878138125858560690e-03
3.009262082434186608e-02
2.702750228888093353e-01
-1.180413603688049567e-01
-4.673443271694933260e-03
1.665088794617254489e-03
-1.500455671835029597e-03
8.443376817544157422e-04
-3.672516825140118360e-03
-5.051628546816501648e-03
-9.263559692299741175e-03
8.040262959021817965e-03
1.119084866812326308e-02
-1.027850825591345753e-02
7.674135973335167137e-03
-1.525750361303651603e-02
4.808522072631767758e-03
1.325322054408437644e-01
6.571012230153225678e-03
4.410917279974523909e-03
4.043441783579228462e-03
3.059339591200973749e-02
-6.675078419542072178e-03
-4.159902832392948992e-04
-5.931369952615764274e-02
-6.419953671067377826e-03
1.342576167946834577e-02
1.003327419040663526e-01
-9.935447425079521958e-03
-9.202620060571785332e-03
1.560771011713102223e-02
1.351899074750430481e-02
6.768754253976922049e-03
-2.039150045190628313e-02
1.514571248172912055e-02
-6.530014863065843056e-02
4.268642122303345499e-01
-2.763478352259636159e-02
1.332457837410299106e-01
9.243831501902527448e-03
-2.157518957168308785e-02
-1.420600276511026043e-02
3.928812634997527059e-02
1.059612234628950524e-02
-9.043118685753965061e-03
9.849840103808255726e-03
5.794267046835207234e-03
2.970162020946772938e-02
1.046695403746050745e-02
5.256465222891700852e-03
-3.475739826825310300e-03
3.353958927361428734e-03
-3.911897118841303235e-03
-2.888255505309481747e-02
-2.392301126312698645e-02
1.053241379946789208e-01
4.803375979523417591e-03
-5.531366883827154059e-03
2.536846653302904375e-02
5.021244082397563827e-03
4.881687082349416007e-02
-4.967249251533868704e-02
6.410084859314200446e-03
-8.300291124084721237e-03
4.310052986794782326e-02
-7.574869487680829794e-02
-6.492680269319768549e-02
-1.023722908013984488e-02
-5.526917573075701591e-03
-1.953813997701226227e-02
1.132934973243690524e-02
-8.942654096648371131e-03
-3.025377821232934621e-03
2.537269261650309474e-03
1.209566934541454405e-02
-2.758471561139922909e-03
2.064492031765802552e-02
-1.421834347491133556e-02
1.125054100933968980e-02
-1.345003467757041864e-03
3.979739527870569671e-03
-6.459860227594328708e-02
6.674955829289552778e-02
-9.205112402906686850e-03
-1.955201594717491734e-02
-6.542052874713127908e-03
1.536360664480401978e-03
5.900570619494388894e-03
2.029501327238860189e-02
-1.114625714924198999e-02
-1.979528765806286283e-02
7.647573152769095509e-03
7.054168411040074574e-04
2.660157266328260894e-03
-2.618483843619509761e-03
5.517617601863997190e-02
-1.898780590492418763e-02
-9.112963792685944628e-03
-1.275654853863696439e-02
1.800809390048064163e-03
-6.071990331755921545e-03
-9.999402299412261594e-03
-2.495421571539006280e-04
1.191952427061456279e-02
-1.846037652820409908e-02
-3.726296193859168771e-02
-1.548742031188383647e-02
-1.968069030180156706e-02
-1.953726406547789257e-02
2.308459583405414461e-02
-1.193413074763711307e-02
-7.826179364473553890e-02
4.523832155772452429e-03
-4.506919484205905262e-03
-2.732761671696980893e-02
6.395332919280566700e-03
7.339419213535704201e-02
-1.181779963377619508e-02
1.386609421667496164e-02
-3.137173009061044061e-03
1.605056930860323527e-01
1.416671754914281336e-02
-4.491271543099994469e-03
1.147431325987830764e-01
-7.309351369474784491e-03
-9.204659786294186897e-04
1.605734257591471745e-02
1.691122547279373667e-02
1.145949980008312838e-03
7.597584796653266033e-03
6.018608322673467967e-04
2.536266006997330014e-02
1.538095916067424955e-02
8.642887193366668303e-03
8.426000311889314184e-03
-3.348129077295593139e-03
-5.554827643485958991e-03
-1.455855175753869614e-02
2.246109073249558108e-02
2.823380277929661564e-02
3.706812783594414656e-02
-8.050753727813225388e-03
-2.364449769054861178e-02
5.358378810045389545e-02
-2.890868580967186768e-02
-5.539061564021804593e-03
-2.249246885735304083e-02
-1.435756785121296980e-02
-1.842026234963337061e-02
1.122678594260067761e-02
7.963371467674196583e-03
-1.798557405174208701e-02
1.072023725332536814e-02
-6.457330507777881215e-03
-2.343395202938835294e-03
-1.500795734793490370e-02
-3.588849888300896934e-02
-1.346408472481675292e-02
-1.012737415272878076e-02
-1.547436784609109439e-01
-4.019532260802666929e-03
3.959830980109812354e-02
-7.160942638234611864e-03
4.246364177258360635e-03
1.161537527592362007e-01
7.968248385284615321e-02
1.237766313315782386e-02
3.669190040012976217e-02
-1.335600756044684045e-03
-2.737278297851344824e-03
7.149422354373816645e-03
-9.917314612971461340e-04
-9.104712362611778326e-03
-1.449539942571971335e-03
-4.502354826855851921e-02
9.580796666814781273e-03
-3.965448236728631726e-02
-4.149960731382806162e-02
-4.813969183800444890e-03
3.155886453120827079e-02
-3.718794825568431245e-02
-1.359941787383917760e-03
5.308342708980146041e-03
8.192608848220636619e-03
-1.236533648118051491e-02
2.447044592500799767e-02
6.950859957778958778e-03
-8.074379260439953909e-03
5.832378701548202385e-03
-5.115941620771954218e-02
-9.562367750848076858e-03
-3.326244043075357853e-03
-2.244213174472629597e-03
1.886225256743335327e-02
-1.212425763075342458e-02
2.595487060850803183e-03
2.828055419283417860e-02
-2.170885059051653673e-02
1.089826355921390613e-02
-1.394382646972988984e-02
4.984895445478478362e-03
-1.012511149415828635e-02
-5.047355199868716960e-03
-2.144927698474764083e-02
4.652656127604041722e-03
2.409596683399904335e-03
4.198075988741471060e-02
2.412713373875805672e-02
-4.522276313713393357e-03
4.790937491702656342e-02
-2.135609909545618107e-02
-9.126736854394700699e-03
-7.375434861843482154e-03
-3.320971436965511770e-03
9.232854294797714426e-03
-7.001141558108517522e-03
6.544682231234768763e-03
-2.249307085029491129e-02
4.858841499333800031e-03
-3.164386308063944948e-03
7.503989099931437923e-02
1.517415865099169857e-03
6.128233690940437101e-03
-1.042329779161913286e-02
4.064677827990356013e-03
1.631163169423266793e-02
-2.024755871683041331e-03
-1.153625404778905149e-02
-1.493639334194699943e-02
-7.519035681537140393e-03
1.731465149381392846e-03
-8.722481465966089309e-02
1.747782397889965141e-03
1.331846643896947985e-02
-5.582960715681675040e-03
-6.445457017988804596e-04
1.937757474017839585e-02
-1.198306232456281852e-02
2.855834295725982394e-02
-5.744676310991147540e-03
1.722106572382423083e-03
6.603667055258122427e-03
-7.967068423661472984e-03
1.062475808498612902e-02
-1.404609949746152622e-02
1.818915208783589144e-02
2.895306609816874002e-02
7.399666916417931180e-03
-5.855112595036098509e-03
-9.756807366973803061e-03
-1.235891758470421785e-02
2.828088498753562885e-02
-5.498844208449538140e-03
1.506855649941000325e-02
1.647560101015830072e-02
-1.198050701027250503e-01
6.825388171753854136e-03
7.995233817646470523e-03
-2.372095382553341888e-02
-9.745895560611271893e-03
-3.878048712824229156e-03
3.865766307842741223e-02
1.627488303262468374e-03
-5.931895788335237764e-03
1.689640034403495569e-02
-4.277968458016086911e-04
-1.151064206726342028e-02
-1.134208959703858835e-02
-2.900694079428595314e-03
4.256568029615344535e-03
-1.004941973953960531e-02
9.135064368144612049e-03
7.491139297881473352e-04
4.203954666086810038e-02
5.688320581458556832e-03
-7.900713643605852821e-02
-2.957907682401319724e-02
5.302762415703930407e-03
-1.028300648140754135e-02
-3.282525323678329911e-03
3.628930831380657723e-03
-4.885618607020419599e-03
-6.668916041713023220e-03
9.259455524462670978e-03
1.012097128034129302e-02
-2.380845663223302155e-03
-2.814666563656036298e-03
-2.499423056039506118e-03
1.287294399125212332e-02
-1.403188778326013540e-02
-6.959256902506543926e-04
1.570629092214605865e-02
4.971164152511412665e-02
1.420150743909535072e-02
1.265099517726186139e-02
-2.865472848700635275e-02
1.275751576148091357e-02
-1.429078135315444559e-02
5.430134609533949011e-03
-1.839602982498529313e-02
1.413970516147207077e-02
6.227528208331255255e-02
-3.505282910452869882e-02
-2.238951356363701878e-03
-6.846565885980483712e-02
-2.301645005617089859e-03
1.254504700969184816e-02
-7.306494273155483875e-04
-2.222735346866742956e-02
-1.079484797971364679e-02
-1.189550606832710106e-03
4.321758160107865856e-04
-1.645739336617536852e-02
2.127135884833899343e-03
-9.598794518511293700e-03
7.325963898795809920e-03
-6.166236055419205969e-02
-1.655441692929895611e-02
-6.373595267710344126e-02
2.326058001966890398e-03
9.654460877618310788e-02
-4.455235911061888952e-05
3.648692196550629759e-03
-8.115704364170398324e-03
4.810812556691190095e-02
7.302127713765318821e-03
1.913882837963965314e-02
-1.463100180677247199e-03
3.173406651134596905e-03
8.249896638642299773e-02
-9.342403041449183487e-03
8.468638509890993914e-04
7.073010680791852814e-03
-5.710472151873757785e-03
1.042340223699857009e-02
-3.158991259549093905e-02
9.873237040828536717e-03
4.746370261981094560e-03
8.122892895775231381e-02
2.843136127045603131e-02
1.057817265242819993e-01
7.016302772827017961e-03
4.066832714762708828e-02
6.556317752178205988e-05
1.893753654084817314e-02
1.401000557970325834e-02
-4.577540538617191380e-03
6.899688000001255031e-04
1.170073211659511739e-02
1.587437866762468966e-02
1.642466250004137943e-02
-7.895072929935109327e-03
-6.689661081810303715e-03
1.222919855664770204e-02
-2.796327610055234988e-02
-5.661445189266057880e-03
6.733913933478469227e-03
-1.032887979855601516e-03
2.900201639065374225e-03
2.676564000519875575e-03
-2.438427942674899901e-02
2.471721995857126958e-02
4.035548169118952089e-02
3.974136183085932861e-02
-1.084523099552537652e-02
3.674960400558940354e-01
-2.301564965841777777e-02
-4.605072309253582796e-02
-1.168422087636257316e-02
-2.128316901235161734e-02
-5.105059776861578004e-03
8.479638700490742947e-03
4.570706612633947813e-02
1.487439424319079648e-02
1.743110417686927482e-01
-2.237248406556203040e-03
-6.310002262177380819e-03
4.573605847744005755e-03
9.375944688670695545e-04
-2.338595866055671359e-03
5.595339466868769727e-03
-4.850840493794872366e-02
3.160339908618456373e-03
-4.382645055834452630e-03
-1.012560359082890181e-02
1.245342801678691880e-01
1.672081955912040410e-02
-1.025541321525372945e-02
-6.837835904688099181e-03
2.487837827800849777e-02
1.119780882937562207e-02
-3.624941162892761359e-02
4.339513804057292673e-02
-8.090825280988510337e-02
9.957415800578487894e-03
-4.528738206978497050e-02
2.307858813809686091e-02
-6.078314816625817602e-02
-4.835701670577769937e-03
-2.395401115671456568e-02
-6.912615264552625025e-03
-2.233300964928988316e-02
1.236902563934995369e-02
-1.631591047946516146e-02
-7.295123141460722188e-03
1.160474675651531826e-02
-7.787434080887540785e-03
1.404145495212511321e-02
-2.557600075142578509e-03
1.168406027606022080e-01
1.606052549011279321e-02
-1.544864942250513337e-02
-3.813274892349673151e-02
-2.387840530499862543e-02
-3.210836090560397621e-03
1.914431563958946328e-02
7.693520880010058793e-02
-3.857957843310831831e-04
-2.232988717579695304e-02
-1.381751476226696388e-03
4.992592502255943643e-02
3.468722387378756628e-02
-2.252119110401461580e-02
-2.617650156821679786e-03
-8.024188693966160385e-03
-1.635433446063156993e-01
1.446779935473837576e-02
-7.537359858863604788e-03
9.612213396902800217e-03
1.364156185461243807e-02
-4.867312028827799897e-03
1.392040906657561992e-02
2.568928295293231544e-04
1.846095681610050027e-02
-4.609991477433189578e-04
-1.215336833216869653e-02
-1.030833420502152986e-02
5.135702213511103564e-03
1.063102687480648595e-02
2.332747227360478307e-02
-1.130003804144843332e-02
9.309043394268164476e-03
3.781551757196754374e-04
-6.378807236742048935e-03
1.724234824141294975e-02
-4.928005730672697232e-02
-5.298413743036483985e-03
4.551186755420291025e-03
1.896180770989766909e-02
1.193351638014970503e-02
-1.252420738338832530e-02
4.506081131029879110e-03
-1.064920614122313175e-02
-1.319630965013732574e-02
-4.661880626559625207e-02
-6.478266677959936340e-03
-3.694088384392556733e-03
1.680976641381747849e-01
2.217970526653251576e-02
4.185798829474463197e-03
1.858460837278425037e-02
2.506952987943973296e-02
-1.362750945109103273e-01
-1.263245781325732404e-02
1.652368651077341238e-02
-5.739372402187340252e-03
1.128290600484923162e-01
-1.630732627817599962e-03
-1.410030614377592688e-02
1.294043083408251138e-01
2.997898171788164479e-02
1.217705648006318052e-02
-5.377803940659125689e-03
2.658966660888279973e-02
4.555580934078228006e-02
1.567572474655888268e-02
-3.219060219652481684e-03
-7.603421803814762979e-03
-9.566669060165363878e-03
-2.402904368978418543e-03
-9.013941678667371574e-03
7.097664162304483278e-03
4.090348200760399178e-02
1.124280693443437118e-02
-5.976767037691335313e-03
-1.942671361821383252e-02
2.951647554024212569e-02
-4.096236405139969811e-03
1.468645578273443907e-02
2.469617325333815349e-03
6.603691279518281859e-03
2.327796906972760382e-03
-6.114650372283633728e-03
5.975610615510214101e-03
-6.253273469009665297e-02
-8.598721034130542284e-03
-1.341625825894337057e-02
2.744437563884549736e-02
-1.718693208615872450e-02
-5.964989476374589483e-02
-5.774356779837883959e-03
1.195509341548180518e-02
1.796481728612711777e-03
1.169416398751334588e-02
1.389334418296072661e-02
-2.705663380606200714e-03
-3.676535955435448078e-03
-2.122884092589474511e-02
1.648762322702096439e-02
-5.505492930899412093e-03
-5.330808437578622890e-03
3.517495244615829585e-03
6.294071778549242477e-03
9.522983589620134456e-03
3.372438271398989912e-02
1.503400236939557780e-02
-1.965371449863121192e-03
-2.014526381061367694e-02
-6.838972520864320878e-03
3.447838464482209236e-02
1.284315678139058385e-02
1.598456309152243918e-02
-6.714797170012944474e-03
-1.190349485005916773e-03
2.170510558054069075e-02
-3.939399736654472517e-02
6.527295189873911531e-03
-9.290700315223160421e-02
1.134039649056180210e-01
8.642272786189444597e-03
1.501624974936040767e-03
2.380644294548722034e-02
-5.717005457900510741e-03
1.598642168910785824e-02
-2.022415043717483429e-02
5.334401297560937595e-03
-1.257949347972527228e-02
1.434849694869116607e-02
8.630850169189909285e-03
-1.956155104851157924e-03
1.879691604862115430e-03
4.920182547409823574e-03
-2.487241719955268424e-03
-2.289238840639297185e-03
2.523848288633641704e-02
6.799866885627731420e-04
5.917005394523141074e-03
-7.230771490238566308e-03
-2.404707913220735169e-02
1.047690087369695933e-02
5.794759827340021166e-03
-7.041188129321097541e-04
-3.217815064106243923e-03
-1.366860549197141533e-02
-2.719615896684638920e-02
2.225066665977908087e-02
1.136929768024358238e-02
-4.971152028503574884e-03
1.537195500169175749e-02
2.630148144442309363e-03
4.949651976188169933e-02
-7.483907264468755635e-03
2.439980729570616694e-02
-3.151894073130942411e-03
2.253428865910873935e-02
-2.361137017189110510e-02
-1.104094396390558341e-01
-1.736288554941084472e-02
-7.638909755628227674e-03
-9.010523602467727933e-03
7.780992086556691965e-03
-4.933688006633322326e-02
5.465686360835862040e-03
2.841473637936617769e-03
-5.360682839847586735e-03
3.273717929222610089e-03
1.119825002784870065e-02
-2.547493667926517547e-02
1.571638749192151227e-02
6.968086593361560478e-03
2.084030206088175602e-02
-2.291136541244739866e-02
-3.439469816991559160e-03
4.861229125966988474e-02
-1.911101940924450973e-02
1.622403004614120584e-02
3.514499687654380061e-02
-1.881867237430867893e-03
-8.240003722044192749e-03
7.292866365246161069e-04
1.484952388844699711e-01
1.410973312119884540e-02
-6.622711459559045208e-03
-1.724993657788827500e-03
1.124808745684246591e-04
-3.539938351674191356e-03
-1.331941357163569234e-02
-1.459946024018963714e-02
-7.795087842612470272e-03
-6.396923340967041599e-03
2.162282101560882280e-03
-9.503502077774327386e-03
-1.027220906295605316e-03
-6.692333110268976204e-02
2.292564106437270863e-02
6.346498627637259249e-02
1.115181674282338803e-02
-2.283881224978706603e-02
-6.838719103241826594e-03
-6.314310811168496150e-03
-1.446443470424001697e-02
9.632932681672802056e-04
2.947693162090670935e-02
-5.675418533149695181e-03
3.131449227095401550e-02
-3.386344926606700990e-03
-9.069628686279699453e-03
-5.953851036866411421e-03
-7.928743650308565059e-04
4.525075199463778064e-02
2.240244698979342898e-03
-1.808259210880293691e-02
-3.672784985852751549e-03
9.305383753292839968e-03
1.309771302542149692e-03
-8.068132494048883829e-03
-5.261566243425655140e-03
-6.131788921215660174e-03
-1.116290081938055845e-01
-1.732526561600096493e-02
1.361797092821459814e-03
4.070617366083718186e-02
1.586309895387828447e-02
2.338848764130896829e-04
-1.651779625870918033e-02
-3.741610465862069135e-02
-4.189415273152863328e-03
1.823339571360636747e-03
5.115727730701479826e-03
-4.943552704501889133e-02
-1.803633799179616163e-03
4.456889415390427600e-02
6.341568775783499624e-03
1.306175746281769152e-03
1.502398676519327595e-03
3.764610858158829853e-03
5.364599882907064576e-03
-3.630411578132916595e-03
-5.581458562704075255e-03
5.644917598670333089e-03
3.650275474243350020e-03
1.738280560192597898e-02
-4.075127143509482512e-03
-2.243417866609965713e-02
3.276140640016173174e-03
2.571076573935016790e-02
4.731156431253435990e-03
3.273801544356753478e-03
-2.590142381558538810e-03
1.171712219547431551e-02
-1.642797632618644282e-02
6.667951945061556876e-03
-4.545930887591624614e-02
-3.763150409917952188e-02
4.721548724759704399e-03
-6.283823664179386632e-04
2.086392651882261820e-02
-2.027924578147119114e-02
4.870567074015666464e-01
2.141362368467766841e-02
1.284227846451004296e-01
1.877269887319627309e-02
-7.098316266816460441e-05
7.243443239144671530e-03
-2.076326960051658697e-03
1.262406777487518929e-02
3.315350741154168834e-02
-4.694402516013764654e-02
1.166240661135045306e-02
8.105588537354567469e-03
1.458488146266234339e-02
1.249294645090921058e-02
-2.553473054488795683e-05
-1.799140019025871964e-02
-1.179045358456701220e-02
-1.897311181597537838e-03
-2.776232457153704827e-02
4.552285041767344456e-03
9.032569428065876857e-03
-9.190837837666984700e-04
7.563747306675522655e-03
-9.473108398997781262e-05
-1.389733714444375996e-02
2.764249312145282585e-03
-4.206980797897815448e-03
1.730725261204677998e-02
1.565239115240318890e-02
6.646295475142563469e-02
6.190932024767565288e-03
5.337899459698629105e-03
1.432377673701198950e-02
-2.139717612905881264e-02
-4.298953850888082538e-03
8.304633331578560596e-02
1.261007788769738167e-02
6.586208628070806814e-03
2.168719799770445125e-03
-2.092069638122892421e-03
6.705657808702367162e-02
-9.910898484138456338e-03
-3.512025459174159675e-02
3.118450021539001093e-03
-4.352324764286715809e-03
-6.726966871798857953e-03
2.652230277593683322e-02
4.351401496698168239e-03
-2.604997701036983887e-02
-6.999589477011443220e-04
-1.151604751396584413e-04
3.797571465179041574e-03
-2.415448867342671804e-04
-6.488072578332745866e-02
5.829250015331245011e-02
7.539385332198527377e-03
1.582141373387453351e-03
5.677804656087914736e-03
2.364225815717155028e-03
-6.787590666101171863e-04
1.904675431556978465e-02
1.531629302093296362e-02
-8.300968003987220208e-04
-1.174897257420166874e-02
-1.612819950428387829e-03
1.029061819376151862e-02
-5.553849084933651717e-03
-5.966922119877683672e-03
6.581542301521821521e-03
-1.666845064307476421e-01
-1.618060243028237449e-02
1.835262288861673474e-02
-5.569874774644332019e-03
2.622229232808200028e-02
1.969821292684450099e-03
-3.257457793682935407e-03
-1.014722936663517254e-02
4.052398870094411215e-02
8.585104671903849918e-03
6.782016335845009875e-03
-1.308254145407656069e-02
3.146531269310233470e-02
-2.068204633228006191e-03
1.110896611931576176e-02
-9.511361454223012796e-03
3.173088309159949501e-03
3.341003977084578552e-03
-1.451336999377963316e-02
-8.708706525011211674e-02
5.052761632052861496e-02
-1.248562505916261250e-02
-3.616184941201962873e-03
-4.157002876890851517e-03
2.856246063997823492e-02
-6.113391345150551506e-03
1.523477598740680594e-03
-3.597670881830863400e-03
-1.420234824062102229e-03
-1.602677352625385973e-03
9.991833920136181102e-03
1.402642602865366087e-02
-1.063511540326492807e-03
5.149696298386331750e-03
-2.259556480630075040e-03
2.055091099724510456e-02
4.737162010996619904e-03
6.797585686333030425e-03
-4.162056742090224082e-02
3.840268155076552448e-02
-1.286301534508070034e-02
-1.353252399059784797e-02
-4.686299865661788799e-02
-1.883602388791878399e-02
-8.109536957764267723e-03
-3.539881611067403899e-02
