-1.903549850966257460e-04
-4.328941159917890774e-03
3.420864561389518055e-02
-5.171959716419146508e-03
2.898975978966120484e-02
-1.227324201165874880e-02
-6.409066884448127999e-02
9.019971105341838269e-02
7.139442432264380073e-04
-3.192480557204504382e-02
2.401950458985539424e-02
-2.735235152938603198e-02
-1.265676941727796739e-02
-6.811881618403613572e-03
-6.067825626506844448e-03
1.729599492912101827e-02
-1.909485346326379382e-02
2.477936840821304103e-03
-8.106930730570277924e-03
-7.884076587913721457e-02
1.610347027543762577e-02
1.109505688607915477e-03
-7.828980857352764444e-02
1.179317955995198668e-02
-1.241889772292587187e-02
-2.682593406247357412e-02
-4.677791595644330280e-02
-2.168078227595606269e-02
-1.105496950578638803e-02
-1.157868888712801220e-01
6.035616731722529514e-03
3.474387638226671821e-02
1.533625824718655786e-02
-1.443194213104847211e-03
7.590435521387584560e-03
-9.968150574190348320e-03
-1.574848662071703454e-03
4.840605159126080276e-02
-3.278325088963633671e-02
6.465915182568169814e-03
4.614559950818633571e-02
5.564583170573337255e-03
-1.822762115444253109e-02
7.250644253881730061e-02
6.477674089907371584e-03
-1.103573542460639829e-02
1.515480380824799252e-03
-1.714424838693985945e-02
-1.893781103040967665e-03
-1.555300549332425120e-01
1.500559152579374611e-01
-2.009028842994029559e-03
2.204170357123831289e-02
-1.342881721536779982e-01
-6.422667407983734256e-02
-3.569991025684160317e-03
-1.028865431342128843e-02
4.138313262405374227e-02
-2.065245397791911491e-02
4.007343935448307720e-02
5.070777572113411430e-02
1.017516391124994278e-02
-1.079662811057595893e-02
9.264272585408022884e-03
3.317899334045821408e-02
1.155140238656569666e-02
-3.151611868440067077e-02
2.276155719115440304e-02
-6.114691947111342701e-03
3.665277179967849422e-03
9.372390307027068240e-03
1.559492916201300153e-04
-2.164843845098023134e-02
-1.471728623259309539e-02
1.932056175799027817e-02
5.816727070903426194e-02
3.345051282707506204e-03
1.771198686551753859e-02
7.149351815210232275e-02
-1.160562492201322286e-02
1.617591070728093688e-02
1.423911979079297077e-02
9.420762744715331649e-02
3.986095955106807275e-03
-1.774614746614493633e-03
-2.188792162810984307e-02
-6.818416462190943217e-02
-1.148489795839937461e-02
3.360895944076767311e-03
1.662857574983296225e-03
-4.419353419884528011e-02
1.009624669619910292e-01
4.556978436584908573e-03
5.479553395644846600e-03
-2.518316054028985063e-02
-2.177227502533901973e-03
-9.558569373865793625e-03
-1.453897991352905497e-02
-5.536794185146444447e-03
1.531510617449376383e-03
1.927166671033457221e-02
1.522734267876384336e-02
2.453282892356205627e-02
5.624897952078781495e-03
4.155758797699518267e-03
-1.249175735296154631e-02
6.218705098797932228e-03
3.198545521448557631e-03
-6.294587864985601300e-03
8.242091471589531315e-02
-1.085584022195681085e-02
-5.244812347293672725e-03
-2.310582315245090362e-02
5.691350167226429113e-02
1.151173093879866681e-02
1.702347181510743823e-02
1.904108196029913325e-02
-3.613645190045580713e-02
-1.386527814733731594e-02
-6.430959597922061670e-03
-3.464854925918890455e-03
-1.311972268585055376e-02
-8.958336912068733809e-03
-1.177534865138600388e-02
-2.115995417317260031e-03
-3.243963316502410099e-02
-2.412363798585831151e-02
-1.934067731850357824e-02
-1.197994978082339741e-02
-5.222735733197658020e-02
1.727833599184441446e-02
-2.527989688739068486e-02
-8.228175097132349805e-03
-4.971033435021136870e-03
2.599586747016329261e-02
-1.476003319203886797e-02
2.088430121899798042e-02
-1.531924532373422389e-02
-2.977716934824794007e-03
-8.483236738507305558e-03
-6.582839432973801308e-02
2.424426651546329053e-02
3.064678218885640362e-02
4.046460480617172784e-03
-3.135856469899671491e-03
-2.492586587827828187e-02
-4.393208798433797385e-02
1.013160867776130396e-02
-6.715254752239446789e-02
1.880274383513918027e-02
3.249484128377472247e-02
1.190358021757049502e-02
-5.111876535241139177e-03
-2.623074840485398879e-02
-9.040448499724126202e-03
-9.086969676923154545e-04
-1.820370751120335348e-02
5.340315653251918177e-02
-4.691827824380088996e-02
-8.379736127774385299e-03
-1.394511098353090617e-02
5.147152031371371103e-03
-1.454805048685363540e-02
8.375619222161408139e-03
-4.283826680584327737e-03
-6.795320012616656510e-03
1.802831700935781170e-02
-1.104093046492261518e-02
1.812655021029431837e-02
-2.912106585348017695e-03
-6.398029299129043279e-02
-1.204248170369306287e-02
-1.311491329455705254e-03
2.676940852533610943e-02
-2.041435938228844046e-02
3.833301535546975586e-02
6.437298788702321486e-03
-6.849301202000532274e-02
-8.781666110445304763e-02
3.761476028745727729e-01
6.075975238191221907e-03
2.799972789257999459e-02
1.434125655155380754e-03
1.625069317858254293e-03
1.014394112067719574e-02
7.852482541054339391e-03
-2.929020094718439316e-03
-1.975696712366469508e-03
1.620819378365412691e-02
-3.420684024471280088e-02
9.621982859584984199e-03
2.951537606767049970e-03
2.679544321317310282e-03
8.746911332245378354e-03
1.119730761816934393e-03
9.233960014518790074e-03
-1.049470130118587176e-02
1.441266692324577603e-02
-5.695483851276933462e-02
-3.372616726439102170e-03
-5.272220298955666851e-03
-3.572364495617253582e-03
-2.151674436886329752e-03
2.066789036462023804e-02
-1.106947834427912843e-02
6.691507216634314838e-03
-1.074167148731530351e-03
-4.070036284877658105e-04
-1.031220372093078798e-02
2.756132626581116185e-02
2.928282574349615891e-02
-1.260052213715366631e-02
1.137057489248508579e-01
-7.690460134602784305e-03
1.557670401321174271e-02
-2.608415814199361790e-02
3.398017102667664005e-03
3.091364935137270228e-03
3.593025107046029371e-02
1.243637776377525851e-02
1.570529518344592965e-02
-2.161104360442631100e-02
-1.400759076331101888e-02
3.928553347970069852e-03
-3.578338495203120528e-02
9.255887351018132758e-02
3.209330726996557285e-04
-1.230575174909650724e-02
5.303182188914431876e-03
6.480842730521506334e-02
-4.331286296027873906e-02
2.716400176198839698e-03
-3.598510865008643367e-01
4.923850275163918142e-03
-1.681425378072707102e-03
-6.922552037483272781e-03
-7.718289259918445847e-03
-1.110211996302553489e-02
2.696734973994348306e-02
-2.449883984218468105e-02
-9.895149112563396757e-03
1.109490697045335643e-02
-2.295087738829293747e-02
-6.339362146722400670e-02
-1.480039602550988322e-03
-1.448941182518343092e-02
-6.213495461384991279e-03
2.181301651021465629e-02
2.755016989365660467e-03
3.540632041108249944e-02
3.458573425551807884e-02
-3.765322171608177630e-04
1.083277096380009206e-02
-1.382568018792732639e-02
2.539098829131261267e-02
1.739766677390149063e-02
3.784233337961449145e-02
1.616565248150487327e-02
1.968532344828217030e-03
-1.349401386572782104e-03
-2.730897967140725330e-02
-5.845230351307807368e-03
-8.541453520676381417e-02
-1.483729659806314050e-01
-7.406718977128193271e-02
-1.360758458944214544e-01
-8.179914254147189340e-03
-5.820477143413773161e-03
1.384404693720628875e-02
2.300785387600265755e-03
-1.620730063802851154e-03
1.047046678422494306e-04
-3.747164961938416819e-03
2.033445959204203679e-01
2.025973097654760178e-04
5.180244497787803160e-02
5.134858185850780382e-02
2.640697903773350438e-02
-5.957915079427218534e-03
4.958829467960401693e-02
-7.207122806035000731e-03
-4.255610687301131928e-02
-1.673538570653862120e-02
-9.080403582896195633e-03
-5.888699995659548575e-04
-1.598968309005742525e-03
8.508532809648516383e-05
1.463377120185538338e-02
-2.277136883619488086e-02
-5.845260887212434288e-03
3.456247507833270192e-03
-1.670604153248784552e-04
3.112763216597538504e-02
-6.733664840979668165e-02
-7.054997864814734933e-03
-2.382095981025932757e-02
2.800498383056972650e-03
-2.480064021890932349e-02
-4.376621312807018466e-02
1.408869661740023982e-02
9.726618356588135131e-03
1.238040671346358861e-03
2.931136041792802016e-02
-3.631382861360708120e-02
6.067369848200372326e-04
-5.980450031397408633e-02
1.522553611481815804e-02
8.454644262473078736e-03
4.783932179681117496e-03
1.255473268944114901e-02
-6.382015028739949219e-03
-4.730717576123205648e-02
-1.499122429748349621e-03
1.175967277088470209e-02
7.001602447990736521e-03
5.382404861633942328e-02
-1.998223516317478368e-02
-6.205550683943375674e-03
1.626718186783548264e-02
-4.738783521698325917e-03
5.917435622795447214e-02
-4.085636956096726224e-02
1.111495684429670248e-02
5.001178946313372502e-03
-1.578166654753215391e-03
-1.990892403452641790e-02
1.193100683480284238e-02
1.369640163873235214e-02
-3.607309254309172541e-02
1.177393567907412779e-02
-4.140327842710074535e-03
-7.361806272053367239e-02
-4.999408542417424668e-03
1.170815518700972675e-02
1.408681023178370850e-04
-6.388040499584939080e-02
-3.824286999842462648e-02
-4.918912904482975607e-02
2.284505658857720681e-02
-7.288366930776470076e-02
-8.690002555366445596e-04
4.068432177272950090e-03
-7.425630359400363324e-04
-1.167633887004337727e-02
-2.809329943250127998e-02
3.445922435847742146e-04
-3.798251539876144976e-03
3.977122805243450514e-03
-1.094076008280581505e-02
1.668819305857248761e-02
1.266455780706237169e-02
-2.598564056034475492e-03
-5.303079428978094839e-02
-1.928723295130084503e-02
4.308021966422639383e-03
5.425562694692843968e-02
3.725632344545937169e-02
4.923656280833014392e-04
2.121545856299537555e-02
-2.186985790790148265e-02
1.586047889967074145e-02
-2.281243385568604634e-02
1.413883060762519042e-03
-1.106909138556221549e-02
3.173024529655082276e-02
2.012425366876648414e-01
-3.752781763207902865e-03
-1.358278570889724299e-02
-7.568060849458428663e-02
4.175340760777648819e-03
-3.885893476809891556e-02
1.919252510709032553e-03
-2.985534309223532579e-01
-6.552164554771699144e-03
4.392213193988032255e-02
1.094844495023185454e-01
-1.190062840119681525e-02
5.469502929772546845e-02
3.759598804045520114e-03
-9.794356006907840861e-02
-2.392269090930336517e-02
-8.166202748077118490e-03
-6.238307951245197075e-02
1.347445282442790229e-02
-4.761085974578189994e-02
-2.100395899981593456e-02
1.373860788664249891e-02
5.358679432573402318e-02
1.732380519078040304e-02
1.886058912084755124e-02
1.249562479929635685e-02
1.093325226319564331e-02
3.659608647393534225e-02
2.509605846030059373e-02
-1.100261466031742484e-02
3.109973502801317499e-02
-2.239277266155521862e-02
-1.053781045927269268e-02
-6.755187024969497994e-03
-1.640830870426810903e-02
-6.483063929718081665e-04
9.612178929493887802e-02
7.095370474420903753e-03
-9.392636311641293714e-03
-1.580274794699025945e-02
-1.914613052911970370e-02
1.512473122792478905e-02
-2.858265163519050911e-01
-5.078849028044025993e-02
9.847042456047800513e-03
-3.028539916985238667e-02
1.702118263957770952e-02
3.616941564354857197e-02
2.789798137451726667e-02
1.189788599905531284e-02
1.661223345871018220e-01
-3.842062773518001989e-02
-1.599177778282009910e-02
-1.975856103501750366e-02
-7.285827933051970684e-03
1.494685350122375994e-02
-3.364358384554017034e-02
-5.724336678431320852e-02
-1.157692769667060737e-02
-3.942653844988824744e-04
-2.303894501640091352e-02
2.138949637140816467e-03
7.644458142932926588e-03
4.436520820996274657e-03
-2.185007677260753303e-02
-2.906416588911898274e-02
-2.027160883293567875e-02
3.396492274340449924e-02
-6.067214894825098161e-03
1.676621108414998651e-03
-1.259858174338535780e-02
-2.785502336332661144e-02
-5.237389848066061893e-01
-3.754599551062685024e-03
-2.683471900403335275e-01
-2.228943697580680269e-02
-1.000783189784214440e-02
4.229848237399810341e-03
8.063665910435688020e-03
-4.886893613492389495e-03
1.194240319949147616e-02
1.268709003387237001e-02
8.012619669469348005e-02
5.833449035818588646e-02
-6.832547861260453159e-03
-1.767830369762405512e-02
-6.518263153778754149e-02
-2.273413978533917607e-02
8.056406764125530542e-03
4.207757848986847307e-03
1.277103498188261223e-02
6.836731090171339550e-03
-1.779291658746732369e-02
-3.826281502468872192e-02
-1.532904805130699821e-02
3.603479358088407941e-02
-1.397206560237242157e-02
-9.533451815669826898e-03
-9.481556444868694325e-03
-8.390593153851471503e-03
-4.668393349071824246e-03
5.863247877062149893e-02
2.164598391452806844e-02
7.387881358914741682e-04
-1.522613647965997685e-01
-1.600326955182591535e-02
-1.217479219484516456e-02
-1.076908187343885055e-02
7.513652357284214371e-03
-2.660869280621936447e-03
-2.366085447102153974e-02
-2.462708925039413729e-02
-4.383840886202978147e-03
-3.698316685885322946e-02
-1.167947282442383973e-02
1.789161449560142201e-03
-5.557674425265710962e-03
8.571067866011108233e-03
9.911738942392800747e-03
-1.116509585531456732e-02
-2.218730594351601623e-02
4.232346528561162224e-02
1.455582554412364858e-02
-1.510006353791932751e-03
-7.951262501793723500e-03
-1.818282350182438140e-02
-1.250038896949896283e-01
7.205916775169022431e-03
-1.625957470231489260e-02
-2.161836145816882146e-02
-2.194616654148044341e-02
-6.738171813560749415e-03
-1.752196809050457493e-02
-6.539090306849523748e-02
5.629284224373154628e-04
5.943361654910968642e-03
1.121012647652775210e-02
2.541475867296377061e-02
9.960158410594483966e-03
3.467215820760322087e-02
4.639114875303639030e-02
4.801196861956090467e-03
-1.837873662500461025e-02
2.451068068451854945e-02
6.637630430643235747e-03
-1.090750734291401694e-03
-1.901441485848511317e-02
-4.060343415365434000e-02
-2.291082628620012829e-02
-3.229863495844288290e-03
1.285174398323454988e-03
1.765638855661314996e-02
3.469938022271856076e-02
-1.335887264933371607e-02
-1.854011960387987740e-02
-1.969820243998087611e-02
-1.738676140556219898e-02
-5.906872411586871867e-03
7.767264239724062068e-03
2.709834677563543320e-02
-6.092019846602659237e-03
3.210238188812152837e-01
1.662916542838377421e-01
-7.787374881075054614e-03
1.716632385509556449e-02
1.837822474998546465e-02
-3.968923001263693906e-02
-6.655967969757927219e-03
-1.494139575554538982e-02
-3.234778320404289257e-03
-4.335943885093066635e-03
1.940152222215574609e-02
1.772382134628432138e-02
8.415410661795864541e-03
-1.470783186827630089e-02
8.409935657200773296e-03
7.658954973011872225e-02
-2.354309973380778066e-03
2.834701893757384308e-03
-7.465385307414865168e-02
-4.950562258471077198e-02
-8.027313356029238539e-03
7.586213962857858185e-03
-4.126679662701529354e-03
-2.701027063105118989e-02
-2.937277167468957048e-02
-6.893765029718593174e-02
-1.060368565926747477e-04
7.905569993672924636e-03
-2.273042180654944247e-02
-1.652040480408251133e-02
2.989684308388777453e-02
2.987427114295540444e-03
4.831162511974284972e-03
8.959663657486004532e-03
-7.064153899796320885e-04
1.916689969631365717e-02
7.305247654615327178e-03
-3.864945223607371000e-02
-5.881336624611598583e-03
1.571170792144751735e-02
-1.515988440577897486e-02
9.859696600027896551e-03
-3.398601765765475735e-02
2.941379633251046261e-02
-3.212533754833065552e-02
1.895858934409331079e-02
1.346574342672723218e-03
7.261329888563494879e-03
4.048500181000877496e-02
-1.613136243443547588e-04
7.859032895354573639e-03
-2.536367666181913762e-03
3.857707592470336344e-01
6.999321911598691904e-04
-1.333837926938603868e-02
-4.092816239103637052e-03
-1.223793232308482970e-02
7.288532290742970841e-03
3.824109815337750629e-02
-1.945412766306997276e-01
9.681344843431902158e-03
-4.611549313058113664e-03
7.124449932243509748e-04
-1.908115816912609548e-03
6.274220753657767762e-03
6.297606620140939766e-04
-2.472467123906762348e-02
3.415421318441582647e-03
9.738083292472287517e-03
-2.735266558100329167e-04
3.288897769288577980e-04
1.066481794669786078e-02
-2.085659357370476738e-02
-5.941545752195066116e-03
-8.037602384392518451e-02
-1.532149287310582454e-02
2.238841490006609168e-03
-4.095863417533432242e-03
-1.559244603447614182e-02
5.483251176617660178e-02
5.743907811880651169e-04
-2.276670999651249014e-02
-5.735566195123657784e-03
-3.371161614808246276e-02
-7.674237482529769165e-03
-2.329266173854012650e-04
-8.330075287302625420e-03
-5.501149207349389711e-03
-1.498905706264529701e-02
-5.383523216441496537e-04
4.372595999811339576e-03
2.275120877058406377e-02
1.407710280318274186e-02
-5.385441147847253436e-05
6.417741288797026468e-03
2.064680008784355036e-01
-2.273733380118666755e-02
1.633153684682572826e-03
-6.109695495437003979e-03
-8.385503788344251738e-03
2.940183390204013231e-02
1.698231729904516735e-02
-6.604203999013409654e-02
-3.870502486914925711e-02
1.937456413696960617e-02
6.439148404152205199e-03
1.863072579823402131e-02
-1.143428316943102957e-01
1.371604881643344320e-02
-5.203096583570739411e-03
2.300505146953595384e-02
5.001502218601860256e-02
-6.666810680638410314e-02
-9.804765625812646157e-02
-2.298073040699326677e-02
1.652934106254765750e-02
-4.461833421677641881e-02
-2.229057094161340791e-02
6.309325103520056419e-03
2.388203445816823329e-03
3.707694779644649108e-02
-2.070738865767339509e-02
6.565835652412063683e-02
2.040176810477976194e-02
2.176028508078449442e-02
6.592186567022581545e-03
-2.109833056764066732e-03
7.380023117479867292e-03
8.944021301557460168e-02
-1.898535464315130941e-02
-8.098513065837727957e-04
2.176231136241968921e-03
-7.235581614218788982e-02
1.908282870989280386e-02
-3.873071483040309293e-02
3.246074374721766992e-02
1.389420328441820854e-02
-6.196522816372611320e-03
2.416644385812739826e-02
-8.341810819503876068e-03
-1.498906123699660781e-02
1.185334934802226986e-02
1.625894295045390500e-02
9.911662331548626997e-03
-1.833952314802315313e-03
-2.055890910705988547e-02
8.381242790232328044e-03
-1.326236251758235694e-02
-9.748243702776141287e-03
-1.532672459785566505e-03
-4.376075844337812271e-02
-2.037089361897189907e-03
-2.017082468848266971e-03
-7.072999230951977981e-03
-2.703991606177826371e-02
1.001033393477831395e-03
1.348264880007430874e-02
8.040741080552461784e-02
5.221174526490597947e-03
-4.256733427520639941e-03
1.676492747615385831e-02
-5.505052711402905197e-02
-3.193323325106543764e-02
1.020520511819926306e-02
-5.135365234840249399e-02
4.726338410961258146e-03
-1.199239223954105815e-02
4.797556483873203353e-03
-1.922611617046599431e-03
7.589656565038518932e-02
2.682699694013286704e-03
1.968737914104571815e-02
3.654454037679791701e-03
3.518113746692444650e-04
1.718585805494447089e-02
-1.443503673967068846e-03
-2.850119078583325527e-03
-2.493286056222184942e-04
-7.367275228025883284e-03
1.140174208622343017e-03
-8.547555149179975054e-02
1.564966528775233595e-02
-5.527484150083113168e-02
-5.076293547666448601e-03
1.268023064818288130e-02
-3.651491419186245375e-03
2.769410774217173979e-02
-4.578057313096466248e-03
5.466803401444302393e-03
2.862504513316980158e-03
-5.838310895722071958e-01
-7.800104600401516763e-02
3.709685808165505763e-03
-2.279748049296614551e-02
1.457802784761754594e-02
-2.943301333847923515e-02
2.724575758615580684e-02
2.763849829642449872e-03
-1.204373225876600659e-02
-1.733493574283498928e-01
-6.615136813637946707e-03
2.088979314679898988e-02
-3.105148598576066600e-03
5.314667501327320631e-02
-3.015808633130929116e-04
1.061559254537674385e-02
9.030468210322624423e-02
4.653903537254980988e-03
-3.739823707397170981e-03
-1.035168313526514498e-02
-4.300200765278690967e-02
2.331184356594215995e-02
1.505730997246076258e-02
-4.763239671224157867e-02
5.462214214090505048e-04
1.934286138139468605e-02
-1.198185293563353189e-02
3.103623248969790416e-02
2.130174532057901512e-02
-1.279407021598270577e-01
-1.949485523400955669e-02
-9.850331473590242040e-03
2.391750076163089937e-03
1.126674370866015927e-02
-1.373454356781188788e-02
-1.027444017218054860e-03
-7.310089860890071553e-03
1.011980779731017251e-02
1.954829778117679259e-02
-3.122817249972481210e-02
4.757177902876270209e-02
3.048688302476400269e-02
2.725876897255781299e-03
3.880371101760792668e-02
7.941799243841770814e-03
2.621522258327624311e-02
1.487198381578934935e-02
6.494322217050688476e-03
2.967093215406669746e-02
1.176263624654446532e-03
-4.672662736733008103e-03
4.626854897485055580e-03
-2.317443969529554143e-02
2.509269100031506078e-02
4.138915622551547595e-03
6.614310383990545938e-02
1.843664077801946549e-02
8.167941605639019581e-03
6.285894145504640658e-03
1.671810124007208978e-02
4.184278991414621014e-03
3.641383939415978373e-03
-7.396509108408088826e-03
5.788531964585213324e-02
-7.771682315758769201e-04
-2.084337216511247121e-02
2.475568868864622130e-02
-1.803007956370160023e-02
-1.825858575071162906e-02
-1.921041864522645901e-02
-1.014728981820194054e-02
-3.750332446668323827e-02
1.219624332161447534e-02
3.146393216982552032e-01
9.055105550972386563e-02
5.948683117849169755e-02
-1.937506523705235725e-02
-2.707877663187217843e-03
7.540806597428179568e-03
-3.043524399793260185e-02
-2.474878525951247285e-02
-3.431917940840921270e-03
-1.057248535129996780e-02
7.186104846782828334e-03
-1.446926950012322570e-02
4.302546348615702253e-03
1.737036411081278181e-02
-8.721983424078207439e-03
-2.097140737512736414e-02
3.334125500089092815e-03
7.850924379381363141e-04
2.038309976084114530e-02
3.992683531066396757e-02
4.735342128830598990e-02
1.505537599548700464e-02
7.407052226546223528e-02
6.630256663332360911e-02
-1.246698234109981131e-02
6.084564774449613585e-03
2.539910595717959421e-02
-1.676236107225705964e-03
3.473993219233217390e-03
-4.834728281101820582e-03
1.889413620137799996e-02
8.770387287490681583e-03
5.332657692526669019e-02
-4.326179012655993750e-03
2.584083217853596487e-02
-1.501412900400797383e-02
-1.436544846452202442e-02
-1.114061550245101090e-02
-2.127926749806662021e-02
4.895081922969803795e-03
3.244872748708840099e-02
-3.472448717116591310e-02
1.332514133348930603e-02
1.474433764450213367e-02
5.527203963610666237e-02
7.698884853242363505e-03
1.017944389314083889e-02
5.410016796718879889e-02
7.826197686865175862e-02
6.463553899920231050e-02
-6.700762574589846921e-03
1.742256968750303470e-03
-4.470819431988852846e-05
-1.494417112773526769e-02
3.375390589735770275e-02
-6.809184483413477026e-03
2.326512048953763637e-02
2.359068317240188908e-02
-1.417888957548207041e-01
-4.331281970196801563e-03
6.901368823895541807e-03
9.130676783692061663e-03
-7.546969026126901584e-03
-1.148148867472618267e-02
-2.371577947237892003e-02
4.221219376732697481e-02
1.261868370670529010e-02
-3.484745081333409981e-04
1.309820250451149658e-02
1.587592535827475268e-02
-2.717332338462181973e-02
2.845608528195604087e-02
7.631839266921717872e-03
-2.531877305276203013e-02
7.975376237866173279e-02
2.528228451300740254e-02
2.202214332494591489e-02
1.732082906102939621e-02
-8.160353313246328580e-03
-1.634959124207583173e-02
3.124872714513352891e-03
-8.498562375062678267e-03
1.820850693315797381e-02
-2.851243907744622011e-02
4.399935625532573440e-03
1.735278565151962896e-02
3.507737159235200033e-03
-4.582972623934689071e-02
-6.089667834154398329e-03
-2.802419374141226424e-02
9.182312686527402401e-03
-9.461514776566289434e-03
8.874887811453825714e-03
2.115907914221069538e-02
1.628745850466613168e-03
-2.738960552936976506e-03
-5.708035648270558954e-03
-1.607163244345996339e-03
2.361180049019706226e-02
-3.249842634112332269e-03
-2.324757773259185627e-03
1.746313681798918049e-02
1.787941211354586099e-02
1.303667753559976591e-02
3.533503674300467797e-03
-3.932418836266527405e-03
-1.723012441943945960e-03
-9.435425310974396296e-03
5.166826315829749217e-02
-7.359003563973986681e-03
-1.208180836444036621e-01
-4.590555586672910408e-03
1.444272808813190298e-02
8.800964087401613387e-03
7.021855156800867886e-03
9.159793109670518602e-03
2.277395376606150545e-02
-1.570906599968072484e-02
4.230012593097198098e-03
1.953858275464189376e-03
2.011364021151873863e-02
1.642406326811681958e-02
-2.676674146569645377e-02
5.764548863280599331e-03
1.659640430381436119e-02
7.550072885256291569e-03
-1.764365991381856152e-02
-3.394505468014014787e-02
2.068406574610321194e-02
1.705556097129020884e-02
1.425664773337246942e-02
1.127770112279662465e-02
-1.097307831945420857e-02
-1.500534802199922574e-03
-2.514902495461883089e-02
8.815882207761001690e-03
-1.053070341517932211e-02
7.538234462913200170e-04
-1.428640230166655471e-02
-8.317327391853009469e-03
4.150735250338997984e-02
1.145404584152302958e-02
-2.055842306734619734e-02
-8.627802017687705854e-03
-1.625792839467785772e-02
-4.473871870328308131e-02
7.464415989115098793e-02
1.400414352889017833e-01
-3.915753004912252144e-02
-3.102888391806835500e-03
-6.020348206109647077e-02
-9.493037892580173664e-02
-7.383194045697610841e-02
2.304942670231191829e-02
1.433374203749911840e-02
3.083374154904689954e-02
-1.135902971847580281e-02
6.613302721784233666e-04
1.074270622585176554e-02
4.416307023672098528e-03
-4.337879855970896287e-02
1.935072291808264539e-02
2.933098244753258241e-02
-4.051797386216984820e-02
1.639913377357910679e-02
2.059162542067640225e-02
1.742511721670553237e-02
1.213549529374660391e-03
4.364224288040691874e-02
2.017795652844190171e-02
1.754279973846019532e-03
3.082922991415053271e-02
-1.161417491360902795e-03
-2.633227703730610814e-03
-2.322431762313718548e-02
6.535246869939494163e-02
6.214458185408167079e-02
-8.858063974363844170e-03
-6.376153834643164334e-03
3.371712906067784836e-03
5.792220573314244871e-03
-1.700851112033168952e-02
-2.009271894469352032e-02
1.454884648396993427e-02
1.448896445919600415e-02
-1.039945903633344819e-02
1.321332399471604468e-02
-1.181381541159578705e-02
-3.315940272573112552e-02
1.504751534769042118e-03
3.489546455326734964e-02
1.377271642080153680e-02
7.814222575219862202e-03
6.153147113245358707e-03
-4.961628165700422005e-02
8.581531638354447308e-03
2.840928106089935651e-02
5.186926925261767241e-02
1.338408814917559433e-02
1.442929725890449051e-02
-2.087383877972018385e-03
5.448114054941688780e-03
-1.374426502925920474e-02
8.748990040574086691e-02
-2.964661553286143843e-03
-1.878666419292250589e-02
-7.078845162311460555e-03
-2.017955845171857596e-02
-2.300039197853483413e-03
-3.755433262584945836e-02
3.923850106997144212e-03
-1.844309688580528456e-03
1.046611371412090180e-01
3.313563452792898240e-02
5.434586859151000274e-03
-7.354191212231811926e-04
-1.088230452967921128e-03
1.850347957434944060e-03
2.000262511843667323e-02
2.970026095918963660e-02
-1.471058407625017161e-02
2.046993287588223624e-03
2.418160519280087087e-02
5.322192556881799250e-03
9.314911916263770089e-03
1.958806179358264093e-02
-2.634851374792919823e-02
-3.945777238086192393e-03
1.733535997215843996e-03
1.716538926236087920e-02
9.638669030683581426e-03
1.867265370123185123e-02
-2.462623545431159161e-02
2.746487818390139571e-02
-1.172901122844947561e-02
2.740590881243436250e-02
1.562466819130840269e-02
3.750789623100767023e-02
-3.956400894733244633e-02
6.766624291736579588e-02
6.406876089086153969e-02
-5.689003483123004912e-02
3.961614424765103754e-03
-8.436086642759632603e-03
9.964679210387739072e-03
-7.680471417717240484e-03
1.481561640448399771e-03
5.780885483540130348e-02
-1.059779997556512324e-02
5.097301195436702154e-02
-4.108416133947911941e-03
3.106734367382848853e-03
7.412526983295468497e-02
1.007989082023856842e-01
-3.105591431774779032e-02
5.601952153101030785e-02
-9.964543090404366643e-02
-6.607523133528571575e-03
2.004235083191927350e-02
-2.909813583962059073e-03
-3.132675313558451469e-02
1.991769741887100889e-02
-2.323334719103107779e-02
-1.698098352356781915e-02
-5.193772884354738023e-03
8.177455017568821755e-04
-3.390226544551703733e-03
-1.436472269712156004e-02
1.433560303908188067e-02
8.139638100203395316e-03
-5.949114022020671189e-02
2.231167443223283295e-02
-7.351031746893036192e-03
8.881676241303303534e-03
8.613742097428808697e-02
-5.813337093609312160e-03
-3.743632693802736305e-02
9.172469781745972578e-03
6.759104103298779753e-02
5.205255466101075396e-02
2.444532968664719225e-02
-2.085899452868709425e-01
-1.727281086740925856e-02
-1.554847747731464246e-02
-5.878584282889199458e-02
9.300739651775928596e-02
3.912026323128190569e-02
2.816018158502365046e-02
5.344765081561692055e-02
-4.978031483367794524e-03
-4.122086503971672533e-02
-1.583233090208477703e-02
-2.491332243288004247e-02
-1.340773658070777696e-02
2.475778372058363812e-03
-5.152812147229816116e-04
-6.094962975042074634e-03
-3.085581169040716755e-03
3.984843394222435664e-02
-2.209065647091260076e-02
1.876773343616721518e-02
-1.546275583715097691e-03
-1.340721900658627119e-02
-3.818270563734097942e-03
4.386929208246369283e-03
-5.828123043324805186e-02
-1.021455099894098655e-02
4.072917738479623490e-02
-3.109597778951407251e-03
3.553670983558925717e-02
-1.802522478838725767e-02
-4.101113025012926433e-02
-6.699381699891627205e-03
9.984206935882826428e-02
1.203016836245265377e-02
1.176381162943777349e-02
-3.579059250170103096e-02
3.884405133530195037e-02
2.453365877702763306e-02
-8.429558691099960435e-03
2.243258327353773573e-03
4.874376541449252330e-03
-9.107353701765977250e-03
3.467735773012466799e-02
-1.804532787965180615e-02
-1.328555275399324540e-02
2.519333034492262507e-02
-2.404241150602529423e-02
-2.706496477574079837e-02
-2.634202917529010479e-02
-9.071121662627688528e-03
1.109353630760894459e-02
4.998172430201344545e-03
-3.676809758671206046e-02
-2.699373987985164564e-02
1.871442485785076515e-03
1.135047587357815475e-02
-2.524328834040129657e-02
-3.121283803685683672e-02
8.097657469203553907e-03
2.078273638573947812e-02
-1.367532973556829790e-01
9.403291603673220173e-03
1.198479893470737537e-02
-1.195468883910124763e-01
-5.530829830617544490e-03
1.878376608141609644e-02
6.018945669066849170e-03
-2.379614247249493136e-02
-1.948998298716134517e-02
8.856502978104667176e-03
-4.026219231860220238e-02
-8.351752687121627439e-03
7.677205037715414439e-03
-1.285445788551138092e-02
-1.531217263458556355e-02
1.717813208102024480e-02
2.626571137629896829e-02
6.923386194266031336e-03
7.518235868287720391e-02
-6.845740764133622161e-03
7.449780981495545892e-03
2.174128519765163373e-02
-5.131220342091799037e-03
-1.131324026753715434e-02
-8.423873304033782650e-03
1.701736439626979703e-03
4.528803177912073610e-03
-1.886735993087892580e-03
9.080954461497946217e-02
2.227403115779135606e-02
3.390644743831025543e-02
-1.263789125478959226e-02
-1.562538729017265079e-02
-2.154861050616347154e-02
-5.852631994494716244e-02
7.328293821988123881e-03
2.800796387680963215e-02
1.850503652744797320e-02
1.268312591760794271e-02
-2.135738039009824323e-03
8.927031768963630820e-03
5.066512873133031600e-03
-2.530773059391264526e-02
1.284970130417971944e-02
2.139176963525734054e-01
5.577970669417693823e-03
-2.164064532643629121e-03
7.694723453865382444e-03
-4.353239560897805699e-02
-2.602676151998445722e-02
5.812788954537260154e-03
-1.313585833240588259e-02
1.866485562284026303e-02
1.460838791429541934e-02
-6.947028138651361283e-03
-2.170683440398296637e-02
1.972390761482245916e-02
-4.317434494197419301e-03
2.147765738164686411e-02
3.906844688842722735e-02
-4.803598875674355839e-02
-1.491086531225182532e-01
-4.366879583503854856e-02
1.730830164293976556e-02
2.208955602505629449e-03
8.732187465944641139e-03
2.157733385726695249e-02
7.266092576791343023e-03
1.216511902001183622e-02
5.181808689634670104e-03
2.272021343498405871e-02
-2.200242741023339041e-02
1.895459637978149856e-02
2.155106652910425413e-02
-1.010266856125736391e-02
7.785446067567603108e-03
-1.975278717953077648e-03
-1.464297001589877530e-02
-2.921754205789572900e-02
1.210538587001215582e-02
2.853842565545191765e-02
3.820958451732664463e-02
3.875658642215719114e-03
5.039747423519620219e-03
-2.468365157341563879e-02
6.663152473704614040e-03
-1.050777828353984580e-04
1.207486963422645283e-02
-2.460933935899521641e-02
-3.558583476021283387e-02
-5.515099261262419728e-02
-3.080013836736691588e-02
-3.609986117434647174e-02
-2.142303625233840745e-03
-4.619739394203839153e-03
-1.336559130262273375e-02
-6.048776619689173739e-03
4.835481344749177623e-02
-1.940287970637106715e-02
-8.512446791337341043e-03
9.550002262689538668e-03
2.797029725515979247e-03
-2.907905848319679992e-02
2.330355979041661904e-02
-3.868362213868598368e-03
2.676526425608694373e-03
-2.825741711972912587e-03
-2.880042541307006355e-03
8.416684171055564476e-03
5.869874499518078562e-03
-3.028830435438604161e-03
-3.278474708518221148e-02
8.272201858477594427e-03
-4.793443222011949285e-03
-1.781794614059976217e-02
-2.302787202202061234e-02
-4.564010256090261786e-02
-1.394258815055738308e-02
4.509625451687832281e-04
-7.442995420510996676e-03
-4.826206252350105641e-03
-8.074498652511702054e-03
4.189137087671842988e-04
2.619080567004296312e-02
-4.389205712891970472e-03
-1.576902441756357701e-02
1.387212164910152715e-02
1.209995301767705263e-02
1.299823328216066429e-02
3.945754256415923318e-03
2.552053925910666501e-02
7.735501244016153299e-04
-7.281686845806582820e-02
1.227796325296521239e-03
-7.792078949532425802e-03
2.293691479144393738e-02
2.866245734260160216e-02
3.037632418228685544e-02
6.879174630542862767e-02
2.543939373944797272e-02
6.298793575456269021e-03
4.083200442193855861e-02
4.235291929770592517e-02
2.846663944761079409e-03
-1.899998254201244047e-02
1.255361502606399879e-02
4.160243936506375501e-02
4.933549547093835910e-04
5.529706911780072134e-03
2.156070747194216430e-02
4.997182845874197088e-02
-4.319212837253458281e-02
6.245619539944600312e-02
6.243295483228170767e-02
9.451919274727993425e-03
-5.791578610304611019e-03
1.394694131610315670e-02
8.951282389203021883e-02
3.981842759538666010e-02
-2.702372095797970011e-02
1.270634835080537532e-02
4.192797807520809612e-03
-4.430557285585408345e-02
-1.807523087409082171e-02
4.264415491905142186e-02
-1.001995152356156436e-03
-4.361017814661386632e-02
1.798010117204698263e-02
3.897392639332837583e-02
7.433730873712747489e-03
8.871263256817337253e-03
1.317578984430243898e-02
6.758769192275153326e-02
-1.954266307159745544e-02
-2.458203461200546280e-02
-3.111730956803407389e-03
-1.200763433367730421e-02
6.983250820481773369e-02
6.574583629078881164e-02
3.234921784835079195e-02
-1.705056638611733011e-01
-3.030601989949484321e-02
1.171264554377060008e-01
2.891994981922544478e-02
2.049246129576883999e-02
-4.561397282387142336e-03
-1.767975782831961162e-02
1.358310868373103185e-02
-2.139040247865724512e-02
1.725653041327384826e-02
1.201696353255931465e-02
-1.371210938636676941e-03
2.310960386226637575e-02
1.409073308880275620e-02
9.323536385907386340e-05
5.909068513763309632e-04
-8.163253414082230833e-03
-2.056398384425829617e-02
-5.329125874943597962e-02
2.383514182075250135e-02
-5.998847149567883980e-02
-1.072929410357487991e-02
1.180141379343006315e-02
-1.944558096584827339e-02
-3.131438217369821031e-02
-6.063602946356025196e-03
7.609867273615115134e-03
4.161672483641864345e-03
-1.112529390018801231e-02
1.073117656551156492e-02
-1.674262969460362654e-02
1.509890202102938568e-02
-7.269621662069885443e-03
-1.900268157599214330e-02
2.527916496248409223e-02
8.642679823262222616e-03
-9.458719352205288353e-03
-4.716931938974207143e-03
1.802627043817780356e-02
3.818382567775605030e-02
-1.107034790803559654e-01
1.487207338391872795e-02
-6.036586737340110011e-03
-5.483771881308924234e-02
-8.890439473126487621e-03
7.766089785513151378e-03
-1.911353905037077583e-02
1.632020279016199032e-02
-1.368851339841980867e-02
-7.206085444826750182e-03
1.322009330346597851e-02
4.756188038473622461e-03
8.226633035963250296e-03
6.083574378548139462e-03
-6.165484338141926507e-03
-2.263335816442912929e-02
1.688358539176586931e-02
-1.058743746340847468e-02
-1.417486256444084464e-02
1.414976703291471799e-03
-4.770394111684435334e-02
-5.874568686885008224e-03
-2.036048009768431986e-04
-4.361260345491056040e-02
1.049692489934058413e-02
1.695454178151419022e-02
1.229924336000686597e-02
7.791525484824236847e-03
9.630601317240975595e-03
1.692001075418006744e-03
1.393398850400273670e-02
-2.886342839267850603e-03
-4.715856409851758475e-03
1.953844351415268132e-02
5.145610721205515561e-03
-6.412300711649641244e-03
2.433384157336461462e-02
-2.737698680867765855e-02
1.322089761120281114e-02
-1.416218857828075231e-02
-8.879874510509425806e-03
-6.246510013080674995e-02
-1.096169868440938569e-02
-3.414918257318037831e-02
8.622121391288792985e-03
1.344314443142499531e-02
4.026730994719333878e-03
6.551583025814700090e-02
3.113718147760953341e-03
-8.217048137921892370e-02
1.746910412999041692e-02
1.673261708035815934e-02
6.476041351288225160e-03
-3.115510166474873971e-02
3.717754509459095941e-02
1.511475673774039484e-02
6.504697862091686489e-03
2.960567544463666920e-02
-4.798817973932878456e-02
3.061440670407664100e-02
-1.137051901559892921e-02
2.529132846309615004e-02
2.572539233503541144e-03
1.032953682604366152e-01
1.178483934201064905e-02
1.457759001772876081e-02
1.412982774441601361e-04
-2.740511802311632744e-02
2.740986224320756184e-02
9.303418110237954286e-02
2.955272120325555182e-03
1.135906965354602748e-02
2.704602298720073725e-02
2.400408515433364535e-03
-1.156661595289264037e-02
-7.859542105965689959e-03
-2.871564742182501628e-02
-3.564422607302658499e-03
-5.555420523805804436e-03
2.707985628917814955e-02
9.971618858864212190e-03
4.662838001827082635e-03
1.972287575601684717e-02
-3.416774336108605037e-02
-8.532188953588979927e-03
-1.253787995152345382e-02
4.266958413507464763e-03
-4.977644446821979408e-03
1.468837404206160911e-03
1.293636665147311930e-03
-7.685056175166750381e-02
-1.989802364750216379e-02
-2.537921586750208763e-02
-7.721189090954787802e-03
-2.467952226365789647e-01
-4.780205586368297278e-04
3.703962551673808078e-03
-2.681358170344492337e-02
5.077844528482746908e-03
1.595793140340614688e-02
6.726021981653465542e-03
-2.461190329014071015e-03
3.922343759907764849e-02
-2.789437395773379427e-03
1.617225049003885584e-02
-7.422865829335931198e-02
4.975015966467515732e-02
1.139793363392870990e-01
3.725274884651938456e-02
-1.002667192033739659e-03
6.244065621759437371e-03
2.444242063317447061e-02
-7.481798205729942204e-03
-6.661986605236182302e-03
-2.020010294603797815e-02
-2.847860774726562738e-02
6.203509610514923835e-04
3.721842839601459917e-03
3.078772394337962043e-02
3.281270326410389016e-02
-2.101196337459180358e-02
-1.593699949827587573e-02
5.685983161116064249e-02
3.187326124373202063e-02
-5.307655709882895187e-03
-5.503776199835391444e-03
-1.051503535636717952e-02
-2.804435042755934471e-01
-9.158521690422914696e-02
-4.267703776931868202e-04
-1.318314395044013938e-02
1.454995057859560965e-02
4.012297617646742171e-02
-1.958503476008765024e-02
-2.958033327610364374e-02
-3.880531917655974383e-02
3.057760151427912215e-02
1.363238011712149429e-02
2.085364610266315227e-02
3.682053684323147863e-02
7.136460020471507154e-03
3.860793948890198224e-02
2.093423167823359882e-02
-4.895332251040669658e-02
-6.906668134901487732e-02
-3.497920833585600742e-02
1.322821142454942700e-02
-1.724557140131191199e-02
1.505153592734461213e-02
3.375309197393620841e-02
-7.548105453653614506e-04
1.672737947053953844e-02
2.852448925896002019e-02
6.593822855336974043e-02
5.682971318609743999e-02
-4.240739776345936463e-02
1.180291619453475646e-02
9.352478728922224236e-04
1.015008472897240173e-02
-2.033007648975276166e-03
5.405877609176093154e-03
9.241582336120103547e-02
1.118303318369318587e-02
-7.093961403176820245e-03
-2.866852196376560441e-02
-3.090741492064554702e-02
2.731579534200964318e-02
-4.445871647805463463e-03
-1.011093297166647080e-02
1.610313856979999833e-02
3.403446224704575226e-04
3.291156182917933520e-02
4.980265931482749653e-03
8.340115671595853958e-03
7.406440287506875324e-04
1.531575251508691428e-02
-1.584318381777322440e-02
-9.895576468025418446e-03
3.233648194753708919e-04
4.860603202419237420e-03
-2.898985548749130094e-03
4.116312063839426376e-03
-1.432836539558116420e-02
1.574619135400508706e-03
-1.059894550451045969e-02
8.037758618373398375e-03
-2.082027663208867521e-02
1.025221133149871629e-02
2.202239531902217690e-02
5.425055949667144210e-03
-2.321057136142117006e-02
-1.768628498110525436e-03
4.308940794630404698e-03
-3.593511312256096601e-02
1.434842795770603467e-02
-1.299641399350759050e-02
9.161765461143507594e-03
1.495793652430034079e-02
7.668122724420886431e-03
-3.214371153092081268e-02
-2.790790589191140258e-02
-6.095600155382146747e-05
-8.402984272602529586e-03
1.443895614184023506e-02
2.032404449144149805e-02
5.926571720397630708e-03
-8.626751893880102093e-03
7.331586657588025878e-03
3.465197108765701722e-02
-7.109406992602543100e-03
1.707623953737985936e-02
9.003080923105567790e-03
3.220907774978229009e-03
-8.525524335989921251e-03
-4.009981428888834132e-02
-4.192816303540320734e-03
1.130465821260039777e-02
-6.004881736786517321e-03
-2.897955550069200234e-02
1.734967493026697699e-02
-1.296536610657406628e-02
8.228126372512621980e-03
4.336694656944728443e-02
6.025838701382750864e-03
1.616678677257377822e-02
-3.455547316752141662e-02
-2.531205012910090271e-02
-6.982796698113333516e-04
-1.282646011179456973e-02
2.208923157085525800e-03
-4.047984667996337022e-02
1.385016625436646109e-01
1.059419913983060402e-02
-3.806736724682033366e-03
9.668562518816226428e-03
9.503351761550213675e-03
-7.135622449541488554e-03
2.079328255054596966e-02
1.304882223586101980e-02
-2.855109696389430962e-02
-1.664229638297907510e-03
-4.784836922376577845e-02
9.468204717074559917e-04
3.019022896345673751e-02
-4.040522548531175727e-04
-1.778687017791508868e-02
-1.565528466855395980e-03
1.627345554290675692e-02
-1.691187168304062599e-02
3.641106965508619786e-02
2.274178169044400316e-02
2.654679650607156757e-03
3.876319392908532564e-03
2.354630069596541295e-02
1.845129283127061245e-02
6.091643818690066492e-02
-5.262342239011862099e-03
-1.510380788129512750e-02
3.083451981866371788e-02
2.894718782962474313e-02
2.090710430531056430e-02
8.295772840594346775e-02
1.442468061261486254e-03
3.818991544193530568e-02
4.334936823091835312e-03
7.736527026494567812e-03
-2.346717645161022422e-02
-1.372520245070114886e-02
-1.250192817528836611e-02
2.463962212433862611e-02
1.780845738915947524e-02
-4.540679744793685649e-03
-6.882349117834955614e-03
-2.962120102459528219e-03
-7.030724659930999432e-02
2.028863158536734282e-02
4.307026209453511389e-02
4.453316887272069924e-02
1.796126139970003616e-02
4.723759655568574717e-02
-5.243644762454691827e-03
-2.028313866382875068e-03
2.164436594214034712e-02
-4.097242961013336515e-02
-1.364974527374069463e-03
1.790657216218603754e-03
-2.683764491728721224e-02
1.450190642176763800e-01
1.154128758355620586e-02
1.203114138575618781e-03
-5.035929117837665420e-02
4.652664884711987803e-02
-5.331751464302388749e-02
2.849501875112478433e-02
-1.196433131441366690e-02
3.408118038687266149e-02
-1.556524704204724670e-02
-2.010232140439699791e-02
-1.112434165985324262e-02
-1.633076963472091664e-02
3.017008939487116851e-03
2.010258631773859106e-02
2.953620639022487906e-02
1.254293603879397083e-03
-1.885195561038229429e-03
-2.151940326414434126e-02
-2.259547126425124480e-03
4.726297149834001940e-03
-1.701611416502243944e-03
9.680511253891133094e-03
-6.771771085277932499e-03
-1.717703829244842939e-01
8.095579852140148691e-03
-2.862533139322264233e-02
7.882506267957683881e-04
1.286607739160164875e-02
9.717406003140987951e-04
-2.978646693807337695e-02
-7.000765304236344390e-03
8.326773750805828087e-03
9.768737148518674349e-03
-1.010072318996998487e-02
1.933350432157059096e-02
1.889767476652445127e-02
1.461110207790964829e-02
6.351300661907784140e-02
3.882869934698882780e-02
1.592144406816578886e-02
7.154489481330972289e-02
6.785795954165580596e-03
4.707513845378210986e-03
-4.073096040116580205e-03
8.848655502588618701e-03
-2.923967613578615579e-02
7.146400655478639917e-03
3.902928421984104557e-02
3.190660149806127666e-01
5.083385488500330191e-04
-1.845957918495356662e-02
-3.131292029508214031e-02
1.639975952053622857e-02
-6.901424598294304477e-03
2.425680553650002517e-03
-1.594360924569377530e-02
-3.213753097309571954e-02
1.762858316295000394e-02
9.938488736271323953e-03
6.129013262281344382e-02
1.645321278739570459e-01
3.569141970619774812e-02
4.070158172341936664e-03
3.111102664191712705e-02
5.648485786194080982e-02
3.487621473982839559e-02
9.128284775545893528e-03
1.614609698088916370e-02
-1.175920473251624611e-02
2.800003961885405221e-02
1.975258823651469473e-02
-1.622611584392209122e-02
1.369076120678164830e-02
7.976986302493750680e-03
3.527010923450549923e-02
2.274540405022133695e-03
7.138881330688611609e-03
6.653492582118561254e-03
-5.020160844389284262e-03
1.601699861924710255e-02
-9.201238910366976720e-03
-5.889611765432166759e-03
1.896628533480884324e-02
4.861516369509529673e-02
1.463708081844794506e-02
1.691034924344964399e-02
-1.535399587813046510e-03
-2.851410913256350720e-03
3.989613468229498416e-02
2.238750607080533268e-03
-4.039946182013660209e-03
-1.407268895296057707e-03
4.712639438676036879e-02
5.247217785796873951e-03
1.606521592476194832e-02
8.694782504851009813e-03
1.109906287470754233e-02
1.844664076771296291e-02
2.187805269831677099e-02
3.451269736600784399e-02
2.048358990683259162e-02
-1.340592127348039751e-02
-3.332344836305949770e-02
-3.764838183421246459e-02
2.884389598266926327e-02
9.749682876367597381e-03
1.005879176247816576e-03
-6.651602823132370113e-02
-3.124691684548915049e-02
8.185411265177224005e-03
-2.615544601905794853e-02
2.314396162504290047e-02
1.751648450676383459e-02
-8.403053902320559154e-03
1.358096060738160117e-02
4.400070861523149544e-03
9.726523515262372205e-04
-5.415994744671882161e-02
4.088442885331986659e-02
1.489067151654863835e-02
1.224353126475322476e-02
1.731361987448070544e-02
-4.207145081223286759e-02
-1.006296041966782580e-02
-1.644481799547028306e-02
8.563698659557483078e-03
1.967293896615950402e-02
1.894317586457975461e-02
-8.956475180294413974e-02
1.523633192082711474e-02
4.237179977478618652e-03
3.817794504562251057e-02
-1.702060232490016853e-02
2.136801201073278145e-02
5.114513274896802936e-02
1.471524888073652212e-02
3.125106782423491686e-02
-2.662708083778803775e-02
-2.089096462455602987e-02
-1.314050524693943789e-02
9.748623078895806218e-03
-6.011754673929224288e-03
1.097707716335471345e-02
-5.727130206349549668e-02
8.069352695498183473e-03
2.187266068509203729e-03
-9.741049722848036524e-03
-1.872735424966375309e-02
-3.083350725979650681e-02
2.377381909195092069e-02
-8.623411787620653690e-02
-1.104226264454558626e-01
-1.190312292360065638e-02
-2.603327224315049246e-02
3.378478079244669890e-02
5.182633380775195087e-03
6.672846639097743116e-03
-7.225422735075246339e-04
5.424303473578166029e-02
3.018859477472788863e-02
2.628488480344275471e-02
-1.420899952391673493e-01
-1.566513709938004983e-01
-2.929531570142256298e-03
-2.445899103015473919e-02
2.268351916135431454e-02
-6.823480730775707132e-03
1.805329960219520247e-01
-6.917592330318204398e-03
3.786882218436466579e-02
1.408261310626631249e-02
4.027905489287018914e-03
3.202753186935611545e-03
6.082600891443946077e-03
1.226909121728665328e-02
-8.073729458297783379e-03
-1.555652342414272707e-02
1.517228011372258670e-02
-3.956957540406522145e-02
-1.184319645993534703e-02
-2.615492173397558281e-02
5.886270467328668689e-03
1.282759838645823602e-02
-7.803464475783537802e-02
-6.506961712676548326e-03
3.881966041254695382e-02
-3.336177275212346034e-03
1.524532297124839156e-03
-1.845039395020835887e-02
-1.987638269611885847e-02
-4.650687914402039380e-02
3.706645212259461475e-03
-1.868729211739884183e-02
-5.972553187670174429e-02
-4.135529088963998262e-02
-1.098056221269991597e-02
-1.495706011281587033e-01
-4.850291625609469241e-03
-2.059350208583006492e-02
6.046910207913500090e-02
-2.312675838952567287e-03
5.318528041320331329e-02
2.947115753592148470e-03
-4.461029170111467934e-01
-7.450753817475404273e-02
2.976890253565583726e-03
-2.623241478990202824e-02
3.484788024559658248e-02
1.627124850964030119e-03
-1.261270893734726950e-02
-1.327912430650335200e-02
3.434592438913765776e-03
-5.698194827712540177e-03
-1.655745125289921973e-02
-6.559603790769258022e-03
1.352543048916313162e-01
4.242893439635732518e-03
6.088590563096623644e-03
4.410144547041346813e-02
-7.693070727941099529e-03
6.381396125371671495e-03
2.997276903789576705e-03
-4.500492538217894245e-02
-6.890989360353004523e-03
-2.334730362166795303e-02
-1.038541086547443149e-01
4.864388500277331585e-03
-5.906405821883177476e-02
-2.487874777966930448e-02
-1.633628001657916242e-03
-1.693617410536222764e-02
4.265980338177915304e-02
2.531064405331428981e-03
1.210570740536777434e-02
-3.272517500656103341e-03
5.608897407205258936e-03
-2.287504340604489678e-02
-2.291881101186541564e-02
-7.651329782266442711e-03
-1.681500402554000602e-03
-3.091376342978862171e-02
8.298773988741852889e-03
4.665993980295739772e-03
-3.677995902652450924e-03
2.045272301420152442e-02
-1.779959978405382809e-02
1.727717646602549076e-02
-6.478353032036890564e-03
-1.051429700175684698e-02
-2.183545521494364983e-02
-2.117829792902184080e-02
8.987623474399009799e-03
-3.458767013360367786e-04
6.864807079303721256e-03
6.179464422750042402e-03
2.175087424333177564e-03
-3.007841525980423526e-03
-5.475013103658704812e-03
-3.205926608172535337e-04
-2.759482266462291635e-03
1.700961520533787101e-04
3.595363827721118760e-02
6.794120552984779342e-03
5.438245746250817188e-04
1.594189663475672689e-02
1.545031287514535279e-03
7.624674458370898217e-03
3.452803870538530967e-02
1.004820075036753392e-02
-9.597221329974890691e-03
7.333100153112320947e-03
-4.378217770302379047e-02
7.407924195464740506e-03
3.927558369798453408e-02
-4.334175540741056973e-03
-5.547716562205106533e-03
-3.617199151889911174e-02
-1.426164844687501654e-01
5.115926999657431943e-04
-1.163758022703597836e-02
-8.060120753175100891e-03
-5.360559891191894744e-02
6.557892974129809810e-05
4.271134108077345899e-03
1.700180956469114421e-02
4.460559699494701796e-02
1.177215698878822034e-02
3.691429853811929035e-02
-1.305308946486408161e-01
1.559109022656694071e-02
-2.194404605547724263e-02
1.033831905631910596e-02
-1.302147397510884652e-02
-1.820640181046556325e-02
-2.763052388263035480e-02
-5.744386939683422851e-03
-1.548215149082868974e-02
-1.267392094079245780e-02
-1.515409667648521391e-02
-1.932976750488275136e-02
-2.672412964080143546e-02
-1.154496579321142788e-03
3.277207552684013002e-03
-2.873008311155280606e-03
1.203601416238031518e-02
1.728637921249772313e-03
1.577320331880052023e-02
3.292587114791149707e-03
2.675413704795561939e-02
6.228910528083255772e-03
-3.769944968652919060e-02
-8.228502606293423838e-03
-3.523514992465524853e-02
1.840238787839054355e-02
1.492617985930216873e-04
2.298470368975510242e-03
-1.028868456920523783e-02
-4.615084755039620262e-02
-1.327668965105981494e-02
-4.966247549447305037e-02
6.653506619893580915e-03
-5.065199671633294209e-02
-4.391409155604114600e-02
-2.081571114888324664e-02
2.120741644016528246e-02
8.187703598534999683e-02
5.128716720759284899e-03
9.146123365144711052e-04
4.575406830421359372e-02
2.256643396201363574e-02
3.235258430844389216e-02
-1.033489139866493600e-01
-1.807311035909638791e-02
1.109323075250030211e-01
-4.749659970878990743e-03
-4.969453025447791855e-02
-5.409341582409855215e-02
3.241795368078678741e-02
4.918160612154435368e-02
-5.489056803211082901e-04
2.930149898512523447e-03
1.011941455694240384e-02
-4.691604848533832001e-03
-4.460383168469709420e-02
-1.113530863267979745e-02
-1.734189031739085535e-02
-7.735786688481330331e-02
6.279763296648031845e-02
-7.274656121631376850e-03
-2.258196518415439211e-02
-9.689023664178350939e-03
-5.128394265692873266e-02
5.482790377427048355e-03
-7.413939525417501640e-03
-3.526269647499472287e-03
-4.605247651937154248e-03
2.723380968801112842e-02
-9.816924464526609329e-03
-1.137981649070372034e-03
-6.612481818230901698e-02
-3.090199072755666493e-02
-1.002531869377735682e-02
3.451648498414112282e-02
-1.460364447281693560e-02
-2.573732145670774157e-02
-3.290613662135945250e-02
1.333926331808937024e-04
2.148973083911944609e-02
2.186189063011967706e-02
1.578547236493955258e-02
-3.392962974419365309e-03
1.116454619930584875e-02
-5.939348586887095022e-02
-3.535543756139974403e-01
-1.538824538090504401e-01
-2.728646691073361927e-02
-1.697579044927200603e-02
-2.658712515756631988e-03
-2.753989036771617785e-02
-1.807635353553075849e-02
-6.138758133880742665e-03
-1.436307049599509604e-02
5.568246978946248286e-04
5.982954590909205644e-03
2.057913938689476599e-02
5.156694928551556686e-03
8.448484191711083668e-03
-1.363133423937055479e-02
-1.464937154768375209e-02
1.257446543640524349e-02
9.692628652556944252e-03
-2.481337743712538901e-02
-1.450417995406398652e-02
1.511330195011668931e-02
-1.215822222771492135e-02
1.395323055163905090e-02
2.242340569166749106e-03
1.515919849740019199e-01
-1.024405823037504923e-02
8.040151508467952360e-03
8.120910376618276777e-03
1.263709208439472119e-02
2.103596684489606600e-02
3.533117263413662612e-02
3.815697837449224389e-03
-2.560426508938992360e-02
-1.467853380758720946e-02
-8.111387072096217302e-03
2.180808145362194209e-02
1.923990692891744403e-02
-3.778865471249017588e-02
1.275219090490854398e-02
2.703615714750592924e-02
5.371586181189502013e-02
-4.513743595953514584e-03
1.183669171091141122e-02
-2.086825159411331149e-02
-6.335657704092481635e-02
-1.815984807742789670e-02
1.134871063165799818e-02
1.754384459398930507e-01
2.153417809262054075e-02
5.397032113855486368e-02
-1.480598856892787266e-02
8.913751326914410829e-04
4.258244560895914355e-02
-2.219138349822075140e-02
-1.102970010137927122e-02
-1.933514268216467158e-02
1.288671491339816663e-02
1.801057945099301602e-02
2.010961897982988661e-02
4.131137937629481005e-03
1.529567601679753495e-02
-2.239103245228918002e-03
5.776776209448685785e-03
3.793298853171440943e-02
1.092375591087938608e-01
-1.428483074351655398e-03
6.598868958425718268e-04
8.204158191478708173e-02
-9.101825349078304260e-04
-5.396181570931415927e-02
3.289301541294877701e-02
-1.221737273659181944e-02
1.674381354015651649e-02
-3.926664854079003203e-02
7.356617077101103470e-03
5.827762751728109841e-02
1.781549667678593643e-02
2.826074502211959813e-02
-1.733683142814803069e-01
7.002871920395166254e-03
1.185568664761937029e-02
-1.657506961753594035e-02
-2.882699919928446985e-02
-1.498232860812578719e-02
-1.343680289431871053e-02
1.796835896470884084e-02
1.720787528507969691e-02
6.183215545257731913e-03
-4.024632389691458999e-03
3.112902922927919189e-02
-1.165535550272206016e-04
2.175909513755239916e-02
-9.400115361659185792e-03
5.684379252897811888e-04
-6.016900101602305935e-03
1.943461231288703267e-02
3.133250616687042328e-02
-3.064734262291222110e-03
3.788516350924962806e-02
1.426047307296327352e-02
-1.804020579627086535e-02
3.163590527894189711e-03
-1.657119161917526562e-02
-2.153169992238610289e-02
2.228179341469116795e-02
-2.027409036955766554e-03
2.036044449728914642e-05
2.520934870080440357e-02
-5.001363908900925866e-03
-6.556878342475713946e-03
-2.300706225750423148e-03
2.257459691966084633e-02
7.789228608934524803e-03
2.595309861260437431e-02
1.680240982715341339e-03
8.480102534495248187e-03
-5.909359516801842085e-04
-6.863763937986000485e-02
7.732335240844562252e-02
1.530888688477656696e-02
8.585341303220883971e-03
-2.442596791674881973e-01
-2.724951394388768974e-02
2.164187763190963260e-02
1.441960907526730964e-02
1.745279303939238635e-02
-1.140662888044453177e-02
2.007037702544729740e-02
-1.748664916279158571e-02
2.933616454647115530e-03
3.766836817563686685e-02
7.489938468153365704e-03
8.034706720477031300e-03
1.388855978465349805e-01
2.285066601839425698e-02
-2.102159125861469396e-03
-3.161180840310253565e-02
-1.934314138995753274e-02
2.410958976109189075e-03
-1.053947767324398335e-02
2.241345279465349616e-02
-1.955465646007501640e-02
-8.543876524372145259e-03
-5.852757363852642992e-04
-1.207280626468503967e-02
2.305992439773936475e-02
-9.234768884154784946e-03
3.370662775123492438e-02
1.110882193028416703e-03
-1.076023744340621341e-02
-1.220047425626656981e-02
4.502304362013396198e-03
2.487203760355473012e-02
-8.042378296337845955e-03
-8.261508227477004640e-02
-1.217052670800405564e-02
-6.551765853377254471e-03
-1.523502754926070110e-02
-9.076406863266148206e-03
2.556583035325073194e-02
-2.413627597866401311e-02
1.600532676067452365e-02
-5.987215809671095346e-02
1.555993752348882458e-02
3.525749627899105870e-02
9.077751865946051199e-03
-1.534866923786923874e-02
3.635686607510119767e-02
2.525869739031899944e-02
5.313487522162891469e-03
4.146228386724088999e-01
2.283068595224135577e-01
-2.602403022876883382e-02
3.872602194705946407e-03
2.469500847969819182e-02
-7.728917272871413911e-03
4.303768458578474676e-02
3.051348349374575358e-02
1.419882473677940883e-02
-1.515199354769816188e-02
2.275819263463041073e-02
2.028575272073716018e-01
3.200335003975585124e-02
1.436133614924454960e-02
-1.726204332497682792e-02
-1.198917883327709887e-03
-1.457677894750160075e-01
-3.980294514201784123e-03
1.013661219294354279e-02
-2.613745254835296919e-02
2.326718805557508474e-03
-1.089846873623363452e-02
8.642712171024066747e-03
9.316837769785781681e-03
2.141740203535469345e-02
-3.826445224298193667e-03
8.884424618239634974e-03
1.858338309385905787e-02
1.945188894438620864e-01
1.581149125626315002e-02
5.072494686069655388e-03
5.681596221109319785e-03
2.873558879015964199e-02
3.269960911409775049e-03
-1.017532166879379397e-02
-9.775621064244462144e-03
4.052579222319469682e-02
4.828481963346058226e-03
5.957522172567053347e-03
2.489241655287800087e-02
1.412877625434903403e-02
9.511992420744181179e-03
3.943114668929183914e-03
1.643659164386553073e-02
3.748871505364842482e-02
1.280639110206232417e-02
-6.975228504151970155e-03
-2.394912442467032540e-02
-3.630403294748899001e-02
-4.684119717902592017e-03
1.334013702691213415e-02
3.849766727079835527e-02
5.302471701536064057e-03
-1.386478576211854809e-02
2.480559355820919354e-01
1.376778462084636903e-02
-2.343521466755905513e-03
2.387440619381228331e-04
2.873014205924427980e-02
2.357047724147690038e-02
2.368291799848281157e-03
-2.562272102015115960e-02
-2.029946103465450754e-04
2.899918934777242704e-02
-1.075819633763457940e-02
-1.691146215378039764e-03
-2.233262170657387274e-02
4.338106304474283886e-03
-2.325555582147704331e-02
1.020963523389479004e-04
-4.902255882251532575e-03
1.025914739454433441e-02
-1.980113827842231757e-03
-1.641602771770631422e-02
1.363516912659052012e-02
-1.970111210875816546e-02
1.818713710230988878e-02
1.926066511167612641e-02
9.556702847414031560e-03
-2.591401964926054544e-03
-1.202199410316813141e-02
4.483187334401464441e-02
1.011122242505184225e-02
9.378202590910022715e-03
3.220698732496986988e-02
4.868209124066202181e-02
-3.072793868714267587e-02
-1.504219316154068939e-02
3.437404649347672227e-03
8.372726182349013099e-03
-9.518360210256060841e-03
1.245611899668890715e-02
-1.070301738048798530e-02
2.467065265851431377e-02
-1.488233150866142759e-02
4.549054513436338876e-03
-1.200644414118646683e-02
1.205664123449211138e-02
-8.506505239336130397e-02
5.056316543467003974e-03
4.002034406406326144e-04
6.323233944199762036e-01
8.951001209993893898e-03
-2.519083002279817740e-02
1.636441386046121049e-02
-2.175983566841348943e-02
-7.173287980203758418e-04
-2.770964886169299465e-02
-1.088955158097803036e-03
-2.122110183758382437e-02
-1.570094980981227850e-02
-1.323220548957140530e-01
-7.609560971720570784e-03
-3.651960518510628806e-02
2.485423069485419214e-03
-3.249442925250445313e-02
1.905267979485170907e-03
7.272056265066184112e-03
1.022521898277608046e-02
1.494343859494590837e-02
-7.534116693331799341e-02
9.866133925018633760e-03
-2.931995281451546531e-02
-2.173385575338091305e-02
-1.774762180149875093e-02
5.205994702318959312e-03
1.270951915574929265e-02
6.585184757655494769e-02
-2.017343986852868955e-03
-3.134769415201439646e-02
6.743309718724550816e-02
-5.656244951597558940e-04
2.402028761492424128e-02
9.591921829065635369e-03
7.533507994552566221e-03
3.037030777589041705e-02
-5.723190259228760901e-02
-7.923611623372869839e-02
4.756864802362739675e-02
-2.546874359956241758e-04
-3.871489365545713324e-02
3.510071422336251412e-02
4.361837318411974918e-02
5.483554442052319088e-03
-2.432954443628188371e-02
1.288076569884568680e-02
-4.011767143586923885e-03
1.241533875016095044e-02
2.908562163960467378e-02
-8.786648462565029016e-03
9.627593105876065122e-04
-2.168947281442723789e-03
2.762862929878579128e-03
3.494979836113322295e-03
6.472543446653508323e-03
1.088072844719775029e-02
2.386894565358516074e-02
-9.414965404014584774e-03
7.707797750035785822e-02
1.984033674381757099e-03
1.800608162706094501e-02
-6.654225766531364147e-03
1.755729879043802649e-02
9.674770283264806647e-03
-1.138986189550311723e-02
-1.182441017756485913e-02
6.662316070714619648e-03
3.684523871679912591e-03
-4.117632648805849734e-03
5.714312473907184192e-02
4.758826458336865017e-02
1.134751341017862895e-02
7.744315139974609907e-03
-2.622313530274660801e-03
-4.446032334326200340e-03
-3.638716979942334699e-04
4.190078133564255347e-02
-7.054010423541963101e-03
-3.142406024074271588e-03
2.964620789154013766e-02
3.984910587154511658e-02
-3.949813729528207640e-01
-6.968271454061346348e-02
7.543436255765947202e-03
-5.221935539551859906e-02
1.798539882419751892e-02
7.922323956695995206e-03
9.146637666919548229e-03
1.714508018780763754e-02
-1.109128212068746615e-02
-9.957175319126344848e-02
-2.254785060191156186e-04
-1.074919146193506064e-01
-1.125775348545278269e-02
1.332746545109986941e-02
-2.022516272897167261e-02
1.516681161978169178e-02
8.727979713965630659e-02
4.985365682844660612e-02
4.601817083527866975e-02
6.976607849875264555e-02
6.020035026762009245e-03
-1.510935744640540430e-02
-2.762278485876577209e-03
2.988801615024070518e-02
2.706053371400828911e-01
-1.179273764393890117e-01
-4.669486479599822999e-03
-1.701939811015951848e-03
8.151481684428302362e-04
-5.162418303451904444e-03
-9.195402878754090417e-03
8.042395200763960070e-03
1.110433253459745806e-02
-1.021212931541350816e-02
-1.529721815457115407e-02
1.329698762371374632e-01
4.448702320566335321e-03
3.752496537391081417e-03
3.082909067755460614e-02
-6.274256582843729634e-03
-4.714625955412215011e-04
-5.933087041598772426e-02
-6.112225973473524657e-03
1.374093850819770729e-02
1.013255695754968766e-01
-9.994292154024820782e-03
1.363263745373839535e-02
-2.054259431289028395e-02
-6.540768805391362906e-02
4.274830131952029322e-01
-2.782399908786602899e-02
1.335955668954514897e-01
9.178050420474386309e-03
-2.168383687182758382e-02
-1.418092780604886423e-02
3.948128860964711384e-02
-9.046735016195343870e-03
9.824808207933577453e-03
5.823324892061290670e-03
3.000616478850773317e-02
1.060161025689623435e-02
-3.368281209423054732e-03
3.236837911066766087e-03
-2.897006763879938704e-02
-2.395873527217049978e-02
1.053476986218925410e-01
5.027936551807971055e-03
2.542828962945222274e-02
4.899271044000272357e-02
-4.983298967434710014e-02
-8.267054134351808567e-03
4.349913421690541210e-02
-7.594955342141891663e-02
-6.505922897266339100e-02
-5.578605807503944289e-03
-1.966446984615393204e-02
1.141810131913754099e-02
-8.900680893003611385e-03
-2.969026554621582211e-03
-2.850818807670118041e-03
-1.425004353194149302e-02
-1.386301048204362533e-03
-6.478578848682668700e-02
6.665327260766644446e-02
-9.322563287939313742e-03
-1.956645573172164851e-02
-6.694683611028289481e-03
1.502214578507982167e-03
5.928944276277443859e-03
-1.125954977453890588e-02
-1.991718397420602985e-02
7.592018872357356347e-03
-2.625906688955902211e-03
5.539194386659944402e-02
-1.933246272535349766e-02
-9.115277643590904283e-03
-1.278822176117633963e-02
1.867433894607427574e-03
-6.102681505490737367e-03
-1.010273387404940666e-02
-3.099032644759859155e-04
1.283326440043180451e-02
-1.853612612927185016e-02
-3.717020085804579460e-02
-1.558205231044614524e-02
-1.955653523930648771e-02
2.293434947895173909e-02
-7.810582205486096830e-02
4.593093693990932778e-03
-4.543833454826467014e-03
-2.742265654793574897e-02
6.383617208506873510e-03
7.368603751546819181e-02
-1.184822620362192304e-02
1.342004310493942823e-02
-3.101361013433791801e-03
1.609738292202670396e-01
1.147189792807190578e-01
-7.540868631745639358e-03
1.607074544766781340e-02
1.155775922047012471e-03
7.628825133418182421e-03
2.551731317519040712e-02
8.434234768574929916e-03
-3.453796459877522210e-03
-5.563140404777110540e-03
-1.452921905677995694e-02
2.216664110866358936e-02
2.834828278093977014e-02
3.717531091968718365e-02
-2.403119784771807696e-02
5.351241725025850798e-02
-5.489352010870781132e-03
-2.238589895693935197e-02
-1.870108902072294826e-02
1.131969595908031458e-02
7.763606300651659103e-03
-1.834204736657919776e-02
1.079692362690742174e-02
-2.425690683819203830e-03
-1.528471286169952315e-02
-3.604053933018515343e-02
-1.363879482064398602e-02
-1.550014337016096533e-01
3.976161065424548002e-02
-7.089356121684640445e-03
1.167658077086427271e-01
7.988858701301536358e-02
3.680942776953392837e-02
-2.746879081771730260e-03
7.184648534324878690e-03
-1.358033215644632386e-03
-4.507047491047353610e-02
9.575916734056704599e-03
-3.972025453826150132e-02
-4.148785476734144495e-02
-4.859908950327855061e-03
3.162450519703995794e-02
-3.735668868367267997e-02
-1.340399358614702318e-03
5.314067101574029145e-03
-1.240451041978395119e-02
2.430487125532881584e-02
7.013680291211948220e-03
-8.124846112690204195e-03
6.074981608145783862e-03
-5.133528639676365052e-02
-2.195536881073694574e-03
1.892529806705817857e-02
-1.213041791754117076e-02
2.657308088709808749e-03
2.829713553032690843e-02
-2.188709003595984068e-02
-1.398160837137334828e-02
4.984529694540060576e-03
-1.021906831546010377e-02
-2.152065237635318942e-02
1.648707108775865609e-03
4.219436697922127055e-02
2.410897515367112914e-02
-4.309703987909156188e-03
4.798909273554148591e-02
-2.136837668466468401e-02
-1.021642810028364212e-02
-7.244501493407593841e-03
9.350045703771013225e-03
-7.058720159193464933e-03
6.559309930839358864e-03
-2.281156832725616049e-02
7.526638346199236718e-02
1.609608736885742315e-03
6.162135825365770529e-03
1.629888882772941375e-02
-1.363674955189615170e-03
-1.216295481374954357e-02
-1.493313740516492329e-02
1.993383144116058978e-03
-8.719075418577580672e-02
1.723624322581659724e-03
-5.644419832510958086e-03
1.933401059292090551e-02
-1.192987831396778893e-02
2.898423318926203821e-02
-5.060003664324387584e-03
1.623067589452713592e-03
-7.941433152510807281e-03
1.034660673510759063e-02
1.813087322218278480e-02
2.905305347319746614e-02
-1.021638041162832751e-02
-1.222356196187990816e-02
2.832216882162431199e-02
1.634905704954129832e-02
-1.201852740674342057e-01
6.849811173489067651e-03
8.042108732665548959e-03
-2.393468089863488510e-02
-9.901806647984439519e-03
3.872819387604301000e-02
1.669055303286184812e-03
-6.113057843640743068e-03
1.696894064787237560e-02
-1.156050989458811372e-02
-1.150487686476821952e-02
4.304371574340751586e-03
-1.033739362793036770e-02
9.147465281236047061e-03
4.228631836143134648e-02
5.698455135786974386e-03
-7.898476262817599736e-02
-3.041680089139049345e-02
5.345002615081343236e-03
-1.025835379533138886e-02
-3.484288936338633680e-03
9.362994866452209811e-03
1.013462557370218425e-02
-2.282666883109936342e-03
1.295204500893745378e-02
-1.411023945671605398e-02
4.973769805018837115e-02
1.434318838243571134e-02
1.275688536251369000e-02
-2.877941391637968416e-02
-1.410602575050676731e-02
5.449047121196638928e-03
-1.847535548321436669e-02
6.248128186172827170e-02
-3.510473403389410829e-02
-2.244969774288884182e-03
-6.887285519831530534e-02
-2.282974931375878445e-03
1.270737732723671749e-02
-2.233571687644928319e-02
-1.219500417689791489e-03
-1.646353595636831577e-02
2.123983990257789257e-03
-6.213061734405840586e-02
-1.675353752690432116e-02
-6.345878735319099295e-02
2.284172048202091736e-03
9.678063900068450964e-02
-4.411029344543186990e-05
3.598534499740880643e-03
-8.204396298267484580e-03
4.772284725240400621e-02
7.456628020201817517e-03
1.919318183334002906e-02
-1.451975944588480231e-03
3.143969882709052484e-03
8.284811319085279291e-02
-5.606922132203427320e-03
-3.165833552393419043e-02
8.125302338486020681e-02
2.859304306992589001e-02
1.060394599666813764e-01
6.920074266108430447e-03
4.066382491763474716e-02
1.906635366448573843e-02
-4.560989324166183148e-03
1.175767387133973274e-02
1.583051031085978486e-02
1.633621529415013596e-02
-6.710843347807150458e-03
1.234872050265652804e-02
-2.787067090033284317e-02
6.604147099349214067e-03
-1.069970594666626437e-03
3.008654106781098649e-03
2.678237114025141738e-03
-2.429998750019334713e-02
2.436815082194123891e-02
4.051220343497984044e-02
3.965807700191178314e-02
3.679201488221779948e-01
-2.315191770899361137e-02
-4.627045544704280755e-02
-1.184261870584875018e-02
-5.040478069582497896e-03
8.454654562355952419e-03
4.576668542050063571e-02
1.469078698457258400e-02
1.747544906466951542e-01
-2.138312125868705501e-03
-5.962755519091265770e-03
4.590323822100002109e-03
-2.405265020615136081e-03
5.672409115991689128e-03
-4.879216205121646860e-02
-4.399383163763532015e-03
-1.023868271907019470e-02
1.249960689691130000e-01
1.681942009157762555e-02
-1.031647946399702129e-02
1.123759491097259429e-02
-3.635683790273559757e-02
4.339851494589401504e-02
-8.096904638962902634e-02
-4.534908890765729922e-02
2.340922451793384790e-02
-6.052757938496220597e-02
-2.417731203790718375e-02
-7.094830403528559412e-03
-2.235239324131206920e-02
1.237703273829879325e-02
1.166123949024856429e-02
-7.771936568834228974e-03
1.385518394909639704e-02
-2.655398827622582666e-03
1.175625663984307540e-01
-3.839465733471687792e-02
-3.187620553944996160e-03
7.759045238128399469e-02
-4.746726249595719792e-04
-2.232248451738802139e-02
4.984519225791345792e-02
3.528933469075231505e-02
-2.262409034883827719e-02
-8.114425665793839962e-03
-1.638753280045408545e-01
1.426949479155653622e-02
-7.565280304030672781e-03
9.657648252107282547e-03
1.357593104376352521e-02
-4.888762063688882782e-03
1.416911924090849192e-02
1.866752187973581487e-02
-1.197000499490380454e-02
-1.035651740356436160e-02
-1.156752912517160746e-02
9.316282723638736121e-03
3.912520597907223141e-04
-4.936470900161706726e-02
-5.271594834396167717e-03
1.900016962871164602e-02
-1.257298370453348996e-02
4.519264266826861220e-03
-1.066629930602737766e-02
-4.751097809236919101e-02
-3.699060932419059606e-03
1.684471184990972425e-01
2.226727501376094681e-02
4.205023233797513908e-03
1.850508493837692628e-02
2.481816883990613579e-02
-1.362630073930245211e-01
-1.285158426706515047e-02
1.632298758771300387e-02
1.132493934996455925e-01
-1.628402287726125842e-03
1.299659513917297837e-01
3.019807897334685423e-02
1.233063258424415068e-02
-5.442601538840858254e-03
2.665330722596754437e-02
4.586302312243294155e-02
1.573465673429490230e-02
-1.071957097029846255e-02
-2.402543708053831318e-03
-8.997021912576523908e-03
4.125548681753123115e-02
1.134924824091490710e-02
-1.911479012493638024e-02
2.978005825451648242e-02
1.464545947728791708e-02
2.553809579658956452e-03
6.750239809558250190e-03
-6.157111900043115392e-03
5.942239672128192714e-03
-6.229255687490251048e-02
-8.637114190565313085e-03
2.748168374019687582e-02
-5.988160758891895169e-02
1.194310650024383268e-02
1.160092763144132157e-02
1.395761370143454305e-02
-2.596741510764456404e-03
-3.620596649355677533e-03
-2.130506494944877857e-02
6.459525173418218837e-03
3.377526640301527910e-02
1.500077742193803298e-02
-1.917368888763084853e-03
-2.024220748286499616e-02
-6.795441220780899794e-03
3.478888134755367401e-02
1.289399225132312546e-02
1.607802942182513101e-02
-7.870291482078751880e-04
-3.976366419872297969e-02
-9.293552585578179759e-02
1.136583017919122196e-01
8.752907084006212451e-03
1.515607214907582594e-03
2.384547176256007067e-02
-5.762040446914433803e-03
1.598530324084668913e-02
-2.028704989865103350e-02
5.254080122466114888e-03
1.426384782349111868e-02
1.865025139416370131e-03
4.888274386365021318e-03
2.527998395884228228e-02
-2.412215388016779316e-02
1.049329511875109720e-02
-6.845096476280084332e-04
-3.881432659398989168e-03
-1.368968053067223627e-02
-2.749072291721853939e-02
2.216062570796832609e-02
-4.944978137657922435e-03
1.534701028352043230e-02
2.603886609637762282e-03
4.980810372305487232e-02
-7.484635246697902457e-03
2.440899385859854331e-02
2.280755872319002037e-02
-2.385204464126756616e-02
-1.107061045898370955e-01
-1.730398246072048507e-02
-7.671844913442378740e-03
-9.119655232366187872e-03
-4.954831074291256993e-02
5.726480950737189435e-03
-5.400800518530726908e-03
-2.535385874036965789e-02
1.565963049397623569e-02
7.025447053116504886e-03
2.079742110352664555e-02
-2.306484302096430822e-02
4.861332486472468711e-02
-1.910985348670690698e-02
3.522750111182803429e-02
-8.211626155784993927e-03
7.252658864858764617e-04
1.485579756579109012e-01
1.398024239794547728e-02
-1.683479915804902277e-03
9.487502851880719103e-05
-1.341986012324661477e-02
-1.479256282299193717e-02
-7.863654610845420556e-03
-6.270034371486916600e-03
-1.014466710491955309e-03
-6.651306049351468630e-02
6.355060554481442581e-02
1.126516143407845297e-02
-2.291713586926351701e-02
-6.879386431715852658e-03
-1.477820913030040983e-02
1.043189691090606755e-03
2.989925652965209207e-02
3.125815681600068591e-02
-3.324256709509137032e-03
-9.001798181004603758e-03
4.497310380643548128e-02
2.262259475071208906e-03
-1.818110583156453547e-02
-3.662790454881260666e-03
9.628120712375560011e-03
-8.006702549022167228e-03
-1.119180355858043485e-01
-1.734155537030995439e-02
1.318224624036412607e-03
4.089526418836489374e-02
1.587471554579340458e-02
-1.653246466383445981e-02
-3.771170909820058259e-02
-4.411088836073297909e-03
1.730493864284929914e-03
5.187672190904858704e-03
-5.006009185240465481e-02
4.465820809999954122e-02
6.682414882286816758e-03
1.319316131234234916e-03
5.416071280700663834e-03
-3.895849218637189790e-03
-5.615876290020849031e-03
5.609510968064370696e-03
3.622493093696030602e-03
1.738443868114594032e-02
-2.294002607863008386e-02
2.581111154415431305e-02
3.175838863318958261e-03
-2.639309791211400490e-03
-1.662011818789260395e-02
-4.554306887695738770e-02
-3.764973430525916237e-02
4.811432248824193923e-03
-7.081994636269496168e-04
2.075265445780091408e-02
-2.032740268104445136e-02
4.860673169924961678e-01
2.161629027086858432e-02
1.286124243547304147e-01
1.867786012553904890e-02
7.212122338932439904e-03
-2.075335286496171605e-03
1.295423318588914338e-02
3.321362614521547463e-02
-4.689519102496092495e-02
1.471994750173744211e-02
1.229170551005755695e-02
2.237769474526872963e-05
-1.808562258785070473e-02
-1.187939334701486153e-02
-1.845777513526300527e-03
-2.788417978234764699e-02
4.537201236046268724e-03
9.053243880476609037e-03
-1.035284802868255199e-03
-2.017316599057179306e-04
2.890776672099789734e-03
1.737583835229050341e-02
6.664460003098481022e-02
5.372218300780758592e-03
1.433271577415672939e-02
-2.154389321554295300e-02
8.323225962604090256e-02
1.265323679370959804e-02
2.431937234496606062e-03
6.707501019328063196e-02
-3.520232305690530750e-02
3.146643514622027033e-03
-6.804232901182266299e-03
2.660594377572190333e-02
-2.594676132827490947e-02
-8.842915701120979870e-04
1.110630562767031093e-04
3.823383034146610963e-03
-3.797915382030402228e-04
-6.550679646212598239e-02
5.843193873911713132e-02
7.626910520727159942e-03
1.536599399060159955e-03
5.714657686640116016e-03
2.359412434078986265e-03
1.945026285149229622e-02
1.514541050245959454e-02
-8.796759145743330514e-04
1.043544060607656115e-02
-5.801051003373094983e-03
-5.898166724658994095e-03
6.636950505680066364e-03
-1.666968982910955743e-01
-1.632597839044108365e-02
1.838411891082676261e-02
-6.314741338894238644e-03
2.619730618295034244e-02
4.069815432034975394e-02
8.783545961581965336e-03
7.254835853107562300e-03
-1.309085392033265162e-02
-2.062436577328865227e-03
1.115447080313676856e-02
3.191239313951272760e-03
-8.731441500877927531e-02
5.044175095759220045e-02
-1.245890825038324483e-02
-4.267440630966234938e-03
2.867634877777274979e-02
1.639178365293479959e-03
-1.451397821866809304e-03
9.956138464766920923e-03
1.404868244473318761e-02
-2.258174284092942692e-03
6.785109470067282079e-03
-4.166786884776343264e-02
3.872021016617464145e-02
-1.285779595984596138e-02
-1.347296137267962879e-02
-4.696085840873592820e-02
-1.897230976269421304e-02
-3.544058009854064023e-02
-3.576251058484880563e-02
8.738994055250472529e-03
-1.741188181368342677e-02
8.111543313260244706e-03
2.022582019023684737e-03
-7.390842065189754534e-03
1.760832122600165112e-02
-1.145555861824136892e-02
1.657570058438843225e-02
-7.224097328641443383e-02
-8.666422112683501433e-03
-5.071046697419753953e-03
-1.246713706926796082e-02
-1.023448374373493036e-02
8.600563094322355787e-03
8.056199807730906465e-03
-1.774558181148171709e-01
-3.983560468040412555e-02
4.208411827025255320e-02
-1.159438894928163308e-02
6.454796438469161124e-02
-1.259862103654430660e-02
7.783926067781851352e-03
-8.083258268902328639e-03
-5.678147288637154511e-02
-7.048762343538711450e-03
-7.438423440137280351e-03
1.797713417316278151e-02
-2.211222804757143404e-03
-9.270506866006290522e-03
-1.745253707391790712e-02
-2.354559065249570496e-02
2.738284584368800081e-02
-9.628213539083600725e-02
4.221442410309170050e-03
-1.030645254715852402e-02
-2.935175612655039831e-02
1.746209124379658265e-02
-3.184670664756392156e-02
-2.478552643301897354e-02
7.627404701752282974e-03
3.340547141232852804e-03
2.864320970691372134e-02
-9.022996178799133626e-03
-3.321831270007889747e-02
9.887068103665472285e-02
-1.687428308923022186e-04
1.521043363047649803e-02
3.247068315666696431e-03
2.743893125960827992e-04
-6.040107701625000575e-03
-4.755914977145859861e-03
-1.786713062174843589e-02
-9.509832569023528998e-03
1.385687623461635994e-02
7.767885065365848565e-03
5.656868059853563738e-03
-2.380012963176561178e-02
-7.556752301613282874e-02
1.088087661401716116e-02
1.407744868826987968e-02
4.318792921856326461e-02
3.555417729558069118e-02
4.445532239967285928e-03
1.381405248687000466e-02
-2.229441806450467231e-02
-1.511482080349231365e-02
-7.899200407602295984e-03
-1.166756961340875091e-03
-1.567145095855549883e-03
-5.181996266996739126e-02
-4.021198212347865120e-03
4.958093784664658471e-02
2.562008847422771879e-02
-2.601149939994608709e-02
9.519496861379745864e-03
1.051760043498736839e-03
3.658176856978825886e-02
-6.199264329560828617e-03
4.548183853290746481e-02
-6.783029273013468918e-03
4.960168479535517240e-03
-8.302552393016418824e-04
2.875754031462076157e-02
1.762553358787481358e-02
6.561685913246320841e-03
-2.752077646827467278e-02
-4.888769342624978143e-03
3.519406635488297325e-02
1.194264333233429343e-01
6.866237476930101002e-02
-1.480043535630604437e-02
-3.387621813523001516e-03
2.335635094120600344e-02
-2.529526019689832747e-02
1.130173199652126370e-02
-9.686365921810703022e-03
-5.844618583103441609e-03
2.346200860292992768e-02
-2.698813863921384337e-02
1.093829601679089866e-02
-6.879062450155531971e-02
-2.876524107006291076e-02
5.669607579873079360e-03
-2.415355514296604975e-03
3.807660886783879178e-02
-1.701212500441125902e-02
-2.071796568130497562e-02
-2.194313743595054274e-03
2.145651313571263555e-02
2.156479869663020243e-01
2.507539379032504984e-02
3.136683095758126261e-02
3.756532320307650122e-03
2.409516854132424599e-02
1.500633361028610308e-02
-6.504805812383458903e-03
-2.310250293121713164e-02
3.552053251119149935e-02
1.292292066702584001e-02
-5.979160535887072421e-03
-1.742568072810951824e-04
-3.931268358573620364e-03
-1.572227076060653955e-02
8.849613061692495827e-03
1.745214925629171368e-02
-1.775022667791625874e-02
-1.240415910672975144e-02
3.057371863299582129e-03
6.757323021886744129e-03
-6.244605845451359390e-03
-7.464244428765335823e-03
-1.913899742171330451e-02
-9.033696224271678399e-03
8.199440524063624641e-03
2.926412746676972619e-03
-1.576074833238487113e-02
-2.186841271560609895e-02
-8.185377186770247462e-03
-1.140178812394393969e-02
1.007805636624531549e-02
6.871873546699647228e-02
9.622551994720196858e-03
-7.043994584600313073e-03
3.066619878914181915e-03
9.929965991727761343e-03
7.087417784467496540e-02
-3.514861533571278507e-02
8.973190694024489600e-03
1.258644324246639516e-02
1.411239107955905830e-03
1.071988907229402994e-02
-2.905660949321192676e-02
1.992057114387665862e-02
1.647335104585601062e-02
5.954423504770423037e-02
8.152159637748701906e-03
1.460204836267285471e-02
1.541570705940827068e-02
-1.849256355084134829e-02
2.858084500607129680e-02
5.133701847768460530e-02
2.973696946831285229e-02
-3.647116259548676548e-02
1.976639839796525203e-02
4.967607994590963333e-02
1.726259667587359825e-02
2.949938271877065588e-01
1.429294299711451194e-02
-4.017097284048314239e-03
-2.099714268234645353e-02
1.392428936502749549e-02
2.223550715235224906e-01
-5.172545178800332794e-02
-2.247969854289649273e-03
2.226219325791628165e-02
3.875793419900893776e-03
1.222163035411864482e-02
-8.236675323997457929e-03
4.366692372891159066e-03
2.373261862177102489e-03
-2.369372285964013031e-02
1.139048297872251314e-02
-1.023444467796667291e-02
-5.759398242202504181e-02
-1.454024482579722478e-02
-5.995141737407869154e-02
8.952613803363174139e-02
-1.366818533547872402e-02
3.691950253534217324e-03
9.933658254532144738e-02
-1.452459418138493143e-02
2.874808440116443688e-03
-2.483854212009248014e-03
-5.888989745814054988e-02
-1.106674095035217742e-02
-1.395413557197570237e-02
-3.274903690489972072e-03
-2.917667421041529943e-02
-1.287870961087058709e-02
4.446488182118943366e-02
-3.247469249151204579e-02
-5.182020100458912745e-03
4.788599576671914715e-02
-3.832008640317698112e-02
1.855339571430138137e-03
-2.085905015359081072e-02
-3.620662070688133310e-02
-6.250102349520895301e-03
5.359253625657548620e-02
-3.876944172403347377e-02
2.752985336642504652e-02
7.553304739096848575e-02
-2.823834013740058463e-03
1.657900834182570934e-02
-3.841047781540151383e-03
7.632574672427992757e-02
1.040135873392282299e-02
3.525460664324955862e-02
-4.407357697234997695e-04
-4.892443417458603935e-03
5.587081437856678684e-03
-1.408028308160646017e-02
4.786473250080880426e-02
8.667483545656219993e-03
-1.016314695517029770e-01
-6.730420744121054901e-04
5.438032535874113421e-02
5.112929947050243347e-03
1.704198186748506413e-02
8.423927000735027815e-03
1.159114245969499087e-02
7.391364375553555188e-02
-1.682267591343997171e-02
-9.537063114039416936e-03
-2.500455173343084370e-02
1.775567523438306011e-02
4.112166662068543650e-03
3.175602737979681123e-02
-8.658253823607689470e-02
-6.930123609158858611e-03
-1.121805387917881869e-02
-3.533378808761812595e-02
-2.381714951879359762e-02
1.552409154988894889e-02
1.705868070684006099e-03
1.354813715148000348e-03
-1.835626163199611735e-02
-1.593635784043003281e-02
-3.687840321828152884e-02
-3.894900509876687011e-01
-5.002964409582524169e-02
-1.092170630357516825e-02
3.110489578816885616e-03
-3.316072813074467246e-02
-1.569413240993829464e-02
-3.212228958153177938e-02
9.609119271562556464e-03
-1.969409679912658556e-02
-7.528654647280280665e-03
-1.672682929506262963e-03
4.420302001337595571e-02
1.888582682519777609e-02
3.047450674499834616e-03
5.518560112713797108e-03
-1.474125112636839874e-01
2.847058055325258838e-02
8.001112816280494047e-03
2.848040673827817362e-03
5.536114955761022374e-03
2.586824281153537325e-02
-1.115315986225799867e-02
7.257668793143218743e-03
-1.429119047175267908e-02
1.259929530005237525e-02
-3.424084833656774671e-03
-5.975223483571526217e-02
8.631726422031001447e-03
1.819018186797812311e-02
-2.889902435869355635e-02
-3.671213110246890343e-02
-2.502605225521540092e-02
1.525573586741725274e-01
2.474268190043607107e-03
-1.166706046970061167e-02
1.100287979723438420e-01
7.068779830812048359e-02
2.032073709925988694e-02
-1.739065383354538360e-03
3.859627150247998094e-03
1.534103198926840047e-03
-4.579236865201803848e-03
-6.451224417981822092e-03
3.397562328750287214e-02
-1.356470904106427469e-02
-7.897218670008348401e-03
9.984695748663990206e-03
-3.120266425126097531e-02
7.002896764315293988e-03
1.141532683265690561e-03
-2.769239629755490539e-02
-9.669332077034650461e-03
5.010811106770052259e-02
-8.488439473200494467e-02
1.824284505456251135e-02
1.395938399662480190e-03
8.284535109948381769e-04
1.892369953266870297e-02
-3.008755053010614237e-03
-5.611928410656551701e-03
-8.531765595177930777e-04
1.185191265785960103e-02
7.755087047120402984e-03
2.891614608174244636e-02
-2.364895793730875384e-01
4.715280104799562250e-02
-1.232001887278221831e-02
2.819174185111657585e-02
3.270517687770184423e-02
-1.604426531804253181e-02
-1.107693628525002402e-02
-1.013041575558911583e-01
4.931918261358950520e-03
-7.383778793071718582e-02
-1.081049927149211297e-02
1.657084390252103710e-03
-1.154801397072551840e-02
-5.504514910376350628e-02
1.912242492389978812e-03
-6.045858850436436858e-03
-3.200005018048177052e-02
7.051725407147817204e-03
2.142673595699628314e-02
2.738109175521464753e-02
2.372530147211217993e-02
1.653229450193867411e-02
-9.715594442282588297e-03
-7.494631909794483102e-04
-4.457816288693550871e-02
1.214130627085149156e-02
-3.771457310586308342e-02
-2.308790437400768877e-02
5.237011270782652300e-02
9.524940024924807846e-03
1.734609795621568432e-02
-4.896647680569382599e-03
1.164590490890867087e-02
-4.324815839242911360e-03
3.486867112491327716e-03
1.074259169131364447e-02
8.739867048786269244e-02
-4.453844502347607294e-03
2.204846493019816528e-02
3.556014341109857511e-03
5.583179695484608018e-03
-9.394163715391666124e-04
-3.847954617829285606e-02
-1.923817394278245704e-02
-8.306015259100889975e-03
2.270888316725480031e-03
8.734465876384474303e-02
3.940592894384952957e-03
-7.112853125856398581e-04
-1.032848933280365589e-02
1.236631991499151373e-01
1.204718989635738396e-03
-4.498330557111920869e-03
-2.298049666027707216e-02
6.084381917641197221e-03
1.985714718796930886e-02
5.010520455869645279e-04
-3.664204875074686396e-02
-1.775433112981979894e-02
5.843727142175193226e-04
-4.390188910608062295e-02
-3.762191984296224534e-02
-1.844894848618688563e-02
7.523474398039872377e-03
-1.760133488920815129e-02
-1.861519371803496692e-02
-9.015638570772286503e-03
2.373781646450511332e-03
-1.149698907383875021e-02
1.550156927036711735e-03
4.704289934975684762e-02
5.543636587112094408e-03
-8.538772351633060198e-02
1.759598733037536509e-03
-5.339772756949470039e-02
-4.330882825865641633e-02
-1.938192738915472599e-02
-3.423055714802231142e-02
2.211086305726151641e-02
-2.577657477047544041e-02
1.175028021858275616e-02
6.624089993079863674e-03
1.313192516472960480e-01
4.402945165394110683e-02
6.318634638928051495e-02
1.717090047925684190e-02
-1.144963059532007159e-02
-2.706037470944193911e-03
-4.789856922154489549e-02
-7.049972506562808029e-03
1.915955294335623324e-02
-2.624701293459957840e-02
-5.229583617639515375e-02
2.078313456321263797e-03
-6.979916195654997657e-02
1.589264529075896243e-02
2.262541155929798445e-03
-4.961554133848592590e-02
1.688290239688280264e-02
1.471637708241834786e-03
-5.950261508260352734e-04
3.765666726873531829e-03
1.943940396636523876e-02
-1.655593785534177284e-02
1.077732156370622869e-02
-1.605799503930653224e-02
-3.466998206796309892e-03
-7.244448851367102371e-03
-2.000134326056008521e-02
5.800476514182682786e-02
1.851971441535362264e-02
8.198601365979605801e-03
6.429770180812796609e-02
1.198157070693027970e-04
2.901908547030057021e-03
-1.310700501113890547e-02
3.056347799895212450e-02
-1.559347566607798691e-02
1.292040981189748923e-02
1.582094935556092527e-02
-1.118234763272145556e-02
2.284910853568031600e-03
7.342257416794157818e-03
-1.682008119432506013e-03
3.748910709559607340e-02
-2.572779559802411756e-02
1.844620695865715684e-02
2.195703523649438285e-03
8.228678583868064694e-03
3.016645536930633292e-03
-3.622082094852707712e-03
1.227851293843806868e-01
5.533481555065543692e-03
8.458854631130225364e-04
1.613130704651885572e-02
-1.033949259148506978e-04
6.276128963008162538e-03
2.673396242357523565e-03
5.592932493219156254e-02
3.070062491094124272e-03
5.951294167903039764e-03
-4.093037119233528670e-02
7.279310540143733334e-03
-2.103928169639566678e-02
4.930730358740976517e-03
-6.911020647447347828e-03
1.021423875394777830e-01
3.447915113681465030e-03
-5.587113606952764412e-03
2.368101791001168965e-02
1.269207447532872367e-02
-3.460537863592851870e-01
4.083596499271253955e-02
-3.810641462252539226e-03
8.700050595734649950e-03
-2.872355578091024750e-03
1.175013495458619196e-02
-1.486698131021781805e-02
-1.877798283042370064e-01
1.485670141309122631e-04
-1.502461224046503212e-03
4.645121803614319506e-02
-6.673214998499463896e-04
-3.674179028494304472e-02
1.170489098220056992e-02
-3.955846413848268517e-02
1.055381554367312846e-01
-8.290531820261642926e-02
-1.129130540562787565e-03
9.394083857622458414e-03
4.399876713108409609e-02
1.111996450197557523e-02
6.454804453032599032e-03
-8.191394008664939705e-03
2.509708439700865813e-03
-3.083364323464937024e-02
1.732268864223750204e-02
1.203600867926919379e-02
1.284788104046510372e-02
5.923509310677350231e-02
9.802141640036069609e-03
1.965420436046817071e-02
-2.153711762411272823e-02
1.803389562280657832e-02
-3.832135738933940047e-03
3.107298345469205851e-03
1.849462310852282437e-02
-5.284520506602555928e-02
-1.181667462784179168e-02
2.298639217328151199e-02
4.348842957331712500e-03
1.092258859197102602e-03
9.433864523679049915e-03
1.649383168903698071e-02
4.401246852869623166e-02
-6.789229645261028560e-03
2.841819276329291336e-02
-2.351652668487507966e-02
1.046607286973205535e-02
4.100043217411843133e-03
-1.221966436239023401e-02
3.237874444648084632e-02
2.518714567453537306e-03
-1.433026124053525703e-03
3.858456307422884757e-02
-5.690781721015948647e-02
-7.342434866487231905e-03
-1.123293082323359275e-02
-3.040921246870965239e-02
4.036345997298460171e-03
-6.228696683402076828e-02
3.318754503707129974e-03
2.734742264996556718e-02
4.904207390099766389e-02
3.284590991123973597e-02
4.061244068966317344e-03
2.398704116366864869e-02
1.742399694321793494e-02
-3.061460995531863332e-03
3.602783128545030550e-02
8.890255042100642102e-03
-6.558107808841683387e-03
7.150885280813112400e-03
-2.845965297297147270e-02
1.603249709421124963e-02
-1.274588208516047767e-02
6.202023467518825821e-03
-1.127440789772092555e-01
1.461939686837880267e-02
-2.236654002180010758e-02
-3.474054413983011791e-02
-2.519653813791652183e-04
-3.804240217808987912e-02
-6.458686860480811198e-02
-6.542308211299632803e-02
2.035216361892073014e-02
-1.941983934729166195e-02
1.437879229279736019e-03
4.108455325617750564e-02
4.866964451899485899e-02
1.932190350260718989e-02
3.537465044412300714e-03
1.609700590126192030e-02
-4.175824093653753705e-02
1.844387419866507297e-02
1.783719954892883444e-02
6.156906415770238734e-03
4.014375057581564231e-03
7.112245708928818973e-03
2.743004853720238181e-02
2.479915073174987494e-02
1.167910249036325093e-01
1.296363370946660787e-03
-1.015418664737948763e-02
1.179356761342678223e-01
1.732434401984151578e-02
8.239762904123432152e-02
8.249186354792027720e-03
2.348416555378009599e-02
-7.297031100353043413e-03
1.014125215677118101e-02
-3.192484386315225936e-02
-7.950709495152143494e-03
4.045999699127016472e-03
2.148331904396692457e-02
1.517918198896021009e-03
-1.555583422410655552e-02
1.301137208815628284e-02
-9.718257238050727678e-03
1.096899372377749780e-02
5.348182675711864176e-02
-1.370397988886037574e-02
1.101133156685998177e-03
9.757175116493521302e-03
1.136111598250466419e-02
1.084932843522012740e-02
-4.094013556410223964e-03
-1.706370281023100862e-03
-1.393631848518794847e-02
-3.160420708824423358e-03
1.033310607207625631e-02
1.165923303742623894e-02
8.871995131129925202e-03
5.190353348483230794e-02
-5.669388712387434665e-03
3.025403812330909603e-02
-2.058535797432746103e-02
8.978545225854600575e-02
-7.656818902309525839e-03
9.260590312319729941e-03
-9.821468916714001449e-03
-2.476612531269180989e-02
1.793613451562657210e-02
-1.871551894223423551e-02
-7.584111270273515525e-03
3.957332944910979533e-02
1.141982714678259174e-02
-5.209514774972282686e-03
7.424374741131525152e-03
-1.788977239611820938e-02
-5.557970490221519899e-02
-2.296493548627004649e-03
-3.363617144974722500e-02
2.262929748270159011e-02
5.147638122323338478e-03
-3.372668218195857409e-02
-1.585365132663285256e-02
-1.712406025488152211e-02
5.281616248610346981e-02
3.159541024485025551e-02
1.807003125655613773e-02
-2.323460386810273157e-02
2.425994492203140118e-01
1.137704907424391329e-02
1.606361160090651399e-02
-2.009416779631792698e-03
5.234887651849007978e-02
-1.922310180539553784e-03
3.170222566979454676e-02
2.629496935657273798e-02
3.590769706850476667e-02
-4.357218808130543242e-02
4.325619990238846468e-02
5.199389630129261711e-03
-5.296163423650364355e-03
-1.443779906051197437e-01
-2.543613783351794666e-02
1.139006787360237298e-02
-9.146814418514656597e-03
6.000053682932287961e-03
2.158800245952999448e-04
2.176355041085545686e-02
-7.931248724078725221e-02
2.251950619627966083e-03
1.973741221687527053e-02
-1.422801195630724741e-02
-3.454385034515487091e-02
-1.074200953904846413e-02
5.215934267649422786e-03
5.897362006445067313e-03
1.170333239024273636e-01
8.815602910952723484e-03
9.902156502125291498e-03
-1.502846863500974023e-03
3.359901661502692066e-02
-2.635556203293177094e-02
-5.795838667508152690e-04
3.072739767837001125e-03
2.260955141703068806e-03
6.751421594904152487e-03
-2.411145165039099703e-02
1.286098907890741508e-02
2.450729478666074240e-02
3.509311557060849907e-02
1.146800498034294090e-02
2.590272720940496338e-03
1.406617769503779557e-02
-1.131945034878505292e-02
-1.092880253996377990e-02
-1.060784027876750767e-02
8.109583783804110227e-03
-2.952152203089886129e-02
-2.471060118095200903e-03
-7.150089983513488456e-02
-7.296496157352103974e-04
3.078806816423647314e-05
1.979827745575221329e-03
-1.511197386145157751e-01
7.308286892245070832e-02
-1.095557039584450429e-02
-1.401797768605200951e-02
-1.350011354048562956e-02
-2.496319173984059767e-02
-2.149506763086018665e-02
2.802303306994027160e-02
-1.504889536963452748e-02
-1.317098605763218286e-02
2.965805034922588609e-02
-3.047954702740225674e-02
-2.442474916766923521e-02
-2.860839366797143096e-02
8.052800898427230764e-03
3.114100577552782190e-02
-1.491982835559092953e-02
-8.932758705157511220e-03
-1.309927104135271900e-02
1.074071969277302224e-02
6.474461615255507931e-03
-1.454192979124770309e-02
-2.268898160052819704e-02
2.687384493164510918e-02
-7.354599714351395603e-03
-3.766110259883381772e-02
1.608582034651129256e-02
1.366830670734015332e-02
1.663126672122983152e-02
4.290194849066133326e-02
-2.239000988208705162e-02
-9.770957608564908789e-03
3.814745849074650114e-02
6.468843216479307212e-02
1.425387049478375918e-02
4.755140278557787314e-02
-3.840844938727647640e-04
6.696557185549160789e-03
7.107767930897557901e-03
-2.942342351968025606e-03
-3.181176992834574419e-02
2.068643404016700868e-02
-4.006255517520899978e-02
-9.834648811721450126e-03
2.503567663345408496e-03
-1.070649307822286837e-02
-3.200094288688323796e-02
8.056342911322759981e-02
6.006760365562129923e-03
-6.166731485642517469e-02
1.152178186560142911e-02
3.588750652956106818e-02
-1.934675290340156714e-02
-6.074975888904203536e-02
-2.260032820901594630e-02
2.236506889044126423e-02
-3.461922402072329947e-03
-4.700894444789820159e-02
4.349868418745793906e-03
3.502443564136099863e-04
1.463638448632639897e-03
8.072965232868743041e-03
-8.303863765292771731e-03
-5.758167924663634522e-03
3.513886435354875160e-02
-3.142766053694885653e-02
8.474160564602394030e-03
9.905570001623001039e-03
-9.366723716153105977e-03
1.500686346520201412e-03
-2.261273883350116420e-02
-7.652545234044618068e-03
4.155877793914090207e-02
3.083389468745927411e-02
4.245658425097493041e-03
1.798869419417967023e-04
3.298730410300727833e-02
-3.103364442093817926e-02
-1.020382541071064748e-02
4.816274485711765675e-03
-1.030408644751982898e-02
-7.479939936619387636e-03
3.722994582670918762e-03
9.940006306309910611e-02
1.232033468356145446e-02
4.984434672947215400e-02
9.332098254814470348e-03
4.060080160836153362e-02
1.560724782451406757e-02
1.143119663038747597e-02
-8.471427396317570465e-04
-1.415390212849390247e-02
-5.121723475177720336e-02
-1.253819283768647409e-02
2.265688464271469263e-02
-4.510973545815942509e-04
2.570642913920924422e-02
6.474379124684174168e-03
-9.060365887173873339e-03
-4.678285722753409981e-03
3.968868375879573002e-02
4.194737152609195885e-02
-4.628125987368643737e-03
7.745176986345757297e-02
5.433475926311604615e-02
2.703855826206466237e-02
3.763363050314479097e-02
1.837268525551562920e-02
-1.659331255319876006e-02
-1.050688692199255522e-02
1.173964044454928017e-02
-2.288553078343046054e-03
-9.913543966165380694e-03
1.173349137816990725e-02
9.707074980553080570e-04
-3.285828652392058791e-01
-4.726739418368212930e-02
-3.424281062345439081e-03
4.592639684248586013e-02
3.042137297326615139e-04
1.396691065258117564e-02
1.067322110385729265e-02
-1.004138377490942403e-02
-2.621500897055254603e-02
1.357270234605780120e-02
-6.264314161084047136e-03
2.738963826122792645e-03
6.153062032174429728e-03
-2.791123545874246159e-01
4.703637744392666527e-03
-1.741937304849678833e-02
-2.495806921285864156e-03
-5.198249437575913623e-02
1.301790032602770202e-02
1.684020106709885681e-02
9.867634560787173770e-03
-1.365081350387826326e-02
2.858421403059925592e-02
6.810846924625325871e-02
-5.303740862664308407e-03
4.514724335195650223e-03
-1.989035662532861320e-02
-5.221876702234928488e-03
2.101486064810660637e-02
1.336413708450967172e-02
4.197188232689220456e-03
3.054719930802463220e-04
2.567178632406057204e-02
-6.069119018550033461e-03
-3.055259870203916664e-02
-2.221207648293515441e-03
-6.139065114609189300e-03
1.013067213766780522e-01
1.304700144338742651e-01
-1.064142585413840533e-02
2.222261806105632013e-03
-2.334419005875307263e-02
1.756781753256321521e-02
-2.079784061877769097e-01
9.239499645291571889e-03
-1.744081566124623672e-02
-2.963937282660873002e-02
-3.029856346676967210e-02
-6.239966959837087851e-03
2.104846454863605956e-02
1.313062318399470067e-02
6.165331458540059678e-03
-9.759333562679519541e-03
5.820329560834041922e-04
-1.910467425300573993e-02
3.638022065883803752e-02
4.538367697197281253e-02
-5.449907921320461257e-02
-3.513214659260640443e-02
2.023414438273898192e-02
-1.719317159968647424e-03
1.830093837573927346e-04
-6.249243994701485921e-03
-1.880825242313101039e-02
-3.207515663693017577e-02
-2.942488819502177971e-03
1.119314434241507061e-01
9.200229511388997861e-04
1.134711068510056188e-02
-1.283787023114364712e-02
-1.191994950480031873e-02
-1.126290662252728281e-02
-1.097947620442110139e-01
-6.613758556369408841e-03
-1.528421202170577864e-01
1.533401873152799404e-03
-5.897092764844351744e-04
-1.393541506037958115e-02
-1.480330352069172788e-02
3.541274402327414944e-02
-6.959589596173642971e-03
-1.165567144905643423e-03
1.571358619351163194e-02
-3.779368385771270100e-02
3.136299116176284596e-02
6.884954178254121086e-03
1.687344652972326206e-02
2.115195584010277213e-02
2.321287050844310015e-02
5.469546510251434290e-02
7.160667586419814518e-03
-1.163060040334639063e-02
-1.986632958930490138e-04
-1.443413514082231156e-03
2.295020577242342860e-02
1.218230846938545692e-02
-6.249711898205062566e-02
5.133915988707891780e-03
-5.120650984638373121e-02
1.343850027563988150e-02
-9.658653704320088046e-03
2.235864815016124982e-02
-2.672388657859567709e-02
-1.073983396614481139e-01
-2.183123908559681317e-02
6.212279354066927058e-03
-3.349242795330235195e-02
5.941829647306084636e-03
1.535697353698024098e-02
-2.138952964080422653e-02
1.851277312329565120e-02
5.427392343476502429e-02
6.178612572827590910e-03
5.340579808149058553e-04
1.052241065423304735e-02
-8.712033727606068381e-03
-3.908202012854335161e-02
1.417557573982768972e-02
1.134023240110111977e-02
1.800744612121655749e-02
8.926355097108415459e-03
-1.547754665067881986e-02
1.840844371526933251e-03
-8.421888509033009090e-03
1.421714624103878333e-01
-5.002888995507820402e-02
1.070431687664455704e-03
1.658892786488196797e-02
-3.421081548078258594e-02
-2.553759536385285384e-02
3.312799581553634715e-02
2.087302035765183084e-02
-4.281453326027940924e-03
1.092473700523705418e-02
1.099678564716468840e-02
-8.631330516105355927e-03
-1.318772664117177007e-03
6.002157900878924562e-02
1.521879346535200996e-02
-1.620585350980776468e-03
2.263125674925031694e-02
-3.494003027931812545e-03
4.240489563406978253e-03
6.740927641190276598e-02
-2.793824586528041026e-02
6.138240270170122921e-03
7.677071650413879594e-03
-2.291692030400919317e-02
8.127659915764806620e-03
5.216397754897774547e-02
-2.148762968277290533e-02
3.475815580225309620e-02
-2.263459763511345424e-02
-3.429976344247713613e-03
-9.960083716950805799e-02
4.184793001887766872e-03
6.178103558703082823e-03
3.381461411575827775e-03
-9.231453288197829024e-03
2.487061281510590666e-02
1.012863853358663205e-02
7.827448311161834885e-03
6.322471030328081706e-03
-9.667542523377425923e-03
5.029756435264234622e-04
-1.007447188245369149e-02
2.964976821189390863e-02
-3.117727747754117564e-03
-2.568113242130654061e-02
-1.463976262092335848e-02
-1.608570225063292447e-02
2.411995766610649031e-02
5.314734301161267577e-03
3.907389814982287907e-02
