1.321669376611799840e-01
3.228698078406765093e-02
3.695436267330932251e-02
-4.591741641369694732e-02
-1.212514505439783036e-02
-7.316691320280174771e-02
-2.655729897149879462e-02
-2.292319680214185140e-01
1.667259161927242550e-01
-1.242807918484048757e-01
-1.506478148129455352e-01
-8.648063582531938243e-02
-2.806431383053353823e-02
2.709245948521180752e-03
-3.204001024959166749e-02
2.258986620877097284e-02
-1.873871311657172335e-03
1.202528385446038767e-01
1.781328850618657533e-02
7.053580267493862743e-02
9.323687744297246005e-02
-8.659315854787413488e-03
-5.554239164103556142e-02
3.571391628704052076e-03
4.027351360803387015e-02
-9.124641735680012744e-03
8.761618629332637576e-02
-8.610613489964248635e-02
2.023656689224178906e-01
1.680351773162177820e-01
2.817256645394061176e-01
4.433369849094504489e-01
1.205921470944667021e-02
5.493385417148530930e-02
6.284488158007354996e-02
3.705362000384757049e-02
1.112832039312606491e-01
-3.965768661919198967e-01
-5.697483382438227328e-02
-2.535168466142150856e-01
3.117232139073788585e-02
-2.011064051689184784e-01
4.826806236681180189e-03
-3.202996499649326395e-02
-1.923661004162346699e-01
-4.874520688050681255e-02
-1.222962502599655721e-01
-6.446155116562637954e-02
-9.179765767343350813e-02
-7.003172806566591857e-02
7.303593404699723103e-03
-4.894842195528099904e-02
1.747674518482830175e-01
-2.761547671045769814e-01
-1.210163107570867286e-01
1.026792216055629064e-01
-6.939382557340734170e-02
-3.097860555845018127e-02
-2.918543897812043153e-01
-9.224262803926605581e-02
-6.586916876895221318e-01
-5.524951429407982256e-02
4.183023314553538374e-02
2.055248070615666237e-02
-7.483893955260444431e-01
-3.027893419744587256e-01
-3.109974263673262115e-02
-1.953679702970569365e-01
4.912919879777431081e-02
3.504218473369694054e-01
1.164041831186378717e-01
2.613002532750437895e-02
3.367659118047754141e-02
4.835069263787052790e-02
-7.319918578098502659e-02
-1.097995035575049516e-01
3.529347292145903342e-02
-4.347084419852954851e-02
8.912301509020141566e-02
2.232249739940552619e-02
2.841931534999488302e-04
-3.805356107318998843e-02
1.520859791323998234e-01
-9.574456164432307292e-02
1.308661761336980638e-02
4.823758827138834859e-01
-1.781515807402522245e-01
4.305201551203695354e-02
-4.688578927050539996e-02
6.769082301262174806e-02
4.292836409403170267e-02
3.061825387238927276e-01
-1.733028731321304208e-02
-9.790408947537218576e-02
-1.124149827445023592e-01
-1.180370821932793801e-01
-6.189524573473826896e-01
2.883008449243618099e-01
-6.657660309472010485e-02
5.707190353108133191e-02
7.045346045450720518e-02
1.694707807104151726e-02
3.194770798406330603e-01
-1.776973229560730588e-02
8.298105740237314565e-02
-1.131841193483043226e-02
1.811659482148225697e-02
7.041500306901048167e-02
7.941153888570261221e-02
-6.562285149510842241e-02
-1.973573919995276760e-01
4.878442788209307046e-02
-6.594732790459278612e-03
7.897570116669888618e-02
-8.798408366758093957e-02
-4.534283393240471499e-02
8.997972551747691894e-02
-1.619570020460515403e-01
-2.384340277472388886e-02
-7.573955096285403532e-02
-5.590184453698653771e-02
-1.073903558065278235e-01
-6.515507600671736899e-02
-2.324210601232359636e-03
-1.830359591688086873e-02
-6.600123801245806957e-03
-3.414546292096522911e-02
1.162743985505143296e-01
6.473220936349749488e-02
6.315851756249574178e-02
8.479238343141536072e-02
8.250290248689265415e-02
-4.946783168188957636e-02
-5.153906262107429970e-02
-2.496962572183827889e-01
6.165036126153491253e-02
-4.552834726871470006e-02
-2.277621413254125177e-02
-4.783743381703867842e-02
-1.443954870555732573e-01
8.103102490963395854e-02
3.067744852245485321e-02
1.151826717727488791e-01
1.639333671986338559e-02
2.493723311266609066e-01
-9.259353408130261906e-03
-5.675284920230607572e-02
7.329106623507761209e-02
2.579275923089816361e-02
1.392992604787262473e-02
6.000452940939060564e-02
-8.640696753317686496e-02
7.962703559875447534e-02
5.698901240177376565e-02
4.798087547605888598e-02
8.361634837090170524e-02
-1.203486157895157782e-01
-2.201526847310897594e-01
7.858875496641341829e-02
-4.778514738868176043e-02
9.806055998892571068e-02
-1.045189646616889317e-01
-2.151305223079332807e-01
2.961227149418869248e-02
-6.990504693972914019e-02
8.318436688634607556e-02
-2.765091616981150691e-01
2.933130256613948258e-02
-1.626299803277254930e-02
-2.784566962462784942e-02
4.230424922637614736e-03
2.509370323451417042e-03
7.489187138689722134e-02
-4.880617921356839028e-02
-1.315098280329765612e-02
3.341579699546523563e-02
1.044666914905049704e-01
-1.349813417985660791e-01
4.021313662775097275e-02
1.793881119892690723e-01
5.225736691673673467e-02
-8.687858995865066492e-02
6.760185545008449981e-02
1.316103536532674256e-02
-1.782361343144264754e-01
-5.483686307709884078e-02
6.396557184770365612e-02
3.097559106959467679e-01
5.973780318474239404e-02
-1.287259893185171977e-02
-7.318398722374210019e-02
-9.385450192822589188e-02
-1.413592872237844356e-01
-7.768158738222835646e-02
-1.109529975710464994e-01
-4.154627696052923952e-02
2.075395628273214998e-01
-2.230109174511620343e-02
-5.339117435856812616e-02
-1.802852848740145800e-02
-1.239137617479112025e-01
-2.284729007626074004e-01
-3.156633024511787400e-02
-1.758193121563052241e-01
4.299593495282511002e-02
-6.322228295735558834e-02
6.930930493658969682e-02
-3.693874299312599474e-02
-2.075065167674458033e-01
2.391677535960460774e-02
-9.287002162229397728e-02
-1.460607607614121672e-01
6.379670644458761142e-02
-2.572419212060580735e-03
-9.227922563926722888e-02
6.011562838654670171e-02
2.543967577863056814e-02
7.370175360525384189e-02
3.759526537223483594e-02
-3.909763890951592491e-01
-1.711394267429874605e-01
4.648563791248093609e-03
1.814377024984218656e-01
1.554325551890475277e-01
2.275590795393224106e-02
1.143603701895301757e-02
-7.203800718635468281e-02
3.056417942260678672e-02
1.741645941669220932e-01
-1.059642095167908776e-01
6.868236317336739137e-03
-1.434778137190841629e-01
-1.948233292317247400e-01
-2.173299407337667133e-01
2.216827312820575033e-02
-9.932113377841290947e-02
8.189645417391741566e-02
-5.087446610684514398e-02
-1.765873675313544069e-02
2.208818665441732512e-02
-5.279674118174844388e-02
2.249408574836979022e-02
2.909763828469317803e-01
2.099395047647493739e-01
3.244046767977802892e-01
-1.661616852094558727e-01
1.917916296399209686e-01
4.998789333959746672e-02
-1.347943263579312045e-01
1.350644544036471717e-01
1.708351485356801036e-01
6.350654961446214331e-02
2.817696941115832576e-01
-4.891268288026764943e-02
-1.982482395686708809e-01
6.274424117006627277e-02
-1.250751275264267923e-02
1.947638721416407315e-02
-5.200165008212023765e-02
1.667823334851442352e-01
3.911394205915143252e-02
-1.123092897545409224e-01
-9.611963491720817987e-03
-7.068768614204606893e-02
6.423633287689802795e-01
-1.665019659362070026e-01
5.403331379044844923e-02
-3.002854693675082245e-02
7.628661040617716604e-02
1.029736043931279155e-01
-5.434503742581212743e-02
8.651634974428519531e-02
7.633316659972981533e-02
2.341234203890982691e-04
3.172551211848320674e-02
-2.955959792109166817e-01
-1.825596578972606826e-02
-2.566096810832195138e-02
-1.494479845136337803e-01
7.519521272044560334e-02
5.142896307570987702e-02
3.410775080530126929e-02
6.866262469349135311e-02
2.606801875761821097e-01
7.728134293314914416e-02
-1.255642088770346221e-01
-1.020802918444282774e-02
7.980570835738187707e-02
3.748525964903661190e-01
5.571570930502911523e-02
1.626486921402258215e-02
1.075650780028662989e-01
4.981163293455517088e-02
-4.981656839040953660e-02
-3.042125281584568200e-02
-1.055059697972971361e-01
-6.728231233432112324e-02
2.246086389081350040e-02
-1.648272350366330238e-03
-1.763183761646753070e-02
2.165959784228330479e-02
4.097952255652847348e-02
1.835887127527046497e-02
-6.035765370319682438e-02
3.637181077658512007e-02
6.183115983846944330e-02
6.166632987877773003e-02
1.373830260966945604e-01
1.123643394528762822e-02
1.615306146960240608e-01
-3.494725994886387771e-02
7.997749991179786688e-02
-6.595578065470796003e-02
-1.802955081487188083e-01
-1.004605142321981920e-01
5.583399318280374279e-02
-1.132962956695068683e-02
-9.785478917040364710e-02
-2.506733065195911742e-02
-6.428332011932562373e-02
-3.300715263982572853e-03
2.841011161321131684e-02
-6.940401586535585587e-02
-5.094940748550374349e-02
-2.476780831449808262e-02
-6.986923503556043136e-02
5.771776684784458988e-02
4.879322105048429330e-03
9.581893813887888689e-02
-1.521583169205265734e-02
-1.109525836552315015e-02
5.628168905843016628e-02
3.814891412784518487e-01
-1.123115179466293960e-02
-2.503498323099813058e-02
1.237622548253932975e-01
8.406234540890475393e-02
-1.806526217098062062e-02
-6.592183404759051346e-02
-4.682178573972321789e-02
1.517342655672952179e-01
-3.194233790620811669e-02
8.216154874841892497e-02
-1.258131321974151062e-01
-9.327529753967454818e-02
-1.060158127135076185e-02
-5.066543715818334903e-02
-4.468277105007009697e-02
-1.091719859885640319e-02
-3.840587330107978620e-02
1.395384084086242482e-01
-3.559391650050482137e-02
-1.459449963213546309e-01
-4.079385637615520060e-02
-3.404683627172274546e-02
4.286858277761312203e-02
1.716764688421885121e-01
-1.409250433499268096e-01
6.930817034151866285e-02
5.909833488386772027e-01
1.500387691836384541e-01
-9.602501698636638217e-02
-1.787463676048790806e-01
-7.909824676048873848e-02
-1.483664759916341891e-01
9.045873051021251221e-02
-3.857829808642002783e-02
-2.794108259786156068e-01
-8.014589473566131883e-02
-1.555954126906274049e-02
2.998659982556057396e-02
-2.848606420819303764e-02
-9.144621978953278163e-02
9.340491624225365219e-02
-4.844816472758572794e-03
-7.020939838088416374e-02
2.047959350096165143e-02
-6.269617679671805714e-03
-3.962651809966949434e-02
7.335411160467687763e-02
-2.077045437361040719e-02
-6.930113401222756653e-02
-1.193664538007180136e-02
4.349906987228784050e-02
2.420073810024334082e-01
-6.635707301381681134e-02
-1.541284950447906719e-02
-1.124274354697507410e-02
-1.083340843207378917e-01
-6.128027987835205775e-02
4.899723116535605744e-02
5.053240780731275972e-02
3.078320773513132380e-01
2.053323019275891670e-01
1.123789175336729756e-01
3.619395457731319071e-02
-7.771069952905627909e-03
7.483089985422589074e-02
7.999923426193480958e-02
5.898114598452157409e-02
1.918226093008288877e-02
4.705850396125894897e-02
-3.875363967938308396e-01
-5.782916910799212884e-02
2.568377121477911224e-02
-1.394897933662795908e-01
-7.873583251123549009e-02
4.370650926788343521e-02
3.137906830131145103e-02
-8.947705259130726840e-02
-6.675939617749400423e-02
1.849085148004017964e-01
1.142427647557244380e-01
-4.916231420549389136e-02
-2.685693729056466972e-01
-5.144850321039913521e-02
-2.007295737851079453e-02
-3.799685499649770037e-02
4.160405728018655436e-02
4.949526825207366948e-02
1.861538814583789392e-01
-4.092139438688006947e-02
4.533682965219394678e-02
3.793308042752107506e-02
-3.851486313845460252e-01
-1.604212363544557374e-01
4.982068172681480139e-02
-1.712220708877459918e-01
-1.322264666978623885e-03
-4.389131345183474447e-02
-1.097415210948324005e-01
4.761324189723364214e-02
-4.420196439653505116e-02
1.356617752962596402e-01
2.018782678575884934e-02
6.136278463146832562e-02
2.821845615367054791e-02
2.970406766791866549e-01
-1.105329739402721029e-02
2.978036969894416394e-02
-1.400658479406054480e-01
-5.763166164287206183e-02
-1.292324138677862777e-01
8.340514994267271554e-02
7.141316709165915211e-02
-2.730314403403226366e-03
-4.910280025982347030e-02
-2.988989196062365877e-02
-4.285809013812274387e-02
-7.725146130814233847e-02
-7.826273166841982154e-02
-8.716392727990480982e-02
-2.661703652001216544e-02
-2.115569016754570691e-03
5.849414958667669556e-02
8.047242085262153177e-02
2.343930554703108765e-02
7.289737186241609934e-02
-2.142507704797807777e-01
-2.054257157466396824e-02
-3.092065141014155305e-01
-5.151057288860856793e-03
4.561449877856274537e-02
1.065221872778521622e-01
1.121988692752673711e-01
-4.519314883126218825e-03
-7.025574606558929180e-02
-7.522813871661089558e-02
-1.311134974689206339e-02
2.263902359301114831e-02
2.913312166949914156e-02
-3.156516701107542344e-01
1.673403961512122742e-02
1.106100599494376502e-02
-1.159067582363135646e-01
-1.570235924342837652e-01
-8.169605991685721658e-02
-1.023385492578357814e-01
1.222839928344608001e-02
1.975769392465069607e-01
9.150678413040314041e-02
-1.405616090402228222e-02
2.677495985349124807e-01
-8.345646389529759457e-02
-1.245510613356682200e-01
2.832633246374193382e-03
7.911041470335421211e-02
8.256055935168073179e-02
9.517968915566864252e-02
4.388032448915739347e-02
-1.606419111414469220e-02
-6.373509395607968031e-02
-5.598312115806540479e-02
-1.343042826254404465e-01
-1.845377624312095899e-01
-3.365602218663263367e-01
-4.928333592921244066e-02
1.505954018940949268e-01
-1.499525411593484632e-02
2.560676227928552207e-01
3.629316519004444075e-01
-1.617268539278148565e-01
-9.021497201489711917e-03
-9.307450716373086297e-02
-1.142115738645222284e-01
-1.609431166233735444e-01
2.607394765631156353e-01
-1.593997768783275426e-01
-6.208660962482071000e-02
3.567837849916741938e-02
4.952701000113062663e-02
9.653234808243933707e-02
6.133389854451509922e-03
-2.423220207195415140e-03
1.065271034612603161e-02
1.754085777274411728e-01
1.305315921581472194e-01
-1.511983804797581155e-01
4.884182701490751705e-02
2.434442646968711099e-01
-1.108599382516672338e-01
-1.590337865888991065e-01
1.786070620522236738e-02
-2.390352570389187720e-02
4.182997513279832630e-02
5.488499402057656074e-02
-3.244195480955262140e-02
9.308355376463890718e-02
2.465024259134254367e-02
-6.591131289832216633e-02
-8.071024956321067034e-03
-2.927658053634739632e-01
5.935717935302002590e-02
6.934957199612735990e-02
-7.626101543454570642e-02
-1.976434078598185429e-01
3.888835951358506071e-02
-5.802291648912471372e-02
-3.919770396986123617e-01
6.163436401304991236e-02
2.684997501453485064e-02
-3.680742620412909977e-02
5.541761342452573152e-02
2.190000425456024510e-02
4.232112601631332627e-02
-3.335896935309055067e-01
-1.003426622331343304e-01
9.967753750349113429e-02
1.472416911412439966e-01
-4.321375181077201366e-02
-6.881702273315494500e-02
-3.034310871876536725e-02
1.102185043894734345e-02
8.436111655884852289e-02
1.852782043760844433e-01
-6.447898991398801072e-02
8.896757555904842574e-02
1.045052885899108025e-01
4.942741614261100813e-03
7.960000754748182417e-02
-3.314302307563418010e-02
4.213208753552495633e-02
-7.743937188265699600e-02
-3.181469249100737917e-02
1.001255754998407049e-01
-1.753920181399008099e-02
-2.487263776308718671e-02
-3.212923064838606180e-02
-3.356313962909866083e-02
3.186018685993960431e-02
3.268372393256081115e-02
3.427363274069673837e-02
2.402625884198444570e-02
1.493023314079330588e-01
3.176958034459037745e-03
-9.017599200659266734e-02
-2.111298145314583485e-01
-5.226636593511731904e-02
-6.369211809909702815e-02
2.318322245422150402e-02
-4.931999674872770689e-01
-5.118598419568073238e-02
6.344860343944144776e-02
-1.358375764789864770e-01
6.990410221032766769e-02
-1.703058400350913326e-01
-1.062830444048487449e-01
-4.924738391227516214e-03
-2.130306605714427093e-01
1.418524015263048638e-02
1.220898572590531361e-01
-1.369678693816132609e-01
-1.232800682204435866e-01
5.749392080773999686e-02
1.033980026208409370e-01
5.143644990176382895e-03
4.710153601060550199e-02
-1.695549020210987690e-01
-7.848813640907260913e-03
-2.343995574971961468e-02
5.582094403500376806e-02
-7.355274240422903127e-03
-2.540944206523158555e-01
1.240159864284128971e-01
5.910371275788839363e-02
9.819667220848153633e-02
-1.013172330205443505e-01
1.116743246173944187e-01
2.224193041898788262e-02
-8.236440041880090795e-03
-1.348447646003957945e-01
1.294049926301260034e-01
1.653147265636610852e-01
6.891309172242021663e-02
5.676076680906497196e-02
-4.370131290026426675e-03
7.132664755594518569e-02
-2.245252920675823785e-02
7.580492750337730623e-02
7.750551493527659333e-03
5.170604507581389592e-02
9.737941905850244773e-02
-4.486601568755513997e-02
5.385072042043863479e-03
5.074353067240252591e-01
2.089657436917209676e-01
1.820628466690210334e-01
2.115610892909179364e-01
-5.544747159190338906e-03
-2.383890879898030793e-02
-1.325847549717495619e-02
5.320648647391128250e-02
-3.117805119756085486e-02
1.115481071665285796e-02
-7.225558858477179602e-02
2.928582119962885866e-02
-1.062322193531206882e-01
3.653006729442729618e-03
1.523926218643851804e-01
-5.252536590531321770e-02
7.080740039051131030e-02
-1.093885479728924914e-01
9.406297475321449830e-02
-2.589295770461795820e-01
-4.275121881118368328e-02
-1.477776201590018657e-01
-3.454195563969596205e-02
5.667797493326437452e-02
3.651287713841188526e-02
-6.105744471678280494e-01
-3.666226143652454583e-01
3.945469207678568152e-02
-2.476619036958550152e-03
-4.745087965044881423e-02
-6.017698505381034041e-02
-1.029234656594151670e-01
-4.618467796400813064e-02
1.781071843308769109e-01
-2.608075440872023587e-01
-1.637138965366402854e-01
6.221990685657002862e-02
-7.676147057313223443e-02
-2.618444841452689451e-02
2.633868682104763270e-02
-2.364204018231839954e-01
3.620655570569802917e-02
-3.641648011741387136e-02
-1.300197718903379485e-01
-1.952428628704143063e-02
5.377842961541763611e-02
3.129442753340575673e-02
-5.546542941198378401e-02
-3.107426384017887566e-02
-6.196428606932630201e-02
1.222162326951267280e-01
1.283078319537285517e-02
-4.647327044034223198e-02
-9.891385811008665541e-03
-1.042296702261342328e-01
2.554161618587098143e-02
7.573343027634646396e-02
1.797232111936748478e-01
9.385099617095446489e-02
2.754095565318445075e-03
4.178830709276280808e-02
-2.669312729270512663e-01
1.825861235522282036e-02
5.517165405778558934e-02
1.959390851640505915e-01
5.435136683432079813e-02
1.286232933993051442e-01
1.040432145143288106e-01
8.423947903641294810e-02
-9.551386232935216158e-02
1.523047732879186933e-01
-8.997632252677592590e-02
-1.347024923642592409e-01
-1.147162893269916273e-01
7.581195863611515928e-02
-6.832865381275075867e-02
-5.993189982849398550e-02
-5.781623000920783038e-03
2.065980688715688199e-02
-1.566668586428771395e-02
-3.583130510531354340e-01
1.348474767303725619e-01
-6.664722785260932328e-03
7.494377992246692433e-02
2.464389807269377203e-02
3.488489474993681366e-02
-1.231642599182838742e-02
8.379751595037426837e-02
8.898907461285083219e-04
-3.732936602203087290e-02
-8.134455134925358544e-02
-6.103490944766331444e-02
-1.605661807804673602e-01
-8.864549402575887249e-02
-4.755008746277793186e-02
-2.813902751255006329e-01
1.231828723896241096e-01
1.121848436303345999e-02
-1.039908849481527564e-01
-1.326351426759873019e-02
-7.228124069107770555e-02
2.935412801551118278e-02
-9.330546089164777623e-02
2.219178205454311586e-03
-4.433375461142815589e-03
-5.144111124902685239e-02
5.282791446033955479e-02
-4.754533384890126391e-02
-5.697866562324516160e-03
-8.666084780753532946e-02
-4.389253616784681289e-01
1.194040171804280348e-01
-4.045336871410091378e-02
-1.897251021975240176e-02
1.257280737373392132e-01
9.691158547832422199e-02
-3.038879289745553824e-02
-1.422718474474340689e-01
-2.331412398657147500e-01
2.240942399718328926e-01
-9.785777926102932900e-02
-7.275433552048414521e-02
-1.324026896777636131e-01
6.547638652149530281e-02
5.890353160226977601e-03
1.594779175401577764e-01
-1.829458081929132354e-02
-1.104301189506741721e-01
-3.534145478225571985e-02
-1.069476507526203463e-02
2.436643893072377651e-02
7.942233704852472154e-02
-1.564102616507641041e-01
-6.633611943739470274e-02
-8.158535181229206734e-02
4.611490586167649175e-02
1.028937943512377301e-01
2.044563040653268535e-02
-5.734498062305034422e-02
-1.437287211580828283e-01
1.368019664409259560e-02
2.438820330742906203e-02
9.218993813137900395e-02
2.056769549426257504e-01
4.180607244329943156e-02
-2.125029610702295624e-01
5.550178930379513070e-02
2.520421453247331245e-01
-1.289625807067008856e-01
8.100225429018122203e-02
-8.091442220615058245e-02
6.581885982488475985e-03
-6.441950587374487003e-02
3.719818198803574727e-02
-1.196359297228620083e-01
1.122392673339887292e-01
1.256120620843283360e-02
9.324168785573770657e-02
1.073720976977455416e-02
-7.300538755176121108e-02
-1.808619503707268594e-01
-1.345756759052311458e-01
1.477129240731601123e-01
7.009847395804755243e-02
-9.902261790039425249e-03
4.811091646669440197e-02
-2.748947407682156285e-02
7.488570111087480830e-02
-1.865601715293040697e-01
-8.497542792629575459e-02
-6.948813214903958035e-02
-3.184938155565573276e-02
1.003980633874253237e-01
-3.025472172131046800e-02
5.711464570100056870e-02
-3.516207206235846816e-02
4.410814054278392425e-03
6.967721760999132097e-02
-1.765002978634414368e-02
-4.877853106436406960e-02
-8.595294392007393758e-02
-3.152879823540658683e-02
-9.623126683637331369e-02
-1.110190657615297838e-01
3.040182970168807119e-01
-2.607210925735555310e-02
-2.239075511429768767e-02
7.585015910766615410e-02
-9.982334306414300529e-02
-6.787875430887223283e-02
2.363213148359134732e-03
5.040051799724151738e-02
1.994662659887314060e-01
-1.077746408693585484e-02
-4.298799669361175191e-01
4.577210691183249136e-02
-1.732581112633293369e-02
4.542124013420086731e-02
-5.839971902659790021e-02
2.767719274229640813e-01
2.504948228037866612e-02
-3.670819647175300737e-01
4.526453458657597739e-02
5.402425978562070547e-02
1.980322803501876616e-01
6.353413061379856175e-02
1.330353959655047325e-01
2.833538523525681516e-02
1.414980176933894156e-02
7.413877492425643978e-02
7.473451176822881736e-03
9.804894182976267580e-02
-7.943147258507460284e-02
-6.669109941595546820e-02
-2.733683237425358140e-02
-8.969940622082241133e-02
5.528138690733447325e-02
-4.304530100254728986e-03
-4.575485472681006978e-03
-1.402590186999091992e-02
8.170628489399589522e-02
-1.141059615039418350e-02
-4.911456051320490235e-01
-7.578205529647569043e-03
9.594060092922377866e-03
1.895715733324078792e-02
-5.786769544278378558e-02
-2.137274743069818642e-02
-7.540020341438121408e-03
2.817388090718379520e-02
2.625789168090805412e-02
-1.719771499762960398e-01
-7.260023205181659854e-03
-1.674437171886256071e-02
-2.279928305776908123e-02
-1.953981765359692202e-01
7.740836387080961278e-02
2.010345507614323679e-01
-5.899836819925604464e-02
-3.555361837471508746e-02
-2.484174496865460685e-02
1.088757518630611154e-01
1.986972956934733581e-01
1.240387533301372525e-01
-7.711335704364542798e-02
1.109033143715046771e-01
-8.794690335171294338e-02
1.091758934629454558e-01
3.412211886357746637e-02
1.860310790419248683e-01
-6.988094429614535863e-02
3.660283173245018062e-01
1.007523160954869601e-01
2.774376732931488690e-02
1.286793866910099097e-03
-9.463623559336774294e-02
1.857054149307162463e-02
1.595871423255710297e-01
-1.368048827814539736e-01
-7.684560892147768163e-02
3.422664970791209488e-02
2.776869461494813410e-02
-1.063911363789412368e-01
-2.595020667991017049e-01
1.833313011795396075e-01
1.523158559948767921e-01
6.971891207622747146e-03
-9.108549257587711390e-02
-2.206996945934232013e-01
-3.560806641964318203e-02
-5.586704287943532188e-02
2.060042458441847107e-02
-4.346951775145104294e-03
2.868125078414423407e-02
2.872961515056054668e-02
2.748195995161158839e-02
7.535884997893108712e-04
6.813590750524721462e-02
-4.065798562030808472e-01
1.660307855874619543e-01
-2.303049860302654739e-01
1.045866929050858207e-01
7.773522356560012836e-02
-5.008810813434292492e-02
-3.411674351182708564e-02
-2.607245704136877673e-02
-3.608738944399898091e-02
1.163909895891013756e-02
-2.840775200055417962e-02
2.793435683210880247e-02
1.488684524583406416e-02
1.198100735158019181e-01
-5.956431130970890608e-02
4.809996380293502655e-02
3.129958493511729445e-02
3.395071408297434951e-02
1.084009569599707345e-01
-7.235617355021729813e-02
-1.355679533094389551e-02
-4.703619648428141939e-03
-7.558773788686318044e-03
-3.437494180203316818e-03
-1.073964233535839585e-01
-8.154149982513790584e-02
-7.601967651006257855e-03
4.582377259123492086e-02
-5.449485125888853948e-02
-1.496817524836355495e-01
-6.029665543809398232e-01
-2.477598388120012540e-01
7.519491078847656551e-02
6.480925560388722806e-02
-1.515956118765051652e-01
2.747012000326498268e-02
6.193801069139068249e-02
1.058759469070233022e-01
-2.233388519916927883e-01
1.752762600571563037e-02
2.596291557875061717e-01
-3.796738536859670457e-03
-1.039547057898016352e-01
1.965226263222108125e-02
5.531678857603868765e-02
-9.092099295009664628e-02
5.537220155716488651e-02
-5.490155088083700959e-03
1.691168161724593277e-02
-7.947565438216154521e-03
7.521803442968794107e-02
3.249484495697623626e-02
2.780995287691145901e-02
-1.008515098777778562e-01
-2.106838813670846439e-02
-3.887355457970488593e-02
-2.524045212900367652e-01
-9.172027346390686231e-02
8.924824874404743702e-02
1.055890962772214163e-02
7.817262442352422569e-02
1.236601763775070119e-02
3.120699866965308961e-02
1.174593736483184880e-01
-9.882831809900931297e-02
-1.022113560309958480e-01
6.624498580775708967e-02
-1.930981246546983887e-01
4.665281117271767308e-01
-6.805601600406194218e-02
2.123452192744242073e-02
6.040904692507639145e-02
-2.177268502660545738e-02
1.952912696392236983e-02
1.684811548722878471e-01
2.267126436715739823e-01
-4.203538081534267112e-01
-9.887075381665579865e-01
1.382646835849326850e-01
-1.149494274800715449e-01
-1.133814133361410181e-01
-1.240162939038104567e-01
-7.338570621619228129e-02
-8.895577777362610739e-02
-1.315659124259481727e-01
-2.136895491381297571e-02
-2.001422587092648031e-01
-9.068408049928944337e-02
1.003525425578207647e-02
1.580110900075656910e-01
2.838765107211104963e-02
1.046147409481699153e-01
-8.458082390697526862e-03
7.035453283946817293e-02
5.596974757499879882e-02
-8.617732238176661896e-02
-5.242811399409125911e-02
-7.463235687101268945e-02
