-8.951745761307769444e-02
1.158757474653446667e-01
-6.985599123037417035e-02
-1.399712417488795657e-01
3.898564474431424204e-02
9.442802371413812346e-02
-1.138749733449916784e-01
1.133416682306728068e-01
-9.187838990023702856e-02
-7.663538689949256355e-02
-9.282675915935992630e-03
-9.492403881830466239e-03
4.047472605062244627e-02
9.571650837762192207e-03
8.886978655600784316e-02
1.073362811302135400e-01
7.178560383647793197e-02
-2.498800843579181141e-02
-1.114664169675121455e-02
-9.205147577206998499e-02
4.486816490173443917e-02
1.292965775756567057e-02
3.812422978213013125e-01
-1.580631707716926432e-02
2.513084764399234339e-02
-8.335994482409422868e-02
6.410377843029992258e-03
7.527974786661455198e-02
1.589111887339729468e-02
-4.019944256732840837e-01
3.972362319897417005e-02
-6.953798919467664430e-02
5.305858818799615018e-02
-1.512104402025366001e-01
-1.122934716039198505e-01
-1.345754484479838586e-01
2.464696993996876584e-01
4.279475848580747283e-02
-1.152693043043410692e-01
-9.075112179341972285e-02
1.009925825641981439e-01
4.746877909653462839e-03
-3.391977112374293390e-02
-3.624356094794106004e-02
-3.537905158394319405e-02
-2.083768065510988726e-02
2.298469922041022628e-01
-2.589435292219132573e-02
-2.928727106020976301e-01
1.596333888954294955e-01
-1.146855289256542565e-01
-1.760690603582062280e-02
-2.521781281217730375e-02
-3.487766653673718409e-02
-3.337185282736979119e-01
-2.978393296234183030e-02
4.129613808612025289e-02
2.232841592170798639e-01
-2.319881493734336775e-02
5.163233831253398465e-02
-3.822278411331274106e-01
-3.450235323296830803e-01
5.155349525424741952e-02
-3.965758816524089336e-05
-1.902519546626259273e-01
-4.912255169269545696e-02
-1.506946500795393884e-01
8.737052860172114799e-02
-4.103007917198298049e-02
2.783011924357540190e-01
5.980238442112911085e-02
-3.775842988463200267e-02
2.798546584808826385e-02
3.066769963406185129e-01
-1.456808865598376024e-01
-8.779698344332273474e-03
-1.180871390393879866e-01
2.078205639476883859e-01
-1.132668248907385822e-01
-4.667142060190670322e-02
-2.339793718430181052e-02
-1.053234982462053493e-02
-5.714313536023160611e-02
5.308874242852949787e-02
-7.860456407384230904e-02
-5.880672223645091456e-01
1.456761760113104744e-02
-2.065555731728565825e-01
-5.310789593710715795e-02
-1.439295838729409138e-01
4.392692085479870528e-02
3.554441418013379317e-01
5.923724233377148513e-02
-3.184262804150732318e-02
5.132339618623790733e-02
7.262206899003410820e-02
9.316209847060662186e-02
3.724943786947088747e-02
9.338497724419328461e-02
1.177646411860767822e-01
-2.003412591757148253e-01
4.168578921175179058e-02
1.021153449587801076e-01
4.612397508487161429e-02
-1.193612234504470848e-01
4.080801906932993856e-02
1.711447753955838980e-01
-4.350054445465961067e-02
-7.120826180706568698e-02
-1.089549581690147512e-01
1.011230922809396165e-01
-2.095651820705338869e-02
-9.085368554828351581e-03
-1.219687454421481375e-02
2.747510609931919437e-02
1.149746373490333484e-01
1.587344762988283642e-01
2.646079916162153919e-02
2.665187229583057538e-02
7.594299583004851528e-02
8.063777172983918606e-02
9.942367555782159749e-02
6.067986806292482299e-02
-1.387559996013659203e-01
8.821907052418197313e-04
1.025046250680469867e-01
-2.775553563031785825e-02
-2.422914500087086920e-01
9.292135121827534150e-02
-5.326961954781947797e-03
1.644507680123638918e-02
-1.388810841652334677e-02
-4.174760395028281196e-02
8.380999450983328547e-02
-2.170285354593764482e-01
-1.554040634136966692e-01
8.255672600058051869e-02
1.811649846492046842e-02
9.922600065967394911e-02
-9.264859737716134302e-02
-4.503766169601591818e-02
2.218001671051524626e-01
1.422678366509899303e-02
8.638272739148548582e-03
1.715674269185163761e-02
-1.682921581149074142e-01
4.619310427888766862e-02
4.871489289765742331e-03
-6.278350910762145465e-02
-2.883685639621144312e-02
1.124238862038016984e-02
-1.019304882997787015e-01
6.282570539146016542e-02
2.231760925533571305e-02
1.440076122009221072e-03
5.096999795590825832e-02
6.763488006930579166e-02
1.197767502615708357e-01
-4.472755660533561661e-02
-4.157678973900436059e-02
7.540325658919296015e-02
-5.793740962623056961e-02
6.231600452458309347e-02
7.340956067547022013e-02
-1.338479188372688478e-01
1.395437869080724536e-01
-7.470781527642364472e-02
-2.280445693872034524e-02
-3.615969773054693998e-02
-1.295312654304915934e-01
-6.915969164591982687e-02
-1.108017911046288613e-02
-5.117592536443713730e-02
2.567804080711777112e-02
-7.245779598687872303e-02
1.824729061465934360e-02
-8.451003833968449841e-02
1.530385099328676890e-01
-2.800644200143922319e-02
1.101856867618661584e-01
-3.577996602685078881e-02
-2.527857833059040660e-01
-3.577626362769064511e-02
3.790181211447912757e-02
-7.324470528655259438e-02
1.026546006124616772e-01
6.175519825421801196e-03
-3.186270957099082146e-01
2.070283668790111331e-02
-3.472201939874993652e-03
7.409167298632349241e-02
-8.020367364766876894e-02
-3.223532546889101846e-02
3.024739303973075083e-02
2.637469458968897187e-02
7.006376046324840068e-02
8.386339803110950952e-02
7.367354751778235067e-02
3.429435260225405235e-02
-4.175704048834135568e-02
-1.739400772035374840e-02
-5.684872456122180145e-02
-2.329450120446677902e-02
3.713943720543341764e-02
1.119744205664171127e-01
2.191863529182763379e-02
1.012684163590494603e-02
8.376950279925608756e-02
-1.876022451975660824e-02
-9.504941728100725629e-02
6.581219063738025232e-02
5.315060192973442010e-02
-4.164179854210106613e-02
1.430254036714897203e-01
7.012302461318040137e-02
-4.526405436697127083e-03
-1.960876523391870130e-01
1.472680335892180038e-02
6.506554426332329666e-02
2.942085906017971597e-01
2.000665866523584635e-01
9.889193243545396639e-02
-1.001157627010735782e-03
-5.536879287682724970e-02
-4.473097708476438811e-02
1.095530698268180197e-02
-6.107529211451286771e-02
3.987891076664819984e-02
-5.657323324619296240e-02
4.566529523018304088e-02
-1.376645768110076051e-01
1.915104726709260588e-02
-5.868753416394073552e-02
-9.841997419612338871e-02
-9.884235798421757424e-02
-1.112169339662296558e-01
-1.127302021783427866e-01
1.754017294176604159e-03
1.396794446038416293e-01
-1.293678859911727257e-02
-3.617814655895977560e-02
-1.039573533105851988e-01
-4.745643725589316908e-01
1.780505430525866351e-01
-1.097572314552717684e-02
-1.970586665827363596e-02
-4.849714004734077821e-02
2.832942388034801612e-02
-3.570275443251632458e-02
-8.456200470829421112e-02
-1.136725952129150410e-02
-1.068863967753034411e-01
-7.906698188343929193e-03
4.216443639010260952e-02
-3.222273969275350064e-02
7.593495701106041385e-02
1.461471056529255706e-02
7.298613688564620228e-02
1.270162203583963534e-01
1.608774075923360275e-02
-3.764714155883981672e-02
-8.021052218619016683e-02
-7.813885163180853393e-04
-3.176699901255003455e-02
-4.430899616643823591e-01
-1.938340513783468888e-01
1.406402185916581782e-01
3.750680073547280058e-02
8.090740707165874901e-02
-8.774023108290743278e-02
2.140121918571702697e-01
1.063268527907147432e-01
-5.025697118360251264e-02
1.533832505573375915e-01
-5.085964262632188676e-02
4.217589837503937615e-03
-1.895567037764359086e-01
2.598946695738454590e-02
-3.177628615142449320e-01
1.268438060878135931e-01
3.211929407514205886e-02
-7.102755569033492034e-02
2.255758078227330585e-02
3.503913148451340831e-01
2.667164472657329033e-01
1.915590680077077779e-01
-1.557247758341198385e-01
1.479836327643965777e-01
5.650448087792054458e-02
3.390685475046500974e-02
1.476369167750898534e-02
2.423056339187283359e-01
3.283333851405161735e-02
-2.620168636174083007e-03
-3.365345530957992298e-02
1.598627125188135933e-02
-9.535003317660543931e-02
6.037828522958927913e-01
-1.600548663184185941e-02
-1.390900704034984947e-01
-2.317063223638446412e-02
-8.478844615621491942e-02
6.291927037146036183e-02
4.491454270601568516e-02
-4.913608546362626533e-02
-3.864106090809515254e-02
4.964244957938182545e-02
2.340259252408896651e-02
2.739869011707363883e-02
-1.465960262893530736e-02
6.129953094201014835e-02
6.028757812381340189e-03
-4.712105915069147999e-01
-9.891847821633670268e-02
-7.162796142341534313e-03
-3.241056904288414087e-02
-1.330703821996281899e-01
-1.022074512406213193e-01
5.498305937989526881e-02
5.932784437811453038e-02
8.201056878018742058e-02
5.338936773301006938e-02
7.200615258760813611e-03
3.119199832594461985e-01
-1.038571485620025658e-01
1.635901599707878518e-01
-7.990326218589744248e-03
-5.951751131089521099e-03
7.538465575472781677e-02
4.354326134495815070e-01
4.153485714554397412e-02
1.550674591834864079e-02
8.904891263511272026e-02
-8.386264718470659574e-02
-7.945502998221991298e-02
7.815404073895709791e-02
1.095979388641990862e-02
1.933066595623589290e-02
-6.250945780211533687e-02
1.874151667829781695e-02
-6.931798080189698064e-02
6.656316076561739903e-02
1.859955610900887735e-01
4.431923878508031017e-02
6.198113019419506514e-02
-2.100988639478801323e-01
1.713303872011212592e-01
-2.463657595568177761e-02
-1.663831591508328420e-02
7.210068319087770562e-04
7.841236003245909136e-02
5.807069286667755625e-02
-1.433209158113972204e-01
-4.774788254650777324e-03
1.265714791800672673e-02
-5.785789678100285507e-03
-1.075678770691880365e-01
8.942288510198020957e-02
-8.324034242752116619e-02
6.697952897951088558e-02
6.371145780744283393e-02
3.353665390571178850e-01
6.002329208385273618e-02
1.482731714583663818e-01
-7.282200218533751990e-02
1.236582624039975625e-01
-7.988636694574106911e-03
-5.118034392651614473e-02
-1.372588049902893625e-01
1.288793637812262471e-01
7.576547630012213375e-02
-2.467823278074373142e-02
-5.266761250769889935e-02
-9.115763972242549307e-02
1.949682549802922915e-03
-3.217301722435910588e-02
-8.175455158455169347e-02
-9.256829916387340762e-02
-1.058410454536130342e-02
5.890424519442796075e-02
1.115143388035372551e-01
-5.014915482758200427e-02
5.364237427722665791e-02
1.038481823884028071e-01
-1.684843111998711729e-01
-3.260873550118584957e-02
3.518045365156349802e-01
1.689186882800041978e-01
5.928483500356623859e-02
-1.067843058467226325e-01
6.407210819659260592e-02
-1.858072070417580157e-01
-1.873242293470389706e-03
-1.288103560702184291e-01
-1.276774670541981349e-01
-1.790754991972485499e-01
-1.033269767680216056e-01
-4.440675727722986910e-02
-1.238012953888093480e-02
6.914640465486171506e-02
-2.245964173249486232e-02
-8.632808907107351881e-02
7.773151089250575352e-02
-3.069298354502409884e-02
1.752265699237605945e-01
7.107413399763444495e-02
-7.217160543183047394e-02
-3.381228885765883568e-02
-1.697194438151947496e-02
2.186383401999443810e-01
1.343524060935218783e-02
2.032617604341738909e-02
6.217957873146008618e-02
1.168076283590405509e-02
8.654867654440555336e-02
9.728046917811412550e-03
3.025644355460861412e-01
3.024759434275510750e-01
-1.952696956786517061e-03
-7.649927864216933548e-02
8.377849682491898820e-02
1.420134445868191375e-01
9.197742154555869909e-02
1.559026452936350740e-02
5.209727688638746829e-02
8.501188146268301438e-02
8.130145155287128722e-02
-6.479098212923721511e-02
-3.790022332215559064e-01
-3.072756821124384904e-02
6.605290799547250402e-02
-1.080020613091408344e-01
1.471339553704860935e-02
-7.495195985931005223e-02
1.512507909666891415e-01
1.125626188535684691e-01
-6.539183241930694723e-02
5.477961421088778371e-03
-2.343633179062106497e-01
-1.317384437454167945e-01
-1.170905207011028182e-01
1.962728084485269170e-02
-5.745836631381003728e-03
-4.887011244409204813e-02
1.094871825481361777e-01
8.278064006166886701e-02
1.259127915336408308e-03
1.532512743482523365e-01
7.475500310205906995e-02
1.563278617047884900e-01
-2.067936990567626615e-02
7.732985670635422748e-02
1.627511269007009542e-01
6.206741625498448517e-02
9.533726466533376520e-02
-3.580740084653807886e-01
4.618776223330701286e-02
-4.398282451217330052e-02
1.213352707567697808e-01
-1.156971482846017307e-01
9.268682033253376751e-02
3.696980196978270905e-02
-8.296003521984640638e-02
-9.848747300961359363e-02
-7.011820623126865937e-02
1.100903711063626889e-01
1.713033867060129861e-02
-5.412001555463059194e-02
1.301132488232624451e-01
-3.479417081191339082e-03
8.570691444929005864e-02
1.611498727545077753e-02
4.994288655648305292e-02
2.230205285190629549e-01
-3.504946147101514059e-02
4.041643501553231210e-02
-1.622131079462862113e-01
-7.173278943317319602e-04
1.109030482073799714e-02
-1.065029101366258696e-01
3.356671731492182759e-02
-2.323478028228702277e-03
-1.066277817521364690e-02
-4.880020672666411652e-02
-4.042945969549786855e-02
-1.818723809154961088e-03
-5.680862129202515765e-02
-1.267878005829481229e-02
5.386772281091003339e-02
7.753741281953763220e-02
4.510096319853768715e-02
-3.382242559648667712e-01
2.015704029669915937e-02
-3.593168147718899808e-01
-1.039202038170750492e-01
8.966878341199456537e-02
2.225208221205870248e-03
9.560627601024082600e-02
9.587768397105875251e-02
3.543097913992203363e-02
-2.880723979347227237e-01
-2.058969560724930106e-02
-3.889171410924884692e-02
1.242214322657322068e-01
2.879415632190809177e-02
-1.425087557869776367e-01
-1.332367707666791690e-01
-1.119680818090362656e-01
7.976583436335981867e-03
9.611916288144946308e-02
6.417694402212524574e-02
1.447100443272817012e-02
-1.901678591988486405e-02
-1.073864728733804202e-01
1.398526165094928810e-03
2.875295039434294306e-02
-5.089020481633087928e-02
2.674705075054282372e-02
5.597788142470377232e-02
-4.461734613042213360e-02
-1.148602018569734942e-02
-1.095507829556735258e-01
-9.898783499501967106e-03
1.108193937706359808e-02
-1.170435756594243593e-01
2.698640586149902640e-02
-4.533064858439371514e-02
8.978705930668093305e-02
2.323385516950749186e-01
1.005251147294861612e-02
-1.367972426647480755e-01
-2.826156893072253457e-02
8.144721780782623877e-02
7.379101463924793436e-02
-7.456897829101918895e-02
-1.447219591013925999e-01
-1.650557881255395112e-02
-1.481921045988458530e-01
-8.124855279050373358e-02
5.037906330146810913e-02
1.194957358689094501e-01
3.249561981556989970e-02
4.789049042033320658e-02
4.206630988904778642e-03
2.308980561846458654e-02
1.362690901033787594e-01
2.491364996903688289e-01
7.206035198987434387e-02
-1.950077171847049151e-01
1.838061571665985938e-02
-1.317602758703682320e-01
-8.062955316262086780e-02
-7.215249978071044956e-02
9.305202818175080381e-02
-8.722858941353919815e-02
1.024763265950139335e-01
3.903307811320848308e-02
5.159515559249372441e-02
-5.207162409822027604e-02
-7.038731069763205783e-02
-7.189298897265185284e-02
-3.382494560493995439e-01
7.205598389583257879e-02
2.883047283045553355e-02
-4.558598175358078569e-02
-1.891150576828864657e-02
-7.301044224160939400e-02
1.952656381984050477e-02
4.671402254509536556e-02
-2.527186160136045134e-01
9.260078341258097881e-03
-4.123466213685302723e-02
3.874429633322706151e-02
6.852238667747102829e-02
2.167675223717365623e-02
-2.388959067317291407e-01
-8.432474838552068974e-02
2.346240334721006945e-02
-7.764567023019490477e-02
-5.935311533234138848e-02
-7.564061396946329674e-02
-4.713327621848086707e-03
7.386680423002947582e-02
8.881102940287018480e-03
-1.925243203061221750e-02
-2.809398420416574921e-02
1.536968225455790261e-04
1.121359915725308604e-01
-4.230092168209138165e-02
-2.019995077835679692e-02
8.273488234290365603e-03
1.359867722377356043e-02
1.396518806301964843e-01
-8.932988036768696807e-03
-7.166708977265437430e-02
6.536967472837430793e-02
1.862570617441973789e-02
1.037090571380455822e-01
-3.568279045853313403e-02
-1.664342346257322858e-01
5.714255148455902635e-03
1.563539305225974257e-02
-1.778537352866624288e-01
-9.532691036518020633e-02
-2.173216228010052195e-02
-2.533799247912328981e-02
-2.290312535018421483e-02
-1.522380120003380688e-01
-7.563794476658282362e-02
2.923070564487242201e-02
-2.520915258197396064e-02
6.475823725187687674e-02
-4.459111902396559191e-02
-1.404232434811895089e-04
-1.459979266632904782e-01
8.230097680240315572e-02
-6.720847483771962005e-03
1.286772919563725637e-01
1.288035081512132751e-01
9.689897161254859559e-02
-7.882718604677904639e-02
-1.214075403186355984e-01
-9.534610812960200854e-02
4.837406435515838321e-02
-1.687521221154291221e-02
9.754590959343879125e-03
1.063723166077533283e-01
-5.896824650081061020e-02
-8.358985415724684565e-02
4.886478184440155859e-02
-2.373501743851616497e-01
9.534559000176985599e-02
2.436013038324709445e-02
4.375730240411447869e-01
2.699182475974288842e-01
1.344742089106147620e-01
-9.485254925661991410e-02
5.453038708173546523e-02
2.973544733525647354e-02
-1.874686570116004120e-02
2.832708544100555337e-02
-2.725232357326569659e-04
-5.458622763777404990e-02
7.167927973170688284e-03
1.674119959998054269e-02
-6.969539522806504628e-02
5.308760025077895878e-02
1.254826820102655956e-02
-3.097034665214303331e-02
1.606894065230857482e-01
-1.514056161438236958e-01
-5.331507261125967290e-02
-6.887456024167394608e-02
-3.221056173602306338e-01
9.594180203303999399e-02
1.638622945848204615e-02
-5.080087150223665526e-01
-3.994973329324465472e-01
-5.326196498874481277e-04
-1.691402876536355487e-02
4.278513120903496372e-04
1.579177393854842015e-01
-1.022096712940211982e-01
-9.591802211955353930e-02
2.628912282801455780e-02
-1.302735963051932788e-01
8.519162558078895164e-02
-9.683376769399484885e-02
-2.903014511593784985e-01
-1.890259195640192347e-01
8.376329590834241667e-02
-1.224757207673395423e-02
-4.066131713426571204e-02
-1.802155198927424956e-02
1.223942847139328563e-02
-8.875460666410969757e-02
-6.617652197436846295e-02
-7.763739823823792574e-02
-2.433355614116439886e-02
-1.698028570675189364e-01
3.492407951273901988e-03
7.835779399984180160e-02
-5.314750276811289198e-02
9.291637856848622423e-02
4.556885913324202481e-02
-8.120854450875399089e-02
-3.343532154033480863e-02
-3.104764772472917711e-02
-7.850011435569846652e-02
9.996711625201079587e-02
-1.036992733597547761e-02
-4.204334587001033394e-03
-7.608445322613786865e-02
2.499836112826214485e-01
2.455486539358403900e-02
-2.884682212998369334e-03
-3.713508588577013603e-02
5.129256751296204508e-03
2.351976675002339368e-01
6.723712308945521687e-02
5.243529474503296622e-02
1.253615891390447504e-02
-2.146775049041645955e-01
2.116225007683607013e-03
8.212196808900210088e-02
2.168950865820251372e-01
4.953814694837819360e-02
6.062997241780507945e-02
-2.549110235205107045e-01
-3.697306088581436140e-02
-5.984711045814914560e-02
2.421883754951145371e-02
1.432774636597696494e-01
1.444217483243506739e-01
4.767995310295214569e-03
-8.423487239126431492e-02
1.040406826067865331e-01
1.302365493292017007e-01
5.837576480200554890e-02
-1.865417625284656877e-01
1.534381377344184311e-02
-3.779555080463021383e-02
-1.047048586608939069e-01
-5.979946801214278823e-02
8.286754905218279843e-02
8.758097093677080780e-02
-6.738448510673936132e-02
-3.918075894049690214e-03
7.105066802331386211e-02
-3.234872447600309429e-04
1.585380303256053725e-01
-4.066598551708100473e-01
1.293700085925307275e-01
4.630271107200188696e-02
-1.346393925194677155e-01
7.231330525300520319e-03
-2.990610442571531649e-02
1.058880321609560193e-01
1.807145028576948064e-04
4.031738498993126668e-02
-2.393341056823163407e-02
8.932555131892867817e-02
2.567999673033576850e-03
-1.288694992589718702e-01
8.804841304505094113e-02
-6.472814925435349531e-02
-1.844522455889333404e-02
-1.934371215379141196e-01
-2.536254719120797571e-02
-1.443667456567293284e-01
-4.010211002165980920e-01
7.808718319065094393e-02
9.734260050249682328e-02
-3.081667971803109946e-02
1.034026617950512331e-03
5.317343359138162334e-03
1.798385235400266555e-02
-4.557254704963963760e-02
-1.163582573822416200e-01
5.632063004237292808e-02
-1.225146718828626011e-02
-7.909669685573235409e-02
7.728552124643264104e-03
-8.273737675403949887e-02
-2.814263172113849465e-01
3.005143497738952188e-02
8.225529215880252043e-02
-7.683338165628704475e-02
1.526266559959811586e-02
1.427576523897682581e-01
-1.280003408637840345e-01
-5.383627855628052294e-02
-8.881600724484382814e-02
9.433156562539009304e-02
1.093853405977257970e-01
-1.446488479641938052e-01
-8.593400830760081210e-02
-1.777330123905012174e-02
-1.119511726527127188e-01
-2.451342899369270481e-02
-1.607720279305502042e-01
1.442943669069376711e-01
2.871195256528933162e-02
-5.946394512096991186e-02
6.791426305288747467e-02
2.897002622647169151e-02
1.040876321282429157e-01
-9.870325029357228386e-02
-7.980724972863962804e-03
9.137896976677904737e-03
-2.547472228468850020e-01
7.627809473446135746e-02
2.488504622107211295e-01
-1.664889863252756175e-01
3.980806283107135579e-02
-3.108843303299952537e-02
6.346279474635173334e-02
-8.264546365645880632e-02
5.441795656488178368e-02
2.932997407457369962e-02
5.357062520084850815e-02
-1.073670169523910506e-01
5.752036294082626261e-02
-9.787512183828254997e-02
9.431787812639126634e-02
9.253934626344198500e-02
2.856799192656550232e-02
1.079791509364431412e-01
5.878264706773914799e-03
2.224037968302459700e-01
1.265208611608145961e-01
1.496387703340087798e-02
-6.249291874682478404e-02
8.507954881955558102e-02
-2.546143274766043962e-01
-3.131574201196845458e-02
-2.851593846559653811e-02
-4.712408095745941605e-02
1.058746768870713756e-01
7.582466200870158213e-02
-4.455956485339282458e-02
-3.326113442215157534e-02
-3.076507993262745516e-02
-2.348591244647940113e-01
-8.648822403728186059e-02
4.247716488114003375e-02
-1.868943639286334626e-02
1.052697468753932830e-01
-3.282740042680259290e-02
-2.454738830601909533e-02
1.225974109837565801e-01
-7.578572442958775301e-02
-2.251041427650702850e-02
-6.802851297264614350e-02
-4.325833133119336843e-02
8.437711489216578875e-02
6.474013868193628785e-02
-2.148114400264640733e-01
4.059722495924717942e-03
1.557459021683718081e-01
-1.389197716405162764e-01
-1.115035304317120793e-02
-2.225172552925800545e-02
2.344157934731949666e-02
-1.232329301211264883e-01
-9.090852531817973647e-02
8.192000840519789162e-02
8.808157410622570460e-02
2.200369613042672534e-01
-1.272527786797256720e-02
-1.720480969917178096e-02
1.039706026865179489e-01
-3.485494032630352679e-02
7.629889196351183345e-02
-3.689192218059851314e-01
3.421883423818800757e-02
-1.035120477033035780e-02
5.011329716879316110e-02
-2.106193044700945816e-01
-5.528522534155169699e-02
5.587492896269376751e-03
1.529043960011741352e-02
-1.647280641071404220e-02
2.253784790215518016e-02
3.416152497383148079e-01
2.083564885529382937e-04
-3.780399167445687159e-01
-3.736937391110018575e-02
2.427511179777573913e-01
1.971153275830635765e-01
8.139211672387217100e-02
4.119171902339441478e-03
8.735685052170373555e-02
1.803562411882963512e-01
2.090135076532582958e-02
1.292602398250713158e-01
-7.639813133810849366e-02
-1.130326366111863573e-01
-4.129953703299563128e-02
7.433305913945960353e-02
1.657499059189090351e-01
-1.044679575266476909e-02
-1.235548019446752049e-02
5.318518801826859627e-02
-3.475085088499572233e-02
8.682788389541742924e-02
1.744730586214314830e-02
4.751923302504044988e-02
-4.374152052765306053e-01
1.045547265140640142e-01
-5.843129796118451402e-02
9.644929554271013117e-02
-3.408088081344789327e-02
7.912824825105142790e-02
8.421293190896257663e-02
1.847921744706526037e-01
-1.472505499007522589e-01
9.825980175586342125e-02
-1.011182399878971100e-01
3.076868745837231800e-01
4.587408586690660400e-02
-7.562554731933017645e-03
1.440586022541427008e-02
1.302719385296266519e-01
-4.728252699122022229e-02
-5.910718809751595165e-02
-1.060785216025253580e-01
2.638328142107058683e-01
6.916706969231321833e-02
5.385349326396375591e-02
-1.219788270941612974e-03
3.822040193763552585e-02
5.675943927367077535e-02
1.007778626441701436e-02
-1.149000356466377271e-01
1.120606554846380609e-01
1.168092971781356099e-01
-2.201121846888592914e-01
9.005112595560787331e-03
4.314383308291971225e-02
1.434554474836854665e-01
6.824607387845596507e-02
-8.369536538098952885e-03
-1.376319583256855883e-01
-6.126685274672296483e-02
1.296621018335971098e-01
1.424742385872439059e-02
-9.480640607323823424e-03
4.989779044833839855e-02
-2.527767623326182544e-01
9.136341972032045733e-02
-4.070488198721489703e-01
2.591251212970239748e-01
3.569339814229573193e-02
-2.940273944117455795e-01
8.621329931361776389e-02
1.069023999637401003e-02
-1.171262312424184160e-01
-1.050205978887147618e-01
-9.573296327335367728e-02
6.662412116373847559e-02
4.160007097880333467e-03
-9.163751711456377680e-02
-4.251534256684772611e-02
1.025375882008784933e-01
2.392748605833442538e-02
-3.984217335002801508e-02
8.267118604451060768e-03
5.690776890778129898e-02
6.923631750151583442e-02
4.077480872597495642e-02
9.948973673924157643e-03
4.458693589439638449e-02
-1.771052642786972303e-02
-1.402398959952718960e-01
5.943138726643932418e-02
-4.627796517518220631e-02
4.750762518778885862e-02
-8.021548583400535393e-02
-1.383998478778753760e-01
-7.872401097759650357e-01
-1.324795406117574778e-02
7.521567326494728312e-02
-1.830523713514740636e-01
-7.621917165368050084e-02
4.577213155924270832e-02
2.205226332686403487e-02
-2.860429943087768392e-02
-7.416804832696331784e-02
-7.357841437160232007e-03
1.265251432414128512e-02
2.581328821143525146e-02
3.694201874649671521e-03
7.235217589110844692e-03
-1.675364154698924524e-02
3.597424468249098978e-02
1.609663440429648373e-02
-2.535871042487591528e-02
-7.340852312427317838e-02
-1.014502769826406553e-01
8.646140683274416983e-02
1.129322102516519127e-01
-2.266897363835990858e-02
-1.488642598065519768e-02
7.963506705650610917e-02
1.483505290671756072e-01
-4.331829607842099805e-01
-8.802507627238320698e-01
1.684604533057746656e-01
-1.762488710068844666e-01
-1.349821832177223735e-01
-1.068585979137947894e-01
5.177190543780300219e-02
-1.473438707164827499e-01
-1.506077619612898322e-01
4.070949049520403151e-02
-1.523335419724015927e-02
3.324963488091695757e-02
-3.659729076090120076e-02
-5.504224770470596967e-02
