3.869007810356614105e-03
2.158538178783496464e-03
4.604863331845401864e-02
-1.419929354078607910e-02
5.390689864074482696e-02
-1.553473591520491796e-02
-8.669385482988151148e-02
9.918331492912631220e-02
2.563482147992955738e-03
-3.298314045480696399e-02
2.136961124663646142e-02
-3.022627686635283653e-02
-7.941073549240547022e-03
-3.147442418948413582e-03
-3.505784867877578467e-03
3.696790644297565792e-02
-1.777445202945598934e-02
4.979571129556704251e-03
-1.415961798952086910e-02
-5.229128406871355605e-02
2.221448020137610502e-02
-5.843589817119690215e-03
-9.630683748429792745e-02
1.431687969684874301e-02
-1.341746692685713387e-02
-4.255405018705765013e-02
-5.071187088496457301e-02
-3.174682854377304519e-02
-1.495682070672887595e-02
-1.262360960732627213e-01
8.981677546173068988e-03
4.513751580931688046e-02
1.704545583575322112e-02
-5.909273482295809669e-03
1.355394917672564717e-02
-1.793707436236198147e-02
-5.340740786853544197e-03
6.170157898794998569e-02
-4.978516818275989519e-02
9.717999668418287468e-03
6.468455340431154832e-02
1.575943345745434501e-02
-4.605237558652930385e-02
8.682416927579675314e-02
1.314141400781110476e-02
-1.889241204078952879e-02
3.072676335464197099e-03
-2.173883074719611119e-02
-6.300779438541194086e-03
-7.987389194416717741e-02
1.098943855165041700e-01
-4.417214347088850752e-03
2.714506667444393367e-02
-7.008037512221856891e-02
-7.096746607956083697e-02
7.271919256152985060e-03
-3.452374122281356723e-03
6.054766222083135530e-02
-1.568373121930815781e-02
4.066352747897164499e-02
7.156740632135968894e-02
-1.882232124171508841e-02
-2.007860298069257324e-02
2.291099959411661488e-02
3.425328048572416628e-02
1.555199800504335900e-02
-4.019339638538970555e-02
2.857609899287186575e-02
-1.106506181275222246e-02
-9.456306584720661906e-03
7.916455246484136246e-03
-7.364216419517757156e-03
-3.858822545282392796e-02
-1.354574610407217883e-02
1.674261317959651468e-02
8.457439650722786695e-02
-3.823172395902696159e-03
2.830653904529823253e-02
7.060581546808415709e-02
-1.791354975039769620e-02
1.270107844614856360e-02
1.317133006750858572e-02
1.052062630718108849e-01
3.425202776298128231e-03
8.229324889600947044e-04
-1.574704630943795508e-02
-9.215516459845335406e-02
-2.346250958686919158e-02
1.107564718606483464e-02
-1.026411364133370495e-02
-6.715420251277663677e-02
1.091958589799201657e-01
1.090307034447843097e-02
6.145948887436856675e-03
-3.239161017664914793e-02
3.320296640128909439e-03
-1.141080859847764042e-02
-1.390374502103206011e-02
-5.263538685125006972e-03
-1.495980757845120478e-03
3.216734638356427006e-02
2.414060909019341214e-02
5.326252970354460742e-02
2.103825598687867823e-02
6.515960382194711104e-03
-1.284804966508744373e-02
-3.937765072909793843e-03
7.304236660373606034e-03
-1.085265643210867915e-02
7.965689546658759335e-02
-6.425962069208539414e-03
-7.824793792173212470e-03
-1.476057616994256964e-02
7.334710586351787798e-02
9.868166246970611760e-03
3.126725513075658686e-02
1.565790964731456764e-02
-4.644527529272133443e-02
-1.697981395854633244e-02
1.250523995030463536e-03
-1.449991381707489528e-02
-1.225373425432200666e-02
-2.080962195078525992e-02
-1.780998404699619606e-02
5.778307567948899603e-03
-3.299185542932546455e-02
-1.424479725535330796e-02
-3.243153008428691780e-02
-1.136208822644246656e-02
-7.133051129956614889e-02
2.083743806677319788e-02
-5.072619141685801025e-02
-1.381156268975706862e-02
-1.897117356335350363e-03
3.368163398510523598e-02
-3.945024169635637928e-02
1.965581977799109575e-03
-1.627838291743518087e-02
7.536919533804625933e-04
-2.095420056774956533e-02
-7.638687416270206754e-02
3.150517311665437109e-02
5.320779327262990799e-02
-4.145823148145876512e-03
-2.329749037318470939e-02
-3.898969008488020055e-02
-5.305808308558543351e-02
1.544208470566517909e-02
-7.569997760798050090e-02
4.776172507889752533e-02
3.536241925926895263e-02
1.831066610397354480e-02
-3.066929502080613986e-03
-3.318534702397327174e-02
-9.515823801362736228e-03
3.293906969797286838e-03
-1.618781211538409051e-02
7.470893609400286461e-02
-5.529241496010437601e-02
-1.033993068219507191e-02
-1.684270070111571274e-02
1.854766249674729903e-02
5.933267452867969569e-03
1.682103720973064653e-02
-2.585203102594935045e-03
-6.771136333799497239e-03
2.851185467199989984e-02
-2.635612687257174111e-02
2.994195277730717433e-02
-1.835138030759710581e-03
-8.681415857956092941e-02
-1.916302386493320617e-02
8.084318942358999921e-03
3.066220305279376834e-02
-2.915887265288762478e-02
4.049173421598777078e-02
1.489502395338014248e-02
-8.655123408113798988e-02
-1.173106881521479017e-01
3.459849188754148264e-01
2.076142831292961935e-04
2.046814352776849671e-02
2.700457638100809028e-03
1.235990993273641814e-02
1.955867690833967137e-02
1.004088261559285718e-03
-8.088198508986909480e-03
-1.161097954331074232e-02
2.573395701332747282e-02
-4.128559612792100791e-02
3.718909444296226822e-03
3.664769747663245564e-03
-5.804348403091051829e-04
2.756709437967155146e-02
-3.077102640665968698e-04
1.233758491253083948e-02
-9.377850834431154456e-03
1.521639801319622440e-02
-6.653415960285445629e-02
-7.399366350363117961e-03
-6.883854053099430249e-03
4.474044492395968554e-03
-2.035452001983776519e-03
2.256924821473024409e-02
-2.150815713514775060e-02
2.138855550844252426e-03
1.090763961015773923e-03
1.897586013039043520e-02
-3.854073442730374804e-02
1.643843852773059153e-02
3.468268830703140349e-02
-1.146630209227325267e-02
1.185516161552385150e-01
-9.297438313239566113e-03
2.883796840003827536e-02
-4.294557850288067968e-02
9.158622463576569436e-03
1.836121789455098319e-03
4.473218588522245159e-02
1.433850289358025269e-02
1.063442657580291467e-02
-4.379863584602669557e-03
-2.885521567724834771e-02
7.157225849103899737e-03
-4.546276272359053849e-02
4.524408045520558752e-02
-3.244936158091856794e-03
-1.601634269190043564e-02
7.414449724257421437e-03
8.995788988624803251e-02
-5.206857689536945055e-02
6.236793930275802596e-03
-3.493332305939563787e-01
-1.395458536953796992e-03
-3.221935654756902766e-03
-2.049127899885937014e-03
-9.448212625551649646e-03
-1.833779184895362874e-02
4.778125848277443161e-02
-3.456962019504701555e-02
-1.960631300406391261e-02
1.729064825072876982e-02
-3.859844467934765017e-02
-7.929964483331215785e-02
3.402443799594417374e-03
-3.042543575582270371e-02
-1.067793994204510079e-02
2.858611858351195814e-02
9.869004134636077258e-03
6.314823556623838652e-02
3.840814727549909241e-02
-4.730445678758441602e-03
1.779820246390093758e-02
-5.648582177127913113e-03
5.046779556869224193e-02
1.787001731843834706e-02
1.741495264435498694e-02
1.440599272903891719e-02
-4.780995694916571784e-04
3.851893028886362383e-03
-4.448419565204055764e-02
6.183599830979194978e-05
-1.183120842798143918e-01
-1.326572874593625606e-01
-8.830135931071189659e-02
-9.490739866525554902e-02
-1.653282729757840977e-02
-5.724251414323764178e-03
2.853365752993695589e-02
9.504221803474429547e-03
8.558677267132542427e-03
2.606416888111882067e-03
-4.631431956000580871e-03
2.135356645260785280e-01
-7.797985661701734537e-03
2.044244946982466324e-02
5.035760459120340593e-02
4.711739556305607340e-02
-7.389839042704047373e-03
5.994438031443942438e-02
-6.831405094006643211e-03
-6.530594078782547829e-02
-2.128062975297307854e-02
-2.729551855294586396e-02
1.172573151579187067e-02
7.196653312717651158e-03
-2.938178648701175733e-03
1.999061590113269601e-02
-2.320351336492677136e-02
-5.382791998867876050e-03
9.673611796473337299e-03
-3.006938048597032013e-03
5.413623736674512410e-02
-9.219523850738170490e-02
-1.169204587323370396e-02
-4.351385058713620052e-02
1.344993573453973253e-02
-4.377458326125673038e-02
-4.924503867049601774e-02
1.861216531826619461e-02
4.652847784462256324e-03
8.146501678491867293e-03
4.542679780858982497e-02
-4.585757349465789667e-02
7.253363347478497015e-03
-6.565693543088270412e-02
1.604773512008521308e-02
1.835274363255590124e-02
4.676036020989936086e-03
1.951621462824228853e-02
-7.713832841760582572e-03
-7.080865064913791085e-02
-7.546383520104307102e-03
-3.377500776415973040e-03
3.412579160301857512e-03
7.018234147698360070e-02
-2.431262116800496365e-02
-1.522909212037146243e-02
1.837509786035429818e-02
-9.094878793112511463e-04
4.390608478414685656e-02
-6.103958493671932800e-02
1.607063346487374450e-02
4.714098752047726944e-03
-8.235543737702279805e-04
-2.343087177111144101e-02
-3.242816278428302390e-02
1.102653843416822634e-02
-5.646500811419080668e-02
8.814372176689354993e-03
-1.884883694281452859e-02
-1.034630560778142111e-01
-3.197814152683988581e-02
1.248572902128682917e-02
4.775875965567675033e-03
-1.014485254223212451e-01
-3.759984164515101784e-02
-3.322202438948074210e-02
3.402588802434499543e-02
-1.127199190402698864e-01
-1.440576733469511872e-02
6.008659130747104511e-03
4.003613892234397960e-03
-1.918069710032244135e-02
-4.242529517439409814e-02
5.049753261565388847e-03
-1.829892846267232136e-03
2.563538235989394013e-03
-1.972005334212388952e-02
2.894160399625088365e-02
3.387352986300047608e-02
7.299077966605160015e-04
-6.211042075805449370e-02
-2.501638801140256343e-02
7.085398700935412707e-03
8.681186904643915792e-02
4.829400567493074420e-02
3.782122449315340751e-03
2.325240567316152682e-02
-2.449527274686546033e-02
2.362355138006884750e-02
-1.868179407311742687e-02
7.881409422099808909e-03
-2.143872613975238844e-02
2.447158299757381736e-02
2.040398598017207632e-01
-5.145098763545760331e-03
-1.134043519405261713e-02
-8.968817884423749276e-02
2.772285196572066290e-02
-2.551301798371864368e-02
-2.360962277324637516e-03
-2.625198052835531204e-01
-3.765474779872317324e-03
4.424557308956520579e-02
1.403142418770211841e-01
-2.175677100372859496e-02
6.798979189116871602e-02
-5.512987473333917643e-03
-9.671635198566599922e-02
-4.108955458443833142e-02
-6.414207653132605186e-03
-2.840144983372381443e-02
2.289289825806368681e-02
-6.529983556186938487e-02
-2.719982889795274569e-02
2.257254827368058298e-02
6.495693886346018409e-02
2.759764058641853493e-02
3.465666532176910064e-02
2.902722756465143591e-02
1.294988228200611401e-02
4.754646075483830170e-02
5.453512855760864891e-02
-1.728158494965189099e-02
2.954518290077781315e-02
-3.682773516979663542e-02
-1.855262129739026697e-02
-1.267629477371284494e-02
-2.161420318207701169e-02
-7.580483180042003714e-03
1.051808034178780688e-01
5.984654070336170757e-03
6.125880363277520259e-03
-1.443830888818102391e-02
-3.134397478069799597e-02
1.366044980445613524e-02
-2.981530052400056530e-01
-2.530962868555615419e-02
5.598173241689102450e-03
-4.017054697053266954e-02
9.393406455850737344e-03
4.007221970081880497e-02
2.856067481711330527e-02
1.307708734174796439e-02
1.930812352806056398e-01
-6.095989037915982428e-02
-2.337029697548761650e-02
-5.034140391199518755e-02
-8.934708279837000333e-03
1.651483660801801590e-02
-3.062613467447591539e-02
-7.834826952695340962e-02
-1.092140355847699695e-02
1.747594373456236652e-02
-2.496948509466690586e-02
2.916154053420805334e-03
9.526578441006038067e-03
1.056334530184297425e-02
-2.813427816883069116e-02
-5.114145976148719991e-02
-3.836736181554281644e-02
4.664711060455983827e-02
-1.064720486440892894e-03
5.932850239033748453e-03
-1.915670389089671813e-02
-4.727287797464477942e-02
-3.456630292931991977e-01
5.419448006311844597e-03
-3.072028701859371158e-01
-3.196964482497688387e-02
-1.930902505093123195e-02
3.097518167119664304e-04
1.022400771948628849e-02
-1.091973499470907764e-02
6.148649447570252516e-03
9.285017707271152679e-03
9.163522970076075358e-02
6.360478068148843478e-02
-6.318872113286391236e-03
-2.678727994118795808e-02
-9.574758472844342727e-02
-3.060653605127009250e-02
4.122660260382194318e-03
8.744185214216687596e-03
1.912658215850215199e-02
8.597498413775691087e-03
-8.454612176243677876e-03
-6.291591016465801489e-02
-1.508031006449117757e-02
2.836786163301334082e-02
-1.627244062396938917e-02
-2.880031873857262503e-02
-1.455284174675923817e-02
-1.091044387143334272e-02
-1.068023562933928874e-02
6.706739857241331149e-02
3.143400955842130112e-02
1.377267326540554393e-02
-1.743135700843903568e-01
-8.339486160127713293e-03
-2.278545188159236332e-02
-2.139887048321855931e-02
5.933431884579345832e-03
4.300253009750784139e-04
-3.416986018747535797e-02
-2.992872912868329779e-02
-9.357069849387585417e-03
-5.165993970462939150e-02
-8.322716275042857381e-03
1.349436462511233604e-04
-6.413649904273425670e-03
1.621686147848905996e-02
1.673654433784300954e-02
-2.033377630691267715e-02
-2.226645645835733864e-02
5.048777212427666555e-02
2.041946062335431994e-02
-4.181833433394809875e-03
-1.589118460560781654e-02
-1.593539090640976649e-03
-1.394058872370243507e-01
1.762697396893519661e-02
-1.973942744722657558e-02
-2.481501529431206360e-02
-5.011801097135986510e-02
-5.544080003474847855e-03
-2.388672690672751994e-02
-7.674099404371356736e-02
-1.030758060465160851e-02
5.947773707743749839e-03
8.458922332290589804e-03
4.292927085590610148e-02
1.432743926605127213e-02
3.860192065448209142e-02
6.151412994126142370e-02
9.562788401045175385e-03
-2.113970575387295533e-02
3.712156803683961531e-02
9.847138178838369532e-03
-5.557163243426247422e-03
-1.683263654248491614e-02
-5.299467056139687410e-02
-7.799897241369726369e-03
-1.098690629713344920e-02
-8.154419981824838001e-03
3.506295447607599147e-02
1.662939968442152944e-02
-1.160833218709376481e-02
-2.948426226055813476e-02
-1.049436304660283058e-02
-1.491878526950699176e-02
5.221305772229991628e-03
-5.836948220620193778e-03
2.761093934280697479e-02
-1.388930850780201176e-02
2.261546732200181986e-01
1.720866150039993270e-01
-1.138988833126728523e-02
2.754489850906090970e-02
3.120638247618818736e-02
-2.826793525913894739e-02
-1.418797542544366318e-02
-1.760333838424046199e-02
-3.925581011565377164e-03
5.516530506097058750e-03
1.946486610893565297e-02
9.019006179252265359e-03
3.055109295490490880e-03
9.304012918677952030e-04
1.461916380549708322e-02
5.009586942365504975e-02
3.539105977122622253e-03
5.848166583092304603e-03
-1.058123733252277626e-01
-8.317853695423028937e-02
-7.075181992327414515e-03
-3.282127907644638402e-03
8.675616638333620914e-03
-2.391034397816026863e-02
-1.941364787387954427e-02
-7.051473100576841069e-02
3.345181516073421433e-03
-1.839680082716172241e-02
-4.137303010767359041e-02
-1.690348630718902304e-02
4.221042457108377388e-02
2.594464142527208583e-02
4.128520694384077254e-03
1.709007112812892248e-02
-9.895396375710953114e-04
2.459430166752565178e-02
8.341416246493914624e-03
-6.344509323189084782e-02
-1.574929930512531523e-02
2.527529906202108032e-02
-1.294965121169020655e-02
1.052175042871870449e-02
-3.984303307304466746e-02
5.138245636257333243e-02
-6.035242964299755708e-02
2.529551143324007892e-02
8.577976119460542547e-04
3.718196059939607098e-03
4.611165816188762118e-02
2.016269241257089180e-03
2.326001166157370958e-02
5.004021476104547270e-03
2.738590064720017314e-01
3.483269344571414145e-03
-2.613639615516516815e-02
6.154089502103198168e-03
-1.179989770026764612e-02
5.729215820805255537e-03
4.480705460085442765e-02
-1.359392476193883870e-01
8.019543292805937987e-03
-1.297739205292928674e-02
1.128059508956125861e-02
-5.347257333302688626e-03
1.020721068167599645e-02
1.875143877962551957e-03
-1.951615102139309110e-02
4.199717286076671413e-04
1.622468598298379416e-02
-5.880539028407450386e-04
1.207955435975262802e-02
-2.227928163089539990e-02
-3.429672497069770343e-02
4.202789876536371441e-03
-1.049150970311328451e-01
-1.979511237716805733e-02
-3.879382898564469589e-03
-8.976101237401867480e-03
-2.212735042355026133e-02
7.105947184452944543e-02
-1.051462521435264294e-02
-4.426929271540200328e-02
-2.527502616391651743e-03
-4.347300128479948678e-02
2.307702520188699424e-03
-8.834936007293670707e-03
-1.311728572389639531e-02
-6.885002235825233782e-03
-3.435872326781234942e-02
-4.299095438378318194e-03
1.514327764433633572e-03
1.545454848719928637e-02
5.256589234829483863e-03
-2.129543444029457014e-02
1.216451208470443676e-02
1.663916315658615086e-01
-3.062523298671987471e-02
-1.011770909124047255e-03
-1.599281578372906349e-03
-6.210863565445081010e-03
3.422250821820956024e-02
2.524165230311824909e-02
-9.661728958330083328e-02
-1.836722070086838424e-02
1.770371872590759121e-02
2.027897103196222087e-02
3.156501534084834443e-02
-1.388873708447149191e-01
1.581672998400824454e-02
-1.125970643052666897e-03
4.340639354222933927e-02
5.513687647939160413e-02
-5.274636700508052861e-02
-1.452118032003295311e-01
-2.452567504800793122e-02
2.298067710832142618e-02
-6.446460157414191094e-02
-3.359834517031388967e-02
1.184182696476210155e-02
1.204903636493200383e-02
4.418268970901535753e-02
-2.460062877666222697e-02
7.165414350367177443e-02
3.055153823330941654e-02
3.326274170168166955e-02
1.231001909742039310e-02
-2.913194357476891865e-03
1.077037246515858901e-02
1.275188724546182095e-01
-2.643276813138388526e-02
-6.821642282552218758e-03
9.507059913921568628e-03
-8.696680820228848419e-02
2.856705897193033417e-02
-1.893314987315355968e-02
4.516469852981579158e-02
3.549641990544395720e-02
-1.068999099775177694e-02
3.542288112126402988e-02
4.546082501305408544e-03
-1.855425365295035670e-02
2.347748414847461093e-02
8.082532048693018278e-03
7.938367003548535590e-04
3.626868987089222965e-03
-3.635991212593057964e-02
9.060387353392630738e-03
-1.462620217514664853e-02
2.465077510032896973e-03
4.805002859768118736e-03
-1.985366885978906079e-02
5.073560381962736142e-03
-8.993922855460384502e-03
-2.246940225892797571e-02
-4.718664775083483698e-02
6.206879487901542300e-03
1.658454006469278763e-02
5.201967067351850882e-02
-2.894172072275522350e-03
-1.106537403037663111e-02
2.534166003556179159e-02
-7.269007434656482580e-02
-4.433329928012571391e-02
1.104426539178290229e-02
-6.600230671697834839e-02
1.025093540833880296e-02
-7.753950053658936574e-03
1.572406012087297286e-02
-4.483638336029969335e-03
7.061098092822529204e-02
9.982375844572292239e-03
9.091499091308578168e-03
8.444143368692467273e-04
7.875538518004689126e-03
2.514439324195202885e-02
1.348860989112425635e-02
-5.838726326215383511e-03
-8.671323822392249664e-03
-1.394557147221565062e-02
4.376400877559970780e-03
-7.768661830315023997e-02
2.453364455999081442e-02
-8.053337933940449278e-02
-9.900547718483077714e-03
1.392001266425079743e-02
-8.688874935769896543e-03
4.217520173202777417e-02
7.265976454858787733e-04
5.308258958519143991e-03
6.746724784361564364e-03
-5.151601945635847501e-01
-1.102621196702843615e-01
2.274096215793525600e-03
-2.511677008612908657e-02
2.035021343581464373e-02
-3.631150983708129193e-02
-6.030860784405859577e-03
-3.538453197913771307e-03
-2.718830714728258727e-02
-1.736534676217595108e-01
-2.041451091205591026e-02
3.640448245725173837e-02
-6.533936282625952760e-03
9.400989561074760137e-02
-9.455212924516476561e-03
2.215035870002027285e-02
9.334552792597895776e-02
1.571133064081032399e-02
1.538959491481158535e-02
-6.742263517318969855e-03
-5.257863367257835374e-02
4.883708157737087080e-02
3.010544461193314161e-02
-5.896217678027042969e-02
1.690782899706951567e-03
2.908920359393166524e-02
-1.635877301333083650e-02
3.583957499541551989e-02
2.259465099097392182e-02
-1.328815346341874482e-01
-2.646991378103106043e-02
-1.891720709504363454e-02
-2.063432954273623256e-03
1.251978666325132515e-02
-1.792302805439070432e-02
-8.592463036512572316e-03
-9.163763591182805951e-03
1.218030664870785665e-02
1.544570428124540651e-02
-4.179067611027201257e-02
5.860127775531565053e-02
3.930636000948340564e-02
-2.818072208300350084e-03
5.984733054625907683e-02
5.303309210650392937e-03
3.678310387988418390e-02
2.540175659060051397e-02
2.307452170331464845e-03
4.590707267803269265e-02
-2.695405980468160330e-03
-1.237840022655778329e-03
1.868890318589119717e-03
-3.746571411053237904e-02
3.148569809552156235e-02
6.637604112525861966e-03
8.082588027891561555e-02
1.609653690378837904e-02
7.079731139198516127e-03
4.248617700028542617e-03
2.563509456402460196e-02
-3.111330532860031098e-03
3.060652328908629143e-03
-7.614645078513703966e-03
5.972073286720180202e-02
3.545494260258384017e-03
-2.624239115043562262e-02
2.199898097595932162e-02
-2.253976190689189335e-02
-2.541229658502535196e-02
-2.764254432336670300e-02
-5.082862546007248586e-03
-3.454358076823631218e-02
1.958082900508591878e-02
2.978435475356832618e-01
1.073061174617308405e-01
4.187628029928329443e-02
-3.728663998428588533e-02
3.283716936459753818e-03
8.380914510443629797e-03
-3.523796179812842266e-02
-3.079711875234198218e-02
-4.867095257362209770e-03
-1.701193959174448697e-02
2.369811343905317211e-02
2.216513647490008995e-02
-9.587629312128328682e-03
2.335204006416854300e-02
1.221628293917955072e-03
-3.186874157859365814e-02
4.867276401008894735e-03
-6.718569779969452279e-04
2.176263135943671059e-02
4.275723239851618451e-02
4.108912651413725720e-02
3.016921492136023786e-02
5.274565774656931466e-02
7.363131962244350015e-02
-1.221912364049182464e-02
7.195304023827652981e-03
1.373638092225070925e-02
2.067650847136709175e-03
2.743643131739695578e-03
-5.670220817329184489e-03
2.247977116583112223e-02
1.234919840101500119e-02
7.601415980532053029e-02
-4.834050434405961182e-03
5.830812833946918960e-02
-1.810784540742407800e-02
-4.451727042666270631e-03
-1.938600976369398224e-02
-4.152527423458640676e-02
1.733013480054540478e-02
3.018772893689554079e-02
-4.579851271778419275e-02
3.119345099994426385e-02
-5.158727180513740344e-03
8.250002860478004851e-02
1.131984880512600447e-02
2.005488881169310844e-02
5.653269303460890099e-02
8.995748529848608677e-02
8.992691542138728233e-02
-7.480961420316543237e-03
-1.194578989599317034e-02
-2.244601809517800597e-03
-9.124435117264994774e-03
5.437124023244559873e-02
-2.071843198215375312e-02
3.713369502417556561e-02
4.158016045477977429e-02
-1.476681632959372659e-01
-1.430971371123898085e-02
1.061853757402108148e-02
2.116853833895350478e-02
9.488167394268189753e-03
-2.515541433727736323e-02
-4.128756694420757101e-02
4.343635343999503046e-02
2.143197345006254279e-02
-5.618580896054998185e-03
1.779743016417503418e-02
1.744641876222680077e-02
-5.604824909679250594e-02
4.175100463295502301e-02
-6.788366459725920198e-03
-2.127885594486039061e-02
7.457415396359905191e-02
3.243740333015590616e-02
2.511241751120812590e-02
4.100300225121093767e-02
-9.349698772592113585e-03
-1.904021270303537378e-02
8.047855702934977829e-04
-3.028982822697699404e-03
3.426775869848219108e-02
-3.697295845633780803e-02
1.383702405481878304e-02
2.038327833455437499e-02
3.850210262311107041e-03
-4.171819257060589009e-02
-6.230296768476372565e-03
-1.545263846051804155e-02
6.220349062705755536e-03
-8.648234478318169230e-03
1.464774170038565630e-02
3.765605823469569957e-02
-8.672691494834834300e-03
-1.074005833111897276e-02
-1.444736065168106612e-02
-7.702592257088027375e-03
3.316038936514052737e-02
-7.321933890598027704e-03
-1.554177234877237093e-02
3.055185030526019405e-02
2.182509210892243784e-02
1.310508424342838804e-02
1.456230292429155741e-02
-6.913796274383520943e-03
-7.292697517511355712e-03
-2.614440288063666880e-04
5.447946771117887638e-02
-2.096154221180972221e-02
-9.197660025526777083e-02
-1.680080676210917931e-02
2.118807835707864004e-02
3.872613931649940971e-02
3.036659022605847462e-03
1.389519834781452468e-02
4.040195275710309342e-02
1.005802653179873772e-03
1.376937607078448055e-02
8.318576502488671601e-03
3.448948261101483781e-02
5.033125214376018425e-02
-3.398265846496117265e-02
-1.506906772497438457e-02
2.677232974608083696e-02
1.953361550229727392e-02
-2.766949301698284902e-02
-5.021845195619951269e-02
3.553336327320098104e-02
1.999984175966157754e-02
1.524551411818728976e-02
1.342424178654052884e-02
-3.304846162407749227e-02
7.174402136856175560e-03
-3.914659110446393891e-02
1.175119884121749760e-02
-2.032257933115545062e-02
6.251725890774125979e-03
-2.216788991685066101e-02
-3.666708909011036441e-03
4.505751602086533608e-02
3.066561033874734207e-02
-3.966883248416897684e-02
-1.645481023407312227e-02
-1.984263904643521204e-02
-5.150439259065309194e-02
9.785168711879657644e-02
1.509266649951516159e-01
-4.941994071586938014e-02
1.934047808752321906e-02
-7.774864461462330234e-02
-7.157486161159616611e-02
-7.587388644862921860e-02
2.931396269000947213e-02
2.758426934934377420e-02
3.355128180719968434e-02
-1.466801575914645529e-02
-1.474732908440986971e-02
2.979504202998858181e-02
-5.198189346467096093e-03
-6.681483764290535587e-02
7.803966108726202375e-03
4.845292643076262729e-02
-5.786504854653382740e-02
3.536273116714844233e-02
3.524856314452733119e-02
2.261730499040193534e-02
7.295036641610386750e-03
5.837079463291867942e-02
2.038966867901586405e-02
-1.359656991625777557e-02
2.620718208865781620e-02
4.117565069608512644e-03
-3.759602036653026010e-03
-3.356017164943982806e-02
8.655033217400849577e-02
8.835637233517150413e-02
-9.893660788677533305e-03
-2.057564244435523479e-02
3.131030230754076361e-03
-1.171176126940946458e-02
-1.659481030119708614e-02
-3.087472765618148873e-02
1.362083997572404760e-02
1.988237446503453298e-02
-2.156454382763708932e-02
1.865027494000588357e-02
-1.003418942128247136e-02
-2.293629013997812438e-02
3.008419501947671819e-03
4.867837358709875550e-02
1.910747787029723130e-02
-1.886870321996020339e-02
1.178842065213069577e-02
-6.310585450907008065e-02
2.868530893351583719e-02
2.918864673325307149e-03
6.028230716225837366e-02
2.275856869033148974e-02
9.195718031353080149e-03
1.184213347673798711e-02
8.319060225516728205e-03
-1.958450673572456960e-02
1.128468450762223907e-01
-3.520306163048832204e-03
-2.767971955598506895e-02
-9.493396002304598435e-05
-1.189094862291776786e-02
-4.433838945959097679e-04
-5.102301191539168612e-02
5.197860326596102053e-04
-3.665384087223754091e-03
1.394721006397429686e-01
5.386986713778800506e-02
9.537118304548774031e-03
1.425248688241949162e-02
1.273725301897757171e-02
6.207405565180957631e-04
3.287651941075315359e-02
5.327591030331912947e-02
-1.778457907898696108e-02
1.518753299685801292e-02
3.263044249207554259e-02
3.660458443674655289e-03
1.083412738468615341e-02
4.931369068757923690e-02
-3.951902509289591942e-02
-1.724967805312650976e-03
1.626448449564306094e-03
1.190499128014904477e-02
1.488229788336241539e-02
2.760721974723516492e-02
-2.694612186807233620e-02
3.130551524268512104e-02
-3.034135407053020067e-02
4.881190296017699076e-02
1.777590394677508456e-02
5.421029568672165733e-02
-4.545292113352340790e-02
6.776026365434366372e-02
7.802048070418179937e-02
-5.518743734528797074e-02
1.023149760935364132e-02
-2.989524599678170316e-03
1.441901540868701682e-02
-2.915707406317834868e-03
3.733526330450360683e-03
8.104748988825463685e-02
-1.714172697140002241e-02
6.794694335393586249e-02
5.344417148693881604e-03
4.784073804359547516e-03
8.171081064357278712e-02
7.852960270001585474e-02
-6.483224743028236092e-02
3.599448843239251572e-02
-1.153658420138350821e-01
-1.315485844250594179e-02
3.028825150776526948e-02
-2.775795358337946293e-03
-6.072200191421408405e-02
1.679059807473482629e-02
-6.067293005203006941e-03
-3.790782754151993811e-02
9.348447488093934374e-03
3.647592206265178830e-03
-1.287813529911855867e-02
-1.671379572345900455e-02
1.798731112374412494e-02
1.263901513808272752e-02
-7.328334055135063418e-02
2.626596844388880830e-02
-1.925852029117067210e-02
1.391904037750126694e-02
6.390095387767202872e-02
-1.254103776325516577e-03
-1.002979283651062037e-03
1.922238159517564507e-02
9.994088997241785954e-02
6.346921188672982606e-02
3.076262466350732777e-02
-2.150977940373605402e-01
-1.965723815628556137e-02
-1.621325275486965034e-02
-7.985166112814741368e-02
7.508408179385980818e-02
5.272216566864450921e-02
3.453874098922519315e-02
1.035648128946481256e-01
-6.885821959510747201e-03
-6.316147103858354983e-02
4.251709053883415308e-03
-3.601340948954019627e-02
-1.667952314841664174e-02
5.136764375527417582e-03
3.305358686846359296e-03
-2.560477431064668574e-02
-1.108030462280923693e-03
5.237321721318137502e-02
-3.313038070832654419e-02
2.309785804797270456e-02
1.123822091876916680e-02
-7.863304265847666577e-03
4.649912004118428657e-03
1.005817540557117640e-02
-6.444722846066788802e-02
5.725362389783008286e-03
5.508704642569935139e-02
-4.559261354974547369e-03
2.554939492625277198e-02
-2.789864978402231341e-02
-4.973922948740475136e-02
-7.016845708591132671e-03
1.046374870009359748e-01
1.394825451952969725e-02
1.044983824809531114e-02
-5.139946850501848213e-02
4.852197749896985934e-02
3.963430702415952911e-02
-2.404715057881813556e-02
6.323204932698646419e-03
5.141606759550557820e-03
-1.556743195293211479e-02
7.142614439396996473e-02
-2.396620271907137778e-02
-2.015204202841578557e-02
3.232849783099334129e-02
-3.075816250681292011e-02
-2.641151897753250821e-02
-3.239002810267909566e-02
-9.932008384527514847e-03
2.940303879885940164e-02
2.715810782837658772e-03
-5.074759324573814567e-02
-4.987959144550097035e-02
-1.338863225536709133e-02
9.168360953323845611e-03
-4.419768973362578346e-02
-2.828722045453666012e-02
2.296172812360160447e-03
2.097344906564842584e-02
-1.727280866895759548e-01
5.210241823282121300e-03
1.083923742350817974e-02
-1.177151952733577200e-01
-2.565813683896132555e-02
2.960627401919388793e-02
6.186200837249395887e-03
-5.814462890759532904e-02
-1.781428171418358158e-02
1.620246032351733284e-02
-4.537917893917588208e-02
-1.866106743255121353e-02
1.794257101291454447e-03
-2.068946199378593476e-02
-1.934219643285088608e-02
2.482616487027710164e-02
3.997892210726928380e-02
7.839022495375136054e-03
4.393747618894115053e-02
1.669173635113608656e-04
1.246253434344945024e-02
-1.121752446163642829e-02
-1.058599142359986818e-02
-1.821730349826582163e-02
-6.272878801954141943e-03
3.162132984665230219e-03
1.127306604289433911e-02
-7.036182805877946173e-03
8.128285439549493008e-02
2.767232025731260897e-02
4.060711620492388207e-02
-2.373577453421148176e-02
-3.233160203997037518e-02
-1.666196110169940528e-02
-5.508270245837040141e-02
1.875015396632576667e-03
3.648640874039416754e-02
2.697541889737543538e-02
2.453079159533273421e-02
-1.540764091632922572e-04
1.158003567346109486e-02
2.458471215005326310e-02
-5.173239083797154247e-02
1.128311448155050814e-02
1.804833121372957094e-01
-1.123483278468981371e-03
-2.423204986628449409e-02
9.023717834190956438e-03
-5.528523150394248908e-02
-4.040675851320645051e-02
9.830593060028203212e-03
-3.879780595165375633e-04
1.134420028672825272e-02
1.892990742456341496e-02
-1.117126429235824805e-03
5.952378996196493709e-03
2.635132604079645086e-02
-1.300220114591592140e-02
6.846337524936870096e-03
5.736568534764411448e-02
-7.247290945926612715e-02
-1.379385905116971012e-01
-6.215617460818006340e-02
3.480246511296795908e-02
5.483814329231013161e-03
1.322181612128092362e-02
3.196144557535766234e-02
1.550999155610658341e-02
1.363390517867956592e-02
1.111544358011928814e-03
1.433502172382810497e-02
-3.136806943664335878e-02
2.024353590283676368e-02
3.522218872422474417e-02
-1.584950815472607744e-02
8.203181975039636198e-03
-1.207384327552189773e-02
-2.373586630045616125e-02
-4.989653107002871291e-02
1.524256931706274854e-02
2.074431619591708686e-02
4.698930239607307380e-02
1.675339172577092889e-02
2.340223169404164263e-02
-3.062168271293559674e-02
1.568666221367257668e-02
1.584243028239141213e-03
1.331926536512803745e-02
-3.652475501941846586e-02
-3.628964818939607595e-02
-7.360351314701735204e-02
-3.911575983075225166e-02
-4.678606793109382073e-02
3.891953373380785570e-03
-5.536684811978717820e-03
-1.782748717471334052e-02
-1.408359438151768166e-02
7.240872679482254770e-02
-2.324005234963530744e-02
-3.628001464856471080e-03
8.492814172330342276e-03
8.195980251421087137e-04
-5.038938029884411363e-02
3.076626007002919785e-02
-7.816470414516959661e-03
1.055091822483418366e-02
-4.953355035686042226e-03
2.656219931927972320e-03
1.478095386505567585e-02
1.628156944900177247e-02
-2.992433709485730828e-02
-2.751581671179100311e-02
5.649800608381041686e-03
1.554713424640681574e-02
-2.293521213994779290e-02
-2.148281802125230622e-02
-6.033713477760598021e-02
-1.497085421723704304e-02
-1.556237275853601925e-03
-4.085894172193474394e-03
-2.357802390883493530e-03
-2.048357838831168024e-02
-2.730292477413563332e-02
2.375207170015682448e-02
2.577239643601918553e-03
-1.430674802689120388e-02
1.385084445769112910e-02
1.421332111821418595e-02
1.868342149838549127e-02
1.768859707908880530e-02
2.622434388223396362e-02
8.804619537187495515e-03
-9.419043246049375873e-02
-9.225761017020391030e-03
-1.356450913446236896e-02
2.788096605347918297e-02
5.406414006138644118e-02
4.295228159472249535e-02
6.645199973586497777e-02
3.321553897351351564e-02
1.760144679311828955e-02
5.436946528147382912e-02
6.640626004071728539e-02
4.471044269010513057e-03
-1.233970317802363451e-02
2.267992045145512253e-02
3.323616632343545652e-02
-2.849860499736873044e-03
5.243425059282135099e-03
1.938815509363632159e-02
2.844438842889067745e-02
-7.132794137883641250e-02
8.236962168885857138e-02
5.679995446855468783e-02
-6.568284618094600430e-03
-6.522215050597561341e-03
2.459181382012038883e-02
1.266517572391150093e-01
6.623977178380791031e-02
-1.455216703107614119e-02
1.356209564306625447e-02
7.756804817662907824e-03
-4.304534241137148581e-02
-3.460615023530257128e-02
7.454570269623154999e-02
-1.384790964893815694e-02
-8.058174034489769266e-02
3.015516364886659459e-02
5.599865294892231171e-02
5.974024611489071705e-03
1.048855963255741416e-02
1.468427428426680170e-02
5.089673742532041523e-02
-3.690190376819051793e-02
-3.178977914024561785e-02
6.365472331198207588e-04
-1.887805384341197101e-02
1.016399814127747353e-01
1.017261733335550478e-01
5.012559170964187016e-02
-1.206253382137259661e-01
-4.658343644623216123e-02
9.323644185597089462e-02
5.144257656315558841e-02
3.206753150774744460e-02
-1.149989426474546522e-02
-3.568786715120882136e-02
1.659073237347700666e-02
-3.074264622672476938e-02
3.372720732485681716e-02
1.377367326959068848e-02
1.965951784453177226e-02
2.358045215988090887e-02
1.904982494709997129e-02
3.244473510621139877e-03
-2.671414813998587712e-03
-1.237814394683556772e-02
-2.753953867952292980e-02
-6.466827962777281502e-02
3.684963395833093514e-02
-6.055641074848528566e-02
-2.543850375679752515e-02
1.267483074093240722e-02
-3.327463712988397437e-02
-5.993209690288499314e-02
-9.109910397738301205e-03
1.905467303153146608e-02
3.151921279935212400e-03
-1.085980811415713371e-02
2.234638070894153991e-02
-2.564121298422473647e-02
2.422886958808887631e-02
-1.102084129846749895e-02
-4.037402015029635527e-02
2.225340544971867937e-02
1.635162018738431366e-02
-6.169921887447567775e-03
-6.544441540594843646e-04
3.248684920925820618e-02
5.276626432052111682e-02
-9.748923754202028225e-02
2.443017001565252547e-02
-9.484011507498576674e-03
-6.057896063104730583e-02
-2.828080969925244118e-02
1.518330635698177111e-02
-2.663582663262209146e-02
2.384063955108440755e-02
-3.308408657837568628e-02
-5.865151123233280223e-03
1.760923052094816310e-02
-8.189463837940199123e-03
6.612081410229045733e-03
9.614208928462444903e-03
-9.824999935062089448e-03
-2.661392783833950795e-02
1.807837162663335911e-02
-3.613488088162031958e-02
-1.242582001624471105e-02
1.389511671990584880e-03
-4.088310165290227199e-02
-1.167989494229807780e-02
1.328562853237610052e-03
-7.569369629829751644e-02
3.403335880868549931e-03
3.671821831680741749e-02
2.233579065444254302e-02
2.963347284552692897e-03
2.180917785098657538e-02
3.961678567868128983e-03
1.177857238002295338e-02
-6.411669471736468513e-03
-1.362388182503356839e-02
8.643894886438407976e-03
8.487005886936757268e-03
-1.028054048564199657e-02
3.407118821670018088e-02
-3.100150956085339846e-02
2.086393672966082094e-02
-2.332010225381270230e-02
-2.631387037711054380e-02
-8.212451926296757132e-02
-1.443469471158641444e-02
-7.438590346167109346e-02
1.221099345035599019e-02
2.482731143253313205e-02
1.085731762903436801e-02
6.549940133641946050e-02
-6.548020942958143742e-03
-1.088954370299550639e-01
1.219848395248481106e-02
2.759708926315534647e-02
7.304371201850028486e-03
-1.557791756790361491e-02
4.167567776989389988e-02
2.593003773009413399e-02
1.439784036666653597e-02
3.547844757870179111e-02
-8.299819216600731742e-02
3.840497149230987645e-02
-1.429898378667384708e-02
2.682821192442775421e-02
-6.493176564718724716e-03
1.136809104386217184e-01
1.136996838825872838e-02
1.139390915147922914e-02
-1.075200208792645787e-02
-4.390926656120172633e-02
3.166773854731860793e-02
1.048150719795636621e-01
7.591917816373085562e-03
-6.040920651732421039e-04
3.235667837789905216e-02
5.351589805839343517e-03
-1.126516876946796752e-02
-1.203165479880573263e-02
-4.159848991264646079e-02
-2.182907472811497409e-03
-8.326745172637286391e-03
5.271182015278320226e-02
1.085172825542675239e-02
1.062670567457064778e-02
1.629800919192970696e-02
-4.509524136470571126e-02
-6.067412123584580395e-03
-1.720986195397600921e-02
1.258566545020342944e-02
-7.999375547625203406e-03
-1.241002441445245193e-02
1.316180569856327618e-03
-6.281533753702385481e-02
-3.834964239930255259e-02
-4.102606384959681801e-02
-1.363231006358023648e-02
-2.427500896830346866e-01
-3.075971375149711903e-03
5.918249746158695153e-03
-1.526529667887050606e-02
7.126399349209610289e-03
2.741393784544643442e-02
4.629979470890903739e-03
4.775997043046329230e-03
4.126037744065547130e-02
-4.686688290929321050e-03
3.171605246962088537e-02
-7.967927313613079598e-02
6.864177051191763801e-02
9.407331232428996215e-02
6.507737262792204214e-02
-7.149404428482419513e-03
-2.871130070457006390e-04
2.930103187360073164e-02
-5.974311037506947145e-04
-8.286413695541531774e-03
-2.250807682091680514e-02
-3.872422113578669056e-02
6.029259298361358543e-03
-2.176334318333963611e-02
4.025609541651815199e-02
5.002996974633437677e-02
-4.143360284630172308e-02
-2.342956063946081621e-02
7.569122903198848007e-02
2.439508670383772060e-02
-1.435113396529381739e-02
-4.265476977019680253e-03
-1.373799266850049029e-02
-2.756178587918471368e-01
-1.118716234289373335e-01
9.595202070382211068e-03
-2.675896994325490871e-02
2.423191646061113175e-02
6.518130025941382133e-02
-9.518779901698973950e-03
-4.828086887091951468e-02
-5.073161709425245275e-02
2.892440394634116993e-02
3.455369945653375546e-02
2.094142300438060419e-02
6.789881346323880379e-03
8.447762728651475247e-03
4.961505839838421805e-02
2.177507147039704424e-02
-6.130591250965229666e-02
-1.095597657921701384e-01
-2.376082061171313001e-02
1.379538300440550681e-02
-3.732430189371909596e-02
3.805619270515763972e-03
3.991448611406385460e-02
2.793642949912103230e-03
2.639968492484550885e-02
4.276963917525827136e-02
5.698709004441430276e-02
7.589915818669569492e-02
-3.061345152060968022e-02
1.116777674606292056e-02
-4.324312978748737733e-03
-8.696595136027811300e-04
-3.765782755969424717e-03
9.666435460817572600e-03
6.842645490928878083e-02
1.748176678996781266e-02
-7.183530447384033069e-03
-4.263668037531209709e-02
-3.401992503514779387e-02
3.708733418134541743e-02
-9.322664285037550458e-03
6.637052305908746307e-04
3.594710825465208259e-02
1.576923877609591592e-03
3.332111511580278240e-02
-9.209966333002289791e-04
1.134204501299312939e-02
1.714737795720470623e-02
1.241453012624984219e-02
-2.914007110528041289e-02
-3.752811141990723427e-03
-1.053972680524944798e-02
5.597071218388572538e-04
1.291850615525632663e-02
1.017284161189821630e-02
-2.571512572749129130e-02
3.376726312496971041e-03
-2.432725511339291560e-02
1.810951544772968977e-02
-3.966628581933838438e-02
8.623056520637190081e-03
3.379956303146258029e-02
-2.867680102977386222e-03
-3.837217252947899837e-02
-1.369949799365662371e-02
2.534023436950061034e-03
-4.518925489522371275e-02
1.302940749995176728e-02
-1.928688309630393824e-02
1.076391782024914076e-02
4.141336113170849230e-03
-3.334668723370878547e-04
-4.349150386117853206e-02
-5.666333639101312630e-02
-9.999705193747503509e-03
-8.878481062053111481e-03
9.736061197236316536e-03
1.687352705530798663e-02
1.355957479208876049e-02
-4.303743060102141645e-03
1.737279639610462070e-02
4.553715865549985697e-02
-1.493945397720712609e-02
2.472379167776373593e-02
2.147136868941171284e-02
7.316999083197325143e-04
-1.855214662807156550e-02
-2.310062398326781161e-02
-1.301739074851526734e-02
8.448868013557989803e-03
-9.614561845580512495e-03
-2.828989325932309770e-02
2.778421987322829412e-02
-1.171082735698150343e-02
1.755485808308901788e-02
4.898046901592695290e-02
1.938853926895099233e-03
4.418207667241611653e-02
-6.209063496052319442e-02
-3.535629399811188178e-02
-6.268201305042751846e-04
-2.184792950393510749e-02
4.019695496230827475e-03
-5.510553029130740854e-02
1.100070258354177988e-01
1.423440666517792989e-02
-1.634656278595476853e-02
1.272575287981440179e-02
6.027128147881422905e-03
-1.660821142845246220e-02
1.930256575472797873e-02
1.843109328333085092e-02
-2.699702435076748938e-02
6.067055445089369892e-03
-6.815253098524985675e-02
9.430802719241144355e-03
2.390620863301122501e-02
-2.454243226209283559e-03
-4.701591028304333286e-02
-1.359767910877161465e-02
8.360925570917233582e-03
-1.999114754053708549e-03
4.871572938163964278e-02
3.880625740778325533e-02
2.450325836340541685e-03
7.695799160646196128e-04
2.174014840038800828e-02
2.462856166184508241e-02
6.156751267565981067e-02
-4.723244006828842753e-03
-1.267228379702383355e-02
4.181908550651523143e-02
4.559676439178030755e-02
2.638905877196788888e-02
7.261321288071743985e-02
5.822003328869829880e-03
5.411252963447135689e-02
5.851185628935416834e-03
1.785309241540434383e-02
-2.135761611539454749e-02
-2.549390902689857227e-02
-2.697793211476405204e-02
4.039568384274069140e-02
1.916102995461110153e-02
-1.098052839051910819e-02
-1.283198592547126274e-02
-7.600397224482345962e-03
-7.111619725443407702e-02
1.002265828114772689e-02
6.342272150367284089e-02
3.551595636630191372e-02
2.022472139948184797e-02
4.396714258617327037e-02
-5.067416841807181188e-03
3.700633692269270168e-03
3.091075159323757385e-02
-2.442458333700250547e-02
-2.042565547070087240e-03
3.456747839298778512e-03
-4.383892389661822597e-02
1.220775995496627825e-01
2.474701159367642678e-02
-1.306747124975330895e-02
-7.439132935758603626e-02
6.361316536457957416e-02
-5.793072377187129945e-02
5.972702491126289509e-02
-1.242095121785051319e-02
5.153490280225737213e-02
-1.917854833757519015e-02
-2.389115486571258273e-02
-5.978859917646633590e-03
-2.327796122966133488e-02
-2.038869328684398720e-03
3.380442628678542727e-02
4.076264144802562578e-02
-6.038037301437456164e-03
-1.141274608242213474e-02
-3.454983403463860597e-02
1.263754825016716148e-03
9.560090368140627612e-03
7.228264783227627589e-03
1.061336709177286564e-02
-6.359514970294417001e-03
-1.583509903160892074e-01
4.303021420279930730e-04
8.572174635574660723e-03
3.399816312298501678e-03
-1.295629815875494473e-02
3.694661892166027813e-03
-3.985988900641187355e-02
-7.580278964960464154e-03
8.144350336133754364e-03
1.695785046252897346e-02
-1.704459433820688929e-02
4.179277685523147268e-02
3.114135968783716263e-02
2.803847750371364633e-02
5.612442628446461662e-02
3.518648758650439606e-02
2.644200915089153781e-02
7.635944461289403962e-02
8.299740924579973242e-03
2.814038411550239243e-03
-8.900832177032916986e-03
1.813694323050051363e-02
-4.128830115425006358e-02
2.553880960352566606e-02
5.023108165328091235e-02
2.761977286964096279e-01
1.202063985275229636e-03
-2.405694136454772022e-02
-4.787413475851108602e-02
4.473910635262083602e-02
-6.436815776640038983e-03
2.792493943938909273e-05
-1.894480481000625216e-02
-3.349725039569156210e-02
2.226852082496687951e-02
9.736107654094496369e-03
7.609771965754529022e-02
1.693047107667290108e-01
4.945171662432535503e-02
1.768813886674428263e-03
2.474066133383649030e-02
7.602847744101673411e-02
4.065538446288827212e-02
1.079137833138479191e-02
2.632972095031250667e-02
-1.428227674114765020e-02
4.588869500690338082e-02
2.074567430792795611e-02
-2.302188141375704697e-02
1.508993914782666423e-02
1.056326899855886993e-02
6.058362637800033396e-02
4.941317579434782465e-04
2.020214622759409703e-02
5.475274209722390088e-03
-1.451330813026418740e-02
1.988334588375019127e-02
-2.008373217846429540e-02
-8.691987689833657188e-03
2.898640621253438521e-02
5.105279502945879455e-02
2.784584534986652218e-02
3.776037284132470039e-03
-4.723444059481327235e-03
-8.220238298251386633e-03
5.186441310227445783e-02
2.897385131331807560e-03
-1.376761593586986118e-02
-1.207510269787378208e-02
5.150096953515630877e-02
1.153044419622177921e-02
1.744830261079970135e-02
3.275487528220881201e-03
1.294520884968545192e-02
3.842327033052297253e-02
1.742127030836614077e-02
3.023796979569497514e-02
-7.680223914946254955e-04
-2.683390041135830933e-02
-4.534936482382273537e-02
-4.075097164710896752e-02
3.868998879376311234e-02
6.043808106044789609e-03
-4.109028662000166303e-03
-8.578174123175079380e-02
-4.773053947285166992e-02
2.741681456942266296e-03
-3.166898983731233908e-02
2.470334808473366450e-02
2.452331318187551956e-02
1.996318603235412541e-03
1.374647709439782289e-02
1.022692336349174383e-03
-7.508186235465044191e-03
-6.595777960119920957e-02
4.130369685089236437e-02
3.016170998580232007e-02
2.182836899295097915e-02
1.571031937643316626e-02
-4.587049215230892818e-02
-1.702747766230689255e-02
-2.708328864809195907e-02
3.113692495867920532e-02
3.032475089078871811e-02
1.249747058301304246e-02
-1.062248558855003883e-01
2.232259364899266338e-02
2.177965093124220597e-03
-1.435845871184730956e-02
-2.199968881677496699e-02
1.030226165981209738e-02
7.953443308531538136e-02
1.509348331627443848e-02
4.732909245483361144e-02
-5.421500942745653001e-02
-2.420617250914453358e-02
-1.253594513714682834e-02
-3.809832716600259034e-04
-1.231210513244021705e-02
2.121242943593034183e-02
-7.965055440832866096e-02
9.945572717027513499e-03
-5.488204423925611627e-04
-1.080108495518406451e-02
-2.241119545001059657e-02
-4.709280201293442047e-02
3.481966280257643709e-02
-8.030632572582011020e-02
-8.814023286848450545e-02
-1.847392867132088140e-02
-4.163752558671671850e-02
4.825978821276497022e-02
-8.758796929679599913e-03
2.960022476509056692e-03
-3.344623457509107028e-02
9.058498909970665036e-02
4.709428583287957742e-02
3.670792034160320211e-02
-1.110796144526541712e-01
-9.506600486609538547e-02
-6.086617316165085327e-03
-6.080125904113570061e-03
3.634756553650565769e-02
-5.674051867853180213e-03
1.109278335377177627e-01
-1.915851763360693766e-02
4.654435820117228811e-02
1.830996690936165933e-02
2.149830433269688066e-03
4.365525469983437025e-03
1.551485552478607498e-02
1.713360114538204845e-02
-1.030622214542333166e-02
-2.844710996849117435e-02
2.652442507017543222e-02
-6.103476973449874915e-02
-2.202421269364795292e-02
-4.517758345393874803e-02
7.456897031398674984e-03
6.656915330104114410e-03
-9.105770303133971233e-02
-9.487530969788703430e-03
2.642633423371339857e-02
-2.979147632560946030e-03
-1.948315908450827310e-04
-3.948979789303105892e-02
-2.742977302878885776e-02
-5.264487719031345214e-02
1.922072190288772299e-03
-3.164990461269576866e-02
-7.137760770993845094e-02
-2.487522778962746386e-02
-1.427939530279740028e-02
-9.767104853960270616e-02
-1.576808017942741072e-02
-3.235776168986026491e-02
6.888325267259744200e-02
-2.173018455814805169e-02
6.702301312855454829e-02
1.007207824757711499e-02
-4.361109757296472433e-01
-7.294970022748353822e-02
5.856823324608205483e-03
-2.290405196680947442e-02
4.704342138106085147e-02
4.804645820117175309e-03
-2.283902215554432444e-02
-2.984989734706883571e-02
-6.007617605432399345e-03
-8.758658237774680916e-03
-2.953375227323594421e-02
-5.865629702289542301e-03
1.445321434381666992e-01
-5.390311899110462358e-03
3.856806939127323600e-03
5.435829667767815010e-02
-1.068930365304016084e-02
2.974088300067886936e-03
-4.416685814790188500e-03
-7.233053548834857127e-02
-8.802132560819837456e-03
-4.257163266463883516e-02
-1.435077282891793760e-01
1.766316175150559617e-03
-9.093893540080677518e-02
-2.912240614222620649e-02
-4.686670084270572710e-03
-1.021652160439616430e-02
6.031773326867319318e-02
-1.455293444835293812e-02
2.466657036328172639e-02
-3.428740163312488966e-03
4.000085171389043161e-03
-4.405815118460298940e-02
-2.789351425084293443e-02
-1.163562127690163060e-02
6.643343040801155111e-04
-4.558674646780237760e-02
8.800761902301397488e-03
8.555045527185308266e-03
2.182353037939998089e-03
1.370225058490302274e-02
-2.776562572343391558e-02
2.673902633067465687e-02
-2.084229325411766920e-02
-3.951576599570589404e-03
-2.407025858489522663e-02
-1.786404309025489689e-02
8.413810482178065570e-03
-7.120153461097626819e-03
1.652930288800108505e-02
1.161539761296278422e-02
2.237011900729157614e-03
-1.341274420711058117e-02
-6.611475547174764170e-03
-9.040778902055228439e-03
-4.213309839313721106e-03
-7.740091121884470557e-03
6.253637673161771549e-02
8.792688386275218301e-03
3.239486069447037068e-04
8.981672554833926639e-03
3.065990964080924242e-03
9.061475038114526551e-03
3.294922237969263867e-02
1.680470879319700614e-02
7.176201220047608714e-04
1.014925014198099495e-02
-2.606705775403699368e-02
2.449459997967305333e-03
3.739624064005753895e-02
-1.621628882423843329e-02
-6.243740011773049776e-03
-6.314581389101428521e-02
-1.023350822141749217e-01
-3.749188749743551183e-03
-1.478316955895191132e-02
-1.222179857953151205e-02
-4.798581315804974212e-02
-1.553540725694722499e-02
3.551541530825867276e-03
1.600971495828216670e-02
6.676483014146472605e-02
1.356885694998864918e-02
6.399695200026297992e-02
-8.261716614025316208e-02
-7.794505044208066211e-03
-3.149473496329843053e-02
1.154503959325735643e-02
-1.666394518635748445e-02
-2.345291831223002277e-02
-2.895619864749377631e-02
-7.484757384037106671e-03
4.857876495249267498e-03
-1.413218522450847975e-02
-1.778974320500879142e-02
-2.710532129147017258e-02
-4.705734004776191554e-02
-3.809523685282134413e-03
2.780985548460995944e-03
8.570607501057288594e-03
2.889446063566137451e-02
-8.050388130520237315e-03
2.375090059209617604e-02
3.756317126329879619e-03
4.143454931326472773e-02
7.150276100225992117e-03
-5.190512241187305448e-02
-9.541933469766776532e-03
-3.839510526179455707e-02
2.516085172413886836e-02
-1.918706960486370183e-03
3.513054001860737956e-03
-2.323346833856650487e-02
-6.557293719859570713e-02
-2.528448182313662931e-02
-8.097315562487239493e-02
7.331698559881672482e-03
-4.167095289452447948e-02
-7.175895988470196163e-02
-1.794350353085865865e-02
3.639080578196018240e-02
3.722225120591582392e-02
6.433065486656276873e-03
1.836823892903572926e-03
5.730740870427111777e-02
3.331409208658980131e-02
6.614123351039863374e-02
-1.267332183952929459e-01
-2.150638368944062656e-02
1.034157887477031301e-01
-3.659215230793627649e-03
-6.609080148297435953e-02
-7.081212045055372550e-02
2.276005768597683804e-02
7.987445032504790488e-02
-6.008188597087888057e-03
6.832996625996651903e-04
5.555906826252125091e-03
-1.338644887405578761e-04
-4.865283598358988854e-02
-1.496426146293918479e-02
-2.368812176980631887e-02
-1.055890266992587923e-01
9.806794981995450855e-02
-1.380153268017368651e-02
-2.519198674612661490e-02
-9.195442852801459510e-03
-6.834259931637655383e-02
9.052812969365570811e-03
-1.108028440888502927e-02
-1.081309615719469250e-02
-3.863051454595737948e-03
4.782811027839105333e-02
-1.009120463770479294e-02
-3.489393669285806385e-03
-8.640620083238308158e-02
-1.963497533757303445e-02
-1.527655290794578333e-02
6.184863698599233489e-02
-1.831702849646163131e-02
-3.061787356680462438e-02
-4.546445778026471374e-02
-1.529774361577047187e-03
2.245491792940097070e-02
2.841230381634503657e-02
2.229611784714390088e-02
4.969923966693674117e-03
1.243469098953983373e-02
-7.632642129378459928e-02
-3.844517878640619224e-01
-1.556519671696112161e-01
-3.187801204577318109e-02
-2.944481073227677922e-02
6.469835850197107980e-04
-2.885309083422003817e-02
-2.634292778767356041e-02
-8.625968730828955863e-03
-1.454379127415692495e-02
5.106495192128487556e-03
9.432956343663269003e-03
2.712796780542372707e-02
3.006505598085498256e-03
1.733086744312582750e-02
-6.539135822413990815e-03
-2.509569439834895971e-02
1.485053516246650530e-02
6.127681746810578929e-03
-3.617975786760088686e-02
-2.177616927230508967e-02
1.054040699495550903e-02
-3.415323168899082190e-02
1.058009336664440976e-02
-4.228418495721445944e-03
1.077077311363451306e-01
-1.657079013547229848e-02
5.919232219507217924e-03
1.573852989179611028e-02
2.507777096099059189e-02
2.591284961683542817e-02
4.969629893953870364e-02
4.660733206089618698e-03
-3.928313259828730697e-02
-2.525520036670333285e-02
-5.381642270341518985e-03
3.781427715817076152e-02
1.973746319901248727e-02
-6.212108213024470499e-02
2.187107067551087580e-02
3.719886331691710235e-02
6.509534031372132823e-02
-6.367386771011393672e-03
1.282263822415452906e-02
-3.132998599264602557e-02
-6.585025531210290939e-02
-2.048060492389013401e-02
2.019100357971970183e-02
2.025701549885538522e-01
4.882194336391478678e-02
1.069076771661190278e-01
-2.155031463556720053e-02
-1.421363618752531774e-03
4.777699333711919044e-02
-9.520015580126071908e-03
-2.139786779270338307e-02
-2.088065724177912488e-02
1.667867545985637218e-02
1.736713843232969012e-02
2.530627278588796353e-02
5.865915239069749432e-03
6.063835248919608942e-03
-1.036858785915819415e-04
5.842974569841181964e-03
1.881278360911771072e-02
1.385576502146638467e-01
-6.615351577732966719e-03
4.268325250859962040e-03
1.120536904124437155e-01
3.171619348706954458e-04
-3.512701197689143545e-02
5.419232498660897512e-02
-1.311865196197104476e-02
1.257442830557741614e-02
-4.698314782136929491e-02
2.213489582210607584e-02
7.392478050968030734e-02
1.731890671168571927e-02
5.236124447723879832e-02
-1.693567526204955986e-01
1.222444667323142713e-02
5.163165287266562910e-03
-1.925795405553643383e-02
-4.334937649223764844e-02
-1.816083692753314369e-02
-1.958579302657953089e-02
2.210376444954815014e-02
2.162229382099502620e-02
4.836496311167379350e-05
-4.168977105412933516e-03
5.749585693067119779e-02
4.287746159626751319e-03
8.116797264165580283e-03
-1.374530722354567851e-02
4.152347816667144851e-04
-2.642994330171814440e-03
1.968809486441385273e-02
1.020919132182090917e-03
-2.924351739868005350e-03
6.366084762126988927e-02
5.180721623530207612e-03
-3.887822224260116533e-02
-2.054790550797309587e-03
-3.080587015114123056e-02
-2.721495374165673262e-02
4.345321104337949297e-02
-8.136977773737770134e-03
8.426687721360694681e-04
4.227073558351991667e-02
-2.765911130620493999e-02
-6.901355258588645798e-03
-2.148282241929865954e-03
3.312193342743173508e-02
2.053057197509371504e-02
4.259068616922328382e-02
-2.171290661925167655e-03
2.341504162830683727e-03
-1.004767624331086816e-02
-8.342969358886455356e-02
9.801579568747860460e-02
1.811728923498176144e-02
8.040441781505636848e-03
-2.726096849947098333e-01
-3.827357540216013571e-02
2.360091818949465806e-02
1.996706528784333856e-02
3.684100152798598649e-02
-2.162478060975820890e-02
3.034565351870729608e-02
-3.111914455494773149e-02
5.774779207640710899e-03
3.085079072373630299e-02
1.828537440882094939e-02
6.211356484644789053e-03
1.087860524293417369e-01
2.679989633702103968e-02
-5.127429228813753723e-03
-6.339209324218189612e-02
-2.575323493599377539e-02
-1.872941741272647577e-03
-1.822037458196830439e-02
9.399206979898698869e-03
-3.304129143098408911e-02
-1.509661010766482313e-02
-5.486371159404858540e-03
-1.984415671654161245e-02
3.211374094738701085e-02
-7.817137709489652836e-03
2.943195312514134895e-02
-1.142394779379096118e-03
-1.333218382503318158e-02
-1.821347299617293025e-02
2.150156007594837895e-02
2.391583061649641198e-02
-2.100941753508189791e-02
-1.150959510533832580e-01
-1.945642757481525625e-02
-1.776523975429262353e-02
-2.996998804088216520e-02
-6.628822841213310307e-03
3.301220513086532138e-02
-2.120190996836081310e-02
2.144629195668651053e-02
-8.728532754045692510e-02
3.228640113639602571e-02
5.712255686925452741e-02
1.860357604828419623e-02
-2.803496369985440315e-02
4.726149930891378886e-02
2.857718487698467438e-02
4.189697766617450983e-03
3.150612320267671129e-01
2.560683036653089162e-01
-4.389738527772685944e-02
3.836931144170847158e-03
3.022644402359420460e-02
-9.804789692171392637e-03
7.326567277576033488e-02
5.151164343348804686e-02
1.171758169758505344e-02
-3.407036182861515605e-02
1.713181718526322200e-02
1.764543080078486981e-01
3.012515719255781307e-02
1.146046029026793166e-02
-3.632751003710078808e-02
-5.556132607784004633e-03
-1.517559685494443145e-01
1.090218597410824589e-03
2.483962439457369428e-02
-4.148779354307362971e-02
6.918842758249042248e-03
-3.716853067820426182e-02
1.693399639319921254e-02
3.070783251497720325e-03
3.587707265497434850e-02
-1.637054259878909825e-03
1.943254750021448582e-02
1.673567859147171225e-02
1.310667421072919114e-01
1.736935356898643840e-02
5.517577144944799290e-03
1.311498443318035584e-02
4.152739387368955398e-02
1.206360393073697360e-03
-1.608154836073698996e-02
-2.242814723412004524e-02
2.401427407576521914e-02
9.148031754001561752e-03
1.004291252689069706e-02
3.234229674434356550e-02
1.081754129648930009e-02
2.401122582945026951e-02
4.668345237022857898e-03
2.938168991212417383e-02
5.624110577819162876e-02
1.346308279814483790e-02
-5.559299519657341648e-03
-2.855573805131492518e-02
-5.443431087160034709e-02
-9.294365644899871964e-03
1.999035080481230756e-02
2.017871869266147505e-02
5.799309461228856211e-03
-1.817057716659685462e-02
2.177963286410298793e-01
1.578938807847614367e-02
7.809852080237260569e-04
6.610040357947000352e-03
3.735535589434078180e-02
2.983384858299195294e-02
7.274956475093665755e-03
-3.139330558863531739e-02
4.381155431425652440e-03
4.608318271288883855e-02
-2.177620687224062282e-02
-4.217788034563031349e-03
-4.089997157863006078e-02
2.736682740551814579e-03
-3.492025020590330125e-02
2.440860871533573166e-03
3.719852344976448070e-03
8.955507542597732074e-03
2.873584755367360015e-04
-3.388932489036025619e-02
3.694399456997554503e-03
-1.326648338877482042e-02
1.945279339047161979e-02
3.993823042464079293e-02
1.848444244533057473e-02
8.765660223404051973e-03
-5.111850895012778548e-03
3.485776343732768789e-02
8.321752617886717454e-03
8.780600615788095378e-03
3.889799641124476459e-02
5.970594965176677371e-02
-6.195726100482973342e-02
-7.402301930852851417e-03
2.507614489851830563e-03
4.442305856171185723e-03
-1.167962332888098503e-02
1.406146224502798081e-02
-2.243442637780209206e-02
2.335599298397432466e-02
-2.153969047413099858e-02
2.146916659594107213e-02
-2.919880489453169012e-02
7.318799805038577432e-03
-8.249451940169896802e-02
1.064247003862478849e-02
-2.752418589067722192e-04
5.390921188329154123e-01
1.137705934632659427e-02
-3.164222393906904185e-02
8.238760527477476114e-03
-3.017584860020590745e-02
2.006599670149550405e-03
-3.851853061147409579e-02
-1.778237817363302695e-03
-2.739205468396835319e-02
-2.607370207171131118e-02
-1.202737315674698715e-01
-4.513632262677052046e-03
-1.543018910341503215e-02
2.940572630934627264e-03
-2.221454926822996959e-02
5.124970890812365239e-03
1.116082498213870344e-02
1.775897651264809335e-02
2.322417970811058163e-02
-4.199021260874598316e-02
1.151918367476303072e-02
-6.271023232770203681e-02
-3.776983092740300585e-02
-1.733972048218130821e-02
1.000644649917887055e-02
1.621952880110705611e-02
5.300883281324454688e-02
-6.077398699209984531e-03
-4.610415469218344386e-02
2.532863646842049496e-02
-4.443228284731782769e-04
3.327712718527674196e-02
2.159366200910849132e-02
1.481633918018969952e-02
3.975969824087387944e-02
-3.859045087773994159e-02
-8.455544056454729340e-02
6.696022806681192763e-02
1.393888617145898519e-02
-5.130086394667250638e-02
4.536786228750210731e-02
4.833203999669026529e-02
-5.482022771446655278e-03
-4.036464778184397501e-02
1.782909528515022948e-02
1.472364308991313403e-02
1.561137702268838683e-02
3.051675110435518590e-02
-4.654174366201974632e-03
-3.133955659777609183e-03
-1.958775495188766827e-02
-9.282093136898632996e-03
3.988089989667090683e-03
8.340046494919853629e-03
1.461518126292757000e-02
3.271416812333338003e-02
-1.629219670505330231e-02
1.101100656811588585e-01
2.670221094675627981e-03
2.059735567943780932e-02
-2.926685319799523372e-02
1.813369884318259684e-02
1.489289686610579568e-02
-1.666676084848341469e-02
-1.672618326402642089e-02
-2.579559951689678384e-03
3.273186571863971519e-03
-2.083141983589175891e-02
7.983952341620076387e-02
2.411374290275215479e-02
1.903662414498711805e-02
6.653614402808214270e-03
-5.255807040784482055e-03
2.526145676209562083e-02
1.006830306123640030e-02
6.790147503776348958e-02
-6.068666366305873992e-03
-6.095755431669658796e-03
6.619952657558064724e-02
5.227393533509000489e-02
-4.221820479975650353e-01
-8.877499050171537565e-02
1.852769970224379991e-03
-7.394832847111718066e-02
1.730514655641733623e-02
-2.330622993006410335e-02
1.921264303943500187e-02
1.678183333037809241e-02
1.422970079303536618e-02
-1.100436635179166400e-01
-1.949090819923041118e-02
-8.562520577730123317e-02
-6.379369438435601378e-03
1.886034747180984419e-02
-2.628345349466875217e-02
-4.653689578611108595e-03
5.723560790451358987e-02
6.060179414059668063e-02
6.842134528892543366e-02
5.755485641100881178e-02
1.317690017654763249e-02
-1.213847333564614314e-02
-1.115718085444445187e-02
1.186897999676904403e-02
2.869424315611806553e-01
-9.073658261251767165e-02
-7.153734069034071129e-03
-1.561297473687839332e-02
1.118717245758533291e-03
-1.650432075469440013e-02
7.647561521432393560e-03
1.460277471359121629e-02
1.982396460523105572e-02
-2.036606663464077607e-02
-2.789150694066700256e-02
1.684804032791583361e-01
1.271865207070172789e-02
3.269071523904436283e-02
3.183886713019432740e-02
-2.004784016478249227e-03
-1.290639358913088161e-02
-5.686196899132420907e-02
3.944915954330921806e-03
-3.008382071086258824e-03
4.581784567145506804e-02
-1.570526951786426276e-02
4.741650078072833646e-02
-3.064966710966285368e-02
-8.505726815919709138e-02
4.069704871703997417e-01
-2.424194117592026396e-02
1.434559244560210112e-01
1.102004848307517292e-02
-3.205883198933246608e-02
-1.681034417765835814e-02
4.066466215394267530e-02
-1.199903477412272816e-02
-9.989928506458590693e-04
9.525842033267317363e-03
1.164432476277338022e-02
1.628309882200559139e-02
-2.734441594707598486e-03
7.058776884372721001e-03
-4.628814495781555932e-02
-3.645135969229679890e-02
5.694306015108367702e-02
1.830371663594390283e-02
2.216701452133093553e-02
4.362071895259017618e-02
-6.789539816233176872e-02
-1.598880808287097416e-02
4.172209280001346055e-02
-8.135742246611704642e-02
-4.292757178522878247e-02
-3.450077017329355252e-04
-4.667749526269424770e-02
1.910510486247932876e-02
-1.368829661342517955e-02
-8.362381461697889450e-04
-5.198338856019632179e-04
-2.599419339314803026e-02
-2.871849358596958654e-03
-1.005994713227169324e-01
5.737447743656708121e-02
-7.763783926669980129e-03
-2.905280109570115496e-02
-6.877680518874778812e-03
1.004380155498399603e-02
8.337789742445748942e-03
-2.414621565080984217e-02
-3.479315957749007371e-02
1.158269933967753275e-02
-1.402778035863606713e-02
7.114804329507184999e-02
-5.011057066896763834e-02
-1.334910841956874795e-02
-1.764888619445100643e-02
-2.502807701543789329e-03
-1.591366086292687887e-02
-1.396493188928832688e-02
-3.581497574485708029e-03
-1.337652696290072760e-02
-2.357563018051105075e-02
-3.659319849853241713e-02
-1.913824488777512989e-02
-2.827596757040185677e-02
1.555699288460886051e-02
-6.979911445783787416e-02
1.014589784872930479e-02
-1.013471214246178774e-02
-3.996379314778356062e-02
1.146041208062868397e-02
7.032403386968938408e-02
-9.006781860073377263e-03
2.567141641036776653e-02
-3.165397997721612275e-03
1.650855263661746841e-01
1.369195060140922793e-01
1.586785458583717503e-03
3.256997890657700734e-02
4.248607860468401123e-03
6.617515704817476113e-03
5.221421199218790471e-02
1.901535617481725851e-02
-1.027746571426394265e-02
-1.075985878402888583e-02
-2.524483230532804587e-02
3.740826088084764356e-02
4.993254240450703541e-02
5.365986495798925199e-02
-3.868948528784714458e-02
6.205653985063803307e-02
5.719302328090376808e-03
-3.517377643544949972e-02
-2.285080642940359036e-02
9.140124971798441536e-03
1.000745879335407720e-02
-2.744978668208880590e-02
1.249490874481011364e-02
-1.215361223186570486e-02
5.324327923045281061e-03
-4.847364409011831188e-02
-1.275092810496932828e-02
-1.759494959680398540e-01
6.973651294276245194e-02
-7.463706908607595919e-03
1.544530782869102670e-01
1.047183240198360510e-01
6.214462050537961080e-02
1.294316836139566222e-03
9.064616969980471978e-03
-9.011995164276339135e-03
-3.849664226390001054e-02
1.755679779825515194e-02
-5.092198043007212238e-02
9.823387179652131110e-03
-1.404329876352895801e-02
5.166090611023808898e-02
-5.203840954258948104e-02
-3.355182133532758158e-03
6.618228505886098942e-03
-2.126506719685835808e-02
4.227059316636448683e-02
2.795451218163927387e-02
-1.832044223970135180e-02
1.779117791296708564e-02
-5.975544292409486896e-02
-1.112446206146241318e-02
2.383565041179187480e-02
-1.497758180239504473e-02
3.863954219896609233e-04
3.279542406094600876e-02
-4.180646134990260998e-02
-2.793523719947095182e-02
9.452752292666401560e-03
-1.639304487692884796e-02
-2.914101889334395207e-02
-1.012977983978457716e-02
3.378181167299058874e-02
4.265856665405651227e-02
-9.145376549762301854e-03
8.382526882576203653e-02
-2.542276222753097475e-02
-1.970545233995074294e-02
-3.966417987245554264e-03
1.432917735620118684e-02
-6.107994352293880103e-03
-2.243344476948811914e-04
-3.604120729533084877e-02
4.070207177363492634e-02
7.797551465428491542e-03
-2.139397443052847795e-03
1.277878958294033536e-02
2.725312556541576413e-03
-1.651344110431663889e-02
-1.044351624323147307e-02
-2.045682878969780696e-02
-1.012165118729762420e-01
2.645568647679957894e-03
-1.846634204368950705e-02
3.514876610463332079e-02
-1.594800491340114118e-02
4.007478052526275425e-02
-7.630122457643886361e-04
-1.256518515066426360e-02
-1.434153384672262957e-02
1.581603780378113000e-02
1.617853481431616447e-02
4.049718179557663944e-02
-1.783619903936598666e-02
-4.314462452679738123e-03
4.455843407836930503e-02
1.981720335210690465e-02
-1.688250605207344546e-01
-9.118867261217345616e-03
8.648053560267614584e-03
-2.680072962663328229e-02
-1.160778416576654232e-02
-2.085352851419502301e-02
-7.487103562679623542e-03
-1.133551557242720373e-02
2.314006381160976095e-02
-1.591184402588647837e-02
-2.062648429967343933e-02
5.451023643177826256e-03
-6.537603841962264135e-03
8.035675433849967172e-03
5.974615624083431942e-02
-1.773996064587127653e-03
-8.348079117548301564e-02
-4.288264376945145895e-02
6.692201602639309167e-03
-3.254385819194531571e-02
-1.032784868782855511e-02
1.332101457461042603e-02
2.578574388154323757e-02
-7.791381233834670378e-04
1.562499878045067389e-02
-1.940356543031815373e-02
4.187627987819576153e-02
1.893059114249440872e-02
6.570656408973779561e-03
-4.031328621845316207e-02
-2.013110150609617385e-02
2.046570803025422186e-02
-1.870739742987305443e-02
6.785243435920650101e-02
-4.212828816009193261e-02
-1.357242695151740855e-02
-9.385523136755620499e-02
-2.998087735375055095e-03
1.841147798864081059e-02
-2.389973875585002516e-02
-5.726265205826514167e-03
-5.790533324934359419e-03
-1.339406871430784060e-02
-5.913614727507329055e-02
-1.394346934772711620e-02
-6.299224011507884025e-02
-1.388806930395842859e-03
1.268760865954919326e-01
-5.578938411382567634e-04
2.615204184954115704e-02
-1.119430000918813888e-02
5.936128515482465284e-02
2.704270531117761167e-02
2.731659444902385589e-02
-4.624299999594114197e-03
6.069704539427544718e-03
1.008011686208126895e-01
-6.006672892833405525e-03
-4.536486042212101860e-02
3.003414147763946995e-02
3.456350844486776736e-02
1.186327589718361164e-01
3.830437849365066032e-03
3.950893727552495793e-02
2.284372703763743254e-02
-1.730583442314276299e-02
2.679976049552252812e-02
2.184169175512984395e-02
1.916045094305434543e-02
-6.994600004288695390e-03
2.024880313472442184e-02
-3.164348050794872635e-02
1.436081661642870690e-02
7.820034710756590748e-03
1.519896463793326581e-02
5.774285792447229892e-03
-2.390167409473377413e-02
3.012379476711002022e-02
3.513233096783578008e-02
2.576766816051026185e-02
3.126386366919415294e-01
-3.256580048831561602e-02
-6.185630555938990277e-02
-1.431133075729065611e-02
-2.749724855101459350e-02
4.775690953475089651e-03
6.141165555689427624e-02
2.083355725047679463e-02
2.302744436162757202e-01
-3.632173399869581716e-03
1.202679830692094005e-02
1.643143057151555744e-02
2.465044779969476161e-04
1.303236876431803151e-02
-7.110661972925874652e-02
7.231883370785248573e-04
-1.580986618178217493e-02
1.308086755158425485e-01
8.424809652362724721e-03
-1.534235453080779084e-02
1.484484916362223753e-02
-5.930711780273494743e-02
6.957025897387610069e-02
-8.543034153412860932e-02
-6.445473068720672383e-02
3.150448057904055299e-02
-5.644009884118852960e-02
-3.641786415410910860e-02
-1.250141817010007317e-02
-2.273972572718930413e-02
1.393871387350894588e-02
1.895465872980907351e-02
-1.008581325949031542e-02
4.843034273079196809e-03
-9.669094480643651221e-03
1.022279383412498244e-01
-4.024054184657670924e-02
6.543860033158191555e-04
8.670828137803845981e-02
-6.365201740601999017e-03
-7.859762084508118557e-03
6.196814311849177526e-02
3.528372952383018041e-02
-2.604535226894539798e-02
-1.232438104299441242e-02
-1.918573871606037151e-01
1.511851200037897351e-02
-1.073136855818883871e-02
1.448700575367768001e-02
9.212423288559354329e-03
2.019888495577836212e-03
2.025636661634837993e-02
2.228191586920885009e-02
-3.042019052386626607e-02
-8.988267018249021523e-03
-9.905192245994655365e-03
1.145838848698811988e-02
-2.355100030516366506e-03
-5.444222138737477706e-02
-1.221254198791854075e-02
1.403498641578201749e-02
-1.304456418642075538e-02
5.218647326423480129e-03
-2.050266687393131546e-02
-5.646167821739790649e-02
-7.661059424069251514e-03
1.962355989772064657e-01
1.286877020601490812e-02
-7.658322524998435743e-03
3.731442265758433408e-02
1.244392700159398062e-02
-1.356757120841133313e-01
-1.935138127490885693e-02
2.143195068401114456e-02
1.631448980324073927e-01
1.205495860420667227e-03
1.042076928799773733e-01
3.318902374422345175e-02
9.398794791774032001e-03
-1.354194864168009951e-02
4.336581725269783583e-02
5.440707215382052653e-02
3.014231958589971838e-02
-2.944093452757681056e-02
-3.158229033612092521e-03
-1.913120709039694070e-02
4.527373249617804019e-02
1.834544409471598747e-02
-1.778524093785293844e-02
4.132743355304382971e-02
1.362566686471757167e-02
-1.087134636835837120e-03
-5.477128377674561057e-04
-5.690570577167718830e-03
1.039190729365325680e-02
-9.800013695464711294e-02
-2.343326030163694201e-02
2.002550689356467212e-02
-8.471365549826123664e-02
1.768121122797268810e-02
2.295492242469640218e-02
1.056537937117017940e-02
1.369525545698094086e-02
-1.633887961189517835e-03
-3.749839487830713969e-02
3.502851534178143093e-03
4.375829358528667695e-02
1.673236807038476839e-02
-7.827287770972130368e-03
-2.803787509035502931e-02
-2.040038658682085185e-02
3.432897042208256366e-02
1.086872495911862281e-02
1.391464037594774411e-02
-6.748223974972224724e-03
-3.246484644524859353e-02
-9.358171131441195278e-02
1.420785689698066956e-01
7.658204496653549069e-03
1.368019846349504201e-03
3.331029679299573470e-02
-7.134992976502260720e-03
1.919819445062549007e-02
-2.435081417695173986e-02
1.662598791963629252e-02
2.260392175096557002e-02
-4.626813033887518245e-03
-1.034372658101363231e-02
3.401865435891299888e-02
-6.818375486508695960e-02
1.497613696833365038e-02
-2.842796830503961474e-03
1.411779149099531925e-03
-3.295947425289419419e-02
-4.749773232969176778e-02
3.564245035060757683e-02
-1.087657384929819997e-02
2.642242239490382935e-02
1.585903289316977979e-02
5.534636324680075603e-02
-1.403888646354309669e-02
4.290156008521228692e-02
3.055044284056149598e-02
-3.044548254662943210e-02
-5.612441086176567229e-02
-2.817879290791656249e-02
-1.148957434724752133e-02
-1.102795291960730235e-02
-5.618603869483593943e-02
7.689343595387851393e-03
-1.504009827541279674e-02
-4.686424757046803863e-02
4.013811629467609055e-02
-1.975226038953857999e-03
2.384723283770917232e-02
-2.337737548776238142e-02
5.162867482477764142e-02
-2.200152741424973510e-02
3.380262741246890801e-02
-1.513114586158297546e-02
-5.685478241281384298e-04
9.942427168290920991e-02
1.253900182245540861e-02
7.991439589329634927e-03
-1.281210188653706013e-02
-2.326774897427095340e-02
-2.468046121699921103e-02
-1.329064279133513465e-02
-2.974366990519602093e-03
-4.004275545288603182e-03
-2.186955847248736942e-02
7.638057658510732928e-02
3.659986142206032161e-02
-4.307337763583574120e-02
-8.469273693509866974e-03
-1.357802027236782068e-02
4.597114763876646200e-03
3.171304511641354074e-02
4.689115982167421648e-02
5.092504908384517430e-04
-2.815323479980913132e-02
8.050728481074694021e-02
4.156846308412562481e-03
-2.258964830205842725e-02
-2.138315723693223844e-03
2.410277932211608853e-03
1.179970360253780604e-02
-1.501998606684367132e-01
-2.338186440798083188e-02
-9.320812220184616567e-03
5.788743790008643586e-02
3.016586416725185182e-02
-9.568198344390113793e-05
-4.183911258886272022e-02
-1.708159092318906752e-03
3.759453242907419713e-03
7.806662759301951846e-03
-5.500107942372524372e-02
5.274961626952717059e-02
1.893848524950994539e-02
3.336145870792559150e-03
2.071024058481264751e-02
2.032248661922861962e-03
5.573681563139760119e-03
1.414973115141474579e-02
3.640523615985043031e-03
1.174221882942924275e-02
-2.536721898480485612e-02
3.488098288991561130e-02
3.233695081303465289e-05
2.718147031204021756e-03
-2.829642304157706581e-02
-6.515094197613550964e-02
-4.899046786270259968e-02
3.914116048938906349e-03
6.454764498542503925e-04
2.210407540852738981e-02
-3.968886067005098633e-02
3.067608680734816851e-01
1.775894107105829151e-02
1.347857986340179060e-01
2.001580426693065629e-02
-1.023053380108522592e-02
6.174229078401019012e-03
3.095474324812044417e-03
5.705039879420377436e-02
-7.505872134211910573e-02
1.742796091875018286e-02
1.869238610480858376e-02
-5.068299637760605679e-03
-3.417488282857592680e-02
-1.423571267638749221e-02
2.441021674600560233e-04
-3.163749695042646776e-02
1.070626702405670606e-03
9.562591848417961379e-03
-2.196945191393649688e-02
-1.609652244354464658e-03
9.527399346181809545e-03
1.246394636438507598e-02
7.432511673411341946e-02
6.541597466155669310e-03
3.356558278637262333e-02
-3.299794534557614484e-02
9.676437865055489973e-02
2.001428139728135200e-02
1.306027706920454869e-02
7.829529803546601829e-02
-5.245757742413763997e-02
9.287491774084447732e-03
-8.835973662760921235e-03
4.588634982344646368e-02
-4.664096788213623751e-02
1.338446675701848720e-03
9.063759633268117857e-03
9.182624002369613528e-03
6.560191444678455455e-03
-8.420740178658368824e-02
5.280237637045134130e-02
8.975537550063120498e-03
1.363358036924947579e-02
8.138402467568134693e-03
-1.466536195987593223e-02
3.899739795468692288e-02
2.631405316244894016e-02
-6.429884524137748254e-03
5.281281648505420888e-03
3.009904092608606859e-03
-1.271975671702413845e-02
2.624790923338506457e-03
-1.611853621194267727e-01
-2.555325613423150774e-02
3.743574437407158617e-02
2.550653290943669452e-02
1.899713598358513181e-02
5.227923582768417843e-02
8.283535862934813740e-03
-9.110563144550297421e-03
-2.539837152674755127e-02
1.649842628599808162e-03
6.084250750445432607e-03
1.155429358194327155e-02
-1.059098620579851935e-01
5.456596789841598738e-02
-1.866947941944198733e-02
-1.106842783424960737e-02
1.966461258053305711e-02
4.657105294629934091e-03
-4.606233405501081006e-03
1.883969278955685209e-02
9.808477581519866456e-03
-5.657353580460237549e-03
2.458419712571642633e-03
-7.350535379556616400e-02
5.118236639883840672e-02
-2.365918360139990934e-02
-1.604759771012726974e-02
-6.049879831354820076e-02
-1.122233666916129871e-02
-5.853015318090262764e-02
-4.332588005389798047e-02
1.118129191981098378e-02
-2.345735060912928008e-02
8.148887639766790383e-03
-5.023168854024438572e-03
-1.469746952452203291e-02
2.370111373521277542e-02
-1.547633056564586690e-02
1.597144008162052278e-02
-1.008141175924597011e-01
-6.817744843863104108e-03
-8.971754805517576439e-03
-1.847918184583223489e-02
-9.657395558827405399e-03
1.918751972671029274e-02
9.962742116977748794e-03
-1.491110093752526511e-01
-6.571929285418583178e-02
5.402475865415920508e-02
-1.654994555021906469e-02
7.879333081671666128e-02
-1.937040571918291487e-02
1.113337983180935804e-02
-1.580082304393764028e-02
-7.140608063527455196e-02
-4.704990696985915204e-03
-1.466514894564015584e-02
1.841397227326741284e-02
-3.436381132750648826e-02
-1.260394072440989242e-02
-1.849685948165213228e-02
-4.007711842228466048e-02
2.638263956676150865e-02
-9.460689837758295972e-02
1.465028388461574009e-02
-8.818884991901167897e-03
-2.474562794403242783e-02
8.143845926587517034e-03
-5.479569009269173729e-02
-5.279449325474919880e-02
5.627966869665663140e-03
8.812123860656688110e-03
5.070666352981381686e-02
-1.358427716300744138e-02
-9.216213358214072129e-03
7.859043738623894271e-02
-2.406305347061191060e-03
3.363617154572608875e-02
1.160811812328447871e-02
-4.078516997858863159e-03
-1.719700121919708405e-02
-9.170501017802758139e-04
-3.659169405566893574e-02
-1.577428469118624318e-02
1.772341821233122325e-02
1.123883436088350327e-02
4.956282217177567818e-03
-1.768909137007016602e-02
-6.143952123511195462e-02
1.388595047664973291e-02
2.247232997877173649e-02
5.450594822549444801e-02
4.449983097234545826e-02
-4.054304419444578790e-03
2.194151563980065861e-02
-3.766535566870747587e-02
-2.649875970367448694e-02
-1.808390642319417096e-02
3.153672863483414704e-03
3.824691928496971437e-03
-6.044717046093842777e-02
-1.318391410555433407e-02
3.916034854126650144e-02
2.917844894050249799e-02
-3.778727101176250491e-02
1.314890224958801049e-02
-2.027763003205332835e-03
4.410389580881343696e-02
-1.615489062690242048e-02
4.831089152032107259e-02
-2.969904778855609988e-03
-2.091710646433069930e-03
-6.596432894938301580e-03
2.126873188661376063e-02
3.466397832082659253e-02
1.947866199994289713e-02
-1.351099498864322991e-02
-1.002594974950428430e-02
5.440705907891572185e-02
1.273800531656666679e-01
6.716744201461893882e-02
-2.543958319002471991e-02
-4.336299508053271384e-03
2.533912482892634183e-02
-3.075771211431191365e-02
9.247924637212814880e-03
-1.938616034459276702e-02
-3.848415108152128308e-03
1.660428936061189922e-02
-3.975678802643131671e-02
7.891422244726400970e-03
-5.404113619414214337e-02
-3.793655553922313517e-02
9.100337532629119638e-03
-1.411470302730779419e-03
4.009564557972616211e-02
-2.707333183648064426e-02
-3.408764434799894938e-02
-1.883200587744060170e-02
4.066782886913799036e-03
1.735591335968488524e-01
1.263193864251400608e-02
5.356946891788704618e-02
7.451640429454542067e-03
2.687410060711647661e-02
1.710361157615135005e-02
-8.732844726353512083e-03
-2.908146445479768347e-02
6.110376617761592577e-02
2.251015593684202454e-02
-1.283438236887926055e-02
-1.614570139160235313e-02
-9.843095014515313920e-03
1.152495515373697967e-02
5.005620195552847040e-03
2.468693430300173894e-02
-2.706788861734280363e-02
-3.506534277189771957e-03
3.952210258646366207e-04
3.163833625072973860e-03
-2.002865806017658026e-02
-8.758723504597474424e-03
-3.288087695811679756e-02
-1.877981199152990721e-02
4.843274498108151790e-03
2.815973617143879230e-03
-2.359478004901362225e-02
2.533263378060723187e-02
-8.738097190115232810e-03
-1.645470628532787541e-02
1.572654726907696601e-02
6.317405830933707500e-02
1.087954813233786219e-02
-8.917263729012640111e-03
6.963856101091876229e-03
8.672303866307209258e-03
6.697880499287862943e-02
-5.923902417235499263e-02
3.420516610804940662e-03
1.160314877962836944e-02
5.443402374286180137e-03
1.567193369853526336e-02
-2.289254941967519552e-02
2.989427933666881018e-02
1.539821907918107954e-02
6.510046186888621134e-02
-5.794117160534933541e-05
2.494161262065511947e-02
2.814185363290382449e-02
-2.437819394771986725e-02
4.466106664776703372e-02
7.311077300265367285e-02
2.157342598955913973e-02
-4.356187807563565578e-02
1.368002833245075822e-02
8.961631039573413060e-02
1.668853787575559980e-02
2.769608084999862219e-01
-1.703035981641230767e-02
-2.693633946443541559e-03
-3.258453928935473032e-02
3.259809517231363613e-02
2.716899695822256322e-01
-6.226899312787644719e-02
-5.000267587381090895e-03
3.456173087821148848e-02
4.567874628666252282e-03
1.438892122522606202e-03
-7.657839785184195926e-03
-1.000110294066257874e-05
-5.318653705863121868e-03
-3.054166172330717924e-02
1.049900664434380744e-02
-1.705443345382850334e-02
-6.332870274866919669e-02
-2.355221570345145815e-02
-4.986358179115019107e-02
6.796557771948194548e-02
-2.902389101529085844e-02
1.417051462550170593e-03
1.060375096101318498e-01
-1.080797444312646058e-02
-1.861316082169403585e-02
4.307506276437248101e-03
-6.708239007037689050e-02
-1.207245858845565345e-02
-2.850429420513042947e-02
6.722307617132945723e-03
-4.275620541794331736e-02
-9.115667597449490095e-03
5.515996745458733030e-02
-4.061846883655759882e-02
2.522558881486256215e-03
6.570468669020111674e-02
-5.961434332868943003e-02
1.746339955183454432e-02
-1.045148369502315981e-02
-4.856934092923093776e-02
-4.603043512168262900e-03
4.502931943933354692e-02
-5.360679707007773992e-02
2.577301383644019228e-02
1.064069301792401195e-01
-4.579045752047781158e-03
1.244536869424111084e-02
-7.435669060208981683e-03
5.948840344742085950e-02
8.849797118104702626e-03
3.227248385233180000e-02
-7.290782388051331511e-03
-9.211944423360537287e-03
1.015466839829217392e-02
-1.715876607136453819e-02
7.273302421726141054e-02
8.805715427124943470e-03
-1.552417507938672336e-01
5.091635459442643390e-03
8.229732612895598876e-02
7.727477827100215531e-03
2.220366626491123915e-02
6.699760429967433102e-03
2.054339257517088374e-02
9.493219370484144715e-02
-2.356207562344937723e-02
-1.245772064798906023e-02
-3.657380300899375908e-02
2.731840683338132569e-02
-5.615084440508401678e-03
3.727566112582422764e-02
-6.680379264169188092e-02
-2.308768623087327151e-02
-1.099688981659165642e-02
-4.949778745983859224e-02
-2.484997648713052620e-02
1.522211992784456951e-02
-2.432027118725886995e-03
2.920681471516504719e-03
-2.993006445344600572e-02
-1.206615944218805518e-02
-3.408117476058002138e-02
-3.621877884778467727e-01
-5.395639294648770651e-02
-9.581621631563373015e-03
5.745199878988706786e-04
-2.654892490341205155e-02
-2.102949566903038886e-02
-6.576293338902280960e-02
1.708980914394964482e-02
-3.297616261439437896e-02
-2.305022737942891576e-03
-5.521311583301518082e-04
7.244965340156753197e-02
1.185317017017541684e-02
4.521970993955059907e-03
6.046812501546556390e-03
-9.554484152478627534e-02
5.287261048612081939e-03
1.429951340515940236e-02
-1.905540110228630098e-03
3.063133638912905656e-03
5.237940004309304953e-02
-1.590046989888042536e-02
1.602523267950202446e-02
-1.447130408088124175e-02
1.444750462976298472e-02
-2.649523589308867746e-03
-7.045792695904076752e-02
1.368086620518559754e-02
2.172454196627414402e-02
-3.282411561115439885e-02
-4.280028748584469023e-02
-3.853776198497602112e-02
1.272994768665175469e-01
-2.524715054251227067e-03
-1.232244107124114661e-02
1.038671307389512910e-01
7.730790420701880161e-02
3.296110822524948858e-02
-1.363043727178342478e-03
-2.711600141014812015e-03
-4.502741784002648601e-03
1.366313359642601149e-03
-1.629443544402951055e-02
1.551156710834937502e-02
-2.622247278233250795e-02
-8.535422979923271841e-03
1.836868583701507796e-02
-7.274405066849917723e-02
1.642135799828707467e-03
2.651637747216156513e-05
-3.194915989624885766e-02
-1.792448673312725671e-02
7.094120128919753632e-02
-9.253850309299099797e-02
2.685137797070231633e-02
9.418622627338816070e-03
-6.950181525788347477e-03
1.837820845748712462e-02
-7.482015992274403983e-03
-1.811794400670575095e-02
-7.524741506996886903e-03
2.164534873423841488e-02
1.219331300033403044e-02
4.530170797238087382e-02
-1.984012681814486256e-01
6.642028888204722092e-02
-2.074036743054880408e-02
1.594875080532336467e-02
3.033341754438163840e-02
-2.880898810855677186e-02
-1.228592098224707066e-02
-9.373301473004837236e-02
6.668366374776722900e-03
-8.247604201056299433e-02
-1.461938120499936544e-02
1.820928968692910738e-02
-2.021377632455942722e-02
-7.130836025858107441e-02
-8.144898614836724310e-03
9.514079137202982421e-04
-2.798137593729055697e-02
9.041312297537188597e-03
3.686521340528099711e-02
3.577769001595264980e-02
1.693102479809149505e-02
1.756077345270934745e-02
-1.077980962943806201e-02
-5.533150266304016733e-03
-4.701780709144392362e-02
1.379639204895386113e-02
-5.936738680198781065e-02
-3.382463293007917371e-02
9.536128698503879009e-02
1.715117929820294705e-03
3.447526358659032397e-02
1.241380409287123898e-02
2.062028252215102747e-02
-1.363540482643323462e-02
1.207188974378390484e-02
8.074826701726066369e-03
9.425522718953326107e-02
5.389595492172867628e-04
3.621756741915525130e-02
1.371701506595849815e-02
1.871171852546923975e-02
-3.517836992668337600e-03
-4.559166843041867478e-02
-2.984808056055410566e-02
-9.578952609522418601e-03
-8.342237522802869044e-05
6.763930592789997587e-02
8.330068868813638588e-03
-7.008665108010128479e-03
5.719358135757839773e-03
1.117800313097485621e-01
-9.513445295204052974e-04
-1.310110588358707681e-02
-2.623747716253035239e-02
8.181739050688696668e-03
2.740320432475341211e-02
-1.045376373752688118e-02
-6.012250591354473955e-02
-2.559397860043944456e-02
-5.433228609241194836e-04
-5.245058556122878662e-02
-4.957165378258199945e-02
-2.820811559286349329e-02
1.721446012856683860e-02
-2.489518496495412431e-02
-2.570176253189382365e-02
-1.088202873969331200e-02
2.130388619398378928e-03
-1.564501986076730425e-02
-6.258973155237235533e-03
6.287847949435448891e-02
7.534206165054224517e-03
-1.050113324869251519e-01
3.701450437574332463e-03
-7.141426772694631220e-02
-5.808268672475033756e-02
-2.542824694906080374e-02
-3.307368737504531170e-02
3.827826134768195360e-02
-4.897677428360650703e-02
1.580451581244371809e-02
6.995310905549190564e-03
1.269648375767250814e-01
5.115283181072556584e-02
1.007746044654089929e-01
1.736572528884124111e-02
-7.642649637023641793e-03
3.385029806597456264e-03
-4.309780029933089895e-02
-1.300703328833834396e-02
2.313881383588058810e-02
-2.991208000855108753e-02
-7.022292686715790599e-02
1.609566609462596137e-02
-8.704312115587335696e-02
1.553274069054536889e-02
-4.438999739751789235e-04
-6.169957100908158437e-02
1.995500779012380696e-02
1.585558978785799088e-03
2.430043471703479448e-03
-9.721034425457239026e-04
3.540525245875342925e-02
-2.634049766076309099e-02
2.119626765145893321e-02
-1.873847983469972486e-02
-8.300357888981568441e-03
-1.418967298243638958e-02
-3.594432536142441043e-02
6.028041769252185517e-02
1.432718207274007692e-02
1.416081774637125215e-02
5.625682986904460142e-02
3.108852693521752236e-03
1.580703307477764746e-02
-1.966816534873171499e-02
3.336202587894850774e-02
-1.378072230046269685e-02
1.559021394688537947e-02
3.758867592782457606e-02
-1.635938383116308445e-02
-4.220853437359021500e-03
1.958471520229506518e-02
-4.661756615732110670e-03
5.077217856620829667e-02
-4.674524445855472027e-02
2.051740816288299962e-02
8.018254242332375353e-03
1.989515920151195202e-02
-4.527691414275036505e-03
-2.013131167893891099e-02
1.492447987376576413e-01
-5.384683016645604517e-03
3.968577430478476692e-03
2.691530433112520812e-02
-2.896870019253893359e-03
2.953489926572704202e-04
-7.119957310598084904e-04
3.915894800466188097e-02
1.986168731334766319e-02
6.669742325321202474e-03
-5.931679707317712852e-02
2.238187201032039095e-02
-3.383385467944527436e-02
1.313509284325583767e-02
6.088381264474779231e-03
8.347421075071244367e-02
1.912338232030319149e-02
-9.857761105055498629e-03
4.133889933166943337e-02
4.875273546645649166e-03
-2.959406122135956885e-01
5.885533575890623120e-02
-3.566777022288773833e-03
1.666141093709598911e-02
-7.402772104186291710e-03
1.023606506576771151e-02
-1.612880225909914256e-02
-2.238673008155317445e-01
-1.143076637226476087e-02
2.127423514993909311e-03
6.445790458953522262e-02
3.332043931749889727e-03
-4.522643159145196823e-02
3.528781540905494285e-02
-2.952764381520001785e-02
1.137813468073824580e-01
-1.018545105793891015e-01
3.247355040834397875e-03
1.796616403336674661e-02
6.546269589090238095e-02
1.437365264101524674e-02
1.204715965192642256e-02
-1.173246507867238379e-02
5.465845398725931170e-03
-4.607980437075815533e-02
2.529621190848961934e-02
1.686642915604040852e-02
1.404254387376653243e-02
6.658669631697304581e-02
1.976674420551261316e-02
4.050694223483877754e-02
-3.850221061581430432e-02
2.326018040544229615e-02
-1.269725844209529083e-03
8.101606352871696184e-03
2.431015581517927820e-02
-8.824975121902541020e-02
-2.660263171073981234e-02
2.686900164195972496e-02
-1.339296669956892716e-03
4.103830621667151068e-03
3.823363050162333250e-03
2.513161061563768534e-02
6.771799410153844789e-02
-1.115732923552767430e-02
3.671989362357019893e-02
-3.925971392955379669e-02
9.266129579061473803e-03
1.476605958600299591e-03
-1.123392978185613900e-02
4.880830820232562317e-02
5.847660597152080572e-03
-1.177049335534930026e-02
4.148125901944516025e-02
-7.563995837443475423e-02
-2.358875336695841901e-02
-1.686276115920662746e-02
-5.721405418221756772e-02
6.608051856570616722e-03
-8.005758218963554551e-02
2.013632370527188801e-03
3.846106628330547145e-02
6.424872274798110183e-02
4.658956625272745594e-02
2.017293133981255815e-02
3.483600003880249485e-02
1.869143306925337075e-02
-1.207481462769524269e-02
7.220132471222577564e-02
1.279037974423672883e-02
-4.668986547307753775e-03
9.962848940047548327e-03
-3.708073793113220162e-02
2.571458373101974393e-02
-1.399594211173774833e-02
1.484408361892582823e-02
-1.264080917535709281e-01
2.109422245948259361e-02
-2.160874720208405542e-02
-4.752425818063364671e-02
-8.372735399060393310e-03
-5.861563711454574610e-02
-8.279679558595484656e-02
-3.879843643732608371e-02
2.368757440506158440e-02
-1.746765004957344380e-02
3.832215703516445547e-03
8.698093508089699277e-02
7.078527318978271310e-02
1.189935240324619357e-02
4.234968342518906879e-03
2.082287430530204569e-02
-3.313338646860432973e-02
2.538608995977681068e-02
2.951471770251720000e-02
5.978421685368539087e-03
1.828032267963972026e-03
1.276941412977266981e-02
5.603340569835798396e-02
2.122411116904578121e-02
1.030432256300437971e-01
-7.319208206904368862e-04
6.848921290172243007e-04
1.168377382520670860e-01
2.223927679265466292e-02
8.402478440601882093e-02
1.477770272712468531e-02
3.237241757099215689e-02
-3.764980756212887251e-03
1.115073659631177216e-02
-5.049308744221824713e-02
-3.170721741578687303e-02
8.655870787907504402e-03
1.953822124736924112e-02
2.394417781106582439e-03
-5.828162458315531806e-03
1.437139089575862998e-02
-2.827422386493455217e-02
1.015144169475281147e-02
5.343999339620578160e-02
-2.329901663972742260e-02
5.403569513781444032e-03
1.827952299734819305e-02
2.264792208969500231e-02
1.067951663685251691e-02
-4.486844469159310608e-03
-9.270642329433698148e-03
-1.589400002581838056e-02
3.332834073824097239e-03
3.311533314013774543e-02
2.532336435474254882e-02
1.113959203575118351e-02
5.448349347119584712e-02
-1.312496371838229800e-02
3.217629420036865334e-02
-2.391654844940485289e-02
9.186801831782274996e-02
-8.657951534458325354e-03
4.220661797276509253e-03
-1.897881750264562850e-02
-5.042370905356816785e-02
1.621427399109601208e-02
2.638559792681305100e-03
-1.142797912622251291e-02
4.840197344598001078e-02
1.040701541389282489e-02
2.361473058250389539e-03
9.716735310116259711e-03
-2.182549166336352278e-02
-3.702410938686101494e-02
-7.930156940537122848e-03
-4.982047391288056681e-02
3.926665528560339957e-02
7.980366913770442147e-03
-4.109014249879860969e-02
-2.037343489379044373e-02
-1.272929297941700205e-02
4.648909567812455762e-02
3.613894890473756671e-02
2.765217010595391600e-02
-3.083256460452169292e-02
2.025896264910705125e-01
2.447451269284838665e-02
3.187766227952047032e-02
-1.620322462108928635e-02
5.840261706745633608e-02
-3.929112980025258333e-04
3.569521681126998358e-02
2.917027933824357239e-02
3.445026930759457345e-02
-7.562969454783773082e-02
5.877489566561047013e-02
7.624611359093754620e-03
-1.344590094602137083e-02
-1.532781962738429538e-01
-3.382812713686864092e-02
2.863727543175576332e-02
-1.773313890329768910e-02
1.275603812220175125e-02
-2.636275562705786904e-03
1.695652715886965603e-02
-9.296182910565203850e-02
-5.834201327097499924e-03
3.188370288543219272e-02
-1.896281627663152234e-03
-5.887331870445102616e-02
-1.007162637759077134e-02
5.903962177284374259e-03
8.269916733543514545e-03
1.270676298876440846e-01
2.322436652765843754e-02
1.424752060804127148e-02
3.458221405674325333e-03
4.284166788002695403e-02
-4.755973772794207244e-02
-8.019877356659477902e-03
1.254479122967459663e-02
4.595433582719240379e-03
2.399703970512097329e-02
-4.649852788045509555e-02
1.325108329306220328e-02
3.118426537285010069e-02
4.357846340052655421e-02
1.175278790028245687e-02
1.642218542422330813e-02
2.039654507088679153e-02
-1.102849595492617907e-02
-1.097188943386710920e-02
-8.037926061399369021e-03
4.186568897056250349e-03
-3.676912224320952327e-02
-7.615564021872170755e-03
-8.953621150057890221e-02
3.729724219128854401e-04
2.375224136665731248e-03
-9.386299773387261859e-04
-9.017471290207065837e-02
1.057412079018862500e-01
-4.972363326678606518e-03
-2.076672620973626232e-02
-1.798885178097530887e-02
-3.763821058738718583e-02
-2.539380434886697249e-02
3.631010786241696542e-02
-2.382478675394386972e-02
-2.104686021545083136e-02
4.381957246983824578e-02
-3.204469800730402884e-02
-1.744628452414636460e-02
-4.106312181025335850e-02
-7.855392746740007606e-03
3.195417833885981496e-02
-9.530325283402602682e-03
-3.614067205924166581e-02
-2.272680536055537645e-02
1.957896599698682322e-02
1.156181236832497065e-02
-2.430411475635653462e-02
-1.932115788364183878e-02
1.288211171731883965e-02
-7.713556632188357104e-03
-3.999537404345549635e-02
2.425931397336810943e-02
1.397269727782139703e-02
2.043138546236622846e-02
3.900800760117715399e-02
-4.054675877254506483e-02
-1.421130999192107489e-02
4.646076000462653205e-02
7.878657085915494185e-02
3.051246885336135473e-02
7.248394428627193131e-02
-5.491409853324777206e-03
6.464783874322056582e-03
1.131578802701579088e-02
-2.410587309774594924e-04
2.086896648123323216e-03
4.012813743487502610e-02
-5.722422027725566213e-02
-2.032307178576722023e-02
-2.341705618135847891e-02
-9.989015711873001913e-03
-2.879628183356717705e-02
1.033927281669418663e-01
-1.007762972068809888e-02
-3.291650572977704303e-02
1.354333958920751237e-02
6.564587945186479978e-02
-1.104370502484940120e-02
-4.601414780226218554e-02
-2.420734187436607374e-03
3.629072661491449664e-02
3.501889721610585522e-04
-5.068435988029545980e-02
-1.339679673966137543e-03
-9.446542620741568003e-03
-1.341513319458371468e-02
1.520791511702420176e-02
-1.011916399852003448e-02
-1.060668156345003638e-02
4.426580922107117844e-02
-4.191582261011737170e-02
-6.993161533336758780e-03
2.020300312355578082e-02
-1.296352373768474599e-02
1.852680432109562753e-03
-2.426504943887889190e-02
-1.118579788650506807e-02
6.185253516910767940e-02
3.353637231682868314e-02
-7.854959763409223757e-04
5.159268068751069782e-03
6.157784482835329531e-02
-3.775335023447417421e-02
-3.362775950720499427e-03
6.736080005012962460e-03
-1.584410695626576118e-02
-7.189155809086695235e-03
2.014254805462763545e-02
7.271510603010200580e-02
1.462375554652955122e-02
6.340254239545568826e-02
5.322374824657559629e-03
5.324977541574243273e-02
1.179945991290974952e-02
7.545804301452768703e-03
6.338105901782156888e-03
-1.072941484437613287e-02
-5.096939549051633656e-02
-2.442812892802882427e-02
3.073496888217934833e-02
-6.778425623476242237e-03
3.014719677544312054e-02
2.184371229234959369e-02
-6.453920412972076817e-03
1.864895279025923338e-03
4.756289606792075270e-02
3.520563901432365722e-02
6.578675421437882830e-03
8.360196068730428587e-02
7.844770306400186688e-02
3.122839651494148730e-02
4.766470308504484193e-02
2.174368077862086704e-02
-3.238951311885517048e-02
-2.971073686762221513e-02
2.869600226094204745e-02
-1.452344412682729079e-03
-9.713162761666343722e-03
1.458872171227665673e-02
-1.232212855893036077e-04
-2.885897069248780644e-01
-7.099483272129586409e-02
-8.921594566988428135e-03
6.768936122311573766e-02
3.494715587974226399e-03
2.968893537553804647e-03
3.155847797640998903e-02
-2.576049095440399728e-02
-2.043087295070233553e-02
2.725341227595294569e-02
-1.228156381658168823e-02
-1.040528106546736694e-03
1.955077905716810088e-02
-3.162596861297958806e-01
3.628618883292840901e-03
-1.435127426848233773e-02
-4.527643585661209231e-03
-7.375607099457813509e-02
1.901677871913626597e-02
2.559709313953310167e-02
8.897671935224883005e-03
-2.658369622344397207e-02
3.500838852543067259e-02
6.567581809487600675e-02
-1.035562744978260445e-02
1.081610242531390320e-02
-2.517209194338405551e-02
-2.414195222338723010e-03
2.400057657786987611e-02
1.275485065429172310e-02
-5.537320018682115839e-03
-1.625932302852077863e-02
3.994860128944640459e-02
-7.236769045042476360e-03
-4.789827017687923322e-02
-6.263099350681256873e-03
-1.820824447976786969e-02
8.984736640783830275e-02
8.811990026431371081e-02
-1.495013173006071693e-02
7.776788578666028046e-03
-3.319687329913816737e-02
4.230552069370595303e-02
-2.383928959631135269e-01
2.147268233496075346e-02
-2.014995609080415251e-02
-6.652976890541151267e-02
-2.627942673266143656e-02
-1.597925175900140327e-02
3.672034490553221370e-02
6.347775319735650228e-03
6.668912419969415077e-03
-2.571942374650638269e-02
6.352740303990072213e-04
-3.005083191151929414e-02
4.904535300539116655e-02
6.107455942853563108e-02
-6.554288517135288539e-02
-1.504319323646653543e-02
1.637859153241396845e-02
-9.985995892048883660e-03
-2.006939084416159078e-02
-6.435860891422357649e-03
-3.954121149717153283e-02
-5.516076277194096461e-02
-4.643559503676765454e-03
9.454599198722128672e-02
2.791706703086109000e-03
2.454635984139633825e-02
-1.021480741539214712e-02
-1.615286659667379901e-02
-1.505778786569667363e-02
-1.329094215483071217e-01
-1.195945059400739530e-02
-1.261499989345055972e-01
-1.913840730596315419e-03
4.044088983107084825e-03
-9.338714519000992920e-03
-4.140431532342478405e-02
3.724903848256019834e-02
-2.290138958777994047e-02
-1.775783745941513381e-03
1.418150955552785475e-02
-6.274580783475361412e-02
2.466574190575358122e-02
7.705259189383762038e-03
3.307101794603085898e-02
3.262005318213894584e-02
1.980775980469966224e-02
8.765971391024737769e-02
1.528328324085607461e-02
-3.996910449481156508e-03
-8.303683353337212858e-03
-6.618835302557240542e-03
1.432631643533014559e-02
-5.939955801243275955e-03
-8.801080337570532652e-02
4.538203038295785148e-03
-3.519119285049914642e-02
1.546604634246225712e-02
-1.122081030521491878e-02
1.188963937069343474e-02
-2.227021694400117477e-02
-9.107453354692206238e-02
-2.860228450742607897e-02
1.021450085341776316e-02
-3.960296529980932012e-02
1.146251715886120563e-02
5.685229268096870636e-04
-2.561770521808271264e-02
2.796362099156591424e-02
5.738792599122231192e-02
1.105913694326845012e-02
-1.364031278649942801e-02
1.606048004514301977e-02
-1.811215197060110985e-02
-5.557670759538004684e-02
2.231766549566132490e-02
1.298243717919762841e-02
3.713301187164125966e-02
1.126796422916794341e-02
-2.525381029292081414e-02
-4.928144266988910768e-03
-1.358759897157808816e-02
8.864766624772270343e-02
-6.027092871396774743e-02
3.229064004562367217e-04
1.603149209183275803e-02
-5.422094512526516585e-02
-4.309091461672628215e-02
4.132462987594130721e-02
2.777555167652216717e-02
-4.297056685056470371e-03
1.117197668943400654e-02
1.659139603622500694e-02
-1.115128022826929882e-02
-8.194030318266267224e-03
9.681045604573075558e-02
2.081569182407350810e-02
-3.471970670622720554e-03
3.636236424242825921e-02
-1.827162202385736525e-02
5.409772198131487103e-03
8.597486736372177141e-02
-2.758732558936420262e-02
9.166872591028536396e-03
-4.411813593586125237e-03
-3.826508322670372358e-02
1.454479461277217436e-03
5.691529201542647881e-02
-2.470288407004718120e-02
5.142011812615229077e-02
-4.200583070175036710e-02
-5.729321248890109804e-03
-9.463057448632047897e-02
2.054381219903395929e-03
2.415553397374353359e-02
1.236561037300030856e-02
-1.378352479315668108e-02
2.732395382396148042e-02
1.795046157929338845e-02
2.173747772967610584e-02
1.250104693172376762e-02
-1.328375754374655146e-02
-2.064435604082333689e-02
4.804475993160391492e-03
3.490450972701165944e-02
1.631025719362934378e-03
-4.194452062795228642e-02
-2.741727893172977992e-02
-3.055044938481398312e-02
2.886277511580111199e-02
8.256937424647762050e-03
3.417051601589497084e-02
