2.487284437709783858e-01
4.356404427902013654e-02
9.925255952469973220e-02
-6.952867055910541549e-02
-3.969444667028619762e-03
-6.973392216091937879e-02
1.035854555234457484e-02
-7.993576578340788608e-02
1.537292406167779235e-01
-1.860265348496727977e-01
-1.031200569387574900e-01
-1.621342086601577082e-01
-6.522976894551386906e-02
5.072407796899754823e-02
1.163716761616390323e-02
4.189358768330896966e-03
1.555640707778899352e-02
6.200998075207349997e-02
4.867182479090345626e-02
9.389834220546243448e-02
1.624549433586028879e-01
-5.852446742182941530e-02
-1.900530661648522357e-01
-1.381676337799882422e-02
7.727564332935210611e-02
3.656466955864708102e-02
1.798532724329547638e-01
-1.515475274478124967e-01
1.217612545072108837e-01
1.756901590449861106e-01
1.766653056506501951e-01
6.736541860800387971e-01
1.529268734809510408e-02
7.165990506083799727e-02
1.551474695707680818e-01
3.033790078969355458e-02
1.228790039679036744e-01
-7.913071744294293275e-01
-4.540913469295327493e-02
-1.313830508806303199e-01
5.539577058383521324e-02
-1.402306694632454998e-01
5.114921733295584028e-02
-8.660479885473580663e-02
-3.031550266506234381e-01
-1.024823065905623720e-01
-2.985863427480717203e-01
-3.188278061005243164e-02
-2.206909222909890500e-01
-5.348753065220121332e-03
2.640947650028926605e-02
-9.682546663776665785e-02
4.192193997857683319e-01
-5.057311476598798095e-01
-2.245128476265804696e-01
2.567151389688488439e-01
1.199519481501406257e-03
-5.092451559966447439e-02
-6.101152541880618951e-01
-1.178326965615222460e-01
-1.099184112473699404e+00
-1.433108959569084351e-01
1.233445710187050341e-02
7.542215274755056931e-02
-3.863648478648061269e-01
-7.119189720105286723e-01
-6.397466862554752887e-02
-4.341540888554235034e-01
1.382999912074579230e-01
4.180373698341818267e-01
1.864698453834769121e-01
5.021449850120483088e-02
1.994619008533717042e-02
4.204136654160210707e-02
-5.854802245461115245e-02
-7.185594599491916534e-02
1.686747355317546118e-02
-1.370740098186607192e-01
1.945007856049401074e-01
1.626784502608357927e-02
1.814037612083709006e-02
2.317445576974023688e-03
3.661086145953814652e-01
-8.814201827157722158e-02
-6.578709539555686013e-03
3.793617515568858956e-01
-1.019793570842000008e-01
-2.549467670706324560e-02
-6.219859836045943391e-02
-9.803863784633656125e-03
1.300971733971304223e-01
3.549940392003422818e-01
1.518976209255474413e-02
-1.126696171776472716e-01
-1.490377707175051247e-01
-1.108009887147066441e-01
-8.911025413294828557e-01
2.806088002943704640e-01
-2.215969440527665868e-01
1.601252440242390690e-02
1.571183602326177431e-01
6.281999405580848683e-02
5.610260160378280903e-01
-6.627910978997228475e-02
1.689592420742704049e-01
1.561377257890970635e-02
2.507937382303147833e-02
1.428427453236015554e-01
1.804920544667418802e-01
1.831971126959802687e-02
-3.568871394090676330e-01
1.336104098605390700e-01
-1.262025345968637025e-02
2.217835328391403182e-01
-1.080575035174257681e-01
2.166464012499770553e-02
1.075832207740058666e-01
-1.454233438604865536e-01
-1.371158011286797464e-02
-1.259188894670328074e-01
-8.896578305533901776e-02
-9.896379664049936853e-02
-1.553881535227603639e-01
5.113862015714121245e-03
-4.109231207886628739e-02
-4.002169402955223221e-02
-6.840864063120062621e-02
2.814877961251712191e-01
1.615452214772492290e-01
9.895570200369746550e-02
1.196654938615351604e-01
1.671072738691556647e-01
1.350822657189321152e-02
-3.687579143878421837e-04
-4.280061890103135092e-01
8.742870810053347819e-02
-5.389778604836486381e-02
-1.931891965553287835e-02
-9.048751548333391903e-02
-3.339854336973192561e-01
5.694996486527242191e-02
1.572430282262986603e-02
1.342363510771652224e-01
-2.393897741640301120e-03
2.543565822895756390e-01
-1.866789189554144898e-02
-4.251546733812239243e-02
1.418670815424186993e-01
3.857683995293245682e-02
4.092443732618485791e-02
8.211734513095111931e-02
-1.381034024518876246e-01
1.713804398095316039e-01
1.339915037113892093e-01
1.775018093873639846e-01
2.183440008160240364e-01
-1.784762389259133275e-01
-2.356894052406041939e-01
1.970367334414115656e-01
-7.786012076558714023e-02
1.846112812788613666e-01
-6.423846423785631310e-02
-3.282866133038439549e-01
-4.652317106668517332e-03
-1.147591104028414521e-01
1.458081549973851976e-01
-4.648817130935871123e-01
5.160583243024698119e-02
-4.701286754245340843e-02
-9.299454849372448210e-04
-2.502457177926285456e-02
3.689023478841657600e-02
1.092659230130750697e-01
-2.803015453202338525e-02
-4.428125758562990316e-02
1.323283852241294474e-02
1.338704285979673836e-01
-1.946051714236729513e-01
4.263629037999581983e-02
1.234257968003924510e-01
5.181814856340775238e-02
-4.920126980025637392e-02
1.862803531555844994e-01
5.148899638926906358e-02
-1.820391262010303823e-01
-7.256994073479172691e-02
9.641445844873462734e-02
4.506261687508124614e-01
1.545111682151010524e-01
2.857436574035843863e-02
-1.604202602738022676e-01
-1.104607449571528704e-01
-1.135078306502927820e-01
-8.312203098103629340e-02
-7.704446388413627167e-02
-2.535983707107687841e-03
1.771937475352366176e-01
-7.250998864521364384e-02
-5.552611492712769548e-02
3.205832545163476901e-03
-1.242768343935394260e-01
-1.365766299920661564e-01
-6.897041473252329968e-02
-4.160735302125871393e-01
-1.118998961694271698e-03
-5.897888183652342381e-02
3.439663425200630009e-02
-5.357029119930147021e-02
-1.593348592883155057e-01
7.029123554326660583e-02
-1.218522188837385251e-01
-1.152495180310120493e-01
9.047888667168757504e-02
1.550471572003699235e-02
-6.140816670873931737e-02
7.185586505123014479e-03
4.650894691745962456e-02
9.306796020092603094e-02
1.458697698683972255e-01
-8.518223318848178183e-01
-2.942855268244302658e-01
5.579615548471388020e-02
1.795103071967374675e-01
1.408832005530347986e-01
1.117695009825728364e-01
-8.286045283602104516e-02
-9.292710247543704838e-02
1.030637011480263071e-01
3.849316852832756486e-01
-1.554035956373150673e-01
-2.135636168070224189e-02
-2.292565786399297645e-01
-3.592972093110053389e-01
-2.562563422603252872e-01
-1.101987772451729118e-03
-1.174822730734011722e-01
1.763574464854431034e-01
-3.545539679436624653e-02
-6.912596555590007179e-03
4.468617044667317489e-02
-9.235048161248847476e-02
-4.605455091009169437e-03
3.158936545557662900e-01
4.181920499704380179e-01
5.469112972943637185e-01
-1.173599105368499373e-01
3.463310344588377832e-01
7.291227325357038658e-02
-2.288809249363232823e-01
1.542606383313409324e-01
2.762986711145299923e-01
8.328423848265034679e-02
3.010566404786839678e-01
-1.085790164467567362e-02
-1.326972775834128204e-01
9.923868478620483102e-02
-2.506750261228815786e-03
8.426050947200813823e-02
-8.947493226630899577e-02
1.941324292622725878e-01
7.699010398313918535e-02
-1.327336821071407880e-01
-2.753663457829505154e-02
-1.793670517899213779e-01
9.281402307267145879e-01
-2.366103760394818456e-01
1.358690625184609257e-01
-8.542823214028431866e-02
2.916447451982540628e-01
7.166274792191852649e-02
-6.774432363655878697e-02
1.394431588912661835e-01
2.048881524560362544e-01
2.476173259438180230e-02
7.909674685662500954e-03
-6.785163643931121369e-01
-4.167368431662940575e-02
-3.654352427217739258e-02
-2.202723706048769492e-01
9.832637229728641293e-02
8.787974199183065660e-02
-4.420797050522180804e-02
9.033637807409167220e-02
5.056299330306389672e-01
5.484014331492108318e-02
-1.124102516246509170e-01
1.429921478726407270e-02
6.255443812963656924e-02
6.020342946066813417e-01
6.205097879675390560e-02
-6.943250106065465554e-02
9.501629895111603219e-02
4.999567016868704944e-02
-4.545109893989617011e-02
-4.955915770382281899e-02
-1.441210110380353182e-01
-8.218445241541104396e-02
2.835237320560989385e-02
1.393858380354459289e-02
-4.072947359923498323e-02
6.890434299180606126e-02
2.693174605570604688e-02
4.928441134835644805e-02
-1.275182960630752427e-01
-1.770030558354045158e-02
9.748885365001248859e-02
4.833438355683183224e-02
9.006431283544903688e-02
9.058847425997950537e-04
2.571656148964482358e-01
-1.787467980133285519e-02
9.340333517525981066e-02
-1.133371446503628893e-01
-3.377668899486718779e-01
6.230418257698551454e-03
9.674851518946912809e-02
-9.150990161367617004e-02
-2.007301867383821659e-01
-1.562226789464020785e-02
-1.064208183765635862e-01
-5.262544054993676529e-02
1.028114582108382788e-02
-1.955243022559878807e-01
-1.151454924353472742e-01
-1.018473184530791359e-01
-9.093866798644674454e-02
1.251066917873823459e-01
-7.945064381325397940e-02
1.051807345806260036e-01
5.985486811667247234e-03
-2.264467069593826404e-03
4.458373032842712080e-02
4.127466493515775103e-01
2.398249996318224317e-02
-7.057302062789268249e-02
2.186279164821435528e-01
1.163033050905024901e-01
-3.585828019610040607e-02
-9.579188182715293876e-02
-8.101023059630044210e-02
2.461170991778503236e-01
-7.425143823392493792e-02
9.092679415130430765e-02
-5.370098489332793962e-02
-1.356582534216663471e-01
1.438938596076682133e-02
-5.089478194655288473e-02
-5.263203432307110574e-02
3.863484095683056459e-03
-4.843643738015400435e-02
1.322237574934350401e-01
-8.304150798963846891e-02
-1.241414800009657676e-01
1.457492550625239837e-02
3.660702062352701614e-03
1.238130801144486925e-01
1.229329130351514560e-01
-7.397782285461983187e-02
8.579344794129765972e-02
4.078129422971558116e-01
3.134795460514144816e-01
-2.326645687180655953e-01
-2.640821991497984134e-01
-2.500729261886237009e-01
-1.074475794346889529e-01
2.065163066819371285e-01
-3.514884867225736426e-02
-2.638010937225397368e-01
-1.231295633590081540e-01
-4.592189998578566357e-02
1.169888631955097458e-01
-4.116287529022138320e-02
-1.396229266769703214e-01
1.688834494953671828e-01
1.646330608164594395e-02
-6.967664599932850422e-02
1.565363360822188965e-02
9.711758084209518027e-02
-3.565756981414808929e-02
1.209696596951278791e-01
-1.485465535210997619e-02
-6.216165858152217227e-02
-1.183026376309984085e-02
8.078273308539761499e-02
3.092080807073445681e-01
-5.582951134291518763e-02
-2.723974141714686353e-02
-4.081110138731625786e-03
-8.695765983873499083e-02
-1.411724349821014413e-01
1.240961397381144804e-01
7.715530833019781931e-02
5.388407587947201538e-01
4.579674955038910422e-01
8.311943970923589553e-02
3.166203981558710079e-02
1.552051561521382468e-02
9.109846795758792803e-02
1.580430339865435407e-01
5.051931324868420836e-02
5.198428731691604604e-02
9.129020828310230318e-02
-6.937500531507125867e-01
1.126140684550235548e-02
1.451401095724507984e-01
-8.940636992127558302e-02
-1.170137182930298669e-01
4.495851614195706114e-02
3.136848932567241205e-02
-7.822346644532658655e-02
-1.675758253620457106e-01
2.742138773890384074e-01
1.142090599262481632e-01
-8.928956575407059892e-02
-3.266634396567246190e-01
-6.746579709558578331e-02
-1.386842467919965557e-02
-4.258936158709387271e-02
3.161147324325078861e-02
7.475787647131108826e-02
4.482874740617969200e-01
-7.524047753721882503e-02
1.477683381436190602e-01
3.400107828703038959e-02
-4.305024910729070009e-01
-3.279620685369541988e-01
1.222052416755970844e-01
-1.720899335997655988e-01
-1.177845138511594315e-02
-2.720811742912525658e-02
-7.181296991504204641e-02
1.747739131006132568e-02
-1.327901923151870445e-01
2.427879252259239340e-01
-6.544202003628001030e-02
1.005246260458920737e-01
1.270533029854473139e-02
3.432664441051526127e-01
-9.291879783693615669e-02
4.249463588990507606e-02
-2.774659866968621769e-01
-1.512807453580476170e-02
-1.077561929853927125e-01
1.309711002118986445e-01
1.099142449762424839e-01
6.091126720932762972e-02
-2.260798778089630895e-02
-2.075998162178665021e-02
-1.839997913934719037e-02
-1.142915659969075681e-01
-8.946439037680550821e-02
-1.367141764569390627e-01
-1.419888809591234556e-02
-1.799399266164080496e-02
3.593063393163350994e-02
7.875529008689864663e-02
-2.764559635161284012e-03
1.004582407429456259e-01
-3.394645348038006216e-01
-4.901717439535613341e-02
-5.701727407059627994e-01
3.688546294562858926e-03
9.709311660206537686e-02
1.950662804126989947e-01
1.134951583860443480e-01
4.054689563890377657e-02
-1.999701814523282828e-01
-9.098352374513697660e-02
-4.279747503859916702e-02
4.855597534299264245e-03
4.509753678134888893e-02
-3.061463051595693097e-01
3.084257941257264463e-02
-9.323621664621754151e-03
-2.809431074527134475e-01
-1.821287619443010541e-01
-1.185261196919961679e-01
-1.047490402980528618e-01
-3.184825715684549453e-03
1.057533116249500249e-01
1.342227424446787165e-01
3.365671404362276069e-04
4.377159579137101519e-01
-1.159909500190149656e-01
-1.686824669928581599e-01
3.864555245649947679e-02
3.981229882757952865e-02
-1.548779842972537735e-02
9.861532151967007664e-02
1.006464657123632422e-01
-2.834740266559220359e-02
-7.131833306118696980e-02
-5.371094185272242555e-02
-2.646918326456151327e-01
-2.503062513021636626e-01
-3.525113751813899743e-01
-7.538754611017267626e-02
1.321055517017342973e-01
-2.332564525513929413e-02
1.880314618465746268e-01
5.238148734310148491e-01
-1.867701267960597822e-01
4.460499696243571538e-02
-1.207662303118639813e-01
-2.849521533718578081e-01
-7.351925763960490134e-02
2.497840425554438970e-01
-1.136434371196106130e-01
-9.017639775773414468e-02
-2.177474258349369057e-02
1.949497030565247591e-01
4.110254374853414619e-03
-2.821329431812693439e-02
5.161219814684552334e-03
1.848969123594778729e-03
4.050288401071737709e-01
1.763282865583391812e-01
-3.414393410192354539e-01
7.200280782319551376e-02
2.613257265242767691e-01
-1.605813194694759583e-01
-1.888432388220318281e-01
4.286171234289146842e-02
-6.643792722842534193e-02
8.141089609036029906e-02
7.331599007476019558e-02
-1.749734981747046725e-01
1.573785436984369845e-01
-1.455860255536577455e-02
-1.084055165262766823e-01
-6.260136623142977669e-03
-6.471796119831633165e-01
1.229033555794168675e-01
5.254695316795898047e-02
-1.578312529723968349e-01
-2.092636757895445510e-01
5.510093391670325969e-02
-3.319120093376519420e-02
-3.319551547048757434e-01
7.353156266022269072e-02
7.552167841156774697e-02
-8.820791433511394886e-02
5.650786850534936928e-02
3.953257830782804655e-02
-3.482594977733399766e-03
-3.003892449404089171e-01
-1.208129239448649667e-01
5.269110472412660839e-02
1.061440444770088559e-01
-1.076691707920911095e-01
-1.008719831196297212e-01
-1.098125514969741506e-01
-4.744404166402556473e-03
6.052182043058932509e-02
4.468119171225407027e-01
-9.088891493122232268e-02
1.164794998868689951e-01
5.271371759107381511e-02
-5.498684435520163893e-02
3.850988569058245992e-02
1.235976880510703847e-02
5.353306125847342306e-02
-8.012680601713043083e-02
-9.567804508538982344e-02
2.068069616411694900e-01
-5.530774434307413751e-02
-1.405472538737297453e-02
-6.729393800481958676e-02
-4.386932622716911007e-02
1.186293669764852260e-01
3.903718117619770639e-02
3.462883749642842873e-02
1.979280623992682800e-02
1.900549334527710243e-01
-2.347575031915268701e-02
-1.882932029755849113e-01
-3.521246094548687311e-01
-1.383747714293998843e-01
-5.571884544911290954e-02
3.920395622356668414e-02
-3.914259239972123217e-01
-5.726489897726865647e-02
7.295942476639598329e-02
-2.537914991000103093e-01
1.516709409756301918e-01
-3.180089181864962367e-01
-1.193643924189314864e-01
-1.367076065514576805e-02
-1.185989527602043930e-01
5.890819077395165887e-02
1.673825035465292543e-01
-2.724898689111788785e-01
-5.993116037161476395e-02
1.172209465809739420e-01
1.287484119029149721e-01
1.435572066825344800e-02
6.888230266875837449e-02
-1.118883971152918044e-01
-6.874670173907812543e-02
-5.279153827666679955e-02
1.326243420958574115e-01
-9.787399941811849441e-03
-1.768196318548665713e-01
1.733370437229959926e-01
3.797654522488740775e-02
1.190933593384404521e-01
-2.003682145072382959e-01
6.125631866635925654e-02
-7.938568732790909563e-03
1.655405234030209866e-02
-9.642791338747556951e-02
1.986110689734112977e-01
1.700184655335713890e-01
1.601398961586263103e-01
1.261057826698772644e-01
-3.052855195184599191e-02
1.321196800719436348e-01
-9.617241906803564166e-02
1.967494095182146518e-01
-2.950428713494338342e-02
8.508379719959974219e-02
1.390499132066614352e-01
-7.642101818880356334e-02
2.558471831826447662e-02
7.609264051254430727e-01
4.844840709495349396e-01
1.575014641607527244e-01
2.920524046892023495e-01
-5.280884082939876073e-02
-1.176956687845575056e-01
-2.034268495757789522e-03
2.995497536223730092e-02
-9.394131242346556721e-02
-1.478774642311225969e-02
-1.358831525675574525e-01
-3.574404133835089488e-03
-1.558076789652324823e-01
-1.450367355310230519e-02
1.767041518489744778e-01
-8.389684723209558936e-02
5.295840682609542077e-02
-1.761919631224789784e-01
1.944236166416578038e-01
-1.600430820101109985e-01
-1.418487747379476305e-01
-8.823797829574578366e-02
-6.215538737730888497e-02
9.469385863297295758e-02
6.195452712027826186e-02
-7.568316094541093220e-01
-8.058267365067474097e-01
2.100220989930651899e-02
-4.533950766601708288e-02
-8.713711175692691324e-02
-9.464681367453381400e-02
-2.301609804815348270e-01
-9.621728780675402326e-02
3.925243590626101287e-01
-5.082239926305940347e-01
-3.012135319621154217e-01
1.314559258696882671e-01
7.998578729183202646e-03
-3.581638883850928046e-02
2.654165994571479684e-02
-3.108169472307968917e-01
1.559368393151291388e-01
-1.244670929817704857e-01
-1.047139442222384531e-01
-7.289077217356315641e-02
7.142288161761048415e-02
9.662014981602533303e-02
-4.408299796344625210e-02
-9.454080692500987926e-02
-1.240312109780023486e-01
7.951298516692173468e-02
7.206290612751042879e-02
3.953273849081047971e-04
-4.149189205697940280e-02
-1.654825741222865632e-01
1.035477898557667364e-01
3.615469679320149066e-02
3.564720308395403769e-01
1.146311080443551539e-01
-2.906957000194811125e-02
7.811608443785283094e-03
-3.036658022219158592e-01
6.834655708823409934e-03
1.063603990859233739e-01
2.176613985673536700e-01
6.209907938483812812e-02
2.699363672311633211e-01
2.416104787982848445e-01
1.313935284606435605e-01
-1.491071266294620723e-01
1.369148184037570493e-01
-2.217886508194707729e-01
-1.239218871388067938e-01
-2.202266089910406843e-01
2.061387403204419100e-01
-1.953891506645032139e-01
-2.662096514781793835e-02
4.506510759084891848e-02
9.471256174978436027e-02
-3.716110747068422648e-02
-6.417156222960384016e-01
1.404626873847032442e-01
-5.137261871093354998e-02
1.339562547587082597e-01
-3.207966061685842835e-02
3.030900996164541394e-02
-8.449408335410750481e-02
1.007997280465607187e-01
1.913556891087972445e-02
-4.049218982246870907e-02
-7.993731365038125869e-02
-1.348963619004698578e-01
-4.179301279059707275e-01
-1.735192227920522579e-01
-2.516280959021999913e-02
-5.402127898867630229e-01
1.124465426037829924e-01
2.524260325987007746e-03
-1.860859321984195680e-01
-2.929200256913528505e-02
-1.280982412064637088e-01
7.488664454893653732e-02
-9.023956018115103506e-02
2.238971160807935387e-02
-5.904648118929798489e-02
-1.286411861932362788e-01
7.071561819401625537e-02
-7.813288851391407552e-02
-5.526120217763866652e-03
-1.946195628813355838e-01
-3.896858471441638772e-01
1.373167508841468265e-01
-5.828270121128205361e-02
-7.443972750356413204e-02
1.021583826655017013e-01
5.955834135341629698e-02
-5.432185495021345234e-02
-2.695271298502801005e-01
-1.732166868794893233e-01
2.151769671477964385e-01
-1.677371159819216750e-01
-6.410732396348391149e-02
-2.211841940599486855e-01
1.468915141460239715e-01
4.716501244414776639e-02
1.520333399336425695e-01
4.825913920464681289e-03
-1.718563812079639819e-01
-6.234853039375548578e-02
8.980895535511176225e-03
-1.364444969057913154e-02
1.827644539288920122e-01
-1.483034523452784470e-01
-1.310684939214711020e-01
-2.167040397236217053e-01
5.679119929711875375e-02
1.887975656660714763e-01
1.293749155001412410e-01
-4.627286086379549940e-02
-1.026629769995934111e-01
-2.899102154458473111e-03
4.908305525057751056e-02
1.200814798012531937e-01
2.252767740720255096e-01
1.413140783178832606e-02
-4.250375269359877306e-01
1.149174591877474422e-01
5.048245824725666742e-01
-1.665020586373266442e-01
9.166653941725258492e-02
-6.162232985633690763e-02
4.411916340181632618e-02
-7.171494430142125176e-02
8.354837714309558405e-02
-2.433807551765028443e-01
9.552071788027306776e-02
5.109534531429326537e-03
1.357458150322699564e-01
3.981943793461430181e-03
-1.371720038892156046e-01
-2.133141649116894190e-01
-1.223024299862501552e-01
2.011403727620074411e-01
2.327888193488411861e-01
-3.696069073798051441e-02
-5.267806026562267020e-04
-1.660753456675519435e-01
1.254838458842942872e-01
-3.997387625872903527e-01
-1.079314920435485714e-01
-4.122020704583204825e-02
-3.102063664588741720e-02
2.164585760861541808e-01
-4.401836119432936401e-02
1.368370197504637509e-01
-5.472161491579812659e-02
-5.540479379783987135e-02
2.619036906998102876e-01
-8.752578062514335122e-02
-7.857740080633973667e-02
-9.824639469753583543e-02
-1.954740187835374635e-02
-1.115337493262078261e-01
-2.376332363054924623e-01
2.125511557030662912e-01
1.329752310030253223e-02
-1.531482136234611768e-01
7.100530261358392603e-02
-1.777254990341584628e-01
-9.028088069480209865e-02
-2.504235463130418185e-02
1.214674205204499952e-01
3.499298036937985579e-01
-1.238488928211931711e-02
-5.081459658019065184e-01
4.918843888736007530e-02
-1.067180418974442435e-01
1.267319817285487982e-01
-5.060382375658222659e-02
5.961495895965620573e-01
-2.069264310542255972e-02
-6.043430575222614731e-01
6.402268417636636233e-02
9.716328638267658635e-02
4.553332717795268159e-01
1.646173753685114538e-01
2.823913274397976125e-01
6.339782515315939282e-02
9.311630787793447050e-02
7.655750461028854037e-02
8.335560134629237117e-02
1.963301943375390102e-01
-1.302908751381959274e-01
-1.403211031912410534e-01
-3.053533467164301282e-02
-1.441266095902055400e-01
1.431358197227577088e-02
-6.964828358405987518e-02
6.026918637144627194e-02
-7.250814959937569582e-02
1.692138569191345421e-01
2.298260448318583532e-02
-7.489652816525250723e-01
3.152648902716159024e-02
9.311928309706687945e-03
9.316266836828679399e-03
-8.485791328648262244e-02
-1.985862201249287071e-02
1.473771251280593360e-03
2.668157752738258871e-03
4.120615173269460280e-02
-1.260292897395338119e-01
-2.501328137457021344e-02
-4.687803238357207691e-02
-3.779589504229495522e-02
-8.963513516438169348e-02
6.344679334249433977e-02
1.405950017427165799e-01
-9.012380413692297476e-02
-5.246481618953598852e-02
-1.394581874573457350e-02
7.366936766313185447e-02
1.288358447767596338e-01
1.342596704734256297e-01
-1.025949298328063669e-01
2.460044674578104884e-01
-7.876826052715595050e-02
1.331096304753773552e-01
5.303039312468948996e-02
1.914990957030682228e-01
-7.729747786565778489e-02
5.690876248198588616e-01
8.689583198945211029e-02
4.374671764094093668e-02
-1.216346136769515252e-02
-1.176644372793129167e-01
9.728926285864110748e-03
2.100537135314308190e-01
-2.177607881558532854e-01
-1.322996322566641347e-01
1.192456923097395538e-01
3.171850777779186559e-02
-1.954490833247792270e-01
-3.611260614910521971e-01
1.668376312881772738e-01
1.907884077017925617e-01
-4.448605446046771661e-02
-1.200883580771583276e-01
-2.177379379586809327e-01
-5.589299361775237895e-02
-1.254326850055736131e-01
-2.624594234877171157e-03
3.754152953417713712e-02
6.845123689323408950e-03
6.909015024493726786e-02
4.095373965479363193e-02
1.922799682671452737e-02
1.210448194228866958e-01
-7.686322018945493939e-01
3.736394650907023385e-01
-4.480494339685265337e-01
2.371472665979913741e-01
1.007111883729033819e-01
-1.336448104933842806e-01
-9.013908291601441247e-02
-5.366993559889906423e-02
-8.606800366916650402e-02
-2.210022526256457884e-02
-5.249721755295805314e-02
3.654162122580435074e-02
-4.976474527541024581e-03
8.451144749070756135e-02
-5.866876294780069834e-02
2.038959513677340504e-02
2.661243096638079078e-02
3.285580217638720685e-02
1.816950902707485938e-01
-1.871394701132365890e-01
2.779395919360821889e-03
-1.374863364135561067e-02
-1.975878398481371173e-02
5.010645624813727522e-02
-8.375653674165250973e-02
-1.313967235747728335e-01
2.715600915051532421e-02
2.572565398186854244e-02
-4.355763820438612183e-02
-1.940401284975153684e-01
-1.128445708844986850e+00
-5.294014804457592982e-01
3.830365561093044408e-02
-2.206749351030089235e-02
-1.467098718763736320e-01
7.021472194322891935e-02
5.457542817108960304e-02
1.961820116218888632e-01
-4.816430229455291312e-01
1.066452040125011602e-01
1.656191005007574824e-01
-3.054911371505562856e-03
-9.850379488830909858e-02
9.088879199805194320e-03
3.541748001767511950e-02
-1.559067455435087235e-01
2.869262968135734282e-02
-2.290767978499115912e-02
2.087197381495806831e-02
-2.713123902886009457e-03
7.825442013407644948e-02
5.588639756116863672e-02
3.823145520589172480e-02
-6.796894827659534510e-02
-5.022948707243244520e-02
-1.279297384265865312e-01
-1.463459723720461625e-01
-1.129040192491942290e-01
4.152909501740090215e-02
-5.802221109627562351e-02
1.592424416837905365e-01
1.860036457670631929e-02
6.412467391983377174e-02
1.233560141609750943e-01
-8.824773321851170360e-02
-8.809939168688059319e-02
9.647359063931813805e-02
-4.371562418992604448e-01
7.066569996903819817e-01
-6.098812939623395740e-02
8.032177440608401220e-02
8.333588487695170466e-02
-5.086438131893741832e-02
-5.705283671655612433e-03
2.494988844650554982e-01
1.471138320267010857e-01
-7.061407152102894269e-01
-1.428430691464886548e+00
2.327486247465260227e-01
-1.086972887605597016e-01
-2.355181668058056454e-01
-2.361184536558799674e-01
-1.086744376082656033e-01
-1.398783768127945248e-01
-1.931649741280691002e-01
1.087715927438475810e-01
-2.891964882970446959e-01
-2.770011367120585599e-01
-9.633022779053884710e-02
2.221040493206627789e-02
4.703159484665304924e-02
7.605318407761821331e-02
-4.103047537232940717e-02
5.114061427639902957e-02
9.293915563104271360e-03
-5.613910838498770844e-02
-1.023051691572139932e-01
-4.711232576428868446e-02
