-1.759909312480361157e-02
3.766802827816064913e-03
2.218001983140480311e-03
1.628763119798416412e-02
3.967484351335730935e-02
7.183528516822297420e-03
-1.363162244460442742e-02
5.474044278259104085e-02
-1.555756892302186806e-02
2.858480169985352232e-02
-1.045128578552398727e-02
-7.435616491616055083e-03
9.614859035350361433e-03
-8.538965378393870154e-02
9.626674460986181514e-02
1.497535260271787294e-02
2.725793738742474537e-03
-3.304347150650147058e-02
2.121337449168678516e-02
-2.970624741803932697e-02
-7.999148213313725386e-03
-2.895034764576489249e-03
-2.205323094300619749e-03
3.654750046352723408e-02
-1.778136923098960070e-02
5.210036090580405510e-03
-1.399972062643220494e-02
-5.179194570975213102e-02
2.165575364889558638e-02
-5.698023233464161175e-03
-9.825930259159283697e-02
1.115801242909555090e-02
-7.828230139680312496e-04
1.411475738121117061e-02
-1.333984759425376095e-02
-4.144221932557855259e-02
-5.108653541702209977e-02
-7.353001610775804567e-03
-3.110067992103828297e-02
-1.490672395942419133e-02
9.044884667091843133e-03
-1.266068875871886878e-01
8.857161489786241626e-03
4.219785652707411933e-02
1.549638632868926592e-02
-7.647921425432124658e-03
1.299411988343628262e-02
-1.843646487243415580e-02
1.187885401487124952e-02
2.077873673511412486e-02
-5.593057149511380943e-03
-3.543067441888635496e-03
6.113251676583204147e-02
-5.043762115036198868e-02
-1.837964739744619991e-02
1.182068510379840308e-02
5.735756941170102631e-03
6.763623125963813543e-02
1.568402166425800909e-02
-4.605557008580070388e-02
2.230330270231212914e-02
2.093446094294524468e-02
8.582543074916278159e-02
3.362306763031566031e-02
1.595908880505134825e-02
1.220883868503176012e-02
1.016171424407503326e-02
-2.081792210923020733e-02
1.742047697506659458e-03
-2.224945455568748051e-02
-1.029734253898688043e-02
2.603394352625441541e-02
-6.290613581681733617e-03
-8.062093841411781259e-02
1.082849200718231514e-01
-5.618611734300301905e-03
2.687121154164228906e-02
-7.117631802424786991e-02
-6.966572672410198397e-02
7.411307005594213251e-03
4.057334797953946956e-03
-3.367417938224461817e-03
5.901254465075091854e-02
-1.555708196225859090e-02
3.972261416237086312e-02
7.249812080146512960e-02
-1.884318914896137079e-02
-2.026946759500997813e-02
2.080382454891717414e-02
3.346005157669818680e-02
1.561964117097850054e-02
8.068601887455338281e-03
-3.840345120622629810e-02
-5.449039761516002306e-03
4.254741885333548218e-02
1.680562726427317849e-03
2.865820360195861505e-02
-1.085729093230299556e-02
-8.586478318040564189e-03
7.797590457940537130e-03
-1.007029281641919245e-02
-3.973669787338125065e-02
-1.357498059718199521e-02
-1.058814957873151739e-02
1.672860171777086971e-02
8.455687654051975699e-02
-3.453350756583959975e-03
2.792005974787675759e-02
7.121937679316893421e-02
-1.337742186017277200e-02
-1.742609718529997825e-02
7.746417109629222817e-04
1.378682486901542867e-02
1.467477350479711590e-02
1.012683656700448243e-01
3.206152109309942048e-03
8.560800561023460247e-04
4.429019019472218294e-03
-1.533478552491503340e-02
-9.150562248062722726e-02
-2.377441499430465663e-02
1.111119813192732071e-02
1.696736805441874125e-03
-1.190465569137908602e-02
-1.053610326522528380e-03
-6.766534032325646764e-02
1.085661583154409193e-01
1.110384008737340389e-02
-8.402883769932001715e-03
1.612609161547751135e-02
6.388790132757718107e-03
-3.188222126777939813e-02
-4.444307101387395646e-03
2.967223044445967475e-02
3.009353520645705569e-03
-1.112739546016953095e-02
-1.850078624121447458e-03
1.196939627474994002e-02
-1.232535159798123572e-02
-1.382433301481346237e-02
-4.335280859954260095e-03
-1.348398379748617752e-03
3.122346898116134042e-02
1.343130220357461810e-02
-1.055293901753479556e-02
2.408129691024585295e-02
5.203924470013855663e-02
-8.962485638745116764e-03
2.011534925646049979e-02
6.824600093390161167e-03
-1.097086671459752798e-02
1.117060477325094612e-03
7.302424905760368685e-03
-1.069363464286355800e-02
-6.210153231410472756e-03
8.037485665601651341e-02
-6.369104028387260856e-03
-7.628236580033615800e-03
-1.064748276284914474e-02
2.049848524879303857e-02
7.189193344945066233e-02
-1.030559392557864502e-02
1.819717368865695489e-02
9.920075608091910579e-03
3.115786676443961511e-02
1.503325363799246431e-02
1.569204780689537407e-02
-4.594660488433496143e-02
-1.675061441497996059e-02
-2.248237579129283917e-02
1.475625968065718240e-03
-1.619644864790653616e-02
-1.218492097325596726e-02
-2.116618364126892846e-02
-1.855850907457168297e-02
5.979674963012809180e-03
2.164921061005290609e-02
1.944199044134182694e-02
-3.270470449581044936e-02
-1.561997616651490672e-02
-3.265239826791976885e-02
1.376062258670500589e-02
-1.084662148976876968e-02
1.760369561044510325e-02
-7.176948079487782683e-02
2.049487649811492646e-02
2.371934234328963481e-04
-5.341146204090511246e-02
-1.476263513725157954e-02
-1.950625169258235784e-03
3.236375770111997452e-02
-3.903720793112516740e-02
2.398292972046187684e-03
-1.622026249448155558e-02
-1.705318902773881847e-04
7.777245614103346638e-03
-1.673727747413278344e-02
-7.531128837650839791e-02
3.027057383410633462e-02
5.273608900356660523e-02
-4.484047502205675169e-03
4.465004125782726097e-03
-2.359880361788824904e-02
-3.887528319226683793e-02
-2.395197671019586028e-02
1.133188593068278592e-02
-5.074487109100309090e-02
1.731629701067300547e-02
-7.425052865050557616e-02
7.451368086113183305e-03
4.753955626798907208e-02
3.299009987157077578e-02
1.672372388798987544e-02
-3.393101407682726917e-03
-3.357483251931151630e-02
-9.266688011536242803e-03
1.039030875714271746e-02
3.936522015626613309e-03
-1.688385947725072958e-02
7.062177895449940623e-02
-5.224594147148045598e-02
-6.625006981648975772e-03
-1.800061454996377402e-02
1.817836209984765791e-02
4.788767586217573813e-03
1.678336590239307841e-02
-2.613909592144941785e-03
-7.326374891477999141e-03
2.815513072993392971e-02
-2.579288977561198723e-02
9.585554732469017333e-03
2.985675861681223731e-02
-7.892695944601357122e-03
-1.830648478280559295e-03
-8.693680194456412935e-02
-4.959528552687579236e-03
-1.741532860260480362e-02
8.720452577953367521e-03
2.872756659892899272e-02
-2.890824215102639691e-02
4.033246190875025561e-02
1.573161884201264293e-02
-8.656784299806255523e-02
-1.166856343509759392e-01
-5.524798821222333227e-03
3.424847071134750620e-01
1.470260597275169299e-04
2.065783255209500610e-02
-2.452354268466216958e-02
2.856238976887167172e-03
1.193644381153880982e-02
-2.938422384490023583e-03
1.985714349789211020e-02
1.734644319605425759e-04
-9.418547826211187343e-03
-4.870626672271118410e-03
7.003410426555569789e-04
9.707291886784933516e-03
4.313313161252145360e-03
-1.168613044612341716e-02
2.712763723147856507e-02
2.612477567831848584e-03
-4.159833718377491801e-02
3.983284765953235863e-03
8.028773200126453069e-03
3.695469906133235123e-03
-1.038579505445510727e-03
2.898640298753909356e-02
-1.517411555362521008e-02
7.085676247564520053e-03
-1.410729765938796923e-04
1.201032962218098049e-02
-1.357291304594684250e-02
-9.347047841349155964e-03
1.611128773887388066e-02
1.517451371515467738e-02
-6.926728954280225725e-02
-7.352586830284711140e-03
-1.963285222357435156e-05
-1.495453522249223788e-02
9.216863954695515837e-03
-6.873898078696144033e-03
4.367762448760097518e-03
-1.946026918923642263e-03
2.362304934323836841e-02
4.057546649422582100e-03
-1.152685664294034141e-03
-9.176090260210927052e-03
-1.975331233741711018e-02
1.794456382801561112e-03
9.600482167274851548e-04
1.822218039540698595e-02
1.474524734592430782e-03
-3.707560923594740987e-02
1.136667263604455511e-02
3.476245018783191698e-02
-1.138443055829322856e-02
3.310796124205952345e-03
1.188135792022734782e-01
-1.731669997950311887e-02
-1.695254108855735048e-02
-9.575763537920700327e-03
2.729709838710181469e-02
-4.145325451136672168e-02
9.427479343084407132e-03
1.624077764078765132e-03
3.603495251048109672e-04
4.423209643758421739e-02
1.462496299236433484e-02
8.263451498740614562e-03
-1.271866673095254155e-02
-6.413732752556565789e-03
-2.838727461862049217e-02
6.906044018985149462e-03
-4.477786096114921149e-02
4.375395341363386148e-02
-3.057966048676934948e-03
-1.586586356457794431e-02
2.131257249890146366e-02
-1.238167892175475078e-03
9.122830226295883249e-02
-5.211227722705225052e-02
-2.155497523695168536e-03
5.953785936030747336e-03
-3.459452829583843370e-01
5.357136200996902471e-03
-2.690269308127015129e-03
-2.213413495331304198e-03
-9.249977014116114032e-03
-1.825957062116599985e-02
4.938506952822785401e-02
-3.529407080992513074e-02
-2.007503013119510751e-02
-1.149687358370949861e-02
1.703746527661468418e-02
-3.804276378472547931e-02
-7.847489184936008721e-02
5.127291423372906144e-03
-6.259070575905094705e-03
-3.120019714929550894e-02
1.638316705206589383e-02
-9.813713061122386616e-03
2.742066483748989425e-02
1.017892149355639764e-02
6.307137550059348230e-02
-1.576527443638801179e-02
3.839046340147100889e-02
-5.219914647843292010e-03
1.703048423391900074e-02
-6.326777056784632994e-03
5.187170774713051324e-02
1.698894433969821982e-02
1.588362046098071995e-02
1.417920484539677423e-02
2.977872450534553139e-03
-5.957952516301261159e-04
4.024763438074413328e-03
-4.412955580889749152e-02
-1.058168506568043761e-03
-1.183344473198836705e-01
-2.652383645871740983e-02
-1.294896207770919461e-01
-8.899473221487014252e-02
-9.409187120770734492e-02
1.093986528877736487e-02
-1.638823887748796365e-02
-5.488767159466781224e-03
2.892063157158246411e-02
9.253265932064007673e-03
-5.779200642358464993e-03
7.825409787104192771e-03
2.328985798029486673e-03
-6.730938035963788049e-03
2.109843923690667977e-01
-8.191118911202876010e-03
2.053322925994633882e-02
5.032244609368247135e-02
4.646709434323486460e-02
-6.899804279255341774e-03
6.111311753780020173e-02
-5.830634254677215418e-03
-2.905644360806211059e-03
-6.433577448535149346e-02
-1.562063478217485743e-02
2.759015124456720702e-02
-2.141843372052447056e-02
-2.668678546736572704e-02
1.171766528842043895e-02
-5.586383278636256750e-03
4.478198037866421878e-03
-2.983507566973801935e-03
2.022250735709930566e-02
-2.319550598332069391e-02
-5.106047497076218571e-03
9.340955499028948117e-03
-2.775886337790956209e-03
1.423552547688992052e-02
-1.400834644149741987e-02
5.299408148891002895e-02
-9.059264265921961046e-02
-1.278839396093915150e-02
1.372068845824712295e-03
-1.166868941398348063e-02
-4.304903467781773241e-02
1.281123890427991220e-02
-4.360366874678205107e-02
-4.896578406180485815e-02
1.865839119939744981e-02
3.964503191398889223e-03
7.525388352715496609e-03
7.893251481207388606e-03
4.550763021332984715e-02
-4.377678468571018222e-02
6.533850100386990288e-03
-6.482219028923298654e-02
1.622481042081726568e-02
1.911914149278242520e-02
4.346200785917844409e-03
1.926585844332274339e-02
-6.650808810746958524e-03
-6.664174797921419702e-02
-7.516222998583998831e-03
-5.920992658582983209e-03
3.361139366768616746e-03
6.718190158703954418e-02
-2.377627911927253021e-02
-1.491208512811976160e-02
1.797484680145932517e-02
-4.736380108617332246e-03
4.496151194981394539e-02
-6.106144172301181117e-02
1.598813204958002623e-02
4.361934886004017152e-03
-6.200680043905372908e-04
-2.191902479324593991e-02
-3.219608179903773321e-02
1.122443483417124958e-02
-5.614861905902154143e-02
8.960685677461607129e-03
-1.517856776192762387e-02
1.246005661527887056e-03
-1.708894191240272614e-02
-1.039901319696982934e-01
-3.190647217951268072e-02
1.248572902128682917e-02
4.457958798105492865e-03
4.979696400038485446e-03
-1.015524207186053185e-01
-3.920164427720982531e-02
-8.279337557464710355e-04
-3.409793196038981428e-02
3.447713986078975584e-02
-1.129388582969592381e-01
-1.209631031985630538e-02
5.667556381865365527e-03
3.512498933916052748e-03
-7.834799193350872352e-04
-1.864465589602099654e-02
-4.203936579175160393e-02
4.167059498309849848e-03
-1.115031206700422889e-03
1.277895543531705827e-02
2.992771777258245586e-03
-2.101015463387819956e-02
2.832962226084890719e-02
3.187187852399048921e-02
8.897759059769534901e-04
-6.360320311745938648e-02
-2.517728149382878616e-02
7.251856133452906812e-03
8.748612467961661143e-02
4.823465906369252959e-02
3.646162517378189437e-03
1.415635594108674740e-02
2.341410765717543904e-02
-2.432300163719098088e-02
2.314585618534499567e-02
-1.872851600779826611e-02
-8.822529755959035783e-03
6.144517936352053566e-03
-2.193967716712938790e-02
2.539985183090879770e-02
1.996874504848692167e-01
-4.491147105370773759e-03
-1.245550820573570160e-02
-1.131772111914969466e-02
-8.924658115147129922e-02
2.734547867720453496e-02
-1.882154121140491507e-02
-2.444209382798297539e-03
-2.613582978909229637e-01
-3.604305159575087007e-03
4.212007640976061368e-02
1.419089645457040361e-01
-2.188410908258710263e-02
-1.364848364203254116e-02
6.785529615116842050e-02
-6.950513121970370613e-03
-9.331355625581826130e-02
-4.154506048015974007e-02
-8.070426659413822493e-03
-1.294687944910825460e-03
7.369847478160103859e-04
2.004710508194416235e-02
-1.708443326615442792e-02
-2.878681161189436746e-02
2.348300755058482098e-02
-6.508519768466761168e-02
-2.695029822749731366e-02
2.261419932043576275e-02
6.539295449831691864e-02
1.248222557616236392e-03
2.751319148446785406e-02
3.453021469585587644e-02
2.873239317993173461e-02
4.145619396462156200e-03
1.250780905108324521e-02
4.804064765580510349e-02
5.440107923062323381e-02
1.046295119864464745e-02
1.767419046586432563e-02
-1.735050732969151133e-02
2.885329810289489691e-02
-3.884867919644600237e-02
-2.378446985872399375e-02
-1.809672126722896429e-02
-1.037858131347079577e-02
-1.256865196719716450e-02
-2.145049319488328068e-02
-5.774038105513285175e-03
-1.724783349485654177e-02
1.247449287477584790e-03
2.372594968396588185e-03
1.056103633122067315e-01
2.379288965747608162e-02
4.358410140699773942e-03
5.846541293957997938e-03
5.348104489277099097e-03
-2.976321875960388080e-03
-1.372606380025676032e-02
-3.125158760270216329e-02
1.360679749175227118e-02
-2.933613884021220031e-01
-2.530017755269725957e-02
5.117988482267836307e-03
-4.060428215744872615e-02
9.755422546894891925e-03
4.167784843765217490e-02
2.566562390775734004e-02
1.296003143379907685e-02
1.924897660766716756e-01
-5.969614825999525198e-02
-2.305370854801984740e-02
-5.033514115373903530e-02
2.774328648075398418e-03
-8.249128653574572603e-03
2.891133287517130140e-02
-1.208825387265620617e-02
1.669711251652077760e-02
-2.982596720806872381e-02
-7.844668578113014878e-02
-2.225900781441569280e-03
-1.078221025341141379e-02
1.838088883034621340e-02
-2.500277042598131327e-02
-4.899656720308091448e-03
2.736225015238026668e-03
8.943688476648531394e-03
6.544701116180091580e-03
-2.655422718544625180e-02
-5.088372272514104372e-02
-2.527517130356579655e-02
-3.720406301022567003e-02
4.323576620809482796e-02
1.470203319330738549e-02
2.584254507184379369e-03
-8.075461060636450862e-04
6.027804702890215104e-03
-1.903114986520009627e-02
-4.663628040716003703e-02
-3.440041823518101283e-01
9.775743301708014407e-03
5.841379870848950953e-03
-3.033134554704162711e-01
-3.147709966719035996e-02
8.432035130130067363e-03
-1.962761768345825872e-02
2.166612951144725099e-04
1.086217019898595530e-02
-6.531433065340837242e-04
-1.061705154033513315e-02
-8.903333711035556208e-03
7.029829851457319173e-03
8.264428881188334852e-03
8.927037917756430740e-02
6.242436121242542213e-02
-4.534244394531840132e-03
-2.654749456374413952e-02
-9.600008095333351088e-02
-3.137755510430730033e-02
3.948051683508297001e-03
9.058510805452555867e-03
1.912020168393484959e-02
8.842734715379562543e-03
1.612554429025039177e-02
-1.185466527039501054e-03
6.176597195868117549e-03
-5.603927860648554027e-03
-6.247638605728381839e-02
-1.474681662840811140e-02
2.408626285485866020e-02
-1.538761955121453577e-02
-2.747830663443345811e-02
2.804539439109069235e-02
-1.372839035115674261e-02
-9.985989183027888655e-03
-1.430959917639351882e-02
-8.837740638946876490e-03
2.150449859967120975e-03
-1.131441987320777783e-02
-1.506024211122357348e-02
-6.935711483582743080e-03
7.411808104639748887e-03
-8.217526707069577538e-03
6.635725394577721148e-02
3.324228808663275830e-02
2.531504044886054658e-05
1.391351391356833965e-02
-1.728470484434253274e-01
-7.086819941430263017e-03
3.027841707227028976e-03
-2.262827782202136637e-02
-2.183998522456450167e-02
6.118861017740138963e-03
-5.348767753583019702e-04
-3.412705450352501724e-02
-2.764681833087690235e-02
-9.293099613578525639e-03
-4.724512362337269719e-03
-5.122902827130529357e-02
-1.386589910448319737e-03
-9.766999392706879335e-03
-8.625272609331871218e-03
1.610638061693374758e-03
2.449671490052224006e-04
-6.397121096601300280e-03
1.587624251076527951e-02
1.614631569696706528e-02
-2.014255374342488469e-02
-2.480502812167864959e-02
4.979481301443199753e-02
1.983994071292722455e-02
-4.548663432916201683e-03
-1.647037478110682795e-02
-8.947342216368312862e-04
-1.349671656545527176e-01
1.726693786260266941e-02
-1.877037224477642180e-02
-2.446837217885678220e-02
-5.049039399742406842e-02
-5.623241549426479316e-03
-2.347042194777872529e-02
-7.770647420498026647e-02
-1.018186841352789959e-02
6.064812730177403070e-03
1.047841786697328338e-02
4.292927085590610148e-02
1.416706404252771057e-02
3.034568716973596453e-02
3.999914245878780777e-02
8.622129543845943617e-05
-1.061532570280138317e-02
5.938658779781897518e-02
1.005591930755133506e-02
-2.190643774927725912e-02
3.800425640559147028e-02
9.713224034618815964e-03
-5.770225910017917278e-03
-1.721529971715440518e-02
-5.132808966388044403e-02
-4.114536977013968228e-03
2.145020101379850261e-02
-1.108695333981935330e-02
-8.239801868855542791e-03
3.476069937715957348e-02
1.557509843052385518e-02
-1.172833472507500523e-02
-2.977966500571382555e-02
-9.421855503943032950e-03
-1.337170871012225391e-02
5.376559338012606992e-03
-6.385313164332692519e-03
1.079193310602238540e-02
2.808158965659189599e-02
-1.457041103259222765e-02
2.241591527709924925e-01
1.703987522475287064e-01
-1.010417435903620924e-02
-1.357068893523289028e-02
2.803961414698054322e-02
6.441692405754377744e-03
3.098885322197678441e-02
-3.034666046088484864e-02
-1.438842089571141028e-02
-1.646960659991036219e-02
-3.658740595024921865e-03
1.119131852322197661e-02
4.619708521137047726e-03
1.954058987861045579e-02
9.027665187590568768e-03
5.414863331372630519e-03
-1.193413638299549006e-03
1.480465149971255633e-02
-1.861627726253839779e-02
5.006959417725781458e-02
3.857821477549831270e-03
6.006546204394712721e-03
-1.034516183278813423e-01
-8.319943466893295336e-02
-8.147663326772101866e-03
-5.343400495646005027e-03
-3.819457758376795450e-03
-2.592364067142641573e-02
-1.331650138847890628e-03
8.776847205920665015e-03
2.867100329887599039e-03
-8.359987166039186887e-03
-2.387659541884217668e-02
-1.755569829705991292e-02
-7.036338013376995659e-02
3.344121574255158862e-03
-1.669832217485079512e-02
-4.266891837139262511e-02
-1.674420122431261732e-02
4.024641252668549607e-02
-5.335819078265287806e-03
2.851555074040216381e-02
4.144278135518870802e-03
8.231466197781154084e-03
1.716755622215153376e-02
2.046024958769855281e-02
-1.007180559547367522e-03
2.351226087464220252e-02
1.419401322999132124e-02
2.232818420881430965e-03
8.977399216616723313e-03
-6.292643682763801594e-02
-1.591486767847509476e-02
2.396234339445503167e-02
-1.278755132079769513e-02
1.017557666382221809e-02
-3.974730812345107084e-02
3.728736953853100094e-03
5.069894349224780133e-02
-6.017915883357069506e-02
2.407263148352021057e-02
-4.297389844872909898e-02
7.244594453148023912e-04
3.669872897658770037e-03
-2.949900829094174656e-02
4.539063718474754122e-02
2.636396801759403278e-03
2.327614845164845125e-02
5.428794334103438299e-03
2.708564946631374371e-01
-5.991812654729562239e-03
3.884329638081078593e-03
-2.645148451872357531e-02
6.428948900143389815e-03
1.035637365880972757e-02
-1.226303868345609074e-02
5.564200086866510561e-03
-1.870013170934545568e-02
4.393763920147062546e-02
-1.335207953689112603e-01
7.746622292039271988e-03
-1.363403022930391797e-02
9.684787762311965545e-03
1.184424218192335621e-02
-5.217206898629955444e-03
8.080871887313845550e-03
2.903532949500260002e-02
1.044305832398749120e-02
1.990496786421279678e-03
-1.892321074965629124e-02
1.039149448210891858e-03
1.559099327420198494e-02
-1.936718293053659064e-03
1.202133930766248471e-02
-2.262519916849794338e-02
-4.958120529839208507e-02
-3.429038103935311971e-02
-1.158307042485775748e-02
3.051945670102993412e-03
-1.019939372634873914e-01
-1.940266065148333469e-02
-3.250653923832476280e-03
-7.923072680326609038e-03
-2.207920318080595565e-02
7.101461341721460041e-02
2.637352220762438095e-04
-2.412250786569653058e-03
-1.115319848112284774e-02
-4.439693351970187829e-02
-2.145722219322998645e-03
-4.253522151380824401e-02
8.244918974730411354e-03
1.219392331308986020e-02
2.370269993771921459e-03
-8.982257162389154642e-03
-1.250605660326913234e-02
-8.209617930456486815e-03
-3.389974023777117540e-02
-4.413928367977286785e-03
2.519391517471878555e-04
1.595283095975292761e-02
4.700402846341679257e-03
-2.235633897334609460e-02
3.053491267670507912e-03
1.220813429171682847e-02
1.678931133955197108e-01
-3.124572017867501689e-02
-1.015388456495656911e-03
-2.243048174094854075e-03
-5.705317935078035516e-03
3.287825633041748657e-02
2.381920805574438624e-02
-9.501459199884522422e-02
1.547113375311684469e-02
-3.663405413564018581e-02
-2.032150291723185120e-02
3.217822753294296428e-02
3.567711201990872699e-03
1.746006365850685457e-02
1.814293442781269097e-02
-3.730782363631820597e-03
3.070626007979726860e-02
-1.372742331965814133e-01
1.609660839571370322e-02
-2.001731640286917753e-03
4.281291589802302400e-02
5.453024134843607179e-02
-5.239174842819867978e-02
-8.502740298744242836e-03
-1.431269147065633851e-01
-2.460331123338954998e-02
8.143526616986749775e-03
-1.230091336096246837e-02
2.300011268687508423e-02
-6.459581734446417922e-02
-3.398780206567429685e-02
1.186237042440844124e-02
1.084504615951206036e-02
-3.473277507149504124e-03
4.273337620936852599e-02
-2.495905442048859668e-02
-1.994576078484560505e-02
7.130941580154216697e-02
2.922542352973924590e-02
3.410244478334704954e-02
1.050037809415071965e-02
-9.368418118597711397e-03
-2.298079916000722936e-03
1.044012054411622668e-02
-6.040861551876966669e-03
-7.020736000969371796e-03
1.246574570955898131e-01
-2.612573973317076220e-02
-7.758833869900399680e-03
9.411167942569438963e-03
-8.634201636992988593e-02
2.833486548963639468e-02
-1.890924090944525598e-02
4.490489222643101463e-02
3.653215088940588162e-02
3.015377260780155357e-03
-1.107924239504374728e-02
-1.603650479271783238e-02
-1.768471047276112471e-02
3.517046210429088798e-02
3.758431839517639012e-03
-2.688818754225686183e-02
-1.684460829821467567e-02
2.364354639661363916e-02
7.240187330037763970e-03
2.035091521408462570e-03
9.745490040097185653e-04
3.814278355336025300e-03
-6.114053490646426635e-03
-1.406627761943536961e-02
8.857205770944292719e-03
-1.413677753942472505e-02
-3.419242343809099360e-02
9.197621723083681047e-03
-1.548254811967029153e-02
1.306800864365586373e-03
5.299010335746424417e-03
-1.993734916001476190e-02
5.246998362943633594e-03
-9.134430297839387508e-03
-2.316804577369327781e-02
-4.600720461707907133e-02
6.206727618552516923e-03
1.635058083095990503e-02
5.453702495052861754e-02
-2.500986239927925799e-03
-1.020661343870415613e-02
2.495000190574703930e-02
-7.201631152646341405e-02
-4.456776731097007033e-02
1.110192340384431528e-02
2.731378167636109439e-02
-6.727108521539373887e-02
-2.143205451774324137e-03
1.028873331143833475e-02
-6.948678579923857866e-03
2.701994183355922036e-02
1.540061037204544167e-02
-4.182642476432693081e-03
7.119666268522716057e-02
9.478854830262509884e-03
1.158413847011383231e-02
9.526488596003261991e-04
8.726628482366610359e-03
2.527903153682834608e-02
1.408743731896605449e-02
-6.541552469194108002e-03
-8.768385455459814029e-03
-1.437649868399183510e-02
4.081964846678852454e-03
-7.685078740548904885e-02
2.363120167032021351e-02
-8.148469939589218780e-02
-1.195802461430575669e-02
-1.000631665624597370e-02
-2.483721264783560895e-02
9.783471311571615911e-03
1.446871309933919422e-02
-8.624914910887170397e-03
4.253790585675051861e-02
5.940557412869566399e-04
4.137859920878990926e-03
7.558580328692191160e-03
-5.142404519744504521e-01
-1.101329899525415185e-01
2.017748934862841417e-03
-2.394051845819259242e-02
2.135890414941635576e-02
-3.544243221877743655e-02
-6.011266642644575711e-04
-3.341994573968142587e-03
1.734269814601374507e-03
-7.505859595275305753e-03
-2.734914672867163471e-02
-1.727441529522671937e-01
-1.960219705348181449e-02
3.774546418874777376e-02
-6.666664122430486852e-03
9.121906342870143847e-02
-9.497534187583794169e-03
2.205956550445720490e-02
2.626929795201122034e-02
9.333142233052170444e-02
1.670128054594802181e-02
1.520419178591507318e-02
-5.073463462782395149e-03
-2.898595342169734725e-03
-6.069388974539872625e-03
-5.334847195740842485e-02
5.017704948857069913e-02
1.543679043225854898e-02
3.036571952196077603e-02
-5.897968642133293027e-02
1.888803480373230873e-03
3.033041480206058807e-02
1.742016483406760852e-02
-1.623590684551092997e-02
3.424893386616990193e-02
1.821585523906529402e-03
2.170644683144776557e-02
-1.863748202939674928e-02
7.872847401951479571e-03
-1.350729387470107068e-01
-2.580040007433329757e-02
-1.896771647674081254e-02
-1.133222697053317372e-02
-2.578533401952535966e-03
1.350272301809811275e-02
-1.772765898788788985e-02
-8.149104366764466784e-03
-9.503223077508456129e-03
1.237663268056653047e-02
1.582359672590485933e-02
1.415577533307062381e-02
-4.139065803282118705e-02
-2.848338644660965147e-02
5.920586532946954528e-02
3.934723969661384907e-02
-3.093825093591361791e-03
6.088982642903091602e-02
1.505784399929638480e-02
5.568652967280912809e-03
3.749216088710004974e-02
2.509610745674355561e-02
1.603107186101903519e-03
4.289149370399938932e-02
-1.735743068455499177e-03
-8.674566239618233116e-03
-1.471202199163903481e-03
1.933235078139909852e-03
-6.047580055680578520e-03
-3.735958740873684958e-02
3.157071582087462441e-02
6.440648898627064460e-03
8.067146102128470997e-02
-6.964126311330450306e-03
1.620866338315878410e-02
7.249945781111846038e-03
-9.369659997649520955e-03
4.236656633466185859e-03
2.600271162998336535e-02
-3.245560331774039430e-03
2.139447260747678707e-03
-1.018515657024408709e-02
-7.917495352322985111e-03
-4.393631840671306278e-03
-1.637778110798131627e-03
5.486975202748534119e-02
-1.753620085699106020e-03
3.681498553372850209e-03
-2.529814191911789606e-02
2.343646942116170417e-02
-1.720176754513654330e-02
-2.567770552289996497e-02
-2.699661688573133655e-02
-4.815473350320753979e-03
2.475268102644380928e-04
-3.523586864648908107e-02
-4.575391725898627824e-04
5.337999254857405534e-03
4.311689316588247431e-03
1.884319382683361313e-03
7.254964077439889601e-03
1.951019111459658534e-02
2.963096930460314971e-01
1.060622607952504959e-01
7.244949792855090269e-03
4.286614422434867344e-02
-3.677253896239615627e-02
1.767559485488156765e-02
1.751892881597254953e-02
2.825512217217567359e-03
8.873936694055620938e-03
-3.631814594541447894e-02
-3.079819527609067853e-02
-1.165063665359914249e-02
-4.849418728566423642e-03
-1.679732805786775252e-02
2.341437715502753258e-02
9.338715534664490669e-03
2.070384323643691127e-02
1.050421955980716457e-02
-2.744470298834850858e-02
-9.303283429912930641e-03
2.249048610187173031e-02
-2.742201804268773506e-05
-3.098650305456565959e-02
4.895134341784187527e-03
5.982207143834661865e-03
-5.608969192508102015e-04
2.203658461172006144e-02
4.217228719686401395e-02
-1.832084931055482377e-03
4.066620912244377911e-02
2.915038882833425465e-02
5.145265530588769703e-02
-3.459263732039773599e-04
7.380199187610314571e-02
-1.206312469374287884e-02
6.933792004462199093e-03
8.433718474349196845e-03
1.203326796374509615e-02
2.122247893562148168e-03
2.586866072188792002e-03
-5.941002149679928089e-03
2.259186972926174181e-02
1.411620176773325554e-02
7.548061830130857464e-02
1.085383768136968840e-03
-4.743561394702745619e-03
3.136518066220205132e-03
5.788471194843355233e-02
-1.793873130964525678e-02
-3.988839700521375382e-03
-1.022690119519174302e-02
-1.961332041160045517e-02
-3.906029401763400771e-02
1.735182434302322621e-02
3.100359618078790680e-02
1.230080764057170373e-02
1.686127352085564201e-03
-4.586306265688372408e-02
3.011879899092224921e-02
-5.039337668418399259e-03
8.066807991564217684e-02
1.045754565757904889e-02
1.989064415778233133e-02
5.663407764880153822e-02
9.041194993622754528e-02
9.263992332823249576e-02
-7.672837032572005916e-03
2.830510219431900225e-03
-5.650678426774871643e-03
-1.217715095751043843e-02
-3.600517799292542002e-03
-1.410845822395913069e-03
-9.263959286684893268e-03
5.408619587331263412e-02
-5.782068453367227023e-03
-2.724644444286902084e-02
-2.074767119289717965e-02
3.762689881069996439e-02
4.135646072915540039e-02
-1.467014157541342845e-01
-1.294253584597203875e-02
-1.413803135946468947e-02
-1.099095561173913174e-02
1.564577254431446726e-02
1.046574223664467444e-02
-3.021045743227294966e-02
2.353460939431424592e-02
1.963050196512482193e-02
2.119750523347412041e-02
-8.872302450721085768e-03
7.020480540820188062e-03
-2.577075023072426460e-02
-4.105493580654603208e-02
2.020993820592942997e-03
4.575164306312971135e-02
2.128676276185707469e-02
5.152281675029425677e-04
-1.200991697398115857e-02
-5.644862591819412544e-03
1.720361093755495147e-02
5.772408990236620706e-03
1.762731315486074438e-02
-5.642595149135248150e-02
2.458183419891986007e-02
3.997539185526127747e-02
8.385713500990940941e-03
-1.846967985167499715e-02
-6.787964698474265035e-03
-2.010071943565552507e-02
7.345178245523061034e-02
3.197156906344022359e-02
2.427955827913114845e-02
4.034093589688481085e-02
-8.067115409388848912e-03
-2.052211463682034401e-02
-3.048372313322267259e-04
-4.076848455359101224e-03
-5.826963884909911948e-03
3.349372725106872228e-02
1.383294212796859490e-02
-3.710939396225826359e-02
-1.373142123636045611e-02
1.341795229655798512e-02
2.022984212241615148e-02
-6.903533340001666470e-03
3.906176914081654905e-03
-4.113297186865785826e-02
-8.645210237549525584e-03
-1.014964989159566899e-02
-6.000178213134318463e-03
3.516899652631481823e-03
6.189549676629605562e-03
-1.553770542123468663e-02
1.208245696710897286e-02
5.954344811328123911e-03
-1.784446000361433748e-02
-4.831290476997885872e-03
-9.031791456081015787e-03
1.517086577101192484e-02
3.744192101729625077e-02
-8.771050937532647723e-03
-1.267667978389061534e-02
-1.967860646432329982e-02
-1.330610000225560495e-02
-7.380839512420436961e-03
3.314691744829745268e-02
3.045073261174197771e-02
-7.585520071699689698e-03
6.184551015891373224e-03
-1.571309924115406320e-02
-1.001998964167762594e-02
3.121116375636684773e-02
2.161898085427600702e-02
3.083722199405167078e-04
1.387891930949192512e-02
1.466550153626463605e-02
-7.013383454221976641e-03
6.271407678427153541e-03
-6.921752068349392752e-03
8.183414529854512662e-03
-6.908010765542159847e-04
5.333520638619846516e-02
1.211423906537323694e-02
-2.134308716704364992e-02
-9.421927763846663084e-02
-1.714661575574024863e-02
-5.631876615678389498e-05
2.015255212288587922e-02
3.633578012347397912e-02
3.342100234330817529e-03
1.348288479975905292e-02
4.031769628256477722e-02
-3.120503354840795454e-02
-3.183940041608058699e-04
1.365394929167971366e-02
9.259864092846204278e-03
3.457353631840872493e-02
-2.471712678000481753e-03
5.014001515862916147e-02
-3.345304490314698204e-02
-1.378526794260247733e-02
2.649502933836712579e-02
2.042382692018330712e-02
-2.328969855601606236e-03
-2.743586935693196130e-02
-4.945608025127349455e-02
-1.274697099865496411e-02
3.574802863909048306e-02
1.963529858918009602e-02
1.523228583930577931e-02
1.395114332080414979e-02
-3.266043939415449321e-02
8.257137560678716459e-03
-4.024022114704538244e-02
1.173227797765145040e-02
-2.073949050078102360e-02
5.798255856648756694e-03
-2.142411562222854698e-02
-4.280998627719900633e-03
4.470011280894229527e-02
6.277990246427176194e-04
2.587528754268200379e-03
2.952320607318432294e-02
-3.686253415814086387e-02
-1.625077243968948634e-02
-1.991196344820203926e-02
-5.551455440208392933e-02
3.700656404644740976e-03
9.707102189909329326e-02
4.561632417410551796e-03
1.501682467345638594e-01
-4.916959475118957285e-02
-7.043525725683627906e-03
1.816744426738366169e-02
-7.282347750794508634e-02
7.122336999505776700e-03
-6.805872971505097513e-02
-7.578019487377202212e-02
3.423123033749026715e-03
2.829115343013168318e-02
2.759012627885405050e-02
3.323865873228200318e-02
-1.438514520435163133e-02
-6.913650101743488118e-03
-1.450532998188674809e-02
3.034085556360423958e-02
-1.596295388304090276e-02
-6.149183120145224404e-03
-8.604588470060446984e-03
-6.716821756292544465e-02
7.247208296554899336e-03
4.737917926473623337e-02
-5.301179984507442631e-04
-5.838305742742413984e-02
3.517518237909630224e-02
-9.687996099590354343e-04
-5.340378090447181654e-03
3.428513185640767041e-02
2.278810965224426638e-02
1.419754159706630020e-02
7.409888925527006488e-03
-1.460340346064781247e-02
5.761957035011127520e-02
2.021872361299811155e-02
-1.249669894386912054e-02
-1.382456302014465309e-02
2.503284909796215166e-02
3.798073713389962889e-03
-2.736426654854366616e-03
-3.408086619799654410e-02
8.601361315702506227e-02
2.686740041833857087e-03
8.952249472093345983e-02
4.124508390089432798e-03
-9.834976557897607066e-03
-2.120393867130446891e-02
-1.730013059012412008e-02
1.283299927265102620e-02
3.270932782857918948e-03
-1.475718265447251674e-02
-1.212528164557698414e-02
-1.674270044316488945e-02
-3.082003613604752945e-02
1.354414670283710445e-02
1.990411225436098525e-02
-2.077727381552499017e-02
3.663293138172022626e-03
1.843545037727602545e-02
-7.784098010272912441e-03
-7.253427108189179628e-03
-2.304956249730420043e-02
4.218597677160651482e-03
4.986892827327248784e-02
1.930184369761916985e-02
-1.682088925908756250e-02
1.156661179629217551e-02
-6.236351598248312395e-02
2.932925871240439630e-02
3.827906054104113394e-03
6.335194119952329561e-02
2.290276860139637063e-02
9.741650091237140374e-03
-1.004500308467552207e-02
6.966011224955933473e-03
8.541425710052169898e-03
2.618224236009078758e-03
2.404443565390272826e-03
-1.993902037354691736e-02
1.118344542740031533e-01
-3.103894896681039153e-03
1.143642099525967598e-02
-8.972639598928628182e-03
7.987361139093788684e-03
-2.705719028497663436e-02
-1.259527955128572781e-04
-1.186429384176114314e-02
-1.609915395419842009e-03
-5.102061042204973640e-02
-1.344709907951779655e-03
-3.659632681480348183e-03
1.416362523997147238e-01
5.565422188760169725e-02
9.502210672354273469e-03
6.546305229975399494e-03
1.347836654584722016e-02
-1.160825795138879270e-02
-2.385894783182504128e-02
1.273432923148685655e-02
6.745540656071469460e-04
3.183319725267529793e-02
5.261393130984828165e-02
-1.775543979467833142e-02
9.774043988248586751e-03
3.231010702615583208e-02
2.128181669875115704e-03
3.452968806170274036e-03
1.094185242362345940e-02
4.730486124765143074e-02
2.779197718401871155e-03
-4.026689865240769967e-02
-1.763121885889629105e-03
3.757118621226431129e-04
1.067000025157710530e-02
1.458989601944073872e-02
2.805822221310896522e-02
-2.717531269439675892e-02
2.949958310114202120e-02
-3.036544319753255866e-02
4.769261169316773435e-02
1.618758756641533805e-02
5.390628895102213269e-02
-4.425161803342342326e-02
6.601895118511250105e-02
7.780034384935669012e-02
-1.845977616691390501e-04
-1.282578492137327261e-02
-1.942838626753107213e-03
-5.551766775486236677e-02
-1.746734628673799611e-02
1.373338705537228283e-02
1.062617191830766972e-02
-4.844443149531402378e-03
1.467135712798101239e-02
-2.562989515588521422e-03
3.717201699610750681e-03
8.062452253859532514e-02
-1.666736920244120054e-02
6.767443856662137824e-02
-7.435658087339801561e-03
6.075043263790434397e-03
2.481945971049355666e-03
8.030480885336505059e-02
7.994254425644863049e-02
-6.599700564236508915e-02
-2.695567681176517030e-02
3.408895613044835016e-02
-1.148024061170431348e-01
-1.257926639440226126e-02
2.851498999877745064e-02
-2.694467519999692480e-03
1.289670756689307272e-02
-5.884286099708656292e-02
1.567880572216473825e-02
-7.859051955003876905e-03
-3.759312429741705486e-02
1.101999852348644997e-02
3.635709314567265888e-03
-1.111855440291421339e-02
-1.679618917890847787e-02
1.763046670876448549e-02
-2.057547120373515517e-02
1.185882277485912975e-02
-7.593424656323541355e-02
-2.985121132588473489e-03
2.679144566302058689e-02
-1.906542133308497533e-02
1.446610699265319863e-02
5.945008877431082889e-02
3.498380410005520573e-03
-1.263959707249400150e-03
8.322035444432404920e-04
1.889309989760172906e-02
-1.794277137103770028e-02
-9.280354464395297598e-03
9.917197726218446308e-02
6.268018076350187484e-02
3.014553338424117573e-02
-2.155828706112834503e-01
-1.953900848719665809e-02
-1.612476493578666320e-02
-7.787015485334257414e-02
7.340963672086175951e-02
5.321936988298602011e-02
3.447623652504576419e-02
2.759793807211068355e-03
1.043611619608139363e-01
-6.619805590874489401e-03
-6.408676273457929173e-02
4.014234315942874498e-03
-8.830113883661032045e-03
1.032513935545107710e-02
-3.593363243467543461e-02
-1.641615689432126754e-02
3.758321037922268421e-03
3.534579209437681106e-03
-2.578768439571691926e-02
4.929592553421294904e-03
-1.241212724917539409e-03
-4.986960315889016684e-03
1.205467857729434350e-02
4.852174242962929707e-02
-3.270146982342754527e-02
-3.972576039574120255e-03
2.295772564594970519e-02
1.119410910031967341e-02
-7.767997777476881062e-03
4.863277159991736924e-03
-8.453585230215044516e-03
1.015653229334288754e-02
-6.253125067617093524e-02
5.581081552253830229e-03
1.513926253577977006e-02
5.372257928919882408e-02
1.547525347665374557e-02
-3.510393292336785962e-03
2.547129753052868734e-02
-2.741430986896007185e-02
-2.001992613576331417e-03
-5.133298801531570310e-02
-6.886207562612965856e-03
1.062681455656679930e-01
1.359451536795879163e-02
1.053728268495206753e-02
-5.067120838526720933e-02
3.914783887381100697e-03
4.816127615056373101e-02
-3.501913044435009652e-03
3.998425641304444861e-02
-5.524297866031583314e-03
-2.433002604951239878e-02
6.130238177270480940e-03
5.153758522529466347e-03
-1.578023585820708188e-02
-5.984929145472684189e-03
7.159219234578123592e-02
-2.371798997716413962e-02
-1.922694673025730772e-02
-1.435554232461360748e-02
3.226391298414213460e-02
-3.042206708092892037e-02
-2.644199476387021006e-02
-1.399011364189493671e-02
-3.188291697660500246e-02
-1.006106192956498016e-02
1.171326867451186367e-02
-9.931960950412509204e-03
2.884706474158896944e-02
2.390697506250868704e-03
-5.099390464530533656e-02
-4.876997220334802763e-02
-1.316334812157289591e-02
-2.654023636902693925e-03
9.026443297449063957e-03
-4.320037059655846418e-02
6.878193243523266984e-03
-2.844390460510639457e-02
2.223703750882809107e-03
2.140039489306256107e-02
-1.694894389737844342e-01
5.104004789194581740e-03
1.145991307694074063e-02
-1.166055864517315244e-01
-2.441758389173377675e-02
-8.958475086064806789e-03
2.930654803636512096e-02
7.606449307978525864e-03
9.127954783102714808e-04
-9.535439629210770013e-03
-5.855655910111853824e-02
1.021632371463155123e-02
-1.737460328952799768e-02
1.599697612839153654e-02
-4.557706236416798201e-02
-6.757593325781450534e-03
-1.757921856129548294e-02
-3.440268038139366463e-02
2.447457474616348931e-03
-2.071523816994427433e-02
-1.886810898807261133e-02
2.471209441386730196e-02
3.998207655444227515e-02
7.891430576753418955e-03
4.048018312506779931e-02
-1.296846384682777539e-03
1.183656138374424537e-02
-9.788593896780573358e-03
-1.279233849846503519e-02
-1.011323723906416665e-02
-1.827941594079087254e-02
-5.197613215381281619e-03
3.016176687578320855e-03
-1.087861703157719066e-02
1.256699685109281643e-02
-6.907984993526850893e-03
8.265011364935909155e-02
2.990433154796810072e-02
3.911997455577078536e-02
-2.059083179075315087e-02
-3.078849666108722689e-03
-3.207632623812889383e-02
-1.341838097427811016e-02
-5.152737557993603001e-02
2.683419449969345894e-03
3.520230444781358853e-02
-5.045473546430448604e-03
-2.546691470192716938e-02
2.701250052876673358e-02
2.396140569626327432e-02
-1.343495751568776243e-02
-2.432189681521032608e-04
1.108884001477498937e-02
4.266304448106753369e-03
2.419401900584974840e-02
-4.785564017592924130e-02
1.189455482300488635e-02
1.798571122955345547e-01
-9.514658002057559041e-04
-2.407876555590396372e-02
8.922014706692285232e-03
-5.489440489168755100e-02
-4.050118775302682245e-02
4.812468222703599786e-03
-2.096950052234301722e-03
1.080243714419936926e-02
6.335033122962307334e-03
-6.849059176528538538e-04
1.406002871049608777e-02
1.054856779472362199e-02
1.890173103785664985e-02
-9.606656396449915741e-04
-3.415568828028657695e-03
5.312351299944465845e-03
6.052003000275038049e-03
-1.536925342647032199e-02
-7.856380376999079138e-03
2.481027470155675041e-02
-1.355216763397190487e-02
5.594960416502391121e-03
5.649426036456146188e-02
-7.341456981251677505e-02
-1.366135440151334812e-01
-6.026037718864537401e-02
3.425833361802598648e-02
4.933892309266944137e-03
1.230024626265228092e-02
3.190024536061114580e-02
5.592178284691303250e-03
1.460559011678704867e-02
1.374660768138023792e-02
4.812600842638622284e-03
1.387503413813901548e-02
5.334373006215539044e-04
1.411978059122465275e-02
-3.104708004439943325e-02
2.084462109678183322e-02
-8.581102341114981921e-03
3.431849957311308708e-02
-3.364157134017266466e-03
-1.569439822772038251e-02
6.864264020706645729e-03
-1.234946638161773733e-02
-2.448285598989798084e-02
-4.956030605263488792e-02
1.537253438930589848e-02
1.141822659401189703e-03
2.214955700375775827e-02
4.605536464553366960e-02
1.697320253453650160e-02
2.328496654588805420e-02
-3.048711545918124377e-02
1.576278449335794321e-02
4.695695205423652103e-04
1.339663738079982687e-02
-3.657681893979001370e-02
-3.860333126820076483e-02
-7.268170824176498068e-02
-3.875491046410645124e-02
-4.365326832976361426e-02
4.121836108732719259e-03
-5.371848754091928038e-03
-1.760098246860332394e-02
-1.403475680547797318e-02
7.068027274045063368e-02
-2.286790522457458896e-02
-2.942607785121234814e-03
9.547586530844726083e-03
3.030822195916415532e-06
-4.939551231972814926e-02
-5.890510483942220342e-03
3.062969414510259211e-02
-7.525132172090122015e-03
3.182921959578735929e-03
-1.771222753425725919e-03
2.287625301894383786e-03
9.479373540290611869e-03
3.195144597972808878e-03
-4.752391653429061634e-03
1.616669463291403597e-02
2.400883105150946901e-03
1.403247098359911536e-02
1.567328362213937787e-02
-2.977405008545764425e-02
-3.011203960735045482e-02
9.567683892547597033e-03
5.649800608381041686e-03
1.493931820075261770e-02
-6.272647287082829849e-03
-2.216738372471882892e-02
-2.059200277866274006e-02
-6.097278697003146591e-02
-1.482991094491682010e-02
-4.986162473563645475e-03
-9.070968342857799876e-03
-1.509186849856130382e-03
-3.885795181471527956e-03
-2.153946544094067876e-03
-2.151872834087729253e-02
1.670153348819196013e-02
5.870493294571108890e-03
-2.682262565035744076e-02
2.507562611385253520e-02
2.639955874977290527e-03
-1.440434330476981183e-02
1.141977882901737754e-02
-4.491277144188349744e-03
1.399233958257959168e-02
1.799256669930893865e-02
1.779093242087781065e-02
2.528409116250610045e-02
8.535819622235957249e-03
-1.379271310591272462e-02
-9.718428346141244623e-02
-9.237412460550232032e-03
1.012450990283717683e-02
-1.364249671155414595e-02
-1.006885046309612640e-02
2.789127522539151804e-02
5.409842477494057611e-02
4.308898046123985082e-02
6.800754087554304606e-02
3.293070894148184685e-02
-1.391740057840105960e-02
1.766873963104595088e-02
2.643897074370437153e-02
5.327371012995659599e-02
-6.640829376953339205e-03
6.674414275622997383e-02
4.979770769164323062e-03
-2.399596287225870192e-02
-1.706675771148808904e-02
2.266561750900403238e-02
3.496595800011670363e-02
5.171149369116955202e-04
-2.148014442113837033e-03
5.324608479553957080e-03
1.923489460066334089e-02
2.823097728734072845e-02
-7.152861743987178056e-02
1.293399555736509353e-02
7.185020912224082158e-03
-6.588995314891664228e-03
8.077147588101268871e-02
5.514111754091769596e-02
-6.652599154789472398e-03
-5.750900232178758620e-03
1.090502030287650130e-02
2.381071020333852539e-02
1.258840663757563316e-01
6.489940401631899558e-02
-1.552619888164443081e-02
1.321647904433099867e-02
7.832087152957354845e-03
-4.112101285486748081e-02
-1.947765647081311016e-02
-3.257408575787120592e-02
-1.494868593654513807e-02
-1.073916532957430552e-02
7.333528476409499619e-02
-1.432749347989921256e-02
-8.264975333101828858e-02
2.868089213779357813e-02
2.884274006061148150e-03
5.364630631102643155e-02
6.153531789205944798e-03
1.017308534569274885e-02
1.485669814811572086e-02
4.890278404314556127e-02
-3.690576112173664380e-02
-3.302836666318213071e-02
6.306160607468583573e-04
1.133866491340463495e-02
-1.936127647387226453e-02
9.929525727424103054e-02
1.010583710820995296e-01
4.887363961513864485e-02
-1.209643486205582708e-01
-4.672378285384719970e-02
9.328609127938347623e-02
5.010003691103013385e-02
3.178951996993673035e-02
-1.116620095970774669e-02
-3.627814799602115808e-02
1.631635635653094774e-02
-3.000185690013061623e-02
3.346935982540714255e-02
1.385865973090424745e-02
7.014100874237835445e-03
2.049124986199610254e-02
2.297135364481832712e-02
1.816413677391492260e-02
3.210434577549956068e-03
-3.049907890989794236e-03
-1.210859981588742820e-02
-1.721801343783677975e-03
-2.726228450797883729e-02
-6.395145834645798999e-02
3.960963527856217747e-02
-6.123452405765231199e-02
9.932490926876891627e-03
-2.524303327174810124e-02
1.256988925240942918e-02
-3.466597629040081563e-02
-6.054350981492829381e-02
-8.992624506785749927e-03
1.201443754911307726e-02
1.832757906617940233e-02
3.291235532531220503e-03
-1.059335370490763727e-02
2.143852545832596393e-02
-1.532833205310190489e-02
-2.390726170994915412e-02
2.430695095517533891e-02
-1.089707707810232476e-02
3.060646192576100232e-03
-3.811349595501480753e-02
2.157581548335348737e-02
-2.252623173900512518e-03
1.585418384131466116e-02
-6.580204164762063455e-03
-8.182528961976499437e-04
3.260853918157674558e-02
5.301210091044244316e-02
-9.640153286455599435e-02
2.435015628904734983e-02
1.311534277475166592e-03
-8.872508090192004343e-03
-5.781168495107820438e-02
1.338911000541193573e-02
2.260159171595751623e-02
-2.764141453631900960e-02
1.507233727333644364e-02
-2.660817425614282403e-02
-3.926220447528339270e-03
2.434829359875263083e-02
-3.225425050955794959e-02
-6.032438650120068233e-03
1.726836202838139683e-02
-8.419957539052311951e-03
6.616414860826072900e-03
8.498957743054284461e-03
-9.351386152450617828e-03
-2.521146089928538725e-02
-2.532994545955722689e-03
-2.019271629213559988e-02
1.951840277094565521e-02
-3.558083373061744770e-02
-1.381752978135301728e-02
6.339555784425750457e-04
-3.855383015034957034e-02
-1.039091778815520034e-02
6.991914826906810935e-04
-7.509903397769630840e-02
-2.077986519461090184e-02
4.159433338216793688e-03
3.548377951926243862e-02
2.256088568551640680e-02
3.152219102766313629e-03
2.279251320956357171e-02
4.476637650679794224e-03
1.030785372995642046e-02
-5.840761296332115833e-03
-2.164145087190881209e-02
-1.370043104985701685e-02
7.642573510113709681e-03
8.715984165461076669e-03
-9.711648016340911072e-03
3.405794143675703461e-02
-3.113010890386574969e-02
2.181002958195909364e-02
-2.127828728612450940e-02
-2.690831854440988921e-02
-8.112742512570603193e-02
-1.489895902216630159e-02
-7.266943885432750050e-02
1.203620964657311880e-02
1.354420251795569741e-02
2.446679413150282603e-02
9.886830600849575920e-03
6.488802214005413849e-02
-6.932149826599705647e-03
-1.074458458845281017e-01
1.443119097306416916e-02
2.644725272232886434e-02
7.041652775658958745e-03
-1.559122567481016457e-02
4.208379427526456884e-02
2.556555904576169810e-02
1.491774469328957173e-02
3.624306491214782100e-02
-8.082995451967685263e-02
3.913311478949806077e-02
-1.350954930506344069e-02
2.576337126670171992e-02
-7.185787166233664758e-03
1.140156083760724137e-01
3.455255529848683550e-03
1.158226957710701936e-02
1.569960642347414254e-02
1.102877485207160412e-02
-1.139529206179057223e-02
7.498154864650412397e-04
-4.260397844109480719e-02
3.191609864397241397e-02
1.056298422466917381e-01
-1.063108152411945673e-02
4.043887012282695176e-03
7.272779890629472131e-03
-3.280059453468793431e-03
-8.331806945771435104e-04
3.234180232778003511e-02
-4.392140400468953786e-04
4.954258710542998149e-03
-1.071284491850173909e-02
9.178105940779952843e-03
-1.131723260405808652e-02
-4.157851697500186683e-02
-2.411162127818249155e-03
-8.049762167490773224e-03
4.988403406700017001e-02
1.050341305042999836e-02
1.057342129291592193e-02
4.265056967865206959e-03
1.629567296769076495e-02
-4.529835773207443322e-02
-5.893027582609002175e-03
-1.681355177666588041e-02
1.262936113715332383e-02
-7.491817479906039828e-03
-1.291287192341124095e-02
-2.510913631773184496e-02
1.882273236256306465e-03
-1.092263092782988542e-03
5.094925306804287853e-03
-6.291668276016092187e-02
7.219178347463958353e-03
-1.492046379270662530e-03
-2.006302313994971775e-02
-3.839564024376242862e-02
-4.110454459625300511e-02
-2.123297298246733592e-02
-1.483009758159099106e-02
-2.575417312358158962e-04
-2.435664740064777123e-01
-2.939083187097412970e-03
6.037611425019444138e-03
-6.457886215179039005e-03
-1.228920480646128292e-02
6.583232711639244554e-03
2.616117242205384663e-02
2.039471704841420638e-02
3.622305691133678208e-03
5.272914771702347930e-03
5.639734246845882690e-03
4.161831233833804961e-02
-4.639152559686985679e-03
3.139199768882895009e-02
-7.725767547583758943e-02
6.925220249107467974e-02
9.209826529949478868e-02
6.569311857131782117e-02
-5.916061179428393386e-03
-1.227875259182642509e-02
-4.132947629136052054e-04
2.941543881294984147e-02
-1.426833737128785059e-03
-9.173081117571100021e-03
-2.258516895390407300e-02
-3.801367733987905118e-02
5.840742905357576564e-03
-2.206577860340335276e-02
-1.472540813658136140e-03
1.729957993667556506e-03
3.976034840907950035e-02
-2.199822058417460688e-03
-3.956204647836342354e-03
-3.781813463700064298e-02
5.030278029170097420e-02
-4.140412064992410324e-02
2.646582977928282811e-03
-2.197393994632404479e-02
7.527319249293287773e-02
2.409818735556670463e-02
1.700038103011508464e-03
-1.383038819152813785e-02
-3.268817345034890232e-03
-1.054156038274808513e-02
-1.388448403344305464e-02
-2.778918211279895467e-01
-1.122912296059121323e-01
9.486946869435602947e-03
1.956308190694722865e-02
-2.657793179523573052e-02
1.454987632428370904e-02
2.384536018832995874e-02
6.502532641540280378e-02
-8.382399589561101774e-03
-4.775740520340825135e-02
-5.164962699040392957e-02
2.915452559148456330e-02
-2.320763504110814196e-02
3.491695090100063043e-02
2.084797460115389231e-02
9.351926048158322805e-03
7.464619518891987132e-03
4.763254613033058443e-02
2.031654233868511114e-02
-5.931084244749156714e-02
-7.615801443785609991e-03
-1.079339934276782043e-01
-2.435325474954116651e-02
1.157359382519112384e-02
-3.631165640956358909e-02
8.068341806110428116e-03
6.284600456115405423e-03
4.045125196591325273e-02
1.734765801569081276e-05
-2.387869337674642864e-02
2.994653766038671630e-03
2.433754338032627709e-02
4.382920584278571230e-02
-2.366627771592436785e-02
5.396506695983988022e-02
7.556563051920409113e-02
-7.078875344373156174e-04
-3.108263012763407343e-02
1.087717227295967488e-02
-8.122851934123456481e-04
-9.008418804366696321e-04
-3.801605092647369379e-03
9.612058212487884640e-03
-4.160987139800375809e-03
1.108700341972142754e-02
6.637290876388021732e-02
1.761284416667381961e-02
-6.745983564886071614e-03
-2.071591960692372586e-02
-4.188360920473406523e-02
-3.354998855620943549e-02
-1.571390128620251889e-02
5.398795312767321226e-03
3.731583141546204740e-02
-9.711237994905865326e-03
4.288651964280801353e-04
4.037871413771502299e-02
-1.034586787500809194e-02
-3.538830013136408381e-03
1.111959492764831364e-03
3.335133771345359655e-02
-8.003328632682229181e-04
1.037311366366892341e-02
1.119005100609848750e-02
1.194910590575260119e-02
-1.095580182616256656e-02
-2.661725821817586754e-02
-4.197909967187957864e-03
-1.052768905526620634e-02
4.041721745296372216e-04
1.298569807534089883e-02
1.000201458178192823e-02
-2.542471587813311187e-02
2.814798507436050510e-03
-2.318892330890963069e-02
6.783371900164495089e-04
-1.303626515307055450e-02
2.490340684986513259e-02
1.834332648591334783e-02
1.806344000488917592e-03
-3.994114693260234633e-02
-1.325883074381581199e-02
-7.699107467681073728e-03
8.696002143706554888e-03
3.405456172029339840e-02
-2.406826513800021990e-03
1.323691650799204214e-02
-3.818087664273980830e-02
-1.869164861745691714e-02
-1.406006073869773762e-02
4.258028694694532441e-03
3.257532896644491083e-02
-8.843206442671797812e-03
-4.562736633647217210e-02
1.220306235662883994e-02
-1.818729472805363442e-02
1.079636430244746391e-02
6.150156892638532907e-03
-1.785836759097331498e-03
-2.318533395557579105e-03
-4.414958801596106930e-02
-5.619481153000849966e-02
-1.121918185976411922e-02
-9.112545168279785612e-03
-2.240391811038858032e-03
1.051046344384060256e-02
1.770419796382738387e-02
1.398774738944715684e-02
-4.224296329693036540e-03
1.680562928160613326e-02
4.150079646761935248e-02
8.579380903951432102e-03
-1.486374495332379135e-02
2.401413481411051112e-02
2.055019559124364112e-02
-3.851985944274594108e-04
1.236982628252514434e-02
4.194495933770198983e-04
-1.834627568912275061e-02
-2.700001655225121606e-03
-2.061271220237274535e-02
-1.266626922368153420e-02
-6.912002249387472902e-03
7.469759203070043714e-03
-9.356810085112925515e-03
-9.553239542402114370e-03
-2.659140219934619589e-02
2.721129594865138654e-02
-1.185636363920536916e-02
1.794899499142540295e-02
-1.877541510763591423e-02
4.876709635721422631e-02
2.098050043041463798e-03
4.423009682473796889e-02
-6.204514780224008180e-02
-3.499965893769299563e-02
-2.523628170318140108e-04
-2.190289282270838772e-02
4.067016136398481606e-03
-5.501769661831513308e-02
1.136231877557072473e-01
1.496350773426684266e-02
-1.700968453143245074e-02
1.271254135102389306e-02
4.848339476481283369e-03
-1.715713749362635099e-02
-1.077383515037232294e-02
1.941379025507703263e-02
1.849033766751446289e-02
-2.613691803350852438e-02
5.915299245442396173e-03
-8.880326920500366053e-03
-6.754574306647488646e-02
9.615997912605152298e-03
2.378268454882550773e-02
-2.487327689966736203e-03
-4.669985603266543078e-02
-1.441315856219549732e-02
7.925941853365810891e-03
-9.919285933365534942e-04
4.595434170384266742e-02
3.833728163130295519e-02
3.839727562247079000e-03
-2.985139691420825997e-02
-3.315790391159564171e-02
7.241382481003135526e-04
2.088959298881075399e-02
2.456259863466218191e-02
6.020593622196345612e-02
-4.690687168917505659e-03
1.475304066021848777e-03
-1.278259392201574161e-02
4.051446921583593680e-02
4.453406107878193909e-02
2.644978687145034188e-02
7.146321955821337280e-02
5.778336477518215310e-03
5.305188674267517779e-02
5.523655973275257841e-03
1.809273274592666791e-02
-2.135761611539454749e-02
4.335280903830940162e-03
-2.520504320073791230e-02
1.681687758579239814e-02
-2.678791302282848216e-02
4.091589114180459175e-02
-2.706821427995433418e-02
1.895389194126104529e-02
-9.806558361337631632e-03
-1.274956007793200986e-02
-8.576403951971673170e-03
-6.841814490668994553e-02
9.248531529366834161e-03
-8.797171009397976651e-03
6.283354556438709715e-02
3.478145868361697673e-02
-2.733796173933459098e-02
1.877674237256302461e-02
4.377586379651915438e-02
4.637388544593501472e-03
-4.887732229828769398e-03
2.879496542528843083e-03
9.515418012488733451e-03
3.055089407568456830e-02
-2.205575891852446652e-02
-2.394795463544150890e-03
3.861839023991259657e-03
-4.117789219845914561e-02
1.187247050883878385e-01
2.547221518548541119e-02
-1.294518074352541716e-02
-7.314753399360363062e-02
6.350069737348428001e-02
-5.964907468354378045e-02
5.914113816225482351e-02
-1.566068805241568884e-02
5.125350081621666415e-02
-1.853365521951142597e-02
-2.425438935428125831e-02
-5.448501219908003824e-03
-2.212627689469989431e-02
-2.127944017888128581e-03
3.566226912248635084e-02
3.969313187583486252e-02
-6.823129556310216469e-03
-1.140835730974419301e-02
-3.399966427870619590e-02
1.481401809881172137e-03
9.491830742624272552e-03
6.859409955873474463e-03
1.056846845857552231e-02
-6.370028537382364971e-03
-1.598172604145299824e-01
7.208462844906557811e-04
8.077030182825893981e-03
2.465367647539749244e-03
4.121108623323727765e-03
-7.292331900006126903e-03
-1.204787285548893430e-02
3.389516155434065762e-03
-3.936513456566966690e-02
-8.171022333163805579e-03
7.499035509570942115e-03
1.685088889051637381e-02
3.433111927740701078e-03
-1.829608609466659361e-02
4.210209954296479512e-02
3.068557126522634265e-02
2.774483632449333340e-02
5.567515619831843454e-02
5.810577916310231614e-03
3.617796879729420767e-02
2.600742113399987648e-02
7.604834116332058469e-02
7.312472147275014649e-03
2.434204475231921405e-02
2.285259331368608322e-03
-3.081234164805581478e-03
-9.173765388459783829e-03
1.646257334721933432e-02
-3.939306228089922007e-02
2.557932306752883425e-02
-4.441986897494898043e-03
4.876394483558262744e-02
2.761230443374721455e-01
3.500116562619624665e-03
1.976671678610211064e-02
1.215765888626470920e-02
-2.408529630018865081e-02
-4.757828116063365920e-02
4.531670620797739746e-02
-2.163683628708811153e-03
6.201091361634354995e-03
-3.923797444055019887e-03
2.260632843191973541e-03
-1.914767477150400646e-02
-3.225933791600017059e-02
2.191624119883514230e-02
9.036779243414498619e-03
7.665055072721038698e-02
1.684062140892692017e-01
4.920990544450343229e-02
1.905243856602888055e-03
2.442873917398998007e-02
7.900244927898882052e-02
3.988123691714193925e-02
1.073321355392114172e-02
2.999763864991103779e-06
2.610243915039841406e-02
2.603007765154815439e-02
-2.369891817525016445e-02
-1.958334082310721983e-03
-1.111968231668518207e-02
-1.418746928551716142e-02
3.099464620090048878e-03
4.583276137692837704e-02
2.004375878531476987e-02
-2.312445390373089882e-02
1.469018167427178778e-02
1.164368201473087346e-02
-3.652325807959626996e-02
5.941775905384010653e-02
1.691385942618077020e-03
1.760109154880052512e-02
2.013036019530777335e-02
5.062417408857300058e-03
-1.447616601433652887e-02
6.362745207762529782e-03
-1.493702871823300582e-02
2.037660306771829632e-02
2.745794973966172309e-02
-2.030418930298903690e-02
-8.510936846501889613e-03
2.756532054957900116e-02
1.608666760565905310e-02
5.038686580705484946e-02
2.752180954490362694e-02
3.781572976405499394e-03
-4.431384426434216948e-03
-8.048846662290293913e-03
5.183782211897159514e-02
3.728715067825087275e-05
2.530424385058906937e-03
-1.431691101038765589e-02
-1.252270659856763446e-02
5.123521835733796381e-02
1.187521456415006026e-02
1.779775874086209422e-02
3.102307014307895041e-03
3.158259901187302800e-03
1.304082860751738619e-02
3.692629005593470182e-02
1.788196273399211486e-02
2.861316934764551040e-02
1.469136809919937767e-03
-9.610218698722371481e-06
1.783831681138193202e-03
-1.448986028017733296e-02
-2.727522335333740222e-02
-4.194070489535427909e-02
-9.105810761768935030e-03
-3.988573627041277353e-02
3.788660015242334422e-02
5.412107047606174413e-03
-9.505293124897822715e-03
-4.184008477927872102e-03
-8.224847990215207461e-02
-4.831126718742077505e-04
-4.845793760755641444e-02
2.745595273637490685e-03
-3.115913491413159833e-02
2.484503760311630033e-02
2.384683988048049222e-02
1.878379540764608599e-02
3.501978261602698480e-03
1.072443250474223488e-02
1.618010956340719527e-03
-7.196776331915660102e-03
-6.652536011825897766e-02
4.119140494757298626e-02
3.000672986835289241e-02
2.184122944248575657e-02
1.522803987556484683e-02
-4.629324902110907441e-02
-1.729655683367398514e-02
-2.637147446342713239e-02
3.449085407958206451e-02
-5.659491546698080904e-03
2.919713574034415310e-02
1.364942630299362768e-02
-1.085583827711452537e-01
2.191611556143422540e-02
1.089861247087756460e-02
2.530542694516645357e-03
-1.180904125143626172e-02
2.859054969128867196e-03
1.416738594751879889e-02
-2.245982092714766259e-02
1.072955866071127924e-02
-1.587382931366975759e-03
1.391627489305648398e-02
1.267311074798888743e-02
7.962596082045339529e-02
1.117726528475846380e-02
-6.340148065076849603e-03
1.522841213954830714e-02
-1.030682434838745302e-03
1.240358817935235600e-02
4.701898284925314780e-02
-4.973978278211477200e-02
-2.398123563096859340e-02
4.927387139789333841e-03
-1.394713192304639429e-02
-6.553865198057511662e-04
3.568443065764273937e-03
-5.851454336249187638e-04
-1.197054512648107125e-02
3.453853352640934900e-03
2.105940027397076170e-02
-8.003709457677535277e-02
-2.733991033823076136e-02
8.819860696970882596e-03
-2.154482631093915593e-02
-2.721905886191195996e-04
-7.800206467897272643e-03
-1.078494883437976920e-02
-2.824621476138513762e-02
-2.207453363254037806e-02
1.427761698644428555e-02
-4.647546975161013366e-02
3.504809310479068546e-02
-7.826688769201287088e-02
-8.790849353667710975e-02
-1.647705499964722403e-02
-4.181267135440899091e-02
4.586921388711957120e-02
-7.294414168959509510e-03
-7.998236877457853486e-03
2.938513102640381673e-03
-3.763438541352984862e-02
1.638017011607463894e-02
6.410589641117752160e-03
-3.197490064990454045e-02
8.855803490039200476e-02
4.726175560360920680e-02
3.513851840164546741e-02
-6.319640249000822198e-03
-1.274986683225378704e-03
-1.095741339344597498e-01
-5.553110072802843605e-03
-9.386282238814643020e-02
-6.149663042876328881e-03
-5.660509049265145115e-03
3.089700573036294889e-02
1.098008777525990133e-03
3.471147340964794541e-03
-5.720956833630611721e-03
1.117353236399121347e-01
1.051351387004371973e-03
-1.931721790113326287e-02
4.545556799449086693e-02
1.636195262568658146e-02
1.131848162032249999e-03
5.254920415558461504e-03
1.134987622652792495e-02
1.506878682378310318e-02
1.733848038927627080e-02
-1.074586593654937999e-02
-2.792913796765215256e-02
2.571563335824008506e-02
-5.589159753412521053e-02
-2.053183769312606072e-02
-2.703541595396768624e-03
-4.479162913732707280e-02
7.639425031731765688e-03
6.421058339376776135e-03
-9.154776731969993531e-02
-9.270571435595507601e-03
-3.569879432807854854e-03
2.570321313483217227e-02
-2.500545932505120281e-03
2.999495645138722634e-04
-1.039412159132574454e-02
-4.046350726107422052e-02
-2.604480206533406686e-02
-1.515901846225701545e-02
-5.356632732072030834e-02
1.951913075892576510e-03
4.551599879010946419e-03
-3.209834507209254062e-02
-7.072418862853138699e-02
-2.444208576847366893e-02
-1.425328270240137397e-02
-9.579930564476270283e-02
-1.613071859936048361e-02
5.947784603704808597e-03
-3.252603036075048248e-02
7.092274544833791772e-02
-2.227392689063839235e-02
9.661881015859465635e-04
6.698655166403066907e-02
9.255009495238377890e-03
-4.343333479532323071e-01
-1.207652440240200228e-02
4.509248618364812902e-03
-7.112051485151821284e-02
5.805853324909281479e-03
-2.231308372511368182e-02
4.492092447703194963e-02
4.729436056290746426e-03
-2.211168725616893468e-02
-3.024930390607243058e-02
-1.486087217851997551e-02
-5.482705047863826661e-03
-9.471501103537132218e-03
1.208553170042645820e-02
3.982861792541262519e-03
-2.947662790422258400e-02
-5.322069199930317546e-03
3.443599085625861748e-03
1.439272286322046956e-01
-5.082852117778832376e-03
1.169837137697668852e-02
3.763683676116329896e-03
5.300841168886456789e-02
-1.110296916887141064e-02
2.145412996486030597e-03
-4.169139459391725706e-03
-7.224510127825183037e-02
-9.333287257640401208e-03
-4.559261309431898029e-02
-1.438919612655794877e-01
2.053645929354589589e-03
2.057506664256873643e-03
1.128710531212919355e-04
-9.812526235457280643e-03
-6.124786394665564238e-03
-9.212612989191572635e-03
-9.146013686383094865e-02
-1.969364204172687274e-02
-2.913303784944117417e-02
-5.584378154315911696e-03
-1.024951886486431124e-02
-3.271535129526563414e-03
5.983177758948882152e-02
-1.414968753383952574e-02
2.438678861209592902e-02
-4.877889518838910039e-03
1.650793576946898988e-02
-3.536946788420360695e-03
4.005035256406782630e-03
-4.232139785572500840e-02
-8.374632215823100620e-03
-2.729970753409404621e-02
-1.181013306501591323e-02
1.286125531549124536e-03
-4.523405409050387793e-02
9.036222687826844097e-03
-4.402665353260267443e-03
-1.708194180576244614e-02
8.121010605652888639e-03
2.689119145921796579e-03
1.365892957073362897e-02
-2.715666594439246004e-02
2.672471032621836703e-02
-2.118334981716556153e-02
-4.194080546120702684e-03
-2.520354766126553861e-02
-1.718956007572180339e-02
8.494701940309755742e-03
-7.055678475479589852e-03
1.743779470767788803e-02
1.178192863039648382e-02
1.001991200278333884e-03
-1.196120383478034739e-02
-7.408448028880690144e-03
3.862306557706023970e-03
-9.218825764503878542e-03
1.042262311545033007e-03
-7.568632621105431460e-03
6.128170552513075020e-02
9.011444046321903309e-03
4.086838788971241501e-04
9.073653900620601634e-03
3.275436119866402453e-03
7.673313731956951829e-03
3.131637755200884082e-02
1.855365463141233837e-02
-4.074406161952570313e-03
-2.272702942776645035e-04
9.858091414374938258e-03
-2.669401455946487228e-02
1.330706651050411922e-02
2.846574664083170118e-03
3.767557896054348626e-02
-1.683205469672144350e-02
9.778426677744058576e-03
-6.232825939154629062e-03
-6.513589258537684501e-02
-1.019592673331436300e-01
1.790276758989547967e-02
-4.836771169586514228e-03
7.601130137548822371e-03
-1.456508111299236775e-02
-9.825147078696118419e-03
-1.435820847081513071e-02
-4.668456289011400223e-02
-1.062345081095494382e-03
-1.528241139044913058e-02
3.690530512211542737e-03
-4.342907174207722050e-03
-6.016466339760464382e-03
-1.223211917951252427e-02
1.547095329652851438e-02
6.482349186289627918e-02
1.356885694998864918e-02
6.412783421335133127e-02
-8.309660532630060159e-02
-9.534225708316865569e-03
-3.084239303890553771e-02
1.336796912820806954e-02
-1.648904739766191355e-02
3.208957037843756469e-03
-2.373496543624049882e-02
8.192323821428449185e-03
-2.823847588624420896e-02
8.278667054837728079e-03
-1.964727812632267780e-03
2.734032358125653914e-02
6.263861898893671861e-04
-6.950503755619491693e-03
3.321039358293846871e-03
-7.972156869848662925e-03
3.801650548891948988e-03
-1.386827149660808250e-02
-1.688256850388428210e-02
1.218092123224082113e-02
-1.376277924158292310e-02
-2.677261404447443469e-02
2.619913970848535435e-03
1.360012305947245039e-03
-5.746361581482449174e-03
-4.578105288542948237e-02
-4.371903988798950605e-03
3.141327169831029196e-03
1.196740362344577216e-02
2.948181265975899010e-02
-7.912224916254427184e-03
3.864415572625583186e-03
2.220227200106237794e-02
-2.209688116110890277e-02
-1.193536473283911443e-02
-1.546953657156033800e-03
5.797586317907922615e-03
4.079352343140545123e-02
-3.249952694669066156e-03
8.851463910278177874e-03
-5.166274497879246030e-02
-9.427994063316531143e-03
7.649436221718090845e-03
-3.807956184427102597e-02
2.496216508815191082e-02
-1.625415538808097160e-03
3.578915596220670712e-03
-2.444434851163187691e-02
-1.775355169855270462e-02
-6.587882176318467231e-02
-2.503405661593844853e-02
-8.187799538412918188e-02
7.670778000154455933e-03
-4.131790312586995639e-02
-7.139363704074103145e-02
-1.846039568779096751e-02
3.558316923965052642e-02
3.974229573821297379e-02
5.204444760032883761e-03
1.291383566206966843e-02
1.812299485638273156e-03
5.721729971239391394e-02
3.283009377994448169e-02
-1.325608208269882585e-02
6.493661820743443225e-02
-1.256601228824274774e-01
-2.093215109074903629e-02
1.032752885170656471e-01
2.960806661859542721e-03
-3.544880663242597381e-03
1.545483766268902423e-02
-1.393978055158625294e-02
-6.542572069798449630e-02
-7.023772085067540860e-02
4.047880129629787167e-03
2.267547467148766857e-02
-5.930364479429484775e-02
7.838903330520610724e-02
-6.177174326655733398e-03
-1.027478482854904743e-02
-1.937044449926773534e-02
-9.667488768822634368e-04
5.516385606697975230e-03
1.822400868132632737e-04
-4.861561304362882474e-02
-1.570941943450953476e-02
-2.460900004656618387e-02
-1.051295855378355099e-01
9.940151145931068466e-02
-1.351652835217959960e-02
3.979172294896804463e-03
-2.281830633982003670e-02
-9.226103439169693055e-03
-6.718593688640493722e-02
-4.381597357727647947e-03
6.477564087921570089e-03
-1.054029083960699928e-02
-1.156688341910335101e-02
-4.320788350759438741e-03
4.699336277405685020e-02
-9.090333221475293754e-03
-2.490114117025308150e-03
-8.713573869909106706e-02
-6.665735956617521198e-03
-1.810041993932899260e-02
-1.549830825007353190e-02
1.119482592057943413e-02
5.039186801530363101e-03
6.223436701147876116e-02
-1.853527040242413521e-02
-3.084732812129652516e-02
-4.532547551564246324e-02
-1.535001119675818331e-03
2.197290544636816556e-02
2.845197676485406238e-02
2.213303205423168205e-02
4.850905534903754077e-03
-1.926446906510461592e-03
4.719258417306300239e-03
1.199338218098997162e-02
-7.379125769296850101e-02
-3.806956484310790589e-01
-1.528561611890359717e-01
-3.133992964200874032e-02
-2.950303329997003982e-02
1.637357186234171882e-02
1.205159568981952834e-03
-2.854397001656289526e-02
-3.453945482004884548e-02
-2.633005038884363852e-02
-6.786250383748994135e-03
-8.637053744799460392e-03
-1.391471941889381100e-02
2.815455124577639998e-03
5.062914967698932227e-03
-1.015868722008374248e-02
9.528725811874515575e-03
2.705351786561487407e-02
2.484566002163921070e-03
1.748765185528883964e-02
-6.451377563221697038e-03
-2.317125927039273905e-02
1.483060090283244183e-02
4.975548427053424518e-03
-6.986598897179284971e-03
-3.598906661985963595e-02
-2.047574378579992971e-02
9.699193082289421855e-03
-3.366604859860469756e-02
1.005781962963245985e-02
-4.321567161117413798e-03
1.082523908725024353e-01
-1.663752378397964637e-02
6.879704269810932651e-03
1.544289658273391777e-02
1.111831812532395464e-02
-2.896316280951936536e-02
2.527503409342450602e-02
2.629399513010831010e-02
4.840685267197083336e-02
5.293931423906827159e-03
-4.000893015488803800e-02
-2.535803994641779024e-02
-5.186682991613995528e-03
3.783513260648092152e-02
1.908035600492529599e-02
-6.117803375066848542e-02
2.365546315692987692e-02
3.764078423054764699e-02
6.616204322886534706e-02
-6.572231518118341193e-03
1.233935467219553390e-02
-3.100880040270767232e-02
1.308449820380826883e-02
-6.411148445242105531e-02
-1.788037663726522661e-02
2.174888690274127956e-02
1.994795943579313058e-01
4.764430702791756095e-02
6.875334881844576834e-03
1.056915938681582817e-01
-2.058762449206458234e-02
-1.612441094244662252e-03
-1.850716887365827816e-03
4.769642924938676670e-02
-1.119148991907666264e-02
-2.169557624101034823e-02
-2.012783143581476850e-02
1.639698816905175646e-02
1.749068698400555594e-02
2.523422407367285902e-02
1.888179346509389137e-03
2.328201053906060834e-03
1.265266627282659456e-02
7.290938853544679660e-03
6.384604035433024023e-03
3.653917367099672941e-04
6.473466220427282966e-03
1.819779622245179876e-02
-1.808084419205046450e-02
1.371389876519225060e-01
-4.672938050893170499e-03
4.173272356038848149e-03
1.118195237755751359e-01
-2.953880762323491185e-02
-4.616103512348298697e-05
-3.415215858609505634e-02
5.399963028543396798e-02
-1.349097156290012672e-02
9.242209277547925109e-03
-4.673772490477816344e-02
2.252271637271987051e-02
7.181162566141206793e-02
3.463168879159855135e-03
1.807117918344312152e-02
5.799518104675284967e-03
5.106089470275626541e-02
-1.673948648708807885e-01
1.217382406425372363e-02
5.018329728024048357e-03
-4.928419718705088354e-03
-1.794859267093467520e-02
-4.280135510702946094e-02
7.925423441809693881e-03
-2.025835123436501781e-02
-1.795266659759532299e-02
1.522773595000666801e-02
-4.702424241514038122e-03
2.217327895214665778e-02
-1.271434715156242144e-02
2.076064393094138524e-02
1.435905930287705663e-04
-3.912742643939171386e-03
5.798264522458843051e-02
-2.250853293114151582e-03
4.320434417938718089e-03
1.225912402936956379e-02
-1.345138390566477313e-02
-8.104515865739590113e-04
9.946324565289635725e-04
-2.383397911751086295e-03
2.192550143168035814e-02
1.053013152757868850e-03
-4.381504139785631462e-03
6.284004518823166352e-02
5.344205265900767859e-03
-9.780499997788192137e-03
-3.855054798854339049e-02
-2.319172782940551788e-03
-3.030619673726506549e-02
8.791338604207200869e-03
-2.460812005940691757e-02
1.513003223629277860e-02
-2.758545086439939675e-02
4.174184802621672824e-02
-7.706743517146753646e-03
-1.509792921577401276e-02
1.117651308728450895e-03
4.084721745171566304e-02
-2.587542784566900997e-02
-7.681325061955177232e-03
-2.027334764354991187e-03
3.237835118057404843e-02
2.042403281462244063e-02
4.236977478392459084e-02
-2.406615302658689746e-03
2.384454856107437806e-03
-1.265947827975622272e-06
8.852869009582741908e-03
-9.809586914476507019e-03
-9.411604727886400739e-04
-8.146914019204617996e-02
9.836793514511424363e-02
1.794913906193638595e-02
7.265707645748295702e-03
-2.690242301019745153e-01
-3.749722350558383488e-02
-9.218549778480720353e-03
2.387678534784148932e-02
1.966836418020309965e-02
3.698106440383548688e-02
-2.185690484133264583e-02
2.995453765717504338e-02
-3.102580723868197596e-02
5.947215248291126861e-03
3.093157852683707520e-02
1.838221069307731381e-02
6.036038137570688862e-03
2.408716039953579489e-03
1.076471136508200671e-01
2.684404531838474606e-02
7.641098762346172114e-03
-5.382836594088682113e-03
-6.341103568147943292e-02
-2.517556333795387472e-02
-1.971526566803405347e-03
-1.810597667444576592e-02
8.865138569944192373e-03
-3.433493947777398192e-02
-1.389898043148757832e-02
-6.361033295231072540e-03
1.372399978191340963e-02
-2.021141482154191482e-02
3.178569267400829790e-02
-7.535780681326082094e-03
2.992134173575528369e-02
-6.479985786014271854e-04
-1.431178509923450824e-02
-1.916555746948152630e-02
2.071280485441460636e-02
2.408202050096617738e-02
-2.097086638984016482e-02
-1.146847212548597339e-01
-2.022051039312620230e-02
-1.741832592348574113e-02
1.162978587036770685e-02
-2.974393180871705289e-02
-7.886013959959423461e-03
3.372789432439955715e-02
-2.220063010337216050e-02
2.059205439161233137e-02
-8.524999516284173517e-02
3.374874601065584040e-02
5.697266760542392394e-02
1.806370772987665393e-02
4.530000471745119703e-03
-2.798752388649392020e-02
4.705625203169054582e-02
1.571330695548449688e-02
2.881563250232839490e-02
-6.410132348603526063e-03
3.901987209375208567e-03
3.153758971431670499e-01
2.527058471995848321e-01
-4.180726172389668399e-02
3.811581892899376916e-03
3.070870531089364350e-02
-9.796531271925774248e-03
-1.025133733106795356e-02
7.187040505521787026e-02
6.169394757521899295e-03
5.073763250960962312e-02
1.039217421021279043e-02
1.476350769051991071e-02
-8.827855719696905273e-03
-3.252119941288289517e-02
1.570518377643383839e-02
1.777557312385990296e-01
3.059146024302248495e-02
1.159400327184391226e-02
-3.820254848610819126e-02
-5.695769904367251925e-03
-1.517317363695472043e-01
1.084180345958427397e-03
2.582837931571147633e-02
-4.091555120841166432e-02
6.708749099861649294e-03
-3.830763986824232969e-02
1.674974339708699966e-02
3.690030143187999177e-03
3.554018724028017162e-02
-1.566525152327815978e-03
1.922346968403539774e-02
6.708155756344845629e-03
1.557198433883827740e-02
1.092600788296759808e-02
3.248272699571046022e-03
1.293868746274776937e-01
1.775889803967327374e-02
5.576128632605900463e-03
1.395178717289760270e-02
4.437830899941752616e-02
1.186627758646357101e-03
-1.778842188865359733e-02
-2.125351613299640910e-02
2.350646160080845093e-02
8.599378398245819538e-03
1.025437813261138170e-02
2.896458736448961555e-02
-5.486300355999317209e-03
1.096860007704378651e-02
2.466880360573228681e-02
-1.055314952865646708e-02
4.105015766390207425e-03
2.948944049811010396e-02
7.659112133781374905e-03
5.621215583073897043e-02
1.343459656042205429e-02
-1.328941648881284271e-02
-5.433359974283673288e-03
-2.944044722507443979e-02
-5.621147389473606093e-02
-9.503225905020618036e-03
1.889971349628966762e-02
2.078268352174579905e-02
-4.005855480405634252e-05
1.925595839579980839e-03
6.188240140962095528e-03
4.586721914011568021e-03
-1.767998424551444486e-02
2.195678566130721335e-02
1.641018864074103925e-02
-1.705360224245161885e-02
2.152331167039897297e-01
1.576205609657857498e-02
-6.417978339584101688e-03
9.428216965378564095e-04
7.352419535953499258e-03
3.633511277574207055e-02
2.995535195102710241e-02
1.766262293857073090e-02
6.422552493493950340e-03
-3.175521464993638632e-02
4.218088817563676526e-03
4.511247842341770814e-02
-2.144039461854206630e-02
-4.393036769792269328e-03
-6.840464016105442593e-03
-4.264006334263326092e-02
2.430684267343581097e-03
-3.510322771370410350e-02
1.124380175192383341e-02
2.757284339245486340e-03
5.082504009297020460e-03
9.129308912539626369e-03
1.190238483572147966e-03
-3.345304736941270840e-02
3.766773854921329212e-03
-1.265608313571484241e-02
1.909301223748739382e-02
4.049281392478351616e-02
9.743583306985459727e-03
1.058667410985860390e-02
1.843164787051308762e-02
8.105533966676717675e-03
-1.108702767129818474e-02
-4.109932349228462289e-03
3.821282812619331004e-02
6.279007614368945986e-03
8.873608796001405258e-03
8.282829480412597090e-04
3.692734211229754121e-02
5.944943470740592789e-02
4.352058018398183813e-03
-5.911410624919827966e-02
-1.123120176546456295e-02
2.574844982432325340e-03
5.232169573565665505e-03
-1.162628763390286674e-02
1.378970596988330147e-02
-2.255156590076192943e-02
2.320955038300940090e-02
-2.146476331018562153e-02
2.335186783253397416e-02
-2.926536655550429980e-02
-2.810825874492718125e-03
9.334832506194795654e-03
-8.097827280547664763e-02
-7.921451841191976678e-03
1.050704917206409308e-02
6.424150485878527515e-03
-2.907774566453651685e-04
5.352133395348002143e-01
1.098480741754463003e-02
-6.617963505700432195e-03
-3.136431194834665009e-02
7.899640518447473628e-03
-2.851759574638345132e-02
-2.254841913564229090e-03
2.038805867665347861e-03
-3.854474256116813963e-02
-1.840033730240177605e-03
-2.691287799083799323e-02
-2.624371602181819682e-02
2.103272358150126524e-03
-1.188560983840224738e-01
-4.481378801639622142e-03
-1.471323675485222519e-02
-1.570833310507783673e-02
3.009238200895865065e-03
-2.050134110352818534e-02
4.895468488132411269e-03
1.073668973521976766e-02
1.753925022635966641e-02
2.338106656548308293e-02
-4.003194441315365004e-02
1.162793435076683174e-02
-6.312875448045963955e-02
-1.388031933980022822e-02
-3.928541160539671118e-02
-1.929563208065519439e-02
9.936430637233555421e-03
1.609376712148173974e-02
5.405325111372450558e-02
-6.955475120765951084e-03
7.808670090190988119e-04
-4.643053921937919520e-02
2.731540545007611273e-02
-1.324640179583601871e-03
3.342554563392730049e-02
2.167112627721503454e-02
1.479597006322288556e-02
3.971321261852249485e-02
-3.835776856454684025e-02
-8.394175598612903244e-02
6.713504998829532278e-02
1.056714368381178257e-02
1.379264248272503088e-02
-5.549565361247683903e-02
4.371011621065809538e-02
4.580570560777017658e-02
-5.694899521196960385e-03
-4.014170657368405087e-02
1.451600136047519196e-02
1.629396920906938523e-02
1.495202072507494095e-02
3.024113337761228162e-02
-3.648435035805057489e-03
-2.685805370557991286e-03
-1.962008961402724946e-02
-9.607680533359917383e-03
2.163931117589531876e-03
8.586632292804097233e-03
1.419529021240031018e-02
3.403141088878390563e-02
-1.615651629412001924e-02
1.092499212456496116e-01
2.616819931488195434e-03
2.047872311665490871e-02
6.837494973173722547e-03
-2.879576353997938612e-02
1.804496697569727554e-02
1.544133694830768927e-02
-1.752974832581118483e-02
-1.695449883195728619e-02
-2.294255596458852613e-03
3.088074893841990121e-03
-2.229021542634021524e-02
7.975479173222214946e-02
-1.612920071017095655e-02
2.607112075222561484e-02
7.509323095027923070e-03
1.791560251136178894e-02
6.812841610470877877e-03
-5.120975253129370595e-03
2.442350033272944199e-02
1.090843542258836119e-02
6.629098977939239246e-02
-5.686574359174805145e-03
-5.830151809239931572e-03
6.235806931763204775e-02
1.191681854820858880e-02
5.197103257651301822e-02
-4.214587598019467474e-01
-8.681210420630769420e-02
2.061409077965626734e-03
-7.027200749969374216e-02
1.695398739128114660e-02
-2.258254538170265460e-02
2.110542321474755123e-02
1.660432170853201606e-02
1.525674650387112696e-02
-3.440401313276165041e-03
-1.098171936651675396e-01
1.482341874868117401e-02
-1.997516924699376667e-02
-8.451537570872133531e-02
-8.083795422200699271e-03
1.886258661758392213e-02
-2.251601065662036869e-02
9.271712616636977253e-04
-2.133906095440885747e-03
5.601638786523677888e-02
6.381139681410230580e-02
1.022988586661078073e-02
7.206127890718581896e-02
-1.852027402529450324e-03
5.861540172252431569e-02
1.297596336295281198e-02
-1.832702009538903637e-02
-1.192279514619627723e-02
8.457558236975186439e-03
-1.249745928080197958e-02
1.462613519385177682e-02
2.868678004283349292e-01
-8.927713588788944998e-02
-7.705786527283854659e-03
2.092269405585021197e-03
-1.283822445215539697e-02
1.102580787738385078e-03
-8.536510359107109258e-03
-1.468669947816256954e-02
7.119126834556346699e-03
1.411441887196666217e-02
1.994570689419134998e-02
-2.038158927348354688e-02
7.808591574141550418e-03
-2.737196718570442805e-02
5.535086095378414194e-03
1.688650397945180293e-01
1.305839000450680250e-02
1.270941114474189761e-02
3.294350401627312713e-02
3.157906301062977927e-02
-3.833719488774041395e-03
-1.277015005932774158e-02
-5.579936351002455497e-02
2.523258959742704591e-03
-3.363582956171331725e-03
4.227238662425637783e-02
-1.556880405792055756e-02
-1.867831781626514906e-02
1.106785169198330754e-02
4.732184630074470766e-02
1.165948257052955642e-02
-3.012482029968974184e-02
2.038659515122087304e-02
-8.557984923943152966e-02
4.046039263614389370e-01
-2.346965339272482839e-02
1.417554197364739310e-01
1.114049877464440112e-02
-3.097963290031194999e-02
-1.248515663018630664e-02
3.894917761704152354e-02
2.036078952347174231e-02
-1.183632754859964380e-02
-2.916473948196330636e-04
8.123542879671269076e-03
1.123469851393439460e-02
1.524618704981452709e-02
1.117244286770742966e-02
-3.168965950111032968e-03
7.748199814385175500e-03
-9.911317220993431237e-04
-4.618804970052731856e-02
-3.600301893219282762e-02
5.664325868982999362e-02
1.721015923006009862e-02
5.268617311483658056e-03
2.216931681581154126e-02
1.310971599077869788e-02
4.337339517377650916e-02
-6.829028670434059145e-02
7.734478800226879044e-03
-1.583352633919513086e-02
4.020608079144273594e-02
-8.060392841395194741e-02
-4.621252936994045546e-02
-1.806095788897148224e-02
-1.514737047379456582e-04
-4.646388678353928492e-02
1.879321027673324859e-02
-1.328053156820052823e-02
-9.122482017145889860e-04
-7.040120776961137326e-03
4.102411819830713118e-03
2.094712133491226033e-04
2.991550887723012225e-02
-2.560387588192502423e-02
1.474085925688610813e-02
-3.443358027690370492e-03
1.165741160922752727e-02
-1.006167203685126577e-01
5.655779187070615610e-02
-8.406202467212473342e-03
-2.891090803498328268e-02
-6.768586555296866696e-03
1.043256232944969608e-02
8.170183577387914522e-03
2.248900736346758078e-02
-2.328064179947837362e-02
-3.394418122599330429e-02
1.364023244702428778e-02
-3.957329660687279073e-03
7.373879378606103784e-03
-1.402205700037806486e-02
7.155422845983022695e-02
-4.950790782644503424e-02
-1.308560968638216443e-02
-1.740485226908002059e-02
-3.353245112381057942e-03
-1.599592309350989644e-02
-1.384305251687559420e-02
-2.928116810888226930e-03
-1.416929583682893963e-02
-2.392980300791470658e-02
-3.699133575468093599e-02
-1.746743660006214865e-02
-3.062228180205064931e-02
-2.831212537811805124e-02
1.491187286100740042e-02
-1.870850562210929491e-02
-7.110046573017272942e-02
1.017151515220480508e-02
-9.460255343275202414e-03
-3.989065132672541675e-02
1.156256702572604905e-02
7.100524960352584680e-02
-9.371881939206301582e-03
2.560676576704233598e-02
-3.949245444088332613e-03
1.632120612392472525e-01
1.339931367299788088e-02
-2.137911956849575419e-03
1.373342065029194980e-01
1.009640675589105509e-03
-1.516621025328116130e-04
3.275151948856115658e-02
2.286233879716349435e-02
4.005606135298871162e-03
6.725209259215679525e-03
3.475430382166843149e-03
4.905086648013988471e-02
2.311185695056261480e-02
2.105114542126130389e-02
1.886707319142822206e-02
-9.436418153339802897e-03
-1.078308990084470356e-02
-2.514192369128390170e-02
3.918997877823794662e-02
4.991848648876058558e-02
5.490968541042568624e-02
-8.839462505904378473e-03
-3.813485524918029668e-02
6.204000672104469094e-02
-4.751727817584110863e-02
4.723693812582239505e-03
-3.446874183869055863e-02
-2.501114053794363176e-02
-2.259199094283530912e-02
9.090821073373727898e-03
1.050109794229722206e-02
-2.654720510922466831e-02
1.194548603831331601e-02
-6.332017689481135927e-03
-1.100944072696294351e-02
8.239097796232349932e-03
-4.953256905360338413e-02
-1.265440690730921906e-02
-1.478187321875217876e-02
-1.741449855504454969e-01
-4.454344656173033282e-03
6.937115723580809801e-02
-7.980657927387346112e-03
5.093938583925713449e-03
1.518332000207168186e-01
1.045727220832860793e-01
1.549483827711050331e-02
6.213550592443749937e-02
2.178747144610436882e-03
1.178459704151052544e-03
8.628845184408914792e-03
-5.440433478939952529e-03
-1.091739105422796091e-02
-9.015246947171810799e-03
-3.703657717757750933e-02
1.748360846191594070e-02
-5.065652512988257083e-02
1.129849288439837771e-02
-1.409014815458466997e-02
5.061943018715745618e-02
-5.171284491101314773e-02
-3.399716205189310964e-03
7.072974888216509992e-03
5.415244338032913773e-03
-2.081165860301090534e-02
4.320881534252819095e-02
2.804392671239498008e-02
-1.804641139120915019e-02
1.771615658287947412e-02
-5.947086066351964934e-02
-1.834557000103990282e-02
-9.548615662113010133e-03
-1.112021140038994133e-02
2.286275360338764842e-02
-1.518572174831338273e-02
7.408731221372776878e-04
3.175088288566660366e-02
-4.103765077435056474e-02
1.511453527007307687e-02
-2.774371407868419376e-02
9.097589040849129310e-03
-1.650116749031715208e-02
-7.159446737475240463e-03
-2.897160147516451498e-02
6.985288898088211525e-03
-8.290022401242395185e-04
3.383459071950538355e-02
4.279669151817017125e-02
-1.117374494075515368e-02
8.321080328464751374e-02
-2.510290730058720512e-02
-1.856730000643860845e-02
-5.065152387904460138e-03
1.305998182663547754e-03
1.427303386042088479e-02
-5.590155501377994975e-03
-3.000506015886246210e-04
-3.489352963487608872e-02
7.186630920723789152e-03
-8.126490312065975594e-03
3.908864808363002319e-02
7.249612219989340876e-03
-2.360212005069434876e-03
-1.330205746463966610e-02
5.171414657245094332e-03
1.344227995425599162e-02
1.404931094333189802e-03
-1.578289856607912808e-02
-1.087579057083362666e-02
-6.911311554423947567e-03
-1.912137807663089051e-02
-1.021734654874546511e-01
1.887076104090971203e-03
1.955927908426237025e-02
-1.809123519755138562e-02
-1.256357244654301639e-03
3.499874094546781556e-02
-1.568893725230688374e-02
3.889696287769423000e-02
-1.011536369171349035e-04
-1.270504522521512941e-02
1.925108264985605968e-03
-1.553735663350718638e-02
1.626936977517432978e-02
-1.337273602930112194e-02
1.645602445846568868e-02
4.049239907650890175e-02
4.258057003201507406e-04
-1.171665362581335995e-02
-1.718654561150011195e-02
-4.338018532883541889e-03
4.474978547900026332e-02
-1.278218415872094289e-02
1.860618038685934311e-02
1.751102986270995296e-02
-1.676921272884032144e-01
-7.773045342008933455e-03
8.625312418311506524e-03
-2.602387913342622816e-02
-1.146992099392304953e-02
-6.296268219557089353e-03
-1.959415586800701548e-02
-7.628948278699566876e-03
-1.093614689609726486e-02
2.302501884781131894e-02
2.951427321259637773e-03
-1.297628021362820690e-02
-1.981806830427825308e-02
-8.438942291705100671e-03
5.459469571516441591e-03
-6.386480456118585544e-03
8.218978186490987631e-03
-1.428419082692954480e-03
5.787328204988431007e-02
-2.115562293080735113e-03
-8.452812020106983959e-02
-4.146815585502520302e-02
6.499072913277280893e-03
-3.299857758816605174e-02
-9.669316652224131323e-03
9.715624483617143689e-03
-1.062008401591491881e-02
-9.109043549694825076e-03
1.190161786967739062e-02
2.736554474084976554e-02
-1.163570183525971602e-03
1.719282464203483306e-03
-5.374484079042885637e-03
1.562735021098936306e-02
-1.937902953035514075e-02
-1.621963323992763745e-03
1.906640605312558134e-02
4.328679480786672834e-02
1.795187810560581673e-02
6.639300490648824410e-03
-3.988979530985996974e-02
1.947283297769046226e-02
-2.079231590548681619e-02
1.611716273883385606e-02
-1.827356671287362969e-02
1.783642980112439685e-02
6.725002730387684424e-02
-4.180248801735950148e-02
-1.469754081843244187e-02
-9.157637244052597991e-02
-2.075063530341350517e-03
1.673069354820134677e-02
-3.444331106024646656e-03
-2.345206688414735313e-02
-1.930590733078245760e-02
-6.014609628349860612e-03
-3.341898333113695312e-03
-5.554088264762916012e-03
-1.338331079846907280e-02
-1.818086979742654374e-02
1.553198896755947182e-02
-5.911783802346921163e-02
-1.362816109055458962e-02
-6.448046066208192040e-02
-8.087148988289351997e-04
1.274596246354650353e-01
-7.183061028217604818e-04
2.651997801827800719e-02
-1.083278124910807758e-02
6.215936384402756532e-02
2.673217517614663932e-02
2.687642642729192594e-02
-4.696938377869167708e-03
1.264056235837025810e-02
1.003029124316680287e-01
-1.411413112155806941e-02
2.321996604246332439e-03
6.288454121403176320e-03
-6.154046722328732240e-03
7.711552442556640630e-03
-4.628998091512321472e-02
1.070913764465782243e-02
1.184798446777779804e-02
3.017476862786066388e-02
3.420121379960209401e-02
1.172483299180969857e-01
3.824948750361145504e-03
3.847413688250252151e-02
-3.334029861820521703e-03
2.229387698177146340e-02
1.901438489741796856e-02
-1.679879621776698626e-02
-2.340511022536891604e-03
2.675356763065114829e-02
2.033397710629704716e-02
1.976471973625377673e-02
-1.167443330374773672e-02
-7.152883009799989450e-03
2.023264180142561250e-02
-3.330671825762787641e-02
-3.216190029217169330e-03
1.490134592401687330e-02
7.820391148598422951e-03
1.453089519310510162e-02
5.503629520917152629e-03
-2.460032946449619215e-02
3.119418562204727408e-02
3.515574996139595593e-02
2.667988479518512354e-02
-1.705198966331424384e-02
3.104379059053445356e-01
-3.540368782412040005e-02
-6.079759787932812604e-02
-1.451203267962235081e-02
-3.812960121259786200e-02
-2.874933498974209176e-02
4.152316317688535714e-03
6.075616807774174982e-02
2.103229813361493644e-02
2.288312613522672234e-01
-3.611117575152692459e-03
1.044374163153714667e-02
1.629262621747115322e-02
9.265879026075884810e-04
-3.106032584434102349e-04
1.271273212668303301e-02
-7.023147633337897822e-02
-4.621315215726371959e-04
6.983137520262810852e-04
-1.556885377512151614e-02
1.301721034131019250e-01
7.651658743696609921e-03
-1.560789084758542646e-02
-1.546249082962756170e-02
2.730933779673162115e-02
1.507733973146839837e-02
-5.816653283104835509e-02
6.962023001708307623e-02
-8.425121893285154873e-02
1.211486718261752145e-02
-6.544776336356865343e-02
3.076127160787466355e-02
-5.253223717258708597e-02
-8.499983217702719585e-03
-3.576606281697295581e-02
-1.192778736212492426e-02
-2.360106113934398037e-02
1.411882577821624643e-02
-2.983885015207635508e-02
-6.921123689550094486e-03
1.899631901382225346e-02
-1.008396743865238449e-02
4.002022688760969310e-03
-9.448040224766035208e-03
9.891011481569490782e-02
2.664188134459795701e-02
-2.529174691783019069e-02
-3.927045539995243500e-02
-3.998844625777391720e-02
4.674822862588392993e-04
2.561188548451483193e-02
8.640948822979981070e-02
-6.117199488986970086e-03
-6.349371380856914070e-03
2.990032278580971332e-03
5.963152541154975728e-02
3.287141948044106088e-02
-2.720281941916525767e-02
-1.102734393312936566e-02
-1.177502864406710682e-02
-1.914400433251851608e-01
1.641810781758933427e-02
-1.097342044108756166e-02
1.415413112491091877e-02
1.014339380571208787e-02
1.837928770168532422e-03
1.990023193143513128e-02
3.839704464910784990e-03
2.085885878575175975e-02
2.829666106790005003e-03
-3.034297286912620781e-02
-9.639167020815003067e-03
7.306290171686282385e-03
1.298285292622764452e-02
2.835577253851715579e-02
-8.908637230697418266e-03
1.229303745208928760e-02
-2.002213471001468379e-03
-5.732550286357212567e-03
2.923713343807285078e-02
-5.392784040117024058e-02
-1.213152648618772214e-02
-4.645397358519925447e-03
1.433948445458458135e-02
1.433055448962555420e-02
-1.291220632108930691e-02
5.753764750715545037e-03
-2.038395491163941253e-02
-1.618911611299823222e-02
-5.424672675904381597e-02
-7.630136728893687631e-03
-7.681439025709586345e-03
1.951052888073054326e-01
1.198455414118661591e-02
-7.286196990522022035e-03
3.796579724432536107e-02
1.281348612374427591e-02
-1.328278526574518392e-01
-1.905181208058768019e-02
2.078401356356977120e-02
-9.128147920813844962e-03
1.615137996244004059e-01
1.143008580909171288e-03
-2.032797132206248802e-02
1.017917625713413016e-01
3.322354262230853283e-02
8.549248749986904788e-03
-1.239878469917133491e-02
4.308805398968893613e-02
5.268657209239542560e-02
3.020104811672697301e-02
-7.744832315438324871e-03
-1.388020775738924364e-02
-2.324637291908409134e-02
-2.185816729982881148e-03
-1.942880876618279309e-02
8.974377579775856192e-03
4.312595070811869880e-02
1.831210680038735522e-02
-1.866619691427383321e-02
-1.898438922787510849e-02
4.138825427219691017e-02
-4.744730808426561759e-03
1.375057584112161432e-02
-7.767337370762676880e-04
-6.753909642738413271e-04
8.635394831213281594e-03
-5.309502875593362370e-03
1.014758632036544608e-02
-9.926237371048374225e-02
-2.325087797424334538e-02
-1.897795248610535668e-02
2.011443894020624457e-02
-1.311320373696068728e-02
-8.673673387036044680e-02
-9.241718957563255579e-03
1.769868023275833480e-02
2.086411901736192915e-03
2.385999246970629470e-02
1.110544294847680587e-02
1.266723884552005928e-02
-1.556311069410284704e-03
-3.734872381498913901e-02
2.381406676889235435e-02
-5.238936557101967449e-03
-2.840000397848731466e-03
-8.132526415599378644e-04
3.739627788516607619e-03
6.481062657641615751e-03
4.419983459095113559e-02
1.773767205994038892e-02
-7.992520917398606220e-03
-2.788134862117839369e-02
-2.092959742966720924e-02
3.339994108680741786e-02
1.076112324783722388e-02
1.369097684895149818e-02
-8.436846684704627647e-03
-6.287162912558190257e-03
3.633604466272487982e-02
-3.052648138268381980e-02
1.044894490345720656e-02
-9.091950174749634239e-02
1.408585259377068688e-01
7.734839391618524365e-03
1.175179655485446024e-03
3.351852817414604363e-02
-8.429476663869169689e-03
2.040050782147153838e-02
-2.453253812728978245e-02
1.750781305437958471e-02
-2.115364293398451501e-02
2.269725668907745381e-02
1.836234310456972413e-02
-2.168138249094289476e-03
-4.746939834907738798e-03
-9.018566836759982913e-03
3.096666205750047947e-04
-5.019931384775599449e-03
3.424810281986244431e-02
8.533935107211792484e-04
1.269464647192316241e-02
-1.246405834439068272e-02
-6.791176863916542628e-02
1.524529603104200250e-02
5.398206294398311296e-03
-3.159915321688623775e-03
1.642327683133453300e-03
-3.285419678828351009e-02
-4.768532169393961684e-02
3.640191945279822039e-02
2.222563998695316345e-02
-1.112692857302521356e-02
2.638917112715561536e-02
1.590949589843164771e-02
5.427825045120109049e-02
-1.276476177145069793e-02
4.264101989524236164e-02
-7.982493094366466257e-03
2.922689576151321633e-02
-3.057129653570171690e-02
-5.831768902736090415e-02
-2.845721677794374113e-02
-1.171011009320911331e-02
-1.143172054794742293e-02
6.490899657078751279e-03
-5.481035988179686069e-02
8.138060701681786371e-03
-1.674503969188722696e-03
-1.434946592645657340e-02
1.181585759506300487e-03
1.938581285776738716e-02
-4.492891434490939306e-02
4.058124474763003670e-02
-1.884801707276195478e-03
2.367056336932225891e-02
-2.345905228608554868e-02
-4.274562862498591624e-03
5.168911185375334866e-02
-2.239303441630714764e-02
2.473458401009369367e-02
3.412895222015960295e-02
-3.920159358305460272e-03
-1.467517047354837019e-02
-3.200722783958844919e-04
9.999249044164926215e-02
1.322375516694925326e-02
-9.233544920279048926e-03
8.133330492628919675e-03
-1.271681897462484910e-02
-5.527436872086032016e-03
-2.371594806072034947e-02
-2.465502916399821970e-02
-1.314975733510601562e-02
-2.358958755624890324e-03
1.405765399285177847e-03
-7.152160152942471476e-03
-3.318168161161558303e-03
-2.146490464533807457e-02
3.051406139055829955e-02
7.614450485594986828e-02
3.488367407438661139e-02
-4.238450415632997320e-02
-8.160660974310911600e-03
-1.073425020274663098e-02
-1.340681569193073568e-02
4.737273144071960269e-03
2.894319257570901124e-02
-1.218696847829390389e-02
4.632023457774205044e-02
2.293707377305313078e-05
-2.989634610452420946e-02
-9.778189680818862722e-03
-1.637276619287711616e-03
8.151243167845574622e-02
3.945514856755691357e-03
-2.202253531868006084e-02
-2.917814258431383843e-03
1.687188900712156608e-03
-4.713462110074585591e-03
1.179329992052886855e-02
-9.195851295569837380e-03
-1.665578448088198080e-03
-1.483113187964880397e-01
-2.345524227801499065e-02
-7.840565787845560353e-03
5.777792020373979237e-02
3.011637561545022629e-02
5.592984728085201133e-03
8.509818527651054950e-04
-4.185303079037808877e-02
-1.441378233872088249e-03
2.791915953452401081e-03
7.232629201398397926e-03
-5.240377014694768548e-02
-1.331243195359957561e-03
5.253120384092983819e-02
1.678386434984522127e-02
2.411858201724492376e-03
4.200848987831941328e-03
4.559181287058132297e-03
2.098348145067273698e-02
2.974306718186517547e-03
5.697676706035499639e-03
1.440864469996455330e-02
3.281667634751065342e-03
1.131743977292527445e-02
-4.261982231430843336e-03
-2.491438693796562548e-02
4.561991486269387219e-03
3.589797347049788340e-02
7.396638328409966406e-03
1.155380120297540281e-03
2.787642437725190627e-03
9.927883672991761471e-03
-2.703227833619888804e-02
7.841166972689985956e-03
-6.556484533205826637e-02
-4.808072244440091819e-02
3.333947161797403465e-03
1.056388732506729653e-03
2.104927563916984823e-02
-3.967286470598350295e-02
3.062011314806303841e-01
1.895481692851215885e-02
1.331517145765744869e-01
2.021004372715525313e-02
-5.789567072501172404e-03
-9.934806156878093000e-03
7.600053896416668169e-03
2.078553970635791271e-03
5.665647832478072632e-02
-7.501134493415913262e-02
1.777264829148126474e-02
8.640487344604701192e-03
1.774367474566120040e-02
2.076846084071903159e-02
-5.218322393948328884e-03
-3.405886973815708957e-02
-1.420836711360616567e-02
2.081335446513366938e-04
-3.150759897831045125e-02
1.208614532927450433e-03
9.051468589192014635e-03
-2.184777307862233869e-02
1.843450881934047964e-02
-1.376631500532488625e-03
-2.493281606033611111e-02
9.641341694101333154e-03
-3.337849906421021945e-03
1.311586301002599063e-02
2.363248531730374746e-02
7.416755178832568074e-02
8.245098748779950554e-03
5.822917499677416134e-03
3.334932207205904692e-02
-3.295761439611907817e-02
-2.080945661035124485e-03
9.679124856661601439e-02
1.903449060184887395e-02
3.560416885326792187e-03
1.268566088488768881e-02
-8.232131145218952702e-04
7.845841869578046301e-02
-1.297772163441007591e-02
-5.233213029011654638e-02
9.531005910613274401e-03
-1.130826469698182138e-02
-6.213652891451458722e-03
4.546433665639313532e-02
7.213017107249032091e-03
-4.655739233821475781e-02
2.564460093298693167e-03
8.432357805416125854e-03
1.040640023292471392e-02
7.515844197143267680e-03
-7.964913444759642858e-02
5.459838444869612173e-02
9.079540603476413466e-03
1.441108339788407106e-02
8.761327199656786940e-03
-1.440557542643687225e-02
1.039599321485728221e-03
3.643258794962457581e-02
2.660036031276888369e-02
-5.783461067750803389e-03
-2.990489267339572002e-02
-1.052693986162862470e-03
4.446753823808338724e-03
9.205028235402301683e-04
-1.286143056624840242e-02
2.456427851884959018e-03
-1.628210265481880026e-01
-2.666933934689204658e-02
3.717976620332417298e-02
2.864517680808983946e-02
1.807296099357982508e-02
1.311719351262482245e-03
-5.481025339089338685e-03
-1.604794665006162302e-02
5.119974464424937449e-02
6.593567861574527698e-03
-1.039292618393291949e-02
-2.510806202051747010e-02
4.892078552129187907e-02
1.521807445985064221e-03
5.042201519632070507e-03
-1.515915172003717663e-02
1.138923748223068071e-02
3.943623480564034146e-03
-2.044007237324316564e-02
-1.035393399162866518e-01
5.469992421235753133e-02
-1.926279617414990847e-02
-4.449950782751996292e-03
-1.110626913614477795e-02
1.887898354541703294e-02
-1.204755788476215110e-02
3.026235926426317120e-03
-9.767894696383753669e-03
-5.299926992688910182e-03
3.097435096514862020e-03
1.913010153169785940e-02
9.768477132517354097e-03
-8.338933182742924721e-03
7.256547229521534068e-03
-5.609428029533897533e-03
3.079288310208989562e-02
3.158530685645539906e-04
2.750579852165167382e-03
-7.347830120542506172e-02
4.860833805901146332e-02
-2.355830686330944931e-02
-1.605241135833406288e-02
-6.055632786172259613e-02
-1.122944444125758938e-02
-1.068474056543688988e-02
-5.776322914103430850e-02
